{"train_loss": 0.2072056084871292, "train_ssl_loss": 0.19693054258823395, "train_tsk_loss": 0.01027506124228239, "test_loss": 0.5523210763931274, "test_ssl_loss": 0.540016770362854, "test_tsk_loss": 0.012304319068789482, "_timestamp": 1697569012.4423378, "_runtime": 70.20965886116028, "_step": 39, "gradients/taskmapper.out.bias": {"_type": "histogram", "values": [0.0, 0.0, 0.0, 0.0, 0.0, 0.0, 0.0, 0.0, 0.0, 0.0, 0.0, 0.0, 0.0, 0.0, 0.0, 0.0, 0.0, 0.0, 0.0, 0.0, 0.0, 0.0, 0.0, 0.0, 0.0, 0.0, 0.0, 0.0, 0.0, 0.0, 0.0, 0.0, 1.0, 0.0, 0.0, 0.0, 0.0, 0.0, 0.0, 0.0, 0.0, 0.0, 0.0, 0.0, 0.0, 0.0, 0.0, 0.0, 0.0, 0.0, 0.0, 0.0, 0.0, 0.0, 0.0, 0.0, 0.0, 0.0, 0.0, 0.0, 0.0, 0.0, 0.0, 0.0], "bins": [-0.03163108229637146, -0.03163108229637146, -0.03163108229637146, -0.03163108229637146, -0.03163108229637146, -0.03163108229637146, -0.03163108229637146, -0.03163108229637146, -0.03163108229637146, -0.03163108229637146, -0.03163108229637146, -0.03163108229637146, -0.03163108229637146, -0.03163108229637146, -0.03163108229637146, -0.03163108229637146, -0.03163108229637146, -0.03163108229637146, -0.03163108229637146, -0.03163108229637146, -0.03163108229637146, -0.03163108229637146, -0.03163108229637146, -0.03163108229637146, -0.03163108229637146, -0.03163108229637146, -0.03163108229637146, -0.03163108229637146, -0.03163108229637146, -0.03163108229637146, -0.03163108229637146, -0.03163108229637146, -0.03163108229637146, -0.03163108229637146, -0.03163108229637146, -0.03163108229637146, -0.03163108229637146, -0.03163108229637146, -0.03163108229637146, -0.03163108229637146, -0.03163108229637146, -0.03163108229637146, -0.03163108229637146, -0.03163108229637146, -0.03163108229637146, -0.03163108229637146, -0.03163108229637146, -0.03163108229637146, -0.03163108229637146, -0.03163108229637146, -0.03163108229637146, -0.03163108229637146, -0.03163108229637146, -0.03163108229637146, -0.03163108229637146, -0.03163108229637146, -0.03163108229637146, -0.03163108229637146, -0.03163108229637146, -0.03163108229637146, -0.03163108229637146, -0.03163108229637146, -0.03163108229637146, -0.03163108229637146, -0.03163108229637146]}, "gradients/taskmapper.out.weight": {"_type": "histogram", "values": [1.0, 0.0, 0.0, 0.0, 0.0, 0.0, 0.0, 0.0, 0.0, 0.0, 0.0, 0.0, 0.0, 0.0, 0.0, 1.0, 0.0, 0.0, 0.0, 0.0, 0.0, 0.0, 0.0, 1.0, 0.0, 0.0, 1.0, 0.0, 0.0, 0.0, 0.0, 0.0, 0.0, 0.0, 0.0, 0.0, 0.0, 0.0, 2.0, 0.0, 0.0, 0.0, 0.0, 0.0, 0.0, 0.0, 0.0, 0.0, 0.0, 0.0, 0.0, 1.0, 0.0, 0.0, 0.0, 1.0, 0.0, 0.0, 0.0, 0.0, 1.0, 1.0, 0.0, 6.0], "bins": [-0.01236382033675909, -0.012170636095106602, -0.011977450922131538, -0.01178426668047905, -0.011591081507503986, -0.011397897265851498, -0.011204712092876434, -0.011011527851223946, -0.010818342678248882, -0.010625158436596394, -0.01043197326362133, -0.010238789021968842, -0.010045603848993778, -0.00985241960734129, -0.009659234434366226, -0.009466050192713737, -0.009272865019738674, -0.009079680778086185, -0.008886495605111122, -0.008693311363458633, -0.00850012619048357, -0.008306941948831081, -0.008113756775856018, -0.00792057253420353, -0.007727387826889753, -0.007534203119575977, -0.007341018412262201, -0.007147833704948425, -0.006954648997634649, -0.006761464290320873, -0.006568279583007097, -0.006375094875693321, -0.006181910168379545, -0.005988725461065769, -0.005795540753751993, -0.005602356046438217, -0.005409171339124441, -0.005215986631810665, -0.005022801924496889, -0.004829617217183113, -0.004636432509869337, -0.004443247802555561, -0.004250063095241785, -0.004056878387928009, -0.003863693680614233, -0.003670508973300457, -0.003477324265986681, -0.003284139558672905, -0.0030909550841897726, -0.0028977703768759966, -0.0027045856695622206, -0.0025114009622484446, -0.0023182162549346685, -0.0021250315476208925, -0.0019318469567224383, -0.0017386622494086623, -0.0015454775420948863, -0.0013522928347811103, -0.0011591081274673343, -0.0009659234783612192, -0.0007727387710474432, -0.0005795540637336671, -0.00038636941462755203, -0.00019318470731377602, 0.0]}, "gradients/taskmapper.lins.1.bias": {"_type": "histogram", "values": [1.0, 0.0, 1.0, 0.0, 0.0, 0.0, 1.0, 0.0, 0.0, 0.0, 0.0, 0.0, 0.0, 0.0, 0.0, 0.0, 0.0, 1.0, 0.0, 0.0, 0.0, 0.0, 1.0, 0.0, 0.0, 1.0, 0.0, 0.0, 0.0, 1.0, 0.0, 0.0, 0.0, 0.0, 5.0, 0.0, 1.0, 0.0, 0.0, 0.0, 0.0, 0.0, 0.0, 0.0, 1.0, 0.0, 0.0, 0.0, 0.0, 1.0, 0.0, 0.0, 0.0, 0.0, 0.0, 0.0, 0.0, 0.0, 0.0, 0.0, 0.0, 0.0, 0.0, 1.0], "bins": [-0.009977775625884533, -0.009691587649285793, -0.009405399672687054, -0.009119212627410889, -0.008833024650812149, -0.00854683667421341, -0.00826064869761467, -0.00797446072101593, -0.007688273675739765, -0.0074020856991410255, -0.007115898188203573, -0.006829710211604834, -0.006543522700667381, -0.006257334724068642, -0.005971146747469902, -0.00568495923653245, -0.00539877125993371, -0.0051125832833349705, -0.004826395772397518, -0.0045402077957987785, -0.004254020284861326, -0.003967832308262587, -0.0036816445644944906, -0.0033954568207263947, -0.0031092690769582987, -0.0028230813331902027, -0.0025368935894221067, -0.0022507058456540108, -0.001964517869055271, -0.001678330241702497, -0.0013921423815190792, -0.0011059546377509832, -0.0008197668939828873, -0.0005335791502147913, -0.0002473913482390344, 3.879645373672247e-05, 0.00032498419750481844, 0.0006111719412729144, 0.0008973598014563322, 0.0011835475452244282, 0.0014697352889925241, 0.0017559230327606201, 0.002042110776528716, 0.002328298520296812, 0.0026144864968955517, 0.002900674007833004, 0.0031868619844317436, 0.0034730497281998396, 0.0037592374719679356, 0.004045425448566675, 0.0043316129595041275, 0.004617800936102867, 0.0049039884470403194, 0.005190176423639059, 0.005476363934576511, 0.005762551911175251, 0.006048739887773991, 0.00633492786437273, 0.006621115375310183, 0.006907303351908922, 0.0071934908628463745, 0.007479678839445114, 0.007765866816043854, 0.008052054792642593, 0.008338241837918758]}, "gradients/taskmapper.lins.1.weight": {"_type": "histogram", "values": [1.0, 0.0, 1.0, 0.0, 0.0, 0.0, 0.0, 1.0, 0.0, 0.0, 0.0, 0.0, 0.0, 0.0, 0.0, 0.0, 0.0, 0.0, 1.0, 1.0, 1.0, 3.0, 4.0, 5.0, 4.0, 6.0, 6.0, 4.0, 5.0, 3.0, 5.0, 11.0, 12.0, 11.0, 17.0, 13.0, 213.0, 11.0, 4.0, 5.0, 5.0, 5.0, 6.0, 2.0, 0.0, 3.0, 5.0, 0.0, 0.0, 3.0, 2.0, 0.0, 0.0, 2.0, 0.0, 0.0, 2.0, 0.0, 0.0, 0.0, 0.0, 0.0, 0.0, 1.0], "bins": [-0.0025376537814736366, -0.0024679650086909533, -0.00239827623590827, -0.0023285874631255865, -0.002258898690342903, -0.0021892101503908634, -0.00211952137760818, -0.0020498326048254967, -0.0019801438320428133, -0.00191045505926013, -0.0018407662864774466, -0.001771077630110085, -0.0017013888573274016, -0.0016317000845447183, -0.0015620114281773567, -0.0014923226553946733, -0.00142263388261199, -0.0013529451098293066, -0.0012832563370466232, -0.0012135676806792617, -0.0011438789078965783, -0.001074190135113895, -0.0010045014787465334, -0.00093481270596385, -0.0008651239331811666, -0.0007954351603984833, -0.0007257464458234608, -0.0006560577312484384, -0.000586368958465755, -0.0005166801856830716, -0.00044699147110804915, -0.00037730272742919624, -0.0003076139837503433, -0.0002379252400714904, -0.0001682364963926375, -9.854775271378458e-05, -2.885900903493166e-05, 4.0829734643921256e-05, 0.00011051847832277417, 0.0001802072220016271, 0.00024989596568048, 0.0003195847093593329, 0.00038927345303818583, 0.00045896219671703875, 0.0005286509403958917, 0.000598339713178575, 0.0006680284277535975, 0.00073771714232862, 0.0008074059151113033, 0.0008770946878939867, 0.0009467834024690092, 0.0010164721170440316, 0.001086160889826715, 0.0011558496626093984, 0.00122553831897676, 0.0012952270917594433, 0.0013649158645421267, 0.00143460463732481, 0.0015042934101074934, 0.001573982066474855, 0.0016436708392575383, 0.0017133596120402217, 0.0017830482684075832, 0.0018527370411902666, 0.00192242581397295]}, "gradients/taskmapper.lins.0.bias": {"_type": "histogram", "values": [1.0, 0.0, 0.0, 1.0, 0.0, 0.0, 0.0, 1.0, 0.0, 0.0, 0.0, 0.0, 1.0, 0.0, 2.0, 2.0, 0.0, 1.0, 2.0, 0.0, 0.0, 0.0, 0.0, 0.0, 0.0, 0.0, 0.0, 0.0, 2.0, 0.0, 0.0, 1.0, 1.0, 0.0, 0.0, 1.0, 0.0, 7.0, 0.0, 0.0, 0.0, 0.0, 0.0, 0.0, 0.0, 0.0, 0.0, 0.0, 0.0, 0.0, 0.0, 0.0, 0.0, 0.0, 0.0, 0.0, 0.0, 0.0, 0.0, 0.0, 0.0, 0.0, 0.0, 1.0], "bins": [-0.00758569547906518, -0.0073820920661091805, -0.007178488653153181, -0.006974885240197182, -0.00677128229290247, -0.00656767887994647, -0.006364075466990471, -0.0061604720540344715, -0.005956868641078472, -0.005753265228122473, -0.005549661815166473, -0.005346058867871761, -0.005142455454915762, -0.004938852041959763, -0.004735248629003763, -0.004531645216047764, -0.004328042268753052, -0.004124438855797052, -0.003920835442841053, -0.0037172322627156973, -0.0035136290825903416, -0.003310025669634342, -0.003106422256678343, -0.0029028188437223434, -0.0026992156635969877, -0.0024956122506409883, -0.0022920090705156326, -0.0020884056575596333, -0.0018848023610189557, -0.0016811990644782782, -0.0014775956515222788, -0.0012739923549816012, -0.0010703890584409237, -0.0008667857619002461, -0.0006631824071519077, -0.0004595790524035692, -0.0002559757558628917, -5.2372459322214127e-05, 0.00015123095363378525, 0.0003548342501744628, 0.0005584375467151403, 0.0007620408432558179, 0.0009656441980041564, 0.0011692475527524948, 0.0013728508492931724, 0.00157645414583385, 0.0017800575587898493, 0.001983660738915205, 0.0021872641518712044, 0.0023908675648272038, 0.0025944707449525595, 0.002798074157908559, 0.0030016773380339146, 0.003205280750989914, 0.0034088841639459133, 0.0036124875769019127, 0.0038160907570272684, 0.004019693937152624, 0.0042232973501086235, 0.004426900763064623, 0.004630504176020622, 0.004834107123315334, 0.005037711001932621, 0.005241313949227333, 0.0054449173621833324]}, "gradients/taskmapper.lins.0.weight": {"_type": "histogram", "values": [1.0, 0.0, 1.0, 1.0, 1.0, 2.0, 1.0, 2.0, 2.0, 1.0, 3.0, 4.0, 2.0, 6.0, 7.0, 7.0, 11.0, 8.0, 6.0, 8.0, 5.0, 13.0, 8.0, 11.0, 11.0, 12.0, 10.0, 10.0, 14.0, 15.0, 25.0, 22.0, 25.0, 33.0, 252.0, 32.0, 29.0, 17.0, 17.0, 7.0, 6.0, 12.0, 9.0, 14.0, 12.0, 12.0, 3.0, 6.0, 8.0, 9.0, 8.0, 6.0, 8.0, 3.0, 0.0, 2.0, 1.0, 0.0, 2.0, 1.0, 1.0, 2.0, 0.0, 1.0], "bins": [-0.002693379297852516, -0.002615148900076747, -0.002536918269470334, -0.002458687871694565, -0.0023804574739187956, -0.0023022270761430264, -0.0022239964455366135, -0.0021457660477608442, -0.002067535649985075, -0.0019893052522093058, -0.0019110747380182147, -0.0018328442238271236, -0.0017546138260513544, -0.0016763833118602633, -0.0015981527976691723, -0.001519922399893403, -0.0014416917692869902, -0.001363461255095899, -0.0012852308573201299, -0.0012070003431290388, -0.0011287699453532696, -0.0010505394311621785, -0.0009723089169710875, -0.0008940784609876573, -0.0008158480050042272, -0.000737617549020797, -0.0006593870930373669, -0.0005811565788462758, -0.0005029261228628457, -0.0004246956668794155, -0.0003464651817921549, -0.0002682346967048943, -0.0001900040078908205, -0.00011177353735547513, -3.354306682012975e-05, 4.468740371521562e-05, 0.000122917874250561, 0.00020114833023399115, 0.00027937881532125175, 0.00035760930040851235, 0.0004358397563919425, 0.0005140702123753726, 0.0005923006683588028, 0.0006705311825498939, 0.000748761638533324, 0.0008269920945167542, 0.0009052226087078452, 0.0009834531228989363, 0.0010616835206747055, 0.0011399140348657966, 0.0012181444326415658, 0.0012963749468326569, 0.001374605344608426, 0.0014528358587995172, 0.0015310663729906082, 0.0016092967707663774, 0.0016875272849574685, 0.0017657577991485596, 0.0018439881969243288, 0.0019222187111154199, 0.002000449225306511, 0.00207867962308228, 0.0021569100208580494, 0.0022351406514644623, 0.0023133710492402315]}, "gradients/_projector.0.bias": {"_type": "histogram", "values": [1.0, 0.0, 1.0, 0.0, 0.0, 0.0, 1.0, 0.0, 0.0, 0.0, 0.0, 0.0, 1.0, 0.0, 1.0, 0.0, 0.0, 1.0, 1.0, 1.0, 1.0, 0.0, 2.0, 1.0, 0.0, 1.0, 0.0, 3.0, 0.0, 1.0, 1.0, 0.0, 0.0, 1.0, 0.0, 1.0, 0.0, 0.0, 0.0, 0.0, 0.0, 1.0, 1.0, 2.0, 0.0, 0.0, 0.0, 0.0, 0.0, 0.0, 1.0, 0.0, 1.0, 0.0, 0.0, 0.0, 0.0, 0.0, 0.0, 0.0, 1.0, 2.0, 1.0, 2.0], "bins": [-0.10205081850290298, -0.09917198121547699, -0.0962931364774704, -0.0934142991900444, -0.09053546190261841, -0.08765661716461182, -0.08477777987718582, -0.08189894258975983, -0.07902009785175323, -0.07614126056432724, -0.07326241582632065, -0.07038357853889465, -0.06750473380088806, -0.06462589651346207, -0.06174705922603607, -0.05886821821331978, -0.055989377200603485, -0.05311053618788719, -0.0502316951751709, -0.047352857887744904, -0.04447401687502861, -0.04159517586231232, -0.03871633857488632, -0.03583749756217003, -0.032958656549453735, -0.030079815536737442, -0.027200976386666298, -0.024322137236595154, -0.02144329622387886, -0.018564455211162567, -0.015685616061091423, -0.012806776911020279, -0.009927928447723389, -0.00704908836632967, -0.004170248284935951, -0.0012914082035422325, 0.0015874318778514862, 0.004466271959245205, 0.007345112040638924, 0.010223951190710068, 0.013102792203426361, 0.015981633216142654, 0.0188604723662138, 0.021739311516284943, 0.024618152529001236, 0.02749699354171753, 0.030375832691788673, 0.03325467184185982, 0.03613351285457611, 0.039012353867292404, 0.0418911948800087, 0.04477003216743469, 0.047648873180150986, 0.05052771419286728, 0.053406551480293274, 0.05628539249300957, 0.05916423350572586, 0.062043074518442154, 0.06492191553115845, 0.06780075281858444, 0.07067959010601044, 0.07355843484401703, 0.07643727213144302, 0.07931610941886902, 0.08219495415687561]}, "gradients/_projector.0.weight": {"_type": "histogram", "values": [1.0, 0.0, 3.0, 1.0, 1.0, 0.0, 2.0, 8.0, 7.0, 6.0, 8.0, 14.0, 20.0, 27.0, 19.0, 27.0, 48.0, 58.0, 75.0, 91.0, 110.0, 126.0, 168.0, 181.0, 216.0, 314.0, 341.0, 357.0, 401.0, 405.0, 409.0, 437.0, 427.0, 469.0, 442.0, 415.0, 378.0, 328.0, 292.0, 282.0, 228.0, 213.0, 178.0, 141.0, 97.0, 103.0, 68.0, 65.0, 38.0, 36.0, 23.0, 23.0, 22.0, 7.0, 10.0, 6.0, 8.0, 3.0, 4.0, 0.0, 2.0, 0.0, 2.0, 1.0], "bins": [-0.02538803592324257, -0.024605287238955498, -0.023822540417313576, -0.023039791733026505, -0.022257044911384583, -0.02147429622709751, -0.02069154754281044, -0.019908800721168518, -0.019126053899526596, -0.018343305215239525, -0.017560558393597603, -0.01677780970931053, -0.01599506288766861, -0.015212314203381538, -0.014429566450417042, -0.013646818697452545, -0.012864070013165474, -0.012081322260200977, -0.01129857450723648, -0.01051582582294941, -0.009733079001307487, -0.008950330317020416, -0.00816758256405592, -0.007384834811091423, -0.006602087058126926, -0.00581933930516243, -0.005036591552197933, -0.004253843333572149, -0.0034710955806076527, -0.002688347827643156, -0.0019055996090173721, -0.0011228518560528755, -0.0003401022404432297, 0.00044264562893658876, 0.0012253934983164072, 0.0020081414841115475, 0.002790889237076044, 0.0035736369900405407, 0.004356385208666325, 0.005139132961630821, 0.005921880714595318, 0.0067046284675598145, 0.007487376220524311, 0.008270123973488808, 0.009052872657775879, 0.009835619479417801, 0.010618368163704872, 0.011401115916669369, 0.012183863669633865, 0.012966611422598362, 0.013749359175562859, 0.01453210785984993, 0.015314854681491852, 0.016097603365778923, 0.016880352050065994, 0.017663098871707916, 0.018445845693349838, 0.01922859437763691, 0.02001134119927883, 0.020794089883565903, 0.021576836705207825, 0.022359585389494896, 0.023142334073781967, 0.02392508089542389, 0.02470782957971096]}, "gradients/_encoder.encoder.4.bias": {"_type": "histogram", "values": [2.0, 0.0, 0.0, 0.0, 0.0, 0.0, 0.0, 1.0, 0.0, 0.0, 1.0, 0.0, 1.0, 4.0, 2.0, 1.0, 3.0, 3.0, 2.0, 1.0, 3.0, 5.0, 5.0, 1.0, 3.0, 5.0, 7.0, 4.0, 8.0, 8.0, 6.0, 8.0, 16.0, 8.0, 9.0, 15.0, 8.0, 9.0, 7.0, 10.0, 10.0, 8.0, 10.0, 4.0, 2.0, 10.0, 6.0, 5.0, 2.0, 7.0, 5.0, 5.0, 2.0, 3.0, 0.0, 1.0, 3.0, 2.0, 1.0, 1.0, 1.0, 1.0, 0.0, 1.0], "bins": [-0.05556614696979523, -0.05400581285357475, -0.05244547501206398, -0.050885140895843506, -0.04932480677962303, -0.04776446893811226, -0.046204134821891785, -0.04464379698038101, -0.04308346286416054, -0.041523128747940063, -0.03996279090642929, -0.038402456790208817, -0.03684212267398834, -0.03528178483247757, -0.033721450716257095, -0.03216111660003662, -0.030600780621170998, -0.029040444642305374, -0.0274801105260849, -0.025919774547219276, -0.024359438568353653, -0.02279910445213318, -0.021238768473267555, -0.019678432494401932, -0.018118098378181458, -0.016557762399315834, -0.014997427351772785, -0.013437092304229736, -0.011876756325364113, -0.010316421277821064, -0.008756086230278015, -0.007195750251412392, -0.005635414272546768, -0.004075078759342432, -0.0025147434789687395, -0.000954408198595047, 0.0006059273146092892, 0.0021662628278136253, 0.003726597875356674, 0.005286933854222298, 0.0068472689017653465, 0.008407603949308395, 0.009967939928174019, 0.011528274975717068, 0.013088610023260117, 0.01464894600212574, 0.016209281980991364, 0.017769616097211838, 0.01932995207607746, 0.020890288054943085, 0.02245062217116356, 0.024010958150029182, 0.025571294128894806, 0.02713162824511528, 0.028691964223980904, 0.030252300202846527, 0.031812634319067, 0.033372968435287476, 0.03493330627679825, 0.03649364039301872, 0.0380539745092392, 0.03961431235074997, 0.041174646466970444, 0.04273498058319092, 0.04429531842470169]}, "gradients/_encoder.encoder.4.weight": {"_type": "histogram", "values": [2.0, 0.0, 0.0, 1.0, 0.0, 0.0, 2.0, 2.0, 5.0, 1.0, 1.0, 5.0, 11.0, 15.0, 16.0, 27.0, 24.0, 32.0, 40.0, 61.0, 63.0, 90.0, 118.0, 191.0, 231.0, 310.0, 369.0, 497.0, 674.0, 988.0, 1351.0, 1811.0, 2481.0, 3422.0, 4689.0, 6014.0, 7264.0, 7400.0, 6573.0, 5383.0, 4223.0, 3041.0, 2243.0, 1603.0, 1149.0, 844.0, 586.0, 406.0, 346.0, 261.0, 172.0, 148.0, 100.0, 78.0, 56.0, 43.0, 25.0, 22.0, 15.0, 4.0, 0.0, 1.0, 2.0, 4.0], "bins": [-0.02710675075650215, -0.026377122849225998, -0.025647496804594994, -0.02491786889731884, -0.024188242852687836, -0.023458614945411682, -0.02272898703813553, -0.021999359130859375, -0.02126973308622837, -0.020540105178952217, -0.019810479134321213, -0.01908085122704506, -0.018351223319768906, -0.0176215972751379, -0.016891969367861748, -0.016162343323230743, -0.01543271541595459, -0.014703088440001011, -0.013973461464047432, -0.013243833556771278, -0.0125142065808177, -0.01178457960486412, -0.011054951697587967, -0.010325324721634388, -0.009595697745680809, -0.00886607076972723, -0.008136443793773651, -0.0074068158864974976, -0.006677188910543919, -0.00594756193459034, -0.005217934492975473, -0.004488307051360607, -0.0037586819380521774, -0.003029054729267955, -0.0022994275204837322, -0.0015698003116995096, -0.000840173102915287, -0.00011054589413106441, 0.0006190813146531582, 0.0013487087562680244, 0.0020783357322216034, 0.002807962941005826, 0.0035375901497900486, 0.004267217591404915, 0.004996844567358494, 0.005726471543312073, 0.006456098984926939, 0.007185726426541805, 0.007915353402495384, 0.008644980378448963, 0.009374607354402542, 0.010104235261678696, 0.010833862237632275, 0.011563489213585854, 0.012293117120862007, 0.013022744096815586, 0.013752371072769165, 0.014481998048722744, 0.015211625024676323, 0.015941252931952477, 0.01667087897658348, 0.017400506883859634, 0.018130134791135788, 0.01885976269841194, 0.019589388743042946]}, "gradients/_encoder.encoder.1.weight": {"_type": "histogram", "values": [2.0, 0.0, 0.0, 0.0, 0.0, 0.0, 5.0, 0.0, 1.0, 0.0, 1.0, 2.0, 2.0, 5.0, 4.0, 9.0, 8.0, 7.0, 9.0, 8.0, 12.0, 18.0, 19.0, 14.0, 18.0, 22.0, 17.0, 8.0, 10.0, 5.0, 3.0, 4.0, 7.0, 3.0, 2.0, 10.0, 7.0, 1.0, 1.0, 3.0, 0.0, 1.0, 0.0, 1.0, 4.0, 1.0, 0.0, 0.0, 0.0, 0.0, 0.0, 0.0, 0.0, 0.0, 0.0, 0.0, 1.0, 0.0, 0.0, 0.0, 0.0, 0.0, 0.0, 1.0], "bins": [-0.014020862989127636, -0.013434537686407566, -0.012848212383687496, -0.012261887080967426, -0.011675561778247356, -0.011089236475527287, -0.010502910241484642, -0.009916584938764572, -0.009330259636044502, -0.008743934333324432, -0.008157609030604362, -0.007571283727884293, -0.006984958425164223, -0.006398633122444153, -0.005812307354062796, -0.005225982051342726, -0.004639657214283943, -0.004053331911563873, -0.0034670066088438034, -0.00288068107329309, -0.00229435577057302, -0.00170803046785295, -0.0011217049323022366, -0.0005353796295821667, 5.0945673137903214e-05, 0.000637271034065634, 0.0012235963949933648, 0.0018099218141287565, 0.0023962471168488264, 0.0029825724195688963, 0.00356889795511961, 0.00415522325783968, 0.004741547629237175, 0.005327872931957245, 0.005914198234677315, 0.006500523537397385, 0.0070868488401174545, 0.007673174142837524, 0.008259499445557594, 0.008845824748277664, 0.009432150050997734, 0.010018475353717804, 0.010604800656437874, 0.011191125959157944, 0.011777451261878014, 0.012363776564598083, 0.012950101867318153, 0.013536427170038223, 0.014122753404080868, 0.014709078706800938, 0.015295404009521008, 0.015881730243563652, 0.016468055546283722, 0.017054380849003792, 0.01764070615172386, 0.01822703145444393, 0.018813356757164, 0.01939968205988407, 0.01998600736260414, 0.02057233266532421, 0.02115865796804428, 0.02174498327076435, 0.02233130857348442, 0.02291763387620449, 0.02350395917892456]}, "gradients/_encoder.encoder.1.bias": {"_type": "histogram", "values": [1.0, 0.0, 0.0, 1.0, 0.0, 3.0, 3.0, 3.0, 7.0, 3.0, 7.0, 12.0, 13.0, 26.0, 38.0, 32.0, 26.0, 14.0, 16.0, 10.0, 5.0, 11.0, 5.0, 3.0, 3.0, 2.0, 1.0, 0.0, 1.0, 5.0, 1.0, 1.0, 0.0, 0.0, 0.0, 0.0, 1.0, 0.0, 0.0, 0.0, 0.0, 0.0, 0.0, 0.0, 0.0, 0.0, 0.0, 0.0, 0.0, 1.0, 0.0, 0.0, 0.0, 0.0, 0.0, 0.0, 0.0, 0.0, 0.0, 0.0, 0.0, 0.0, 0.0, 1.0], "bins": [-0.03234734758734703, -0.030193381011486053, -0.028039412572979927, -0.02588544599711895, -0.023731477558612823, -0.021577510982751846, -0.01942354440689087, -0.017269577831029892, -0.015115609392523766, -0.012961641885340214, -0.010807674378156662, -0.008653707802295685, -0.006499740295112133, -0.004345772787928581, -0.002191806212067604, -3.7838704884052277e-05, 0.0021161288022994995, 0.004270096309483051, 0.006424063351005316, 0.00857803039252758, 0.010731997899711132, 0.012885965406894684, 0.015039931982755661, 0.017193898558616638, 0.019347866997122765, 0.021501833572983742, 0.023655802011489868, 0.025809768587350845, 0.027963735163211823, 0.03011770360171795, 0.03227166831493378, 0.03442563861608505, 0.03657960891723633, 0.038733575493097305, 0.04088754206895828, 0.04304151237010956, 0.045195478945970535, 0.04734944552183151, 0.04950341209769249, 0.05165737867355347, 0.05381134897470474, 0.05596531555056572, 0.0581192821264267, 0.06027325242757797, 0.06242721900343895, 0.06458118557929993, 0.0667351484298706, 0.06888911873102188, 0.07104308903217316, 0.07319705933332443, 0.07535102218389511, 0.07750499248504639, 0.07965895533561707, 0.08181292563676834, 0.08396689593791962, 0.0861208587884903, 0.08827482163906097, 0.09042879194021225, 0.09258275479078293, 0.0947367250919342, 0.09689068794250488, 0.09904465824365616, 0.10119862854480743, 0.10335259139537811, 0.10550656169652939]}, "gradients/_encoder.encoder.0.bias": {"_type": "histogram", "values": [1.0, 0.0, 0.0, 0.0, 1.0, 0.0, 2.0, 0.0, 1.0, 0.0, 2.0, 0.0, 1.0, 1.0, 1.0, 3.0, 2.0, 1.0, 3.0, 4.0, 4.0, 2.0, 4.0, 8.0, 5.0, 8.0, 7.0, 18.0, 15.0, 9.0, 18.0, 14.0, 14.0, 21.0, 9.0, 5.0, 12.0, 14.0, 13.0, 4.0, 3.0, 4.0, 1.0, 5.0, 2.0, 3.0, 2.0, 1.0, 4.0, 0.0, 0.0, 0.0, 0.0, 1.0, 1.0, 0.0, 0.0, 1.0, 0.0, 0.0, 0.0, 0.0, 0.0, 1.0], "bins": [-4.3958425521850586e-07, -4.257308319211006e-07, -4.118774086236954e-07, -3.9802398532629013e-07, -3.841705620288849e-07, -3.7031713873147964e-07, -3.564637154340744e-07, -3.4261029213666916e-07, -3.287568688392639e-07, -3.1490344554185867e-07, -3.0105002224445343e-07, -2.871965989470482e-07, -2.7334317564964294e-07, -2.594897523522377e-07, -2.4563632905483246e-07, -2.3178290575742722e-07, -2.1792948246002197e-07, -2.0407605916261673e-07, -1.902226358652115e-07, -1.7636921256780624e-07, -1.62515789270401e-07, -1.4866236597299576e-07, -1.3480894267559052e-07, -1.2095551937818527e-07, -1.0710209608078003e-07, -9.324867278337479e-08, -7.939524948596954e-08, -6.55418261885643e-08, -5.168840289115906e-08, -3.7834979593753815e-08, -2.3981556296348572e-08, -1.0128132998943329e-08, 3.725290298461914e-09, 1.7578713595867157e-08, 3.14321368932724e-08, 4.528556019067764e-08, 5.9138983488082886e-08, 7.299240678548813e-08, 8.684583008289337e-08, 1.0069925338029861e-07, 1.1455267667770386e-07, 1.284060999751091e-07, 1.4225952327251434e-07, 1.5611294656991959e-07, 1.6996636986732483e-07, 1.8381979316473007e-07, 1.9767321646213531e-07, 2.1152663975954056e-07, 2.253800630569458e-07, 2.3923348635435104e-07, 2.530869096517563e-07, 2.6694033294916153e-07, 2.8079375624656677e-07, 2.94647179543972e-07, 3.0850060284137726e-07, 3.223540261387825e-07, 3.3620744943618774e-07, 3.50060872733593e-07, 3.6391429603099823e-07, 3.7776771932840347e-07, 3.916211426258087e-07, 4.0547456592321396e-07, 4.193279892206192e-07, 4.3318141251802444e-07, 4.470348358154297e-07]}, "gradients/_encoder.encoder.0.weight": {"_type": "histogram", "values": [1.0, 0.0, 0.0, 0.0, 1.0, 0.0, 0.0, 0.0, 0.0, 0.0, 0.0, 0.0, 1.0, 4.0, 0.0, 1.0, 4.0, 9.0, 8.0, 13.0, 25.0, 34.0, 51.0, 64.0, 111.0, 186.0, 278.0, 549.0, 1085.0, 2228.0, 4977.0, 13025.0, 42391.0, 102841.0, 37110.0, 11295.0, 4104.0, 1787.0, 901.0, 466.0, 228.0, 162.0, 103.0, 51.0, 47.0, 31.0, 18.0, 13.0, 9.0, 9.0, 9.0, 6.0, 5.0, 3.0, 3.0, 2.0, 1.0, 1.0, 3.0, 0.0, 1.0, 0.0, 0.0, 1.0], "bins": [-0.15351346135139465, -0.1489272266626358, -0.14434099197387695, -0.1397547572851181, -0.13516852259635925, -0.1305823028087616, -0.12599606812000275, -0.1214098334312439, -0.11682359874248505, -0.1122373640537262, -0.10765112936496735, -0.10306490212678909, -0.09847866743803024, -0.09389243274927139, -0.08930620551109314, -0.08471997082233429, -0.08013373613357544, -0.07554750144481659, -0.07096126675605774, -0.06637503951787949, -0.061788804829120636, -0.057202570140361786, -0.052616339176893234, -0.04803010821342468, -0.04344387352466583, -0.03885763883590698, -0.03427140787243843, -0.02968517504632473, -0.02509894222021103, -0.020512709394097328, -0.015926476567983627, -0.011340245604515076, -0.006754025816917419, -0.0021677929908037186, 0.0024184398353099823, 0.007004672661423683, 0.011590905487537384, 0.016177138313651085, 0.020763371139764786, 0.025349602103233337, 0.029935836791992188, 0.03452207148075104, 0.03910830244421959, 0.04369453340768814, 0.04828076809644699, 0.05286700278520584, 0.05745323374867439, 0.062039464712142944, 0.0666256994009018, 0.07121193408966064, 0.0757981687784195, 0.08038439601659775, 0.0849706307053566, 0.08955686539411545, 0.0941430926322937, 0.09872932732105255, 0.1033155620098114, 0.10790179669857025, 0.1124880313873291, 0.11707425862550735, 0.1216604933142662, 0.12624672055244446, 0.1308329552412033, 0.13541918992996216, 0.140005424618721]}, "_wandb": {"runtime": 72}}