{"train_loss": 0.1429879516363144, "train_ssl_loss": 0.1341218799352646, "train_tsk_loss": 0.008866077288985252, "test_loss": 0.4840866029262543, "test_ssl_loss": 0.47327589988708496, "test_tsk_loss": 0.01081068068742752, "_timestamp": 1697561793.3214543, "_runtime": 111.15902733802795, "_step": 49, "gradients/graph_2taskmapper.out.bias": {"_type": "histogram", "values": [0.0, 0.0, 0.0, 0.0, 0.0, 0.0, 0.0, 0.0, 0.0, 0.0, 0.0, 0.0, 0.0, 0.0, 0.0, 0.0, 0.0, 0.0, 0.0, 0.0, 0.0, 0.0, 0.0, 0.0, 0.0, 0.0, 0.0, 0.0, 0.0, 0.0, 0.0, 0.0, 1.0, 0.0, 0.0, 0.0, 0.0, 0.0, 0.0, 0.0, 0.0, 0.0, 0.0, 0.0, 0.0, 0.0, 0.0, 0.0, 0.0, 0.0, 0.0, 0.0, 0.0, 0.0, 0.0, 0.0, 0.0, 0.0, 0.0, 0.0, 0.0, 0.0, 0.0, 0.0], "bins": [-0.009374719113111496, -0.009374719113111496, -0.009374719113111496, -0.009374719113111496, -0.009374719113111496, -0.009374719113111496, -0.009374719113111496, -0.009374719113111496, -0.009374719113111496, -0.009374719113111496, -0.009374719113111496, -0.009374719113111496, -0.009374719113111496, -0.009374719113111496, -0.009374719113111496, -0.009374719113111496, -0.009374719113111496, -0.009374719113111496, -0.009374719113111496, -0.009374719113111496, -0.009374719113111496, -0.009374719113111496, -0.009374719113111496, -0.009374719113111496, -0.009374719113111496, -0.009374719113111496, -0.009374719113111496, -0.009374719113111496, -0.009374719113111496, -0.009374719113111496, -0.009374719113111496, -0.009374719113111496, -0.009374719113111496, -0.009374719113111496, -0.009374719113111496, -0.009374719113111496, -0.009374719113111496, -0.009374719113111496, -0.009374719113111496, -0.009374719113111496, -0.009374719113111496, -0.009374719113111496, -0.009374719113111496, -0.009374719113111496, -0.009374719113111496, -0.009374719113111496, -0.009374719113111496, -0.009374719113111496, -0.009374719113111496, -0.009374719113111496, -0.009374719113111496, -0.009374719113111496, -0.009374719113111496, -0.009374719113111496, -0.009374719113111496, -0.009374719113111496, -0.009374719113111496, -0.009374719113111496, -0.009374719113111496, -0.009374719113111496, -0.009374719113111496, -0.009374719113111496, -0.009374719113111496, -0.009374719113111496, -0.009374719113111496]}, "gradients/graph_2taskmapper.out.weight": {"_type": "histogram", "values": [1.0, 0.0, 0.0, 0.0, 0.0, 0.0, 1.0, 0.0, 0.0, 0.0, 0.0, 0.0, 0.0, 0.0, 0.0, 0.0, 0.0, 0.0, 0.0, 0.0, 0.0, 0.0, 0.0, 0.0, 0.0, 0.0, 0.0, 1.0, 0.0, 0.0, 2.0, 0.0, 0.0, 0.0, 0.0, 0.0, 0.0, 0.0, 0.0, 0.0, 1.0, 0.0, 0.0, 0.0, 0.0, 0.0, 0.0, 0.0, 0.0, 1.0, 0.0, 0.0, 0.0, 1.0, 0.0, 1.0, 0.0, 0.0, 0.0, 0.0, 0.0, 0.0, 0.0, 7.0], "bins": [-0.002293170429766178, -0.002257339656352997, -0.0022215088829398155, -0.002185678109526634, -0.002149847336113453, -0.0021140165627002716, -0.0020781857892870903, -0.002042355015873909, -0.0020065242424607277, -0.0019706934690475464, -0.001934862695634365, -0.0018990319222211838, -0.0018632011488080025, -0.0018273702589794993, -0.001791539485566318, -0.0017557087121531367, -0.0017198778223246336, -0.0016840470489114523, -0.001648216275498271, -0.0016123855020850897, -0.0015765547286719084, -0.0015407238388434052, -0.001504893065430224, -0.0014690622920170426, -0.0014332315186038613, -0.00139740074519068, -0.0013615699717774987, -0.0013257391983643174, -0.0012899083085358143, -0.001254077535122633, -0.0012182467617094517, -0.0011824159882962704, -0.001146585214883089, -0.0011107544414699078, -0.0010749236680567265, -0.0010390928946435452, -0.0010032621212303638, -0.0009674312896095216, -0.0009316004579886794, -0.0008957696845754981, -0.0008599389111623168, -0.0008241081377491355, -0.0007882773643359542, -0.000752446532715112, -0.0007166157593019307, -0.0006807849858887494, -0.0006449541542679071, -0.0006091233808547258, -0.0005732926074415445, -0.0005374618340283632, -0.0005016310606151819, -0.0004658002289943397, -0.0004299694555811584, -0.0003941386821679771, -0.00035830787965096533, -0.00032247707713395357, -0.00028664630372077227, -0.00025081553030759096, -0.0002149847277905792, -0.00017915393982548267, -0.00014332315186038613, -0.0001074923638952896, -7.166157593019307e-05, -3.5830773413181305e-05, 0.0]}, "gradients/graph_2taskmapper.lins.1.bias": {"_type": "histogram", "values": [1.0, 0.0, 0.0, 0.0, 0.0, 0.0, 0.0, 0.0, 0.0, 0.0, 0.0, 0.0, 0.0, 0.0, 0.0, 0.0, 0.0, 0.0, 0.0, 0.0, 0.0, 0.0, 0.0, 0.0, 0.0, 0.0, 0.0, 0.0, 0.0, 0.0, 0.0, 0.0, 0.0, 0.0, 1.0, 0.0, 0.0, 0.0, 1.0, 0.0, 0.0, 2.0, 0.0, 0.0, 0.0, 0.0, 0.0, 0.0, 0.0, 0.0, 0.0, 1.0, 0.0, 1.0, 1.0, 0.0, 1.0, 0.0, 0.0, 0.0, 0.0, 0.0, 0.0, 7.0], "bins": [-0.00569754047319293, -0.005608516279608011, -0.00551949255168438, -0.005430468358099461, -0.005341444164514542, -0.005252419970929623, -0.005163396243005991, -0.005074372049421072, -0.004985347855836153, -0.004896323662251234, -0.004807299934327602, -0.004718275740742683, -0.0046292515471577644, -0.0045402273535728455, -0.004451203625649214, -0.004362179432064295, -0.004273155238479376, -0.004184131044894457, -0.004095107316970825, -0.004006083123385906, -0.003917058929800987, -0.003828034969046712, -0.003739010775461793, -0.0036499868147075176, -0.0035609628539532423, -0.003471938893198967, -0.003382914699614048, -0.0032938907388597727, -0.0032048665452748537, -0.0031158425845205784, -0.0030268183909356594, -0.002937794430181384, -0.002848770236596465, -0.00275974627584219, -0.002670722082257271, -0.0025816981215029955, -0.0024926739279180765, -0.002403649967163801, -0.0023146257735788822, -0.002225601812824607, -0.002136577619239688, -0.0020475536584854126, -0.0019585294649004936, -0.0018695053877308965, -0.0017804813105612993, -0.0016914572333917022, -0.001602433156222105, -0.0015134091954678297, -0.0014243851182982326, -0.0013353610411286354, -0.0012463369639590383, -0.0011573128867894411, -0.001068288809619844, -0.0009792647324502468, -0.0008902407134883106, -0.0008012166363187134, -0.0007121925591491163, -0.0006231684819795191, -0.000534144404809922, -0.0004451203567441553, -0.00035609627957455814, -0.000267072202404961, -0.0001780481543391943, -8.902407716959715e-05, 0.0]}, "gradients/graph_2taskmapper.lins.1.weight": {"_type": "histogram", "values": [1.0, 0.0, 0.0, 0.0, 0.0, 0.0, 0.0, 0.0, 1.0, 0.0, 0.0, 0.0, 0.0, 0.0, 0.0, 0.0, 0.0, 0.0, 0.0, 0.0, 0.0, 0.0, 0.0, 0.0, 3.0, 2.0, 0.0, 3.0, 0.0, 3.0, 0.0, 1.0, 1.0, 0.0, 6.0, 2.0, 2.0, 6.0, 8.0, 10.0, 10.0, 13.0, 15.0, 13.0, 20.0, 20.0, 216.0, 9.0, 5.0, 1.0, 4.0, 5.0, 1.0, 1.0, 0.0, 1.0, 0.0, 0.0, 0.0, 0.0, 0.0, 0.0, 0.0, 1.0], "bins": [-0.0022096624597907066, -0.002161978976801038, -0.0021142952609807253, -0.0020666117779910564, -0.0020189282950013876, -0.001971244579181075, -0.0019235610961914062, -0.0018758776132017374, -0.0018281940137967467, -0.001780510414391756, -0.0017328269314020872, -0.0016851433319970965, -0.0016374597325921059, -0.001589776249602437, -0.0015420926501974463, -0.0014944090507924557, -0.0014467255678027868, -0.0013990419683977962, -0.0013513584854081273, -0.0013036748860031366, -0.001255991286598146, -0.0012083078036084771, -0.0011606242042034864, -0.0011129407212138176, -0.001065257005393505, -0.0010175734059885144, -0.0009698898647911847, -0.0009222063235938549, -0.0008745227823965251, -0.0008268392411991954, -0.0007791556417942047, -0.000731472100596875, -0.0006837885593995452, -0.0006361050182022154, -0.0005884214187972248, -0.000540737877599895, -0.0004930543364025652, -0.000445370766101405, -0.0003976871958002448, -0.00035000365460291505, -0.00030232008430175483, -0.0002546365140005946, -0.00020695297280326486, -0.00015926940250210464, -0.00011158584675285965, -6.390229100361466e-05, -1.6218720702454448e-05, 3.146482049487531e-05, 7.914839079603553e-05, 0.00012683194654528052, 0.0001745155022945255, 0.00022219907259568572, 0.0002698826137930155, 0.0003175661840941757, 0.0003652497543953359, 0.00041293329559266567, 0.0004606168658938259, 0.0005083004361949861, 0.0005559839773923159, 0.0006036675767973065, 0.0006513511179946363, 0.0006990346591919661, 0.0007467182585969567, 0.0007944017415866256, 0.0008420853409916162]}, "gradients/graph_2taskmapper.lins.0.bias": {"_type": "histogram", "values": [1.0, 0.0, 1.0, 0.0, 0.0, 1.0, 0.0, 0.0, 0.0, 0.0, 0.0, 0.0, 0.0, 0.0, 0.0, 0.0, 0.0, 1.0, 0.0, 0.0, 1.0, 0.0, 1.0, 1.0, 0.0, 0.0, 0.0, 0.0, 2.0, 0.0, 0.0, 0.0, 4.0, 1.0, 1.0, 0.0, 1.0, 0.0, 0.0, 1.0, 0.0, 0.0, 0.0, 1.0, 0.0, 2.0, 0.0, 0.0, 1.0, 1.0, 0.0, 0.0, 0.0, 0.0, 0.0, 0.0, 0.0, 0.0, 1.0, 0.0, 0.0, 0.0, 0.0, 1.0], "bins": [-0.0036209765821695328, -0.003511088201776147, -0.0034011995885521173, -0.0032913112081587315, -0.003181422594934702, -0.003071534214541316, -0.0029616456013172865, -0.0028517572209239006, -0.002741868607699871, -0.002631980227306485, -0.0025220916140824556, -0.0024122032336890697, -0.00230231462046504, -0.0021924262400716543, -0.0020825376268476248, -0.001972649246454239, -0.0018627607496455312, -0.0017528722528368235, -0.0016429837560281157, -0.001533095259219408, -0.0014232067624107003, -0.0013133182656019926, -0.0012034298852086067, -0.0010935412719845772, -0.0009836528915911913, -0.0008737643947824836, -0.0007638758979737759, -0.0006539874011650681, -0.0005440989043563604, -0.00043421046575531363, -0.0003243219689466059, -0.0002144334721378982, -0.00010454491712152958, 5.343572411220521e-06, 0.00011523206194397062, 0.0002251205442007631, 0.0003350090410094708, 0.0004448975087143481, 0.0005547860055230558, 0.0006646745023317635, 0.0007745629991404712, 0.0008844514959491789, 0.0009943399345502257, 0.0011042284313589334, 0.0012141169281676412, 0.0013240054249763489, 0.0014338939217850566, 0.0015437824185937643, 0.001653670915402472, 0.0017635594122111797, 0.0018734479090198874, 0.001983336405828595, 0.002093224786221981, 0.0022031133994460106, 0.0023130017798393965, 0.002422890393063426, 0.002532778773456812, 0.002642667153850198, 0.0027525557670742273, 0.0028624441474676132, 0.0029723327606916428, 0.0030822211410850286, 0.003192109754309058, 0.003301998134702444, 0.0034118867479264736]}, "gradients/graph_2taskmapper.lins.0.weight": {"_type": "histogram", "values": [1.0, 0.0, 0.0, 0.0, 1.0, 0.0, 2.0, 0.0, 1.0, 2.0, 1.0, 3.0, 1.0, 2.0, 5.0, 0.0, 7.0, 6.0, 6.0, 10.0, 12.0, 13.0, 9.0, 15.0, 17.0, 19.0, 14.0, 21.0, 36.0, 31.0, 36.0, 184.0, 46.0, 40.0, 30.0, 32.0, 27.0, 16.0, 10.0, 14.0, 10.0, 14.0, 14.0, 6.0, 8.0, 6.0, 6.0, 4.0, 3.0, 1.0, 4.0, 3.0, 2.0, 2.0, 5.0, 1.0, 3.0, 1.0, 3.0, 1.0, 0.0, 0.0, 0.0, 1.0], "bins": [-0.001942916656844318, -0.001881697797216475, -0.0018204788211733103, -0.0017592599615454674, -0.0016980411019176245, -0.0016368221258744597, -0.0015756032662466168, -0.0015143842902034521, -0.0014531654305756092, -0.0013919465709477663, -0.0013307275949046016, -0.0012695087352767587, -0.001208289759233594, -0.001147070899605751, -0.0010858520399779081, -0.0010246331803500652, -0.0009634142043069005, -0.0009021952864713967, -0.0008409763686358929, -0.00077975750900805, -0.0007185385911725461, -0.0006573196733370423, -0.0005961008137091994, -0.0005348818958736956, -0.0004736629780381918, -0.000412444060202688, -0.0003512251714710146, -0.00029000628273934126, -0.00022878736490383744, -0.00016756844706833363, -0.00010634955833666027, -4.5130669604986906e-05, 1.6088131815195084e-05, 7.730703509878367e-05, 0.00013852593838237226, 0.00019974484166596085, 0.00026096374494954944, 0.00032218266278505325, 0.0003834015515167266, 0.0004446204402484, 0.0005058393580839038, 0.0005670582759194076, 0.0006282771937549114, 0.0006894960533827543, 0.0007507149712182581, 0.000811933889053762, 0.0008731527486816049, 0.0009343716665171087, 0.0009955905843526125, 0.0010568094439804554, 0.0011180284200236201, 0.001179247279651463, 0.0012404662556946278, 0.0013016851153224707, 0.0013629039749503136, 0.0014241228345781565, 0.0014853418106213212, 0.001546560670249164, 0.0016077796462923288, 0.0016689985059201717, 0.0017302173655480146, 0.0017914363415911794, 0.0018526552012190223, 0.001913874177262187, 0.00197509303689003]}, "gradients/graph_2_projector.0.bias": {"_type": "histogram", "values": [1.0, 0.0, 0.0, 0.0, 0.0, 0.0, 0.0, 0.0, 0.0, 0.0, 0.0, 1.0, 0.0, 1.0, 0.0, 0.0, 0.0, 1.0, 1.0, 0.0, 1.0, 1.0, 0.0, 2.0, 0.0, 1.0, 1.0, 0.0, 0.0, 0.0, 3.0, 1.0, 2.0, 1.0, 1.0, 0.0, 0.0, 3.0, 2.0, 0.0, 0.0, 2.0, 1.0, 2.0, 0.0, 1.0, 1.0, 0.0, 0.0, 0.0, 0.0, 0.0, 0.0, 0.0, 0.0, 0.0, 0.0, 0.0, 0.0, 0.0, 0.0, 0.0, 0.0, 1.0], "bins": [-0.0497906431555748, -0.048133935779333115, -0.04647722840309143, -0.04482051730155945, -0.043163809925317764, -0.04150710254907608, -0.039850395172834396, -0.03819368779659271, -0.03653697669506073, -0.034880269318819046, -0.03322356194257736, -0.03156685084104538, -0.029910143464803696, -0.02825343608856201, -0.026596728712320328, -0.024940019473433495, -0.02328331209719181, -0.021626604720950127, -0.019969895482063293, -0.01831318810582161, -0.016656478866934776, -0.014999771490693092, -0.013343063183128834, -0.011686354875564575, -0.010029646568000317, -0.008372938260436058, -0.0067162299528717995, -0.005059522110968828, -0.0034028138034045696, -0.0017461059615015984, -8.939765393733978e-05, 0.0015673106536269188, 0.0032240189611911774, 0.004880727268755436, 0.0065374355763196945, 0.008194142952561378, 0.009850852191448212, 0.011507559567689896, 0.013164267875254154, 0.014820976182818413, 0.016477685421705246, 0.01813439279794693, 0.019791102036833763, 0.021447809413075447, 0.02310451865196228, 0.024761226028203964, 0.026417933404445648, 0.02807464264333248, 0.029731350019574165, 0.031388059258461, 0.03304476663470268, 0.034701474010944366, 0.03635818138718605, 0.038014888763427734, 0.03967159986495972, 0.0413283072412014, 0.042985014617443085, 0.04464172199368477, 0.04629842936992645, 0.047955140471458435, 0.04961184784770012, 0.0512685552239418, 0.05292526260018349, 0.05458196997642517, 0.05623868107795715]}, "gradients/graph_2_projector.0.weight": {"_type": "histogram", "values": [1.0, 0.0, 0.0, 0.0, 1.0, 0.0, 0.0, 1.0, 1.0, 1.0, 0.0, 1.0, 1.0, 2.0, 1.0, 2.0, 5.0, 5.0, 3.0, 7.0, 8.0, 11.0, 9.0, 16.0, 13.0, 35.0, 45.0, 39.0, 50.0, 43.0, 63.0, 70.0, 79.0, 97.0, 74.0, 123.0, 99.0, 105.0, 123.0, 100.0, 104.0, 108.0, 68.0, 87.0, 76.0, 64.0, 65.0, 50.0, 37.0, 32.0, 23.0, 16.0, 22.0, 17.0, 11.0, 7.0, 3.0, 10.0, 6.0, 0.0, 4.0, 2.0, 0.0, 2.0], "bins": [-0.03918465971946716, -0.03815605863928795, -0.037127453833818436, -0.03609885275363922, -0.03507024794816971, -0.034041646867990494, -0.03301304578781128, -0.031984440982341766, -0.030955839902162552, -0.029927236959338188, -0.028898634016513824, -0.02787003293633461, -0.026841429993510246, -0.025812827050685883, -0.024784225970506668, -0.023755623027682304, -0.02272702008485794, -0.021698417142033577, -0.020669814199209213, -0.01964121311903, -0.018612610176205635, -0.01758400723338127, -0.016555406153202057, -0.015526803210377693, -0.01449820026755333, -0.013469597324728966, -0.012440995313227177, -0.011412393301725388, -0.010383790358901024, -0.00935518741607666, -0.008326585404574871, -0.007297982927411795, -0.006269384175539017, -0.00524078169837594, -0.004212179221212864, -0.0031835767440497875, -0.002154974266886711, -0.0011263717897236347, -9.776931256055832e-05, 0.0009308331646025181, 0.0019594356417655945, 0.002988038118928671, 0.004016640596091747, 0.005045243073254824, 0.0060738455504179, 0.0071024480275809765, 0.008131050504744053, 0.009159652516245842, 0.010188255459070206, 0.01121685840189457, 0.012245460413396358, 0.013274062424898148, 0.014302665367722511, 0.015331268310546875, 0.01635986939072609, 0.017388472333550453, 0.018417075276374817, 0.01944567821919918, 0.020474281162023544, 0.02150288224220276, 0.022531485185027122, 0.023560088127851486, 0.0245886892080307, 0.025617292150855064, 0.026645895093679428]}, "gradients/graph_2_encoder.encoder.4.bias": {"_type": "histogram", "values": [1.0, 0.0, 0.0, 0.0, 0.0, 0.0, 2.0, 0.0, 0.0, 0.0, 1.0, 2.0, 0.0, 1.0, 0.0, 0.0, 1.0, 2.0, 0.0, 0.0, 0.0, 2.0, 0.0, 2.0, 0.0, 0.0, 0.0, 2.0, 1.0, 1.0, 2.0, 1.0, 1.0, 2.0, 5.0, 3.0, 0.0, 3.0, 1.0, 1.0, 1.0, 3.0, 0.0, 1.0, 2.0, 1.0, 1.0, 0.0, 1.0, 1.0, 1.0, 0.0, 2.0, 0.0, 1.0, 1.0, 2.0, 2.0, 1.0, 2.0, 1.0, 0.0, 1.0, 2.0], "bins": [-0.03013334795832634, -0.029375506564974785, -0.02861766517162323, -0.027859823778271675, -0.02710198238492012, -0.026344140991568565, -0.02558629959821701, -0.024828458204865456, -0.0240706168115139, -0.023312775418162346, -0.02255493402481079, -0.021797092631459236, -0.02103925123810768, -0.020281409844756126, -0.01952356845140457, -0.018765727058053017, -0.018007885664701462, -0.017250044271349907, -0.016492202877998352, -0.015734361484646797, -0.014976520091295242, -0.014218678697943687, -0.013460837304592133, -0.012702995911240578, -0.011945156380534172, -0.011187314987182617, -0.010429473593831062, -0.009671632200479507, -0.008913790807127953, -0.008155949413776398, -0.00739810848608613, -0.006640267092734575, -0.005882425233721733, -0.005124583840370178, -0.004366742447018623, -0.003608901286497712, -0.0028510598931461573, -0.0020932184997946024, -0.0013353773392736912, -0.0005775359459221363, 0.00018030544742941856, 0.0009381467825733125, 0.0016959881177172065, 0.0024538293946534395, 0.0032116707880049944, 0.003969511948525906, 0.0047273533418774605, 0.005485194735229015, 0.00624303612858057, 0.007000877521932125, 0.00775871891528368, 0.008516560308635235, 0.00927440170198679, 0.010032243095338345, 0.010790083557367325, 0.01154792495071888, 0.012305766344070435, 0.01306360773742199, 0.013821449130773544, 0.0145792905241251, 0.015337131917476654, 0.01609497331082821, 0.016852814704179764, 0.01761065609753132, 0.018368497490882874]}, "gradients/graph_2_encoder.encoder.4.weight": {"_type": "histogram", "values": [1.0, 0.0, 0.0, 0.0, 0.0, 1.0, 3.0, 2.0, 3.0, 3.0, 1.0, 1.0, 2.0, 7.0, 9.0, 9.0, 12.0, 15.0, 14.0, 34.0, 40.0, 57.0, 51.0, 73.0, 81.0, 89.0, 128.0, 141.0, 202.0, 245.0, 300.0, 366.0, 414.0, 541.0, 594.0, 561.0, 615.0, 540.0, 527.0, 480.0, 436.0, 377.0, 266.0, 215.0, 185.0, 143.0, 124.0, 88.0, 62.0, 38.0, 19.0, 22.0, 15.0, 8.0, 11.0, 4.0, 4.0, 5.0, 3.0, 1.0, 1.0, 0.0, 2.0, 1.0], "bins": [-0.049703650176525116, -0.04833429306745529, -0.04696493223309517, -0.045595575124025345, -0.04422621428966522, -0.0428568571805954, -0.041487500071525574, -0.04011813923716545, -0.03874878212809563, -0.0373794250190258, -0.03601006418466568, -0.034640707075595856, -0.03327134624123573, -0.03190198913216591, -0.030532630160450935, -0.029163271188735962, -0.02779391221702099, -0.026424553245306015, -0.02505519427359104, -0.023685835301876068, -0.022316478192806244, -0.02094711922109127, -0.019577760249376297, -0.018208403140306473, -0.01683904230594635, -0.015469683334231377, -0.014100325293838978, -0.012730966322124004, -0.011361608281731606, -0.009992249310016632, -0.008622890338301659, -0.00725353229790926, -0.005884174257516861, -0.004514815751463175, -0.003145457012578845, -0.0017760982736945152, -0.0004067397676408291, 0.0009626187384128571, 0.0023319777101278305, 0.0037013357505202293, 0.005070694722235203, 0.006440053228288889, 0.007809411734342575, 0.009178770706057549, 0.010548129677772522, 0.01191748771816492, 0.013286846689879894, 0.014656204730272293, 0.016025563701987267, 0.01739492267370224, 0.018764281645417213, 0.020133640617132187, 0.02150299772620201, 0.022872356697916985, 0.024241715669631958, 0.025611072778701782, 0.026980433613061905, 0.02834979258477688, 0.029719151556491852, 0.031088508665561676, 0.0324578694999218, 0.03382722660899162, 0.035196587443351746, 0.03656594455242157, 0.037935301661491394]}, "gradients/graph_2_encoder.encoder.1.weight": {"_type": "histogram", "values": [1.0, 0.0, 0.0, 0.0, 0.0, 1.0, 0.0, 0.0, 0.0, 0.0, 0.0, 1.0, 0.0, 0.0, 0.0, 0.0, 1.0, 0.0, 2.0, 0.0, 0.0, 0.0, 1.0, 0.0, 1.0, 3.0, 2.0, 4.0, 3.0, 4.0, 11.0, 5.0, 3.0, 3.0, 10.0, 9.0, 3.0, 9.0, 8.0, 7.0, 6.0, 5.0, 3.0, 4.0, 3.0, 2.0, 3.0, 1.0, 2.0, 1.0, 1.0, 1.0, 1.0, 1.0, 0.0, 0.0, 0.0, 0.0, 0.0, 0.0, 0.0, 0.0, 0.0, 2.0], "bins": [-0.023979876190423965, -0.023306315764784813, -0.02263275720179081, -0.021959196776151657, -0.021285638213157654, -0.0206120777875185, -0.01993851736187935, -0.019264958798885345, -0.018591398373246193, -0.01791783794760704, -0.017244279384613037, -0.016570718958973885, -0.015897158533334732, -0.015223599970340729, -0.014550039544701576, -0.013876480050384998, -0.01320292055606842, -0.012529361061751842, -0.011855801567435265, -0.011182241141796112, -0.010508681647479534, -0.009835122153162956, -0.009161561727523804, -0.008488002233207226, -0.007814442738890648, -0.00714088324457407, -0.006467323284596205, -0.0057937633246183395, -0.005120203830301762, -0.004446644335985184, -0.0037730843760073185, -0.0030995244160294533, -0.0024259667843580246, -0.001752407057210803, -0.0010788473300635815, -0.0004052876029163599, 0.00026827212423086166, 0.0009418318513780832, 0.0016153915785253048, 0.00228895153850317, 0.002962511032819748, 0.0036360707599669695, 0.004309630487114191, 0.004983190447092056, 0.005656749941408634, 0.006330309435725212, 0.007003869395703077, 0.0076774293556809425, 0.00835098884999752, 0.009024548344314098, 0.009698107838630676, 0.010371668264269829, 0.011045227758586407, 0.011718787252902985, 0.012392347678542137, 0.013065907172858715, 0.013739466667175293, 0.014413026161491871, 0.015086585655808449, 0.0157601460814476, 0.016433704644441605, 0.017107265070080757, 0.01778082549571991, 0.018454384058713913, 0.019127944484353065]}, "gradients/graph_2_encoder.encoder.1.bias": {"_type": "histogram", "values": [1.0, 0.0, 0.0, 0.0, 0.0, 0.0, 1.0, 0.0, 1.0, 0.0, 0.0, 0.0, 0.0, 0.0, 0.0, 0.0, 0.0, 0.0, 0.0, 0.0, 1.0, 2.0, 2.0, 1.0, 1.0, 1.0, 3.0, 0.0, 1.0, 2.0, 6.0, 6.0, 9.0, 4.0, 5.0, 5.0, 7.0, 10.0, 8.0, 6.0, 3.0, 7.0, 5.0, 5.0, 1.0, 5.0, 2.0, 2.0, 0.0, 3.0, 1.0, 1.0, 0.0, 4.0, 3.0, 0.0, 0.0, 0.0, 0.0, 0.0, 1.0, 1.0, 0.0, 1.0], "bins": [-0.030278604477643967, -0.02945563569664955, -0.028632665053009987, -0.02780969627201557, -0.026986725628376007, -0.026163756847381592, -0.025340788066387177, -0.024517817422747612, -0.023694846779108047, -0.022871877998113632, -0.022048907354474068, -0.021225938573479652, -0.020402967929840088, -0.019579999148845673, -0.018757030367851257, -0.017934059724211693, -0.017111090943217278, -0.016288122162222862, -0.015465151518583298, -0.014642182737588882, -0.013819212093949318, -0.012996243312954903, -0.012173273600637913, -0.011350303888320923, -0.010527334176003933, -0.009704364463686943, -0.008881394751369953, -0.008058425039052963, -0.007235455792397261, -0.006412486080080271, -0.005589516833424568, -0.004766547121107578, -0.003943577408790588, -0.0031206076964735985, -0.0022976382169872522, -0.001474668737500906, -0.0006516990251839161, 0.0001712706871330738, 0.0009942399337887764, 0.0018172096461057663, 0.002640179358422756, 0.003463149070739746, 0.004286118783056736, 0.005109088029712439, 0.0059320577420294285, 0.006755027454346418, 0.007577996701002121, 0.008400966413319111, 0.0092239361256361, 0.01004690583795309, 0.01086987555027008, 0.011692844331264496, 0.01251581497490406, 0.013338783755898476, 0.014161753468215466, 0.014984723180532455, 0.01580769196152687, 0.016630660742521286, 0.01745363138616085, 0.018276600167155266, 0.01909957081079483, 0.019922539591789246, 0.02074550837278366, 0.021568479016423225, 0.02239144966006279]}, "gradients/graph_2_encoder.encoder.0.bias": {"_type": "histogram", "values": [2.0, 0.0, 0.0, 0.0, 0.0, 0.0, 0.0, 0.0, 0.0, 0.0, 0.0, 0.0, 0.0, 0.0, 0.0, 0.0, 0.0, 0.0, 0.0, 0.0, 0.0, 0.0, 0.0, 0.0, 1.0, 1.0, 0.0, 1.0, 1.0, 2.0, 0.0, 1.0, 7.0, 3.0, 3.0, 3.0, 5.0, 9.0, 8.0, 8.0, 11.0, 11.0, 12.0, 6.0, 6.0, 8.0, 1.0, 2.0, 3.0, 1.0, 1.0, 2.0, 2.0, 1.0, 2.0, 0.0, 1.0, 0.0, 0.0, 0.0, 0.0, 1.0, 0.0, 2.0], "bins": [-1.2069940567016602e-06, -1.176958903670311e-06, -1.1469237506389618e-06, -1.1168885976076126e-06, -1.0868534445762634e-06, -1.0568182915449142e-06, -1.026783138513565e-06, -9.967479854822159e-07, -9.667128324508667e-07, -9.366776794195175e-07, -9.066425263881683e-07, -8.766073733568192e-07, -8.4657222032547e-07, -8.165370672941208e-07, -7.865019142627716e-07, -7.564667612314224e-07, -7.264316082000732e-07, -6.963964551687241e-07, -6.663613021373749e-07, -6.363261491060257e-07, -6.062909960746765e-07, -5.762558430433273e-07, -5.462206900119781e-07, -5.16185536980629e-07, -4.861503839492798e-07, -4.561152309179306e-07, -4.260800778865814e-07, -3.9604492485523224e-07, -3.6600977182388306e-07, -3.359746187925339e-07, -3.059394657611847e-07, -2.759043127298355e-07, -2.4586915969848633e-07, -2.1583400666713715e-07, -1.8579885363578796e-07, -1.5576370060443878e-07, -1.257285475730896e-07, -9.569339454174042e-08, -6.565824151039124e-08, -3.562308847904205e-08, -5.587935447692871e-09, 2.444721758365631e-08, 5.448237061500549e-08, 8.451752364635468e-08, 1.1455267667770386e-07, 1.4458782970905304e-07, 1.7462298274040222e-07, 2.046581357717514e-07, 2.3469328880310059e-07, 2.6472844183444977e-07, 2.9476359486579895e-07, 3.2479874789714813e-07, 3.548339009284973e-07, 3.848690539598465e-07, 4.149042069911957e-07, 4.4493936002254486e-07, 4.7497451305389404e-07, 5.050096660852432e-07, 5.350448191165924e-07, 5.650799721479416e-07, 5.951151251792908e-07, 6.2515027821064e-07, 6.551854312419891e-07, 6.852205842733383e-07, 7.152557373046875e-07]}, "gradients/graph_2_encoder.encoder.0.weight": {"_type": "histogram", "values": [1.0, 0.0, 0.0, 0.0, 2.0, 1.0, 4.0, 14.0, 2.0, 14.0, 19.0, 19.0, 31.0, 52.0, 67.0, 103.0, 155.0, 276.0, 433.0, 776.0, 1590.0, 3127.0, 7188.0, 20444.0, 40457.0, 21275.0, 8124.0, 3616.0, 1760.0, 917.0, 603.0, 360.0, 240.0, 146.0, 99.0, 58.0, 36.0, 26.0, 30.0, 17.0, 10.0, 6.0, 5.0, 3.0, 2.0, 3.0, 2.0, 1.0, 2.0, 0.0, 4.0, 2.0, 2.0, 1.0, 0.0, 0.0, 2.0, 0.0, 0.0, 0.0, 0.0, 0.0, 0.0, 1.0], "bins": [-0.13746614754199982, -0.13184034824371338, -0.12621454894542694, -0.1205887421965599, -0.11496293544769287, -0.10933713614940643, -0.10371133685112, -0.09808553010225296, -0.09245972335338593, -0.08683392405509949, -0.08120811730623245, -0.07558231800794601, -0.06995651125907898, -0.06433071196079254, -0.058704908937215805, -0.05307910591363907, -0.04745330661535263, -0.041827503591775894, -0.03620170056819916, -0.03057589940726757, -0.024950096383690834, -0.019324293360114098, -0.01369849219918251, -0.008072689175605774, -0.0024468861520290375, 0.0031789164058864117, 0.00880471896380186, 0.014430521056056023, 0.02005632407963276, 0.025682127103209496, 0.03130792826414108, 0.03693373128771782, 0.042559534311294556, 0.04818533733487129, 0.05381114035844803, 0.05943693965673447, 0.0650627464056015, 0.07068854570388794, 0.07631434500217438, 0.08194015175104141, 0.08756595849990845, 0.09319175779819489, 0.09881756454706192, 0.10444336384534836, 0.1100691705942154, 0.11569496989250183, 0.12132076919078827, 0.1269465684890747, 0.13257238268852234, 0.13819818198680878, 0.14382398128509521, 0.14944979548454285, 0.15507559478282928, 0.16070139408111572, 0.16632719337940216, 0.1719529926776886, 0.17757879197597504, 0.18320459127426147, 0.1888303905725479, 0.19445620477199554, 0.20008200407028198, 0.20570780336856842, 0.21133360266685486, 0.2169594168663025, 0.22258521616458893]}, "_wandb": {"runtime": 128}}