{"train_loss": 0.1681143343448639, "train_ssl_loss": 0.15697020292282104, "train_tsk_loss": 0.011144168674945831, "test_loss": 0.5241402387619019, "test_ssl_loss": 0.5120116472244263, "test_tsk_loss": 0.012128645554184914, "_timestamp": 1697568753.1715813, "_runtime": 613.5399613380432, "_step": 277, "gradients/graph_2taskmapper.out.bias": {"_type": "histogram", "values": [0.0, 0.0, 0.0, 0.0, 0.0, 0.0, 0.0, 0.0, 0.0, 0.0, 0.0, 0.0, 0.0, 0.0, 0.0, 0.0, 0.0, 0.0, 0.0, 0.0, 0.0, 0.0, 0.0, 0.0, 0.0, 0.0, 0.0, 0.0, 0.0, 0.0, 0.0, 1.0, 0.0, 0.0, 0.0, 0.0, 0.0, 0.0, 0.0, 0.0, 0.0, 0.0, 0.0, 0.0, 0.0, 0.0, 0.0, 0.0, 0.0, 0.0, 0.0, 0.0, 0.0, 0.0, 0.0, 0.0, 0.0, 0.0, 0.0, 0.0, 0.0, 0.0, 0.0, 0.0], "bins": [-0.12326221168041229, -0.12326221168041229, -0.12326221168041229, -0.12326221168041229, -0.12326221168041229, -0.12326221168041229, -0.12326221168041229, -0.12326221168041229, -0.12326221168041229, -0.12326221168041229, -0.12326221168041229, -0.12326221168041229, -0.12326221168041229, -0.12326221168041229, -0.12326221168041229, -0.12326221168041229, -0.12326221168041229, -0.12326221168041229, -0.12326221168041229, -0.12326221168041229, -0.12326221168041229, -0.12326221168041229, -0.12326221168041229, -0.12326221168041229, -0.12326221168041229, -0.12326221168041229, -0.12326221168041229, -0.12326221168041229, -0.12326221168041229, -0.12326221168041229, -0.12326221168041229, -0.12326221168041229, -0.12326221168041229, -0.12326221168041229, -0.12326221168041229, -0.12326221168041229, -0.12326221168041229, -0.12326221168041229, -0.12326221168041229, -0.12326221168041229, -0.12326221168041229, -0.12326221168041229, -0.12326221168041229, -0.12326221168041229, -0.12326221168041229, -0.12326221168041229, -0.12326221168041229, -0.12326221168041229, -0.12326221168041229, -0.12326221168041229, -0.12326221168041229, -0.12326221168041229, -0.12326221168041229, -0.12326221168041229, -0.12326221168041229, -0.12326221168041229, -0.12326221168041229, -0.12326221168041229, -0.12326221168041229, -0.12326221168041229, -0.12326221168041229, -0.12326221168041229, -0.12326221168041229, -0.12326221168041229, -0.12326221168041229]}, "gradients/graph_2taskmapper.out.weight": {"_type": "histogram", "values": [1.0, 1.0, 0.0, 0.0, 0.0, 1.0, 1.0, 0.0, 0.0, 0.0, 0.0, 0.0, 0.0, 0.0, 0.0, 0.0, 0.0, 0.0, 0.0, 0.0, 0.0, 0.0, 0.0, 0.0, 0.0, 1.0, 0.0, 0.0, 0.0, 0.0, 0.0, 0.0, 0.0, 0.0, 0.0, 0.0, 0.0, 0.0, 0.0, 0.0, 0.0, 1.0, 0.0, 0.0, 0.0, 0.0, 0.0, 0.0, 0.0, 0.0, 0.0, 0.0, 0.0, 0.0, 0.0, 0.0, 1.0, 0.0, 1.0, 0.0, 0.0, 1.0, 0.0, 7.0], "bins": [-0.06719046831130981, -0.06613986939191818, -0.06508927047252655, -0.06403866410255432, -0.06298806518316269, -0.06193746626377106, -0.06088686361908913, -0.059836264699697495, -0.058785662055015564, -0.05773506313562393, -0.056684460490942, -0.05563386157155037, -0.05458325892686844, -0.05353266000747681, -0.052482057362794876, -0.051431458443403244, -0.05038085952401161, -0.04933026060461998, -0.04827965795993805, -0.04722905904054642, -0.04617845639586449, -0.045127857476472855, -0.044077254831790924, -0.04302665591239929, -0.04197605699300766, -0.04092545807361603, -0.0398748554289341, -0.038824256509542465, -0.037773653864860535, -0.0367230549454689, -0.03567245230078697, -0.03462185338139534, -0.03357124701142311, -0.03252064809203148, -0.03147004544734955, -0.030419444665312767, -0.029368843883275986, -0.028318244963884354, -0.027267644181847572, -0.02621704339981079, -0.02516644261777401, -0.02411584183573723, -0.023065241053700447, -0.022014640271663666, -0.020964041352272034, -0.019913438707590103, -0.01886283978819847, -0.01781223900616169, -0.01676163822412491, -0.015711037442088127, -0.014660436660051346, -0.013609836809337139, -0.012559236027300358, -0.011508635245263577, -0.01045803539454937, -0.009407434612512589, -0.008356834761798382, -0.0073062339797616005, -0.0062556336633861065, -0.0052050333470106125, -0.004154432564973831, -0.00310383178293705, -0.002053231466561556, -0.0010026311501860619, 4.796983193955384e-05]}, "gradients/graph_2taskmapper.lins.1.bias": {"_type": "histogram", "values": [1.0, 0.0, 0.0, 1.0, 0.0, 0.0, 1.0, 0.0, 0.0, 0.0, 0.0, 0.0, 0.0, 0.0, 0.0, 0.0, 0.0, 1.0, 0.0, 0.0, 0.0, 0.0, 0.0, 0.0, 0.0, 0.0, 0.0, 0.0, 0.0, 0.0, 0.0, 0.0, 2.0, 0.0, 0.0, 0.0, 0.0, 1.0, 0.0, 0.0, 1.0, 0.0, 0.0, 0.0, 0.0, 0.0, 0.0, 0.0, 0.0, 0.0, 6.0, 1.0, 0.0, 0.0, 0.0, 0.0, 0.0, 0.0, 0.0, 0.0, 0.0, 0.0, 0.0, 1.0], "bins": [-0.03564777225255966, -0.034940578043460846, -0.03423338755965233, -0.03352619335055351, -0.032819002866744995, -0.03211180865764618, -0.03140461444854736, -0.030697423964738846, -0.02999022975564003, -0.029283037409186363, -0.028575845062732697, -0.02786865085363388, -0.027161458507180214, -0.026454266160726547, -0.02574707381427288, -0.025039881467819214, -0.024332689121365547, -0.02362549677491188, -0.022918304428458214, -0.022211112082004547, -0.02150391787290573, -0.020796725526452065, -0.020089533179998398, -0.01938234083354473, -0.018675148487091064, -0.017967956140637398, -0.01726076379418373, -0.016553569585084915, -0.01584637723863125, -0.015139184892177582, -0.014431992545723915, -0.013724800199270248, -0.013017607852816582, -0.012310415506362915, -0.011603222228586674, -0.010896029882133007, -0.010188836604356766, -0.009481644257903099, -0.008774451911449432, -0.008067259564995766, -0.007360066287219524, -0.00665287347510457, -0.005945680662989616, -0.00523848831653595, -0.004531295504420996, -0.0038241026923060417, -0.003116910345852375, -0.002409717533737421, -0.001702524721622467, -0.0009953320259228349, -0.0002881393302232027, 0.00041905324906110764, 0.0011262460611760616, 0.0018334388732910156, 0.0025406312197446823, 0.0032478240318596363, 0.00395501684397459, 0.004662209656089544, 0.005369402468204498, 0.006076594814658165, 0.006783787626773119, 0.007490980438888073, 0.00819817278534174, 0.008905366063117981, 0.009612558409571648]}, "gradients/graph_2taskmapper.lins.1.weight": {"_type": "histogram", "values": [2.0, 0.0, 0.0, 3.0, 0.0, 0.0, 3.0, 0.0, 0.0, 1.0, 1.0, 0.0, 0.0, 1.0, 0.0, 2.0, 1.0, 3.0, 1.0, 2.0, 1.0, 0.0, 0.0, 2.0, 1.0, 1.0, 2.0, 3.0, 0.0, 1.0, 0.0, 2.0, 8.0, 5.0, 1.0, 0.0, 6.0, 6.0, 5.0, 4.0, 7.0, 10.0, 9.0, 11.0, 5.0, 11.0, 11.0, 15.0, 11.0, 184.0, 22.0, 5.0, 3.0, 2.0, 1.0, 1.0, 0.0, 2.0, 0.0, 0.0, 2.0, 0.0, 1.0, 3.0], "bins": [-0.010989740490913391, -0.01076936349272728, -0.010548986494541168, -0.010328609496355057, -0.010108232498168945, -0.00988785456866026, -0.009667477570474148, -0.009447100572288036, -0.009226723574101925, -0.009006346575915813, -0.008785969577729702, -0.00856559257954359, -0.008345214650034904, -0.008124837651848793, -0.007904460653662682, -0.00768408365547657, -0.007463706657290459, -0.007243329659104347, -0.007022952660918236, -0.006802575197070837, -0.006582198198884726, -0.006361821200698614, -0.006141443736851215, -0.005921066738665104, -0.0057006897404789925, -0.005480312742292881, -0.0052599357441067696, -0.005039558280259371, -0.004819181282073259, -0.004598804283887148, -0.004378426820039749, -0.004158049821853638, -0.0039376732893288136, -0.003717296291142702, -0.003496919060125947, -0.003276541829109192, -0.0030561648309230804, -0.002835787832736969, -0.002615410601720214, -0.002395033370703459, -0.0021746563725173473, -0.001954279374331236, -0.0017339021433144808, -0.0015135250287130475, -0.0012931479141116142, -0.001072770799510181, -0.0008523936849087477, -0.0006320165703073144, -0.0004116394557058811, -0.00019126234110444784, 2.9114773496985435e-05, 0.0002494918880984187, 0.000469869002699852, 0.0006902461173012853, 0.0009106232319027185, 0.0011310003465041518, 0.001351377461105585, 0.0015717545757070184, 0.0017921316903084517, 0.0020125089213252068, 0.002232885919511318, 0.0024532629176974297, 0.0026736401487141848, 0.00289401737973094, 0.0031143943779170513]}, "gradients/graph_2taskmapper.lins.0.bias": {"_type": "histogram", "values": [1.0, 0.0, 0.0, 0.0, 0.0, 0.0, 0.0, 0.0, 1.0, 0.0, 1.0, 0.0, 0.0, 0.0, 0.0, 0.0, 0.0, 0.0, 0.0, 0.0, 2.0, 0.0, 0.0, 1.0, 0.0, 0.0, 0.0, 1.0, 1.0, 1.0, 1.0, 1.0, 0.0, 2.0, 0.0, 0.0, 0.0, 0.0, 0.0, 0.0, 0.0, 0.0, 0.0, 0.0, 1.0, 1.0, 0.0, 1.0, 0.0, 0.0, 0.0, 3.0, 0.0, 0.0, 0.0, 0.0, 0.0, 0.0, 0.0, 1.0, 0.0, 0.0, 0.0, 4.0], "bins": [-0.024380262941122055, -0.023999322205781937, -0.02361837960779667, -0.02323743887245655, -0.022856496274471283, -0.022475555539131165, -0.022094612941145897, -0.02171367220580578, -0.02133272960782051, -0.020951788872480392, -0.020570846274495125, -0.020189905539155006, -0.01980896294116974, -0.01942802220582962, -0.019047079607844353, -0.018666138872504234, -0.018285196274518967, -0.01790425553917885, -0.01752331294119358, -0.017142372205853462, -0.016761429607868195, -0.016380488872528076, -0.01599954627454281, -0.01561860553920269, -0.015237664803862572, -0.014856723137199879, -0.014475781470537186, -0.014094839803874493, -0.0137138981372118, -0.013332956470549107, -0.012952014803886414, -0.012571074068546295, -0.012190131470561028, -0.011809189803898335, -0.011428248137235641, -0.011047306470572948, -0.010666364803910255, -0.010285423137247562, -0.00990448147058487, -0.009523540735244751, -0.009142598137259483, -0.00876165647059679, -0.008380714803934097, -0.007999773137271404, -0.007618831470608711, -0.007237889803946018, -0.0068569486029446125, -0.0064760069362819195, -0.006095065735280514, -0.005714124068617821, -0.005333182401955128, -0.004952240735292435, -0.004571299068629742, -0.004190357401967049, -0.003809416200965643, -0.00342847453430295, -0.003047532867640257, -0.002666591200977564, -0.002285649534314871, -0.0019047081004828215, -0.0015237664338201284, -0.0011428247671574354, -0.000761883333325386, -0.000380941666662693, 0.0]}, "gradients/graph_2taskmapper.lins.0.weight": {"_type": "histogram", "values": [1.0, 1.0, 0.0, 2.0, 1.0, 0.0, 1.0, 3.0, 1.0, 0.0, 6.0, 5.0, 4.0, 9.0, 6.0, 4.0, 10.0, 12.0, 11.0, 18.0, 22.0, 21.0, 30.0, 25.0, 41.0, 36.0, 158.0, 54.0, 39.0, 31.0, 49.0, 23.0, 21.0, 16.0, 13.0, 17.0, 10.0, 8.0, 10.0, 4.0, 6.0, 8.0, 3.0, 6.0, 4.0, 4.0, 2.0, 5.0, 0.0, 1.0, 1.0, 1.0, 1.0, 0.0, 0.0, 0.0, 0.0, 1.0, 1.0, 0.0, 0.0, 0.0, 0.0, 1.0], "bins": [-0.005033393390476704, -0.004844512790441513, -0.0046556321904063225, -0.004466752056032419, -0.004277871455997229, -0.004088990855962038, -0.003900110488757491, -0.003711230121552944, -0.0035223495215177536, -0.003333468921482563, -0.003144588554278016, -0.002955708187073469, -0.0027668275870382786, -0.002577946987003088, -0.002389066619798541, -0.002200186252593994, -0.0020113056525588036, -0.0018224251689389348, -0.001633544685319066, -0.0014446642016991973, -0.0012557837180793285, -0.0010669032344594598, -0.000878022750839591, -0.0006891422672197223, -0.0005002617835998535, -0.00031138129997998476, -0.000122500816360116, 6.637966725975275e-05, 0.0002552601508796215, 0.00044414063449949026, 0.000633021118119359, 0.0008219016017392278, 0.0010107816196978092, 0.001199662103317678, 0.0013885425869375467, 0.0015774230705574155, 0.0017663035541772842, 0.001955184154212475, 0.0021440645214170218, 0.0023329448886215687, 0.0025218254886567593, 0.00271070608869195, 0.0028995864558964968, 0.0030884668231010437, 0.0032773474231362343, 0.003466228023171425, 0.003655108390375972, 0.0038439887575805187, 0.004032869357615709, 0.0042217499576509, 0.004410630092024803, 0.004599510692059994, 0.004788391292095184, 0.004977271892130375, 0.0051661524921655655, 0.005355032626539469, 0.005543913226574659, 0.00573279382660985, 0.005921673960983753, 0.006110554561018944, 0.006299435161054134, 0.006488315761089325, 0.0066771963611245155, 0.006866076495498419, 0.007054957095533609]}, "gradients/graph_2_projector.0.bias": {"_type": "histogram", "values": [1.0, 0.0, 0.0, 0.0, 0.0, 0.0, 0.0, 0.0, 0.0, 1.0, 0.0, 0.0, 0.0, 0.0, 0.0, 1.0, 0.0, 0.0, 0.0, 1.0, 1.0, 0.0, 1.0, 1.0, 1.0, 0.0, 0.0, 0.0, 2.0, 0.0, 4.0, 0.0, 0.0, 1.0, 0.0, 1.0, 0.0, 2.0, 0.0, 1.0, 1.0, 2.0, 2.0, 1.0, 0.0, 0.0, 1.0, 0.0, 0.0, 1.0, 0.0, 0.0, 1.0, 0.0, 0.0, 0.0, 1.0, 0.0, 1.0, 1.0, 0.0, 0.0, 0.0, 1.0], "bins": [-0.04389019310474396, -0.04263847693800926, -0.04138676077127457, -0.04013504832983017, -0.038883332163095474, -0.03763161599636078, -0.03637989982962608, -0.03512818366289139, -0.03387646749615669, -0.032624751329422, -0.0313730351626873, -0.030121320858597755, -0.02886960469186306, -0.027617890387773514, -0.02636617422103882, -0.025114458054304123, -0.023862743750214577, -0.02261102758347988, -0.021359313279390335, -0.02010759711265564, -0.018855880945920944, -0.01760416477918625, -0.016352450475096703, -0.015100734308362007, -0.013849019072949886, -0.012597303837537766, -0.01134558767080307, -0.01009387243539095, -0.008842157199978828, -0.007590441033244133, -0.006338725797832012, -0.005087009631097317, -0.003835294395685196, -0.002583578694611788, -0.0013318632263690233, -8.014775812625885e-05, 0.0011715679429471493, 0.0024232836440205574, 0.0036749988794326782, 0.004926715046167374, 0.0061784302815794945, 0.007430145982652903, 0.00868186168372631, 0.009933576919138432, 0.011185292154550552, 0.012437008321285248, 0.013688723556697369, 0.014940439723432064, 0.016192154958844185, 0.01744387112557888, 0.018695585429668427, 0.019947301596403122, 0.021199017763137817, 0.022450733929872513, 0.02370244823396206, 0.024954164400696754, 0.0262058787047863, 0.027457594871520996, 0.028709309175610542, 0.029961025342345238, 0.031212741509079933, 0.03246445581316948, 0.033716171979904175, 0.03496788814663887, 0.036219604313373566]}, "gradients/graph_2_projector.0.weight": {"_type": "histogram", "values": [1.0, 0.0, 0.0, 1.0, 1.0, 1.0, 1.0, 1.0, 2.0, 3.0, 4.0, 4.0, 10.0, 11.0, 8.0, 17.0, 27.0, 28.0, 39.0, 70.0, 90.0, 140.0, 144.0, 234.0, 267.0, 292.0, 396.0, 441.0, 496.0, 627.0, 594.0, 541.0, 580.0, 502.0, 495.0, 425.0, 346.0, 313.0, 251.0, 186.0, 160.0, 129.0, 90.0, 64.0, 45.0, 35.0, 22.0, 19.0, 8.0, 9.0, 7.0, 6.0, 3.0, 1.0, 2.0, 1.0, 0.0, 1.0, 0.0, 0.0, 0.0, 0.0, 0.0, 1.0], "bins": [-0.026586297899484634, -0.025739168748259544, -0.024892039597034454, -0.024044910445809364, -0.023197781294584274, -0.022350650280714035, -0.021503521129488945, -0.020656391978263855, -0.019809262827038765, -0.018962133675813675, -0.018115004524588585, -0.017267875373363495, -0.016420744359493256, -0.01557361613959074, -0.014726486057043076, -0.013879356905817986, -0.013032227754592896, -0.012185098603367805, -0.011337969452142715, -0.01049083936959505, -0.00964371021836996, -0.00879658106714487, -0.007949450984597206, -0.007102321833372116, -0.006255192682147026, -0.005408063530921936, -0.004560933914035559, -0.003713804529979825, -0.0028666751459240913, -0.0020195459946990013, -0.001172416377812624, -0.00032528676092624664, 0.0005218405276536942, 0.0013689699117094278, 0.0022160992957651615, 0.003063228679820895, 0.003910358063876629, 0.004757487215101719, 0.005604616831988096, 0.006451746448874474, 0.007298875600099564, 0.008146004751324654, 0.008993133902549744, 0.009840263985097408, 0.010687393136322498, 0.011534522287547588, 0.012381652370095253, 0.013228781521320343, 0.014075910672545433, 0.014923039823770523, 0.015770168974995613, 0.016617298126220703, 0.017464429140090942, 0.018311556428670883, 0.019158687442541122, 0.020005816593766212, 0.020852945744991302, 0.021700074896216393, 0.022547204047441483, 0.023394333198666573, 0.024241462349891663, 0.025088593363761902, 0.025935722514986992, 0.026782851666212082, 0.027629980817437172]}, "gradients/graph_2_encoder.encoder.8.bias": {"_type": "histogram", "values": [1.0, 0.0, 1.0, 0.0, 2.0, 0.0, 3.0, 1.0, 1.0, 3.0, 2.0, 7.0, 1.0, 3.0, 2.0, 8.0, 7.0, 7.0, 14.0, 7.0, 7.0, 8.0, 10.0, 6.0, 10.0, 9.0, 17.0, 16.0, 5.0, 13.0, 2.0, 14.0, 9.0, 12.0, 3.0, 13.0, 9.0, 3.0, 4.0, 2.0, 5.0, 1.0, 0.0, 0.0, 3.0, 0.0, 0.0, 2.0, 1.0, 0.0, 0.0, 0.0, 1.0, 0.0, 0.0, 0.0, 0.0, 0.0, 0.0, 0.0, 0.0, 0.0, 0.0, 1.0], "bins": [-0.012006533332169056, -0.011533611454069614, -0.011060689575970173, -0.010587767697870731, -0.01011484581977129, -0.009641923941671848, -0.009169002063572407, -0.008696080185472965, -0.008223158307373524, -0.007750236429274082, -0.007277314551174641, -0.006804392673075199, -0.006331470794975758, -0.005858548916876316, -0.0053856270387768745, -0.004912705160677433, -0.0044397832825779915, -0.00396686140447855, -0.0034939395263791084, -0.003021017648279667, -0.0025480957701802254, -0.002075173892080784, -0.0016022520139813423, -0.0011293301358819008, -0.0006564082577824593, -0.00018348637968301773, 0.0002894354984164238, 0.0007623573765158653, 0.0012352792546153069, 0.0017082011327147484, 0.00218112301081419, 0.0026540448889136314, 0.0031269676983356476, 0.003599889576435089, 0.004072811454534531, 0.004545733332633972, 0.005018655210733414, 0.005491577088832855, 0.005964498966932297, 0.006437420845031738, 0.00691034272313118, 0.007383264601230621, 0.007856186479330063, 0.008329108357429504, 0.008802030235528946, 0.009274952113628387, 0.009747873991727829, 0.01022079586982727, 0.010693717747926712, 0.011166639626026154, 0.011639561504125595, 0.012112483382225037, 0.012585405260324478, 0.01305832713842392, 0.013531249016523361, 0.014004170894622803, 0.014477092772722244, 0.014950014650821686, 0.015422936528921127, 0.01589585840702057, 0.01636878028512001, 0.016841702163219452, 0.017314624041318893, 0.017787545919418335, 0.018260467797517776]}, "gradients/graph_2_encoder.encoder.8.weight": {"_type": "histogram", "values": [1.0, 0.0, 2.0, 1.0, 1.0, 1.0, 4.0, 4.0, 3.0, 6.0, 6.0, 20.0, 11.0, 19.0, 24.0, 36.0, 66.0, 76.0, 114.0, 215.0, 298.0, 459.0, 676.0, 1157.0, 1767.0, 2806.0, 4817.0, 7329.0, 10327.0, 11210.0, 8778.0, 5765.0, 3491.0, 2166.0, 1280.0, 784.0, 545.0, 366.0, 253.0, 165.0, 122.0, 89.0, 75.0, 55.0, 35.0, 26.0, 19.0, 8.0, 8.0, 15.0, 4.0, 13.0, 5.0, 3.0, 4.0, 1.0, 1.0, 2.0, 0.0, 0.0, 1.0, 0.0, 0.0, 1.0], "bins": [-0.021519992500543594, -0.020782019942998886, -0.020044047385454178, -0.01930607482790947, -0.01856810227036476, -0.017830129712820053, -0.017092157155275345, -0.016354184597730637, -0.015616212040185928, -0.01487823948264122, -0.014140266925096512, -0.013402294367551804, -0.012664321810007095, -0.011926349252462387, -0.011188376694917679, -0.01045040413737297, -0.009712430648505688, -0.00897445809096098, -0.008236485533416271, -0.007498512975871563, -0.006760540418326855, -0.0060225678607821465, -0.005284594837576151, -0.004546622280031443, -0.0038086497224867344, -0.003070677164942026, -0.002332704607397318, -0.001594731817021966, -0.0008567592594772577, -0.00011878670193254948, 0.0006191860884428024, 0.0013571586459875107, 0.002095131203532219, 0.002833103761076927, 0.0035710763186216354, 0.004309048876166344, 0.005047021433711052, 0.00578499399125576, 0.006522967014461756, 0.007260939572006464, 0.007998911663889885, 0.008736884221434593, 0.009474856778979301, 0.01021282933652401, 0.010950801894068718, 0.011688774451613426, 0.012426747009158134, 0.013164719566702843, 0.013902693055570126, 0.014640665613114834, 0.015378638170659542, 0.016116611659526825, 0.016854584217071533, 0.01759255677461624, 0.01833052933216095, 0.019068501889705658, 0.019806474447250366, 0.020544447004795074, 0.021282419562339783, 0.02202039211988449, 0.0227583646774292, 0.023496337234973907, 0.024234309792518616, 0.024972282350063324, 0.025710254907608032]}, "gradients/graph_2_encoder.encoder.5.weight": {"_type": "histogram", "values": [1.0, 1.0, 0.0, 3.0, 0.0, 0.0, 0.0, 2.0, 1.0, 0.0, 2.0, 1.0, 2.0, 0.0, 3.0, 3.0, 7.0, 3.0, 4.0, 8.0, 4.0, 11.0, 12.0, 16.0, 22.0, 19.0, 11.0, 16.0, 15.0, 18.0, 12.0, 9.0, 9.0, 3.0, 5.0, 4.0, 4.0, 1.0, 2.0, 2.0, 4.0, 3.0, 6.0, 1.0, 1.0, 0.0, 1.0, 0.0, 0.0, 0.0, 1.0, 1.0, 0.0, 0.0, 0.0, 0.0, 0.0, 1.0, 0.0, 0.0, 0.0, 0.0, 0.0, 1.0], "bins": [-0.008780501782894135, -0.008452566340565681, -0.008124630898237228, -0.007796694524586201, -0.007468759082257748, -0.007140823639929295, -0.006812887731939554, -0.006484951823949814, -0.006157016381621361, -0.005829080939292908, -0.005501145031303167, -0.005173209123313427, -0.004845273680984974, -0.004517338238656521, -0.0041894023306667805, -0.0038614666555076838, -0.003533530980348587, -0.0032055953051894903, -0.0028776596300303936, -0.002549723954871297, -0.0022217882797122, -0.0018938526045531034, -0.0015659169293940067, -0.00123798125423491, -0.0009100455790758133, -0.0005821099039167166, -0.00025417422875761986, 7.376144640147686e-05, 0.0004016971215605736, 0.0007296327967196703, 0.001057568471878767, 0.0013855041470378637, 0.0017134398221969604, 0.002041375497356057, 0.002369311172515154, 0.0026972468476742506, 0.0030251825228333473, 0.003353118197992444, 0.0036810538731515408, 0.004008989781141281, 0.004336925223469734, 0.004664860665798187, 0.004992796573787928, 0.005320732481777668, 0.005648667924106121, 0.005976603366434574, 0.0063045392744243145, 0.006632475182414055, 0.006960410624742508, 0.007288346067070961, 0.007616281975060701, 0.007944217883050442, 0.008272153325378895, 0.008600088767707348, 0.008928025141358376, 0.009255960583686829, 0.009583896026015282, 0.009911831468343735, 0.010239766910672188, 0.010567703284323215, 0.010895638726651669, 0.011223574168980122, 0.01155151054263115, 0.011879445984959602, 0.012207381427288055]}, "gradients/graph_2_encoder.encoder.5.bias": {"_type": "histogram", "values": [1.0, 0.0, 0.0, 0.0, 0.0, 0.0, 0.0, 0.0, 0.0, 0.0, 0.0, 0.0, 0.0, 0.0, 1.0, 0.0, 0.0, 0.0, 2.0, 1.0, 1.0, 1.0, 1.0, 1.0, 2.0, 1.0, 3.0, 1.0, 3.0, 3.0, 3.0, 2.0, 4.0, 2.0, 5.0, 6.0, 5.0, 5.0, 6.0, 9.0, 4.0, 15.0, 16.0, 12.0, 9.0, 11.0, 25.0, 10.0, 21.0, 9.0, 15.0, 4.0, 4.0, 10.0, 7.0, 3.0, 1.0, 2.0, 2.0, 2.0, 2.0, 1.0, 0.0, 2.0], "bins": [-0.023207465186715126, -0.022690607234835625, -0.022173749282956123, -0.021656891331076622, -0.02114003337919712, -0.02062317542731762, -0.020106317475438118, -0.019589461386203766, -0.019072603434324265, -0.018555745482444763, -0.018038887530565262, -0.01752202957868576, -0.01700517162680626, -0.016488313674926758, -0.015971455723047256, -0.01545459870249033, -0.014937739819288254, -0.014420881867408752, -0.013904023915529251, -0.01338716596364975, -0.012870308011770248, -0.012353450059890747, -0.01183659303933382, -0.011319735087454319, -0.010802877135574818, -0.010286019183695316, -0.009769161231815815, -0.009252303279936314, -0.008735446259379387, -0.008218588307499886, -0.007701730355620384, -0.007184872403740883, -0.006668015383183956, -0.006151157431304455, -0.0056342994794249535, -0.005117441993206739, -0.004600584041327238, -0.004083726089447737, -0.003566868370398879, -0.0030500106513500214, -0.00253315269947052, -0.0020162947475910187, -0.001499437028542161, -0.0009825791930779815, -0.00046572135761380196, 5.1136594265699387e-05, 0.0005679943133145571, 0.0010848520323634148, 0.001601709984242916, 0.0021185679361224174, 0.002635425655171275, 0.003152283374220133, 0.003669141326099634, 0.0041859992779791355, 0.0047028567641973495, 0.005219714716076851, 0.005736572667956352, 0.006253430619835854, 0.006770288571715355, 0.007287146057933569, 0.00780400400981307, 0.008320862427353859, 0.008837719447910786, 0.009354577399790287, 0.009871435351669788]}, "gradients/graph_2_encoder.encoder.4.bias": {"_type": "histogram", "values": [1.0, 1.0, 0.0, 0.0, 0.0, 0.0, 1.0, 0.0, 0.0, 0.0, 1.0, 2.0, 0.0, 1.0, 0.0, 0.0, 2.0, 0.0, 0.0, 6.0, 3.0, 2.0, 3.0, 0.0, 3.0, 4.0, 9.0, 1.0, 8.0, 4.0, 16.0, 21.0, 23.0, 23.0, 16.0, 23.0, 6.0, 21.0, 11.0, 6.0, 4.0, 5.0, 2.0, 3.0, 3.0, 6.0, 3.0, 1.0, 1.0, 2.0, 1.0, 2.0, 2.0, 0.0, 0.0, 0.0, 0.0, 1.0, 0.0, 0.0, 0.0, 0.0, 0.0, 2.0], "bins": [-4.554749466478825e-09, -4.419916876940988e-09, -4.285084287403151e-09, -4.150251697865315e-09, -4.015419108327478e-09, -3.8805865187896416e-09, -3.745753929251805e-09, -3.6109213397139683e-09, -3.4760887501761317e-09, -3.341256160638295e-09, -3.2064235711004585e-09, -3.071590981562622e-09, -2.9367583920247853e-09, -2.8019258024869487e-09, -2.667093212949112e-09, -2.5322606234112754e-09, -2.397428033873439e-09, -2.2625954443356022e-09, -2.1277628547977656e-09, -1.992930265259929e-09, -1.8580976757220924e-09, -1.7232650861842558e-09, -1.5884324966464192e-09, -1.4535999071085826e-09, -1.318767317570746e-09, -1.1839347280329093e-09, -1.0491021384950727e-09, -9.142695489572361e-10, -7.794369594193995e-10, -6.446043698815629e-10, -5.097717803437263e-10, -3.7493919080588967e-10, -2.4010660126805305e-10, -1.0527401173021644e-10, 2.955857780762017e-11, 1.6439116734545678e-10, 2.992237568832934e-10, 4.3405634642113e-10, 5.688889359589666e-10, 7.037215254968032e-10, 8.385541150346398e-10, 9.733867045724764e-10, 1.108219294110313e-09, 1.2430518836481497e-09, 1.3778844731859863e-09, 1.5127170627238229e-09, 1.6475496522616595e-09, 1.7823822417994961e-09, 1.9172148313373327e-09, 2.0520474208751693e-09, 2.186880010413006e-09, 2.3217125999508426e-09, 2.456545189488679e-09, 2.5913777790265158e-09, 2.7262103685643524e-09, 2.861042958102189e-09, 2.9958755476400256e-09, 3.1307081371778622e-09, 3.265540726715699e-09, 3.4003733162535354e-09, 3.535205905791372e-09, 3.6700384953292087e-09, 3.804871084867045e-09, 3.939703674404882e-09, 4.0745362639427185e-09]}, "gradients/graph_2_encoder.encoder.4.weight": {"_type": "histogram", "values": [1.0, 0.0, 0.0, 0.0, 0.0, 0.0, 0.0, 0.0, 0.0, 1.0, 0.0, 1.0, 1.0, 3.0, 2.0, 0.0, 4.0, 0.0, 4.0, 8.0, 8.0, 14.0, 23.0, 31.0, 41.0, 64.0, 76.0, 119.0, 207.0, 290.0, 407.0, 634.0, 909.0, 1416.0, 2095.0, 3334.0, 5422.0, 8786.0, 11655.0, 10428.0, 7381.0, 4638.0, 2722.0, 1731.0, 1126.0, 679.0, 386.0, 274.0, 165.0, 123.0, 78.0, 72.0, 47.0, 40.0, 32.0, 15.0, 13.0, 14.0, 5.0, 6.0, 0.0, 2.0, 2.0, 1.0], "bins": [-0.05359173193573952, -0.05221279338002205, -0.05083385109901428, -0.049454912543296814, -0.04807597026228905, -0.04669703170657158, -0.04531808942556381, -0.043939150869846344, -0.04256020858883858, -0.04118127003312111, -0.03980232775211334, -0.038423389196395874, -0.03704444691538811, -0.03566550835967064, -0.03428656607866287, -0.032907627522945404, -0.031528688967227936, -0.03014974854886532, -0.0287708081305027, -0.027391867712140083, -0.026012927293777466, -0.02463398687541485, -0.02325504645705223, -0.021876107901334763, -0.020497165620326996, -0.01911822520196438, -0.01773928478360176, -0.016360344365239143, -0.014981403946876526, -0.013602463528513908, -0.012223524041473866, -0.010844583623111248, -0.009465642273426056, -0.008086701855063438, -0.006707761436700821, -0.005328821483999491, -0.003949881065636873, -0.0025709406472742558, -0.0011920006945729256, 0.00018693972378969193, 0.0015658801421523094, 0.002944820560514927, 0.004323760978877544, 0.005702700931578875, 0.007081641349941492, 0.008460581302642822, 0.00983952172100544, 0.011218462139368057, 0.012597402557730675, 0.013976342976093292, 0.01535528339445591, 0.016734223812818527, 0.018113164231181145, 0.019492104649543762, 0.02087104320526123, 0.022249985486268997, 0.023628924041986465, 0.025007864460349083, 0.0263868048787117, 0.027765745297074318, 0.029144685715436935, 0.030523626133799553, 0.03190256655216217, 0.03328150510787964, 0.034660447388887405]}, "gradients/graph_2_encoder.encoder.1.weight": {"_type": "histogram", "values": [1.0, 0.0, 0.0, 0.0, 0.0, 0.0, 0.0, 0.0, 1.0, 0.0, 0.0, 1.0, 2.0, 0.0, 3.0, 2.0, 0.0, 2.0, 2.0, 1.0, 1.0, 4.0, 6.0, 7.0, 5.0, 11.0, 5.0, 10.0, 6.0, 19.0, 17.0, 18.0, 12.0, 15.0, 17.0, 14.0, 10.0, 10.0, 5.0, 9.0, 8.0, 3.0, 4.0, 5.0, 3.0, 2.0, 1.0, 2.0, 4.0, 1.0, 0.0, 1.0, 1.0, 0.0, 1.0, 1.0, 1.0, 0.0, 0.0, 0.0, 1.0, 0.0, 0.0, 1.0], "bins": [-0.009836874902248383, -0.009535742923617363, -0.009234611876308918, -0.008933480829000473, -0.008632348850369453, -0.008331216871738434, -0.008030085824429989, -0.007728954311460257, -0.007427822798490524, -0.007126691285520792, -0.00682555977255106, -0.0065244282595813274, -0.006223296746611595, -0.005922165233641863, -0.005621033720672131, -0.005319902207702398, -0.005018770694732666, -0.004717639181762934, -0.0044165076687932014, -0.004115376155823469, -0.003814244642853737, -0.0035131131298840046, -0.0032119816169142723, -0.00291085010394454, -0.0026097185909748077, -0.0023085870780050755, -0.002007455565035343, -0.0017063240520656109, -0.0014051925390958786, -0.0011040610261261463, -0.000802929513156414, -0.0005017980001866817, -0.00020066741853952408, 0.0001004640944302082, 0.0004015956073999405, 0.0007027271203696728, 0.001003858633339405, 0.0013049901463091373, 0.0016061216592788696, 0.001907253172248602, 0.002208384685218334, 0.0025095161981880665, 0.0028106477111577988, 0.003111779224127531, 0.0034129107370972633, 0.0037140422500669956, 0.004015173763036728, 0.00431630527600646, 0.0046174367889761925, 0.004918568301945925, 0.005219699814915657, 0.005520831327885389, 0.005821962840855122, 0.006123094353824854, 0.006424225866794586, 0.0067253573797643185, 0.007026488892734051, 0.007327620405703783, 0.007628751918673515, 0.007929883897304535, 0.00823101494461298, 0.008532145991921425, 0.008833277970552444, 0.009134409949183464, 0.009435540996491909]}, "gradients/graph_2_encoder.encoder.1.bias": {"_type": "histogram", "values": [1.0, 0.0, 1.0, 1.0, 0.0, 0.0, 0.0, 0.0, 0.0, 1.0, 5.0, 4.0, 3.0, 1.0, 3.0, 2.0, 3.0, 3.0, 4.0, 10.0, 6.0, 11.0, 8.0, 10.0, 6.0, 11.0, 8.0, 12.0, 9.0, 7.0, 12.0, 9.0, 10.0, 10.0, 9.0, 10.0, 12.0, 12.0, 5.0, 8.0, 4.0, 1.0, 4.0, 1.0, 2.0, 0.0, 3.0, 3.0, 5.0, 1.0, 1.0, 0.0, 0.0, 1.0, 1.0, 0.0, 0.0, 0.0, 0.0, 0.0, 1.0, 0.0, 0.0, 1.0], "bins": [-0.009623575024306774, -0.009286741726100445, -0.008949908427894115, -0.008613074198365211, -0.008276240900158882, -0.007939407601952553, -0.0076025743037462234, -0.007265740539878607, -0.00692890677601099, -0.006592073477804661, -0.006255239713937044, -0.005918406415730715, -0.005581572651863098, -0.005244739353656769, -0.0049079060554504395, -0.004571072291582823, -0.0042342389933764935, -0.0038974054623395205, -0.0035605719313025475, -0.003223738633096218, -0.0028869048692286015, -0.002550071571022272, -0.002213238039985299, -0.0018764045089483261, -0.0015395709779113531, -0.0012027374468743801, -0.000865903974045068, -0.0005290705012157559, -0.00019223697017878294, 0.00014459656085819006, 0.00048142997547984123, 0.0008182635065168142, 0.0011550970375537872, 0.0014919305685907602, 0.0018287640996277332, 0.0021655973978340626, 0.0025024311617016792, 0.0028392644599080086, 0.0031760979909449816, 0.0035129315219819546, 0.0038497650530189276, 0.004186598584055901, 0.00452343188226223, 0.004860265646129847, 0.005197098944336176, 0.005533932708203793, 0.005870766006410122, 0.006207599304616451, 0.006544433068484068, 0.006881266366690397, 0.007218100130558014, 0.007554933428764343, 0.007891766726970673, 0.008228600956499577, 0.008565434254705906, 0.008902267552912235, 0.009239100851118565, 0.009575934149324894, 0.009912767447531223, 0.010249601677060127, 0.010586434975266457, 0.010923268273472786, 0.011260101571679115, 0.011596934869885445, 0.011933769099414349]}, "gradients/graph_2_encoder.encoder.0.bias": {"_type": "histogram", "values": [1.0, 0.0, 2.0, 0.0, 1.0, 0.0, 0.0, 2.0, 1.0, 2.0, 2.0, 0.0, 8.0, 2.0, 1.0, 7.0, 2.0, 6.0, 11.0, 9.0, 13.0, 14.0, 15.0, 21.0, 17.0, 30.0, 15.0, 13.0, 14.0, 8.0, 7.0, 5.0, 4.0, 6.0, 2.0, 3.0, 6.0, 0.0, 0.0, 0.0, 1.0, 0.0, 1.0, 0.0, 1.0, 0.0, 0.0, 0.0, 1.0, 0.0, 1.0, 0.0, 0.0, 0.0, 0.0, 0.0, 0.0, 0.0, 0.0, 0.0, 0.0, 0.0, 0.0, 1.0], "bins": [-2.60770320892334e-07, -2.5043118512257934e-07, -2.400920493528247e-07, -2.2975291358307004e-07, -2.194137778133154e-07, -2.0907464204356074e-07, -1.987355062738061e-07, -1.8839637050405145e-07, -1.780572347342968e-07, -1.6771809896454215e-07, -1.573789631947875e-07, -1.4703982742503285e-07, -1.367006916552782e-07, -1.2636155588552356e-07, -1.1602242011576891e-07, -1.0568328434601426e-07, -9.534414857625961e-08, -8.500501280650496e-08, -7.466587703675032e-08, -6.432674126699567e-08, -5.398760549724102e-08, -4.364846972748637e-08, -3.3309333957731724e-08, -2.2970198187977076e-08, -1.2631062418222427e-08, -2.291926648467779e-09, 8.047209121286869e-09, 1.8386344891041517e-08, 2.8725480660796165e-08, 3.9064616430550814e-08, 4.940375220030546e-08, 5.974288797006011e-08, 7.008202373981476e-08, 8.04211595095694e-08, 9.076029527932405e-08, 1.010994310490787e-07, 1.1143856681883335e-07, 1.21777702588588e-07, 1.3211683835834265e-07, 1.424559741280973e-07, 1.5279510989785194e-07, 1.631342456676066e-07, 1.7347338143736124e-07, 1.838125172071159e-07, 1.9415165297687054e-07, 2.0449078874662519e-07, 2.1482992451637983e-07, 2.2516906028613448e-07, 2.3550819605588913e-07, 2.458473318256438e-07, 2.561864675953984e-07, 2.665256033651531e-07, 2.768647391349077e-07, 2.8720387490466237e-07, 2.97543010674417e-07, 3.0788214644417167e-07, 3.182212822139263e-07, 3.2856041798368096e-07, 3.388995537534356e-07, 3.4923868952319026e-07, 3.595778252929449e-07, 3.6991696106269956e-07, 3.802560968324542e-07, 3.9059523260220885e-07, 4.009343683719635e-07]}, "gradients/graph_2_encoder.encoder.0.weight": {"_type": "histogram", "values": [2.0, 0.0, 0.0, 0.0, 1.0, 2.0, 1.0, 1.0, 1.0, 2.0, 1.0, 2.0, 5.0, 3.0, 4.0, 8.0, 7.0, 10.0, 9.0, 13.0, 32.0, 50.0, 81.0, 180.0, 485.0, 1946.0, 9430.0, 58071.0, 128429.0, 20634.0, 3425.0, 749.0, 257.0, 134.0, 88.0, 56.0, 37.0, 19.0, 20.0, 9.0, 11.0, 6.0, 6.0, 10.0, 0.0, 4.0, 0.0, 3.0, 2.0, 0.0, 3.0, 0.0, 0.0, 0.0, 1.0, 1.0, 1.0, 0.0, 1.0, 0.0, 1.0, 0.0, 1.0, 1.0], "bins": [-0.166958287358284, -0.16104672849178314, -0.1551351696252823, -0.14922361075878143, -0.14331205189228058, -0.13740049302577972, -0.13148893415927887, -0.12557737529277802, -0.11966581642627716, -0.1137542575597763, -0.10784269869327545, -0.1019311398267746, -0.09601958096027374, -0.09010802209377289, -0.08419646322727203, -0.07828490436077118, -0.07237334549427032, -0.06646178662776947, -0.060550227761268616, -0.05463866889476776, -0.04872711002826691, -0.04281555116176605, -0.0369039922952652, -0.030992433428764343, -0.02508087456226349, -0.019169315695762634, -0.01325775682926178, -0.007346197962760925, -0.0014346390962600708, 0.004476919770240784, 0.010388478636741638, 0.016300037503242493, 0.02221161127090454, 0.028123170137405396, 0.03403472900390625, 0.039946287870407104, 0.04585784673690796, 0.051769405603408813, 0.05768096446990967, 0.06359252333641052, 0.06950408220291138, 0.07541564106941223, 0.08132719993591309, 0.08723875880241394, 0.0931503176689148, 0.09906187653541565, 0.1049734354019165, 0.11088499426841736, 0.11679655313491821, 0.12270811200141907, 0.12861967086791992, 0.13453122973442078, 0.14044278860092163, 0.14635434746742249, 0.15226590633392334, 0.1581774652004242, 0.16408902406692505, 0.1700005829334259, 0.17591214179992676, 0.1818237006664276, 0.18773525953292847, 0.19364681839942932, 0.19955837726593018, 0.20546993613243103, 0.21138149499893188]}, "_wandb": {"runtime": 616}}