{"train_loss": 0.2685830593109131, "train_ssl_loss": 0.256329745054245, "train_tsk_loss": 0.012253268621861935, "test_loss": 0.562221348285675, "test_ssl_loss": 0.5490795969963074, "test_tsk_loss": 0.01314172800630331, "_timestamp": 1697562437.4624817, "_runtime": 106.77942562103271, "_step": 49, "gradients/taskmapper.out.bias": {"_type": "histogram", "values": [0.0, 0.0, 0.0, 0.0, 0.0, 0.0, 0.0, 0.0, 0.0, 0.0, 0.0, 0.0, 0.0, 0.0, 0.0, 0.0, 0.0, 0.0, 0.0, 0.0, 0.0, 0.0, 0.0, 0.0, 0.0, 0.0, 0.0, 0.0, 0.0, 0.0, 0.0, 0.0, 1.0, 0.0, 0.0, 0.0, 0.0, 0.0, 0.0, 0.0, 0.0, 0.0, 0.0, 0.0, 0.0, 0.0, 0.0, 0.0, 0.0, 0.0, 0.0, 0.0, 0.0, 0.0, 0.0, 0.0, 0.0, 0.0, 0.0, 0.0, 0.0, 0.0, 0.0, 0.0], "bins": [-0.044562675058841705, -0.044562675058841705, -0.044562675058841705, -0.044562675058841705, -0.044562675058841705, -0.044562675058841705, -0.044562675058841705, -0.044562675058841705, -0.044562675058841705, -0.044562675058841705, -0.044562675058841705, -0.044562675058841705, -0.044562675058841705, -0.044562675058841705, -0.044562675058841705, -0.044562675058841705, -0.044562675058841705, -0.044562675058841705, -0.044562675058841705, -0.044562675058841705, -0.044562675058841705, -0.044562675058841705, -0.044562675058841705, -0.044562675058841705, -0.044562675058841705, -0.044562675058841705, -0.044562675058841705, -0.044562675058841705, -0.044562675058841705, -0.044562675058841705, -0.044562675058841705, -0.044562675058841705, -0.044562675058841705, -0.044562675058841705, -0.044562675058841705, -0.044562675058841705, -0.044562675058841705, -0.044562675058841705, -0.044562675058841705, -0.044562675058841705, -0.044562675058841705, -0.044562675058841705, -0.044562675058841705, -0.044562675058841705, -0.044562675058841705, -0.044562675058841705, -0.044562675058841705, -0.044562675058841705, -0.044562675058841705, -0.044562675058841705, -0.044562675058841705, -0.044562675058841705, -0.044562675058841705, -0.044562675058841705, -0.044562675058841705, -0.044562675058841705, -0.044562675058841705, -0.044562675058841705, -0.044562675058841705, -0.044562675058841705, -0.044562675058841705, -0.044562675058841705, -0.044562675058841705, -0.044562675058841705, -0.044562675058841705]}, "gradients/taskmapper.out.weight": {"_type": "histogram", "values": [1.0, 0.0, 0.0, 0.0, 0.0, 0.0, 0.0, 0.0, 0.0, 0.0, 0.0, 0.0, 1.0, 0.0, 0.0, 0.0, 0.0, 0.0, 0.0, 0.0, 0.0, 0.0, 0.0, 0.0, 0.0, 0.0, 0.0, 0.0, 0.0, 0.0, 1.0, 0.0, 0.0, 0.0, 0.0, 0.0, 0.0, 1.0, 0.0, 0.0, 0.0, 0.0, 0.0, 0.0, 0.0, 0.0, 0.0, 0.0, 0.0, 0.0, 1.0, 0.0, 0.0, 0.0, 0.0, 0.0, 0.0, 0.0, 0.0, 1.0, 1.0, 1.0, 0.0, 8.0], "bins": [-0.02411375194787979, -0.023733660578727722, -0.023353569209575653, -0.022973477840423584, -0.022593384608626366, -0.022213293239474297, -0.021833201870322227, -0.02145311050117016, -0.02107301913201809, -0.02069292776286602, -0.02031283639371395, -0.019932743161916733, -0.019552651792764664, -0.019172560423612595, -0.018792469054460526, -0.018412377685308456, -0.018032286316156387, -0.017652194947004318, -0.01727210357785225, -0.01689201220870018, -0.01651191897690296, -0.016131827607750893, -0.015751736238598824, -0.015371644869446754, -0.014991551637649536, -0.014611460268497467, -0.014231367968022823, -0.013851276598870754, -0.013471185229718685, -0.013091092929244041, -0.012711001560091972, -0.012330910190939903, -0.011950818821787834, -0.011570727452635765, -0.011190635152161121, -0.010810543783009052, -0.010430452413856983, -0.01005036011338234, -0.00967026874423027, -0.009290177375078201, -0.008910085074603558, -0.008529993705451488, -0.008149901404976845, -0.007769810035824776, -0.007389718666672707, -0.00700962683185935, -0.006629534997045994, -0.006249443627893925, -0.005869351793080568, -0.005489259958267212, -0.005109168589115143, -0.004729076754301786, -0.00434898491948843, -0.003968893550336361, -0.0035888017155230045, -0.003208710113540292, -0.002828618511557579, -0.0024485269095748663, -0.0020684353075921535, -0.0016883434727787971, -0.0013082518707960844, -0.0009281602688133717, -0.0005480684340000153, -0.0001679768320173025, 0.0002121146972058341]}, "gradients/taskmapper.lins.1.bias": {"_type": "histogram", "values": [1.0, 0.0, 0.0, 0.0, 0.0, 0.0, 0.0, 0.0, 0.0, 0.0, 0.0, 1.0, 0.0, 0.0, 0.0, 0.0, 0.0, 0.0, 1.0, 0.0, 0.0, 0.0, 0.0, 0.0, 0.0, 0.0, 0.0, 0.0, 0.0, 0.0, 0.0, 0.0, 0.0, 1.0, 0.0, 0.0, 0.0, 0.0, 0.0, 0.0, 0.0, 0.0, 0.0, 0.0, 0.0, 0.0, 0.0, 1.0, 0.0, 0.0, 0.0, 1.0, 0.0, 5.0, 0.0, 2.0, 0.0, 0.0, 0.0, 1.0, 1.0, 0.0, 0.0, 1.0], "bins": [-0.014378732070326805, -0.014111143536865711, -0.013843554072082043, -0.013575965538620949, -0.013308377005159855, -0.013040788471698761, -0.012773199006915092, -0.012505610473453999, -0.012238021939992905, -0.01197043340653181, -0.011702843941748142, -0.011435255408287048, -0.011167666874825954, -0.01090007834136486, -0.010632488876581192, -0.010364900343120098, -0.010097311809659004, -0.00982972327619791, -0.009562133811414242, -0.009294545277953148, -0.009026956744492054, -0.00875936821103096, -0.008491778746247292, -0.008224190212786198, -0.00795660074800253, -0.007689011748880148, -0.007421423215419054, -0.007153834216296673, -0.006886245682835579, -0.006618656683713198, -0.0063510676845908165, -0.006083479151129723, -0.005815891083329916, -0.005548302084207535, -0.005280713550746441, -0.00501312455162406, -0.004745536018162966, -0.0044779470190405846, -0.004210358485579491, -0.0039427694864571095, -0.003675180720165372, -0.0034075919538736343, -0.0031400031875818968, -0.0028724144212901592, -0.002604825422167778, -0.002337236888706684, -0.002069647889584303, -0.0018020591232925653, -0.0015344703570008278, -0.0012668815907090902, -0.0009992928244173527, -0.0007317039417102933, -0.00046411517541855574, -0.00019652640912681818, 7.10624735802412e-05, 0.00033865123987197876, 0.0006062400061637163, 0.0008738287724554539, 0.0011414175387471914, 0.0014090064214542508, 0.0016765951877459884, 0.001944183954037726, 0.0022117728367447853, 0.002479361603036523, 0.0027469503693282604]}, "gradients/taskmapper.lins.1.weight": {"_type": "histogram", "values": [2.0, 0.0, 0.0, 0.0, 0.0, 0.0, 0.0, 0.0, 0.0, 0.0, 1.0, 1.0, 0.0, 0.0, 0.0, 0.0, 1.0, 0.0, 2.0, 1.0, 0.0, 1.0, 1.0, 1.0, 1.0, 0.0, 2.0, 1.0, 2.0, 2.0, 0.0, 4.0, 3.0, 1.0, 2.0, 2.0, 0.0, 1.0, 3.0, 2.0, 2.0, 2.0, 2.0, 2.0, 1.0, 4.0, 2.0, 7.0, 11.0, 9.0, 13.0, 46.0, 192.0, 15.0, 12.0, 11.0, 6.0, 4.0, 1.0, 1.0, 2.0, 0.0, 0.0, 2.0], "bins": [-0.0029926886782050133, -0.0029351848643273115, -0.0028776810504496098, -0.0028201774694025517, -0.00276267365552485, -0.002705169841647148, -0.0026476660277694464, -0.0025901622138917446, -0.002532658400014043, -0.002475154586136341, -0.0024176507722586393, -0.0023601469583809376, -0.0023026433773338795, -0.0022451395634561777, -0.002187635749578476, -0.002130131935700774, -0.0020726281218230724, -0.0020151243079453707, -0.001957620494067669, -0.001900116796605289, -0.0018426129827275872, -0.0017851092852652073, -0.0017276054713875055, -0.0016701016575098038, -0.0016125980764627457, -0.001555094262585044, -0.001497590565122664, -0.0014400867512449622, -0.0013825829373672605, -0.0013250792399048805, -0.0012675754260271788, -0.001210071612149477, -0.0011525676818564534, -0.0010950638679787517, -0.0010375601705163717, -0.00098005635663867, -0.0009225525427609682, -0.0008650487870909274, -0.0008075450314208865, -0.0007500412175431848, -0.0006925374618731439, -0.0006350337062031031, -0.0005775298923254013, -0.0005200261366553605, -0.00046252235188148916, -0.00040501856710761786, -0.000347514811437577, -0.0002900110266637057, -0.0002325072418898344, -0.0001750034571159631, -0.00011749968689400703, -5.999591667205095e-05, -2.4921318981796503e-06, 5.501165287569165e-05, 0.0001125154085457325, 0.0001700191933196038, 0.0002275229780934751, 0.0002850267628673464, 0.0003425305476412177, 0.00040003430331125855, 0.00045753808808512986, 0.0005150418728590012, 0.000572545628529042, 0.0006300493841990829, 0.0006875531980767846]}, "gradients/taskmapper.lins.0.bias": {"_type": "histogram", "values": [1.0, 0.0, 0.0, 0.0, 0.0, 0.0, 1.0, 0.0, 0.0, 1.0, 0.0, 0.0, 0.0, 0.0, 0.0, 0.0, 0.0, 2.0, 0.0, 0.0, 0.0, 0.0, 0.0, 0.0, 0.0, 2.0, 2.0, 0.0, 0.0, 0.0, 1.0, 1.0, 1.0, 2.0, 0.0, 0.0, 0.0, 1.0, 0.0, 0.0, 1.0, 1.0, 0.0, 0.0, 1.0, 0.0, 2.0, 0.0, 3.0, 0.0, 0.0, 0.0, 0.0, 0.0, 0.0, 0.0, 0.0, 0.0, 0.0, 0.0, 0.0, 0.0, 0.0, 1.0], "bins": [-0.009863687679171562, -0.009662273339927197, -0.00946085900068283, -0.009259444661438465, -0.0090580303221941, -0.008856616914272308, -0.008655202575027943, -0.008453788235783577, -0.008252373896539211, -0.008050959557294846, -0.00784954521805048, -0.0076481313444674015, -0.007446717005223036, -0.00724530266597867, -0.007043888792395592, -0.006842474453151226, -0.00664106011390686, -0.006439645774662495, -0.006238231435418129, -0.006036817561835051, -0.005835403222590685, -0.005633988883346319, -0.005432575009763241, -0.005231160670518875, -0.005029746331274509, -0.004828331992030144, -0.004626917652785778, -0.0044255037792027, -0.004224089439958334, -0.004022675100713968, -0.0038212609943002462, -0.003619846887886524, -0.003418432082980871, -0.0032170177437365055, -0.0030156036373227835, -0.0028141895309090614, -0.0026127751916646957, -0.00241136085242033, -0.002209946746006608, -0.002008532639592886, -0.0018071183003485203, -0.0016057040775194764, -0.0014042898546904325, -0.0012028756318613887, -0.0010014614090323448, -0.000800047186203301, -0.0005986329633742571, -0.0003972187405452132, -0.00019580451771616936, 5.609705112874508e-06, 0.00020702392794191837, 0.00040843815077096224, 0.0006098523736000061, 0.00081126659642905, 0.0010126808192580938, 0.0012140950420871377, 0.0014155092649161816, 0.0016169234877452254, 0.0018183377105742693, 0.0020197518169879913, 0.002221166156232357, 0.0024225804954767227, 0.0026239946018904448, 0.002825408708304167, 0.0030268230475485325]}, "gradients/taskmapper.lins.0.weight": {"_type": "histogram", "values": [1.0, 0.0, 1.0, 0.0, 3.0, 1.0, 0.0, 0.0, 2.0, 1.0, 2.0, 2.0, 6.0, 8.0, 12.0, 14.0, 12.0, 12.0, 25.0, 21.0, 26.0, 47.0, 47.0, 62.0, 65.0, 164.0, 44.0, 31.0, 29.0, 21.0, 18.0, 15.0, 10.0, 11.0, 7.0, 7.0, 9.0, 7.0, 1.0, 3.0, 3.0, 0.0, 4.0, 1.0, 4.0, 2.0, 2.0, 1.0, 1.0, 0.0, 0.0, 0.0, 1.0, 0.0, 0.0, 0.0, 0.0, 0.0, 0.0, 1.0, 0.0, 0.0, 0.0, 1.0], "bins": [-0.0022447307128459215, -0.0021558129228651524, -0.0020668949000537395, -0.0019779771100729704, -0.0018890592036768794, -0.0018001412972807884, -0.0017112235073000193, -0.0016223056009039283, -0.0015333876945078373, -0.0014444697881117463, -0.0013555518817156553, -0.0012666340917348862, -0.0011777161853387952, -0.0010887982789427042, -0.000999880488961935, -0.0009109625825658441, -0.0008220446761697531, -0.0007331267697736621, -0.000644208921585232, -0.000555291073396802, -0.00046637316700071096, -0.00037745528970845044, -0.0002885374124161899, -0.00019961956422775984, -0.00011070165783166885, -2.1783780539408326e-05, 6.71340967528522e-05, 0.00015605197404511273, 0.00024496985133737326, 0.0003338877286296338, 0.0004228056059218943, 0.0005117234541103244, 0.000600641593337059, 0.00068955949973315, 0.0007784773479215801, 0.0008673951961100101, 0.0009563131025061011, 0.0010452310089021921, 0.0011341487988829613, 0.0012230667052790523, 0.0013119846116751432, 0.0014009025180712342, 0.0014898204244673252, 0.0015787382144480944, 0.0016676561208441854, 0.0017565740272402763, 0.0018454918172210455, 0.0019344097236171365, 0.0020233276300132275, 0.0021122454199939966, 0.0022011634428054094, 0.0022900812327861786, 0.0023789992555975914, 0.0024679170455783606, 0.0025568348355591297, 0.0026457528583705425, 0.0027346706483513117, 0.002823588438332081, 0.0029125064611434937, 0.003001424251124263, 0.003090342041105032, 0.0031792600639164448, 0.003268177853897214, 0.003357095643877983, 0.003446013666689396]}, "gradients/_projector.0.bias": {"_type": "histogram", "values": [1.0, 0.0, 0.0, 0.0, 0.0, 0.0, 0.0, 0.0, 0.0, 0.0, 0.0, 0.0, 0.0, 0.0, 1.0, 2.0, 0.0, 0.0, 1.0, 0.0, 1.0, 0.0, 0.0, 0.0, 1.0, 0.0, 1.0, 3.0, 2.0, 2.0, 1.0, 1.0, 0.0, 1.0, 1.0, 0.0, 0.0, 0.0, 2.0, 0.0, 0.0, 3.0, 0.0, 0.0, 1.0, 0.0, 2.0, 1.0, 0.0, 2.0, 0.0, 0.0, 0.0, 0.0, 0.0, 0.0, 0.0, 1.0, 0.0, 0.0, 0.0, 0.0, 0.0, 1.0], "bins": [-0.07886840403079987, -0.07622784376144409, -0.07358728349208832, -0.07094672322273254, -0.06830616295337677, -0.0656655952334404, -0.06302503496408463, -0.06038447469472885, -0.05774391442537308, -0.0551033541560173, -0.05246279388666153, -0.04982222989201546, -0.04718166962265968, -0.04454110935330391, -0.04190054535865784, -0.03925998508930206, -0.03661942481994629, -0.033978864550590515, -0.03133830428123474, -0.02869774028658867, -0.026057180017232895, -0.02341661974787712, -0.020776057615876198, -0.018135495483875275, -0.0154949352145195, -0.012854374013841152, -0.010213812813162804, -0.007573251612484455, -0.004932690411806107, -0.002292129211127758, 0.0003484319895505905, 0.0029889941215515137, 0.005629554390907288, 0.008270115591585636, 0.010910676792263985, 0.013551237992942333, 0.016191799193620682, 0.018832359462976456, 0.02147292159497738, 0.024113483726978302, 0.026754043996334076, 0.02939460426568985, 0.032035164535045624, 0.034675728529691696, 0.03731628879904747, 0.039956849068403244, 0.042597413063049316, 0.04523797333240509, 0.047878533601760864, 0.05051909387111664, 0.05315965414047241, 0.055800218135118484, 0.05844077840447426, 0.06108133867383003, 0.0637219026684761, 0.06636246293783188, 0.06900302320718765, 0.07164358347654343, 0.0742841437458992, 0.07692470401525497, 0.07956527173519135, 0.08220583200454712, 0.0848463922739029, 0.08748695254325867, 0.09012751281261444]}, "gradients/_projector.0.weight": {"_type": "histogram", "values": [1.0, 1.0, 0.0, 0.0, 1.0, 3.0, 1.0, 3.0, 4.0, 1.0, 3.0, 5.0, 9.0, 9.0, 10.0, 15.0, 21.0, 20.0, 21.0, 30.0, 29.0, 31.0, 44.0, 58.0, 63.0, 70.0, 90.0, 82.0, 97.0, 95.0, 97.0, 102.0, 105.0, 104.0, 97.0, 85.0, 94.0, 55.0, 78.0, 69.0, 58.0, 48.0, 42.0, 52.0, 37.0, 23.0, 14.0, 13.0, 11.0, 11.0, 8.0, 5.0, 4.0, 8.0, 1.0, 2.0, 3.0, 1.0, 0.0, 1.0, 1.0, 0.0, 1.0, 1.0], "bins": [-0.029545260593295097, -0.028620216995477676, -0.027695175260305405, -0.026770131662487984, -0.025845088064670563, -0.02492004632949829, -0.02399500273168087, -0.02306995913386345, -0.022144917398691177, -0.021219873800873756, -0.020294832065701485, -0.019369788467884064, -0.018444744870066643, -0.017519701272249222, -0.01659465953707695, -0.01566961593925953, -0.014744572341442108, -0.013819529674947262, -0.01289448607712984, -0.011969443410634995, -0.011044399812817574, -0.010119357146322727, -0.00919431447982788, -0.00826927088201046, -0.0073442282155156136, -0.00641918508335948, -0.005494141951203346, -0.0045690992847085, -0.0036440561525523663, -0.0027190130203962326, -0.0017939703539013863, -0.0008689272217452526, 5.611404776573181e-05, 0.0009811570635065436, 0.0019062000792473555, 0.0028312429785728455, 0.003756286110728979, 0.004681329242885113, 0.005606371909379959, 0.006531415041536093, 0.007456458173692226, 0.008381500840187073, 0.009306544438004494, 0.01023158710449934, 0.011156629770994186, 0.012081673368811607, 0.013006716035306454, 0.0139317587018013, 0.014856802299618721, 0.015781845897436142, 0.016706887632608414, 0.017631931230425835, 0.018556974828243256, 0.019482016563415527, 0.02040706016123295, 0.02133210375905037, 0.02225714549422264, 0.023182189092040062, 0.024107230827212334, 0.025032274425029755, 0.025957318022847176, 0.026882361620664597, 0.02780740335583687, 0.02873244695365429, 0.02965749055147171]}, "gradients/_encoder.encoder.4.bias": {"_type": "histogram", "values": [1.0, 0.0, 0.0, 1.0, 0.0, 0.0, 0.0, 0.0, 0.0, 0.0, 0.0, 0.0, 0.0, 0.0, 0.0, 0.0, 0.0, 2.0, 1.0, 1.0, 0.0, 1.0, 0.0, 2.0, 0.0, 0.0, 1.0, 0.0, 1.0, 1.0, 1.0, 1.0, 2.0, 2.0, 2.0, 0.0, 3.0, 0.0, 3.0, 4.0, 2.0, 4.0, 4.0, 3.0, 0.0, 1.0, 6.0, 2.0, 1.0, 0.0, 1.0, 1.0, 0.0, 0.0, 1.0, 1.0, 2.0, 0.0, 1.0, 1.0, 0.0, 0.0, 1.0, 2.0], "bins": [-0.07827500253915787, -0.07634476572275162, -0.07441453635692596, -0.07248429954051971, -0.07055406272411346, -0.06862382590770721, -0.06669359654188156, -0.06476335972547531, -0.06283312290906906, -0.06090288981795311, -0.05897265300154686, -0.05704241991043091, -0.05511218309402466, -0.05318195000290871, -0.051251716911792755, -0.049321480095386505, -0.047391247004270554, -0.0454610139131546, -0.04353077709674835, -0.0416005440056324, -0.03967030718922615, -0.0377400740981102, -0.03580983728170395, -0.033879604190588, -0.031949371099472046, -0.030019136145710945, -0.028088901191949844, -0.026158668100833893, -0.024228431284427643, -0.02229819819331169, -0.02036796323955059, -0.01843772828578949, -0.016507495194673538, -0.014577260240912437, -0.012647025287151337, -0.01071679126471281, -0.00878655631095171, -0.006856321357190609, -0.004926087334752083, -0.002995852380990982, -0.0010656174272298813, 0.0008646172937005758, 0.002794852014631033, 0.004725086502730846, 0.006655321456491947, 0.008585556410253048, 0.010515790432691574, 0.012446025386452675, 0.014376260340213776, 0.016306495293974876, 0.018236730247735977, 0.02016696333885193, 0.02209720015525818, 0.02402743324637413, 0.02595766820013523, 0.027887903153896332, 0.029818138107657433, 0.03174837306141853, 0.033678606152534485, 0.035608842968940735, 0.037539076060056686, 0.039469312876462936, 0.04139954596757889, 0.04332978278398514, 0.04526001587510109]}, "gradients/_encoder.encoder.4.weight": {"_type": "histogram", "values": [1.0, 2.0, 0.0, 0.0, 1.0, 1.0, 0.0, 3.0, 4.0, 2.0, 6.0, 9.0, 12.0, 22.0, 22.0, 24.0, 39.0, 56.0, 62.0, 74.0, 74.0, 133.0, 172.0, 240.0, 268.0, 372.0, 459.0, 532.0, 684.0, 814.0, 856.0, 732.0, 587.0, 483.0, 358.0, 252.0, 217.0, 145.0, 116.0, 97.0, 74.0, 57.0, 28.0, 21.0, 15.0, 19.0, 12.0, 6.0, 8.0, 4.0, 6.0, 6.0, 2.0, 1.0, 0.0, 0.0, 1.0, 0.0, 0.0, 0.0, 0.0, 0.0, 0.0, 1.0], "bins": [-0.04883790761232376, -0.047215286642313004, -0.045592665672302246, -0.04397004470229149, -0.04234742373228073, -0.040724802762269974, -0.039102181792259216, -0.03747955709695816, -0.0358569398522377, -0.034234318882226944, -0.032611697912216187, -0.03098907694220543, -0.02936645597219467, -0.027743835002183914, -0.026121212169528008, -0.02449859119951725, -0.022875968366861343, -0.021253347396850586, -0.01963072642683983, -0.01800810545682907, -0.016385484486818314, -0.014762862585484982, -0.01314024068415165, -0.011517619714140892, -0.009894998744130135, -0.008272377774119377, -0.006649756338447332, -0.005027134902775288, -0.00340451393276453, -0.0017818929627537727, -0.00015927106142044067, 0.0014633499085903168, 0.0030859708786010742, 0.004708591848611832, 0.006331213284283876, 0.007953834719955921, 0.009576455689966679, 0.011199076659977436, 0.012821698561310768, 0.014444319531321526, 0.016066940501332283, 0.01768956147134304, 0.019312182441353798, 0.020934805274009705, 0.022557426244020462, 0.02418004721403122, 0.025802668184041977, 0.027425289154052734, 0.029047910124063492, 0.03067053109407425, 0.03229315206408501, 0.033915773034095764, 0.03553839400410652, 0.03716101497411728, 0.038783639669418335, 0.040406256914138794, 0.04202888160943985, 0.04365150257945061, 0.045274123549461365, 0.04689674451947212, 0.04851936548948288, 0.05014198645949364, 0.051764607429504395, 0.05338723212480545, 0.05500984936952591]}, "gradients/_encoder.encoder.1.weight": {"_type": "histogram", "values": [1.0, 0.0, 0.0, 1.0, 1.0, 0.0, 0.0, 0.0, 0.0, 1.0, 0.0, 0.0, 1.0, 1.0, 2.0, 1.0, 1.0, 2.0, 1.0, 3.0, 3.0, 1.0, 1.0, 2.0, 1.0, 2.0, 2.0, 3.0, 8.0, 6.0, 5.0, 7.0, 2.0, 5.0, 12.0, 4.0, 3.0, 7.0, 5.0, 4.0, 6.0, 3.0, 2.0, 1.0, 1.0, 1.0, 2.0, 4.0, 0.0, 2.0, 2.0, 0.0, 1.0, 0.0, 0.0, 0.0, 0.0, 1.0, 1.0, 0.0, 0.0, 0.0, 0.0, 2.0], "bins": [-0.018572071567177773, -0.018011799082159996, -0.01745152473449707, -0.016891252249479294, -0.016330979764461517, -0.01577070727944374, -0.015210432931780815, -0.014650160446763039, -0.014089887030422688, -0.013529613614082336, -0.01296934112906456, -0.012409067712724209, -0.011848794296383858, -0.011288521811366081, -0.01072824839502573, -0.010167974978685379, -0.009607702493667603, -0.009047429077327251, -0.008487156592309475, -0.007926883175969124, -0.00736661022529006, -0.006806337274610996, -0.006246063858270645, -0.005685790907591581, -0.0051255179569125175, -0.004565245006233454, -0.00400497205555439, -0.003444698639214039, -0.002884425688534975, -0.0023241527378559113, -0.0017638795543462038, -0.0012036063708364964, -0.0006433352828025818, -8.306221570819616e-05, 0.00047721085138618946, 0.001037483918480575, 0.0015977569855749607, 0.0021580299362540245, 0.002718303119763732, 0.0032785763032734394, 0.003838849253952503, 0.004399122204631567, 0.004959395155310631, 0.005519668571650982, 0.006079941522330046, 0.0066402144730091095, 0.007200487889349461, 0.007760760840028524, 0.008321033790707588, 0.00888130720704794, 0.009441579692065716, 0.010001853108406067, 0.010562125593423843, 0.011122399009764194, 0.011682672426104546, 0.012242944911122322, 0.012803218327462673, 0.013363491743803024, 0.0139237642288208, 0.014484037645161152, 0.015044311061501503, 0.01560458354651928, 0.016164856031537056, 0.01672513037919998, 0.017285402864217758]}, "gradients/_encoder.encoder.1.bias": {"_type": "histogram", "values": [1.0, 0.0, 0.0, 0.0, 0.0, 0.0, 0.0, 0.0, 0.0, 1.0, 0.0, 2.0, 0.0, 3.0, 1.0, 1.0, 1.0, 1.0, 2.0, 2.0, 1.0, 4.0, 5.0, 5.0, 7.0, 6.0, 4.0, 5.0, 5.0, 2.0, 7.0, 3.0, 9.0, 5.0, 8.0, 5.0, 6.0, 5.0, 3.0, 4.0, 1.0, 1.0, 3.0, 0.0, 3.0, 1.0, 0.0, 0.0, 1.0, 0.0, 0.0, 1.0, 0.0, 0.0, 1.0, 1.0, 0.0, 0.0, 0.0, 0.0, 0.0, 0.0, 0.0, 1.0], "bins": [-0.032796330749988556, -0.031659163534641266, -0.030521992594003677, -0.029384823516011238, -0.0282476544380188, -0.02711048722267151, -0.02597331814467907, -0.02483614906668663, -0.02369897998869419, -0.02256181091070175, -0.021424641832709312, -0.020287472754716873, -0.019150305539369583, -0.018013134598731995, -0.016875967383384705, -0.015738798305392265, -0.014601629227399826, -0.013464460149407387, -0.012327291071414948, -0.011190122924745083, -0.010052953846752644, -0.008915784768760204, -0.007778616156429052, -0.0066414475440979, -0.005504278466105461, -0.004367109388113022, -0.00322994077578187, -0.0020927719306200743, -0.0009556030854582787, 0.00018156599253416061, 0.0013187346048653126, 0.0024559032171964645, 0.003593072295188904, 0.004730241373181343, 0.005867409985512495, 0.007004578597843647, 0.008141747675836086, 0.009278916753828526, 0.01041608490049839, 0.01155325397849083, 0.012690423056483269, 0.013827592134475708, 0.014964761212468147, 0.016101930290460587, 0.017239097505807877, 0.018376268446445465, 0.019513435661792755, 0.020650604739785194, 0.021787773817777634, 0.022924942895770073, 0.024062111973762512, 0.02519928105175495, 0.02633645012974739, 0.02747361734509468, 0.02861078642308712, 0.02974795550107956, 0.030885124579072, 0.03202229365706444, 0.03315946087241173, 0.034296631813049316, 0.035433799028396606, 0.036570969969034195, 0.037708137184381485, 0.038845308125019073, 0.039982475340366364]}, "gradients/_encoder.encoder.0.bias": {"_type": "histogram", "values": [1.0, 0.0, 0.0, 0.0, 1.0, 0.0, 0.0, 2.0, 2.0, 3.0, 0.0, 2.0, 4.0, 2.0, 11.0, 7.0, 19.0, 11.0, 10.0, 10.0, 8.0, 5.0, 6.0, 6.0, 4.0, 2.0, 1.0, 2.0, 2.0, 2.0, 1.0, 1.0, 1.0, 0.0, 0.0, 0.0, 0.0, 0.0, 0.0, 0.0, 0.0, 0.0, 0.0, 0.0, 0.0, 0.0, 0.0, 0.0, 0.0, 0.0, 0.0, 0.0, 1.0, 0.0, 0.0, 0.0, 0.0, 0.0, 0.0, 0.0, 0.0, 0.0, 0.0, 1.0], "bins": [-5.103647708892822e-07, -4.826579242944717e-07, -4.5495107769966125e-07, -4.2724423110485077e-07, -3.995373845100403e-07, -3.718305379152298e-07, -3.441236913204193e-07, -3.164168447256088e-07, -2.8870999813079834e-07, -2.6100315153598785e-07, -2.3329630494117737e-07, -2.0558945834636688e-07, -1.778826117515564e-07, -1.501757651567459e-07, -1.2246891856193542e-07, -9.476207196712494e-08, -6.705522537231445e-08, -3.934837877750397e-08, -1.1641532182693481e-08, 1.6065314412117004e-08, 4.377216100692749e-08, 7.147900760173798e-08, 9.918585419654846e-08, 1.2689270079135895e-07, 1.5459954738616943e-07, 1.8230639398097992e-07, 2.100132405757904e-07, 2.377200871706009e-07, 2.654269337654114e-07, 2.9313378036022186e-07, 3.2084062695503235e-07, 3.4854747354984283e-07, 3.762543201446533e-07, 4.039611667394638e-07, 4.316680133342743e-07, 4.593748599290848e-07, 4.870817065238953e-07, 5.147885531187057e-07, 5.424953997135162e-07, 5.702022463083267e-07, 5.979090929031372e-07, 6.256159394979477e-07, 6.533227860927582e-07, 6.810296326875687e-07, 7.087364792823792e-07, 7.364433258771896e-07, 7.641501724720001e-07, 7.918570190668106e-07, 8.195638656616211e-07, 8.472707122564316e-07, 8.749775588512421e-07, 9.026844054460526e-07, 9.30391252040863e-07, 9.580980986356735e-07, 9.85804945230484e-07, 1.0135117918252945e-06, 1.041218638420105e-06, 1.0689254850149155e-06, 1.096632331609726e-06, 1.1243391782045364e-06, 1.152046024799347e-06, 1.1797528713941574e-06, 1.207459717988968e-06, 1.2351665645837784e-06, 1.2628734111785889e-06]}, "gradients/_encoder.encoder.0.weight": {"_type": "histogram", "values": [1.0, 0.0, 0.0, 0.0, 0.0, 1.0, 1.0, 0.0, 1.0, 0.0, 3.0, 2.0, 2.0, 0.0, 1.0, 0.0, 6.0, 3.0, 4.0, 14.0, 12.0, 15.0, 23.0, 23.0, 40.0, 53.0, 100.0, 127.0, 220.0, 440.0, 788.0, 1500.0, 3127.0, 6950.0, 17330.0, 38704.0, 23520.0, 10282.0, 4403.0, 2019.0, 968.0, 545.0, 279.0, 186.0, 140.0, 92.0, 58.0, 29.0, 29.0, 13.0, 19.0, 13.0, 11.0, 9.0, 7.0, 4.0, 1.0, 1.0, 2.0, 2.0, 3.0, 0.0, 1.0, 1.0], "bins": [-0.17105022072792053, -0.16625982522964478, -0.1614694446325302, -0.15667904913425446, -0.1518886685371399, -0.14709827303886414, -0.14230789244174957, -0.13751749694347382, -0.13272711634635925, -0.1279367208480835, -0.12314634025096893, -0.11835595220327377, -0.11356556415557861, -0.10877516865730286, -0.1039847806096077, -0.09919439256191254, -0.09440399706363678, -0.08961360901594162, -0.08482322096824646, -0.0800328329205513, -0.07524244487285614, -0.07045204937458038, -0.06566166132688522, -0.060871273279190063, -0.056080885231494904, -0.051290497183799744, -0.046500109136104584, -0.041709717363119125, -0.036919329315423965, -0.032128941267728806, -0.027338551357388496, -0.022548161447048187, -0.017757773399353027, -0.012967384420335293, -0.008176995441317558, -0.0033866064622998238, 0.0014037825167179108, 0.006194170564413071, 0.01098456047475338, 0.01577495038509369, 0.02056533843278885, 0.02535572648048401, 0.030146116390824318, 0.03493650630116463, 0.03972689434885979, 0.04451728239655495, 0.049307674169540405, 0.054098062217235565, 0.058888450264930725, 0.06367883831262589, 0.06846922636032104, 0.0732596144080162, 0.07805000245571136, 0.08284039795398712, 0.08763078600168228, 0.09242117404937744, 0.0972115620970726, 0.10200195014476776, 0.10679233819246292, 0.11158272624015808, 0.11637312173843384, 0.1211635023355484, 0.12595389783382416, 0.13074427843093872, 0.13553467392921448]}, "_wandb": {"runtime": 131}}