{"train_loss": 0.5180593729019165, "train_ssl_loss": 0.5001446604728699, "train_tmb_loss": 0.017914781346917152, "test_loss": 0.7104395031929016, "test_ssl_loss": 0.6925292015075684, "test_tmb_loss": 0.01791026070713997, "_timestamp": 1697570813.817528, "_runtime": 349.52716612815857, "_step": 199, "gradients/taskmapper.out.bias": {"_type": "histogram", "values": [0.0, 0.0, 0.0, 0.0, 0.0, 0.0, 0.0, 0.0, 0.0, 0.0, 0.0, 0.0, 0.0, 0.0, 0.0, 0.0, 0.0, 0.0, 0.0, 0.0, 0.0, 0.0, 0.0, 0.0, 0.0, 0.0, 0.0, 0.0, 0.0, 0.0, 0.0, 0.0, 1.0, 0.0, 0.0, 0.0, 0.0, 0.0, 0.0, 0.0, 0.0, 0.0, 0.0, 0.0, 0.0, 0.0, 0.0, 0.0, 0.0, 0.0, 0.0, 0.0, 0.0, 0.0, 0.0, 0.0, 0.0, 0.0, 0.0, 0.0, 0.0, 0.0, 0.0, 0.0], "bins": [0.007885911501944065, 0.007885911501944065, 0.007885911501944065, 0.007885911501944065, 0.007885911501944065, 0.007885911501944065, 0.007885911501944065, 0.007885911501944065, 0.007885911501944065, 0.007885911501944065, 0.007885911501944065, 0.007885911501944065, 0.007885911501944065, 0.007885911501944065, 0.007885911501944065, 0.007885911501944065, 0.007885911501944065, 0.007885911501944065, 0.007885911501944065, 0.007885911501944065, 0.007885911501944065, 0.007885911501944065, 0.007885911501944065, 0.007885911501944065, 0.007885911501944065, 0.007885911501944065, 0.007885911501944065, 0.007885911501944065, 0.007885911501944065, 0.007885911501944065, 0.007885911501944065, 0.007885911501944065, 0.007885911501944065, 0.007885911501944065, 0.007885911501944065, 0.007885911501944065, 0.007885911501944065, 0.007885911501944065, 0.007885911501944065, 0.007885911501944065, 0.007885911501944065, 0.007885911501944065, 0.007885911501944065, 0.007885911501944065, 0.007885911501944065, 0.007885911501944065, 0.007885911501944065, 0.007885911501944065, 0.007885911501944065, 0.007885911501944065, 0.007885911501944065, 0.007885911501944065, 0.007885911501944065, 0.007885911501944065, 0.007885911501944065, 0.007885911501944065, 0.007885911501944065, 0.007885911501944065, 0.007885911501944065, 0.007885911501944065, 0.007885911501944065, 0.007885911501944065, 0.007885911501944065, 0.007885911501944065, 0.007885911501944065]}, "gradients/taskmapper.out.weight": {"_type": "histogram", "values": [1.0, 1.0, 3.0, 0.0, 3.0, 1.0, 0.0, 0.0, 0.0, 0.0, 0.0, 0.0, 0.0, 0.0, 0.0, 0.0, 0.0, 0.0, 0.0, 0.0, 0.0, 1.0, 0.0, 0.0, 0.0, 0.0, 0.0, 0.0, 0.0, 1.0, 0.0, 0.0, 0.0, 0.0, 0.0, 0.0, 1.0, 0.0, 0.0, 0.0, 0.0, 0.0, 1.0, 0.0, 0.0, 0.0, 0.0, 0.0, 0.0, 0.0, 0.0, 1.0, 0.0, 0.0, 0.0, 0.0, 0.0, 1.0, 0.0, 0.0, 0.0, 0.0, 0.0, 1.0], "bins": [-0.00010920307249762118, -5.415046325651929e-05, 9.02145984582603e-07, 5.595476250164211e-05, 0.00011100736446678638, 0.00016605996643193066, 0.0002211125975009054, 0.00027616519946604967, 0.00033121780143119395, 0.0003862704033963382, 0.00044132303446531296, 0.0004963756073266268, 0.0005514282383956015, 0.0006064808694645762, 0.0006615334423258901, 0.0007165860733948648, 0.0007716387044638395, 0.0008266913355328143, 0.0008817439083941281, 0.0009367965394631028, 0.0009918491123244166, 0.0010469018016010523, 0.001101954374462366, 0.00115700694732368, 0.0012120595201849937, 0.0012671120930463076, 0.0013221647823229432, 0.001377217355184257, 0.0014322699280455709, 0.0014873226173222065, 0.0015423751901835203, 0.0015974277630448341, 0.001652480335906148, 0.0017075329087674618, 0.0017625855980440974, 0.0018176381709054112, 0.001872690743766725, 0.0019277434330433607, 0.0019827960059046745, 0.0020378485787659883, 0.002092901151627302, 0.002147953724488616, 0.00220300629734993, 0.0022580591030418873, 0.002313111675903201, 0.002368164248764515, 0.0024232168216258287, 0.0024782693944871426, 0.0025333222001791, 0.002588374773040414, 0.0026434273459017277, 0.002698480151593685, 0.002753532724454999, 0.002808585297316313, 0.0028636378701776266, 0.0029186904430389404, 0.0029737430159002542, 0.003028795588761568, 0.003083848161622882, 0.0031389007344841957, 0.003193953540176153, 0.003249006113037467, 0.003304058685898781, 0.0033591112587600946, 0.0034141638316214085]}, "gradients/taskmapper.lins.1.bias": {"_type": "histogram", "values": [1.0, 0.0, 0.0, 0.0, 0.0, 0.0, 0.0, 0.0, 0.0, 0.0, 1.0, 0.0, 2.0, 2.0, 1.0, 1.0, 0.0, 1.0, 0.0, 0.0, 1.0, 1.0, 0.0, 0.0, 0.0, 1.0, 0.0, 0.0, 0.0, 1.0, 0.0, 0.0, 1.0, 0.0, 0.0, 0.0, 0.0, 0.0, 0.0, 1.0, 0.0, 0.0, 0.0, 0.0, 0.0, 0.0, 0.0, 0.0, 0.0, 0.0, 0.0, 0.0, 0.0, 0.0, 0.0, 0.0, 0.0, 0.0, 0.0, 0.0, 0.0, 0.0, 0.0, 1.0], "bins": [-0.0008992140647023916, -0.0008384502725675702, -0.0007776865386404097, -0.0007169227465055883, -0.0006561589543707669, -0.0005953952204436064, -0.000534631428308785, -0.00047386763617396355, -0.0004131038731429726, -0.00035234011011198163, -0.0002915763179771602, -0.00023081255494616926, -0.00017004877736326307, -0.00010928499978035688, -4.8521236749365926e-05, 1.224255538545549e-05, 7.300631841644645e-05, 0.00013377009599935263, 0.00019453387358225882, 0.0002552976366132498, 0.0003160614287480712, 0.00037682519177906215, 0.0004375889548100531, 0.0004983527469448745, 0.000559116480872035, 0.0006198802730068564, 0.0006806440069340169, 0.0007414077990688384, 0.0008021715912036598, 0.0008629353251308203, 0.0009236991172656417, 0.000984462909400463, 0.0010452267015352845, 0.001105990493670106, 0.0011667542858049273, 0.0012275180779397488, 0.0012882817536592484, 0.0013490455457940698, 0.0014098093379288912, 0.0014705731300637126, 0.001531336922198534, 0.0015921007143333554, 0.0016528645064681768, 0.0017136281821876764, 0.0017743919743224978, 0.0018351557664573193, 0.0018959195585921407, 0.001956683350726962, 0.0020174470264464617, 0.0020782107021659613, 0.0021389746107161045, 0.002199738286435604, 0.0022605021949857473, 0.002321265870705247, 0.00238202977925539, 0.0024427934549748898, 0.002503557363525033, 0.0025643210392445326, 0.002625084947794676, 0.0026858486235141754, 0.0027466125320643187, 0.0028073762077838182, 0.0028681401163339615, 0.002928903792053461, 0.0029896674677729607]}, "gradients/taskmapper.lins.1.weight": {"_type": "histogram", "values": [2.0, 0.0, 0.0, 0.0, 0.0, 0.0, 0.0, 0.0, 4.0, 0.0, 3.0, 1.0, 1.0, 5.0, 4.0, 7.0, 18.0, 47.0, 152.0, 50.0, 22.0, 10.0, 9.0, 5.0, 5.0, 5.0, 5.0, 1.0, 3.0, 2.0, 1.0, 3.0, 1.0, 3.0, 1.0, 0.0, 2.0, 2.0, 2.0, 0.0, 0.0, 3.0, 0.0, 1.0, 0.0, 0.0, 0.0, 0.0, 0.0, 0.0, 1.0, 0.0, 0.0, 1.0, 0.0, 0.0, 0.0, 0.0, 0.0, 1.0, 0.0, 0.0, 0.0, 1.0], "bins": [-0.0006254191976040602, -0.0005914448411203921, -0.0005574705428443849, -0.0005234961863607168, -0.0004895218298770487, -0.0004555475024972111, -0.00042157317511737347, -0.0003875988186337054, -0.00035362449125386775, -0.0003196501638740301, -0.000285675807390362, -0.0002517014800105244, -0.00021772713807877153, -0.00018375279614701867, -0.00014977846876718104, -0.00011580412683542818, -8.182978490367532e-05, -4.7855446609901264e-05, -1.3881108316127211e-05, 2.0093226339668036e-05, 5.4067568271420896e-05, 8.804191020317376e-05, 0.00012201623758301139, 0.00015599057951476425, 0.0001899649214465171, 0.00022393926337826997, 0.00025791360531002283, 0.00029188793268986046, 0.0003258622600696981, 0.0003598366165533662, 0.0003938109439332038, 0.00042778527131304145, 0.00046175962779670954, 0.0004957339842803776, 0.0005297082825563848, 0.0005636826390400529, 0.000597656995523721, 0.0006316313520073891, 0.0006656056502833962, 0.0006995800067670643, 0.0007335543632507324, 0.0007675287197344005, 0.0008015030180104077, 0.0008354773744940758, 0.0008694517309777439, 0.000903426087461412, 0.0009374003857374191, 0.0009713747422210872, 0.0010053489822894335, 0.0010393232805654407, 0.0010732976952567697, 0.0011072719935327768, 0.001141246291808784, 0.001175220706500113, 0.0012091950047761202, 0.0012431693030521274, 0.0012771437177434564, 0.0013111180160194635, 0.0013450924307107925, 0.0013790667289867997, 0.001413041027262807, 0.001447015441954136, 0.001480989740230143, 0.0015149640385061502, 0.0015489384531974792]}, "gradients/taskmapper.lins.0.bias": {"_type": "histogram", "values": [1.0, 0.0, 1.0, 0.0, 0.0, 0.0, 0.0, 0.0, 0.0, 0.0, 0.0, 1.0, 0.0, 0.0, 0.0, 1.0, 1.0, 0.0, 1.0, 0.0, 1.0, 0.0, 0.0, 1.0, 1.0, 1.0, 1.0, 2.0, 1.0, 0.0, 0.0, 0.0, 0.0, 0.0, 0.0, 0.0, 1.0, 0.0, 0.0, 0.0, 0.0, 1.0, 0.0, 1.0, 1.0, 0.0, 0.0, 0.0, 0.0, 0.0, 1.0, 0.0, 0.0, 0.0, 1.0, 2.0, 1.0, 0.0, 0.0, 0.0, 0.0, 0.0, 0.0, 1.0], "bins": [-0.0006373561918735504, -0.0006138038588687778, -0.000590251584071666, -0.0005666992510668933, -0.0005431469180621207, -0.0005195946432650089, -0.0004960423102602363, -0.0004724899772554636, -0.0004489376733545214, -0.0004253853694535792, -0.0004018330364488065, -0.0003782807325478643, -0.0003547284286469221, -0.00033117609564214945, -0.00030762379174120724, -0.00028407148784026504, -0.00026051915483549237, -0.00023696683638263494, -0.0002134145179297775, -0.0001898622140288353, -0.00016630989557597786, -0.00014275757712312043, -0.00011920527322217822, -9.565295476932079e-05, -7.210063631646335e-05, -4.8548321501584724e-05, -2.4996006686706096e-05, -1.4436955098062754e-06, 2.210862294305116e-05, 4.5660941395908594e-05, 6.92132452968508e-05, 9.276556374970824e-05, 0.00011631788220256567, 0.0001398702006554231, 0.00016342251910828054, 0.00018697482300922275, 0.00021052714146208018, 0.00023407945991493762, 0.0002576317638158798, 0.0002811840968206525, 0.0003047364007215947, 0.0003282887046225369, 0.00035184103762730956, 0.00037539334152825177, 0.000398945645429194, 0.00042249797843396664, 0.00044605028233490884, 0.00046960258623585105, 0.0004931549192406237, 0.0005167072522453964, 0.0005402595270425081, 0.0005638118600472808, 0.0005873641930520535, 0.0006109165260568261, 0.0006344688008539379, 0.0006580211338587105, 0.0006815734086558223, 0.0007051257416605949, 0.0007286780164577067, 0.0007522303494624794, 0.000775782682467252, 0.0007993349572643638, 0.0008228872902691364, 0.0008464396232739091, 0.0008699919562786818]}, "gradients/taskmapper.lins.0.weight": {"_type": "histogram", "values": [1.0, 0.0, 1.0, 0.0, 1.0, 0.0, 0.0, 2.0, 2.0, 0.0, 1.0, 2.0, 2.0, 1.0, 3.0, 5.0, 6.0, 1.0, 3.0, 3.0, 6.0, 6.0, 7.0, 7.0, 9.0, 8.0, 12.0, 6.0, 15.0, 11.0, 13.0, 22.0, 23.0, 16.0, 40.0, 50.0, 60.0, 121.0, 68.0, 47.0, 31.0, 16.0, 25.0, 14.0, 15.0, 11.0, 10.0, 17.0, 9.0, 0.0, 5.0, 8.0, 7.0, 2.0, 2.0, 3.0, 3.0, 1.0, 3.0, 1.0, 0.0, 2.0, 1.0, 1.0], "bins": [-0.0007426456431858242, -0.0007227999740280211, -0.000702954363077879, -0.0006831086939200759, -0.0006632630247622728, -0.0006434174138121307, -0.0006235717446543276, -0.0006037261337041855, -0.0005838804645463824, -0.0005640347953885794, -0.0005441891844384372, -0.0005243435152806342, -0.000504497904330492, -0.00048465223517268896, -0.0004648065660148859, -0.0004449609259609133, -0.0004251152859069407, -0.0004052696458529681, -0.0003854240057989955, -0.00036557833664119244, -0.00034573269658721983, -0.00032588705653324723, -0.0003060413873754442, -0.00028619574732147157, -0.00026635010726749897, -0.00024650446721352637, -0.00022665881260763854, -0.0002068131580017507, -0.0001869675179477781, -0.0001671218778938055, -0.00014727622328791767, -0.00012743056868202984, -0.00010758487042039633, -8.773922309046611e-05, -6.78935757605359e-05, -4.804792843060568e-05, -2.8202281100675464e-05, -8.356633770745248e-06, 1.1489013559184968e-05, 3.13346681650728e-05, 5.11803082190454e-05, 7.102595554897562e-05, 9.087160287890583e-05, 0.00011071725020883605, 0.00013056289753876626, 0.00015040853759273887, 0.0001702541921986267, 0.00019009984680451453, 0.00020994548685848713, 0.00022979112691245973, 0.00024963676696643233, 0.0002694824361242354, 0.000289328076178208, 0.0003091737162321806, 0.00032901938538998365, 0.00034886502544395626, 0.00036871066549792886, 0.00038855630555190146, 0.00040840194560587406, 0.0004282476147636771, 0.0004480932548176497, 0.0004679388948716223, 0.0004877845640294254, 0.0005076301749795675, 0.0005274758441373706]}, "gradients/_projector.0.bias": {"_type": "histogram", "values": [1.0, 0.0, 0.0, 0.0, 0.0, 0.0, 0.0, 0.0, 0.0, 1.0, 0.0, 0.0, 0.0, 1.0, 0.0, 1.0, 0.0, 0.0, 1.0, 0.0, 0.0, 1.0, 0.0, 0.0, 1.0, 0.0, 0.0, 0.0, 2.0, 0.0, 2.0, 0.0, 0.0, 1.0, 1.0, 1.0, 0.0, 1.0, 1.0, 0.0, 0.0, 1.0, 0.0, 0.0, 0.0, 1.0, 2.0, 2.0, 1.0, 0.0, 2.0, 0.0, 0.0, 1.0, 0.0, 2.0, 1.0, 0.0, 0.0, 0.0, 0.0, 0.0, 1.0, 2.0], "bins": [-0.08319909870624542, -0.0812113955616951, -0.07922369241714478, -0.07723598182201385, -0.07524827867746353, -0.07326057553291321, -0.07127287238836288, -0.06928516924381256, -0.06729745864868164, -0.06530975550413132, -0.063322052359581, -0.06133434548974037, -0.05934663861989975, -0.057358935475349426, -0.0553712323307991, -0.05338352546095848, -0.05139582231640816, -0.049408119171857834, -0.04742041230201721, -0.04543270915746689, -0.043445002287626266, -0.04145729914307594, -0.03946959227323532, -0.037481889128685, -0.035494185984134674, -0.03350648283958435, -0.03151877596974373, -0.029531072825193405, -0.027543365955352783, -0.02555566281080246, -0.023567957803606987, -0.021580252796411514, -0.019592545926570892, -0.01760484091937542, -0.015617135912179947, -0.013629431836307049, -0.011641726829111576, -0.009654021821916103, -0.007666317746043205, -0.0056786127388477325, -0.00369090773165226, -0.0017032029572874308, 0.0002845018170773983, 0.0022722063586115837, 0.004259911365807056, 0.006247616373002529, 0.008235320448875427, 0.0102230254560709, 0.012210730463266373, 0.014198435470461845, 0.016186140477657318, 0.01817384362220764, 0.020161550492048264, 0.022149253636598587, 0.02413695864379406, 0.026124663650989532, 0.028112368658185005, 0.030100073665380478, 0.0320877768099308, 0.03407548367977142, 0.03606318682432175, 0.03805089369416237, 0.04003859683871269, 0.042026303708553314, 0.04401400685310364]}, "gradients/_projector.0.weight": {"_type": "histogram", "values": [1.0, 0.0, 1.0, 0.0, 1.0, 4.0, 1.0, 0.0, 4.0, 5.0, 5.0, 8.0, 7.0, 13.0, 12.0, 11.0, 12.0, 23.0, 32.0, 39.0, 39.0, 40.0, 39.0, 53.0, 54.0, 62.0, 66.0, 75.0, 72.0, 76.0, 82.0, 88.0, 90.0, 89.0, 88.0, 93.0, 82.0, 82.0, 62.0, 60.0, 64.0, 59.0, 54.0, 50.0, 41.0, 47.0, 23.0, 26.0, 29.0, 23.0, 12.0, 13.0, 5.0, 5.0, 11.0, 5.0, 1.0, 4.0, 1.0, 1.0, 0.0, 0.0, 1.0, 2.0], "bins": [-0.04078386351466179, -0.03954311087727547, -0.038302358239889145, -0.03706160560250282, -0.0358208492398262, -0.03458009660243988, -0.03333934396505356, -0.032098591327667236, -0.030857838690280914, -0.029617086052894592, -0.02837633341550827, -0.0271355789154768, -0.025894826278090477, -0.024654073640704155, -0.023413319140672684, -0.02217256650328636, -0.02093181386590004, -0.019691061228513718, -0.018450308591127396, -0.017209554091095924, -0.015968801453709602, -0.01472804881632328, -0.013487295247614384, -0.012246541678905487, -0.011005789041519165, -0.009765036404132843, -0.008524282835423946, -0.007283529732376337, -0.006042776629328728, -0.004802023526281118, -0.003561270423233509, -0.0023205168545246124, -0.001079760491847992, 0.00016099261119961739, 0.0014017457142472267, 0.002642498817294836, 0.0038832519203424454, 0.005124005023390055, 0.006364758126437664, 0.007605511695146561, 0.008846264332532883, 0.010087016969919205, 0.011327770538628101, 0.012568524107336998, 0.01380927674472332, 0.015050029382109642, 0.016290783882141113, 0.017531536519527435, 0.018772289156913757, 0.02001304179430008, 0.0212537944316864, 0.022494548931717873, 0.023735301569104195, 0.024976054206490517, 0.026216808706521988, 0.02745756134390831, 0.028698313981294632, 0.029939066618680954, 0.031179819256067276, 0.0324205718934536, 0.03366132825613022, 0.03490208089351654, 0.03614283353090286, 0.037383586168289185, 0.03862433880567551]}, "gradients/_encoder.encoder.4.bias": {"_type": "histogram", "values": [1.0, 0.0, 0.0, 0.0, 0.0, 0.0, 0.0, 0.0, 0.0, 0.0, 0.0, 0.0, 1.0, 1.0, 0.0, 0.0, 0.0, 0.0, 0.0, 1.0, 0.0, 1.0, 2.0, 1.0, 0.0, 2.0, 0.0, 5.0, 3.0, 1.0, 1.0, 3.0, 3.0, 1.0, 3.0, 1.0, 2.0, 3.0, 1.0, 0.0, 4.0, 1.0, 3.0, 1.0, 1.0, 3.0, 0.0, 4.0, 1.0, 1.0, 2.0, 0.0, 0.0, 2.0, 2.0, 0.0, 1.0, 0.0, 0.0, 0.0, 0.0, 0.0, 0.0, 1.0], "bins": [-0.10805294662714005, -0.10507787764072418, -0.10210281610488892, -0.09912774711847305, -0.09615267813205719, -0.09317761659622192, -0.09020254760980606, -0.0872274786233902, -0.08425241708755493, -0.08127734810113907, -0.0783022865653038, -0.07532721757888794, -0.07235214859247208, -0.06937707960605621, -0.06640201807022095, -0.06342694908380508, -0.06045188009738922, -0.05747681483626366, -0.054501745849847794, -0.05152668058872223, -0.048551611602306366, -0.0455765463411808, -0.04260148108005524, -0.039626412093639374, -0.03665134683251381, -0.033676281571388245, -0.03070121258497238, -0.027726147323846817, -0.024751080200076103, -0.02177601307630539, -0.018800947815179825, -0.01582588069140911, -0.0128508061170578, -0.009875738993287086, -0.006900672800838947, -0.003925606608390808, -0.0009505394846200943, 0.0020245276391506195, 0.004999592900276184, 0.007974660024046898, 0.010949727147817612, 0.013924794271588326, 0.01689986139535904, 0.019874926656484604, 0.022849993780255318, 0.02582506090402603, 0.028800126165151596, 0.03177519142627716, 0.034750260412693024, 0.03772532567381859, 0.04070039466023445, 0.043675459921360016, 0.04665052890777588, 0.049625594168901443, 0.05260065943002701, 0.05557572841644287, 0.058550793677568436, 0.061525858938694, 0.06450092792510986, 0.06747598946094513, 0.07045105844736099, 0.07342612743377686, 0.07640118896961212, 0.07937625795602798, 0.08235132694244385]}, "gradients/_encoder.encoder.4.weight": {"_type": "histogram", "values": [1.0, 0.0, 1.0, 1.0, 0.0, 0.0, 0.0, 1.0, 0.0, 3.0, 2.0, 2.0, 2.0, 4.0, 3.0, 10.0, 11.0, 8.0, 17.0, 24.0, 31.0, 40.0, 45.0, 55.0, 82.0, 119.0, 146.0, 244.0, 303.0, 383.0, 494.0, 702.0, 761.0, 831.0, 796.0, 781.0, 578.0, 494.0, 334.0, 249.0, 196.0, 112.0, 94.0, 58.0, 49.0, 26.0, 29.0, 11.0, 14.0, 13.0, 4.0, 6.0, 4.0, 3.0, 4.0, 0.0, 1.0, 2.0, 2.0, 0.0, 2.0, 1.0, 2.0, 1.0], "bins": [-0.0845334380865097, -0.0820336788892746, -0.07953392714262009, -0.07703416794538498, -0.07453441619873047, -0.07203465700149536, -0.06953489780426025, -0.06703513860702515, -0.06453538686037064, -0.06203563138842583, -0.05953587591648102, -0.05703611671924591, -0.0545363612473011, -0.05203660577535629, -0.049536846578121185, -0.047037091106176376, -0.04453733563423157, -0.04203758016228676, -0.03953782469034195, -0.03703806549310684, -0.03453831002116203, -0.032038554549217224, -0.029538797214627266, -0.027039039880037308, -0.0245392844080925, -0.02203952893614769, -0.01953977160155773, -0.017040014266967773, -0.014540258795022964, -0.012040502391755581, -0.009540745988488197, -0.007040988653898239, -0.00454123318195343, -0.0020414767786860466, 0.000458279624581337, 0.0029580360278487206, 0.005457792431116104, 0.007957548834383488, 0.010457305237650871, 0.01295706257224083, 0.015456818044185638, 0.017956573516130447, 0.020456330850720406, 0.022956088185310364, 0.025455843657255173, 0.02795559912919998, 0.03045535646378994, 0.0329551137983799, 0.03545486927032471, 0.037954624742269516, 0.040454380214214325, 0.04295413941144943, 0.04545389488339424, 0.04795365035533905, 0.05045340955257416, 0.05295316502451897, 0.055452920496463776, 0.057952675968408585, 0.060452431440353394, 0.0629521906375885, 0.06545194983482361, 0.06795170158147812, 0.07045146077871323, 0.07295121252536774, 0.07545097172260284]}, "gradients/_encoder.encoder.1.weight": {"_type": "histogram", "values": [1.0, 1.0, 0.0, 1.0, 0.0, 0.0, 0.0, 0.0, 0.0, 2.0, 0.0, 0.0, 1.0, 1.0, 1.0, 1.0, 1.0, 2.0, 1.0, 3.0, 3.0, 4.0, 11.0, 6.0, 4.0, 10.0, 6.0, 10.0, 9.0, 5.0, 2.0, 6.0, 6.0, 5.0, 4.0, 3.0, 2.0, 1.0, 2.0, 1.0, 0.0, 1.0, 2.0, 0.0, 1.0, 1.0, 3.0, 1.0, 0.0, 0.0, 2.0, 0.0, 0.0, 0.0, 0.0, 0.0, 0.0, 0.0, 0.0, 0.0, 0.0, 0.0, 0.0, 1.0], "bins": [-0.021545954048633575, -0.02078487165272236, -0.020023789256811142, -0.019262708723545074, -0.018501626327633858, -0.01774054393172264, -0.016979463398456573, -0.016218381002545357, -0.01545729860663414, -0.014696216210722923, -0.013935134746134281, -0.013174053281545639, -0.012412970885634422, -0.011651888489723206, -0.010890807025134563, -0.010129725560545921, -0.009368643164634705, -0.008607560768723488, -0.007846479304134846, -0.007085397373884916, -0.006324315443634987, -0.0055632335133850574, -0.004802151583135128, -0.004041069652885199, -0.003279987722635269, -0.0025189057923853397, -0.0017578238621354103, -0.0009967419318854809, -0.00023566000163555145, 0.000525421928614378, 0.0012865038588643074, 0.002047585789114237, 0.0028086677193641663, 0.0035697496496140957, 0.004330831579864025, 0.0050919135101139545, 0.005852995440363884, 0.006614077370613813, 0.007375159300863743, 0.008136240765452385, 0.008897323161363602, 0.009658405557274818, 0.01041948702186346, 0.011180568486452103, 0.01194165088236332, 0.012702733278274536, 0.013463814742863178, 0.01422489620745182, 0.014985978603363037, 0.015747060999274254, 0.01650814339518547, 0.017269223928451538, 0.018030306324362755, 0.01879138872027397, 0.01955246925354004, 0.020313551649451256, 0.021074634045362473, 0.02183571644127369, 0.022596798837184906, 0.023357879370450974, 0.02411896176636219, 0.024880044162273407, 0.025641124695539474, 0.02640220709145069, 0.027163289487361908]}, "gradients/_encoder.encoder.1.bias": {"_type": "histogram", "values": [1.0, 0.0, 0.0, 0.0, 1.0, 1.0, 0.0, 0.0, 0.0, 0.0, 0.0, 0.0, 0.0, 2.0, 2.0, 3.0, 2.0, 8.0, 3.0, 6.0, 2.0, 4.0, 5.0, 8.0, 3.0, 2.0, 7.0, 5.0, 2.0, 3.0, 9.0, 6.0, 4.0, 4.0, 3.0, 3.0, 5.0, 5.0, 2.0, 1.0, 2.0, 3.0, 1.0, 2.0, 0.0, 1.0, 1.0, 0.0, 0.0, 1.0, 1.0, 0.0, 2.0, 0.0, 0.0, 0.0, 0.0, 1.0, 0.0, 0.0, 0.0, 0.0, 0.0, 1.0], "bins": [-0.03272375464439392, -0.03153857961297035, -0.030353402718901634, -0.029168225824832916, -0.027983050793409348, -0.02679787389934063, -0.02561269700527191, -0.024427521973848343, -0.023242345079779625, -0.022057168185710907, -0.020871993154287338, -0.01968681626021862, -0.018501639366149902, -0.017316464334726334, -0.016131287440657616, -0.014946111477911472, -0.013760935515165329, -0.012575759552419186, -0.011390583589673042, -0.010205406695604324, -0.009020230732858181, -0.007835054770112038, -0.006649878341704607, -0.005464701913297176, -0.004279525950551033, -0.003094349754974246, -0.001909173559397459, -0.000723997363820672, 0.00046117883175611496, 0.0016463547945022583, 0.002831531222909689, 0.00401670765131712, 0.005201883614063263, 0.006387059576809406, 0.007572236005216837, 0.008757412433624268, 0.009942588396370411, 0.011127764359116554, 0.012312941253185272, 0.013498117215931416, 0.014683293178677559, 0.015868470072746277, 0.017053645104169846, 0.018238821998238564, 0.01942399889230728, 0.02060917392373085, 0.021794350817799568, 0.022979527711868286, 0.024164702743291855, 0.025349879637360573, 0.02653505466878414, 0.02772023156285286, 0.028905406594276428, 0.030090583488345146, 0.031275760382413864, 0.03246093541383743, 0.0336461141705513, 0.03483128920197487, 0.036016467958688736, 0.037201642990112305, 0.03838681802153587, 0.03957199305295944, 0.04075717180967331, 0.04194234684109688, 0.04312752187252045]}, "gradients/_encoder.encoder.0.bias": {"_type": "histogram", "values": [1.0, 0.0, 0.0, 0.0, 0.0, 1.0, 1.0, 0.0, 0.0, 0.0, 0.0, 1.0, 0.0, 1.0, 1.0, 2.0, 0.0, 0.0, 1.0, 1.0, 1.0, 2.0, 0.0, 0.0, 3.0, 3.0, 1.0, 5.0, 7.0, 2.0, 3.0, 2.0, 6.0, 13.0, 9.0, 5.0, 6.0, 8.0, 4.0, 6.0, 3.0, 1.0, 2.0, 4.0, 5.0, 1.0, 4.0, 2.0, 1.0, 1.0, 0.0, 0.0, 1.0, 0.0, 4.0, 0.0, 0.0, 1.0, 0.0, 0.0, 0.0, 0.0, 1.0, 1.0], "bins": [-8.530914783477783e-07, -8.290517143905163e-07, -8.050119504332542e-07, -7.809721864759922e-07, -7.569324225187302e-07, -7.328926585614681e-07, -7.088528946042061e-07, -6.84813130646944e-07, -6.60773366689682e-07, -6.3673360273242e-07, -6.126938387751579e-07, -5.886540748178959e-07, -5.646143108606339e-07, -5.405745469033718e-07, -5.165347829461098e-07, -4.924950189888477e-07, -4.684552550315857e-07, -4.4441549107432365e-07, -4.203757271170616e-07, -3.963359631597996e-07, -3.7229619920253754e-07, -3.482564352452755e-07, -3.2421667128801346e-07, -3.001769073307514e-07, -2.761371433734894e-07, -2.5209737941622734e-07, -2.280576154589653e-07, -2.0401785150170326e-07, -1.7997808754444122e-07, -1.5593832358717918e-07, -1.3189855962991714e-07, -1.078587956726551e-07, -8.381903171539307e-08, -5.977926775813103e-08, -3.573950380086899e-08, -1.1699739843606949e-08, 1.234002411365509e-08, 3.637978807091713e-08, 6.041955202817917e-08, 8.445931598544121e-08, 1.0849907994270325e-07, 1.3253884389996529e-07, 1.5657860785722733e-07, 1.8061837181448936e-07, 2.046581357717514e-07, 2.2869789972901344e-07, 2.527376636862755e-07, 2.767774276435375e-07, 3.0081719160079956e-07, 3.248569555580616e-07, 3.4889671951532364e-07, 3.729364834725857e-07, 3.969762474298477e-07, 4.2101601138710976e-07, 4.450557753443718e-07, 4.6909553930163383e-07, 4.931353032588959e-07, 5.171750672161579e-07, 5.4121483117342e-07, 5.65254595130682e-07, 5.89294359087944e-07, 6.133341230452061e-07, 6.373738870024681e-07, 6.614136509597301e-07, 6.854534149169922e-07]}, "gradients/_encoder.encoder.0.weight": {"_type": "histogram", "values": [1.0, 0.0, 0.0, 0.0, 0.0, 0.0, 0.0, 1.0, 1.0, 0.0, 2.0, 3.0, 1.0, 6.0, 4.0, 2.0, 4.0, 12.0, 21.0, 22.0, 41.0, 75.0, 157.0, 307.0, 723.0, 1785.0, 4090.0, 9991.0, 26440.0, 42904.0, 15289.0, 5828.0, 2425.0, 962.0, 494.0, 224.0, 104.0, 72.0, 39.0, 27.0, 23.0, 13.0, 5.0, 6.0, 3.0, 8.0, 6.0, 0.0, 2.0, 2.0, 2.0, 0.0, 0.0, 0.0, 0.0, 0.0, 0.0, 0.0, 0.0, 0.0, 0.0, 0.0, 0.0, 1.0], "bins": [-0.2598206698894501, -0.250933974981308, -0.24204730987548828, -0.23316062986850739, -0.2242739498615265, -0.2153872549533844, -0.2065005749464035, -0.1976138949394226, -0.1887272149324417, -0.17984053492546082, -0.17095385491847992, -0.16206717491149902, -0.15318048000335693, -0.14429381489753723, -0.13540711998939514, -0.12652043998241425, -0.11763375997543335, -0.10874707996845245, -0.09986039996147156, -0.09097371250391006, -0.08208703249692917, -0.07320035248994827, -0.06431366503238678, -0.055426985025405884, -0.04654030501842499, -0.03765362501144409, -0.028766941279172897, -0.019880259409546852, -0.010993577539920807, -0.002106897532939911, 0.006779786199331284, 0.015666469931602478, 0.02455317974090576, 0.03343985974788666, 0.04232654348015785, 0.05121322721242905, 0.06009990721940994, 0.06898658722639084, 0.07787327468395233, 0.08675995469093323, 0.09564663469791412, 0.10453331470489502, 0.11341999471187592, 0.12230668216943741, 0.1311933696269989, 0.1400800347328186, 0.1489667296409607, 0.1578534096479416, 0.16674008965492249, 0.17562676966190338, 0.18451344966888428, 0.19340012967586517, 0.20228680968284607, 0.21117350459098816, 0.22006018459796906, 0.22894686460494995, 0.23783354461193085, 0.24672022461891174, 0.25560691952705383, 0.26449358463287354, 0.2733802795410156, 0.2822669446468353, 0.2911536395549774, 0.3000403046607971, 0.3089269995689392]}, "_wandb": {"runtime": 375}}