{"train_loss": 0.00865379348397255, "train_ssl_loss": 0.00561469467356801, "train_tsk_loss": 0.0030390992760658264, "test_loss": 0.8880224227905273, "test_ssl_loss": 0.8748624324798584, "test_tsk_loss": 0.01315999124199152, "_timestamp": 1697558073.241578, "_runtime": 232.54565119743347, "_step": 99, "gradients/graph_1taskmapper.out.bias": {"_type": "histogram", "values": [0.0, 0.0, 0.0, 0.0, 0.0, 0.0, 0.0, 0.0, 0.0, 0.0, 0.0, 0.0, 0.0, 0.0, 0.0, 0.0, 0.0, 0.0, 0.0, 0.0, 0.0, 0.0, 0.0, 0.0, 0.0, 0.0, 0.0, 0.0, 0.0, 0.0, 0.0, 1.0, 0.0, 0.0, 0.0, 0.0, 0.0, 0.0, 0.0, 0.0, 0.0, 0.0, 0.0, 0.0, 0.0, 0.0, 0.0, 0.0, 0.0, 0.0, 0.0, 0.0, 0.0, 0.0, 0.0, 0.0, 0.0, 0.0, 0.0, 0.0, 0.0, 0.0, 0.0, 0.0], "bins": [-0.01960662379860878, -0.01960662379860878, -0.01960662379860878, -0.01960662379860878, -0.01960662379860878, -0.01960662379860878, -0.01960662379860878, -0.01960662379860878, -0.01960662379860878, -0.01960662379860878, -0.01960662379860878, -0.01960662379860878, -0.01960662379860878, -0.01960662379860878, -0.01960662379860878, -0.01960662379860878, -0.01960662379860878, -0.01960662379860878, -0.01960662379860878, -0.01960662379860878, -0.01960662379860878, -0.01960662379860878, -0.01960662379860878, -0.01960662379860878, -0.01960662379860878, -0.01960662379860878, -0.01960662379860878, -0.01960662379860878, -0.01960662379860878, -0.01960662379860878, -0.01960662379860878, -0.01960662379860878, -0.01960662379860878, -0.01960662379860878, -0.01960662379860878, -0.01960662379860878, -0.01960662379860878, -0.01960662379860878, -0.01960662379860878, -0.01960662379860878, -0.01960662379860878, -0.01960662379860878, -0.01960662379860878, -0.01960662379860878, -0.01960662379860878, -0.01960662379860878, -0.01960662379860878, -0.01960662379860878, -0.01960662379860878, -0.01960662379860878, -0.01960662379860878, -0.01960662379860878, -0.01960662379860878, -0.01960662379860878, -0.01960662379860878, -0.01960662379860878, -0.01960662379860878, -0.01960662379860878, -0.01960662379860878, -0.01960662379860878, -0.01960662379860878, -0.01960662379860878, -0.01960662379860878, -0.01960662379860878, -0.01960662379860878]}, "gradients/graph_1taskmapper.out.weight": {"_type": "histogram", "values": [1.0, 1.0, 0.0, 0.0, 1.0, 0.0, 0.0, 0.0, 1.0, 0.0, 0.0, 1.0, 1.0, 0.0, 1.0, 0.0, 0.0, 0.0, 0.0, 0.0, 0.0, 0.0, 0.0, 0.0, 1.0, 0.0, 0.0, 0.0, 0.0, 0.0, 0.0, 0.0, 0.0, 0.0, 0.0, 0.0, 1.0, 0.0, 0.0, 0.0, 1.0, 0.0, 0.0, 0.0, 0.0, 0.0, 0.0, 0.0, 0.0, 0.0, 0.0, 0.0, 0.0, 0.0, 0.0, 0.0, 0.0, 0.0, 0.0, 1.0, 0.0, 0.0, 1.0, 4.0], "bins": [-0.004539612680673599, -0.004468681290745735, -0.004397749900817871, -0.004326818510890007, -0.004255887120962143, -0.0041849552653729916, -0.0041140238754451275, -0.004043092485517263, -0.003972161095589399, -0.0039012297056615353, -0.003830298315733671, -0.0037593666929751635, -0.0036884353030472994, -0.0036175039131194353, -0.0035465722903609276, -0.0034756409004330635, -0.0034047095105051994, -0.0033337781205773354, -0.0032628467306494713, -0.0031919151078909636, -0.0031209837179630995, -0.0030500523280352354, -0.0029791207052767277, -0.0029081893153488636, -0.0028372579254209995, -0.0027663265354931355, -0.0026953951455652714, -0.0026244635228067636, -0.0025535321328788996, -0.0024826007429510355, -0.0024116691201925278, -0.0023407377302646637, -0.0022698063403367996, -0.0021988749504089355, -0.0021279435604810715, -0.0020570119377225637, -0.0019860805477946997, -0.0019151491578668356, -0.0018442176515236497, -0.0017732861451804638, -0.0017023547552525997, -0.0016314233653247356, -0.0015604918589815497, -0.0014895603526383638, -0.0014186289627104998, -0.0013476975727826357, -0.0012767660664394498, -0.0012058345600962639, -0.0011349031701683998, -0.0010639717802405357, -0.0009930402738973498, -0.0009221088257618248, -0.0008511773776262999, -0.0007802459294907749, -0.0007093144813552499, -0.0006383830332197249, -0.0005674515850841999, -0.0004965201369486749, -0.00042558868881314993, -0.00035465724067762494, -0.00028372579254209995, -0.00021279434440657496, -0.00014186289627104998, -7.093144813552499e-05, 0.0]}, "gradients/graph_1taskmapper.lins.1.bias": {"_type": "histogram", "values": [1.0, 0.0, 0.0, 0.0, 0.0, 0.0, 1.0, 0.0, 2.0, 0.0, 0.0, 0.0, 1.0, 0.0, 0.0, 0.0, 0.0, 0.0, 1.0, 0.0, 0.0, 1.0, 0.0, 0.0, 0.0, 0.0, 1.0, 0.0, 0.0, 0.0, 0.0, 0.0, 0.0, 0.0, 0.0, 0.0, 0.0, 0.0, 1.0, 0.0, 0.0, 3.0, 1.0, 0.0, 0.0, 0.0, 0.0, 0.0, 1.0, 1.0, 0.0, 0.0, 0.0, 0.0, 0.0, 0.0, 0.0, 0.0, 0.0, 0.0, 0.0, 0.0, 0.0, 1.0], "bins": [-0.006221397314220667, -0.006070424802601337, -0.005919452290982008, -0.0057684797793626785, -0.005617507267743349, -0.00546653475612402, -0.00531556224450469, -0.005164589732885361, -0.005013617686927319, -0.004862645175307989, -0.00471167266368866, -0.00456070015206933, -0.004409727640450001, -0.004258755128830671, -0.004107782617211342, -0.0039568105712533, -0.003805837593972683, -0.0036548650823533535, -0.003503892570734024, -0.0033529200591146946, -0.003201947547495365, -0.0030509750358760357, -0.00290000275708735, -0.0027490302454680204, -0.002598057733848691, -0.0024470852222293615, -0.002296112710610032, -0.0021451401989907026, -0.001994167920202017, -0.0018431952921673656, -0.001692222896963358, -0.0015412503853440285, -0.0013902774080634117, -0.0012393048964440823, -0.0010883323848247528, -0.0009373599896207452, -0.0007863874780014157, -0.0006354149663820863, -0.00048444251297041774, -0.0003334700595587492, -0.00018249754793941975, -3.152506542392075e-05, 0.00011944741709157825, 0.00027041989960707724, 0.00042139238212257624, 0.0005723648937419057, 0.0007233373471535742, 0.0008743098005652428, 0.0010252823121845722, 0.0011762548238039017, 0.0013272273354232311, 0.0014781997306272388, 0.0016291722422465682, 0.0017801447538658977, 0.0019311171490699053, 0.0020820896606892347, 0.002233062172308564, 0.0023840346839278936, 0.002535007195547223, 0.0026859797071665525, 0.0028369519859552383, 0.002987924497574568, 0.0031388970091938972, 0.0032898695208132267, 0.003440842032432556]}, "gradients/graph_1taskmapper.lins.1.weight": {"_type": "histogram", "values": [1.0, 0.0, 0.0, 0.0, 1.0, 0.0, 0.0, 0.0, 0.0, 1.0, 2.0, 0.0, 4.0, 2.0, 1.0, 6.0, 5.0, 1.0, 2.0, 10.0, 5.0, 4.0, 9.0, 8.0, 7.0, 2.0, 6.0, 2.0, 6.0, 8.0, 7.0, 6.0, 2.0, 3.0, 8.0, 2.0, 6.0, 10.0, 15.0, 15.0, 157.0, 14.0, 5.0, 6.0, 9.0, 5.0, 3.0, 3.0, 4.0, 2.0, 1.0, 2.0, 0.0, 0.0, 0.0, 2.0, 1.0, 0.0, 1.0, 1.0, 0.0, 0.0, 0.0, 1.0], "bins": [-0.0017687828512862325, -0.0017249922966584563, -0.001681201858446002, -0.0016374113038182259, -0.0015936207491904497, -0.0015498301945626736, -0.0015060397563502192, -0.001462249201722443, -0.0014184587635099888, -0.0013746682088822126, -0.0013308777706697583, -0.0012870872160419822, -0.001243296661414206, -0.0011995062232017517, -0.0011557156685739756, -0.0011119251139461994, -0.0010681345593184233, -0.0010243440046906471, -0.0009805535664781928, -0.0009367630118504167, -0.0008929724572226405, -0.0008491819608025253, -0.00080539146438241, -0.0007616009097546339, -0.0007178104133345187, -0.0006740199169144034, -0.0006302293622866273, -0.0005864388658665121, -0.0005426483694463968, -0.0004988578148186207, -0.00045506731839850545, -0.00041127679287455976, -0.00036748626735061407, -0.0003236957418266684, -0.0002799052163027227, -0.00023611471988260746, -0.00019232419435866177, -0.00014853366883471608, -0.00010474317241460085, -6.095264689065516e-05, -1.716212136670947e-05, 2.6628396881278604e-05, 7.041891512926668e-05, 0.00011420942610129714, 0.00015799995162524283, 0.00020179047714918852, 0.00024558097356930375, 0.00028937149909324944, 0.00033316202461719513, 0.0003769525501411408, 0.0004207430756650865, 0.00046453357208520174, 0.0005083241267129779, 0.0005521146231330931, 0.0005959051195532084, 0.0006396956741809845, 0.0006834861706010997, 0.000727276667021215, 0.0007710672216489911, 0.0008148577180691063, 0.0008586482144892216, 0.0009024387691169977, 0.000946229265537113, 0.0009900197619572282, 0.0010338103165850043]}, "gradients/graph_1taskmapper.lins.0.bias": {"_type": "histogram", "values": [1.0, 0.0, 0.0, 0.0, 0.0, 0.0, 0.0, 0.0, 1.0, 0.0, 0.0, 2.0, 0.0, 1.0, 0.0, 0.0, 1.0, 1.0, 0.0, 0.0, 0.0, 0.0, 2.0, 1.0, 0.0, 0.0, 1.0, 0.0, 0.0, 0.0, 1.0, 0.0, 0.0, 0.0, 1.0, 1.0, 1.0, 5.0, 1.0, 0.0, 0.0, 0.0, 0.0, 0.0, 0.0, 0.0, 0.0, 0.0, 0.0, 0.0, 0.0, 0.0, 0.0, 0.0, 1.0, 0.0, 1.0, 0.0, 0.0, 0.0, 0.0, 0.0, 0.0, 1.0], "bins": [-0.008440528996288776, -0.008218378759920597, -0.007996229454874992, -0.007774079218506813, -0.007551928982138634, -0.007329779211431742, -0.00710762944072485, -0.00688547920435667, -0.006663328967988491, -0.006441179197281599, -0.00621902896091342, -0.005996879190206528, -0.005774728953838348, -0.005552579183131456, -0.005330429412424564, -0.005108279176056385, -0.004886129405349493, -0.004663979634642601, -0.004441829398274422, -0.00421967962756753, -0.00399752939119935, -0.0037753796204924583, -0.0035532296169549227, -0.003331079613417387, -0.0031089296098798513, -0.0028867796063423157, -0.00266462960280478, -0.0024424795992672443, -0.0022203298285603523, -0.001998179592192173, -0.001776029821485281, -0.0015538798179477453, -0.0013317298144102097, -0.001109579810872674, -0.0008874298655427992, -0.0006652799202129245, -0.0004431299166753888, -0.00022097991313785315, 1.1699739843606949e-06, 0.00022331997752189636, 0.00044546998105943203, 0.0006676199845969677, 0.0008897699299268425, 0.0011119198752567172, 0.0013340698787942529, 0.0015562198823317885, 0.0017783697694540024, 0.002000519772991538, 0.0022226697765290737, 0.0024448197800666094, 0.002666969783604145, 0.002889119554311037, 0.0031112697906792164, 0.0033334195613861084, 0.003555569564923644, 0.0037777195684611797, 0.003999869339168072, 0.004222019109874964, 0.004444169346243143, 0.004666319116950035, 0.004888469353318214, 0.005110619124025106, 0.0053327688947319984, 0.005554919131100178, 0.005777069367468357]}, "gradients/graph_1taskmapper.lins.0.weight": {"_type": "histogram", "values": [1.0, 1.0, 0.0, 0.0, 1.0, 3.0, 0.0, 1.0, 1.0, 1.0, 4.0, 3.0, 3.0, 2.0, 8.0, 5.0, 13.0, 9.0, 13.0, 18.0, 21.0, 11.0, 18.0, 22.0, 24.0, 35.0, 42.0, 227.0, 49.0, 22.0, 34.0, 27.0, 23.0, 19.0, 17.0, 14.0, 12.0, 12.0, 4.0, 7.0, 10.0, 4.0, 5.0, 2.0, 2.0, 6.0, 1.0, 3.0, 2.0, 1.0, 1.0, 1.0, 1.0, 0.0, 1.0, 0.0, 0.0, 0.0, 0.0, 0.0, 0.0, 0.0, 0.0, 1.0], "bins": [-0.0024013081565499306, -0.0023130890913307667, -0.0022248702589422464, -0.0021366511937230825, -0.0020484323613345623, -0.0019602132961153984, -0.0018719942308962345, -0.0017837752820923924, -0.0016955563332885504, -0.0016073373844847083, -0.0015191184356808662, -0.0014308993704617023, -0.0013426804216578603, -0.0012544614728540182, -0.0011662424076348543, -0.0010780234588310122, -0.0009898045100271702, -0.0009015855612233281, -0.0008133665542118251, -0.0007251475472003222, -0.0006369285983964801, -0.000548709649592638, -0.00046049064258113503, -0.00037227163556963205, -0.00028405268676579, -0.00019583370885811746, -0.00010761473095044494, -1.9395753042772412e-05, 6.882322486490011e-05, 0.00015704220277257264, 0.00024526118068024516, 0.00033348018769174814, 0.0004216991364955902, 0.0005099180852994323, 0.0005981370923109353, 0.0006863560993224382, 0.0007745750481262803, 0.0008627939969301224, 0.0009510130039416254, 0.0010392320109531283, 0.0011274509597569704, 0.0012156699085608125, 0.0013038888573646545, 0.0013921079225838184, 0.0014803268713876605, 0.0015685458201915026, 0.0016567648854106665, 0.0017449838342145085, 0.0018332027830183506, 0.0019214217318221927, 0.0020096406806260347, 0.0020978597458451986, 0.002186078578233719, 0.0022742976434528828, 0.0023625167086720467, 0.0024507357738912106, 0.002538954606279731, 0.0026271736714988947, 0.002715392503887415, 0.002803611569106579, 0.0028918306343257427, 0.002980049466714263, 0.003068268531933427, 0.003156487364321947, 0.003244706429541111]}, "gradients/graph_1_projector.0.bias": {"_type": "histogram", "values": [1.0, 0.0, 1.0, 1.0, 0.0, 0.0, 0.0, 0.0, 0.0, 2.0, 1.0, 0.0, 0.0, 0.0, 0.0, 0.0, 0.0, 1.0, 1.0, 0.0, 1.0, 1.0, 0.0, 1.0, 0.0, 1.0, 0.0, 0.0, 1.0, 3.0, 1.0, 0.0, 0.0, 1.0, 0.0, 0.0, 0.0, 0.0, 1.0, 0.0, 1.0, 1.0, 0.0, 1.0, 0.0, 0.0, 2.0, 0.0, 2.0, 2.0, 1.0, 0.0, 1.0, 0.0, 0.0, 0.0, 0.0, 0.0, 0.0, 0.0, 0.0, 1.0, 0.0, 1.0], "bins": [-0.01475411094725132, -0.01429184153676033, -0.01382957212626934, -0.013367301784455776, -0.012905032373964787, -0.012442762963473797, -0.011980492621660233, -0.011518223211169243, -0.011055953800678253, -0.010593684390187263, -0.010131414979696274, -0.00966914463788271, -0.00920687522739172, -0.00874460581690073, -0.008282335475087166, -0.007820066064596176, -0.0073577966541051865, -0.006895527243614197, -0.00643325736746192, -0.005970987491309643, -0.005508718080818653, -0.005046448670327663, -0.004584178794175386, -0.0041219089180231094, -0.0036596395075321198, -0.0031973698642104864, -0.002735100220888853, -0.0022728305775672197, -0.0018105609342455864, -0.001348291290923953, -0.0008860216476023197, -0.0004237520042806864, 3.8516707718372345e-05, 0.0005007863510400057, 0.000963055994361639, 0.0014253256376832724, 0.0018875952810049057, 0.002349864924326539, 0.0028121345676481724, 0.0032744042109698057, 0.003736673854291439, 0.004198943264782429, 0.004661213140934706, 0.005123483017086983, 0.005585752427577972, 0.006048021838068962, 0.006510291714221239, 0.006972561590373516, 0.007434831000864506, 0.007897100411355495, 0.00835937075316906, 0.00882164016366005, 0.009283909574151039, 0.009746178984642029, 0.010208448395133018, 0.010670718736946583, 0.011132988147437572, 0.011595257557928562, 0.012057527899742126, 0.012519797310233116, 0.012982066720724106, 0.013444336131215096, 0.013906605541706085, 0.01436887588351965, 0.01483114529401064]}, "gradients/graph_1_projector.0.weight": {"_type": "histogram", "values": [1.0, 1.0, 1.0, 1.0, 0.0, 0.0, 1.0, 1.0, 4.0, 8.0, 12.0, 5.0, 10.0, 14.0, 20.0, 33.0, 33.0, 33.0, 49.0, 66.0, 88.0, 93.0, 159.0, 165.0, 203.0, 198.0, 232.0, 241.0, 273.0, 275.0, 250.0, 251.0, 229.0, 216.0, 186.0, 149.0, 125.0, 112.0, 86.0, 64.0, 53.0, 35.0, 29.0, 31.0, 19.0, 13.0, 5.0, 3.0, 4.0, 5.0, 4.0, 1.0, 1.0, 2.0, 0.0, 0.0, 0.0, 1.0, 1.0, 0.0, 0.0, 0.0, 0.0, 1.0], "bins": [-0.013777883723378181, -0.01330951601266861, -0.012841147370636463, -0.012372779659926891, -0.01190441194921732, -0.011436043307185173, -0.010967675596475601, -0.01049930788576603, -0.010030940175056458, -0.009562572464346886, -0.00909420382231474, -0.008625836111605167, -0.008157468400895596, -0.007689100224524736, -0.007220732048153877, -0.006752364337444305, -0.006283996161073446, -0.005815627984702587, -0.005347260273993015, -0.004878892097622156, -0.004410524386912584, -0.003942156210541725, -0.0034737882670015097, -0.003005420323461294, -0.0025370523799210787, -0.002068684436380863, -0.0016003164928406477, -0.0011319484328851104, -0.0006635804893448949, -0.00019521242938935757, 0.0002731555141508579, 0.0007415234576910734, 0.001209891401231289, 0.0016782593447715044, 0.00214662728831172, 0.002614995464682579, 0.003083363175392151, 0.00355173135176301, 0.004020099528133869, 0.004488467238843441, 0.004956834949553013, 0.005425203125923872, 0.005893570836633444, 0.006361939013004303, 0.006830306723713875, 0.007298674900084734, 0.007767043076455593, 0.008235410787165165, 0.008703779429197311, 0.009172147139906883, 0.00964051578193903, 0.010108883492648602, 0.010577251203358173, 0.01104561984539032, 0.011513987556099892, 0.011982355266809464, 0.012450722977519035, 0.012919090688228607, 0.013387459330260754, 0.013855827040970325, 0.014324194751679897, 0.014792563393712044, 0.015260931104421616, 0.015729298815131187, 0.01619766652584076]}, "gradients/graph_1_encoder.encoder.8.bias": {"_type": "histogram", "values": [1.0, 0.0, 0.0, 0.0, 0.0, 0.0, 0.0, 0.0, 1.0, 1.0, 0.0, 0.0, 0.0, 6.0, 4.0, 0.0, 1.0, 1.0, 1.0, 2.0, 2.0, 1.0, 1.0, 1.0, 2.0, 2.0, 6.0, 3.0, 3.0, 7.0, 4.0, 5.0, 2.0, 3.0, 3.0, 2.0, 4.0, 4.0, 5.0, 3.0, 6.0, 2.0, 2.0, 6.0, 7.0, 0.0, 2.0, 0.0, 3.0, 1.0, 3.0, 4.0, 1.0, 0.0, 1.0, 0.0, 0.0, 0.0, 1.0, 0.0, 3.0, 2.0, 1.0, 2.0], "bins": [-0.007609115913510323, -0.007377536967396736, -0.00714595802128315, -0.006914379075169563, -0.0066827996633946896, -0.006451220717281103, -0.006219641771167517, -0.00598806282505393, -0.0057564834132790565, -0.00552490446716547, -0.005293325521051884, -0.005061746574938297, -0.0048301671631634235, -0.004598588217049837, -0.004367009270936251, -0.004135430324822664, -0.003903851378709078, -0.0036722724325954914, -0.0034406932536512613, -0.003209114307537675, -0.002977535128593445, -0.0027459561824798584, -0.002514377236366272, -0.0022827982902526855, -0.0020512191113084555, -0.0018196400487795472, -0.001588060986250639, -0.0013564820401370525, -0.0011249029776081443, -0.000893323915079236, -0.0006617449689656496, -0.00043016590643674135, -0.0001985868439078331, 3.29921895172447e-05, 0.0002645712229423225, 0.0004961502272635698, 0.0007277292897924781, 0.0009593083523213863, 0.0011908872984349728, 0.001422466360963881, 0.0016540454234927893, 0.0018856244860216975, 0.0021172035485506058, 0.002348782494664192, 0.0025803614407777786, 0.0028119406197220087, 0.003043519565835595, 0.003275098744779825, 0.0035066776908934116, 0.003738256637006998, 0.0039698355831205845, 0.004201414994895458, 0.004432993941009045, 0.004664572887122631, 0.0048961518332362175, 0.005127730779349804, 0.00535930972546339, 0.005590888671576977, 0.005822467617690563, 0.00605404656380415, 0.006285625975579023, 0.00651720492169261, 0.006748783867806196, 0.006980362813919783, 0.007211942225694656]}, "gradients/graph_1_encoder.encoder.8.weight": {"_type": "histogram", "values": [2.0, 3.0, 1.0, 2.0, 1.0, 2.0, 5.0, 5.0, 14.0, 14.0, 18.0, 33.0, 36.0, 62.0, 74.0, 115.0, 129.0, 193.0, 305.0, 386.0, 510.0, 705.0, 862.0, 1126.0, 1305.0, 1675.0, 2021.0, 2343.0, 2605.0, 2766.0, 2580.0, 2298.0, 2014.0, 1776.0, 1388.0, 1166.0, 963.0, 741.0, 581.0, 427.0, 358.0, 271.0, 198.0, 182.0, 135.0, 103.0, 67.0, 58.0, 42.0, 19.0, 17.0, 19.0, 7.0, 10.0, 6.0, 7.0, 3.0, 7.0, 1.0, 1.0, 3.0, 0.0, 1.0, 1.0], "bins": [-0.010951844975352287, -0.010582363232970238, -0.010212881490588188, -0.009843400679528713, -0.009473918937146664, -0.009104437194764614, -0.00873495638370514, -0.00836547464132309, -0.00799599289894104, -0.0076265111565589905, -0.007257029879838228, -0.006887548603117466, -0.006518066860735416, -0.006148585118353367, -0.005779103841632605, -0.005409622564911842, -0.005040140822529793, -0.004670659080147743, -0.004301177803426981, -0.003931696526706219, -0.003562214784324169, -0.0031927332747727633, -0.0028232517652213573, -0.0024537702556699514, -0.0020842887461185455, -0.0017148072365671396, -0.0013453257270157337, -0.0009758442174643278, -0.0006063627079129219, -0.000236881198361516, 0.0001326003111898899, 0.0005020818207412958, 0.0008715623989701271, 0.001241043908521533, 0.001610525418072939, 0.001980006927624345, 0.0023494884371757507, 0.0027189699467271566, 0.0030884514562785625, 0.0034579329658299685, 0.0038274144753813744, 0.004196896217763424, 0.004566377494484186, 0.004935858771204948, 0.005305340513586998, 0.0056748222559690475, 0.00604430353268981, 0.006413784809410572, 0.006783266551792622, 0.007152748294174671, 0.007522229570895433, 0.007891710847616196, 0.008261192589998245, 0.008630674332380295, 0.009000156074762344, 0.00936963688582182, 0.009739118628203869, 0.010108600370585918, 0.010478081181645393, 0.010847562924027443, 0.011217044666409492, 0.011586526408791542, 0.011956008151173592, 0.012325488962233067, 0.012694970704615116]}, "gradients/graph_1_encoder.encoder.5.weight": {"_type": "histogram", "values": [1.0, 0.0, 0.0, 0.0, 0.0, 1.0, 0.0, 0.0, 0.0, 2.0, 1.0, 0.0, 0.0, 0.0, 0.0, 2.0, 4.0, 3.0, 2.0, 0.0, 8.0, 1.0, 4.0, 4.0, 6.0, 8.0, 4.0, 6.0, 9.0, 7.0, 8.0, 9.0, 18.0, 13.0, 10.0, 11.0, 15.0, 15.0, 13.0, 5.0, 10.0, 12.0, 8.0, 4.0, 5.0, 4.0, 2.0, 3.0, 3.0, 4.0, 1.0, 0.0, 2.0, 0.0, 1.0, 0.0, 1.0, 1.0, 1.0, 2.0, 0.0, 1.0, 0.0, 1.0], "bins": [-0.00571452546864748, -0.005548011511564255, -0.005381497088819742, -0.005214983131736517, -0.005048469174653292, -0.004881954751908779, -0.004715440794825554, -0.004548926837742329, -0.004382412880659103, -0.004215898923575878, -0.004049384500831366, -0.0038828705437481403, -0.003716356586664915, -0.003549842396751046, -0.0033833282068371773, -0.003216814249753952, -0.0030502998270094395, -0.0028837856370955706, -0.0027172716800123453, -0.0025507574900984764, -0.002384243533015251, -0.0022177293431013823, -0.0020512151531875134, -0.0018847010796889663, -0.0017181870061904192, -0.0015516729326918721, -0.001385158859193325, -0.0012186446692794561, -0.001052130595780909, -0.000885616522282362, -0.0007191023323684931, -0.000552588258869946, -0.0003860737197101116, -0.00021955961710773408, -5.304551450535655e-05, 0.00011346861720085144, 0.0002799826906993985, 0.0004464967641979456, 0.0006130109541118145, 0.0007795250276103616, 0.0009460391011089087, 0.0011125531746074557, 0.0012790672481060028, 0.0014455814380198717, 0.0016120955115184188, 0.0017786095850169659, 0.0019451237749308348, 0.0021116379648447037, 0.002278151921927929, 0.002444666111841798, 0.002611180068925023, 0.002777694258838892, 0.0029442082159221172, 0.003110722405835986, 0.003277236595749855, 0.0034437505528330803, 0.003610264742746949, 0.003776778932660818, 0.003943292889744043, 0.004109807312488556, 0.004276321269571781, 0.004442835226655006, 0.004609349183738232, 0.004775863606482744, 0.0049423775635659695]}, "gradients/graph_1_encoder.encoder.5.bias": {"_type": "histogram", "values": [1.0, 1.0, 0.0, 0.0, 1.0, 1.0, 0.0, 1.0, 0.0, 1.0, 3.0, 2.0, 3.0, 1.0, 2.0, 1.0, 2.0, 2.0, 3.0, 4.0, 6.0, 10.0, 5.0, 7.0, 10.0, 7.0, 5.0, 12.0, 5.0, 6.0, 11.0, 13.0, 9.0, 7.0, 9.0, 8.0, 14.0, 7.0, 10.0, 6.0, 8.0, 3.0, 4.0, 5.0, 3.0, 5.0, 1.0, 5.0, 3.0, 4.0, 0.0, 2.0, 1.0, 2.0, 0.0, 3.0, 3.0, 1.0, 1.0, 2.0, 2.0, 0.0, 1.0, 1.0], "bins": [-0.005935258232057095, -0.0057523478753864765, -0.0055694375187158585, -0.005386527627706528, -0.00520361727103591, -0.005020706914365292, -0.0048377965576946735, -0.0046548862010240555, -0.004471976310014725, -0.004289065953344107, -0.004106155596673489, -0.003923245705664158, -0.00374033534899354, -0.0035574249923229218, -0.0033745146356523037, -0.0031916042789816856, -0.0030086939223110676, -0.0028257835656404495, -0.002642873441800475, -0.002459963085129857, -0.0022770529612898827, -0.0020941426046192646, -0.0019112322479486465, -0.0017283220076933503, -0.001545411767438054, -0.0013625015271827579, -0.0011795912869274616, -0.0009966809302568436, -0.0008137706900015473, -0.0006308604497462511, -0.00044795009307563305, -0.0002650398528203368, -8.212961256504059e-05, 0.0001007806567940861, 0.0002836909261532128, 0.00046660122461616993, 0.0006495114648714662, 0.0008324217051267624, 0.0010153320617973804, 0.0011982423020526767, 0.001381152542307973, 0.0015640627825632691, 0.0017469730228185654, 0.0019298833794891834, 0.0021127937361598015, 0.002295703859999776, 0.002478614216670394, 0.0026615243405103683, 0.0028444346971809864, 0.0030273450538516045, 0.003210255177691579, 0.003393165534362197, 0.0035760756582021713, 0.0037589860148727894, 0.0039418963715434074, 0.0041248067282140255, 0.0043077170848846436, 0.004490627441555262, 0.00467353779822588, 0.00485644768923521, 0.0050393580459058285, 0.0052222684025764465, 0.005405178759247065, 0.005588089115917683, 0.005770999006927013]}, "gradients/graph_1_encoder.encoder.4.bias": {"_type": "histogram", "values": [1.0, 0.0, 0.0, 0.0, 0.0, 0.0, 1.0, 0.0, 0.0, 0.0, 2.0, 1.0, 1.0, 2.0, 1.0, 2.0, 1.0, 0.0, 1.0, 5.0, 2.0, 3.0, 7.0, 7.0, 4.0, 12.0, 9.0, 9.0, 19.0, 21.0, 14.0, 29.0, 19.0, 9.0, 17.0, 8.0, 5.0, 14.0, 3.0, 1.0, 5.0, 2.0, 0.0, 4.0, 4.0, 1.0, 2.0, 0.0, 0.0, 2.0, 2.0, 0.0, 0.0, 0.0, 0.0, 1.0, 0.0, 0.0, 2.0, 0.0, 0.0, 0.0, 0.0, 1.0], "bins": [-2.444721758365631e-09, -2.3665052140131593e-09, -2.2882886696606874e-09, -2.2100721253082156e-09, -2.1318555809557438e-09, -2.053639036603272e-09, -1.9754224922508e-09, -1.8972059478983283e-09, -1.8189894035458565e-09, -1.7407728591933846e-09, -1.6625563148409128e-09, -1.584339770488441e-09, -1.5061232261359692e-09, -1.4279066817834973e-09, -1.3496901374310255e-09, -1.2714735930785537e-09, -1.1932570487260818e-09, -1.11504050437361e-09, -1.0368239600211382e-09, -9.586074156686664e-10, -8.803908713161945e-10, -8.021743269637227e-10, -7.239577826112509e-10, -6.45741238258779e-10, -5.675246939063072e-10, -4.893081495538354e-10, -4.1109160520136356e-10, -3.3287506084889174e-10, -2.546585164964199e-10, -1.7644197214394808e-10, -9.822542779147625e-11, -2.000888343900442e-11, 5.820766091346741e-11, 1.3642420526593924e-10, 2.1464074961841106e-10, 2.928572939708829e-10, 3.710738383233547e-10, 4.4929038267582655e-10, 5.275069270282984e-10, 6.057234713807702e-10, 6.83940015733242e-10, 7.621565600857139e-10, 8.403731044381857e-10, 9.185896487906575e-10, 9.968061931431293e-10, 1.0750227374956012e-09, 1.153239281848073e-09, 1.2314558262005448e-09, 1.3096723705530167e-09, 1.3878889149054885e-09, 1.4661054592579603e-09, 1.5443220036104321e-09, 1.622538547962904e-09, 1.7007550923153758e-09, 1.7789716366678476e-09, 1.8571881810203195e-09, 1.9354047253727913e-09, 2.013621269725263e-09, 2.091837814077735e-09, 2.1700543584302068e-09, 2.2482709027826786e-09, 2.3264874471351504e-09, 2.4047039914876223e-09, 2.482920535840094e-09, 2.561137080192566e-09]}, "gradients/graph_1_encoder.encoder.4.weight": {"_type": "histogram", "values": [2.0, 0.0, 0.0, 0.0, 0.0, 0.0, 1.0, 0.0, 0.0, 0.0, 2.0, 2.0, 5.0, 4.0, 5.0, 7.0, 11.0, 16.0, 20.0, 29.0, 46.0, 64.0, 71.0, 137.0, 152.0, 250.0, 377.0, 542.0, 877.0, 1388.0, 2281.0, 3350.0, 5240.0, 7976.0, 12491.0, 18458.0, 24084.0, 18997.0, 12141.0, 8063.0, 4769.0, 3097.0, 1943.0, 1289.0, 866.0, 604.0, 401.0, 286.0, 177.0, 166.0, 103.0, 81.0, 56.0, 51.0, 29.0, 26.0, 19.0, 4.0, 3.0, 4.0, 4.0, 1.0, 2.0, 2.0], "bins": [-0.0228573065251112, -0.022231288254261017, -0.021605271846055984, -0.020979253575205803, -0.02035323530435562, -0.01972721703350544, -0.019101198762655258, -0.018475182354450226, -0.017849164083600044, -0.017223145812749863, -0.01659712940454483, -0.01597111113369465, -0.015345092862844467, -0.014719074591994286, -0.014093057252466679, -0.013467039912939072, -0.01284102164208889, -0.012215003371238708, -0.011588986031711102, -0.010962968692183495, -0.010336950421333313, -0.009710932150483131, -0.009084914810955524, -0.008458897471427917, -0.007832879200577736, -0.007206861395388842, -0.006580843590199947, -0.005954825785011053, -0.005328807979822159, -0.0047027901746332645, -0.00407677236944437, -0.003450754564255476, -0.002824738621711731, -0.0021987208165228367, -0.0015727030113339424, -0.0009466852061450481, -0.00032066740095615387, 0.0003053504042327404, 0.0009313682094216347, 0.001557386014610529, 0.0021834038197994232, 0.0028094216249883175, 0.0034354394301772118, 0.004061457235366106, 0.004687475040555, 0.005313492845743895, 0.005939510650932789, 0.006565528456121683, 0.007191546261310577, 0.007817564532160759, 0.008443581871688366, 0.009069599211215973, 0.009695617482066154, 0.010321635752916336, 0.010947653092443943, 0.01157367043197155, 0.012199688702821732, 0.012825706973671913, 0.01345172431319952, 0.014077741652727127, 0.014703759923577309, 0.01532977819442749, 0.015955794602632523, 0.016581812873482704, 0.017207831144332886]}, "gradients/graph_1_encoder.encoder.1.weight": {"_type": "histogram", "values": [1.0, 0.0, 0.0, 0.0, 0.0, 0.0, 1.0, 0.0, 1.0, 0.0, 1.0, 2.0, 1.0, 0.0, 3.0, 4.0, 2.0, 3.0, 5.0, 2.0, 6.0, 6.0, 11.0, 10.0, 11.0, 13.0, 15.0, 21.0, 24.0, 26.0, 22.0, 24.0, 26.0, 21.0, 24.0, 22.0, 26.0, 27.0, 24.0, 13.0, 18.0, 14.0, 14.0, 10.0, 12.0, 3.0, 9.0, 12.0, 4.0, 3.0, 7.0, 3.0, 2.0, 1.0, 1.0, 0.0, 0.0, 0.0, 0.0, 0.0, 0.0, 0.0, 0.0, 1.0], "bins": [-0.004156006034463644, -0.004032586235553026, -0.003909166436642408, -0.0037857466377317905, -0.0036623268388211727, -0.003538907039910555, -0.003415487240999937, -0.0032920674420893192, -0.0031686476431787014, -0.0030452278442680836, -0.0029218080453574657, -0.002798388246446848, -0.00267496844753623, -0.0025515486486256123, -0.0024281288497149944, -0.0023047090508043766, -0.002181289019063115, -0.0020578692201524973, -0.0019344494212418795, -0.0018110296223312616, -0.0016876098234206438, -0.001564190024510026, -0.0014407701091840863, -0.0013173503102734685, -0.0011939305113628507, -0.0010705107124522328, -0.000947090913541615, -0.0008236710564233363, -0.0007002512575127184, -0.0005768314586021006, -0.00045341160148382187, -0.00032999180257320404, -0.00020657223649322987, -8.315242303069681e-05, 4.026739043183625e-05, 0.00016368721844628453, 0.00028710701735690236, 0.0004105268162675202, 0.0005339466733857989, 0.0006573664722964168, 0.0007807862712070346, 0.0009042060701176524, 0.0010276258690282702, 0.00115104578435421, 0.0012744655832648277, 0.0013978853821754456, 0.0015213051810860634, 0.0016447249799966812, 0.001768144778907299, 0.0018915645778179169, 0.0020149843767285347, 0.0021384041756391525, 0.0022618239745497704, 0.002385243773460388, 0.002508663572371006, 0.002632083371281624, 0.0027555031701922417, 0.0028789229691028595, 0.0030023427680134773, 0.003125762566924095, 0.003249182365834713, 0.003372602164745331, 0.0034960219636559486, 0.0036194417625665665, 0.003742861794307828]}, "gradients/graph_1_encoder.encoder.1.bias": {"_type": "histogram", "values": [2.0, 0.0, 0.0, 2.0, 3.0, 0.0, 4.0, 3.0, 4.0, 5.0, 9.0, 4.0, 7.0, 7.0, 6.0, 7.0, 7.0, 7.0, 13.0, 13.0, 12.0, 22.0, 22.0, 14.0, 10.0, 20.0, 11.0, 25.0, 18.0, 23.0, 21.0, 25.0, 14.0, 20.0, 15.0, 10.0, 23.0, 17.0, 12.0, 12.0, 14.0, 5.0, 8.0, 5.0, 0.0, 8.0, 8.0, 3.0, 1.0, 3.0, 2.0, 0.0, 1.0, 1.0, 1.0, 1.0, 0.0, 0.0, 1.0, 0.0, 0.0, 0.0, 0.0, 1.0], "bins": [-0.004351858049631119, -0.00419688830152154, -0.004041918553411961, -0.0038869488053023815, -0.0037319790571928024, -0.0035770093090832233, -0.0034220395609736443, -0.003267069812864065, -0.003112100064754486, -0.002957130316644907, -0.002802160568535328, -0.002647190820425749, -0.0024922210723161697, -0.0023372513242065907, -0.0021822815760970116, -0.0020273118279874325, -0.0018723420798778534, -0.0017173723317682743, -0.0015624025836586952, -0.0014074328355491161, -0.001252463087439537, -0.001097493339329958, -0.0009425235912203789, -0.0007875538431107998, -0.0006325840950012207, -0.0004776143468916416, -0.00032264459878206253, -0.00016767485067248344, -1.2705102562904358e-05, 0.00014226464554667473, 0.0002972343936562538, 0.0004522041417658329, 0.0006071743555366993, 0.0007621441036462784, 0.0009171138517558575, 0.0010720835998654366, 0.0012270533479750156, 0.0013820230960845947, 0.0015369928441941738, 0.001691962592303753, 0.001846932340413332, 0.002001902088522911, 0.00215687183663249, 0.0023118415847420692, 0.0024668113328516483, 0.0026217810809612274, 0.0027767508290708065, 0.0029317205771803856, 0.0030866903252899647, 0.0032416600733995438, 0.003396629821509123, 0.003551599569618702, 0.003706569317728281, 0.00386153906583786, 0.004016508813947439, 0.004171478562057018, 0.004326448310166597, 0.0044814180582761765, 0.0046363878063857555, 0.004791357554495335, 0.004946327302604914, 0.005101297050714493, 0.005256266798824072, 0.005411236546933651, 0.00556620629504323]}, "gradients/graph_1_encoder.encoder.0.bias": {"_type": "histogram", "values": [1.0, 1.0, 0.0, 0.0, 1.0, 1.0, 1.0, 2.0, 0.0, 1.0, 4.0, 8.0, 8.0, 10.0, 16.0, 12.0, 16.0, 24.0, 30.0, 37.0, 48.0, 42.0, 41.0, 39.0, 38.0, 21.0, 17.0, 23.0, 25.0, 8.0, 7.0, 10.0, 1.0, 4.0, 2.0, 2.0, 2.0, 2.0, 2.0, 0.0, 3.0, 0.0, 1.0, 0.0, 0.0, 0.0, 0.0, 0.0, 0.0, 0.0, 0.0, 0.0, 0.0, 0.0, 0.0, 0.0, 0.0, 0.0, 0.0, 0.0, 0.0, 0.0, 0.0, 1.0], "bins": [-1.3690441846847534e-07, -1.307344064116478e-07, -1.2456439435482025e-07, -1.183943822979927e-07, -1.1222437024116516e-07, -1.0605435818433762e-07, -9.988434612751007e-08, -9.371433407068253e-08, -8.754432201385498e-08, -8.137430995702744e-08, -7.520429790019989e-08, -6.903428584337234e-08, -6.28642737865448e-08, -5.6694261729717255e-08, -5.052424967288971e-08, -4.4354237616062164e-08, -3.818422555923462e-08, -3.2014213502407074e-08, -2.584420144557953e-08, -1.9674189388751984e-08, -1.3504177331924438e-08, -7.334165275096893e-09, -1.1641532182693481e-09, 5.005858838558197e-09, 1.1175870895385742e-08, 1.7345882952213287e-08, 2.3515895009040833e-08, 2.9685907065868378e-08, 3.585591912269592e-08, 4.202593117952347e-08, 4.819594323635101e-08, 5.436595529317856e-08, 6.05359673500061e-08, 6.670597940683365e-08, 7.28759914636612e-08, 7.904600352048874e-08, 8.521601557731628e-08, 9.138602763414383e-08, 9.755603969097137e-08, 1.0372605174779892e-07, 1.0989606380462646e-07, 1.1606607586145401e-07, 1.2223608791828156e-07, 1.284060999751091e-07, 1.3457611203193665e-07, 1.407461240887642e-07, 1.4691613614559174e-07, 1.5308614820241928e-07, 1.5925616025924683e-07, 1.6542617231607437e-07, 1.7159618437290192e-07, 1.7776619642972946e-07, 1.83936208486557e-07, 1.9010622054338455e-07, 1.962762326002121e-07, 2.0244624465703964e-07, 2.086162567138672e-07, 2.1478626877069473e-07, 2.2095628082752228e-07, 2.2712629288434982e-07, 2.3329630494117737e-07, 2.394663169980049e-07, 2.4563632905483246e-07, 2.5180634111166e-07, 2.5797635316848755e-07]}, "gradients/graph_1_encoder.encoder.0.weight": {"_type": "histogram", "values": [2.0, 1.0, 0.0, 0.0, 1.0, 1.0, 0.0, 2.0, 2.0, 4.0, 4.0, 3.0, 3.0, 7.0, 4.0, 6.0, 18.0, 20.0, 28.0, 39.0, 60.0, 114.0, 193.0, 417.0, 851.0, 1963.0, 4680.0, 12029.0, 33444.0, 104426.0, 195095.0, 61021.0, 20836.0, 7536.0, 2974.0, 1303.0, 616.0, 333.0, 154.0, 107.0, 63.0, 39.0, 30.0, 21.0, 13.0, 10.0, 14.0, 4.0, 6.0, 4.0, 3.0, 1.0, 1.0, 4.0, 0.0, 0.0, 0.0, 0.0, 1.0, 0.0, 0.0, 0.0, 0.0, 1.0], "bins": [-0.04406137391924858, -0.04260583221912384, -0.0411502905189991, -0.03969474881887436, -0.03823921084403992, -0.036783669143915176, -0.035328127443790436, -0.033872585743665695, -0.032417044043540955, -0.030961502343416214, -0.029505960643291473, -0.028050420805811882, -0.02659487910568714, -0.0251393374055624, -0.02368379756808281, -0.02222825586795807, -0.020772714167833328, -0.019317172467708588, -0.017861630767583847, -0.016406090930104256, -0.014950549229979515, -0.013495007529854774, -0.012039466761052608, -0.010583925992250443, -0.009128384292125702, -0.007672843057662249, -0.006217301823198795, -0.004761760588735342, -0.0033062193542718887, -0.0018506781198084354, -0.00039513688534498215, 0.0010604038834571838, 0.002515941858291626, 0.003971483092755079, 0.0054270243272185326, 0.006882565561681986, 0.00833810679614544, 0.00979364849627018, 0.011249189265072346, 0.012704730033874512, 0.014160271733999252, 0.015615813434123993, 0.017071355134248734, 0.018526894971728325, 0.019982436671853065, 0.021437978371977806, 0.022893518209457397, 0.024349059909582138, 0.02580460160970688, 0.02726014330983162, 0.02871568500995636, 0.03017122484743595, 0.03162676841020584, 0.03308230638504028, 0.034537848085165024, 0.035993389785289764, 0.037448931485414505, 0.038904473185539246, 0.040360014885663986, 0.04181555658578873, 0.04327109456062317, 0.04472663626074791, 0.04618217796087265, 0.04763771966099739, 0.04909326136112213]}, "_wandb": {"runtime": 410}}