{"train_loss": 0.48267748951911926, "train_ssl_loss": 0.4616067111492157, "train_tsk_loss": 0.021070726215839386, "test_loss": 0.4426228404045105, "test_ssl_loss": 0.42113006114959717, "test_tsk_loss": 0.02149279974400997, "_timestamp": 1697562639.0846496, "_runtime": 115.62339758872986, "_step": 49, "gradients/graph_1taskmapper.out.bias": {"_type": "histogram", "values": [0.0, 0.0, 0.0, 0.0, 0.0, 0.0, 0.0, 0.0, 0.0, 0.0, 0.0, 0.0, 0.0, 0.0, 0.0, 0.0, 0.0, 0.0, 0.0, 0.0, 0.0, 0.0, 0.0, 0.0, 0.0, 0.0, 0.0, 0.0, 0.0, 0.0, 0.0, 0.0, 1.0, 0.0, 0.0, 0.0, 0.0, 0.0, 0.0, 0.0, 0.0, 0.0, 0.0, 0.0, 0.0, 0.0, 0.0, 0.0, 0.0, 0.0, 0.0, 0.0, 0.0, 0.0, 0.0, 0.0, 0.0, 0.0, 0.0, 0.0, 0.0, 0.0, 0.0, 0.0], "bins": [-0.09492400288581848, -0.09492400288581848, -0.09492400288581848, -0.09492400288581848, -0.09492400288581848, -0.09492400288581848, -0.09492400288581848, -0.09492400288581848, -0.09492400288581848, -0.09492400288581848, -0.09492400288581848, -0.09492400288581848, -0.09492400288581848, -0.09492400288581848, -0.09492400288581848, -0.09492400288581848, -0.09492400288581848, -0.09492400288581848, -0.09492400288581848, -0.09492400288581848, -0.09492400288581848, -0.09492400288581848, -0.09492400288581848, -0.09492400288581848, -0.09492400288581848, -0.09492400288581848, -0.09492400288581848, -0.09492400288581848, -0.09492400288581848, -0.09492400288581848, -0.09492400288581848, -0.09492400288581848, -0.09492400288581848, -0.09492400288581848, -0.09492400288581848, -0.09492400288581848, -0.09492400288581848, -0.09492400288581848, -0.09492400288581848, -0.09492400288581848, -0.09492400288581848, -0.09492400288581848, -0.09492400288581848, -0.09492400288581848, -0.09492400288581848, -0.09492400288581848, -0.09492400288581848, -0.09492400288581848, -0.09492400288581848, -0.09492400288581848, -0.09492400288581848, -0.09492400288581848, -0.09492400288581848, -0.09492400288581848, -0.09492400288581848, -0.09492400288581848, -0.09492400288581848, -0.09492400288581848, -0.09492400288581848, -0.09492400288581848, -0.09492400288581848, -0.09492400288581848, -0.09492400288581848, -0.09492400288581848, -0.09492400288581848]}, "gradients/graph_1taskmapper.out.weight": {"_type": "histogram", "values": [1.0, 0.0, 0.0, 0.0, 0.0, 1.0, 0.0, 0.0, 0.0, 0.0, 0.0, 0.0, 0.0, 0.0, 0.0, 0.0, 0.0, 0.0, 0.0, 0.0, 0.0, 1.0, 0.0, 0.0, 0.0, 0.0, 1.0, 0.0, 0.0, 0.0, 0.0, 0.0, 0.0, 0.0, 1.0, 0.0, 0.0, 0.0, 0.0, 0.0, 0.0, 0.0, 0.0, 0.0, 0.0, 0.0, 0.0, 0.0, 0.0, 0.0, 0.0, 0.0, 0.0, 0.0, 0.0, 0.0, 1.0, 0.0, 0.0, 0.0, 1.0, 1.0, 1.0, 7.0], "bins": [-0.03238175809383392, -0.031875792890787125, -0.031369827687740326, -0.030863862484693527, -0.03035789728164673, -0.02985193394124508, -0.02934596873819828, -0.02884000353515148, -0.028334038332104683, -0.027828073129057884, -0.027322107926011086, -0.026816142722964287, -0.026310179382562637, -0.02580421417951584, -0.02529824897646904, -0.02479228377342224, -0.024286318570375443, -0.023780353367328644, -0.023274388164281845, -0.022768422961235046, -0.022262457758188248, -0.021756494417786598, -0.0212505292147398, -0.020744564011693, -0.020238598808646202, -0.019732633605599403, -0.019226668402552605, -0.018720703199505806, -0.018214739859104156, -0.017708774656057358, -0.01720280945301056, -0.01669684424996376, -0.01619087904691696, -0.015684913843870163, -0.015178948640823364, -0.01467298436909914, -0.014167019166052341, -0.013661053963005543, -0.013155089691281319, -0.01264912448823452, -0.012143159285187721, -0.011637194082140923, -0.011131228879094124, -0.0106252646073699, -0.010119299404323101, -0.009613334201276302, -0.009107369929552078, -0.00860140472650528, -0.00809543952345848, -0.007589474320411682, -0.007083509583026171, -0.006577544845640659, -0.006071579642593861, -0.005565614439547062, -0.0050596497021615505, -0.004553684964776039, -0.00404771976172924, -0.0035417547915130854, -0.0030357898212969303, -0.0025298248510807753, -0.00202385988086462, -0.0015178949106484652, -0.00101192994043231, -0.000505964970216155, 0.0]}, "gradients/graph_1taskmapper.lins.1.bias": {"_type": "histogram", "values": [1.0, 0.0, 0.0, 0.0, 0.0, 1.0, 0.0, 0.0, 0.0, 0.0, 0.0, 0.0, 0.0, 0.0, 0.0, 0.0, 0.0, 0.0, 0.0, 0.0, 0.0, 1.0, 0.0, 0.0, 0.0, 0.0, 1.0, 0.0, 1.0, 0.0, 0.0, 0.0, 0.0, 0.0, 0.0, 0.0, 0.0, 6.0, 1.0, 1.0, 0.0, 1.0, 0.0, 0.0, 0.0, 0.0, 0.0, 0.0, 0.0, 0.0, 0.0, 0.0, 0.0, 0.0, 1.0, 0.0, 0.0, 0.0, 0.0, 0.0, 0.0, 0.0, 0.0, 1.0], "bins": [-0.02390398271381855, -0.023268945515155792, -0.022633908316493034, -0.021998871117830276, -0.02136383391916752, -0.02072879672050476, -0.020093759521842003, -0.019458722323179245, -0.018823683261871338, -0.01818864606320858, -0.017553608864545822, -0.016918571665883064, -0.016283534467220306, -0.01564849726855755, -0.015013459138572216, -0.014378421939909458, -0.013743385672569275, -0.013108348473906517, -0.01247331127524376, -0.011838274076581001, -0.011203236877918243, -0.010568199679255486, -0.009933161549270153, -0.009298124350607395, -0.008663087151944637, -0.00802804995328188, -0.0073930127546191216, -0.006757975090295076, -0.0061229378916323185, -0.005487900692969561, -0.0048528630286455154, -0.004217825829982758, -0.0035827886313199997, -0.002947751432657242, -0.0023127140011638403, -0.0016776766860857606, -0.001042639371007681, -0.000407602172344923, 0.0002274352591484785, 0.00086247269064188, 0.001497509889304638, 0.0021325470879673958, 0.0027675845194607973, 0.003402621950954199, 0.004037659149616957, 0.004672696348279715, 0.00530773401260376, 0.005942771211266518, 0.0065778084099292755, 0.007212845608592033, 0.007847882807254791, 0.00848292000591755, 0.009117957204580307, 0.009752994403243065, 0.010388032533228397, 0.011023069731891155, 0.011658106930553913, 0.012293144129216671, 0.012928181327879429, 0.013563218526542187, 0.01419825665652752, 0.014833293855190277, 0.015468331053853035, 0.016103368252515793, 0.01673840545117855]}, "gradients/graph_1taskmapper.lins.1.weight": {"_type": "histogram", "values": [2.0, 0.0, 0.0, 0.0, 0.0, 2.0, 0.0, 0.0, 0.0, 0.0, 1.0, 0.0, 0.0, 0.0, 1.0, 1.0, 0.0, 0.0, 1.0, 0.0, 3.0, 3.0, 1.0, 3.0, 2.0, 2.0, 1.0, 4.0, 3.0, 8.0, 1.0, 7.0, 13.0, 9.0, 13.0, 22.0, 225.0, 17.0, 9.0, 4.0, 2.0, 3.0, 2.0, 4.0, 3.0, 1.0, 1.0, 0.0, 3.0, 1.0, 0.0, 0.0, 1.0, 1.0, 1.0, 0.0, 2.0, 0.0, 0.0, 0.0, 0.0, 0.0, 0.0, 1.0], "bins": [-0.005644791293889284, -0.005488408729434013, -0.00533202663064003, -0.005175644066184759, -0.005019261501729488, -0.004862879402935505, -0.004706496838480234, -0.004550114274024963, -0.00439373217523098, -0.004237349610775709, -0.004080967511981726, -0.003924584947526455, -0.003768202383071184, -0.003611820051446557, -0.00345543771982193, -0.003299055155366659, -0.0031426725909113884, -0.0029862902592867613, -0.0028299076948314905, -0.0026735253632068634, -0.0025171427987515926, -0.0023607604671269655, -0.0022043781355023384, -0.0020479955710470676, -0.0018916132394224405, -0.0017352307913824916, -0.0015788483433425426, -0.0014224660117179155, -0.0012660835636779666, -0.0011097011156380177, -0.0009533187258057296, -0.0007969363359734416, -0.0006405534222722054, -0.00048417100333608687, -0.0003277885843999684, -0.0001714061654638499, -1.5023746527731419e-05, 0.00014135870151221752, 0.00029774109134450555, 0.0004541234811767936, 0.0006105059292167425, 0.0007668883772566915, 0.0009232707670889795, 0.0010796531569212675, 0.0012360356049612164, 0.0013924180530011654, 0.0015488003846257925, 0.0017051828326657414, 0.0018615652807056904, 0.0020179476123303175, 0.0021743301767855883, 0.0023307125084102154, 0.002487095072865486, 0.0026434774044901133, 0.0027998597361147404, 0.002956242300570011, 0.0031126246321946383, 0.0032690069638192654, 0.003425389528274536, 0.0035817718598991632, 0.0037381541915237904, 0.003894536755979061, 0.004050919320434332, 0.004207301419228315, 0.004363683983683586]}, "gradients/graph_1taskmapper.lins.0.bias": {"_type": "histogram", "values": [1.0, 0.0, 0.0, 0.0, 0.0, 0.0, 0.0, 0.0, 0.0, 0.0, 0.0, 0.0, 0.0, 0.0, 0.0, 1.0, 0.0, 0.0, 0.0, 0.0, 0.0, 1.0, 0.0, 1.0, 0.0, 0.0, 1.0, 0.0, 1.0, 1.0, 0.0, 0.0, 0.0, 0.0, 1.0, 0.0, 1.0, 0.0, 0.0, 0.0, 0.0, 0.0, 1.0, 0.0, 0.0, 1.0, 0.0, 1.0, 1.0, 1.0, 0.0, 0.0, 3.0, 1.0, 1.0, 0.0, 1.0, 0.0, 1.0, 0.0, 1.0, 1.0, 0.0, 1.0], "bins": [-0.011746178381145, -0.011522926390171051, -0.011299674399197102, -0.011076422408223152, -0.010853170417249203, -0.010629918426275253, -0.010406666435301304, -0.010183414444327354, -0.00996016338467598, -0.00973691139370203, -0.00951365940272808, -0.009290407411754131, -0.009067155420780182, -0.008843903429806232, -0.008620651438832283, -0.008397400379180908, -0.008174147456884384, -0.007950895465910435, -0.007727643474936485, -0.007504391483962536, -0.007281139492988586, -0.007057887502014637, -0.006834635976701975, -0.0066113839857280254, -0.006388131994754076, -0.006164880003780127, -0.005941628012806177, -0.005718376021832228, -0.005495124496519566, -0.005271872505545616, -0.005048620514571667, -0.004825368523597717, -0.004602116998285055, -0.004378865007311106, -0.004155613016337156, -0.003932361025363207, -0.003709109267219901, -0.0034858572762459517, -0.003262605518102646, -0.0030393535271286964, -0.002816101536154747, -0.0025928495451807976, -0.002369597554206848, -0.0021463457960635424, -0.001923093805089593, -0.0016998418141156435, -0.001476589939557016, -0.0012533380649983883, -0.0010300860740244389, -0.0008068341412581503, -0.0005835822084918618, -0.0003603302757255733, -0.00013707834295928478, 8.617364801466465e-05, 0.00030942552257329226, 0.0005326773971319199, 0.0007559293881058693, 0.0009791813790798187, 0.0012024332536384463, 0.001425685128197074, 0.0016489371191710234, 0.0018721891101449728, 0.0020954408682882786, 0.002318692859262228, 0.0025419448502361774]}, "gradients/graph_1taskmapper.lins.0.weight": {"_type": "histogram", "values": [1.0, 0.0, 0.0, 0.0, 0.0, 0.0, 2.0, 0.0, 1.0, 0.0, 0.0, 1.0, 1.0, 2.0, 2.0, 0.0, 2.0, 3.0, 2.0, 4.0, 3.0, 7.0, 3.0, 5.0, 9.0, 8.0, 4.0, 14.0, 10.0, 14.0, 18.0, 15.0, 19.0, 26.0, 29.0, 38.0, 56.0, 69.0, 146.0, 69.0, 42.0, 34.0, 23.0, 19.0, 13.0, 8.0, 9.0, 7.0, 7.0, 2.0, 7.0, 2.0, 2.0, 1.0, 2.0, 0.0, 0.0, 1.0, 0.0, 2.0, 1.0, 2.0, 0.0, 1.0], "bins": [-0.001923098461702466, -0.0018728699069470167, -0.0018226412357762456, -0.0017724126810207963, -0.001722184126265347, -0.0016719554550945759, -0.0016217269003391266, -0.0015714983455836773, -0.001521269790828228, -0.0014710412360727787, -0.0014208125649020076, -0.0013705840101465583, -0.001320355455391109, -0.0012701267842203379, -0.0012198982294648886, -0.0011696696747094393, -0.0011194410035386682, -0.0010692124487832189, -0.0010189837776124477, -0.0009687552228569984, -0.0009185266681015491, -0.0008682980551384389, -0.0008180694421753287, -0.0007678408874198794, -0.0007176122744567692, -0.000667383661493659, -0.0006171551067382097, -0.0005669264937750995, -0.0005166978808119893, -0.00046646932605654, -0.0004162407130934298, -0.00036601212923415005, -0.0003157834289595485, -0.0002655548451002687, -0.00021532624668907374, -0.00016509764827787876, -0.00011486906441859901, -6.464048055931926e-05, -1.441186759620905e-05, 3.58167162630707e-05, 8.604530012235045e-05, 0.0001362738839816302, 0.00018650248239282519, 0.00023673108080402017, 0.0002869596646632999, 0.00033718824852257967, 0.0003874168614856899, 0.00043764544534496963, 0.0004878740292042494, 0.0005381026421673596, 0.0005883311969228089, 0.0006385598098859191, 0.0006887883646413684, 0.0007390169776044786, 0.0007892455905675888, 0.0008394741453230381, 0.0008897027582861483, 0.0009399313712492585, 0.0009901599260047078, 0.001040388597175479, 0.0010906171519309282, 0.0011408457066863775, 0.0011910742614418268, 0.001241302932612598, 0.0012915314873680472]}, "gradients/graph_1_projector.0.bias": {"_type": "histogram", "values": [1.0, 0.0, 0.0, 0.0, 0.0, 0.0, 0.0, 0.0, 0.0, 0.0, 0.0, 0.0, 0.0, 0.0, 0.0, 0.0, 0.0, 0.0, 0.0, 0.0, 1.0, 0.0, 0.0, 0.0, 1.0, 0.0, 1.0, 1.0, 1.0, 0.0, 0.0, 0.0, 0.0, 0.0, 1.0, 0.0, 1.0, 1.0, 2.0, 1.0, 0.0, 1.0, 1.0, 2.0, 1.0, 2.0, 0.0, 2.0, 0.0, 0.0, 2.0, 1.0, 2.0, 2.0, 0.0, 0.0, 0.0, 0.0, 0.0, 2.0, 1.0, 0.0, 0.0, 1.0], "bins": [-0.10899891704320908, -0.10630245506763458, -0.10360598564147949, -0.1009095162153244, -0.09821305423974991, -0.09551659226417542, -0.09282012283802032, -0.09012365341186523, -0.08742719143629074, -0.08473072946071625, -0.08203426003456116, -0.07933779060840607, -0.07664132863283157, -0.07394486665725708, -0.07124839723110199, -0.0685519278049469, -0.0658554658293724, -0.06315900385379791, -0.06046253442764282, -0.05776606872677803, -0.05506960302591324, -0.05237313732504845, -0.049676671624183655, -0.04698020592331886, -0.04428374022245407, -0.04158727452158928, -0.03889080882072449, -0.036194343119859695, -0.033497877418994904, -0.03080141171813011, -0.02810494601726532, -0.025408480316400528, -0.022712022066116333, -0.02001555636525154, -0.01731909066438675, -0.014622624963521957, -0.011926159262657166, -0.009229693561792374, -0.006533227860927582, -0.00383676216006279, -0.001140296459197998, 0.0015561692416667938, 0.004252634942531586, 0.0069491006433963776, 0.00964556634426117, 0.012342032045125961, 0.015038497745990753, 0.017734963446855545, 0.020431429147720337, 0.02312789484858513, 0.02582436054944992, 0.028520826250314713, 0.031217291951179504, 0.033913757652044296, 0.03661022335290909, 0.03930668905377388, 0.04200315475463867, 0.044699620455503464, 0.047396086156368256, 0.05009255185723305, 0.05278901755809784, 0.05548548325896263, 0.05818194895982742, 0.060878414660692215, 0.063574880361557]}, "gradients/graph_1_projector.0.weight": {"_type": "histogram", "values": [1.0, 1.0, 0.0, 0.0, 0.0, 1.0, 0.0, 1.0, 1.0, 2.0, 4.0, 8.0, 9.0, 5.0, 15.0, 20.0, 36.0, 34.0, 55.0, 79.0, 89.0, 94.0, 131.0, 198.0, 231.0, 276.0, 329.0, 393.0, 404.0, 436.0, 505.0, 529.0, 508.0, 513.0, 469.0, 438.0, 404.0, 356.0, 309.0, 259.0, 247.0, 193.0, 134.0, 121.0, 86.0, 62.0, 65.0, 39.0, 28.0, 12.0, 20.0, 13.0, 8.0, 6.0, 4.0, 3.0, 2.0, 2.0, 0.0, 0.0, 0.0, 1.0, 2.0, 1.0], "bins": [-0.0710640549659729, -0.06887679547071457, -0.06668953597545624, -0.0645022764801979, -0.062315016984939575, -0.060127757489681244, -0.05794049799442291, -0.05575323849916458, -0.05356597900390625, -0.05137871950864792, -0.04919146001338959, -0.047004200518131256, -0.044816941022872925, -0.042629681527614594, -0.04044242203235626, -0.03825516253709793, -0.0360679030418396, -0.03388064354658127, -0.03169338405132294, -0.029506124556064606, -0.027318865060806274, -0.025131605565547943, -0.022944346070289612, -0.02075708657503128, -0.01856982707977295, -0.016382567584514618, -0.014195308089256287, -0.012008048593997955, -0.009820789098739624, -0.007633529603481293, -0.005446270108222961, -0.00325901061296463, -0.001071743667125702, 0.0011155158281326294, 0.0033027753233909607, 0.005490034818649292, 0.007677294313907623, 0.009864553809165955, 0.012051813304424286, 0.014239072799682617, 0.01642633229494095, 0.01861359179019928, 0.02080085128545761, 0.022988110780715942, 0.025175370275974274, 0.027362629771232605, 0.029549889266490936, 0.03173714876174927, 0.0339244082570076, 0.03611166775226593, 0.03829892724752426, 0.04048618674278259, 0.042673446238040924, 0.044860705733299255, 0.04704796522855759, 0.04923522472381592, 0.05142248421907425, 0.05360974371433258, 0.05579700320959091, 0.05798426270484924, 0.060171522200107574, 0.062358781695365906, 0.06454604119062424, 0.06673330068588257, 0.0689205601811409]}, "gradients/graph_1_encoder.encoder.8.bias": {"_type": "histogram", "values": [1.0, 1.0, 0.0, 1.0, 0.0, 2.0, 1.0, 3.0, 2.0, 3.0, 1.0, 0.0, 1.0, 2.0, 3.0, 5.0, 6.0, 3.0, 7.0, 5.0, 4.0, 7.0, 9.0, 5.0, 1.0, 7.0, 7.0, 11.0, 8.0, 10.0, 8.0, 13.0, 12.0, 11.0, 5.0, 7.0, 8.0, 1.0, 8.0, 4.0, 8.0, 6.0, 3.0, 7.0, 6.0, 6.0, 1.0, 2.0, 2.0, 8.0, 1.0, 2.0, 1.0, 0.0, 1.0, 1.0, 0.0, 1.0, 2.0, 1.0, 0.0, 1.0, 1.0, 2.0], "bins": [-0.02620423585176468, -0.02537747472524643, -0.02455071359872818, -0.02372395247220993, -0.02289719134569168, -0.02207043021917343, -0.021243669092655182, -0.020416907966136932, -0.019590146839618683, -0.018763385713100433, -0.017936624586582184, -0.017109863460063934, -0.016283102333545685, -0.015456341207027435, -0.014629580080509186, -0.013802818953990936, -0.012976058758795261, -0.012149297632277012, -0.011322536505758762, -0.010495775379240513, -0.009669014252722263, -0.008842254057526588, -0.008015492931008339, -0.007188731338828802, -0.006361970212310553, -0.005535209085792303, -0.004708447959274054, -0.0038816870655864477, -0.003054925939068198, -0.0022281650453805923, -0.0014014039188623428, -0.0005746427923440933, 0.0002521183341741562, 0.0010788794606924057, 0.0019056404707953334, 0.002732401480898261, 0.0035591626074165106, 0.0043859235011041164, 0.005212684627622366, 0.0060394457541406155, 0.006866206880658865, 0.0076929680071771145, 0.008519728668034077, 0.009346489794552326, 0.010173250921070576, 0.011000012047588825, 0.011826773174107075, 0.012653534300625324, 0.013480295427143574, 0.014307056553661823, 0.015133817680180073, 0.015960577875375748, 0.016787339001893997, 0.017614100128412247, 0.018440861254930496, 0.019267622381448746, 0.020094383507966995, 0.020921144634485245, 0.021747905761003494, 0.022574666887521744, 0.023401428014039993, 0.024228189140558243, 0.025054950267076492, 0.025881711393594742, 0.02670847252011299]}, "gradients/graph_1_encoder.encoder.8.weight": {"_type": "histogram", "values": [3.0, 0.0, 0.0, 0.0, 1.0, 3.0, 3.0, 4.0, 4.0, 5.0, 8.0, 6.0, 16.0, 24.0, 23.0, 48.0, 62.0, 95.0, 148.0, 194.0, 277.0, 343.0, 511.0, 660.0, 904.0, 1150.0, 1573.0, 2082.0, 2634.0, 3411.0, 4401.0, 5480.0, 6426.0, 6833.0, 6274.0, 5320.0, 4092.0, 3089.0, 2414.0, 1744.0, 1355.0, 1049.0, 751.0, 599.0, 396.0, 306.0, 233.0, 161.0, 116.0, 82.0, 60.0, 51.0, 31.0, 24.0, 20.0, 11.0, 5.0, 7.0, 6.0, 3.0, 2.0, 0.0, 2.0, 1.0], "bins": [-0.04163345694541931, -0.04038624465465546, -0.0391390360891819, -0.037891823798418045, -0.03664461150765419, -0.035397402942180634, -0.03415019065141678, -0.032902978360652924, -0.03165576606988907, -0.030408555641770363, -0.029161343351006508, -0.027914132922887802, -0.026666920632123947, -0.02541971020400524, -0.024172499775886536, -0.02292528748512268, -0.021678078919649124, -0.02043086849153042, -0.019183656200766563, -0.017936445772647858, -0.016689233481884003, -0.015442023053765297, -0.014194812625646591, -0.01294760126620531, -0.01170038990676403, -0.01045317854732275, -0.00920596718788147, -0.007958756759762764, -0.006711545400321484, -0.005464334040880203, -0.00421712314710021, -0.002969912253320217, -0.0017227008938789368, -0.00047548976726830006, 0.0007717213593423367, 0.0020189324859529734, 0.00326614361256361, 0.0045133549720048904, 0.0057605658657848835, 0.0070077767595648766, 0.008254988119006157, 0.009502199478447437, 0.010749410837888718, 0.011996621266007423, 0.013243832625448704, 0.014491043984889984, 0.01573825441300869, 0.016985464841127396, 0.01823267713189125, 0.019479887560009956, 0.02072709985077381, 0.021974310278892517, 0.023221522569656372, 0.024468732997775078, 0.025715943425893784, 0.02696315571665764, 0.028210366144776344, 0.02945757657289505, 0.030704788863658905, 0.03195200115442276, 0.033199209719896317, 0.03444642201066017, 0.035693634301424026, 0.03694084286689758, 0.03818805515766144]}, "gradients/graph_1_encoder.encoder.5.weight": {"_type": "histogram", "values": [1.0, 0.0, 0.0, 1.0, 0.0, 0.0, 0.0, 0.0, 0.0, 0.0, 0.0, 0.0, 0.0, 1.0, 0.0, 0.0, 3.0, 2.0, 3.0, 2.0, 2.0, 3.0, 2.0, 8.0, 9.0, 9.0, 7.0, 14.0, 10.0, 14.0, 14.0, 17.0, 18.0, 12.0, 14.0, 11.0, 10.0, 9.0, 9.0, 9.0, 6.0, 7.0, 1.0, 2.0, 3.0, 2.0, 2.0, 3.0, 2.0, 2.0, 1.0, 1.0, 2.0, 2.0, 2.0, 0.0, 1.0, 1.0, 0.0, 0.0, 1.0, 0.0, 0.0, 1.0], "bins": [-0.01587570831179619, -0.015392071567475796, -0.014908435754477978, -0.014424799010157585, -0.013941163197159767, -0.013457526452839375, -0.012973890639841557, -0.012490253895521164, -0.012006618082523346, -0.011522981338202953, -0.011039345525205135, -0.010555708780884743, -0.010072072967886925, -0.009588436223566532, -0.009104800410568714, -0.008621163666248322, -0.008137527853250504, -0.007653891574591398, -0.007170255295932293, -0.006686619017273188, -0.006202982738614082, -0.00571934599429369, -0.005235710181295872, -0.004752073436975479, -0.0042684366926550865, -0.003784800413995981, -0.003301164135336876, -0.0028175278566777706, -0.0023338915780186653, -0.0018502550665289164, -0.001366618787869811, -0.0008829825092107058, -0.0003993464633822441, 8.428984438069165e-05, 0.0005679261521436274, 0.0010515624890103936, 0.001535198767669499, 0.002018835162743926, 0.0025024714414030313, 0.0029861077200621367, 0.003469743998721242, 0.003953380510210991, 0.004437016788870096, 0.0049206530675292015, 0.005404289346188307, 0.005887925624847412, 0.006371561903506517, 0.006855198182165623, 0.007338834460824728, 0.007822470739483833, 0.008306107483804226, 0.008789743296802044, 0.009273380041122437, 0.009757015854120255, 0.010240652598440647, 0.010724288411438465, 0.011207925155758858, 0.01169156190007925, 0.012175197713077068, 0.012658834457397461, 0.013142470270395279, 0.013626107014715672, 0.01410974282771349, 0.014593379572033882, 0.0150770153850317]}, "gradients/graph_1_encoder.encoder.5.bias": {"_type": "histogram", "values": [1.0, 0.0, 0.0, 1.0, 0.0, 0.0, 0.0, 1.0, 0.0, 0.0, 0.0, 1.0, 0.0, 2.0, 0.0, 1.0, 0.0, 1.0, 3.0, 5.0, 4.0, 4.0, 5.0, 5.0, 1.0, 8.0, 5.0, 5.0, 8.0, 7.0, 10.0, 8.0, 9.0, 11.0, 3.0, 11.0, 7.0, 11.0, 14.0, 13.0, 9.0, 15.0, 4.0, 7.0, 3.0, 7.0, 9.0, 5.0, 3.0, 4.0, 4.0, 4.0, 2.0, 3.0, 5.0, 0.0, 1.0, 1.0, 1.0, 0.0, 2.0, 1.0, 0.0, 1.0], "bins": [-0.021324463188648224, -0.02075423114001751, -0.020183999091386795, -0.01961376704275608, -0.019043534994125366, -0.018473302945494652, -0.017903070896863937, -0.017332836985588074, -0.01676260679960251, -0.016192374750971794, -0.01562214270234108, -0.015051910653710365, -0.014481678605079651, -0.013911446556448936, -0.013341213576495647, -0.012770981527864933, -0.012200748547911644, -0.01163051649928093, -0.011060284450650215, -0.0104900524020195, -0.009919820353388786, -0.009349588304758072, -0.008779355324804783, -0.008209123276174068, -0.007638891227543354, -0.00706865917891264, -0.006498427130281925, -0.0059281946159899235, -0.005357962567359209, -0.004787730518728495, -0.004217498004436493, -0.0036472659558057785, -0.0030770357698202133, -0.002506803721189499, -0.0019365714397281408, -0.0013663392746821046, -0.0007961071096360683, -0.00022587506100535393, 0.00034435722045600414, 0.0009145895019173622, 0.0014848215505480766, 0.002055053599178791, 0.002625285880640149, 0.003195518162101507, 0.0037657502107322216, 0.004335982259362936, 0.004906214773654938, 0.005476446822285652, 0.006046678870916367, 0.006616910919547081, 0.007187142968177795, 0.007757375482469797, 0.008327607065439224, 0.008897839114069939, 0.009468072094023228, 0.010038304142653942, 0.010608536191284657, 0.011178768239915371, 0.011749000288546085, 0.0123192323371768, 0.012889465317130089, 0.013459697365760803, 0.014029929414391518, 0.014600161463022232, 0.015170393511652946]}, "gradients/graph_1_encoder.encoder.4.bias": {"_type": "histogram", "values": [1.0, 0.0, 0.0, 1.0, 1.0, 0.0, 1.0, 1.0, 3.0, 1.0, 2.0, 1.0, 2.0, 5.0, 0.0, 1.0, 1.0, 1.0, 0.0, 3.0, 3.0, 2.0, 6.0, 5.0, 8.0, 12.0, 4.0, 10.0, 8.0, 17.0, 16.0, 10.0, 15.0, 4.0, 13.0, 13.0, 15.0, 6.0, 14.0, 5.0, 10.0, 2.0, 1.0, 0.0, 4.0, 3.0, 6.0, 4.0, 2.0, 3.0, 1.0, 1.0, 1.0, 2.0, 1.0, 0.0, 0.0, 0.0, 0.0, 0.0, 2.0, 0.0, 0.0, 2.0], "bins": [-6.402842700481415e-09, -6.200934876687825e-09, -5.999027052894235e-09, -5.797119229100645e-09, -5.5952114053070545e-09, -5.3933035815134645e-09, -5.191395757719874e-09, -4.989487933926284e-09, -4.787580110132694e-09, -4.585672286339104e-09, -4.383764462545514e-09, -4.181856638751924e-09, -3.979948814958334e-09, -3.778040991164744e-09, -3.576133167371154e-09, -3.3742253435775638e-09, -3.1723175197839737e-09, -2.9704096959903836e-09, -2.7685018721967936e-09, -2.5665940484032035e-09, -2.3646862246096134e-09, -2.1627784008160233e-09, -1.9608705770224333e-09, -1.7589627532288432e-09, -1.5570549294352531e-09, -1.355147105641663e-09, -1.153239281848073e-09, -9.51331458054483e-10, -7.494236342608929e-10, -5.475158104673028e-10, -3.4560798667371273e-10, -1.4370016288012266e-10, 5.820766091346741e-11, 2.601154847070575e-10, 4.6202330850064754e-10, 6.639311322942376e-10, 8.658389560878277e-10, 1.0677467798814178e-09, 1.2696546036750078e-09, 1.4715624274685979e-09, 1.673470251262188e-09, 1.875378075055778e-09, 2.077285898849368e-09, 2.279193722642958e-09, 2.4811015464365482e-09, 2.6830093702301383e-09, 2.8849171940237284e-09, 3.0868250178173184e-09, 3.2887328416109085e-09, 3.4906406654044986e-09, 3.6925484891980886e-09, 3.894456312991679e-09, 4.096364136785269e-09, 4.298271960578859e-09, 4.500179784372449e-09, 4.702087608166039e-09, 4.903995431959629e-09, 5.105903255753219e-09, 5.307811079546809e-09, 5.509718903340399e-09, 5.711626727133989e-09, 5.913534550927579e-09, 6.1154423747211695e-09, 6.3173501985147595e-09, 6.51925802230835e-09]}, "gradients/graph_1_encoder.encoder.4.weight": {"_type": "histogram", "values": [2.0, 0.0, 0.0, 1.0, 0.0, 2.0, 4.0, 3.0, 6.0, 8.0, 11.0, 18.0, 21.0, 33.0, 41.0, 61.0, 81.0, 128.0, 168.0, 238.0, 337.0, 503.0, 701.0, 1030.0, 1362.0, 1746.0, 2449.0, 3099.0, 3903.0, 4755.0, 5481.0, 5851.0, 5957.0, 5677.0, 4973.0, 4290.0, 3353.0, 2559.0, 1950.0, 1363.0, 1061.0, 707.0, 459.0, 359.0, 255.0, 164.0, 107.0, 75.0, 56.0, 29.0, 19.0, 20.0, 13.0, 18.0, 8.0, 6.0, 3.0, 3.0, 1.0, 4.0, 0.0, 0.0, 3.0, 1.0], "bins": [-0.049530524760484695, -0.047985367476940155, -0.046440210193395615, -0.044895052909851074, -0.043349895626306534, -0.04180473834276199, -0.040259577333927155, -0.03871442377567291, -0.037169262766838074, -0.03562410548329353, -0.03407894819974899, -0.03253379091620445, -0.030988633632659912, -0.02944347634911537, -0.027898317202925682, -0.02635315991938114, -0.02480800449848175, -0.02326284721493721, -0.02171768993139267, -0.02017253264784813, -0.01862737536430359, -0.01708221808075905, -0.015537058934569359, -0.013991901651024818, -0.012446744367480278, -0.010901587083935738, -0.009356429800391197, -0.007811271585524082, -0.006266114301979542, -0.004720957018435001, -0.0031757988035678864, -0.001630641520023346, -8.548051118850708e-05, 0.001459677005186677, 0.003004834521561861, 0.004549992270767689, 0.006095149554312229, 0.0076403068378567696, 0.009185465052723885, 0.010730622336268425, 0.012275779619812965, 0.013820936903357506, 0.015366094186902046, 0.016911253333091736, 0.018456410616636276, 0.020001567900180817, 0.021546725183725357, 0.023091882467269897, 0.024637039750814438, 0.02618219703435898, 0.02772735431790352, 0.02927251160144806, 0.0308176688849926, 0.03236282616853714, 0.03390798717737198, 0.03545314073562622, 0.03699830174446106, 0.0385434590280056, 0.04008861631155014, 0.04163377359509468, 0.04317893087863922, 0.04472408816218376, 0.0462692454457283, 0.04781440645456314, 0.04935956001281738]}, "gradients/graph_1_encoder.encoder.1.weight": {"_type": "histogram", "values": [1.0, 1.0, 0.0, 0.0, 1.0, 1.0, 0.0, 3.0, 3.0, 0.0, 1.0, 1.0, 2.0, 5.0, 1.0, 6.0, 3.0, 9.0, 4.0, 9.0, 6.0, 12.0, 5.0, 14.0, 9.0, 8.0, 12.0, 14.0, 8.0, 6.0, 9.0, 9.0, 9.0, 12.0, 7.0, 8.0, 6.0, 7.0, 11.0, 8.0, 6.0, 2.0, 2.0, 4.0, 2.0, 1.0, 2.0, 1.0, 1.0, 2.0, 0.0, 0.0, 0.0, 0.0, 0.0, 0.0, 1.0, 0.0, 0.0, 0.0, 0.0, 0.0, 0.0, 1.0], "bins": [-0.014501073397696018, -0.013986478559672832, -0.013471884652972221, -0.012957289814949036, -0.01244269497692585, -0.011928100138902664, -0.011413506232202053, -0.010898911394178867, -0.010384317487478256, -0.00986972264945507, -0.00935512874275446, -0.008840533904731274, -0.008325939066708088, -0.0078113446943461895, -0.007296750321984291, -0.006782155483961105, -0.00626756064593792, -0.005752966273576021, -0.0052383714355528355, -0.004723777063190937, -0.004209182225167751, -0.003694587852805853, -0.0031799934804439545, -0.0026653988752514124, -0.0021508042700588703, -0.0016362096648663282, -0.001121615176089108, -0.0006070206873118877, -9.242608211934566e-05, 0.0004221685230731964, 0.0009367628954350948, 0.001451357500627637, 0.0019659530371427536, 0.0024805476423352957, 0.0029951422475278378, 0.003509736619889736, 0.004024331457912922, 0.00453892583027482, 0.005053520202636719, 0.0055681150406599045, 0.006082709413021803, 0.006597303785383701, 0.007111898623406887, 0.0076264929957687855, 0.008141087368130684, 0.00865568220615387, 0.009170277044177055, 0.009684870950877666, 0.010199465788900852, 0.010714060626924038, 0.011228654533624649, 0.011743249371647835, 0.01225784420967102, 0.012772439047694206, 0.013287032954394817, 0.013801627792418003, 0.014316221699118614, 0.0148308165371418, 0.015345410443842411, 0.01586000621318817, 0.016374599188566208, 0.016889194026589394, 0.01740378886461258, 0.017918383702635765, 0.01843297854065895]}, "gradients/graph_1_encoder.encoder.1.bias": {"_type": "histogram", "values": [2.0, 1.0, 0.0, 0.0, 0.0, 0.0, 0.0, 1.0, 0.0, 1.0, 0.0, 1.0, 3.0, 2.0, 3.0, 6.0, 1.0, 3.0, 4.0, 7.0, 5.0, 3.0, 6.0, 7.0, 3.0, 14.0, 10.0, 5.0, 8.0, 12.0, 5.0, 4.0, 10.0, 11.0, 9.0, 4.0, 2.0, 7.0, 7.0, 8.0, 10.0, 3.0, 12.0, 7.0, 4.0, 4.0, 3.0, 10.0, 8.0, 2.0, 4.0, 2.0, 1.0, 2.0, 2.0, 2.0, 0.0, 0.0, 0.0, 1.0, 2.0, 1.0, 0.0, 1.0], "bins": [-0.019038904458284378, -0.018465321511030197, -0.017891738563776016, -0.017318157479166985, -0.016744574531912804, -0.016170991584658623, -0.015597409568727016, -0.01502382755279541, -0.01445024460554123, -0.013876661658287048, -0.013303079642355442, -0.012729497626423836, -0.012155914679169655, -0.011582331731915474, -0.011008749715983868, -0.010435167700052261, -0.00986158475279808, -0.0092880018055439, -0.008714419789612293, -0.008140837773680687, -0.007567254826426506, -0.0069936723448336124, -0.006420089863240719, -0.005846507381647825, -0.005272924900054932, -0.004699342418462038, -0.0041257599368691444, -0.003552177455276251, -0.0029785949736833572, -0.0024050124920904636, -0.00183143001049757, -0.0012578475289046764, -0.0006842650473117828, -0.00011068256571888924, 0.00046289991587400436, 0.001036482397466898, 0.0016100648790597916, 0.002183647360652685, 0.0027572298422455788, 0.0033308123238384724, 0.003904394805431366, 0.00447797728702426, 0.005051559768617153, 0.005625142250210047, 0.00619872473180294, 0.006772307213395834, 0.007345889694988728, 0.007919471710920334, 0.008493054658174515, 0.009066637605428696, 0.009640219621360302, 0.010213801637291908, 0.01078738458454609, 0.01136096753180027, 0.011934549547731876, 0.012508131563663483, 0.013081714510917664, 0.013655297458171844, 0.01422887947410345, 0.014802461490035057, 0.015376044437289238, 0.01594962738454342, 0.01652320846915245, 0.01709679141640663, 0.017670374363660812]}, "gradients/graph_1_encoder.encoder.0.bias": {"_type": "histogram", "values": [1.0, 1.0, 1.0, 0.0, 2.0, 0.0, 2.0, 1.0, 1.0, 4.0, 3.0, 4.0, 2.0, 2.0, 6.0, 2.0, 6.0, 5.0, 7.0, 7.0, 15.0, 8.0, 9.0, 3.0, 8.0, 8.0, 14.0, 10.0, 5.0, 12.0, 10.0, 1.0, 17.0, 4.0, 8.0, 7.0, 9.0, 5.0, 7.0, 5.0, 5.0, 2.0, 2.0, 2.0, 1.0, 3.0, 2.0, 3.0, 3.0, 3.0, 1.0, 2.0, 1.0, 0.0, 0.0, 0.0, 1.0, 2.0, 0.0, 0.0, 0.0, 0.0, 0.0, 1.0], "bins": [-3.5762786865234375e-07, -3.4458935260772705e-07, -3.3155083656311035e-07, -3.1851232051849365e-07, -3.0547380447387695e-07, -2.9243528842926025e-07, -2.7939677238464355e-07, -2.6635825634002686e-07, -2.5331974029541016e-07, -2.4028122425079346e-07, -2.2724270820617676e-07, -2.1420419216156006e-07, -2.0116567611694336e-07, -1.8812716007232666e-07, -1.7508864402770996e-07, -1.6205012798309326e-07, -1.4901161193847656e-07, -1.3597309589385986e-07, -1.2293457984924316e-07, -1.0989606380462646e-07, -9.685754776000977e-08, -8.381903171539307e-08, -7.078051567077637e-08, -5.774199962615967e-08, -4.470348358154297e-08, -3.166496753692627e-08, -1.862645149230957e-08, -5.587935447692871e-09, 7.450580596923828e-09, 2.0489096641540527e-08, 3.3527612686157227e-08, 4.6566128730773926e-08, 5.960464477539063e-08, 7.264316082000732e-08, 8.568167686462402e-08, 9.872019290924072e-08, 1.1175870895385742e-07, 1.2479722499847412e-07, 1.3783574104309082e-07, 1.5087425708770752e-07, 1.6391277313232422e-07, 1.7695128917694092e-07, 1.8998980522155762e-07, 2.0302832126617432e-07, 2.1606683731079102e-07, 2.2910535335540771e-07, 2.421438694000244e-07, 2.551823854446411e-07, 2.682209014892578e-07, 2.812594175338745e-07, 2.942979335784912e-07, 3.073364496231079e-07, 3.203749656677246e-07, 3.334134817123413e-07, 3.46451997756958e-07, 3.594905138015747e-07, 3.725290298461914e-07, 3.855675458908081e-07, 3.986060619354248e-07, 4.116445779800415e-07, 4.246830940246582e-07, 4.377216100692749e-07, 4.507601261138916e-07, 4.637986421585083e-07, 4.76837158203125e-07]}, "gradients/graph_1_encoder.encoder.0.weight": {"_type": "histogram", "values": [2.0, 0.0, 1.0, 0.0, 0.0, 2.0, 1.0, 2.0, 4.0, 5.0, 5.0, 11.0, 16.0, 14.0, 41.0, 37.0, 59.0, 81.0, 134.0, 180.0, 258.0, 436.0, 672.0, 1030.0, 1739.0, 2672.0, 4237.0, 6696.0, 10122.0, 16043.0, 24444.0, 36770.0, 40759.0, 29472.0, 18456.0, 11408.0, 6979.0, 4396.0, 2556.0, 1574.0, 957.0, 635.0, 439.0, 256.0, 204.0, 131.0, 88.0, 63.0, 43.0, 31.0, 29.0, 16.0, 14.0, 16.0, 5.0, 4.0, 1.0, 2.0, 2.0, 0.0, 0.0, 4.0, 0.0, 2.0], "bins": [-0.11079061776399612, -0.10734942555427551, -0.1039082407951355, -0.10046704858541489, -0.09702586382627487, -0.09358467161655426, -0.09014348685741425, -0.08670229464769363, -0.08326110243797302, -0.07981991022825241, -0.0763787254691124, -0.07293753325939178, -0.06949634850025177, -0.06605515629053116, -0.06261396408081055, -0.05917277932167053, -0.05573159083724022, -0.052290402352809906, -0.04884921386837959, -0.04540802538394928, -0.04196683317422867, -0.038525644689798355, -0.03508445620536804, -0.03164326399564743, -0.028202077373862267, -0.024760888889431953, -0.02131969854235649, -0.017878510057926178, -0.01443732064217329, -0.010996131226420403, -0.007554942741990089, -0.004113752394914627, -0.000672563910484314, 0.00276862527243793, 0.006209814455360174, 0.009651003405451775, 0.013092192821204662, 0.01653338223695755, 0.019974570721387863, 0.023415761068463326, 0.02685694955289364, 0.03029813803732395, 0.033739328384399414, 0.03718051686882973, 0.04062170535326004, 0.04406289756298065, 0.047504082322120667, 0.05094527453184128, 0.05438646301627159, 0.057827651500701904, 0.06126883998513222, 0.06471002846956253, 0.06815122067928314, 0.07159240543842316, 0.07503359764814377, 0.07847478985786438, 0.0819159746170044, 0.085357166826725, 0.08879835158586502, 0.09223954379558563, 0.09568072855472565, 0.09912192076444626, 0.10256311297416687, 0.10600429773330688, 0.1094454899430275]}, "_wandb": {"runtime": 179}}