{"train_loss": 0.27453872561454773, "train_ssl_loss": 0.26534658670425415, "train_tsk_loss": 0.009192109107971191, "test_loss": 0.1993633210659027, "test_ssl_loss": 0.18969480693340302, "test_tsk_loss": 0.009668522514402866, "_timestamp": 1697568032.8886209, "_runtime": 960.0762808322906, "_step": 499, "gradients/graph_1taskmapper.out.bias": {"_type": "histogram", "values": [0.0, 0.0, 0.0, 0.0, 0.0, 0.0, 0.0, 0.0, 0.0, 0.0, 0.0, 0.0, 0.0, 0.0, 0.0, 0.0, 0.0, 0.0, 0.0, 0.0, 0.0, 0.0, 0.0, 0.0, 0.0, 0.0, 0.0, 0.0, 0.0, 0.0, 0.0, 1.0, 0.0, 0.0, 0.0, 0.0, 0.0, 0.0, 0.0, 0.0, 0.0, 0.0, 0.0, 0.0, 0.0, 0.0, 0.0, 0.0, 0.0, 0.0, 0.0, 0.0, 0.0, 0.0, 0.0, 0.0, 0.0, 0.0, 0.0, 0.0, 0.0, 0.0, 0.0, 0.0], "bins": [-0.01505773514509201, -0.01505773514509201, -0.01505773514509201, -0.01505773514509201, -0.01505773514509201, -0.01505773514509201, -0.01505773514509201, -0.01505773514509201, -0.01505773514509201, -0.01505773514509201, -0.01505773514509201, -0.01505773514509201, -0.01505773514509201, -0.01505773514509201, -0.01505773514509201, -0.01505773514509201, -0.01505773514509201, -0.01505773514509201, -0.01505773514509201, -0.01505773514509201, -0.01505773514509201, -0.01505773514509201, -0.01505773514509201, -0.01505773514509201, -0.01505773514509201, -0.01505773514509201, -0.01505773514509201, -0.01505773514509201, -0.01505773514509201, -0.01505773514509201, -0.01505773514509201, -0.01505773514509201, -0.01505773514509201, -0.01505773514509201, -0.01505773514509201, -0.01505773514509201, -0.01505773514509201, -0.01505773514509201, -0.01505773514509201, -0.01505773514509201, -0.01505773514509201, -0.01505773514509201, -0.01505773514509201, -0.01505773514509201, -0.01505773514509201, -0.01505773514509201, -0.01505773514509201, -0.01505773514509201, -0.01505773514509201, -0.01505773514509201, -0.01505773514509201, -0.01505773514509201, -0.01505773514509201, -0.01505773514509201, -0.01505773514509201, -0.01505773514509201, -0.01505773514509201, -0.01505773514509201, -0.01505773514509201, -0.01505773514509201, -0.01505773514509201, -0.01505773514509201, -0.01505773514509201, -0.01505773514509201, -0.01505773514509201]}, "gradients/graph_1taskmapper.out.weight": {"_type": "histogram", "values": [1.0, 0.0, 0.0, 0.0, 0.0, 0.0, 1.0, 0.0, 0.0, 0.0, 0.0, 0.0, 0.0, 0.0, 1.0, 0.0, 0.0, 0.0, 0.0, 0.0, 0.0, 0.0, 0.0, 0.0, 0.0, 0.0, 0.0, 0.0, 0.0, 0.0, 1.0, 0.0, 0.0, 0.0, 0.0, 0.0, 0.0, 0.0, 0.0, 0.0, 0.0, 0.0, 0.0, 0.0, 0.0, 0.0, 0.0, 0.0, 0.0, 2.0, 0.0, 0.0, 0.0, 0.0, 0.0, 1.0, 0.0, 1.0, 0.0, 0.0, 0.0, 5.0, 2.0, 1.0], "bins": [-0.01422426663339138, -0.013991625979542732, -0.01375898439437151, -0.013526343740522861, -0.013293702155351639, -0.01306106150150299, -0.012828419916331768, -0.01259577926248312, -0.012363137677311897, -0.01213049702346325, -0.011897855438292027, -0.011665214784443378, -0.011432573199272156, -0.011199932545423508, -0.010967290960252285, -0.010734650306403637, -0.010502008721232414, -0.010269368067383766, -0.010036726482212543, -0.009804085828363895, -0.009571444243192673, -0.009338803589344025, -0.009106162004172802, -0.008873521350324154, -0.008640880696475506, -0.008408240042626858, -0.008175598457455635, -0.007942957803606987, -0.007710316218435764, -0.007477675098925829, -0.0072450339794158936, -0.0070123933255672455, -0.006779751740396023, -0.006547110620886087, -0.006314469501376152, -0.006081828381866217, -0.005849187262356281, -0.005616546142846346, -0.0053839050233364105, -0.0051512643694877625, -0.004918623249977827, -0.004685982130467892, -0.004453341010957956, -0.004220699891448021, -0.0039880587719380856, -0.00375541765242815, -0.0035227767657488585, -0.003290135646238923, -0.0030574945267289877, -0.0028248534072190523, -0.002592212287709117, -0.002359571401029825, -0.00212693028151989, -0.0018942890455946326, -0.001661648042500019, -0.0014290069229900837, -0.0011963658034801483, -0.0009637246839702129, -0.0007310836226679385, -0.000498442561365664, -0.0002658014418557286, -3.316032234579325e-05, 0.0001994806807488203, 0.0004321218002587557, 0.0006647629197686911]}, "gradients/graph_1taskmapper.lins.1.bias": {"_type": "histogram", "values": [1.0, 0.0, 0.0, 0.0, 0.0, 0.0, 1.0, 0.0, 0.0, 0.0, 0.0, 0.0, 0.0, 0.0, 0.0, 0.0, 0.0, 0.0, 0.0, 0.0, 0.0, 1.0, 0.0, 0.0, 0.0, 1.0, 0.0, 0.0, 0.0, 0.0, 0.0, 1.0, 0.0, 1.0, 0.0, 0.0, 1.0, 0.0, 0.0, 0.0, 0.0, 0.0, 0.0, 0.0, 0.0, 1.0, 0.0, 0.0, 0.0, 0.0, 1.0, 4.0, 0.0, 0.0, 0.0, 0.0, 0.0, 0.0, 0.0, 0.0, 0.0, 0.0, 1.0, 2.0], "bins": [-0.004127331078052521, -0.004046769812703133, -0.0039662085473537445, -0.003885647514835, -0.003805086249485612, -0.0037245252169668674, -0.0036439639516174793, -0.003563402686268091, -0.003482841420918703, -0.003402280155569315, -0.0033217191230505705, -0.0032411578577011824, -0.0031605965923517942, -0.0030800355598330498, -0.0029994742944836617, -0.0029189130291342735, -0.002838351996615529, -0.002757790731266141, -0.0026772296987473965, -0.0025966684333980083, -0.0025161071680486202, -0.002435545902699232, -0.0023549848701804876, -0.0022744236048310995, -0.002193862572312355, -0.002113301306962967, -0.0020327402744442225, -0.0019521790090948343, -0.0018716177437454462, -0.00179105659481138, -0.0017104954458773136, -0.0016299341805279255, -0.001549373148009181, -0.0014688119990751147, -0.0013882507337257266, -0.0013076895847916603, -0.0012271283194422722, -0.0011465671705082059, -0.0010660060215741396, -0.0009854447562247515, -0.0009048836072906852, -0.000824322400148958, -0.0007437611930072308, -0.0006632000440731645, -0.0005826388369314373, -0.00050207762978971, -0.0004215164517518133, -0.00034095527371391654, -0.00026039406657218933, -0.00017983287398237735, -9.927168139256537e-05, -1.871048880275339e-05, 6.185070378705859e-05, 0.0001424119109287858, 0.00022297308896668255, 0.0003035342670045793, 0.0003840954741463065, 0.0004646566812880337, 0.0005452178884297609, 0.0006257790373638272, 0.0007063402445055544, 0.0007869014516472816, 0.0008674626005813479, 0.0009480238077230752, 0.0010285850148648024]}, "gradients/graph_1taskmapper.lins.1.weight": {"_type": "histogram", "values": [1.0, 0.0, 0.0, 0.0, 0.0, 0.0, 1.0, 1.0, 0.0, 0.0, 1.0, 0.0, 1.0, 1.0, 0.0, 3.0, 1.0, 0.0, 1.0, 1.0, 4.0, 0.0, 2.0, 2.0, 4.0, 2.0, 4.0, 2.0, 2.0, 5.0, 2.0, 2.0, 5.0, 2.0, 7.0, 8.0, 7.0, 7.0, 5.0, 11.0, 8.0, 8.0, 5.0, 7.0, 9.0, 14.0, 8.0, 13.0, 107.0, 18.0, 12.0, 11.0, 7.0, 8.0, 15.0, 4.0, 13.0, 9.0, 6.0, 2.0, 3.0, 1.0, 0.0, 1.0], "bins": [-0.002036471851170063, -0.0019948116969317198, -0.00195315177552402, -0.0019114917377009988, -0.0018698316998779774, -0.0018281715456396341, -0.0017865116242319345, -0.0017448514699935913, -0.00170319143217057, -0.0016615313943475485, -0.001619871356524527, -0.0015782113187015057, -0.0015365512808784842, -0.0014948912430554628, -0.0014532310888171196, -0.0014115710509940982, -0.0013699110131710768, -0.0013282509753480554, -0.001286590937525034, -0.0012449308997020125, -0.0012032708618789911, -0.0011616107076406479, -0.0011199507862329483, -0.001078290631994605, -0.0010366307105869055, -0.000994970672763884, -0.0009533106349408627, -0.0009116505971178412, -0.0008699905010871589, -0.0008283304632641375, -0.0007866704254411161, -0.0007450103294104338, -0.0007033502915874124, -0.0006616902537643909, -0.0006200302159413695, -0.0005783701781183481, -0.0005367100820876658, -0.0004950500442646444, -0.00045339000644162297, -0.0004117299395147711, -0.0003700699016917497, -0.0003284098638687283, -0.0002867497969418764, -0.000245089759118855, -0.00020342970674391836, -0.00016176965436898172, -0.00012010961654596031, -7.844954961910844e-05, -3.6789511796087027e-05, 4.8705369408708066e-06, 4.653058567782864e-05, 8.819063077680767e-05, 0.0001298506831517443, 0.00017151073552668095, 0.00021317077334970236, 0.0002548308402765542, 0.00029649087809957564, 0.00033815091592259705, 0.0003798109828494489, 0.00042147102067247033, 0.00046313105849549174, 0.0005047911545261741, 0.0005464511923491955, 0.0005881112301722169, 0.0006297712679952383]}, "gradients/graph_1taskmapper.lins.0.bias": {"_type": "histogram", "values": [1.0, 0.0, 0.0, 0.0, 0.0, 0.0, 0.0, 0.0, 0.0, 0.0, 0.0, 0.0, 1.0, 0.0, 0.0, 0.0, 0.0, 0.0, 0.0, 1.0, 1.0, 0.0, 1.0, 1.0, 0.0, 0.0, 0.0, 0.0, 0.0, 0.0, 1.0, 1.0, 0.0, 0.0, 2.0, 0.0, 1.0, 2.0, 2.0, 1.0, 0.0, 1.0, 2.0, 2.0, 0.0, 0.0, 0.0, 0.0, 1.0, 0.0, 0.0, 0.0, 0.0, 0.0, 0.0, 0.0, 1.0, 0.0, 0.0, 0.0, 0.0, 0.0, 0.0, 1.0], "bins": [-0.004911025986075401, -0.004815452732145786, -0.004719879012554884, -0.004624305758625269, -0.004528732039034367, -0.004433158785104752, -0.0043375855311751366, -0.004242011811584234, -0.004146438557654619, -0.004050865303725004, -0.003955291584134102, -0.003859718330204487, -0.003764144843444228, -0.0036685713566839695, -0.0035729981027543545, -0.003477424615994096, -0.003381851129233837, -0.0032862776424735785, -0.0031907041557133198, -0.0030951309017837048, -0.002999557415023446, -0.0029039839282631874, -0.0028084106743335724, -0.0027128371875733137, -0.002617263700813055, -0.0025216902140527964, -0.0024261167272925377, -0.0023305434733629227, -0.002234969986602664, -0.0021393964998424053, -0.0020438232459127903, -0.0019482497591525316, -0.001852676272392273, -0.0017571027856320143, -0.0016615294152870774, -0.0015659560449421406, -0.001470382558181882, -0.0013748090714216232, -0.0012792357010766864, -0.0011836623307317495, -0.0010880888439714909, -0.0009925153572112322, -0.0008969419868662953, -0.0008013685583136976, -0.0007057951297610998, -0.0006102217012085021, -0.0005146482726559043, -0.00041907484410330653, -0.00032350141555070877, -0.000227927986998111, -0.00013235455844551325, -3.678112989291549e-05, 5.8792298659682274e-05, 0.00015436572721228004, 0.0002499391557648778, 0.00034551258431747556, 0.0004410860128700733, 0.0005366594414226711, 0.0006322328699752688, 0.0007278062985278666, 0.0008233797270804644, 0.0009189531556330621, 0.0010145265841856599, 0.0011100999545305967, 0.0012056734412908554]}, "gradients/graph_1taskmapper.lins.0.weight": {"_type": "histogram", "values": [1.0, 0.0, 0.0, 0.0, 0.0, 2.0, 1.0, 0.0, 1.0, 3.0, 2.0, 1.0, 0.0, 2.0, 3.0, 7.0, 2.0, 6.0, 0.0, 6.0, 7.0, 4.0, 14.0, 7.0, 13.0, 10.0, 20.0, 9.0, 12.0, 15.0, 19.0, 14.0, 20.0, 32.0, 31.0, 22.0, 38.0, 39.0, 50.0, 41.0, 48.0, 38.0, 41.0, 33.0, 25.0, 16.0, 23.0, 14.0, 13.0, 11.0, 14.0, 6.0, 10.0, 5.0, 5.0, 3.0, 0.0, 1.0, 2.0, 0.0, 1.0, 3.0, 0.0, 2.0], "bins": [-0.0017763767391443253, -0.0017298775492236018, -0.0016833782428875566, -0.0016368790529668331, -0.0015903798630461097, -0.0015438806731253862, -0.001497381366789341, -0.0014508821768686175, -0.001404382986947894, -0.0013578837970271707, -0.0013113844906911254, -0.001264885300770402, -0.0012183861108496785, -0.001171886920928955, -0.0011253876145929098, -0.0010788884246721864, -0.001032389234751463, -0.0009858900448307395, -0.0009393907967023551, -0.0008928915485739708, -0.0008463923586532474, -0.000799893110524863, -0.0007533938623964787, -0.0007068946724757552, -0.00066039536613971, -0.0006138961180113256, -0.0005673969280906022, -0.0005208976799622178, -0.00047439849004149437, -0.00042789924191311, -0.0003814000228885561, -0.00033490080386400223, -0.0002884016139432788, -0.0002419023949187249, -0.000195403175894171, -0.00014890394231770188, -0.00010240472329314798, -5.5905504268594086e-05, -9.406270692124963e-06, 3.709294833242893e-05, 8.359216735698283e-05, 0.00013009138638153672, 0.00017659060540609062, 0.00022308983898255974, 0.00026958907255902886, 0.0003160882624797523, 0.00036258751060813665, 0.00040908672963269055, 0.00045558594865724444, 0.0005020851967856288, 0.0005485843867063522, 0.0005950836348347366, 0.00064158282475546, 0.0006880820728838444, 0.0007345812628045678, 0.0007810805109329522, 0.0008275797590613365, 0.0008740790071897209, 0.0009205781971104443, 0.0009670774452388287, 0.001013576635159552, 0.0010600758250802755, 0.0011065751314163208, 0.0011530743213370442, 0.0011995735112577677]}, "gradients/graph_1_projector.0.bias": {"_type": "histogram", "values": [1.0, 0.0, 0.0, 1.0, 1.0, 0.0, 1.0, 0.0, 1.0, 1.0, 0.0, 0.0, 1.0, 2.0, 0.0, 0.0, 0.0, 0.0, 0.0, 3.0, 0.0, 3.0, 1.0, 0.0, 0.0, 1.0, 1.0, 0.0, 1.0, 0.0, 0.0, 0.0, 0.0, 2.0, 1.0, 1.0, 1.0, 3.0, 0.0, 0.0, 0.0, 1.0, 1.0, 0.0, 0.0, 0.0, 0.0, 0.0, 0.0, 0.0, 0.0, 0.0, 1.0, 0.0, 0.0, 0.0, 1.0, 0.0, 0.0, 0.0, 0.0, 0.0, 0.0, 1.0], "bins": [-1.9743258953094482, -1.902431607246399, -1.8305373191833496, -1.7586430311203003, -1.686748743057251, -1.614854335784912, -1.5429600477218628, -1.4710657596588135, -1.3991714715957642, -1.3272771835327148, -1.2553828954696655, -1.1834886074066162, -1.1115942001342773, -1.0397000312805176, -0.9678056240081787, -0.8959113359451294, -0.8240170478820801, -0.7521227598190308, -0.6802284717559814, -0.6083341240882874, -0.536439836025238, -0.4645455479621887, -0.392651230096817, -0.3207569122314453, -0.248862624168396, -0.17696832120418549, -0.10507401823997498, -0.033179715275764465, 0.038714587688446045, 0.11060887575149536, 0.18250319361686707, 0.25439751148223877, 0.3262917995452881, 0.3981860876083374, 0.4700804054737091, 0.5419747233390808, 0.6138690114021301, 0.6857632994651794, 0.7576576471328735, 0.8295519351959229, 0.9014462232589722, 0.9733405113220215, 1.0452347993850708, 1.1171290874481201, 1.189023494720459, 1.2609176635742188, 1.3328120708465576, 1.404706358909607, 1.4766006469726562, 1.5484949350357056, 1.6203892230987549, 1.6922835111618042, 1.7641777992248535, 1.8360722064971924, 1.9079664945602417, 1.979860782623291, 2.051754951477051, 2.1236493587493896, 2.1955435276031494, 2.2674379348754883, 2.339332103729248, 2.411226511001587, 2.4831206798553467, 2.5550150871276855, 2.6269094944000244]}, "gradients/graph_1_projector.0.weight": {"_type": "histogram", "values": [1.0, 3.0, 4.0, 4.0, 2.0, 4.0, 1.0, 6.0, 10.0, 16.0, 11.0, 13.0, 15.0, 27.0, 33.0, 29.0, 27.0, 49.0, 53.0, 50.0, 70.0, 103.0, 124.0, 149.0, 190.0, 243.0, 290.0, 368.0, 492.0, 548.0, 629.0, 653.0, 673.0, 591.0, 497.0, 470.0, 326.0, 275.0, 193.0, 183.0, 132.0, 111.0, 92.0, 80.0, 67.0, 50.0, 48.0, 34.0, 31.0, 19.0, 22.0, 19.0, 13.0, 13.0, 11.0, 6.0, 7.0, 4.0, 1.0, 1.0, 1.0, 2.0, 1.0, 2.0], "bins": [-0.06638281047344208, -0.06429199129343033, -0.06220117583870888, -0.06011035665869713, -0.05801954120397568, -0.05592872202396393, -0.05383790284395218, -0.05174708738923073, -0.04965627193450928, -0.04756545275449753, -0.04547463729977608, -0.04338381811976433, -0.04129300266504288, -0.03920218348503113, -0.03711136430501938, -0.03502054885029793, -0.03292972967028618, -0.03083891235291958, -0.02874809503555298, -0.02665727585554123, -0.02456646040081978, -0.02247564122080803, -0.02038482390344143, -0.01829400658607483, -0.01620318926870823, -0.014112371951341629, -0.012021554633975029, -0.009930736385285854, -0.007839919067919254, -0.005749101750552654, -0.0036582835018634796, -0.0015674661844968796, 0.0005233511328697205, 0.002614168683066964, 0.004704986233264208, 0.006795804016292095, 0.008886621333658695, 0.010977438651025295, 0.01306825689971447, 0.01515907421708107, 0.01724989153444767, 0.01934070885181427, 0.02143152616918087, 0.02352234348654747, 0.02561316266655922, 0.02770397812128067, 0.02979479730129242, 0.03188561648130417, 0.03397643193602562, 0.03606725111603737, 0.03815806657075882, 0.04024888575077057, 0.04233970120549202, 0.04443052038550377, 0.04652133584022522, 0.04861215502023697, 0.05070297420024872, 0.05279379338026047, 0.05488460883498192, 0.05697542801499367, 0.05906624346971512, 0.06115706264972687, 0.06324788182973862, 0.06533870100975037, 0.06742951273918152]}, "gradients/graph_1_encoder.encoder.0.bias": {"_type": "histogram", "values": [1.0, 2.0, 1.0, 0.0, 0.0, 3.0, 1.0, 2.0, 0.0, 5.0, 1.0, 2.0, 1.0, 0.0, 3.0, 2.0, 6.0, 4.0, 5.0, 8.0, 8.0, 6.0, 5.0, 15.0, 7.0, 10.0, 5.0, 3.0, 9.0, 7.0, 15.0, 13.0, 9.0, 8.0, 11.0, 2.0, 8.0, 14.0, 3.0, 2.0, 10.0, 7.0, 2.0, 2.0, 4.0, 2.0, 2.0, 3.0, 2.0, 0.0, 0.0, 0.0, 4.0, 2.0, 2.0, 2.0, 3.0, 0.0, 0.0, 0.0, 1.0, 0.0, 0.0, 1.0], "bins": [-0.8204545974731445, -0.7945241332054138, -0.7685936689376831, -0.7426632046699524, -0.7167327404022217, -0.690802276134491, -0.6648718118667603, -0.6389413475990295, -0.6130108833312988, -0.5870804190635681, -0.5611499547958374, -0.5352194905281067, -0.509289026260376, -0.48335856199264526, -0.45742809772491455, -0.43149763345718384, -0.4055671989917755, -0.3796367347240448, -0.3537062704563141, -0.3277758061885834, -0.30184534192085266, -0.27591490745544434, -0.24998442828655243, -0.22405396401882172, -0.198123499751091, -0.1721930354833603, -0.14626257121562958, -0.12033211439847946, -0.09440165013074875, -0.06847119331359863, -0.04254072904586792, -0.016610264778137207, 0.009320199489593506, 0.03525066375732422, 0.06118112429976463, 0.08711158484220505, 0.11304204910993576, 0.13897250592708588, 0.1649029701948166, 0.1908334344625473, 0.21676389873027802, 0.24269436299800873, 0.26862481236457825, 0.29455527663230896, 0.3204857409000397, 0.3464162051677704, 0.3723466694355011, 0.3982771337032318, 0.4242075979709625, 0.45013806223869324, 0.47606852650642395, 0.5019989609718323, 0.527929425239563, 0.5538598895072937, 0.5797903537750244, 0.6057208180427551, 0.6316512823104858, 0.6575817465782166, 0.6835122108459473, 0.709442675113678, 0.7353731393814087, 0.7613036036491394, 0.7872340679168701, 0.8131645321846008, 0.8390949964523315]}, "gradients/graph_1_encoder.encoder.0.weight": {"_type": "histogram", "values": [1.0, 1.0, 3.0, 1.0, 3.0, 2.0, 3.0, 5.0, 9.0, 14.0, 17.0, 23.0, 38.0, 64.0, 102.0, 165.0, 272.0, 440.0, 675.0, 1155.0, 1976.0, 3308.0, 5796.0, 8956.0, 13305.0, 19259.0, 24827.0, 29826.0, 29955.0, 25647.0, 20532.0, 14592.0, 9393.0, 5663.0, 3391.0, 2079.0, 1187.0, 643.0, 390.0, 206.0, 135.0, 80.0, 34.0, 25.0, 20.0, 10.0, 5.0, 5.0, 4.0, 3.0, 2.0, 4.0, 0.0, 1.0, 0.0, 0.0, 1.0, 0.0, 0.0, 2.0, 0.0, 0.0, 0.0, 1.0], "bins": [-0.029545925557613373, -0.028490709140896797, -0.02743549458682537, -0.026380278170108795, -0.02532506175339222, -0.024269845336675644, -0.023214630782604218, -0.022159414365887642, -0.021104197949171066, -0.02004898153245449, -0.018993766978383064, -0.01793855056166649, -0.016883334144949913, -0.015828117728233337, -0.014772903174161911, -0.013717686757445335, -0.012662472203373909, -0.011607256717979908, -0.010552040301263332, -0.009496824815869331, -0.008441608399152756, -0.007386392913758755, -0.006331177428364754, -0.005275961477309465, -0.004220745526254177, -0.0031655295751988888, -0.002110313856974244, -0.0010550981387495995, 1.1781230568885803e-07, 0.0010553337633609772, 0.002110549248754978, 0.0031657651998102665, 0.004220981150865555, 0.005276197101920843, 0.0063314130529761314, 0.0073866285383701324, 0.008441844955086708, 0.009497060440480709, 0.01055227592587471, 0.011607492342591286, 0.012662707827985287, 0.013717923313379288, 0.014773139730095863, 0.01582835614681244, 0.016883570700883865, 0.01793878711760044, 0.018994003534317017, 0.020049218088388443, 0.02110443450510502, 0.022159650921821594, 0.02321486547589302, 0.024270081892609596, 0.025325298309326172, 0.0263805128633976, 0.027435729280114174, 0.02849094569683075, 0.029546160250902176, 0.03060137666761875, 0.03165659308433533, 0.032711807638406754, 0.03376702219247818, 0.034822240471839905, 0.03587745502591133, 0.03693266957998276, 0.03798788785934448]}, "_wandb": {"runtime": 1060}}