{"train_loss": 0.312700480222702, "train_ssl_loss": 0.26304712891578674, "train_tsk_loss": 0.049653325229883194, "test_loss": 0.5584942102432251, "test_ssl_loss": 0.5128968358039856, "test_tsk_loss": 0.045597322285175323, "_timestamp": 1697563486.4653502, "_runtime": 120.70574617385864, "_step": 49, "gradients/taskmapper.out.bias": {"_type": "histogram", "values": [0.0, 0.0, 0.0, 0.0, 0.0, 0.0, 0.0, 0.0, 0.0, 0.0, 0.0, 0.0, 0.0, 0.0, 0.0, 0.0, 0.0, 0.0, 0.0, 0.0, 0.0, 0.0, 0.0, 0.0, 0.0, 0.0, 0.0, 0.0, 0.0, 0.0, 0.0, 0.0, 1.0, 0.0, 0.0, 0.0, 0.0, 0.0, 0.0, 0.0, 0.0, 0.0, 0.0, 0.0, 0.0, 0.0, 0.0, 0.0, 0.0, 0.0, 0.0, 0.0, 0.0, 0.0, 0.0, 0.0, 0.0, 0.0, 0.0, 0.0, 0.0, 0.0, 0.0, 0.0], "bins": [-0.29648327827453613, -0.29648327827453613, -0.29648327827453613, -0.29648327827453613, -0.29648327827453613, -0.29648327827453613, -0.29648327827453613, -0.29648327827453613, -0.29648327827453613, -0.29648327827453613, -0.29648327827453613, -0.29648327827453613, -0.29648327827453613, -0.29648327827453613, -0.29648327827453613, -0.29648327827453613, -0.29648327827453613, -0.29648327827453613, -0.29648327827453613, -0.29648327827453613, -0.29648327827453613, -0.29648327827453613, -0.29648327827453613, -0.29648327827453613, -0.29648327827453613, -0.29648327827453613, -0.29648327827453613, -0.29648327827453613, -0.29648327827453613, -0.29648327827453613, -0.29648327827453613, -0.29648327827453613, -0.29648327827453613, -0.29648327827453613, -0.29648327827453613, -0.29648327827453613, -0.29648327827453613, -0.29648327827453613, -0.29648327827453613, -0.29648327827453613, -0.29648327827453613, -0.29648327827453613, -0.29648327827453613, -0.29648327827453613, -0.29648327827453613, -0.29648327827453613, -0.29648327827453613, -0.29648327827453613, -0.29648327827453613, -0.29648327827453613, -0.29648327827453613, -0.29648327827453613, -0.29648327827453613, -0.29648327827453613, -0.29648327827453613, -0.29648327827453613, -0.29648327827453613, -0.29648327827453613, -0.29648327827453613, -0.29648327827453613, -0.29648327827453613, -0.29648327827453613, -0.29648327827453613, -0.29648327827453613, -0.29648327827453613]}, "gradients/taskmapper.out.weight": {"_type": "histogram", "values": [1.0, 0.0, 0.0, 0.0, 0.0, 0.0, 0.0, 0.0, 0.0, 0.0, 0.0, 0.0, 0.0, 0.0, 0.0, 0.0, 0.0, 0.0, 0.0, 0.0, 0.0, 1.0, 0.0, 0.0, 0.0, 1.0, 0.0, 0.0, 0.0, 0.0, 0.0, 0.0, 0.0, 0.0, 0.0, 0.0, 0.0, 0.0, 0.0, 0.0, 0.0, 0.0, 0.0, 0.0, 0.0, 0.0, 0.0, 0.0, 0.0, 0.0, 0.0, 0.0, 0.0, 0.0, 0.0, 0.0, 0.0, 0.0, 0.0, 0.0, 0.0, 0.0, 0.0, 13.0], "bins": [-0.29813212156295776, -0.2934738099575043, -0.2888154983520508, -0.2841571867465973, -0.2794988751411438, -0.2748405337333679, -0.27018222212791443, -0.26552391052246094, -0.26086559891700745, -0.25620728731155396, -0.25154897570610046, -0.24689064919948578, -0.2422323375940323, -0.2375740259885788, -0.2329157143831253, -0.22825740277767181, -0.22359909117221832, -0.21894077956676483, -0.21428246796131134, -0.20962414145469666, -0.20496582984924316, -0.20030751824378967, -0.19564920663833618, -0.1909908950328827, -0.1863325834274292, -0.1816742718219757, -0.17701596021652222, -0.17235763370990753, -0.16769932210445404, -0.16304101049900055, -0.15838269889354706, -0.15372438728809357, -0.14906606078147888, -0.1444077491760254, -0.1397494375705719, -0.13509111106395721, -0.13043279945850372, -0.12577448785305023, -0.12111617624759674, -0.11645786464214325, -0.11179954558610916, -0.10714123398065567, -0.10248291492462158, -0.09782460331916809, -0.0931662917137146, -0.08850797265768051, -0.08384966105222702, -0.07919134199619293, -0.07453303039073944, -0.06987471878528595, -0.06521639972925186, -0.06055808812379837, -0.05589977279305458, -0.05124145746231079, -0.0465831458568573, -0.04192483052611351, -0.03726651519536972, -0.03260819986462593, -0.02794988639652729, -0.02329157292842865, -0.01863325759768486, -0.01397494226694107, -0.00931662879884243, -0.00465831533074379, 0.0]}, "gradients/taskmapper.lins.1.bias": {"_type": "histogram", "values": [1.0, 0.0, 0.0, 0.0, 0.0, 0.0, 0.0, 0.0, 0.0, 0.0, 0.0, 0.0, 0.0, 0.0, 0.0, 0.0, 0.0, 0.0, 0.0, 0.0, 0.0, 0.0, 0.0, 0.0, 0.0, 0.0, 0.0, 0.0, 0.0, 0.0, 0.0, 0.0, 0.0, 0.0, 0.0, 0.0, 0.0, 0.0, 0.0, 0.0, 0.0, 0.0, 1.0, 0.0, 0.0, 0.0, 1.0, 0.0, 0.0, 0.0, 0.0, 0.0, 0.0, 0.0, 0.0, 0.0, 0.0, 0.0, 0.0, 0.0, 0.0, 0.0, 0.0, 13.0], "bins": [-0.08459898829460144, -0.08327513188123703, -0.08195128291845322, -0.0806274265050888, -0.07930357754230499, -0.07797972112894058, -0.07665586471557617, -0.07533201575279236, -0.07400815933942795, -0.07268430292606354, -0.07136045396327972, -0.07003659754991531, -0.0687127485871315, -0.06738889217376709, -0.06606504321098328, -0.06474118679761887, -0.06341733038425446, -0.062093477696180344, -0.06076962500810623, -0.05944576859474182, -0.05812191590666771, -0.0567980632185936, -0.055474210530519485, -0.054150357842445374, -0.05282650887966156, -0.05150265619158745, -0.050178803503513336, -0.048854947090148926, -0.047531094402074814, -0.0462072417140007, -0.04488338902592659, -0.04355953633785248, -0.042235683649778366, -0.040911830961704254, -0.03958797827363014, -0.03826412558555603, -0.03694026917219162, -0.03561641648411751, -0.034292563796043396, -0.032968711107969284, -0.031644854694604874, -0.03032100200653076, -0.0289971474558115, -0.02767329476773739, -0.026349440217018127, -0.025025587528944016, -0.023701734840869904, -0.02237788215279579, -0.02105402946472168, -0.019730176776647568, -0.018406322225928307, -0.017082469537854195, -0.015758614987134933, -0.014434762299060822, -0.01311090961098671, -0.011787055991590023, -0.010463202372193336, -0.00913934875279665, -0.007815495133399963, -0.0064916424453258514, -0.005167788825929165, -0.0038439352065324783, -0.0025200825184583664, -0.0011962288990616798, 0.00012762504047714174]}, "gradients/taskmapper.lins.1.weight": {"_type": "histogram", "values": [1.0, 0.0, 1.0, 0.0, 1.0, 1.0, 0.0, 0.0, 0.0, 1.0, 0.0, 0.0, 1.0, 0.0, 0.0, 0.0, 0.0, 0.0, 1.0, 1.0, 0.0, 0.0, 0.0, 0.0, 0.0, 1.0, 0.0, 0.0, 1.0, 0.0, 0.0, 0.0, 1.0, 0.0, 2.0, 0.0, 0.0, 2.0, 0.0, 0.0, 0.0, 0.0, 1.0, 1.0, 2.0, 1.0, 1.0, 3.0, 2.0, 3.0, 1.0, 3.0, 1.0, 2.0, 3.0, 4.0, 3.0, 0.0, 1.0, 1.0, 0.0, 0.0, 1.0, 335.0], "bins": [-0.04322194308042526, -0.04254557564854622, -0.04186920449137688, -0.04119283705949783, -0.04051646590232849, -0.03984009847044945, -0.039163727313280106, -0.03848735988140106, -0.03781098872423172, -0.037134621292352676, -0.036458250135183334, -0.03578188270330429, -0.03510551154613495, -0.034429144114255905, -0.03375277295708656, -0.03307640552520752, -0.032400038093328476, -0.03172367066144943, -0.03104729950428009, -0.030370930209755898, -0.029694560915231705, -0.02901819348335266, -0.02834182232618332, -0.027665454894304276, -0.026989083737134933, -0.02631271444261074, -0.025636345148086548, -0.024959975853562355, -0.024283606559038162, -0.02360723912715912, -0.022930867969989777, -0.022254500538110733, -0.02157812938094139, -0.020901760086417198, -0.020225390791893005, -0.019549021497368813, -0.01887265220284462, -0.018196284770965576, -0.017519913613796234, -0.01684354618191719, -0.016167176887392998, -0.015490807592868805, -0.014814438298344612, -0.01413806900382042, -0.013461700640618801, -0.012785331346094608, -0.012108962051570415, -0.011432593688368797, -0.010756224393844604, -0.010079855099320412, -0.009403485804796219, -0.008727116510272026, -0.008050748147070408, -0.007374378852546215, -0.006698009558022022, -0.006021640729159117, -0.005345270968973637, -0.004668901674449444, -0.003992532845586538, -0.0033161635510623455, -0.0026397944893687963, -0.001963425427675247, -0.0012870561331510544, -0.0006106873042881489, 6.568181561306119e-05]}, "gradients/taskmapper.lins.0.bias": {"_type": "histogram", "values": [1.0, 0.0, 0.0, 0.0, 0.0, 0.0, 0.0, 0.0, 0.0, 0.0, 1.0, 0.0, 0.0, 0.0, 0.0, 1.0, 0.0, 0.0, 1.0, 0.0, 1.0, 0.0, 0.0, 2.0, 2.0, 0.0, 0.0, 1.0, 0.0, 0.0, 0.0, 0.0, 0.0, 0.0, 0.0, 0.0, 0.0, 0.0, 0.0, 1.0, 0.0, 1.0, 0.0, 0.0, 0.0, 1.0, 1.0, 0.0, 0.0, 1.0, 0.0, 0.0, 0.0, 0.0, 0.0, 0.0, 1.0, 0.0, 0.0, 0.0, 0.0, 0.0, 0.0, 8.0], "bins": [-0.03321026265621185, -0.03268641233444214, -0.032162562012672424, -0.03163871169090271, -0.031114859506487846, -0.030591009184718132, -0.030067158862948418, -0.029543306678533554, -0.02901945635676384, -0.028495606034994125, -0.02797175571322441, -0.027447903528809547, -0.026924053207039833, -0.02640020288527012, -0.025876352563500404, -0.02535250037908554, -0.024828650057315826, -0.024304799735546112, -0.023780949413776398, -0.023257097229361534, -0.02273324690759182, -0.022209396585822105, -0.02168554626405239, -0.021161694079637527, -0.020637845620512962, -0.020113995298743248, -0.019590144976973534, -0.01906629279255867, -0.018542442470788956, -0.01801859214901924, -0.017494741827249527, -0.016970891505479813, -0.0164470374584198, -0.015923187136650085, -0.015399335883557796, -0.014875485561788082, -0.014351634308695793, -0.013827783986926079, -0.013303933665156364, -0.012780082412064075, -0.012256232090294361, -0.011732381768524647, -0.011208530515432358, -0.010684680193662643, -0.010160828940570354, -0.00963697861880064, -0.009113127365708351, -0.008589277043938637, -0.008065425790846348, -0.007541575003415346, -0.0070177242159843445, -0.00649387389421463, -0.005970022641122341, -0.005446172319352627, -0.004922321531921625, -0.0043984707444906235, -0.0038746201898902655, -0.003350769402459264, -0.002826918847858906, -0.002303068060427904, -0.0017792172729969025, -0.0012553664855659008, -0.0007315159309655428, -0.00020766514353454113, 0.00031618570210412145]}, "gradients/taskmapper.lins.0.weight": {"_type": "histogram", "values": [1.0, 0.0, 0.0, 0.0, 0.0, 1.0, 0.0, 1.0, 1.0, 0.0, 2.0, 0.0, 4.0, 4.0, 3.0, 3.0, 4.0, 6.0, 9.0, 6.0, 11.0, 14.0, 18.0, 16.0, 12.0, 10.0, 5.0, 14.0, 19.0, 38.0, 23.0, 10.0, 17.0, 17.0, 44.0, 233.0, 11.0, 12.0, 15.0, 18.0, 17.0, 23.0, 11.0, 15.0, 16.0, 10.0, 9.0, 7.0, 10.0, 10.0, 6.0, 9.0, 5.0, 5.0, 3.0, 2.0, 2.0, 3.0, 0.0, 1.0, 0.0, 1.0, 0.0, 1.0], "bins": [-0.008037342689931393, -0.007808256894350052, -0.007579171564429998, -0.007350085768848658, -0.007121000438928604, -0.006891914643347263, -0.0066628288477659225, -0.006433743517845869, -0.006204658187925816, -0.005975572392344475, -0.005746487062424421, -0.0055174012668430805, -0.005288315936923027, -0.005059230141341686, -0.0048301443457603455, -0.004601059015840292, -0.004371973220258951, -0.00414288742467761, -0.003913802094757557, -0.003684716299176216, -0.0034556309692561626, -0.003226545173674822, -0.0029974596109241247, -0.0027683740481734276, -0.0025392884854227304, -0.0023102029226720333, -0.002081117359921336, -0.0018520316807553172, -0.00162294611800462, -0.001393860555253923, -0.001164774876087904, -0.0009356893133372068, -0.000706604216247797, -0.0004775186243932694, -0.0002484330325387418, -1.9347411580383778e-05, 0.00020973815117031336, 0.0004388237139210105, 0.0006679093930870295, 0.0008969949558377266, 0.0011260805185884237, 0.0013551660813391209, 0.001584251644089818, 0.001813337323255837, 0.002042423002421856, 0.0022715083323419094, 0.00250059412792325, 0.0027296796906739473, 0.0029587652534246445, 0.0031878508161753416, 0.0034169363789260387, 0.0036460221745073795, 0.003875107504427433, 0.004104193300008774, 0.004333279095590115, 0.004562364425510168, 0.0047914497554302216, 0.005020535551011562, 0.005249620880931616, 0.005478706676512957, 0.00570779200643301, 0.005936877802014351, 0.006165963597595692, 0.006395048927515745, 0.006624134723097086]}, "gradients/_projector.0.bias": {"_type": "histogram", "values": [1.0, 0.0, 0.0, 0.0, 1.0, 0.0, 1.0, 0.0, 0.0, 1.0, 1.0, 2.0, 0.0, 1.0, 0.0, 0.0, 0.0, 0.0, 0.0, 1.0, 0.0, 0.0, 1.0, 0.0, 1.0, 0.0, 0.0, 0.0, 1.0, 0.0, 2.0, 2.0, 1.0, 2.0, 0.0, 0.0, 0.0, 1.0, 1.0, 0.0, 1.0, 0.0, 1.0, 1.0, 2.0, 0.0, 1.0, 2.0, 1.0, 0.0, 0.0, 0.0, 1.0, 0.0, 0.0, 0.0, 0.0, 0.0, 0.0, 0.0, 0.0, 0.0, 0.0, 1.0], "bins": [-0.08349072933197021, -0.08069979399442673, -0.07790885865688324, -0.07511791586875916, -0.07232698053121567, -0.06953604519367218, -0.06674510985612869, -0.0639541745185852, -0.06116323545575142, -0.05837230011820793, -0.055581361055374146, -0.05279042571783066, -0.04999949038028717, -0.047208551317453384, -0.0444176159799099, -0.04162667691707611, -0.03883574157953262, -0.036044806241989136, -0.03325386717915535, -0.030462931841611862, -0.027671994641423225, -0.02488105744123459, -0.0220901221036911, -0.019299184903502464, -0.016508247703313828, -0.01371731050312519, -0.010926374234259129, -0.008135437965393066, -0.00534450076520443, -0.002553563565015793, 0.0002373717725276947, 0.0030283089727163315, 0.005819246172904968, 0.008610183373093605, 0.011401119641959667, 0.01419205591082573, 0.016982993111014366, 0.019773930311203003, 0.02256486564874649, 0.025355802848935127, 0.028146740049123764, 0.0309376772493124, 0.03372861444950104, 0.036519549787044525, 0.03931048512458801, 0.0421014241874218, 0.044892359524965286, 0.04768329858779907, 0.05047423392534256, 0.05326516926288605, 0.05605610832571983, 0.05884704366326332, 0.06163798272609711, 0.0644289180636406, 0.06721985340118408, 0.07001078873872757, 0.07280172407627106, 0.07559265941381454, 0.07838359475135803, 0.08117453753948212, 0.0839654728770256, 0.08675640821456909, 0.08954734355211258, 0.09233827888965607, 0.09512922167778015]}, "gradients/_projector.0.weight": {"_type": "histogram", "values": [1.0, 0.0, 1.0, 1.0, 3.0, 0.0, 1.0, 1.0, 4.0, 1.0, 4.0, 5.0, 13.0, 10.0, 20.0, 25.0, 31.0, 45.0, 68.0, 75.0, 101.0, 136.0, 171.0, 210.0, 236.0, 302.0, 344.0, 377.0, 448.0, 529.0, 506.0, 505.0, 520.0, 506.0, 483.0, 441.0, 404.0, 291.0, 297.0, 242.0, 193.0, 165.0, 112.0, 86.0, 67.0, 44.0, 49.0, 38.0, 24.0, 15.0, 11.0, 8.0, 3.0, 6.0, 2.0, 4.0, 1.0, 2.0, 1.0, 1.0, 0.0, 1.0, 0.0, 1.0], "bins": [-0.059742726385593414, -0.057868842035532, -0.05599495768547058, -0.054121073335409164, -0.05224718898534775, -0.05037330090999603, -0.048499416559934616, -0.0466255322098732, -0.04475164785981178, -0.042877763509750366, -0.04100387915968895, -0.03912999480962753, -0.03725610673427582, -0.0353822261095047, -0.033508338034152985, -0.03163445368409157, -0.02976056933403015, -0.027886684983968735, -0.026012800633907318, -0.024138914421200752, -0.022265030071139336, -0.02039114572107792, -0.018517259508371353, -0.016643375158309937, -0.01476949080824852, -0.012895606458187103, -0.011021721176803112, -0.00914783589541912, -0.007273951545357704, -0.0054000671952962875, -0.0035261819139122963, -0.001652296632528305, 0.0002215839922428131, 0.002095468807965517, 0.003969353623688221, 0.005843238439410925, 0.007717123255133629, 0.009591007605195045, 0.011464892886579037, 0.013338778167963028, 0.015212662518024445, 0.01708654686808586, 0.018960431218147278, 0.020834317430853844, 0.02270820178091526, 0.024582086130976677, 0.026455972343683243, 0.02832985669374466, 0.030203741043806076, 0.03207762539386749, 0.03395150974392891, 0.035825394093990326, 0.03769928216934204, 0.03957316279411316, 0.041447050869464874, 0.04332093521952629, 0.04519481956958771, 0.047068703919649124, 0.04894258826971054, 0.05081647261977196, 0.052690356969833374, 0.05456424504518509, 0.056438129395246506, 0.05831201374530792, 0.06018589809536934]}, "gradients/_encoder.encoder.12.bias": {"_type": "histogram", "values": [1.0, 0.0, 0.0, 1.0, 0.0, 0.0, 0.0, 1.0, 0.0, 0.0, 0.0, 3.0, 2.0, 1.0, 0.0, 1.0, 5.0, 3.0, 1.0, 7.0, 5.0, 9.0, 6.0, 10.0, 9.0, 5.0, 4.0, 8.0, 9.0, 10.0, 18.0, 10.0, 7.0, 10.0, 6.0, 5.0, 9.0, 5.0, 16.0, 4.0, 10.0, 5.0, 5.0, 5.0, 9.0, 5.0, 5.0, 4.0, 4.0, 3.0, 3.0, 2.0, 1.0, 0.0, 1.0, 1.0, 1.0, 0.0, 0.0, 0.0, 0.0, 0.0, 0.0, 1.0], "bins": [-0.03911104053258896, -0.037948958575725555, -0.03678687661886215, -0.03562479466199875, -0.034462712705135345, -0.03330063074827194, -0.03213854879140854, -0.030976468697190285, -0.02981438674032688, -0.028652304783463478, -0.027490222826600075, -0.02632814086973667, -0.025166060775518417, -0.024003978818655014, -0.02284189686179161, -0.021679814904928207, -0.020517732948064804, -0.0193556509912014, -0.018193569034337997, -0.017031487077474594, -0.01586940512061119, -0.014707324095070362, -0.013545243069529533, -0.01238316111266613, -0.011221079155802727, -0.010058997198939323, -0.00889691524207592, -0.007734834216535091, -0.006572752259671688, -0.005410670302808285, -0.004248588811606169, -0.0030865073204040527, -0.001924421638250351, -0.0007623399142175913, 0.0003997418098151684, 0.001561823533847928, 0.0027239052578806877, 0.003885987214744091, 0.005048068705946207, 0.006210150197148323, 0.007372232154011726, 0.00853431411087513, 0.009696396067738533, 0.010858477093279362, 0.012020559050142765, 0.013182641007006168, 0.014344722032546997, 0.0155068039894104, 0.016668885946273804, 0.017830967903137207, 0.01899304986000061, 0.020155131816864014, 0.021317213773727417, 0.02247929573059082, 0.023641375824809074, 0.024803457781672478, 0.02596553973853588, 0.027127621695399284, 0.028289703652262688, 0.02945178560912609, 0.030613865703344345, 0.03177594766020775, 0.03293802961707115, 0.034100111573934555, 0.03526219353079796]}, "gradients/_encoder.encoder.12.weight": {"_type": "histogram", "values": [2.0, 0.0, 1.0, 1.0, 3.0, 1.0, 4.0, 5.0, 3.0, 6.0, 9.0, 13.0, 15.0, 53.0, 42.0, 58.0, 79.0, 139.0, 188.0, 216.0, 306.0, 418.0, 555.0, 756.0, 916.0, 1256.0, 1585.0, 2079.0, 2617.0, 3351.0, 4142.0, 5002.0, 5859.0, 5993.0, 6014.0, 5303.0, 4296.0, 3496.0, 2599.0, 2064.0, 1470.0, 1175.0, 912.0, 691.0, 505.0, 371.0, 289.0, 212.0, 133.0, 112.0, 73.0, 57.0, 30.0, 30.0, 10.0, 9.0, 2.0, 3.0, 0.0, 4.0, 0.0, 2.0, 0.0, 1.0], "bins": [-0.03575741499662399, -0.03469887375831604, -0.03364033252000809, -0.032581791281700134, -0.03152325004339218, -0.030464710667729378, -0.029406171292066574, -0.02834763005375862, -0.02728908881545067, -0.026230547577142715, -0.025172006338834763, -0.02411346696317196, -0.023054925724864006, -0.021996384486556053, -0.02093784511089325, -0.019879303872585297, -0.018820762634277344, -0.01776222139596939, -0.016703680157661438, -0.015645140781998634, -0.014586599543690681, -0.013528058305382729, -0.01246951799839735, -0.011410977691411972, -0.01035243645310402, -0.009293895214796066, -0.008235354907810688, -0.0071768141351640224, -0.006118273362517357, -0.005059732589870691, -0.004001191817224026, -0.00294265104457736, -0.0018841102719306946, -0.000825569499284029, 0.00023297127336263657, 0.0012915120460093021, 0.0023500528186559677, 0.0034085935913026333, 0.004467134363949299, 0.005525675136595964, 0.00658421590924263, 0.007642756681889296, 0.008701297454535961, 0.00975983776152134, 0.010818378999829292, 0.011876920238137245, 0.012935460545122623, 0.013994000852108002, 0.015052542090415955, 0.016111083328723907, 0.01716962456703186, 0.018228163942694664, 0.019286705181002617, 0.02034524641931057, 0.021403785794973373, 0.022462327033281326, 0.02352086827158928, 0.024579409509897232, 0.025637950748205185, 0.02669649012386799, 0.02775503136217594, 0.028813572600483894, 0.029872111976146698, 0.03093065321445465, 0.031989194452762604]}, "gradients/_encoder.encoder.9.weight": {"_type": "histogram", "values": [1.0, 0.0, 0.0, 0.0, 0.0, 1.0, 0.0, 0.0, 0.0, 0.0, 0.0, 1.0, 1.0, 0.0, 1.0, 1.0, 0.0, 1.0, 1.0, 2.0, 5.0, 5.0, 0.0, 4.0, 4.0, 1.0, 6.0, 7.0, 8.0, 4.0, 3.0, 10.0, 9.0, 5.0, 6.0, 9.0, 7.0, 19.0, 13.0, 14.0, 12.0, 17.0, 13.0, 6.0, 10.0, 13.0, 10.0, 4.0, 3.0, 5.0, 2.0, 1.0, 1.0, 1.0, 2.0, 1.0, 0.0, 2.0, 1.0, 1.0, 1.0, 0.0, 0.0, 1.0], "bins": [-0.01646750047802925, -0.01602724939584732, -0.015586999244987965, -0.015146749094128609, -0.014706498943269253, -0.014266248792409897, -0.013825997710227966, -0.01338574755936861, -0.012945497408509254, -0.012505247257649899, -0.012064996175467968, -0.011624746024608612, -0.011184495873749256, -0.0107442457228899, -0.01030399464070797, -0.009863744489848614, -0.009423493407666683, -0.008983243256807327, -0.008542992174625397, -0.00810274202376604, -0.007662491872906685, -0.007222241256386042, -0.006781990639865398, -0.0063417404890060425, -0.005901489872485399, -0.005461239255964756, -0.0050209891051054, -0.004580738488584757, -0.004140487872064114, -0.0037002377212047577, -0.0032599871046841145, -0.002819736720994115, -0.00237948726862669, -0.0019392368849366903, -0.001498986384831369, -0.0010587358847260475, -0.0006184855010360479, -0.00017823511734604836, 0.0002620154991745949, 0.0007022658828645945, 0.001142516266554594, 0.0015827666502445936, 0.002023017033934593, 0.0024632676504552364, 0.002903518034145236, 0.0033437684178352356, 0.003784019034355879, 0.004224269650876522, 0.004664519801735878, 0.005104770418256521, 0.005545020569115877, 0.00598527118563652, 0.006425521336495876, 0.0068657719530165195, 0.007306022569537163, 0.007746272720396519, 0.008186522871255875, 0.00862677302211523, 0.009067024104297161, 0.009507274255156517, 0.009947524406015873, 0.010387774556875229, 0.01082802563905716, 0.011268275789916515, 0.011708526872098446]}, "gradients/_encoder.encoder.9.bias": {"_type": "histogram", "values": [1.0, 0.0, 0.0, 0.0, 0.0, 0.0, 0.0, 1.0, 0.0, 4.0, 1.0, 0.0, 0.0, 2.0, 3.0, 2.0, 4.0, 5.0, 12.0, 8.0, 11.0, 16.0, 16.0, 14.0, 15.0, 9.0, 17.0, 13.0, 12.0, 11.0, 7.0, 8.0, 5.0, 12.0, 7.0, 2.0, 6.0, 4.0, 4.0, 6.0, 5.0, 4.0, 0.0, 0.0, 0.0, 1.0, 4.0, 1.0, 0.0, 1.0, 0.0, 0.0, 0.0, 0.0, 0.0, 0.0, 0.0, 0.0, 0.0, 0.0, 0.0, 0.0, 1.0, 1.0], "bins": [-0.019331801682710648, -0.018579937517642975, -0.017828073352575302, -0.01707621105015278, -0.016324346885085106, -0.015572482720017433, -0.014820619486272335, -0.014068756252527237, -0.013316892087459564, -0.012565027922391891, -0.011813164688646793, -0.011061301454901695, -0.010309437289834023, -0.00955757312476635, -0.008805709891021252, -0.008053846657276154, -0.007301982492208481, -0.006550118792802095, -0.00579825509339571, -0.005046391393989325, -0.004294527694582939, -0.0035426639951765537, -0.0027908002957701683, -0.002038936596363783, -0.0012870728969573975, -0.000535209197551012, 0.00021665450185537338, 0.0009685182012617588, 0.0017203819006681442, 0.0024722456000745296, 0.003224109299480915, 0.0039759729988873005, 0.004727836698293686, 0.005479700397700071, 0.006231564097106457, 0.006983427796512842, 0.007735291495919228, 0.0084871556609869, 0.009239018894731998, 0.009990882128477097, 0.01074274629354477, 0.011494610458612442, 0.01224647369235754, 0.012998336926102638, 0.013750201091170311, 0.014502065256237984, 0.015253928489983082, 0.01600579172372818, 0.016757655888795853, 0.017509520053863525, 0.018261384218931198, 0.01901324652135372, 0.019765110686421394, 0.020516974851489067, 0.02126883715391159, 0.022020701318979263, 0.022772565484046936, 0.02352442964911461, 0.02427629381418228, 0.025028156116604805, 0.025780020281672478, 0.02653188444674015, 0.027283746749162674, 0.028035610914230347, 0.02878747507929802]}, "gradients/_encoder.encoder.8.bias": {"_type": "histogram", "values": [1.0, 1.0, 1.0, 1.0, 1.0, 0.0, 3.0, 2.0, 1.0, 1.0, 4.0, 6.0, 3.0, 6.0, 11.0, 14.0, 12.0, 9.0, 8.0, 18.0, 11.0, 20.0, 17.0, 13.0, 13.0, 16.0, 11.0, 9.0, 9.0, 4.0, 6.0, 3.0, 2.0, 2.0, 5.0, 1.0, 1.0, 1.0, 3.0, 1.0, 1.0, 1.0, 1.0, 0.0, 0.0, 0.0, 1.0, 0.0, 0.0, 0.0, 0.0, 0.0, 0.0, 0.0, 0.0, 0.0, 0.0, 0.0, 0.0, 0.0, 0.0, 0.0, 0.0, 1.0], "bins": [-5.3551048040390015e-09, -5.111360223963857e-09, -4.867615643888712e-09, -4.623871063813567e-09, -4.380126483738422e-09, -4.136381903663278e-09, -3.892637323588133e-09, -3.648892743512988e-09, -3.4051481634378433e-09, -3.1614035833626986e-09, -2.9176590032875538e-09, -2.673914423212409e-09, -2.4301698431372643e-09, -2.1864252630621195e-09, -1.9426806829869747e-09, -1.69893610291183e-09, -1.4551915228366852e-09, -1.2114469427615404e-09, -9.677023626863956e-10, -7.239577826112509e-10, -4.802132025361061e-10, -2.3646862246096134e-10, 7.275957614183426e-12, 2.510205376893282e-10, 4.94765117764473e-10, 7.385096978396177e-10, 9.822542779147625e-10, 1.2259988579899073e-09, 1.469743438065052e-09, 1.7134880181401968e-09, 1.9572325982153416e-09, 2.2009771782904863e-09, 2.444721758365631e-09, 2.688466338440776e-09, 2.9322109185159206e-09, 3.1759554985910654e-09, 3.41970007866621e-09, 3.663444658741355e-09, 3.9071892388165e-09, 4.1509338188916445e-09, 4.394678398966789e-09, 4.638422979041934e-09, 4.882167559117079e-09, 5.1259121391922235e-09, 5.369656719267368e-09, 5.613401299342513e-09, 5.857145879417658e-09, 6.100890459492803e-09, 6.344635039567947e-09, 6.588379619643092e-09, 6.832124199718237e-09, 7.075868779793382e-09, 7.3196133598685265e-09, 7.563357939943671e-09, 7.807102520018816e-09, 8.05084710009396e-09, 8.294591680169106e-09, 8.53833626024425e-09, 8.782080840319395e-09, 9.02582542039454e-09, 9.269570000469685e-09, 9.51331458054483e-09, 9.757059160619974e-09, 1.0000803740695119e-08, 1.0244548320770264e-08]}, "gradients/_encoder.encoder.8.weight": {"_type": "histogram", "values": [2.0, 0.0, 0.0, 1.0, 1.0, 2.0, 3.0, 2.0, 3.0, 11.0, 12.0, 17.0, 20.0, 25.0, 48.0, 68.0, 98.0, 130.0, 182.0, 280.0, 407.0, 560.0, 761.0, 1053.0, 1519.0, 2033.0, 2802.0, 3556.0, 4562.0, 5379.0, 5976.0, 6391.0, 6297.0, 5473.0, 4587.0, 3744.0, 2727.0, 2031.0, 1353.0, 996.0, 718.0, 511.0, 342.0, 246.0, 170.0, 141.0, 88.0, 52.0, 39.0, 25.0, 27.0, 19.0, 14.0, 5.0, 5.0, 6.0, 0.0, 3.0, 5.0, 4.0, 1.0, 0.0, 2.0, 1.0], "bins": [-0.041665904223918915, -0.04034300893545151, -0.0390201173722744, -0.03769722580909729, -0.03637433052062988, -0.035051435232162476, -0.03372854366898537, -0.03240565210580826, -0.03108275681734085, -0.029759863391518593, -0.028436969965696335, -0.027114076539874077, -0.02579118311405182, -0.02446828968822956, -0.023145396262407303, -0.021822502836585045, -0.020499609410762787, -0.01917671598494053, -0.01785382255911827, -0.016530929133296013, -0.015208035707473755, -0.013885142281651497, -0.012562248855829239, -0.011239355430006981, -0.009916462004184723, -0.008593568578362465, -0.007270675152540207, -0.005947781726717949, -0.004624888300895691, -0.003301994875073433, -0.001979101449251175, -0.0006562080234289169, 0.0006666891276836395, 0.0019895825535058975, 0.0033124759793281555, 0.0046353694051504135, 0.0059582628309726715, 0.0072811562567949295, 0.008604049682617188, 0.009926943108439445, 0.011249836534261703, 0.012572729960083961, 0.01389562338590622, 0.015218516811728477, 0.016541410237550735, 0.017864303663372993, 0.01918719708919525, 0.02051009051501751, 0.021832983940839767, 0.023155877366662025, 0.024478770792484283, 0.02580166421830654, 0.0271245576441288, 0.028447451069951057, 0.029770344495773315, 0.031093237921595573, 0.03241613134741783, 0.03373902291059494, 0.03506191819906235, 0.036384813487529755, 0.03770770505070686, 0.03903059661388397, 0.04035349190235138, 0.04167638719081879, 0.042999278753995895]}, "gradients/_encoder.encoder.5.weight": {"_type": "histogram", "values": [1.0, 0.0, 0.0, 0.0, 0.0, 0.0, 0.0, 0.0, 0.0, 0.0, 1.0, 0.0, 1.0, 0.0, 0.0, 0.0, 2.0, 2.0, 1.0, 0.0, 0.0, 3.0, 3.0, 3.0, 4.0, 3.0, 7.0, 3.0, 12.0, 9.0, 5.0, 6.0, 9.0, 15.0, 7.0, 10.0, 7.0, 14.0, 13.0, 12.0, 12.0, 13.0, 4.0, 6.0, 8.0, 9.0, 8.0, 11.0, 2.0, 5.0, 5.0, 3.0, 2.0, 1.0, 1.0, 1.0, 2.0, 1.0, 2.0, 2.0, 1.0, 1.0, 2.0, 1.0], "bins": [-0.015336469747126102, -0.01493214350193739, -0.014527818188071251, -0.014123491942882538, -0.013719165697693825, -0.013314839452505112, -0.012910514138638973, -0.01250618789345026, -0.012101861648261547, -0.011697535403072834, -0.011293210089206696, -0.010888883844017982, -0.01048455759882927, -0.010080231353640556, -0.009675906039774418, -0.009271579794585705, -0.008867254480719566, -0.008462928235530853, -0.008058602921664715, -0.007654276676476002, -0.007249950431287289, -0.006845624651759863, -0.006441298872232437, -0.006036972627043724, -0.005632646381855011, -0.005228320602327585, -0.004823994357138872, -0.004419668577611446, -0.004015342332422733, -0.0036110165528953075, -0.003206690540537238, -0.0028023645281791687, -0.0023980382829904556, -0.001993712270632386, -0.0015893862582743168, -0.0011850603623315692, -0.0007807343499734998, -0.0003764084540307522, 2.7917558327317238e-05, 0.00043224357068538666, 0.0008365695830434561, 0.0012408955954015255, 0.001645221607759595, 0.0020495476201176643, 0.00245387339964509, 0.0028581994120031595, 0.003262525424361229, 0.0036668514367192984, 0.004071177449077368, 0.0044755032286047935, 0.004879829473793507, 0.005284155253320932, 0.0056884814985096455, 0.006092807278037071, 0.006497133523225784, 0.00690145930275321, 0.007305785082280636, 0.007710110861808062, 0.008114436641335487, 0.0085187628865242, 0.008923089131712914, 0.009327415376901627, 0.009731740690767765, 0.010136066935956478, 0.010540393181145191]}, "gradients/_encoder.encoder.5.bias": {"_type": "histogram", "values": [1.0, 1.0, 0.0, 0.0, 0.0, 0.0, 0.0, 0.0, 1.0, 1.0, 1.0, 0.0, 3.0, 0.0, 3.0, 4.0, 1.0, 4.0, 5.0, 2.0, 2.0, 8.0, 6.0, 7.0, 7.0, 4.0, 6.0, 5.0, 2.0, 11.0, 8.0, 11.0, 7.0, 12.0, 3.0, 14.0, 17.0, 10.0, 9.0, 9.0, 9.0, 5.0, 6.0, 6.0, 9.0, 4.0, 4.0, 5.0, 2.0, 4.0, 3.0, 2.0, 0.0, 3.0, 1.0, 1.0, 0.0, 3.0, 1.0, 2.0, 0.0, 0.0, 0.0, 1.0], "bins": [-0.010574856773018837, -0.010250532068312168, -0.009926206432282925, -0.009601881727576256, -0.009277557022869587, -0.008953231386840343, -0.008628906682133675, -0.008304581046104431, -0.007980256341397762, -0.007655931171029806, -0.007331606466323137, -0.007007281295955181, -0.006682956125587225, -0.006358630955219269, -0.0060343062505126, -0.005709981080144644, -0.005385656375437975, -0.005061331205070019, -0.00473700650036335, -0.004412681329995394, -0.004088356159627438, -0.003764031222090125, -0.0034397062845528126, -0.0031153811141848564, -0.002791056176647544, -0.0024667312391102314, -0.0021424060687422752, -0.0018180811312049627, -0.0014937560772523284, -0.001169431023299694, -0.0008451060857623816, -0.0005207809153944254, -0.00019645597785711288, 0.000127869046991691, 0.00045219407184049487, 0.0007765190675854683, 0.0011008441215381026, 0.001425169175490737, 0.0017494941130280495, 0.0020738192833960056, 0.002398144220933318, 0.0027224691584706306, 0.003046794328838587, 0.0033711192663758993, 0.003695444203913212, 0.004019769374281168, 0.004344094544649124, 0.004668419249355793, 0.004992744419723749, 0.005317069590091705, 0.005641394294798374, 0.00596571946516633, 0.0062900446355342865, 0.006614369340240955, 0.0069386945106089115, 0.007263019680976868, 0.0075873443856835365, 0.007911669090390205, 0.008235994726419449, 0.008560319431126118, 0.008884644135832787, 0.00920896977186203, 0.009533294476568699, 0.009857619181275368, 0.010181944817304611]}, "gradients/_encoder.encoder.4.bias": {"_type": "histogram", "values": [1.0, 0.0, 0.0, 0.0, 0.0, 0.0, 0.0, 2.0, 1.0, 0.0, 2.0, 2.0, 1.0, 0.0, 1.0, 3.0, 3.0, 3.0, 1.0, 0.0, 4.0, 7.0, 2.0, 11.0, 10.0, 8.0, 9.0, 10.0, 12.0, 14.0, 9.0, 6.0, 16.0, 10.0, 19.0, 6.0, 11.0, 9.0, 4.0, 11.0, 15.0, 5.0, 6.0, 3.0, 2.0, 1.0, 1.0, 3.0, 1.0, 1.0, 3.0, 1.0, 1.0, 1.0, 0.0, 0.0, 1.0, 0.0, 0.0, 0.0, 0.0, 0.0, 2.0, 1.0], "bins": [-6.868503987789154e-09, -6.653863238170743e-09, -6.439222488552332e-09, -6.224581738933921e-09, -6.00994098931551e-09, -5.795300239697099e-09, -5.580659490078688e-09, -5.366018740460277e-09, -5.1513779908418655e-09, -4.9367372412234545e-09, -4.722096491605043e-09, -4.507455741986632e-09, -4.292814992368221e-09, -4.07817424274981e-09, -3.863533493131399e-09, -3.648892743512988e-09, -3.434251993894577e-09, -3.219611244276166e-09, -3.004970494657755e-09, -2.790329745039344e-09, -2.5756889954209328e-09, -2.3610482458025217e-09, -2.1464074961841106e-09, -1.9317667465656996e-09, -1.7171259969472885e-09, -1.5024852473288774e-09, -1.2878444977104664e-09, -1.0732037480920553e-09, -8.585629984736443e-10, -6.439222488552332e-10, -4.2928149923682213e-10, -2.1464074961841106e-10, 0.0, 2.1464074961841106e-10, 4.2928149923682213e-10, 6.439222488552332e-10, 8.585629984736443e-10, 1.0732037480920553e-09, 1.2878444977104664e-09, 1.5024852473288774e-09, 1.7171259969472885e-09, 1.9317667465656996e-09, 2.1464074961841106e-09, 2.3610482458025217e-09, 2.5756889954209328e-09, 2.790329745039344e-09, 3.004970494657755e-09, 3.219611244276166e-09, 3.434251993894577e-09, 3.648892743512988e-09, 3.863533493131399e-09, 4.07817424274981e-09, 4.292814992368221e-09, 4.507455741986632e-09, 4.722096491605043e-09, 4.9367372412234545e-09, 5.1513779908418655e-09, 5.366018740460277e-09, 5.580659490078688e-09, 5.795300239697099e-09, 6.00994098931551e-09, 6.224581738933921e-09, 6.439222488552332e-09, 6.653863238170743e-09, 6.868503987789154e-09]}, "gradients/_encoder.encoder.4.weight": {"_type": "histogram", "values": [1.0, 1.0, 0.0, 0.0, 2.0, 0.0, 0.0, 4.0, 3.0, 9.0, 10.0, 10.0, 22.0, 13.0, 36.0, 51.0, 67.0, 101.0, 141.0, 213.0, 249.0, 376.0, 532.0, 685.0, 926.0, 1215.0, 1627.0, 1974.0, 2545.0, 3154.0, 3627.0, 4424.0, 4712.0, 5015.0, 5073.0, 4863.0, 4418.0, 3989.0, 3376.0, 2805.0, 2326.0, 1811.0, 1323.0, 993.0, 813.0, 556.0, 418.0, 281.0, 206.0, 156.0, 113.0, 83.0, 55.0, 43.0, 25.0, 26.0, 8.0, 7.0, 13.0, 4.0, 3.0, 0.0, 0.0, 4.0], "bins": [-0.04656445235013962, -0.04520624130964279, -0.043848033994436264, -0.042489826679229736, -0.04113161563873291, -0.039773404598236084, -0.038415197283029556, -0.03705698996782303, -0.0356987789273262, -0.034340567886829376, -0.03298236057162285, -0.03162415325641632, -0.030265942215919495, -0.028907733038067818, -0.02754952386021614, -0.026191314682364464, -0.024833105504512787, -0.02347489632666111, -0.022116687148809433, -0.020758477970957756, -0.01940026879310608, -0.018042059615254402, -0.016683850437402725, -0.015325641259551048, -0.013967432081699371, -0.012609222903847694, -0.011251013725996017, -0.00989280454814434, -0.008534595370292664, -0.007176386192440987, -0.00581817701458931, -0.004459967836737633, -0.0031017549335956573, -0.0017435457557439804, -0.00038533657789230347, 0.0009728725999593735, 0.0023310817778110504, 0.0036892909556627274, 0.005047500133514404, 0.006405709311366081, 0.007763918489217758, 0.009122127667069435, 0.010480336844921112, 0.011838546022772789, 0.013196755200624466, 0.014554964378476143, 0.01591317355632782, 0.017271382734179497, 0.018629591912031174, 0.01998780108988285, 0.021346010267734528, 0.022704219445586205, 0.02406242862343788, 0.02542063780128956, 0.026778846979141235, 0.028137056156992912, 0.02949526533484459, 0.030853474512696266, 0.03221168369054794, 0.03356989473104477, 0.0349281020462513, 0.036286309361457825, 0.03764452040195465, 0.03900273144245148, 0.040360938757658005]}, "gradients/_encoder.encoder.1.weight": {"_type": "histogram", "values": [1.0, 0.0, 0.0, 0.0, 0.0, 0.0, 0.0, 0.0, 1.0, 1.0, 0.0, 1.0, 0.0, 1.0, 0.0, 1.0, 3.0, 1.0, 3.0, 2.0, 3.0, 3.0, 4.0, 3.0, 4.0, 5.0, 8.0, 5.0, 8.0, 7.0, 12.0, 6.0, 8.0, 15.0, 15.0, 8.0, 6.0, 11.0, 12.0, 10.0, 9.0, 6.0, 8.0, 6.0, 8.0, 7.0, 8.0, 6.0, 5.0, 6.0, 5.0, 3.0, 1.0, 2.0, 0.0, 4.0, 2.0, 0.0, 0.0, 0.0, 0.0, 1.0, 0.0, 1.0], "bins": [-0.01653265208005905, -0.016074128448963165, -0.015615604817867279, -0.015157081186771393, -0.014698557555675507, -0.01424003392457962, -0.013781510293483734, -0.013322986662387848, -0.012864463031291962, -0.012405939400196075, -0.01194741576910019, -0.011488892138004303, -0.011030368506908417, -0.01057184487581253, -0.010113321244716644, -0.009654797613620758, -0.009196273051202297, -0.008737749420106411, -0.008279225789010525, -0.007820702157914639, -0.007362178526818752, -0.006903654895722866, -0.0064451307989656925, -0.005986607167869806, -0.00552808353677392, -0.005069559905678034, -0.004611036274582148, -0.004152512177824974, -0.0036939887795597315, -0.0032354651484638453, -0.0027769412845373154, -0.002318417653441429, -0.001859894022345543, -0.0014013703912496567, -0.0009428466437384486, -0.00048432289622724056, -2.5799265131354332e-05, 0.0004327243659645319, 0.0008912482298910618, 0.001349771860986948, 0.0018082954920828342, 0.0022668191231787205, 0.0027253427542746067, 0.0031838666182011366, 0.003642390249297023, 0.004100914113223553, 0.004559437744319439, 0.005017961375415325, 0.005476485006511211, 0.005935008637607098, 0.006393532268702984, 0.00685205589979887, 0.007310579530894756, 0.0077691031619906425, 0.008227627724409103, 0.00868615135550499, 0.009144674986600876, 0.009603198617696762, 0.010061722248792648, 0.010520245879888535, 0.01097876951098442, 0.011437293142080307, 0.011895816773176193, 0.01235434040427208, 0.012812864035367966]}, "gradients/_encoder.encoder.1.bias": {"_type": "histogram", "values": [1.0, 1.0, 1.0, 1.0, 1.0, 3.0, 2.0, 2.0, 1.0, 3.0, 4.0, 2.0, 2.0, 3.0, 4.0, 2.0, 4.0, 4.0, 3.0, 2.0, 3.0, 9.0, 5.0, 7.0, 5.0, 6.0, 10.0, 9.0, 5.0, 11.0, 12.0, 10.0, 8.0, 7.0, 5.0, 7.0, 9.0, 6.0, 9.0, 6.0, 6.0, 6.0, 4.0, 1.0, 5.0, 4.0, 4.0, 4.0, 2.0, 7.0, 2.0, 2.0, 0.0, 3.0, 1.0, 4.0, 2.0, 1.0, 0.0, 0.0, 1.0, 0.0, 0.0, 2.0], "bins": [-0.013886289671063423, -0.013431095518171787, -0.012975900433957577, -0.01252070628106594, -0.01206551119685173, -0.011610317043960094, -0.011155122891068459, -0.010699927806854248, -0.010244732722640038, -0.009789538569748402, -0.009334343485534191, -0.008879149332642555, -0.008423954248428345, -0.007968760095536709, -0.007513565476983786, -0.007058370858430862, -0.0066031767055392265, -0.006147982086986303, -0.00569278746843338, -0.005237593315541744, -0.004782398231327534, -0.004327204078435898, -0.0038720094598829746, -0.0034168148413300514, -0.0029616202227771282, -0.002506425604224205, -0.002051230985671282, -0.0015960365999490023, -0.001140841981396079, -0.0006856473628431559, -0.0002304529771208763, 0.0002247416414320469, 0.0006799362599849701, 0.0011351308785378933, 0.0015903253806754947, 0.002045519882813096, 0.0025007145013660192, 0.0029559091199189425, 0.003411103505641222, 0.003866298124194145, 0.004321492742747068, 0.004776687361299992, 0.005231881979852915, 0.005687076598405838, 0.006142270751297474, 0.006597465835511684, 0.00705265998840332, 0.0075078546069562435, 0.007963049225509167, 0.008418243378400803, 0.008873438462615013, 0.009328632615506649, 0.00978382769972086, 0.010239021852612495, 0.010694216936826706, 0.011149411089718342, 0.011604605242609978, 0.012059799395501614, 0.012514994479715824, 0.01297018863260746, 0.01342538371682167, 0.013880577869713306, 0.014335772022604942, 0.014790967106819153, 0.015246162191033363]}, "gradients/_encoder.encoder.0.bias": {"_type": "histogram", "values": [1.0, 0.0, 0.0, 0.0, 0.0, 0.0, 0.0, 2.0, 1.0, 1.0, 1.0, 2.0, 1.0, 4.0, 3.0, 0.0, 3.0, 2.0, 4.0, 5.0, 6.0, 4.0, 4.0, 4.0, 8.0, 11.0, 6.0, 9.0, 15.0, 14.0, 8.0, 13.0, 5.0, 12.0, 12.0, 11.0, 5.0, 4.0, 6.0, 6.0, 3.0, 7.0, 10.0, 8.0, 4.0, 4.0, 6.0, 6.0, 3.0, 5.0, 0.0, 1.0, 0.0, 4.0, 0.0, 0.0, 0.0, 0.0, 0.0, 0.0, 0.0, 0.0, 0.0, 2.0], "bins": [-5.364418029785156e-07, -5.204929038882256e-07, -5.045440047979355e-07, -4.885951057076454e-07, -4.7264620661735535e-07, -4.566973075270653e-07, -4.407484084367752e-07, -4.2479950934648514e-07, -4.0885061025619507e-07, -3.92901711165905e-07, -3.7695281207561493e-07, -3.6100391298532486e-07, -3.450550138950348e-07, -3.291061148047447e-07, -3.1315721571445465e-07, -2.972083166241646e-07, -2.812594175338745e-07, -2.6531051844358444e-07, -2.4936161935329437e-07, -2.334127202630043e-07, -2.1746382117271423e-07, -2.0151492208242416e-07, -1.855660229921341e-07, -1.6961712390184402e-07, -1.5366822481155396e-07, -1.3771932572126389e-07, -1.2177042663097382e-07, -1.0582152754068375e-07, -8.987262845039368e-08, -7.392372936010361e-08, -5.797483026981354e-08, -4.202593117952347e-08, -2.60770320892334e-08, -1.0128132998943329e-08, 5.820766091346741e-09, 2.176966518163681e-08, 3.771856427192688e-08, 5.366746336221695e-08, 6.961636245250702e-08, 8.556526154279709e-08, 1.0151416063308716e-07, 1.1746305972337723e-07, 1.334119588136673e-07, 1.4936085790395737e-07, 1.6530975699424744e-07, 1.812586560845375e-07, 1.9720755517482758e-07, 2.1315645426511765e-07, 2.2910535335540771e-07, 2.450542524456978e-07, 2.6100315153598785e-07, 2.769520506262779e-07, 2.92900949716568e-07, 3.0884984880685806e-07, 3.2479874789714813e-07, 3.407476469874382e-07, 3.5669654607772827e-07, 3.7264544516801834e-07, 3.885943442583084e-07, 4.045432433485985e-07, 4.2049214243888855e-07, 4.364410415291786e-07, 4.523899406194687e-07, 4.6833883970975876e-07, 4.842877388000488e-07]}, "gradients/_encoder.encoder.0.weight": {"_type": "histogram", "values": [1.0, 0.0, 0.0, 2.0, 1.0, 0.0, 3.0, 7.0, 3.0, 3.0, 8.0, 17.0, 23.0, 25.0, 43.0, 54.0, 106.0, 127.0, 201.0, 274.0, 463.0, 660.0, 1136.0, 1710.0, 2774.0, 4314.0, 6974.0, 10968.0, 17706.0, 27068.0, 38081.0, 36902.0, 26523.0, 17232.0, 11289.0, 7180.0, 4500.0, 2936.0, 1850.0, 1115.0, 728.0, 465.0, 274.0, 188.0, 116.0, 66.0, 40.0, 29.0, 23.0, 11.0, 8.0, 8.0, 7.0, 3.0, 4.0, 3.0, 2.0, 0.0, 0.0, 0.0, 1.0, 0.0, 0.0, 1.0], "bins": [-0.09940477460622787, -0.09618949890136719, -0.0929742231965065, -0.08975894749164581, -0.08654367178678513, -0.08332839608192444, -0.08011312037706375, -0.07689784467220306, -0.07368256896734238, -0.07046729326248169, -0.067252017557621, -0.06403674185276031, -0.06082146614789963, -0.05760619044303894, -0.05439091473817825, -0.051175639033317566, -0.04796036332845688, -0.04474508762359619, -0.041529811918735504, -0.03831453621387482, -0.03509926050901413, -0.03188398480415344, -0.028668709099292755, -0.025453433394432068, -0.02223815768957138, -0.019022881984710693, -0.015807606279850006, -0.012592330574989319, -0.009377054870128632, -0.006161779165267944, -0.002946503460407257, 0.0002687722444534302, 0.0034840553998947144, 0.006699331104755402, 0.009914606809616089, 0.013129882514476776, 0.016345158219337463, 0.01956043392419815, 0.022775709629058838, 0.025990985333919525, 0.029206261038780212, 0.0324215367436409, 0.03563681244850159, 0.038852088153362274, 0.04206736385822296, 0.04528263956308365, 0.048497915267944336, 0.05171319097280502, 0.05492846667766571, 0.0581437423825264, 0.061359018087387085, 0.06457429379224777, 0.06778956949710846, 0.07100484520196915, 0.07422012090682983, 0.07743539661169052, 0.08065067231655121, 0.0838659480214119, 0.08708122372627258, 0.09029649943113327, 0.09351177513599396, 0.09672705084085464, 0.09994232654571533, 0.10315760225057602, 0.1063728779554367]}, "_wandb": {"runtime": 145}}