{"train_loss": 0.3400721848011017, "train_ssl_loss": 0.3227893114089966, "train_tmb_loss": 0.017282798886299133, "test_loss": 0.4889267086982727, "test_ssl_loss": 0.4693859815597534, "test_tmb_loss": 0.019540738314390182, "_timestamp": 1697570442.2859645, "_runtime": 95.54055142402649, "_step": 48, "gradients/taskmapper.out.bias": {"_type": "histogram", "values": [0.0, 0.0, 0.0, 0.0, 0.0, 0.0, 0.0, 0.0, 0.0, 0.0, 0.0, 0.0, 0.0, 0.0, 0.0, 0.0, 0.0, 0.0, 0.0, 0.0, 0.0, 0.0, 0.0, 0.0, 0.0, 0.0, 0.0, 0.0, 0.0, 0.0, 0.0, 0.0, 1.0, 0.0, 0.0, 0.0, 0.0, 0.0, 0.0, 0.0, 0.0, 0.0, 0.0, 0.0, 0.0, 0.0, 0.0, 0.0, 0.0, 0.0, 0.0, 0.0, 0.0, 0.0, 0.0, 0.0, 0.0, 0.0, 0.0, 0.0, 0.0, 0.0, 0.0, 0.0], "bins": [0.0010883565992116928, 0.0010883565992116928, 0.0010883565992116928, 0.0010883565992116928, 0.0010883565992116928, 0.0010883565992116928, 0.0010883565992116928, 0.0010883565992116928, 0.0010883565992116928, 0.0010883565992116928, 0.0010883565992116928, 0.0010883565992116928, 0.0010883565992116928, 0.0010883565992116928, 0.0010883565992116928, 0.0010883565992116928, 0.0010883565992116928, 0.0010883565992116928, 0.0010883565992116928, 0.0010883565992116928, 0.0010883565992116928, 0.0010883565992116928, 0.0010883565992116928, 0.0010883565992116928, 0.0010883565992116928, 0.0010883565992116928, 0.0010883565992116928, 0.0010883565992116928, 0.0010883565992116928, 0.0010883565992116928, 0.0010883565992116928, 0.0010883565992116928, 0.0010883565992116928, 0.0010883565992116928, 0.0010883565992116928, 0.0010883565992116928, 0.0010883565992116928, 0.0010883565992116928, 0.0010883565992116928, 0.0010883565992116928, 0.0010883565992116928, 0.0010883565992116928, 0.0010883565992116928, 0.0010883565992116928, 0.0010883565992116928, 0.0010883565992116928, 0.0010883565992116928, 0.0010883565992116928, 0.0010883565992116928, 0.0010883565992116928, 0.0010883565992116928, 0.0010883565992116928, 0.0010883565992116928, 0.0010883565992116928, 0.0010883565992116928, 0.0010883565992116928, 0.0010883565992116928, 0.0010883565992116928, 0.0010883565992116928, 0.0010883565992116928, 0.0010883565992116928, 0.0010883565992116928, 0.0010883565992116928, 0.0010883565992116928, 0.0010883565992116928]}, "gradients/taskmapper.out.weight": {"_type": "histogram", "values": [1.0, 0.0, 1.0, 0.0, 0.0, 0.0, 0.0, 0.0, 0.0, 0.0, 0.0, 0.0, 0.0, 0.0, 0.0, 0.0, 1.0, 1.0, 0.0, 0.0, 0.0, 0.0, 0.0, 0.0, 0.0, 0.0, 1.0, 0.0, 0.0, 0.0, 2.0, 0.0, 1.0, 0.0, 0.0, 0.0, 0.0, 0.0, 2.0, 0.0, 1.0, 0.0, 0.0, 1.0, 1.0, 0.0, 0.0, 0.0, 1.0, 0.0, 0.0, 0.0, 0.0, 0.0, 0.0, 0.0, 0.0, 0.0, 0.0, 0.0, 0.0, 0.0, 1.0, 1.0], "bins": [-0.0017204678151756525, -0.0016643947456032038, -0.0016083217924460769, -0.0015522487228736281, -0.0014961756533011794, -0.0014401027001440525, -0.0013840296305716038, -0.001327956560999155, -0.0012718834914267063, -0.0012158104218542576, -0.0011597374686971307, -0.001103664399124682, -0.0010475913295522332, -0.0009915183763951063, -0.0009354453068226576, -0.0008793722372502089, -0.000823299284093082, -0.0007672262727282941, -0.0007111532031558454, -0.0006550801917910576, -0.0005990071222186089, -0.000542934110853821, -0.0004868610994890332, -0.00043078805902041495, -0.0003747150185517967, -0.0003186419780831784, -0.00026256893761456013, -0.0002064959262497723, -0.00015042288578115404, -9.434984531253576e-05, -3.8276833947747946e-05, 1.7796206520870328e-05, 7.38692469894886e-05, 0.00012994228745810688, 0.00018601531337480992, 0.00024208833929151297, 0.00029816137976013124, 0.0003542344202287495, 0.00041030743159353733, 0.0004663804720621556, 0.0005224535125307739, 0.0005785265238955617, 0.0006345995934680104, 0.0006906726048327982, 0.0007467456161975861, 0.0008028186857700348, 0.0008588916971348226, 0.0009149647084996104, 0.0009710377780720592, 0.0010271108476445079, 0.0010831838008016348, 0.0011392568703740835, 0.0011953299399465322, 0.001251403009518981, 0.0013074759626761079, 0.0013635490322485566, 0.0014196219854056835, 0.0014756950549781322, 0.0015317680081352592, 0.0015878410777077079, 0.0016439141472801566, 0.0016999871004372835, 0.0017560601700097322, 0.001812133239582181, 0.0018682063091546297]}, "gradients/taskmapper.lins.1.bias": {"_type": "histogram", "values": [1.0, 0.0, 0.0, 0.0, 0.0, 0.0, 1.0, 0.0, 0.0, 0.0, 0.0, 0.0, 0.0, 0.0, 0.0, 0.0, 0.0, 2.0, 0.0, 0.0, 0.0, 0.0, 0.0, 0.0, 0.0, 0.0, 0.0, 0.0, 0.0, 0.0, 0.0, 0.0, 0.0, 0.0, 0.0, 0.0, 0.0, 0.0, 0.0, 0.0, 0.0, 1.0, 3.0, 0.0, 2.0, 1.0, 1.0, 1.0, 0.0, 2.0, 0.0, 0.0, 0.0, 0.0, 0.0, 0.0, 0.0, 0.0, 0.0, 0.0, 0.0, 0.0, 0.0, 1.0], "bins": [-0.0016164669068530202, -0.0015783992130309343, -0.0015403314027935266, -0.001502263592556119, -0.001464195898734033, -0.0014261282049119473, -0.0013880603946745396, -0.0013499925844371319, -0.001311924890615046, -0.0012738571967929602, -0.0012357893865555525, -0.0011977215763181448, -0.001159653882496059, -0.001121586188673973, -0.0010835183784365654, -0.0010454505681991577, -0.0010073828743770719, -0.0009693151223473251, -0.0009312473703175783, -0.0008931796182878315, -0.0008551118662580848, -0.000817044114228338, -0.0007789763621985912, -0.0007409086101688445, -0.0007028408581390977, -0.0006647731061093509, -0.0006267053540796041, -0.0005886376020498574, -0.0005505698500201106, -0.0005125020979903638, -0.00047443434596061707, -0.0004363665939308703, -0.0003982988419011235, -0.00036023108987137675, -0.00032216333784163, -0.0002840955858118832, -0.00024602783378213644, -0.00020796008175238967, -0.0001698923297226429, -0.00013182457769289613, -9.375682566314936e-05, -5.5689073633402586e-05, -1.7621321603655815e-05, 2.0446430426090956e-05, 5.8514182455837727e-05, 9.65819344855845e-05, 0.00013464968651533127, 0.00017271743854507804, 0.0002107851905748248, 0.0002488529426045716, 0.00028692069463431835, 0.0003249884466640651, 0.0003630561986938119, 0.00040112395072355866, 0.00043919170275330544, 0.0004772594547830522, 0.000515327206812799, 0.0005533949588425457, 0.0005914627108722925, 0.0006295304629020393, 0.0006675982149317861, 0.0007056659669615328, 0.0007437337189912796, 0.0007818014710210264, 0.0008198692230507731]}, "gradients/taskmapper.lins.1.weight": {"_type": "histogram", "values": [1.0, 0.0, 0.0, 0.0, 0.0, 0.0, 1.0, 1.0, 1.0, 0.0, 0.0, 0.0, 1.0, 0.0, 1.0, 0.0, 0.0, 1.0, 0.0, 1.0, 0.0, 1.0, 4.0, 0.0, 0.0, 1.0, 2.0, 3.0, 5.0, 6.0, 9.0, 5.0, 16.0, 9.0, 22.0, 29.0, 156.0, 43.0, 23.0, 8.0, 8.0, 5.0, 1.0, 9.0, 3.0, 0.0, 0.0, 0.0, 1.0, 1.0, 0.0, 1.0, 2.0, 0.0, 0.0, 0.0, 0.0, 0.0, 0.0, 0.0, 0.0, 1.0, 1.0, 1.0], "bins": [-0.0016919244080781937, -0.0016459295293316245, -0.0015999347670003772, -0.001553939888253808, -0.0015079451259225607, -0.0014619502471759915, -0.0014159553684294224, -0.001369960606098175, -0.001323965727351606, -0.0012779708486050367, -0.0012319760862737894, -0.0011859812075272202, -0.001139986328780651, -0.0010939915664494038, -0.0010479966877028346, -0.0010020018089562654, -0.0009560070466250181, -0.0009100122260861099, -0.0008640174055472016, -0.0008180225268006325, -0.0007720277062617242, -0.000726032885722816, -0.0006800380069762468, -0.0006340431864373386, -0.0005880483658984303, -0.0005420535453595221, -0.0004960587248206139, -0.0004500638460740447, -0.00040406902553513646, -0.0003580742049962282, -0.0003120793553534895, -0.0002660845057107508, -0.00022008968517184258, -0.0001740948500810191, -0.00012810001499019563, -8.210517989937216e-05, -3.611034480854869e-05, 9.884490282274783e-06, 5.5879325373098254e-05, 0.00010187417501583695, 0.0001478689955547452, 0.00019386383064556867, 0.00023985866573639214, 0.00028585351537913084, 0.0003318483359180391, 0.0003778431564569473, 0.000423838006099686, 0.0004698328557424247, 0.000515827676281333, 0.0005618224968202412, 0.0006078173173591495, 0.0006538121961057186, 0.0006998070166446269, 0.0007458018371835351, 0.0007917967159301043, 0.0008377915364690125, 0.0008837863570079207, 0.000929781177546829, 0.0009757759980857372, 0.0010217708768323064, 0.0010677657555788755, 0.0011137605179101229, 0.001159755396656692, 0.0012057502754032612, 0.0012517450377345085]}, "gradients/taskmapper.lins.0.bias": {"_type": "histogram", "values": [1.0, 0.0, 0.0, 0.0, 0.0, 0.0, 0.0, 1.0, 0.0, 0.0, 0.0, 0.0, 0.0, 0.0, 0.0, 0.0, 0.0, 1.0, 0.0, 2.0, 0.0, 0.0, 0.0, 1.0, 0.0, 0.0, 0.0, 0.0, 1.0, 1.0, 0.0, 0.0, 0.0, 2.0, 3.0, 2.0, 1.0, 1.0, 0.0, 0.0, 0.0, 0.0, 3.0, 0.0, 0.0, 1.0, 0.0, 0.0, 0.0, 0.0, 0.0, 1.0, 0.0, 0.0, 0.0, 1.0, 0.0, 0.0, 0.0, 0.0, 0.0, 0.0, 0.0, 1.0], "bins": [-0.0019408193184062839, -0.0018875619862228632, -0.0018343045376241207, -0.0017810472054407, -0.0017277897568419576, -0.001674532424658537, -0.0016212749760597944, -0.0015680176438763738, -0.0015147603116929531, -0.0014615029795095325, -0.00140824553091079, -0.0013549881987273693, -0.0013017307501286268, -0.0012484734179452062, -0.0011952160857617855, -0.001141958637163043, -0.0010887011885643005, -0.0010354438563808799, -0.0009821864077821374, -0.0009289290755987167, -0.0008756716269999743, -0.0008224142948165536, -0.000769156904425472, -0.0007158995140343904, -0.0006626421236433089, -0.0006093847332522273, -0.0005561273428611457, -0.0005028699524700642, -0.00044961259118281305, -0.0003963552007917315, -0.00034309783950448036, -0.0002898404491133988, -0.0002365829423069954, -0.00018332555191591382, -0.00013006817607674748, -7.681080023758113e-05, -2.3553409846499562e-05, 2.970398054458201e-05, 8.296134183183312e-05, 0.0001362187322229147, 0.00018947612261399627, 0.00024273351300507784, 0.0002959909033961594, 0.0003492482646834105, 0.0004025056550744921, 0.00045576304546557367, 0.0005090204067528248, 0.0005622777971439064, 0.0006155351875349879, 0.0006687925779260695, 0.0007220499683171511, 0.0007753073005005717, 0.0008285647490993142, 0.0008818220812827349, 0.0009350794716738164, 0.000988336862064898, 0.0010415941942483187, 0.0010948515264317393, 0.0011481089750304818, 0.0012013663072139025, 0.001254623755812645, 0.0013078810879960656, 0.0013611384201794863, 0.0014143958687782288, 0.0014676533173769712]}, "gradients/taskmapper.lins.0.weight": {"_type": "histogram", "values": [1.0, 0.0, 0.0, 0.0, 0.0, 0.0, 1.0, 1.0, 0.0, 2.0, 3.0, 1.0, 0.0, 1.0, 1.0, 1.0, 0.0, 1.0, 0.0, 1.0, 0.0, 1.0, 2.0, 2.0, 5.0, 8.0, 6.0, 7.0, 4.0, 6.0, 6.0, 12.0, 17.0, 16.0, 24.0, 34.0, 68.0, 114.0, 152.0, 83.0, 38.0, 26.0, 18.0, 26.0, 15.0, 7.0, 9.0, 11.0, 11.0, 2.0, 4.0, 7.0, 4.0, 0.0, 2.0, 0.0, 1.0, 1.0, 1.0, 1.0, 0.0, 1.0, 1.0, 1.0], "bins": [-0.0022524879314005375, -0.002193334512412548, -0.002134180860593915, -0.0020750274416059256, -0.002015874022617936, -0.001956720370799303, -0.0018975669518113136, -0.0018384134164080024, -0.0017792598810046911, -0.0017201063456013799, -0.0016609529266133904, -0.0016017993912100792, -0.001542645855806768, -0.0014834923204034567, -0.0014243389014154673, -0.001365185366012156, -0.0013060318306088448, -0.0012468782952055335, -0.001187724876217544, -0.0011285713408142328, -0.0010694178054109216, -0.0010102642700076103, -0.0009511108510196209, -0.0008919573156163096, -0.0008328038966283202, -0.0007736504194326699, -0.0007144968840293586, -0.0006553434068337083, -0.000596189871430397, -0.0005370363942347467, -0.0004778828879352659, -0.0004187293816357851, -0.00035957584623247385, -0.00030042233993299305, -0.00024126883363351226, -0.0001821153418859467, -0.0001229618355864659, -6.380834383890033e-05, -4.654837539419532e-06, 5.4498668760061264e-05, 0.00011365217505954206, 0.00017280568135902286, 0.00023195918765850365, 0.00029111269395798445, 0.0003502661711536348, 0.0004094196774531156, 0.0004685731837525964, 0.0005277267191559076, 0.000586880196351558, 0.0006460336735472083, 0.0007051872089505196, 0.0007643406861461699, 0.0008234942215494812, 0.0008826476987451315, 0.0009418012341484427, 0.001000954769551754, 0.0010601081885397434, 0.0011192617239430547, 0.001178415142931044, 0.0012375686783343554, 0.0012967222137376666, 0.0013558757491409779, 0.0014150291681289673, 0.0014741827035322785, 0.0015333362389355898]}, "gradients/_projector.0.bias": {"_type": "histogram", "values": [1.0, 2.0, 1.0, 0.0, 0.0, 1.0, 0.0, 0.0, 0.0, 0.0, 0.0, 0.0, 1.0, 0.0, 0.0, 1.0, 1.0, 1.0, 1.0, 1.0, 0.0, 0.0, 0.0, 0.0, 1.0, 1.0, 0.0, 2.0, 0.0, 1.0, 0.0, 1.0, 0.0, 2.0, 1.0, 0.0, 1.0, 3.0, 0.0, 0.0, 1.0, 2.0, 1.0, 0.0, 0.0, 0.0, 0.0, 1.0, 1.0, 0.0, 0.0, 0.0, 0.0, 0.0, 0.0, 0.0, 0.0, 0.0, 1.0, 0.0, 0.0, 0.0, 0.0, 1.0], "bins": [-0.09458912909030914, -0.09157115966081619, -0.08855318278074265, -0.0855352133512497, -0.08251723647117615, -0.0794992670416832, -0.07648129761219025, -0.0734633207321167, -0.07044534385204315, -0.0674273744225502, -0.06440939754247665, -0.061391428112983704, -0.058373451232910156, -0.055355481803417206, -0.05233750864863396, -0.04931953549385071, -0.04630156606435776, -0.04328359290957451, -0.04026561975479126, -0.03724765032529831, -0.03422967344522476, -0.031211702153086662, -0.028193730860948563, -0.025175757706165314, -0.022157784551382065, -0.019139811396598816, -0.016121838241815567, -0.013103866949677467, -0.010085893794894218, -0.0070679206401109695, -0.00404994934797287, -0.001031976193189621, 0.001985996961593628, 0.0050039696507155895, 0.008021942339837551, 0.011039914563298225, 0.014057887718081474, 0.017075860872864723, 0.020093832165002823, 0.023111805319786072, 0.02612977847456932, 0.02914775162935257, 0.03216572478413582, 0.03518369793891907, 0.03820166736841202, 0.041219644248485565, 0.044237613677978516, 0.047255586832761765, 0.05027355998754501, 0.05329153314232826, 0.05630950629711151, 0.05932747572660446, 0.06234545260667801, 0.06536342203617096, 0.0683813989162445, 0.07139936834573746, 0.07441733777523041, 0.07743530720472336, 0.0804532840847969, 0.08347125351428986, 0.0864892303943634, 0.08950719982385635, 0.0925251692533493, 0.09554314613342285, 0.0985611230134964]}, "gradients/_projector.0.weight": {"_type": "histogram", "values": [1.0, 0.0, 0.0, 0.0, 1.0, 0.0, 0.0, 3.0, 2.0, 1.0, 1.0, 2.0, 2.0, 10.0, 17.0, 18.0, 15.0, 25.0, 29.0, 41.0, 36.0, 58.0, 45.0, 65.0, 82.0, 90.0, 95.0, 103.0, 114.0, 107.0, 129.0, 109.0, 118.0, 88.0, 105.0, 82.0, 94.0, 60.0, 58.0, 46.0, 41.0, 35.0, 20.0, 28.0, 20.0, 6.0, 16.0, 9.0, 4.0, 2.0, 3.0, 4.0, 2.0, 1.0, 4.0, 0.0, 0.0, 0.0, 0.0, 0.0, 0.0, 0.0, 0.0, 1.0], "bins": [-0.06946159899234772, -0.06718626618385315, -0.06491092592477798, -0.06263559311628342, -0.06036026030778885, -0.05808492377400398, -0.055809587240219116, -0.05353425443172455, -0.05125892162322998, -0.048983585089445114, -0.046708252280950546, -0.04443291574716568, -0.04215758293867111, -0.039882246404886246, -0.03760690987110138, -0.03533157706260681, -0.033056240528821945, -0.030780905857682228, -0.02850557118654251, -0.026230234652757645, -0.023954901844263077, -0.02167956531047821, -0.019404230639338493, -0.017128895968198776, -0.01485356129705906, -0.012578226625919342, -0.010302891954779625, -0.008027556352317333, -0.005752221681177616, -0.003476887010037899, -0.0012015514075756073, 0.0010737832635641098, 0.003349117934703827, 0.005624452605843544, 0.007899787276983261, 0.010175122879445553, 0.01245045755058527, 0.014725792221724987, 0.01700112782418728, 0.019276462495326996, 0.021551797166466713, 0.02382713183760643, 0.026102466508746147, 0.028377801179885864, 0.03065313771367073, 0.0329284705221653, 0.035203807055950165, 0.03747913986444473, 0.0397544763982296, 0.042029812932014465, 0.04430514574050903, 0.0465804822742939, 0.04885581508278847, 0.051131151616573334, 0.0534064844250679, 0.05568182095885277, 0.057957157492637634, 0.0602324940264225, 0.06250783056020737, 0.06478316336870193, 0.0670584961771965, 0.06933382898569107, 0.07160916924476624, 0.0738845020532608, 0.07615983486175537]}, "gradients/_encoder.encoder.4.bias": {"_type": "histogram", "values": [1.0, 0.0, 0.0, 0.0, 0.0, 1.0, 1.0, 0.0, 0.0, 0.0, 0.0, 0.0, 0.0, 0.0, 2.0, 0.0, 0.0, 1.0, 0.0, 1.0, 1.0, 1.0, 1.0, 1.0, 0.0, 3.0, 1.0, 4.0, 1.0, 2.0, 2.0, 4.0, 1.0, 1.0, 3.0, 2.0, 2.0, 2.0, 1.0, 2.0, 1.0, 1.0, 1.0, 0.0, 3.0, 0.0, 1.0, 2.0, 2.0, 0.0, 2.0, 1.0, 1.0, 0.0, 0.0, 1.0, 2.0, 0.0, 0.0, 2.0, 0.0, 0.0, 0.0, 2.0], "bins": [-0.05891415476799011, -0.057069603353738785, -0.05522504821419716, -0.05338049679994583, -0.051535941660404205, -0.04969139024615288, -0.04784683883190155, -0.046002283692359924, -0.0441577285528183, -0.04231317713856697, -0.040468621999025345, -0.03862407058477402, -0.03677951544523239, -0.034934964030981064, -0.033090412616729736, -0.03124585747718811, -0.029401306062936783, -0.027556752786040306, -0.02571219950914383, -0.023867648094892502, -0.022023092955350876, -0.02017854154109955, -0.01833398826420307, -0.016489434987306595, -0.014644881710410118, -0.012800328433513641, -0.010955775156617165, -0.009111222811043262, -0.007266669534146786, -0.005422116257250309, -0.003577563911676407, -0.0017330106347799301, 0.00011154636740684509, 0.001956099411472678, 0.0038006524555385113, 0.005645205266773701, 0.0074897585436701775, 0.009334311820566654, 0.011178864166140556, 0.013023417443037033, 0.01486797071993351, 0.016712523996829987, 0.018557077273726463, 0.02040163055062294, 0.022246181964874268, 0.024090737104415894, 0.02593528851866722, 0.027779841795563698, 0.029624395072460175, 0.0314689464867115, 0.03331350162625313, 0.035158053040504456, 0.03700260818004608, 0.03884715959429741, 0.04069171100854874, 0.04253626614809036, 0.04438082128763199, 0.046225372701883316, 0.04806992784142494, 0.04991447925567627, 0.051759034395217896, 0.05360358580946922, 0.05544813722372055, 0.057292692363262177, 0.059137243777513504]}, "gradients/_encoder.encoder.4.weight": {"_type": "histogram", "values": [1.0, 1.0, 2.0, 3.0, 3.0, 1.0, 7.0, 5.0, 11.0, 9.0, 14.0, 21.0, 19.0, 40.0, 42.0, 39.0, 88.0, 84.0, 99.0, 123.0, 132.0, 194.0, 192.0, 248.0, 273.0, 289.0, 330.0, 367.0, 369.0, 410.0, 394.0, 407.0, 435.0, 418.0, 390.0, 367.0, 332.0, 305.0, 275.0, 271.0, 200.0, 166.0, 155.0, 119.0, 109.0, 89.0, 69.0, 60.0, 49.0, 33.0, 28.0, 28.0, 15.0, 9.0, 13.0, 9.0, 8.0, 8.0, 5.0, 3.0, 3.0, 1.0, 2.0, 1.0], "bins": [-0.058914683759212494, -0.05701874569058418, -0.05512280762195587, -0.05322686582803726, -0.05133092775940895, -0.04943498969078064, -0.04753905162215233, -0.04564311355352402, -0.043747175484895706, -0.041851237416267395, -0.039955299347639084, -0.03805936127901077, -0.03616341948509216, -0.03426748141646385, -0.03237154334783554, -0.03047560527920723, -0.02857966534793377, -0.026683727279305458, -0.024787787348031998, -0.022891849279403687, -0.020995911210775375, -0.019099973142147064, -0.017204033210873604, -0.015308095142245293, -0.013412156142294407, -0.011516217142343521, -0.00962027907371521, -0.007724340073764324, -0.005828401539474726, -0.003932463005185127, -0.0020365240052342415, -0.00014058593660593033, 0.0017553530633449554, 0.003651291597634554, 0.005547230131924152, 0.007443169131875038, 0.00933910720050335, 0.011235046200454235, 0.01313098520040512, 0.015026923269033432, 0.016922861337661743, 0.018818799406290054, 0.020714739337563515, 0.022610677406191826, 0.024506615474820137, 0.026402555406093597, 0.02829849347472191, 0.03019443154335022, 0.03209037333726883, 0.03398631140589714, 0.03588224947452545, 0.03777819126844406, 0.03967412933707237, 0.041570067405700684, 0.043466005474328995, 0.045361943542957306, 0.04725788161158562, 0.04915381968021393, 0.05104975774884224, 0.05294569581747055, 0.05484163761138916, 0.05673757568001747, 0.05863351374864578, 0.060529451817274094, 0.062425389885902405]}, "gradients/_encoder.encoder.1.weight": {"_type": "histogram", "values": [1.0, 0.0, 0.0, 0.0, 0.0, 0.0, 0.0, 0.0, 0.0, 0.0, 0.0, 0.0, 0.0, 1.0, 1.0, 0.0, 1.0, 0.0, 0.0, 2.0, 1.0, 0.0, 2.0, 1.0, 3.0, 2.0, 2.0, 5.0, 3.0, 3.0, 4.0, 11.0, 2.0, 7.0, 3.0, 5.0, 2.0, 7.0, 5.0, 6.0, 4.0, 3.0, 6.0, 6.0, 5.0, 3.0, 6.0, 4.0, 3.0, 0.0, 3.0, 0.0, 2.0, 0.0, 1.0, 0.0, 0.0, 1.0, 0.0, 0.0, 0.0, 0.0, 0.0, 1.0], "bins": [-0.029959946870803833, -0.029141157865524292, -0.02832236886024475, -0.02750357985496521, -0.02668479084968567, -0.025866001844406128, -0.025047212839126587, -0.024228423833847046, -0.023409634828567505, -0.022590845823287964, -0.021772056818008423, -0.020953267812728882, -0.02013447880744934, -0.0193156898021698, -0.01849690079689026, -0.017678111791610718, -0.016859322786331177, -0.016040533781051636, -0.015221744775772095, -0.014402955770492554, -0.013584166765213013, -0.012765377759933472, -0.01194658875465393, -0.01112779974937439, -0.010309010744094849, -0.009490221738815308, -0.008671432733535767, -0.007852643728256226, -0.007033854722976685, -0.0062150657176971436, -0.0053962767124176025, -0.0045774877071380615, -0.0037586968392133713, -0.0029399078339338303, -0.0021211188286542892, -0.0013023298233747482, -0.0004835408180952072, 0.0003352481871843338, 0.0011540371924638748, 0.001972826197743416, 0.002791615203022957, 0.003610404208302498, 0.004429193213582039, 0.00524798221886158, 0.006066771224141121, 0.006885560229420662, 0.007704349234700203, 0.008523138239979744, 0.009341927245259285, 0.010160716250538826, 0.010979505255818367, 0.011798294261097908, 0.012617083266377449, 0.01343587227165699, 0.014254661276936531, 0.015073450282216072, 0.015892239287495613, 0.016711028292775154, 0.017529817298054695, 0.018348606303334236, 0.019167395308613777, 0.019986184313893318, 0.02080497331917286, 0.0216237623244524, 0.02244255132973194]}, "gradients/_encoder.encoder.1.bias": {"_type": "histogram", "values": [1.0, 0.0, 0.0, 0.0, 0.0, 0.0, 0.0, 0.0, 0.0, 0.0, 0.0, 0.0, 1.0, 1.0, 1.0, 1.0, 2.0, 1.0, 1.0, 1.0, 2.0, 2.0, 3.0, 1.0, 5.0, 1.0, 5.0, 2.0, 4.0, 6.0, 5.0, 4.0, 5.0, 3.0, 8.0, 4.0, 5.0, 3.0, 1.0, 7.0, 5.0, 4.0, 7.0, 3.0, 1.0, 3.0, 2.0, 1.0, 5.0, 2.0, 1.0, 2.0, 1.0, 2.0, 2.0, 0.0, 0.0, 0.0, 0.0, 0.0, 0.0, 0.0, 0.0, 1.0], "bins": [-0.03639054670929909, -0.035318925976753235, -0.03424730524420738, -0.03317568451166153, -0.03210406377911568, -0.031032443046569824, -0.02996082417666912, -0.028889203444123268, -0.027817582711577415, -0.026745961979031563, -0.02567434124648571, -0.024602720513939857, -0.023531101644039154, -0.0224594809114933, -0.02138786017894745, -0.020316239446401596, -0.019244618713855743, -0.01817299798130989, -0.017101377248764038, -0.016029756516218185, -0.014958136714994907, -0.013886515982449055, -0.012814896181225777, -0.011743275448679924, -0.010671654716134071, -0.009600033983588219, -0.008528413251042366, -0.007456793449819088, -0.006385172717273235, -0.005313551984727383, -0.004241931717842817, -0.003170311450958252, -0.002098686993122101, -0.0010270664934068918, 4.4554006308317184e-05, 0.0011161745060235262, 0.002187795005738735, 0.003259415738284588, 0.004331036005169153, 0.005402656272053719, 0.006474277004599571, 0.007545897737145424, 0.008617518469691277, 0.009689138270914555, 0.010760759003460407, 0.01183237973600626, 0.012903999537229538, 0.01397562026977539, 0.015047241002321243, 0.016118861734867096, 0.01719048246741295, 0.0182621031999588, 0.019333723932504654, 0.020405344665050507, 0.02147696353495121, 0.022548584267497063, 0.023620205000042915, 0.024691825732588768, 0.02576344646513462, 0.026835067197680473, 0.027906686067581177, 0.02897830680012703, 0.030049927532672882, 0.031121548265218735, 0.03219316899776459]}, "gradients/_encoder.encoder.0.bias": {"_type": "histogram", "values": [1.0, 0.0, 2.0, 0.0, 0.0, 0.0, 0.0, 0.0, 1.0, 2.0, 0.0, 0.0, 1.0, 5.0, 0.0, 2.0, 1.0, 6.0, 2.0, 3.0, 3.0, 8.0, 5.0, 7.0, 10.0, 11.0, 12.0, 7.0, 11.0, 7.0, 9.0, 1.0, 5.0, 2.0, 2.0, 0.0, 1.0, 0.0, 0.0, 0.0, 0.0, 0.0, 0.0, 0.0, 0.0, 0.0, 0.0, 0.0, 0.0, 0.0, 0.0, 0.0, 0.0, 0.0, 0.0, 0.0, 0.0, 0.0, 0.0, 0.0, 0.0, 0.0, 0.0, 1.0], "bins": [-1.0579824447631836e-06, -1.0139774531126022e-06, -9.699724614620209e-07, -9.259674698114395e-07, -8.819624781608582e-07, -8.379574865102768e-07, -7.939524948596954e-07, -7.499475032091141e-07, -7.059425115585327e-07, -6.619375199079514e-07, -6.1793252825737e-07, -5.739275366067886e-07, -5.299225449562073e-07, -4.859175533056259e-07, -4.4191256165504456e-07, -3.979075700044632e-07, -3.5390257835388184e-07, -3.098975867033005e-07, -2.658925950527191e-07, -2.2188760340213776e-07, -1.778826117515564e-07, -1.3387762010097504e-07, -8.987262845039368e-08, -4.586763679981232e-08, -1.862645149230957e-09, 4.21423465013504e-08, 8.614733815193176e-08, 1.3015232980251312e-07, 1.7415732145309448e-07, 2.1816231310367584e-07, 2.621673047542572e-07, 3.0617229640483856e-07, 3.501772880554199e-07, 3.941822797060013e-07, 4.3818727135658264e-07, 4.82192263007164e-07, 5.261972546577454e-07, 5.702022463083267e-07, 6.142072379589081e-07, 6.582122296094894e-07, 7.022172212600708e-07, 7.462222129106522e-07, 7.902272045612335e-07, 8.342321962118149e-07, 8.782371878623962e-07, 9.222421795129776e-07, 9.66247171163559e-07, 1.0102521628141403e-06, 1.0542571544647217e-06, 1.098262146115303e-06, 1.1422671377658844e-06, 1.1862721294164658e-06, 1.2302771210670471e-06, 1.2742821127176285e-06, 1.3182871043682098e-06, 1.3622920960187912e-06, 1.4062970876693726e-06, 1.450302079319954e-06, 1.4943070709705353e-06, 1.5383120626211166e-06, 1.582317054271698e-06, 1.6263220459222794e-06, 1.6703270375728607e-06, 1.714332029223442e-06, 1.7583370208740234e-06]}, "gradients/_encoder.encoder.0.weight": {"_type": "histogram", "values": [1.0, 0.0, 0.0, 0.0, 0.0, 0.0, 0.0, 0.0, 0.0, 2.0, 0.0, 1.0, 1.0, 1.0, 0.0, 7.0, 1.0, 2.0, 5.0, 7.0, 8.0, 13.0, 14.0, 25.0, 46.0, 71.0, 77.0, 128.0, 183.0, 276.0, 397.0, 622.0, 936.0, 1487.0, 2289.0, 3712.0, 5794.0, 9415.0, 15110.0, 20979.0, 18460.0, 12030.0, 7549.0, 4746.0, 2851.0, 1720.0, 1082.0, 744.0, 448.0, 304.0, 178.0, 129.0, 89.0, 70.0, 36.0, 28.0, 17.0, 15.0, 12.0, 3.0, 0.0, 5.0, 0.0, 2.0], "bins": [-0.19241414964199066, -0.18757198750972748, -0.1827298253774643, -0.1778876632452011, -0.17304550111293793, -0.16820333898067474, -0.16336117684841156, -0.15851902961730957, -0.1536768674850464, -0.1488347053527832, -0.14399254322052002, -0.13915038108825684, -0.13430821895599365, -0.12946605682373047, -0.12462390214204788, -0.1197817400097847, -0.11493957042694092, -0.11009740829467773, -0.10525524616241455, -0.10041308403015137, -0.09557092189788818, -0.090728759765625, -0.08588660508394241, -0.08104444295167923, -0.07620228081941605, -0.07136011868715286, -0.06651795655488968, -0.061675798147916794, -0.05683363601565361, -0.05199147388339043, -0.04714931547641754, -0.04230715334415436, -0.03746500611305237, -0.032622843980789185, -0.02778068371117115, -0.022938523441553116, -0.018096361309289932, -0.013254199177026749, -0.008412038907408714, -0.00356987863779068, 0.0012722834944725037, 0.006114444695413113, 0.010956605896353722, 0.015798766165971756, 0.02064092829823494, 0.025483090430498123, 0.030325250700116158, 0.03516741096973419, 0.040009573101997375, 0.04485173523426056, 0.04969389736652374, 0.05453605577349663, 0.05937821790575981, 0.0642203837633133, 0.06906253844499588, 0.07390470057725906, 0.07874686270952225, 0.08358902484178543, 0.08843118697404861, 0.0932733491063118, 0.09811550378799438, 0.10295766592025757, 0.10779982805252075, 0.11264199018478394, 0.11748415231704712]}, "_wandb": {"runtime": 97}}