{"train_loss": 0.14064855873584747, "train_ssl_loss": 0.12518417835235596, "train_tsk_loss": 0.015464392490684986, "test_loss": 0.15516605973243713, "test_ssl_loss": 0.13883720338344574, "test_tsk_loss": 0.016328876838088036, "_timestamp": 1697564464.9707448, "_runtime": 123.07935380935669, "_step": 49, "gradients/graph_5taskmapper.out.bias": {"_type": "histogram", "values": [0.0, 0.0, 0.0, 0.0, 0.0, 0.0, 0.0, 0.0, 0.0, 0.0, 0.0, 0.0, 0.0, 0.0, 0.0, 0.0, 0.0, 0.0, 0.0, 0.0, 0.0, 0.0, 0.0, 0.0, 0.0, 0.0, 0.0, 0.0, 0.0, 0.0, 0.0, 0.0, 1.0, 0.0, 0.0, 0.0, 0.0, 0.0, 0.0, 0.0, 0.0, 0.0, 0.0, 0.0, 0.0, 0.0, 0.0, 0.0, 0.0, 0.0, 0.0, 0.0, 0.0, 0.0, 0.0, 0.0, 0.0, 0.0, 0.0, 0.0, 0.0, 0.0, 0.0, 0.0], "bins": [0.020447121933102608, 0.020447121933102608, 0.020447121933102608, 0.020447121933102608, 0.020447121933102608, 0.020447121933102608, 0.020447121933102608, 0.020447121933102608, 0.020447121933102608, 0.020447121933102608, 0.020447121933102608, 0.020447121933102608, 0.020447121933102608, 0.020447121933102608, 0.020447121933102608, 0.020447121933102608, 0.020447121933102608, 0.020447121933102608, 0.020447121933102608, 0.020447121933102608, 0.020447121933102608, 0.020447121933102608, 0.020447121933102608, 0.020447121933102608, 0.020447121933102608, 0.020447121933102608, 0.020447121933102608, 0.020447121933102608, 0.020447121933102608, 0.020447121933102608, 0.020447121933102608, 0.020447121933102608, 0.020447121933102608, 0.020447121933102608, 0.020447121933102608, 0.020447121933102608, 0.020447121933102608, 0.020447121933102608, 0.020447121933102608, 0.020447121933102608, 0.020447121933102608, 0.020447121933102608, 0.020447121933102608, 0.020447121933102608, 0.020447121933102608, 0.020447121933102608, 0.020447121933102608, 0.020447121933102608, 0.020447121933102608, 0.020447121933102608, 0.020447121933102608, 0.020447121933102608, 0.020447121933102608, 0.020447121933102608, 0.020447121933102608, 0.020447121933102608, 0.020447121933102608, 0.020447121933102608, 0.020447121933102608, 0.020447121933102608, 0.020447121933102608, 0.020447121933102608, 0.020447121933102608, 0.020447121933102608, 0.020447121933102608]}, "gradients/graph_5taskmapper.out.weight": {"_type": "histogram", "values": [1.0, 0.0, 0.0, 3.0, 1.0, 1.0, 0.0, 1.0, 0.0, 0.0, 0.0, 1.0, 0.0, 0.0, 0.0, 0.0, 0.0, 0.0, 0.0, 0.0, 0.0, 0.0, 0.0, 1.0, 0.0, 0.0, 0.0, 2.0, 0.0, 0.0, 0.0, 0.0, 0.0, 0.0, 0.0, 1.0, 0.0, 0.0, 0.0, 0.0, 0.0, 0.0, 1.0, 0.0, 0.0, 0.0, 0.0, 1.0, 1.0, 0.0, 0.0, 0.0, 0.0, 0.0, 0.0, 0.0, 0.0, 0.0, 0.0, 0.0, 0.0, 0.0, 0.0, 1.0], "bins": [-0.0005668826051987708, -0.00042446149745956063, -0.0002820403897203505, -0.00013961928198114038, 2.8018257580697536e-06, 0.00014522293349727988, 0.00028764404123649, 0.00043006514897570014, 0.0005724862567149103, 0.0007149073644541204, 0.0008573284721933305, 0.0009997496381402016, 0.0011421707458794117, 0.0012845918536186218, 0.001427012961357832, 0.001569434069097042, 0.0017118551768362522, 0.0018542762845754623, 0.0019966973923146725, 0.0021391185000538826, 0.0022815396077930927, 0.002423960715532303, 0.002566381823271513, 0.002708802931010723, 0.0028512240387499332, 0.0029936451464891434, 0.0031360662542283535, 0.0032784873619675636, 0.0034209084697067738, 0.003563329577445984, 0.003705750685185194, 0.003848171792924404, 0.003990592435002327, 0.004133013542741537, 0.004275434650480747, 0.004417855758219957, 0.0045602768659591675, 0.004702697973698378, 0.004845119081437588, 0.004987540189176798, 0.005129961296916008, 0.005272382404655218, 0.005414803512394428, 0.005557224620133638, 0.0056996457278728485, 0.005842066835612059, 0.005984487943351269, 0.006126909051090479, 0.006269330158829689, 0.006411751266568899, 0.006554172374308109, 0.006696593482047319, 0.0068390145897865295, 0.00698143569752574, 0.00712385680526495, 0.00726627791300416, 0.00740869902074337, 0.00755112012848258, 0.00769354123622179, 0.007835961878299713, 0.00797838345170021, 0.008120805025100708, 0.00826322566717863, 0.008405646309256554, 0.008548067882657051]}, "gradients/graph_5taskmapper.lins.1.bias": {"_type": "histogram", "values": [1.0, 0.0, 0.0, 0.0, 0.0, 0.0, 0.0, 0.0, 1.0, 0.0, 0.0, 0.0, 0.0, 0.0, 0.0, 0.0, 0.0, 0.0, 0.0, 0.0, 0.0, 0.0, 0.0, 2.0, 0.0, 0.0, 0.0, 0.0, 3.0, 0.0, 0.0, 1.0, 0.0, 0.0, 0.0, 0.0, 0.0, 0.0, 0.0, 1.0, 1.0, 0.0, 0.0, 1.0, 0.0, 0.0, 0.0, 0.0, 0.0, 0.0, 0.0, 0.0, 2.0, 0.0, 0.0, 0.0, 0.0, 0.0, 0.0, 1.0, 1.0, 0.0, 0.0, 1.0], "bins": [-0.004362365230917931, -0.004208137281239033, -0.004053908865898848, -0.003899680683389306, -0.0037454525008797646, -0.0035912245512008667, -0.003436996368691325, -0.0032827681861817837, -0.003128540003672242, -0.0029743118211627007, -0.002820083638653159, -0.0026658554561436176, -0.0025116275064647198, -0.0023573990911245346, -0.0022031711414456367, -0.0020489429589360952, -0.0018947147764265537, -0.0017404865939170122, -0.0015862584114074707, -0.001432030345313251, -0.0012778021628037095, -0.001123573980294168, -0.0009693458559922874, -0.0008151177316904068, -0.0006608895491808653, -0.0005066613666713238, -0.0003524332423694432, -0.00019820508896373212, -4.397693555802107e-05, 0.00011025124695152044, 0.00026447937125340104, 0.00041870749555528164, 0.0005729352124035358, 0.0007271633949130774, 0.000881391519214958, 0.0010356196435168386, 0.00118984782602638, 0.0013440760085359216, 0.0014983040746301413, 0.0016525322571396828, 0.0018067604396492243, 0.001960988622158766, 0.0021152168046683073, 0.002269444987177849, 0.0024236729368567467, 0.002577901352196932, 0.0027321293018758297, 0.002886357484385371, 0.0030405856668949127, 0.0031948138494044542, 0.0033490420319139957, 0.0035032702144235373, 0.0036574983969330788, 0.0038117263466119766, 0.003965954761952162, 0.00412018271163106, 0.004274411126971245, 0.004428639076650143, 0.004582867491990328, 0.004737095441669226, 0.004891323857009411, 0.005045551806688309, 0.005199780222028494, 0.005354008171707392, 0.00550823612138629]}, "gradients/graph_5taskmapper.lins.1.weight": {"_type": "histogram", "values": [1.0, 0.0, 0.0, 0.0, 1.0, 0.0, 1.0, 0.0, 1.0, 0.0, 1.0, 0.0, 1.0, 1.0, 0.0, 2.0, 2.0, 2.0, 0.0, 1.0, 5.0, 1.0, 4.0, 7.0, 10.0, 14.0, 13.0, 29.0, 123.0, 24.0, 17.0, 15.0, 13.0, 11.0, 11.0, 9.0, 3.0, 7.0, 7.0, 5.0, 6.0, 7.0, 5.0, 3.0, 2.0, 1.0, 1.0, 1.0, 4.0, 0.0, 0.0, 1.0, 4.0, 0.0, 2.0, 1.0, 0.0, 1.0, 0.0, 1.0, 1.0, 0.0, 0.0, 1.0], "bins": [-0.0021854222286492586, -0.0021081583108752966, -0.0020308943931013346, -0.001953630242496729, -0.0018763663247227669, -0.0017991024069488049, -0.0017218384891748428, -0.0016445745714008808, -0.001567310537211597, -0.001490046619437635, -0.001412782585248351, -0.001335518667474389, -0.001258254749700427, -0.0011809907155111432, -0.0011037267977371812, -0.0010264627635478973, -0.0009491988457739353, -0.0008719348697923124, -0.0007946708938106894, -0.0007174069760367274, -0.0006401430000551045, -0.0005628790240734816, -0.0004856150771956891, -0.0004083511303178966, -0.00033108715433627367, -0.00025382317835465074, -0.00017655923147685826, -9.929527004715055e-05, -2.2031308617442846e-05, 5.523266736418009e-05, 0.00013249661424197257, 0.00020976056111976504, 0.0002870243042707443, 0.00036428828025236726, 0.00044155222713015974, 0.0005188161740079522, 0.0005960801499895751, 0.0006733441259711981, 0.0007506080437451601, 0.000827872019726783, 0.000905135995708406, 0.000982399913482368, 0.0010596639476716518, 0.0011369278654456139, 0.0012141917832195759, 0.0012914558174088597, 0.0013687197351828218, 0.0014459837693721056, 0.0015232476871460676, 0.0016005116049200296, 0.0016777756391093135, 0.0017550395568832755, 0.0018323035910725594, 0.0019095675088465214, 0.0019868314266204834, 0.0020640953443944454, 0.0021413592621684074, 0.0022186231799423695, 0.0022958870977163315, 0.002373151248320937, 0.002450415166094899, 0.002527679083868861, 0.0026049430016428232, 0.0026822069194167852, 0.002759471070021391]}, "gradients/graph_5taskmapper.lins.0.bias": {"_type": "histogram", "values": [2.0, 0.0, 0.0, 0.0, 0.0, 1.0, 0.0, 0.0, 0.0, 0.0, 2.0, 1.0, 0.0, 0.0, 1.0, 1.0, 0.0, 0.0, 0.0, 1.0, 0.0, 0.0, 1.0, 0.0, 1.0, 0.0, 0.0, 1.0, 0.0, 1.0, 1.0, 0.0, 1.0, 0.0, 0.0, 1.0, 1.0, 0.0, 1.0, 1.0, 0.0, 0.0, 0.0, 1.0, 0.0, 0.0, 1.0, 0.0, 0.0, 0.0, 0.0, 1.0, 0.0, 0.0, 0.0, 0.0, 0.0, 0.0, 0.0, 1.0, 0.0, 0.0, 0.0, 1.0], "bins": [-0.0003130436525680125, -0.000254479848081246, -0.00019591604359447956, -0.0001373522391077131, -7.878843462094665e-05, -2.0224630134180188e-05, 3.833917435258627e-05, 9.690297883935273e-05, 0.00015546678332611918, 0.00021403058781288564, 0.0002725943922996521, 0.00033115819678641856, 0.000389722001273185, 0.00044828580575995147, 0.0005068496102467179, 0.0005654133856296539, 0.0006239772192202508, 0.0006825410528108478, 0.0007411048281937838, 0.0007996686035767198, 0.0008582324371673167, 0.0009167962707579136, 0.0009753600461408496, 0.0010339238215237856, 0.0010924877133220434, 0.0011510514887049794, 0.0012096152640879154, 0.0012681791558861732, 0.0013267429312691092, 0.0013853067066520452, 0.001443870598450303, 0.001502434373833239, 0.001560998149216175, 0.001619561924599111, 0.001678125699982047, 0.001736689591780305, 0.001795253367163241, 0.001853817142546177, 0.0019123810343444347, 0.001970944693312049, 0.0020295085851103067, 0.0020880724769085646, 0.0021466361358761787, 0.0022052000276744366, 0.0022637639194726944, 0.0023223275784403086, 0.0023808914702385664, 0.0024394551292061806, 0.0024980190210044384, 0.0025565829128026962, 0.0026151465717703104, 0.0026737104635685682, 0.0027322741225361824, 0.0027908380143344402, 0.002849401906132698, 0.0029079655651003122, 0.00296652945689857, 0.003025093348696828, 0.003083657007664442, 0.0031422208994627, 0.0032007847912609577, 0.003259348450228572, 0.0033179123420268297, 0.003376476000994444, 0.0034350398927927017]}, "gradients/graph_5taskmapper.lins.0.weight": {"_type": "histogram", "values": [3.0, 0.0, 0.0, 0.0, 1.0, 1.0, 0.0, 1.0, 2.0, 1.0, 2.0, 1.0, 0.0, 1.0, 2.0, 4.0, 0.0, 6.0, 4.0, 7.0, 4.0, 5.0, 9.0, 6.0, 12.0, 13.0, 18.0, 15.0, 22.0, 23.0, 30.0, 39.0, 43.0, 72.0, 67.0, 60.0, 39.0, 30.0, 28.0, 14.0, 16.0, 22.0, 20.0, 7.0, 10.0, 15.0, 9.0, 10.0, 11.0, 10.0, 6.0, 10.0, 6.0, 6.0, 7.0, 2.0, 2.0, 2.0, 4.0, 3.0, 3.0, 0.0, 1.0, 1.0], "bins": [-0.0015384603757411242, -0.0014940507244318724, -0.0014496411895379424, -0.0014052315382286906, -0.0013608218869194388, -0.0013164123520255089, -0.001272002700716257, -0.0012275930494070053, -0.0011831835145130754, -0.0011387738632038236, -0.0010943643283098936, -0.0010499546770006418, -0.00100554502569139, -0.0009611354907974601, -0.0009167258394882083, -0.0008723162463866174, -0.0008279065950773656, -0.0007834970019757748, -0.000739087350666523, -0.0006946777575649321, -0.0006502681644633412, -0.0006058585131540895, -0.0005614489200524986, -0.0005170393269509077, -0.0004726297047454864, -0.00042822008254006505, -0.0003838104894384742, -0.00033940086723305285, -0.0002949912450276315, -0.00025058165192604065, -0.00020617202972061932, -0.00016176243661902845, -0.00011735281441360712, -7.294320676010102e-05, -2.8533591830637306e-05, 1.587602309882641e-05, 6.028563075233251e-05, 0.00010469523840583861, 0.00014910486061125994, 0.0001935144537128508, 0.00023792407591827214, 0.00028233369812369347, 0.00032674329122528434, 0.00037115291343070567, 0.000415562535636127, 0.00045997212873771787, 0.0005043817218393087, 0.0005487913731485605, 0.0005932009662501514, 0.0006376105593517423, 0.000682020210660994, 0.0007264298037625849, 0.0007708393968641758, 0.0008152490481734276, 0.0008596586412750185, 0.0009040682343766093, 0.0009484778856858611, 0.000992887536995113, 0.0010372970718890429, 0.0010817067231982946, 0.0011261163745075464, 0.0011705259094014764, 0.0012149355607107282, 0.0012593450956046581, 0.00130375474691391]}, "gradients/graph_5_projector.0.bias": {"_type": "histogram", "values": [1.0, 0.0, 0.0, 0.0, 1.0, 0.0, 0.0, 0.0, 1.0, 0.0, 2.0, 1.0, 0.0, 1.0, 0.0, 0.0, 0.0, 1.0, 0.0, 0.0, 0.0, 0.0, 3.0, 1.0, 0.0, 1.0, 0.0, 1.0, 0.0, 1.0, 2.0, 0.0, 0.0, 1.0, 0.0, 1.0, 1.0, 0.0, 2.0, 0.0, 2.0, 0.0, 1.0, 1.0, 0.0, 1.0, 1.0, 0.0, 0.0, 0.0, 0.0, 1.0, 2.0, 0.0, 0.0, 0.0, 0.0, 0.0, 0.0, 0.0, 0.0, 0.0, 0.0, 1.0], "bins": [-0.03319057822227478, -0.032101698219776154, -0.031012818217277527, -0.0299239382147789, -0.028835056349635124, -0.027746176347136497, -0.02665729634463787, -0.025568416342139244, -0.024479534476995468, -0.02339065447449684, -0.022301774471998215, -0.021212894469499588, -0.020124012604355812, -0.019035132601857185, -0.01794625259935856, -0.016857372596859932, -0.015768492594361305, -0.014679612591862679, -0.013590731658041477, -0.01250185165554285, -0.01141297072172165, -0.010324090719223022, -0.009235210716724396, -0.008146330714225769, -0.007057449780404568, -0.005968569312244654, -0.00487968884408474, -0.003790808841586113, -0.002701928373426199, -0.001613047905266285, -0.0005241679027676582, 0.0005647125653922558, 0.0016535930335521698, 0.002742473501712084, 0.003831353737041354, 0.0049202339723706245, 0.0060091144405305386, 0.007097994908690453, 0.00818687491118908, 0.009275754913687706, 0.010364635847508907, 0.011453515850007534, 0.012542396783828735, 0.013631276786327362, 0.014720156788825989, 0.015809036791324615, 0.016897916793823242, 0.017986798658967018, 0.019075678661465645, 0.02016455866396427, 0.021253438666462898, 0.022342320531606674, 0.0234312005341053, 0.024520080536603928, 0.025608960539102554, 0.02669784054160118, 0.027786720544099808, 0.028875600546598434, 0.02996448054909706, 0.031053360551595688, 0.032142240554094315, 0.03323112428188324, 0.034320004284381866, 0.03540888428688049, 0.03649776428937912]}, "gradients/graph_5_projector.0.weight": {"_type": "histogram", "values": [1.0, 1.0, 0.0, 0.0, 1.0, 4.0, 8.0, 3.0, 8.0, 11.0, 21.0, 33.0, 32.0, 38.0, 51.0, 71.0, 71.0, 123.0, 135.0, 145.0, 179.0, 228.0, 258.0, 292.0, 329.0, 383.0, 422.0, 482.0, 434.0, 471.0, 457.0, 460.0, 441.0, 388.0, 322.0, 313.0, 296.0, 257.0, 197.0, 169.0, 135.0, 118.0, 96.0, 72.0, 57.0, 47.0, 28.0, 30.0, 17.0, 15.0, 13.0, 6.0, 4.0, 6.0, 8.0, 2.0, 0.0, 0.0, 2.0, 0.0, 0.0, 0.0, 0.0, 1.0], "bins": [-0.03585073724389076, -0.03464137017726898, -0.0334320068359375, -0.03222264349460602, -0.031013276427984238, -0.029803911224007607, -0.028594546020030975, -0.027385180816054344, -0.026175815612077713, -0.024966450408101082, -0.02375708520412445, -0.02254772000014782, -0.02133835479617119, -0.020128989592194557, -0.018919624388217926, -0.017710259184241295, -0.016500893980264664, -0.015291528776288033, -0.014082163572311401, -0.01287279836833477, -0.011663433164358139, -0.010454067960381508, -0.009244702756404877, -0.008035337552428246, -0.006825972348451614, -0.005616607144474983, -0.004407241940498352, -0.003197876736521721, -0.0019885115325450897, -0.0007791463285684586, 0.0004302188754081726, 0.0016395840793848038, 0.002848949283361435, 0.004058314487338066, 0.005267679691314697, 0.006477044895291328, 0.00768641009926796, 0.00889577530324459, 0.010105140507221222, 0.011314505711197853, 0.012523870915174484, 0.013733236119151115, 0.014942601323127747, 0.016151966527104378, 0.01736133173108101, 0.01857069693505764, 0.01978006213903427, 0.020989427343010902, 0.022198792546987534, 0.023408157750964165, 0.024617522954940796, 0.025826888158917427, 0.027036253362894058, 0.02824561856687069, 0.02945498377084732, 0.03066434897482395, 0.03187371417880058, 0.03308308124542236, 0.034292444586753845, 0.03550180792808533, 0.03671117499470711, 0.03792054206132889, 0.03912990540266037, 0.04033926874399185, 0.04154863581061363]}, "gradients/graph_5_encoder.encoder.8.bias": {"_type": "histogram", "values": [1.0, 0.0, 0.0, 0.0, 0.0, 0.0, 0.0, 0.0, 1.0, 0.0, 0.0, 1.0, 0.0, 0.0, 1.0, 2.0, 3.0, 4.0, 1.0, 3.0, 2.0, 7.0, 1.0, 3.0, 8.0, 4.0, 4.0, 9.0, 3.0, 8.0, 4.0, 8.0, 7.0, 10.0, 12.0, 8.0, 16.0, 7.0, 10.0, 8.0, 11.0, 6.0, 11.0, 9.0, 6.0, 2.0, 3.0, 12.0, 3.0, 4.0, 4.0, 2.0, 4.0, 2.0, 3.0, 4.0, 1.0, 3.0, 2.0, 1.0, 4.0, 0.0, 2.0, 1.0], "bins": [-0.013845620676875114, -0.013475635088980198, -0.013105650432407856, -0.01273566484451294, -0.012365680187940598, -0.011995694600045681, -0.011625709943473339, -0.011255724355578423, -0.01088573969900608, -0.010515754111111164, -0.010145769454538822, -0.009775783866643906, -0.009405799210071564, -0.009035813622176647, -0.008665828965604305, -0.008295843377709389, -0.007925858721137047, -0.007555873598903418, -0.007185888476669788, -0.006815903354436159, -0.00644591823220253, -0.006075933109968901, -0.0057059479877352715, -0.005335962399840355, -0.004965976811945438, -0.004595991689711809, -0.00422600656747818, -0.0038560214452445507, -0.0034860363230109215, -0.0031160512007772923, -0.0027460658457130194, -0.00237608072347939, -0.0020060958340764046, -0.0016361107118427753, -0.0012661255896091461, -0.0008961403509601951, -0.0005261552287265658, -0.0001561701064929366, 0.00021381513215601444, 0.0005838002543896437, 0.0009537853766232729, 0.0013237704988569021, 0.0016937556210905313, 0.0020637409761548042, 0.0024337260983884335, 0.0028037112206220627, 0.003173696342855692, 0.003543681465089321, 0.00391366658732295, 0.00428365170955658, 0.004653636831790209, 0.005023621954023838, 0.005393607076257467, 0.0057635921984910965, 0.006133577786386013, 0.006503562442958355, 0.0068735480308532715, 0.007243533153086901, 0.00761351827532053, 0.007983503863215446, 0.008353488519787788, 0.008723474107682705, 0.009093458764255047, 0.009463444352149963, 0.009833429008722305]}, "gradients/graph_5_encoder.encoder.8.weight": {"_type": "histogram", "values": [1.0, 0.0, 1.0, 1.0, 0.0, 2.0, 1.0, 7.0, 7.0, 10.0, 14.0, 21.0, 10.0, 23.0, 34.0, 55.0, 72.0, 111.0, 155.0, 201.0, 306.0, 450.0, 571.0, 790.0, 1045.0, 1332.0, 1723.0, 2332.0, 2964.0, 3881.0, 5055.0, 6689.0, 7615.0, 6935.0, 5651.0, 4326.0, 3183.0, 2536.0, 1846.0, 1405.0, 1089.0, 840.0, 604.0, 463.0, 341.0, 240.0, 165.0, 118.0, 87.0, 64.0, 47.0, 32.0, 23.0, 18.0, 13.0, 7.0, 10.0, 4.0, 2.0, 1.0, 3.0, 2.0, 1.0, 1.0], "bins": [-0.022924156859517097, -0.022224029526114464, -0.02152390033006668, -0.020823772996664047, -0.020123645663261414, -0.01942351832985878, -0.018723390996456146, -0.018023261800408363, -0.01732313446700573, -0.016623007133603096, -0.015922877937555313, -0.01522275060415268, -0.014522623270750046, -0.013822495937347412, -0.013122367672622204, -0.012422239407896996, -0.011722112074494362, -0.011021984741091728, -0.01032185647636652, -0.009621728211641312, -0.008921600878238678, -0.008221473544836044, -0.007521345280110836, -0.006821217481046915, -0.006121089681982994, -0.005420961882919073, -0.004720834083855152, -0.004020706284791231, -0.00332057848572731, -0.002620450686663389, -0.0019203228875994682, -0.0012201950885355473, -0.000520065426826477, 0.00018006237223744392, 0.0008801901713013649, 0.0015803179703652859, 0.002280445769429207, 0.002980573568493128, 0.003680701367557049, 0.00438082916662097, 0.005080956965684891, 0.005781084764748812, 0.006481212563812733, 0.007181340362876654, 0.007881468161940575, 0.008581595495343208, 0.009281723760068417, 0.009981852024793625, 0.010681979358196259, 0.011382106691598892, 0.0120822349563241, 0.012782363221049309, 0.013482490554451942, 0.014182617887854576, 0.014882746152579784, 0.015582874417304993, 0.016283001750707626, 0.01698312908411026, 0.017683256417512894, 0.018383385613560677, 0.01908351294696331, 0.019783640280365944, 0.020483769476413727, 0.02118389680981636, 0.021884024143218994]}, "gradients/graph_5_encoder.encoder.5.weight": {"_type": "histogram", "values": [1.0, 0.0, 0.0, 0.0, 0.0, 0.0, 0.0, 0.0, 1.0, 0.0, 0.0, 2.0, 1.0, 1.0, 0.0, 2.0, 3.0, 2.0, 2.0, 8.0, 7.0, 6.0, 15.0, 16.0, 26.0, 18.0, 25.0, 19.0, 20.0, 12.0, 15.0, 5.0, 8.0, 9.0, 6.0, 6.0, 7.0, 1.0, 3.0, 1.0, 4.0, 1.0, 0.0, 0.0, 1.0, 0.0, 0.0, 0.0, 1.0, 0.0, 0.0, 0.0, 0.0, 0.0, 0.0, 0.0, 0.0, 0.0, 0.0, 0.0, 0.0, 0.0, 0.0, 1.0], "bins": [-0.009283903054893017, -0.008942161686718464, -0.008600419387221336, -0.008258678019046783, -0.00791693665087223, -0.007575195282697678, -0.007233453448861837, -0.006891711615025997, -0.006549970246851444, -0.006208228878676891, -0.005866487044841051, -0.005524745211005211, -0.005183003842830658, -0.004841262474656105, -0.004499520640820265, -0.004157778806984425, -0.0038160374388098717, -0.003474295837804675, -0.0031325542367994785, -0.002790812635794282, -0.0024490710347890854, -0.002107329433783889, -0.0017655878327786922, -0.0014238462317734957, -0.001082104630768299, -0.0007403630297631025, -0.00039862142875790596, -5.687982775270939e-05, 0.0002848617732524872, 0.0006266033742576838, 0.0009683449752628803, 0.001310086576268077, 0.0016518272459506989, 0.0019935688469558954, 0.002335310447961092, 0.0026770520489662886, 0.003018793649971485, 0.0033605352509766817, 0.0037022768519818783, 0.0040440186858177185, 0.004385760053992271, 0.004727501422166824, 0.0050692432560026646, 0.005410985089838505, 0.005752726458013058, 0.006094467826187611, 0.006436209660023451, 0.006777951493859291, 0.007119692862033844, 0.007461434230208397, 0.007803176064044237, 0.008144917897880077, 0.00848665926605463, 0.008828400634229183, 0.00917014293372631, 0.009511884301900864, 0.009853625670075417, 0.01019536703824997, 0.010537108406424522, 0.01087885070592165, 0.011220592074096203, 0.011562333442270756, 0.011904075741767883, 0.012245817109942436, 0.01258755847811699]}, "gradients/graph_5_encoder.encoder.5.bias": {"_type": "histogram", "values": [1.0, 0.0, 0.0, 1.0, 0.0, 0.0, 0.0, 0.0, 2.0, 0.0, 3.0, 1.0, 1.0, 1.0, 1.0, 2.0, 0.0, 1.0, 2.0, 4.0, 2.0, 6.0, 4.0, 4.0, 4.0, 7.0, 6.0, 7.0, 9.0, 6.0, 10.0, 13.0, 12.0, 5.0, 8.0, 12.0, 4.0, 5.0, 8.0, 9.0, 13.0, 6.0, 7.0, 5.0, 8.0, 7.0, 7.0, 5.0, 3.0, 3.0, 3.0, 4.0, 6.0, 2.0, 4.0, 2.0, 2.0, 2.0, 2.0, 1.0, 2.0, 0.0, 0.0, 1.0], "bins": [-0.008395664393901825, -0.00816358346492052, -0.007931501604616642, -0.007699420675635338, -0.007467339280992746, -0.007235257886350155, -0.007003176491707563, -0.006771095097064972, -0.0065390137024223804, -0.006306932307779789, -0.0060748509131371975, -0.005842769518494606, -0.005610688589513302, -0.00537860719487071, -0.005146525800228119, -0.004914444405585527, -0.004682363010942936, -0.0044502816163003445, -0.004218200221657753, -0.003986119292676449, -0.0037540376652032137, -0.003521956503391266, -0.0032898751087486744, -0.003057793714106083, -0.0028257127851247787, -0.0025936313904821873, -0.0023615502286702394, -0.002129468834027648, -0.0018973874393850565, -0.0016653061611577868, -0.0014332248829305172, -0.0012011434882879257, -0.0009690620936453342, -0.0007369807572104037, -0.0005048994207754731, -0.00027281814254820347, -4.0736806113272905e-05, 0.00019134453032165766, 0.0004234258085489273, 0.0006555072031915188, 0.0008875884814187884, 0.001119669759646058, 0.0013517511542886496, 0.0015838324325159192, 0.0018159137107431889, 0.0020479951053857803, 0.002280076500028372, 0.0025121578946709633, 0.002744239056482911, 0.0029763204511255026, 0.0032084016129374504, 0.003440483007580042, 0.0036725644022226334, 0.003904645796865225, 0.004136727191507816, 0.0043688081204891205, 0.004600889515131712, 0.0048329709097743034, 0.005065052304416895, 0.005297133699059486, 0.0055292146280407906, 0.005761296022683382, 0.0059933774173259735, 0.006225458811968565, 0.0064575402066111565]}, "gradients/graph_5_encoder.encoder.4.bias": {"_type": "histogram", "values": [2.0, 0.0, 0.0, 1.0, 1.0, 0.0, 0.0, 1.0, 1.0, 4.0, 6.0, 1.0, 4.0, 3.0, 1.0, 4.0, 7.0, 3.0, 13.0, 18.0, 18.0, 9.0, 14.0, 8.0, 20.0, 15.0, 16.0, 7.0, 2.0, 13.0, 5.0, 4.0, 4.0, 3.0, 4.0, 7.0, 9.0, 3.0, 3.0, 2.0, 0.0, 4.0, 2.0, 3.0, 3.0, 0.0, 2.0, 0.0, 0.0, 0.0, 2.0, 1.0, 1.0, 0.0, 1.0, 0.0, 0.0, 0.0, 0.0, 0.0, 0.0, 0.0, 0.0, 1.0], "bins": [-2.6775524020195007e-09, -2.5693225325085223e-09, -2.461092662997544e-09, -2.3528627934865654e-09, -2.244632923975587e-09, -2.1364030544646084e-09, -2.02817318495363e-09, -1.9199433154426515e-09, -1.811713445931673e-09, -1.7034835764206946e-09, -1.5952537069097161e-09, -1.4870238373987377e-09, -1.3787939678877592e-09, -1.2705640983767807e-09, -1.1623342288658023e-09, -1.0541043593548238e-09, -9.458744898438454e-10, -8.376446203328669e-10, -7.294147508218884e-10, -6.2118488131091e-10, -5.129550117999315e-10, -4.0472514228895307e-10, -2.964952727779746e-10, -1.8826540326699615e-10, -8.003553375601768e-11, 2.8194335754960775e-11, 1.3642420526593924e-10, 2.446540747769177e-10, 3.5288394428789616e-10, 4.611138137988746e-10, 5.693436833098531e-10, 6.775735528208315e-10, 7.8580342233181e-10, 8.940332918427885e-10, 1.002263161353767e-09, 1.1104930308647454e-09, 1.2187229003757238e-09, 1.3269527698867023e-09, 1.4351826393976808e-09, 1.5434125089086592e-09, 1.6516423784196377e-09, 1.7598722479306161e-09, 1.8681021174415946e-09, 1.976331986952573e-09, 2.0845618564635515e-09, 2.19279172597453e-09, 2.3010215954855084e-09, 2.409251464996487e-09, 2.5174813345074654e-09, 2.625711204018444e-09, 2.7339410735294223e-09, 2.8421709430404007e-09, 2.950400812551379e-09, 3.0586306820623577e-09, 3.166860551573336e-09, 3.2750904210843146e-09, 3.383320290595293e-09, 3.4915501601062715e-09, 3.59978002961725e-09, 3.7080098991282284e-09, 3.816239768639207e-09, 3.924469638150185e-09, 4.032699507661164e-09, 4.140929377172142e-09, 4.249159246683121e-09]}, "gradients/graph_5_encoder.encoder.4.weight": {"_type": "histogram", "values": [1.0, 1.0, 2.0, 2.0, 1.0, 3.0, 0.0, 2.0, 3.0, 1.0, 5.0, 9.0, 22.0, 18.0, 25.0, 45.0, 50.0, 72.0, 107.0, 175.0, 268.0, 380.0, 552.0, 878.0, 1291.0, 1847.0, 2676.0, 3823.0, 5227.0, 6594.0, 7905.0, 8000.0, 7118.0, 5604.0, 4023.0, 2752.0, 1967.0, 1283.0, 860.0, 624.0, 402.0, 276.0, 192.0, 144.0, 94.0, 67.0, 35.0, 35.0, 22.0, 16.0, 10.0, 1.0, 7.0, 7.0, 4.0, 2.0, 1.0, 0.0, 1.0, 1.0, 1.0, 1.0, 0.0, 1.0], "bins": [-0.03119848109781742, -0.03019549883902073, -0.029192516580224037, -0.028189534321427345, -0.027186552062630653, -0.02618356980383396, -0.02518058568239212, -0.02417760342359543, -0.023174621164798737, -0.022171638906002045, -0.021168656647205353, -0.02016567438840866, -0.01916269212961197, -0.018159709870815277, -0.017156727612018585, -0.016153745353221893, -0.015150763094425201, -0.01414778083562851, -0.013144798576831818, -0.012141816318035126, -0.011138834059238434, -0.010135851800441742, -0.009132868610322475, -0.008129886351525784, -0.007126904092729092, -0.0061239218339324, -0.005120939575135708, -0.004117956850677729, -0.0031149745918810368, -0.002111992333084345, -0.0011090096086263657, -0.00010602734982967377, 0.0008969567716121674, 0.001899939146824181, 0.002902921522036195, 0.0039059040136635303, 0.004908886272460222, 0.005911868531256914, 0.006914851255714893, 0.007917833514511585, 0.008920815773308277, 0.009923798032104969, 0.010926780290901661, 0.011929763481020927, 0.01293274573981762, 0.013935727998614311, 0.014938710257411003, 0.015941692516207695, 0.016944674775004387, 0.01794765703380108, 0.01895063929259777, 0.019953621551394463, 0.020956603810191154, 0.021959586068987846, 0.022962570190429688, 0.02396555244922638, 0.02496853470802307, 0.025971516966819763, 0.026974499225616455, 0.027977481484413147, 0.02898046374320984, 0.02998344600200653, 0.030986428260803223, 0.031989410519599915, 0.032992392778396606]}, "gradients/graph_5_encoder.encoder.1.weight": {"_type": "histogram", "values": [1.0, 0.0, 0.0, 0.0, 1.0, 0.0, 2.0, 0.0, 0.0, 1.0, 2.0, 2.0, 1.0, 4.0, 1.0, 3.0, 6.0, 6.0, 7.0, 5.0, 4.0, 5.0, 6.0, 8.0, 6.0, 9.0, 16.0, 9.0, 6.0, 5.0, 14.0, 4.0, 12.0, 9.0, 8.0, 7.0, 6.0, 3.0, 4.0, 10.0, 5.0, 5.0, 10.0, 2.0, 7.0, 7.0, 3.0, 3.0, 8.0, 3.0, 2.0, 1.0, 0.0, 3.0, 0.0, 0.0, 0.0, 1.0, 1.0, 0.0, 0.0, 1.0, 0.0, 1.0], "bins": [-0.0063387746922671795, -0.0061378139071166515, -0.005936853587627411, -0.005735892802476883, -0.005534932482987642, -0.005333971697837114, -0.005133011378347874, -0.004932050593197346, -0.004731089808046818, -0.00453012902289629, -0.004329168703407049, -0.004128207918256521, -0.003927247598767281, -0.0037262868136167526, -0.0035253262612968683, -0.003324365708976984, -0.0031234053894877434, -0.002922444837167859, -0.0027214842848479748, -0.002520523499697447, -0.002319563180208206, -0.0021186023950576782, -0.001917641842737794, -0.0017166812904179096, -0.0015157207380980253, -0.001314760185778141, -0.0011137996334582567, -0.0009128389647230506, -0.0007118784124031663, -0.000510917860083282, -0.00030995719134807587, -0.00010899663902819157, 9.196437895298004e-05, 0.0002929249603766948, 0.0004938855418004096, 0.0006948461523279548, 0.0008958067046478391, 0.0010967672569677234, 0.0012977279257029295, 0.0014986884780228138, 0.001699649030342698, 0.0019006095826625824, 0.0021015701349824667, 0.002302530687302351, 0.002503491472452879, 0.0027044517919421196, 0.0029054125770926476, 0.003106373129412532, 0.003307333681732416, 0.0035082942340523005, 0.0037092547863721848, 0.003910215571522713, 0.004111175891011953, 0.004312136676162481, 0.004513096995651722, 0.00471405778080225, 0.004915018565952778, 0.005115979351103306, 0.0053169396705925465, 0.005517900455743074, 0.005718860775232315, 0.005919821560382843, 0.006120782345533371, 0.006321742665022612, 0.006522702984511852]}, "gradients/graph_5_encoder.encoder.1.bias": {"_type": "histogram", "values": [1.0, 1.0, 0.0, 0.0, 0.0, 0.0, 0.0, 0.0, 0.0, 2.0, 1.0, 1.0, 1.0, 2.0, 3.0, 2.0, 1.0, 2.0, 3.0, 3.0, 7.0, 2.0, 7.0, 7.0, 8.0, 4.0, 9.0, 7.0, 4.0, 7.0, 5.0, 5.0, 11.0, 6.0, 10.0, 15.0, 10.0, 10.0, 7.0, 11.0, 6.0, 7.0, 8.0, 9.0, 5.0, 2.0, 6.0, 5.0, 4.0, 4.0, 6.0, 1.0, 2.0, 1.0, 1.0, 2.0, 2.0, 3.0, 2.0, 1.0, 0.0, 2.0, 0.0, 2.0], "bins": [-0.008842559531331062, -0.00858190655708313, -0.008321253582835197, -0.008060600608587265, -0.00779994810000062, -0.0075392951257526875, -0.007278642617166042, -0.00701798964291811, -0.0067573366686701775, -0.006496683694422245, -0.006236030720174313, -0.0059753782115876675, -0.005714725237339735, -0.005454072263091803, -0.0051934197545051575, -0.004932766780257225, -0.004672113806009293, -0.00441146083176136, -0.004150807857513428, -0.0038901553489267826, -0.00362950237467885, -0.0033688494004309177, -0.003108196659013629, -0.00284754391759634, -0.0025868909433484077, -0.0023262379691004753, -0.0020655852276831865, -0.001804932369850576, -0.0015442795120179653, -0.0012836266541853547, -0.001022973796352744, -0.0007623209385201335, -0.0005016671493649483, -0.00024101429153233767, 1.963856630027294e-05, 0.00028029142413288355, 0.0005409442819654942, 0.0008015971397981048, 0.0010622499976307154, 0.001322902855463326, 0.0015835557132959366, 0.0018442085711285472, 0.002104861428961158, 0.0023655141703784466, 0.002626167144626379, 0.0028868201188743114, 0.0031474728602916002, 0.003408125601708889, 0.0036687785759568214, 0.003929431550204754, 0.004190084524452686, 0.0044507370330393314, 0.004711390007287264, 0.004972042981535196, 0.005232695490121841, 0.005493348464369774, 0.005754001438617706, 0.006014654412865639, 0.006275307387113571, 0.006535959895700216, 0.006796612869948149, 0.007057265844196081, 0.007317918352782726, 0.007578571327030659, 0.007839224301278591]}, "gradients/graph_5_encoder.encoder.0.bias": {"_type": "histogram", "values": [2.0, 1.0, 0.0, 1.0, 0.0, 0.0, 0.0, 0.0, 1.0, 0.0, 1.0, 1.0, 1.0, 2.0, 3.0, 0.0, 1.0, 6.0, 2.0, 2.0, 6.0, 6.0, 7.0, 5.0, 7.0, 11.0, 8.0, 12.0, 16.0, 9.0, 5.0, 7.0, 15.0, 9.0, 7.0, 4.0, 10.0, 9.0, 7.0, 16.0, 11.0, 4.0, 3.0, 7.0, 8.0, 5.0, 2.0, 2.0, 2.0, 0.0, 1.0, 2.0, 1.0, 1.0, 1.0, 1.0, 1.0, 0.0, 1.0, 1.0, 0.0, 0.0, 1.0, 1.0], "bins": [-2.421438694000244e-07, -2.3463508114218712e-07, -2.2712629288434982e-07, -2.1961750462651253e-07, -2.1210871636867523e-07, -2.0459992811083794e-07, -1.9709113985300064e-07, -1.8958235159516335e-07, -1.8207356333732605e-07, -1.7456477507948875e-07, -1.6705598682165146e-07, -1.5954719856381416e-07, -1.5203841030597687e-07, -1.4452962204813957e-07, -1.3702083379030228e-07, -1.2951204553246498e-07, -1.2200325727462769e-07, -1.1449446901679039e-07, -1.069856807589531e-07, -9.94768925011158e-08, -9.19681042432785e-08, -8.445931598544121e-08, -7.695052772760391e-08, -6.944173946976662e-08, -6.193295121192932e-08, -5.4424162954092026e-08, -4.691537469625473e-08, -3.9406586438417435e-08, -3.189779818058014e-08, -2.4389009922742844e-08, -1.6880221664905548e-08, -9.371433407068253e-09, -1.862645149230957e-09, 5.6461431086063385e-09, 1.3154931366443634e-08, 2.066371962428093e-08, 2.8172507882118225e-08, 3.568129613995552e-08, 4.3190084397792816e-08, 5.069887265563011e-08, 5.820766091346741e-08, 6.57164491713047e-08, 7.3225237429142e-08, 8.07340256869793e-08, 8.824281394481659e-08, 9.575160220265388e-08, 1.0326039046049118e-07, 1.1076917871832848e-07, 1.1827796697616577e-07, 1.2578675523400307e-07, 1.3329554349184036e-07, 1.4080433174967766e-07, 1.4831312000751495e-07, 1.5582190826535225e-07, 1.6333069652318954e-07, 1.7083948478102684e-07, 1.7834827303886414e-07, 1.8585706129670143e-07, 1.9336584955453873e-07, 2.0087463781237602e-07, 2.0838342607021332e-07, 2.1589221432805061e-07, 2.234010025858879e-07, 2.309097908437252e-07, 2.384185791015625e-07]}, "gradients/graph_5_encoder.encoder.0.weight": {"_type": "histogram", "values": [1.0, 0.0, 0.0, 0.0, 0.0, 0.0, 0.0, 1.0, 0.0, 0.0, 0.0, 0.0, 2.0, 0.0, 1.0, 2.0, 2.0, 3.0, 7.0, 5.0, 11.0, 19.0, 25.0, 60.0, 82.0, 136.0, 309.0, 508.0, 1300.0, 2988.0, 7156.0, 18281.0, 47028.0, 77750.0, 40617.0, 16222.0, 6582.0, 2721.0, 1185.0, 584.0, 305.0, 149.0, 80.0, 55.0, 21.0, 19.0, 10.0, 7.0, 2.0, 7.0, 4.0, 2.0, 2.0, 2.0, 0.0, 1.0, 0.0, 0.0, 0.0, 1.0, 0.0, 0.0, 0.0, 1.0], "bins": [-0.1061769500374794, -0.10300500690937042, -0.09983305633068085, -0.09666111320257187, -0.09348917007446289, -0.09031721949577332, -0.08714527636766434, -0.08397333323955536, -0.08080138266086578, -0.0776294395327568, -0.07445748895406723, -0.07128554582595825, -0.06811359524726868, -0.0649416521191597, -0.06176970899105072, -0.058597762137651443, -0.05542581528425217, -0.05225386843085289, -0.04908192157745361, -0.045909978449344635, -0.04273803159594536, -0.03956608474254608, -0.0363941416144371, -0.03322219476103783, -0.03005024790763855, -0.026878301054239273, -0.023706356063485146, -0.020534411072731018, -0.01736246421933174, -0.014190517365932465, -0.011018572375178337, -0.00784662738442421, -0.004674680531024933, -0.0015027346089482307, 0.0016692113131284714, 0.0048411572352051735, 0.008013103157281876, 0.011185050010681152, 0.01435699500143528, 0.017528939992189407, 0.020700886845588684, 0.02387283369898796, 0.02704477868974209, 0.030216723680496216, 0.03338867053389549, 0.03656061738729477, 0.03973256051540375, 0.042904507368803024, 0.0460764542222023, 0.04924840107560158, 0.052420347929000854, 0.05559229105710983, 0.05876423791050911, 0.061936184763908386, 0.06510812789201736, 0.06828007102012634, 0.07145202159881592, 0.0746239647269249, 0.07779591530561447, 0.08096785843372345, 0.08413980901241302, 0.087311752140522, 0.09048369526863098, 0.09365564584732056, 0.09682758897542953]}}