{"train_loss": 0.16685505211353302, "train_ssl_loss": 0.15829651057720184, "train_tsk_loss": 0.008558530360460281, "test_loss": 0.6599999070167542, "test_ssl_loss": 0.6484535932540894, "test_tsk_loss": 0.011546343564987183, "_timestamp": 1697562235.789164, "_runtime": 104.55803799629211, "_step": 49, "gradients/taskmapper.out.bias": {"_type": "histogram", "values": [0.0, 0.0, 0.0, 0.0, 0.0, 0.0, 0.0, 0.0, 0.0, 0.0, 0.0, 0.0, 0.0, 0.0, 0.0, 0.0, 0.0, 0.0, 0.0, 0.0, 0.0, 0.0, 0.0, 0.0, 0.0, 0.0, 0.0, 0.0, 0.0, 0.0, 0.0, 0.0, 1.0, 0.0, 0.0, 0.0, 0.0, 0.0, 0.0, 0.0, 0.0, 0.0, 0.0, 0.0, 0.0, 0.0, 0.0, 0.0, 0.0, 0.0, 0.0, 0.0, 0.0, 0.0, 0.0, 0.0, 0.0, 0.0, 0.0, 0.0, 0.0, 0.0, 0.0, 0.0], "bins": [0.007811765652149916, 0.007811765652149916, 0.007811765652149916, 0.007811765652149916, 0.007811765652149916, 0.007811765652149916, 0.007811765652149916, 0.007811765652149916, 0.007811765652149916, 0.007811765652149916, 0.007811765652149916, 0.007811765652149916, 0.007811765652149916, 0.007811765652149916, 0.007811765652149916, 0.007811765652149916, 0.007811765652149916, 0.007811765652149916, 0.007811765652149916, 0.007811765652149916, 0.007811765652149916, 0.007811765652149916, 0.007811765652149916, 0.007811765652149916, 0.007811765652149916, 0.007811765652149916, 0.007811765652149916, 0.007811765652149916, 0.007811765652149916, 0.007811765652149916, 0.007811765652149916, 0.007811765652149916, 0.007811765652149916, 0.007811765652149916, 0.007811765652149916, 0.007811765652149916, 0.007811765652149916, 0.007811765652149916, 0.007811765652149916, 0.007811765652149916, 0.007811765652149916, 0.007811765652149916, 0.007811765652149916, 0.007811765652149916, 0.007811765652149916, 0.007811765652149916, 0.007811765652149916, 0.007811765652149916, 0.007811765652149916, 0.007811765652149916, 0.007811765652149916, 0.007811765652149916, 0.007811765652149916, 0.007811765652149916, 0.007811765652149916, 0.007811765652149916, 0.007811765652149916, 0.007811765652149916, 0.007811765652149916, 0.007811765652149916, 0.007811765652149916, 0.007811765652149916, 0.007811765652149916, 0.007811765652149916, 0.007811765652149916]}, "gradients/taskmapper.out.weight": {"_type": "histogram", "values": [7.0, 1.0, 0.0, 0.0, 0.0, 0.0, 0.0, 0.0, 0.0, 0.0, 0.0, 0.0, 0.0, 0.0, 0.0, 0.0, 0.0, 0.0, 0.0, 1.0, 0.0, 0.0, 0.0, 0.0, 0.0, 0.0, 2.0, 0.0, 0.0, 0.0, 0.0, 1.0, 1.0, 0.0, 0.0, 1.0, 0.0, 0.0, 0.0, 0.0, 0.0, 0.0, 0.0, 0.0, 1.0, 0.0, 0.0, 0.0, 0.0, 0.0, 0.0, 0.0, 0.0, 0.0, 0.0, 0.0, 0.0, 0.0, 0.0, 0.0, 0.0, 0.0, 0.0, 1.0], "bins": [-2.3024811525829136e-05, 4.5143104216549546e-05, 0.00011331101995892823, 0.0001814789284253493, 0.00024964683689177036, 0.00031781475991010666, 0.00038598268292844296, 0.00045415060594677925, 0.0005223185289651155, 0.0005904864519834518, 0.0006586543750017881, 0.0007268222980201244, 0.0007949902210384607, 0.000863158144056797, 0.0009313260088674724, 0.0009994939900934696, 0.001067661796696484, 0.0011358297197148204, 0.0012039976427331567, 0.001272165565751493, 0.0013403334887698293, 0.0014085014117881656, 0.00147666921839118, 0.0015448371414095163, 0.0016130051808431745, 0.0016811731038615108, 0.001749341026879847, 0.0018175089498981833, 0.0018856768729165196, 0.001953844679519534, 0.0020220126025378704, 0.0020901805255562067, 0.0021583486814051867, 0.002226516604423523, 0.0022946845274418592, 0.0023628524504601955, 0.002431020373478532, 0.002499188296496868, 0.0025673562195152044, 0.0026355241425335407, 0.002703692065551877, 0.0027718599885702133, 0.0028400279115885496, 0.002908195834606886, 0.002976363757625222, 0.0030445316806435585, 0.003112699603661895, 0.003180867526680231, 0.0032490352168679237, 0.00331720313988626, 0.0033853710629045963, 0.0034535389859229326, 0.003521706908941269, 0.0035898748319596052, 0.0036580427549779415, 0.003726210677996278, 0.003794378601014614, 0.0038625465240329504, 0.003930714447051287, 0.003998882137238979, 0.004067050293087959, 0.004135217983275652, 0.004203386139124632, 0.0042715538293123245, 0.0043397219851613045]}, "gradients/taskmapper.lins.1.bias": {"_type": "histogram", "values": [1.0, 0.0, 0.0, 0.0, 0.0, 0.0, 0.0, 0.0, 0.0, 0.0, 0.0, 0.0, 0.0, 0.0, 0.0, 0.0, 0.0, 0.0, 0.0, 0.0, 0.0, 0.0, 1.0, 0.0, 0.0, 0.0, 0.0, 0.0, 0.0, 0.0, 0.0, 0.0, 7.0, 0.0, 0.0, 0.0, 0.0, 0.0, 0.0, 2.0, 0.0, 0.0, 0.0, 0.0, 0.0, 1.0, 0.0, 0.0, 0.0, 0.0, 1.0, 1.0, 0.0, 1.0, 0.0, 0.0, 0.0, 0.0, 0.0, 0.0, 0.0, 0.0, 0.0, 1.0], "bins": [-0.002771443221718073, -0.0026856090407818556, -0.002599775092676282, -0.0025139409117400646, -0.002428106963634491, -0.0023422727826982737, -0.0022564386017620564, -0.0021706046536564827, -0.0020847704727202654, -0.001998936291784048, -0.0019131023436784744, -0.0018272681627422571, -0.0017414340982213616, -0.0016556000337004662, -0.0015697659691795707, -0.0014839319046586752, -0.0013980978401377797, -0.0013122637756168842, -0.0012264297110959888, -0.0011405956465750933, -0.001054761465638876, -0.0009689274011179805, -0.000883093336597085, -0.0007972592138685286, -0.0007114251493476331, -0.0006255910848267376, -0.0005397569620981812, -0.00045392289757728577, -0.00036808880395255983, -0.0002822547103278339, -0.0001964206458069384, -0.00011058652307838202, -2.4752458557486534e-05, 6.108162779128179e-05, 0.0001469157141400501, 0.00023274979321286082, 0.00031858388683758676, 0.0004044179804623127, 0.0004902520449832082, 0.0005760861677117646, 0.0006619202322326601, 0.0007477542967535555, 0.0008335884194821119, 0.0009194224840030074, 0.001005256548523903, 0.0010910907294601202, 0.0011769246775656939, 0.0012627588585019112, 0.0013485929230228066, 0.0014344269875437021, 0.0015202610520645976, 0.001606095116585493, 0.0016919292975217104, 0.0017777633620426059, 0.0018635974265635014, 0.0019494316074997187, 0.0020352655556052923, 0.0021210997365415096, 0.0022069336846470833, 0.0022927678655833006, 0.0023786018136888742, 0.0024644359946250916, 0.002550269942730665, 0.0026361041236668825, 0.0027219383046031]}, "gradients/taskmapper.lins.1.weight": {"_type": "histogram", "values": [1.0, 0.0, 1.0, 0.0, 0.0, 0.0, 0.0, 0.0, 0.0, 3.0, 1.0, 2.0, 1.0, 1.0, 2.0, 0.0, 1.0, 1.0, 5.0, 1.0, 3.0, 0.0, 3.0, 7.0, 6.0, 3.0, 7.0, 14.0, 17.0, 181.0, 23.0, 12.0, 15.0, 13.0, 8.0, 7.0, 6.0, 5.0, 7.0, 4.0, 5.0, 3.0, 2.0, 3.0, 2.0, 0.0, 0.0, 3.0, 0.0, 1.0, 2.0, 0.0, 0.0, 1.0, 0.0, 0.0, 0.0, 0.0, 0.0, 0.0, 0.0, 0.0, 0.0, 1.0], "bins": [-0.0010946383699774742, -0.0010576383210718632, -0.001020638388581574, -0.000983638339675963, -0.0009466382907703519, -0.0009096383000724018, -0.0008726383093744516, -0.0008356382604688406, -0.0007986382697708905, -0.0007616382790729403, -0.0007246382301673293, -0.0006876382394693792, -0.0006506382487714291, -0.000613638199865818, -0.0005766382091678679, -0.0005396382184699178, -0.0005026381695643067, -0.00046563814976252615, -0.0004286381299607456, -0.00039163813926279545, -0.00035463811946101487, -0.0003176380996592343, -0.00028063810896128416, -0.00024363808915950358, -0.000206638069357723, -0.00016963804955594242, -0.00013263804430607706, -9.56380317802541e-05, -5.863801925443113e-05, -2.1637999452650547e-05, 1.5362005797214806e-05, 5.236201104708016e-05, 8.936203084886074e-05, 0.00012636205065064132, 0.00016336205590050668, 0.00020036206115037203, 0.0002373620809521526, 0.0002743621007539332, 0.0003113620914518833, 0.0003483621112536639, 0.0003853621310554445, 0.00042236215085722506, 0.00045936217065900564, 0.0004963621613569558, 0.0005333621520549059, 0.0005703622009605169, 0.0006073621916584671, 0.0006443621823564172, 0.0006813622312620282, 0.0007183622219599783, 0.0007553622708655894, 0.0007923622615635395, 0.0008293623104691505, 0.0008663623011671007, 0.0009033622918650508, 0.0009403623407706618, 0.000977362273260951, 0.001014362322166562, 0.0010513622546568513, 0.0010883623035624623, 0.0011253623524680734, 0.0011623622849583626, 0.0011993623338639736, 0.0012363623827695847, 0.0012733624316751957]}, "gradients/taskmapper.lins.0.bias": {"_type": "histogram", "values": [1.0, 0.0, 1.0, 0.0, 0.0, 0.0, 0.0, 0.0, 0.0, 0.0, 0.0, 0.0, 0.0, 0.0, 0.0, 0.0, 0.0, 0.0, 0.0, 0.0, 0.0, 0.0, 1.0, 1.0, 1.0, 4.0, 0.0, 0.0, 0.0, 0.0, 0.0, 0.0, 0.0, 0.0, 0.0, 1.0, 2.0, 0.0, 3.0, 2.0, 1.0, 0.0, 0.0, 2.0, 0.0, 0.0, 1.0, 0.0, 0.0, 0.0, 1.0, 0.0, 1.0, 0.0, 0.0, 0.0, 0.0, 0.0, 0.0, 0.0, 0.0, 0.0, 0.0, 1.0], "bins": [-0.0018359181703999639, -0.00176262017339468, -0.0016893221763893962, -0.0016160241793841124, -0.0015427262987941504, -0.0014694281853735447, -0.0013961303047835827, -0.0013228323077782989, -0.001249534310773015, -0.0011762363137677312, -0.0011029383167624474, -0.0010296403197571635, -0.0009563423809595406, -0.0008830443839542568, -0.0008097464451566339, -0.00073644844815135, -0.0006631504511460662, -0.0005898524541407824, -0.0005165544571354985, -0.0004432565183378756, -0.00036995852133259177, -0.00029666052432730794, -0.00022336255642585456, -0.0001500645885244012, -7.676659151911736e-05, -3.468609065748751e-06, 6.982937338761985e-05, 0.00014312735584098846, 0.00021642533829435706, 0.0002897233352996409, 0.00036302130320109427, 0.00043631927110254765, 0.0005096171516925097, 0.0005829151486977935, 0.0006562131457030773, 0.0007295110845007002, 0.0008028090815059841, 0.0008761070785112679, 0.0009494050173088908, 0.0010227030143141747, 0.0010960010113194585, 0.0011692990083247423, 0.0012425970053300261, 0.00131589500233531, 0.001389192882925272, 0.0014624909963458776, 0.0015357888769358397, 0.0016090868739411235, 0.0016823848709464073, 0.0017556828679516912, 0.001828980864956975, 0.0019022788619622588, 0.0019755768589675426, 0.0020488747395575047, 0.0021221728529781103, 0.0021954707335680723, 0.002268768846988678, 0.00234206672757864, 0.0024153648409992456, 0.0024886627215892076, 0.0025619608350098133, 0.0026352587155997753, 0.002708556829020381, 0.002781854709610343, 0.002855152590200305]}, "gradients/taskmapper.lins.0.weight": {"_type": "histogram", "values": [1.0, 0.0, 0.0, 0.0, 0.0, 0.0, 0.0, 2.0, 1.0, 1.0, 2.0, 4.0, 1.0, 2.0, 1.0, 4.0, 6.0, 3.0, 2.0, 6.0, 7.0, 3.0, 8.0, 7.0, 5.0, 10.0, 12.0, 13.0, 12.0, 18.0, 18.0, 32.0, 26.0, 42.0, 65.0, 190.0, 67.0, 28.0, 29.0, 26.0, 24.0, 21.0, 17.0, 9.0, 5.0, 6.0, 7.0, 4.0, 4.0, 2.0, 4.0, 1.0, 1.0, 0.0, 2.0, 1.0, 0.0, 2.0, 1.0, 0.0, 1.0, 1.0, 0.0, 1.0], "bins": [-0.0023225629702210426, -0.0022573224268853664, -0.0021920818835496902, -0.002126841340214014, -0.0020616010297089815, -0.0019963604863733053, -0.0019311199430376291, -0.001865879399701953, -0.0018006388563662767, -0.0017353983130306005, -0.0016701578861102462, -0.00160491734277457, -0.0015396767994388938, -0.0014744363725185394, -0.0014091958291828632, -0.001343955285847187, -0.0012787148589268327, -0.0012134743155911565, -0.0011482338886708021, -0.001082993345335126, -0.0010177528019994497, -0.0009525123168714345, -0.0008872718317434192, -0.000822031288407743, -0.0007567908032797277, -0.0006915503181517124, -0.0006263097748160362, -0.0005610692896880209, -0.0004958288045600057, -0.00043058826122432947, -0.0003653477760963142, -0.00030010726186446846, -0.0002348666312173009, -0.00016962611698545516, -0.00010438561730552465, -3.914511762559414e-05, 2.6095396606251597e-05, 9.133591083809733e-05, 0.00015657639596611261, 0.00022181691019795835, 0.0002870574244298041, 0.0003522979386616498, 0.00041753845289349556, 0.00048277893802151084, 0.0005480194231495261, 0.0006132599664852023, 0.0006785004516132176, 0.0007437409367412329, 0.0008089814800769091, 0.0008742219652049243, 0.0009394625085406005, 0.0010047029936686158, 0.001069943537004292, 0.0011351839639246464, 0.0012004245072603226, 0.0012656650505959988, 0.001330905593931675, 0.0013961461372673512, 0.0014613865641877055, 0.0015266271075233817, 0.001591867650859058, 0.0016571080777794123, 0.0017223486211150885, 0.0017875891644507647, 0.001852829591371119]}, "gradients/_projector.0.bias": {"_type": "histogram", "values": [1.0, 0.0, 0.0, 0.0, 0.0, 0.0, 0.0, 0.0, 0.0, 0.0, 0.0, 1.0, 0.0, 0.0, 0.0, 1.0, 0.0, 0.0, 0.0, 0.0, 0.0, 0.0, 2.0, 2.0, 0.0, 0.0, 0.0, 0.0, 0.0, 3.0, 0.0, 2.0, 3.0, 1.0, 0.0, 0.0, 2.0, 0.0, 0.0, 3.0, 1.0, 1.0, 0.0, 1.0, 0.0, 1.0, 1.0, 1.0, 0.0, 2.0, 0.0, 1.0, 0.0, 0.0, 1.0, 0.0, 0.0, 0.0, 0.0, 0.0, 0.0, 0.0, 0.0, 1.0], "bins": [-0.17535127699375153, -0.17077970504760742, -0.16620813310146332, -0.16163654625415802, -0.15706497430801392, -0.1524934023618698, -0.1479218304157257, -0.1433502584695816, -0.1387786865234375, -0.1342071145772934, -0.1296355426311493, -0.125063955783844, -0.12049238383769989, -0.11592081189155579, -0.11134923994541168, -0.10677766799926758, -0.10220608115196228, -0.09763450920581818, -0.09306292980909348, -0.08849135786294937, -0.08391977846622467, -0.07934820652008057, -0.07477663457393646, -0.07020506262779236, -0.06563348323106766, -0.061061907559633255, -0.05649033188819885, -0.05191875994205475, -0.047347184270620346, -0.042775608599185944, -0.03820403665304184, -0.03363246098160744, -0.02906090021133423, -0.024489324539899826, -0.019917750731110573, -0.015346175990998745, -0.010774601250886917, -0.006203025579452515, -0.0016314517706632614, 0.002940122038125992, 0.007511697709560394, 0.012083272449672222, 0.01665484718978405, 0.021226420998573303, 0.025797996670007706, 0.030369572341442108, 0.03494114428758621, 0.039512719959020615, 0.04408429563045502, 0.04865587130188942, 0.05322744697332382, 0.057799018919467926, 0.06237059459090233, 0.06694217026233673, 0.07151374220848083, 0.07608531415462494, 0.08065689355134964, 0.08522846549749374, 0.08980004489421844, 0.09437161684036255, 0.09894318878650665, 0.10351476818323135, 0.10808634012937546, 0.11265791952610016, 0.11722949147224426]}, "gradients/_projector.0.weight": {"_type": "histogram", "values": [1.0, 0.0, 2.0, 2.0, 2.0, 2.0, 2.0, 4.0, 4.0, 6.0, 12.0, 18.0, 21.0, 36.0, 42.0, 62.0, 76.0, 89.0, 126.0, 131.0, 132.0, 166.0, 163.0, 161.0, 148.0, 133.0, 112.0, 101.0, 74.0, 49.0, 51.0, 30.0, 23.0, 19.0, 15.0, 7.0, 8.0, 3.0, 0.0, 2.0, 3.0, 4.0, 3.0, 0.0, 1.0, 0.0, 1.0, 0.0, 0.0, 0.0, 0.0, 0.0, 0.0, 0.0, 0.0, 0.0, 0.0, 0.0, 0.0, 0.0, 0.0, 0.0, 0.0, 1.0], "bins": [-0.04853708669543266, -0.046394504606723785, -0.044251926243305206, -0.04210934415459633, -0.03996676206588745, -0.03782418370246887, -0.035681601613759995, -0.03353901952505112, -0.03139644116163254, -0.02925386093556881, -0.027111278846859932, -0.024968698620796204, -0.022826116532087326, -0.020683536306023598, -0.01854095607995987, -0.016398373991250992, -0.014255791902542114, -0.012113210745155811, -0.009970629587769508, -0.00782804936170578, -0.005685468204319477, -0.003542887046933174, -0.0014003068208694458, 0.0007422743365168571, 0.00288485549390316, 0.005027436651289463, 0.007170017343014479, 0.009312598034739494, 0.011455179192125797, 0.0135977603495121, 0.01574034057557583, 0.017882920801639557, 0.020025499165058136, 0.022168079391121864, 0.024310661479830742, 0.02645324170589447, 0.028595823794603348, 0.030738404020667076, 0.032880984246730804, 0.03502356633543968, 0.03716614842414856, 0.03930873051285744, 0.041451308876276016, 0.043593890964984894, 0.04573647305369377, 0.04787905514240265, 0.05002163350582123, 0.052164215594530106, 0.054306793957948685, 0.05644937604665756, 0.05859195441007614, 0.06073453649878502, 0.0628771185874939, 0.06501969695091248, 0.06716227531433105, 0.06930486112833023, 0.07144743949174881, 0.07359001785516739, 0.07573260366916656, 0.07787518203258514, 0.08001776039600372, 0.0821603462100029, 0.08430292457342148, 0.08644550293684006, 0.08858808875083923]}, "gradients/_encoder.encoder.4.bias": {"_type": "histogram", "values": [1.0, 0.0, 0.0, 0.0, 0.0, 0.0, 0.0, 0.0, 0.0, 1.0, 0.0, 1.0, 0.0, 0.0, 0.0, 1.0, 1.0, 3.0, 1.0, 2.0, 2.0, 3.0, 0.0, 0.0, 2.0, 4.0, 2.0, 3.0, 0.0, 0.0, 3.0, 6.0, 2.0, 5.0, 2.0, 1.0, 4.0, 1.0, 1.0, 1.0, 1.0, 1.0, 1.0, 1.0, 1.0, 1.0, 0.0, 0.0, 0.0, 3.0, 0.0, 0.0, 0.0, 0.0, 1.0, 0.0, 0.0, 0.0, 0.0, 0.0, 0.0, 0.0, 0.0, 1.0], "bins": [-0.11584332585334778, -0.11238455772399902, -0.10892579704523087, -0.10546703636646271, -0.10200826823711395, -0.0985495001077652, -0.09509073942899704, -0.09163197875022888, -0.08817321062088013, -0.08471444249153137, -0.08125568181276321, -0.07779692113399506, -0.0743381530046463, -0.07087938487529755, -0.06742062419652939, -0.06396186351776123, -0.060503095388412476, -0.05704433098435402, -0.05358556658029556, -0.050126802176237106, -0.04666803777217865, -0.043209273368120193, -0.03975050896406174, -0.03629174456000328, -0.032832980155944824, -0.029374215751886368, -0.02591545134782791, -0.022456686943769455, -0.018997922539711, -0.015539158135652542, -0.012080393731594086, -0.00862162932753563, -0.005162864923477173, -0.0017041005194187164, 0.00175466388463974, 0.005213428288698196, 0.008672192692756653, 0.01213095709681511, 0.015589721500873566, 0.019048485904932022, 0.02250725030899048, 0.025966014713048935, 0.02942477911710739, 0.03288354352116585, 0.036342307925224304, 0.03980107232928276, 0.04325983673334122, 0.04671860113739967, 0.05017736554145813, 0.053636129945516586, 0.05709489434957504, 0.0605536587536335, 0.06401242315769196, 0.06747119128704071, 0.07092995196580887, 0.07438871264457703, 0.07784748077392578, 0.08130624890327454, 0.0847650095820427, 0.08822377026081085, 0.0916825383901596, 0.09514130651950836, 0.09860006719827652, 0.10205882787704468, 0.10551759600639343]}, "gradients/_encoder.encoder.4.weight": {"_type": "histogram", "values": [1.0, 0.0, 0.0, 0.0, 0.0, 0.0, 0.0, 1.0, 1.0, 1.0, 1.0, 2.0, 1.0, 4.0, 2.0, 4.0, 7.0, 4.0, 8.0, 12.0, 19.0, 23.0, 23.0, 38.0, 49.0, 58.0, 119.0, 121.0, 204.0, 248.0, 315.0, 427.0, 501.0, 603.0, 717.0, 785.0, 819.0, 758.0, 594.0, 487.0, 352.0, 243.0, 186.0, 120.0, 91.0, 72.0, 40.0, 31.0, 28.0, 18.0, 14.0, 12.0, 4.0, 1.0, 9.0, 6.0, 1.0, 1.0, 3.0, 1.0, 0.0, 0.0, 1.0, 1.0], "bins": [-0.09711858630180359, -0.09442958980798721, -0.09174059331417084, -0.08905159682035446, -0.08636260032653809, -0.08367360383272171, -0.08098460733890533, -0.07829560339450836, -0.07560661435127258, -0.07291761785745621, -0.07022862136363983, -0.06753962486982346, -0.06485062837600708, -0.062161631882190704, -0.05947263166308403, -0.056783635169267654, -0.05409463495016098, -0.051405638456344604, -0.04871664196252823, -0.04602764546871185, -0.04333864897489548, -0.0406496524810791, -0.03796065226197243, -0.03527165576815605, -0.032582659274339676, -0.0298936627805233, -0.027204666286706924, -0.0245156679302454, -0.021826671436429024, -0.019137674942612648, -0.016448676586151123, -0.013759680092334747, -0.011070683598518372, -0.008381687104701996, -0.0056926896795630455, -0.003003692254424095, -0.0003146957606077194, 0.0023743007332086563, 0.005063299089670181, 0.007752295583486557, 0.010441292077302933, 0.013130288571119308, 0.015819285064935684, 0.01850828342139721, 0.021197279915213585, 0.02388627640902996, 0.026575274765491486, 0.02926427125930786, 0.03195326775312424, 0.03464226424694061, 0.03733126074075699, 0.040020257234573364, 0.04270925372838974, 0.045398250222206116, 0.04808725044131279, 0.050776246935129166, 0.05346524342894554, 0.05615423992276192, 0.05884323641657829, 0.06153223663568497, 0.06422123312950134, 0.06691022962331772, 0.0695992261171341, 0.07228822261095047, 0.07497721910476685]}, "gradients/_encoder.encoder.1.weight": {"_type": "histogram", "values": [1.0, 0.0, 0.0, 0.0, 0.0, 0.0, 0.0, 0.0, 0.0, 0.0, 0.0, 1.0, 0.0, 0.0, 0.0, 0.0, 0.0, 0.0, 2.0, 0.0, 0.0, 2.0, 3.0, 1.0, 0.0, 1.0, 3.0, 3.0, 6.0, 3.0, 7.0, 7.0, 5.0, 5.0, 9.0, 4.0, 7.0, 6.0, 7.0, 7.0, 7.0, 5.0, 3.0, 0.0, 4.0, 5.0, 4.0, 3.0, 1.0, 0.0, 1.0, 1.0, 0.0, 0.0, 0.0, 1.0, 1.0, 1.0, 0.0, 0.0, 0.0, 0.0, 0.0, 1.0], "bins": [-0.037066925317049026, -0.03603151813149452, -0.034996114671230316, -0.03396070748567581, -0.03292530030012131, -0.0318898931145668, -0.030854489654302597, -0.029819082468748093, -0.028783677145838737, -0.027748271822929382, -0.026712864637374878, -0.025677459314465523, -0.024642053991556168, -0.023606646806001663, -0.022571241483092308, -0.021535836160182953, -0.02050042897462845, -0.019465023651719093, -0.01842961646616459, -0.017394211143255234, -0.01635880395770073, -0.015323398634791374, -0.014287993311882019, -0.01325258705765009, -0.01221718080341816, -0.01118177454918623, -0.0101463682949543, -0.009110962972044945, -0.008075556717813015, -0.007040150463581085, -0.006004744675010443, -0.0049693388864398, -0.0039339326322078705, -0.0028985266108065844, -0.0018631205894052982, -0.0008277145680040121, 0.00020769145339727402, 0.0012430977076292038, 0.0022785034961998463, 0.0033139092847704887, 0.0043493155390024185, 0.005384721793234348, 0.006420127581804991, 0.007455533370375633, 0.008490939624607563, 0.009526345878839493, 0.010561751201748848, 0.011597157455980778, 0.012632563710212708, 0.013667969964444637, 0.014703376218676567, 0.015738781541585922, 0.016774188727140427, 0.017809594050049782, 0.018844999372959137, 0.01988040655851364, 0.020915811881422997, 0.02195121720433235, 0.022986624389886856, 0.02402202971279621, 0.025057435035705566, 0.02609284222126007, 0.027128247544169426, 0.02816365286707878, 0.029199060052633286]}, "gradients/_encoder.encoder.1.bias": {"_type": "histogram", "values": [2.0, 0.0, 1.0, 2.0, 1.0, 0.0, 1.0, 2.0, 0.0, 2.0, 5.0, 4.0, 2.0, 6.0, 8.0, 7.0, 4.0, 7.0, 5.0, 6.0, 7.0, 4.0, 13.0, 5.0, 6.0, 6.0, 5.0, 3.0, 2.0, 0.0, 2.0, 2.0, 1.0, 0.0, 1.0, 0.0, 0.0, 0.0, 0.0, 0.0, 0.0, 0.0, 1.0, 1.0, 0.0, 0.0, 0.0, 0.0, 0.0, 2.0, 0.0, 1.0, 0.0, 0.0, 0.0, 0.0, 0.0, 0.0, 0.0, 0.0, 0.0, 0.0, 0.0, 1.0], "bins": [-0.03567591309547424, -0.03385894373059273, -0.03204197436571121, -0.030225005000829697, -0.02840803563594818, -0.026591066271066666, -0.0247740987688303, -0.022957129403948784, -0.02114016003906727, -0.019323190674185753, -0.017506221309304237, -0.01568925380706787, -0.013872283510863781, -0.012055314145982265, -0.010238345712423325, -0.008421376347541809, -0.006604406982660294, -0.004787437617778778, -0.00297046871855855, -0.0011534998193383217, 0.0006634695455431938, 0.0024804389104247093, 0.00429740734398365, 0.006114376708865166, 0.007931346073746681, 0.009748315438628197, 0.011565284803509712, 0.013382253237068653, 0.015199222601950169, 0.01701619103550911, 0.018833160400390625, 0.02065012976527214, 0.022467099130153656, 0.02428406849503517, 0.026101037859916687, 0.027918007224798203, 0.029734976589679718, 0.031551945954561234, 0.03336891531944275, 0.035185880959033966, 0.03700285404920578, 0.038819823414087296, 0.04063679277896881, 0.04245376214385033, 0.04427073150873184, 0.04608770087361336, 0.04790467023849487, 0.04972163587808609, 0.051538605242967606, 0.05335557460784912, 0.05517254397273064, 0.05698951333761215, 0.05880648270249367, 0.06062345206737518, 0.0624404177069664, 0.06425739079713821, 0.06607435643672943, 0.06789132207632065, 0.06970829516649246, 0.07152526080608368, 0.0733422338962555, 0.07515919953584671, 0.07697617262601852, 0.07879313826560974, 0.08061011135578156]}, "gradients/_encoder.encoder.0.bias": {"_type": "histogram", "values": [1.0, 1.0, 0.0, 1.0, 0.0, 1.0, 0.0, 0.0, 0.0, 1.0, 2.0, 0.0, 0.0, 1.0, 0.0, 0.0, 1.0, 0.0, 0.0, 1.0, 1.0, 0.0, 0.0, 1.0, 0.0, 2.0, 2.0, 1.0, 1.0, 0.0, 4.0, 8.0, 3.0, 2.0, 7.0, 5.0, 4.0, 6.0, 3.0, 9.0, 6.0, 10.0, 5.0, 8.0, 3.0, 6.0, 1.0, 3.0, 2.0, 3.0, 0.0, 1.0, 1.0, 2.0, 1.0, 2.0, 4.0, 0.0, 0.0, 0.0, 0.0, 0.0, 0.0, 1.0], "bins": [-1.0579824447631836e-06, -1.0316725820302963e-06, -1.005362719297409e-06, -9.790528565645218e-07, -9.527429938316345e-07, -9.264331310987473e-07, -9.0012326836586e-07, -8.738134056329727e-07, -8.475035429000854e-07, -8.211936801671982e-07, -7.948838174343109e-07, -7.685739547014236e-07, -7.422640919685364e-07, -7.159542292356491e-07, -6.896443665027618e-07, -6.633345037698746e-07, -6.370246410369873e-07, -6.107147783041e-07, -5.844049155712128e-07, -5.580950528383255e-07, -5.317851901054382e-07, -5.05475327372551e-07, -4.791654646396637e-07, -4.5285560190677643e-07, -4.2654573917388916e-07, -4.002358764410019e-07, -3.739260137081146e-07, -3.4761615097522736e-07, -3.213062882423401e-07, -2.949964255094528e-07, -2.6868656277656555e-07, -2.423767000436783e-07, -2.1606683731079102e-07, -1.8975697457790375e-07, -1.6344711184501648e-07, -1.371372491121292e-07, -1.1082738637924194e-07, -8.451752364635468e-08, -5.820766091346741e-08, -3.189779818058014e-08, -5.587935447692871e-09, 2.0721927285194397e-08, 4.7031790018081665e-08, 7.334165275096893e-08, 9.96515154838562e-08, 1.2596137821674347e-07, 1.5227124094963074e-07, 1.78581103682518e-07, 2.0489096641540527e-07, 2.3120082914829254e-07, 2.575106918811798e-07, 2.838205546140671e-07, 3.1013041734695435e-07, 3.364402800798416e-07, 3.627501428127289e-07, 3.8906000554561615e-07, 4.153698682785034e-07, 4.416797310113907e-07, 4.6798959374427795e-07, 4.942994564771652e-07, 5.206093192100525e-07, 5.469191819429398e-07, 5.73229044675827e-07, 5.995389074087143e-07, 6.258487701416016e-07]}, "gradients/_encoder.encoder.0.weight": {"_type": "histogram", "values": [1.0, 3.0, 1.0, 4.0, 2.0, 3.0, 7.0, 8.0, 7.0, 14.0, 14.0, 30.0, 52.0, 102.0, 183.0, 346.0, 639.0, 1225.0, 2453.0, 5159.0, 11408.0, 24822.0, 31194.0, 17441.0, 8587.0, 3747.0, 1900.0, 1049.0, 654.0, 363.0, 204.0, 164.0, 87.0, 68.0, 56.0, 37.0, 22.0, 16.0, 22.0, 6.0, 7.0, 4.0, 1.0, 5.0, 1.0, 3.0, 1.0, 1.0, 1.0, 1.0, 0.0, 0.0, 0.0, 0.0, 0.0, 2.0, 0.0, 0.0, 0.0, 0.0, 0.0, 0.0, 0.0, 1.0], "bins": [-0.11733295768499374, -0.11206269264221191, -0.10679242759943008, -0.10152216255664825, -0.09625190496444702, -0.09098163992166519, -0.08571137487888336, -0.08044111728668213, -0.0751708447933197, -0.06990057975053787, -0.06463031470775604, -0.05936005339026451, -0.05408979207277298, -0.04881952702999115, -0.04354926198720932, -0.03827900066971779, -0.03300873935222626, -0.027738476172089577, -0.022468212991952896, -0.017197947949171066, -0.011927684769034386, -0.006657421588897705, -0.0013871565461158752, 0.003883104771375656, 0.009153369814157486, 0.014423632994294167, 0.019693896174430847, 0.024964161217212677, 0.030234424397349358, 0.03550468757748604, 0.04077495262026787, 0.0460452139377594, 0.05131547152996063, 0.05658573657274246, 0.061855997890233994, 0.06712625920772552, 0.07239652425050735, 0.07766678929328918, 0.08293705433607101, 0.08820731937885284, 0.09347757697105408, 0.09874784201383591, 0.10401810705661774, 0.10928836464881897, 0.1145586296916008, 0.11982889473438263, 0.12509915232658386, 0.1303694248199463, 0.13563969731330872, 0.14090995490550995, 0.14618022739887238, 0.1514504849910736, 0.15672075748443604, 0.16199101507663727, 0.1672612726688385, 0.17253154516220093, 0.17780180275440216, 0.1830720603466034, 0.18834233283996582, 0.19361259043216705, 0.19888286292552948, 0.2041531205177307, 0.20942339301109314, 0.21469365060329437, 0.2199639081954956]}, "_wandb": {"runtime": 127}}