{"train_loss": 0.4500422179698944, "train_ssl_loss": 0.4303497076034546, "train_tsk_loss": 0.019692497327923775, "test_loss": 0.409862220287323, "test_ssl_loss": 0.38978520035743713, "test_tsk_loss": 0.020077023655176163, "_timestamp": 1697564264.0936563, "_runtime": 120.84100818634033, "_step": 49, "gradients/graph_4taskmapper.out.bias": {"_type": "histogram", "values": [0.0, 0.0, 0.0, 0.0, 0.0, 0.0, 0.0, 0.0, 0.0, 0.0, 0.0, 0.0, 0.0, 0.0, 0.0, 0.0, 0.0, 0.0, 0.0, 0.0, 0.0, 0.0, 0.0, 0.0, 0.0, 0.0, 0.0, 0.0, 0.0, 0.0, 0.0, 0.0, 1.0, 0.0, 0.0, 0.0, 0.0, 0.0, 0.0, 0.0, 0.0, 0.0, 0.0, 0.0, 0.0, 0.0, 0.0, 0.0, 0.0, 0.0, 0.0, 0.0, 0.0, 0.0, 0.0, 0.0, 0.0, 0.0, 0.0, 0.0, 0.0, 0.0, 0.0, 0.0], "bins": [-0.016282934695482254, -0.016282934695482254, -0.016282934695482254, -0.016282934695482254, -0.016282934695482254, -0.016282934695482254, -0.016282934695482254, -0.016282934695482254, -0.016282934695482254, -0.016282934695482254, -0.016282934695482254, -0.016282934695482254, -0.016282934695482254, -0.016282934695482254, -0.016282934695482254, -0.016282934695482254, -0.016282934695482254, -0.016282934695482254, -0.016282934695482254, -0.016282934695482254, -0.016282934695482254, -0.016282934695482254, -0.016282934695482254, -0.016282934695482254, -0.016282934695482254, -0.016282934695482254, -0.016282934695482254, -0.016282934695482254, -0.016282934695482254, -0.016282934695482254, -0.016282934695482254, -0.016282934695482254, -0.016282934695482254, -0.016282934695482254, -0.016282934695482254, -0.016282934695482254, -0.016282934695482254, -0.016282934695482254, -0.016282934695482254, -0.016282934695482254, -0.016282934695482254, -0.016282934695482254, -0.016282934695482254, -0.016282934695482254, -0.016282934695482254, -0.016282934695482254, -0.016282934695482254, -0.016282934695482254, -0.016282934695482254, -0.016282934695482254, -0.016282934695482254, -0.016282934695482254, -0.016282934695482254, -0.016282934695482254, -0.016282934695482254, -0.016282934695482254, -0.016282934695482254, -0.016282934695482254, -0.016282934695482254, -0.016282934695482254, -0.016282934695482254, -0.016282934695482254, -0.016282934695482254, -0.016282934695482254, -0.016282934695482254]}, "gradients/graph_4taskmapper.out.weight": {"_type": "histogram", "values": [1.0, 0.0, 0.0, 1.0, 0.0, 0.0, 1.0, 0.0, 0.0, 0.0, 0.0, 0.0, 0.0, 0.0, 0.0, 0.0, 2.0, 0.0, 0.0, 0.0, 0.0, 0.0, 0.0, 0.0, 0.0, 0.0, 0.0, 0.0, 0.0, 0.0, 0.0, 0.0, 0.0, 0.0, 0.0, 0.0, 0.0, 0.0, 1.0, 0.0, 0.0, 0.0, 0.0, 1.0, 0.0, 0.0, 0.0, 0.0, 0.0, 0.0, 0.0, 0.0, 0.0, 0.0, 0.0, 0.0, 0.0, 0.0, 0.0, 1.0, 0.0, 1.0, 1.0, 6.0], "bins": [-0.006124604027718306, -0.006028906907886267, -0.005933210253715515, -0.005837513133883476, -0.005741816479712725, -0.005646119359880686, -0.005550422240048647, -0.005454725585877895, -0.0053590284660458565, -0.005263331346213818, -0.005167634692043066, -0.005071937572211027, -0.004976240918040276, -0.004880543798208237, -0.004784846678376198, -0.004689150024205446, -0.004593452904373407, -0.0044977557845413685, -0.004402059130370617, -0.004306362010538578, -0.0042106653563678265, -0.004114968236535788, -0.004019271116703749, -0.003923574462532997, -0.003827877575531602, -0.0037321806885302067, -0.0036364838015288115, -0.0035407866816967726, -0.0034450897946953773, -0.003349392907693982, -0.003253696020692587, -0.003157998900860548, -0.003062302013859153, -0.0029666051268577576, -0.0028709082398563623, -0.0027752111200243235, -0.0026795142330229282, -0.002583817346021533, -0.002488120459020138, -0.002392423339188099, -0.0022967264521867037, -0.0022010295651853085, -0.0021053326781839132, -0.0020096355583518744, -0.0019139386713504791, -0.001818241784349084, -0.0017225448973476887, -0.0016268478939309716, -0.0015311510069295764, -0.0014354541199281812, -0.0013397571165114641, -0.001244060229510069, -0.0011483632260933518, -0.0010526663390919566, -0.0009569693938829005, -0.0008612724486738443, -0.0007655755034647882, -0.0006698785582557321, -0.0005741816130466759, -0.00047848469694145024, -0.0003827877517323941, -0.00028709080652333796, -0.00019139389041811228, -9.569694520905614e-05, 0.0]}, "gradients/graph_4taskmapper.lins.1.bias": {"_type": "histogram", "values": [1.0, 0.0, 0.0, 0.0, 0.0, 0.0, 0.0, 0.0, 0.0, 1.0, 1.0, 0.0, 0.0, 0.0, 0.0, 0.0, 0.0, 0.0, 0.0, 1.0, 0.0, 0.0, 0.0, 0.0, 0.0, 0.0, 0.0, 0.0, 2.0, 0.0, 0.0, 0.0, 1.0, 0.0, 0.0, 0.0, 0.0, 0.0, 0.0, 0.0, 0.0, 0.0, 0.0, 0.0, 0.0, 0.0, 0.0, 0.0, 0.0, 0.0, 6.0, 0.0, 0.0, 0.0, 1.0, 0.0, 0.0, 0.0, 1.0, 0.0, 0.0, 0.0, 0.0, 1.0], "bins": [-0.003962512128055096, -0.0038842924404889345, -0.0038060727529227734, -0.003727853065356612, -0.003649633377790451, -0.00357141369022429, -0.0034931940026581287, -0.0034149743150919676, -0.0033367546275258064, -0.0032585349399596453, -0.003180315252393484, -0.003102095564827323, -0.003023875877261162, -0.0029456561896950006, -0.0028674365021288395, -0.0027892168145626783, -0.002710997126996517, -0.002632777439430356, -0.002554557751864195, -0.0024763380642980337, -0.0023981183767318726, -0.0023198986891657114, -0.0022416790015995502, -0.002163459314033389, -0.002085239626467228, -0.0020070199389010668, -0.0019288002513349056, -0.0018505805637687445, -0.0017723608762025833, -0.0016941411886364222, -0.001615921501070261, -0.0015377018135040998, -0.0014594823587685823, -0.0013812626712024212, -0.00130304298363626, -0.0012248232960700989, -0.0011466036085039377, -0.0010683839209377766, -0.0009901642333716154, -0.0009119445458054543, -0.0008337248582392931, -0.0007555051706731319, -0.0006772854831069708, -0.0005990657955408096, -0.0005208461079746485, -0.0004426264204084873, -0.00036440673284232616, -0.000286187045276165, -0.00020796735771000385, -0.0001297476701438427, -5.152798257768154e-05, 2.6691704988479614e-05, 0.00010491139255464077, 0.00018313108012080193, 0.0002613507676869631, 0.00033957045525312424, 0.0004177901428192854, 0.0004960098303854465, 0.0005742295179516077, 0.0006524492055177689, 0.00073066889308393, 0.0008088885806500912, 0.0008871082682162523, 0.0009653279557824135, 0.0010435476433485746]}, "gradients/graph_4taskmapper.lins.1.weight": {"_type": "histogram", "values": [1.0, 0.0, 0.0, 0.0, 1.0, 0.0, 0.0, 3.0, 0.0, 0.0, 1.0, 1.0, 1.0, 2.0, 0.0, 2.0, 0.0, 3.0, 1.0, 2.0, 2.0, 3.0, 2.0, 3.0, 3.0, 3.0, 6.0, 4.0, 5.0, 7.0, 5.0, 6.0, 6.0, 11.0, 9.0, 10.0, 7.0, 8.0, 196.0, 23.0, 16.0, 9.0, 8.0, 6.0, 1.0, 0.0, 0.0, 1.0, 0.0, 2.0, 0.0, 0.0, 0.0, 0.0, 1.0, 0.0, 0.0, 0.0, 1.0, 1.0, 0.0, 0.0, 0.0, 1.0], "bins": [-0.001751380623318255, -0.0017062826082110405, -0.001661184593103826, -0.0016160865779966116, -0.0015709885628893971, -0.0015258905477821827, -0.0014807924162596464, -0.0014356945175677538, -0.0013905963860452175, -0.001345498370938003, -0.0013004003558307886, -0.0012553023407235742, -0.0012102043256163597, -0.0011651063105091453, -0.0011200082954019308, -0.0010749101638793945, -0.001029812265187502, -0.0009847142500802875, -0.000939616234973073, -0.0008945182198658586, -0.0008494202047586441, -0.0008043221896514297, -0.0007592241163365543, -0.0007141261012293398, -0.0006690280861221254, -0.0006239300710149109, -0.0005788320559076965, -0.0005337339825928211, -0.0004886359674856067, -0.0004435379814822227, -0.00039843993727117777, -0.0003533419221639633, -0.00030824379064142704, -0.0002631457755342126, -0.0002180477458750829, -0.00017294971621595323, -0.00012785170110873878, -8.275368600152433e-05, -3.765564179047942e-05, 7.442373316735029e-06, 5.254038842394948e-05, 9.763841080712155e-05, 0.0001427364331902936, 0.0001878344628494233, 0.00023293247795663774, 0.0002780304930638522, 0.0003231285372748971, 0.00036822655238211155, 0.000413324567489326, 0.00045842258259654045, 0.0005035205977037549, 0.0005486186128109694, 0.0005937166279181838, 0.0006388146430253983, 0.0006839127163402736, 0.0007290107314474881, 0.0007741087465547025, 0.000819206761661917, 0.0008643047767691314, 0.0009094028500840068, 0.0009545008651912212, 0.0009995988802984357, 0.0010446968954056501, 0.0010897949105128646, 0.001134892925620079]}, "gradients/graph_4taskmapper.lins.0.bias": {"_type": "histogram", "values": [1.0, 0.0, 0.0, 0.0, 0.0, 0.0, 0.0, 0.0, 0.0, 0.0, 0.0, 0.0, 0.0, 0.0, 0.0, 0.0, 0.0, 0.0, 0.0, 0.0, 0.0, 0.0, 1.0, 0.0, 1.0, 0.0, 1.0, 1.0, 1.0, 0.0, 0.0, 1.0, 1.0, 1.0, 0.0, 3.0, 0.0, 0.0, 1.0, 1.0, 1.0, 1.0, 2.0, 3.0, 1.0, 0.0, 0.0, 0.0, 0.0, 1.0, 0.0, 0.0, 0.0, 0.0, 0.0, 0.0, 0.0, 0.0, 0.0, 0.0, 0.0, 0.0, 0.0, 1.0], "bins": [-0.004471215419471264, -0.004369532223790884, -0.0042678494937717915, -0.004166166298091412, -0.004064483102411032, -0.003962800372391939, -0.0038611171767115593, -0.0037594339810311794, -0.003657751018181443, -0.003556068055331707, -0.003454384859651327, -0.003352701896801591, -0.0032510189339518547, -0.003149335738271475, -0.0030476527754217386, -0.0029459698125720024, -0.0028442866168916225, -0.0027426036540418863, -0.0026409204583615065, -0.0025392374955117702, -0.002437554532662034, -0.002335871336981654, -0.002234188374131918, -0.002132505178451538, -0.0020308224484324455, -0.0019291393691673875, -0.0018274564063176513, -0.0017257733270525932, -0.0016240902477875352, -0.0015224071685224771, -0.001420724205672741, -0.001319041126407683, -0.0012173580471426249, -0.0011156749678775668, -0.0010139920050278306, -0.0009123089257627726, -0.0008106258464977145, -0.0007089428254403174, -0.0006072598043829203, -0.0005055767251178622, -0.0004038937040604651, -0.0003022106538992375, -0.00020052761828992516, -9.88445826806128e-05, 2.8384674806147814e-06, 0.00010452151764184237, 0.0002062045386992395, 0.00030788761796429753, 0.00040957063902169466, 0.0005112536600790918, 0.0006129367393441498, 0.000714619760401547, 0.000816302839666605, 0.0009179858607240021, 0.0010196688817813993, 0.0011213519610464573, 0.0012230349238961935, 0.0013247180031612515, 0.0014264009660109878, 0.0015280840452760458, 0.0016297671245411038, 0.0017314502038061619, 0.001833133166655898, 0.0019348162459209561, 0.002036499325186014]}, "gradients/graph_4taskmapper.lins.0.weight": {"_type": "histogram", "values": [1.0, 0.0, 0.0, 0.0, 0.0, 0.0, 1.0, 1.0, 0.0, 1.0, 0.0, 0.0, 0.0, 0.0, 0.0, 1.0, 4.0, 1.0, 0.0, 1.0, 1.0, 1.0, 2.0, 2.0, 2.0, 5.0, 5.0, 2.0, 6.0, 3.0, 6.0, 2.0, 10.0, 16.0, 10.0, 17.0, 24.0, 20.0, 66.0, 204.0, 113.0, 49.0, 38.0, 37.0, 31.0, 18.0, 11.0, 11.0, 10.0, 7.0, 2.0, 5.0, 2.0, 4.0, 2.0, 2.0, 4.0, 3.0, 1.0, 1.0, 0.0, 0.0, 1.0, 1.0], "bins": [-0.002711729146540165, -0.002643840154632926, -0.0025759509298950434, -0.0025080619379878044, -0.002440172713249922, -0.002372283721342683, -0.0023043944966048002, -0.0022365055046975613, -0.0021686162799596786, -0.0021007272880524397, -0.002032838063314557, -0.001964949071407318, -0.0018970598466694355, -0.0018291708547621965, -0.0017612817464396358, -0.001693392638117075, -0.001625503646209836, -0.0015576145378872752, -0.0014897254295647144, -0.0014218363212421536, -0.0013539472129195929, -0.001286058221012354, -0.0012181691126897931, -0.0011502800043672323, -0.0010823908960446715, -0.0010145017877221107, -0.00094661267939955, -0.0008787236292846501, -0.0008108345209620893, -0.0007429454126395285, -0.0006750563625246286, -0.0006071672542020679, -0.0005392783787101507, -0.00047138927038758993, -0.0004035001911688596, -0.00033561111195012927, -0.0002677220036275685, -0.0001998328953050077, -0.00013194381608627737, -6.405473686754704e-05, 3.834371455013752e-06, 7.172346522565931e-05, 0.00013961255899630487, 0.00020750165276695043, 0.000275390746537596, 0.0003432798548601568, 0.0004111689340788871, 0.00047905801329761744, 0.0005469471216201782, 0.000614836229942739, 0.0006827253382652998, 0.0007506143883801997, 0.0008185034967027605, 0.0008863926050253212, 0.0009542816551402211, 0.001022170763462782, 0.0010900598717853427, 0.0011579489801079035, 0.0012258380884304643, 0.001293727196753025, 0.001361616188660264, 0.0014295054133981466, 0.0014973944053053856, 0.0015652835136279464, 0.0016331726219505072]}, "gradients/graph_4_projector.0.bias": {"_type": "histogram", "values": [1.0, 1.0, 0.0, 0.0, 0.0, 0.0, 0.0, 1.0, 1.0, 1.0, 0.0, 1.0, 1.0, 0.0, 0.0, 1.0, 0.0, 1.0, 1.0, 0.0, 0.0, 2.0, 0.0, 1.0, 0.0, 1.0, 2.0, 1.0, 0.0, 0.0, 0.0, 1.0, 1.0, 1.0, 0.0, 2.0, 1.0, 1.0, 1.0, 1.0, 0.0, 2.0, 1.0, 0.0, 0.0, 0.0, 1.0, 0.0, 0.0, 0.0, 1.0, 0.0, 0.0, 0.0, 0.0, 0.0, 0.0, 0.0, 0.0, 0.0, 0.0, 0.0, 0.0, 1.0], "bins": [-0.04191301390528679, -0.04043479636311531, -0.03895658254623413, -0.03747836500406265, -0.036000147461891174, -0.034521929919719696, -0.033043716102838516, -0.03156549856066704, -0.03008728288114071, -0.02860906720161438, -0.0271308496594429, -0.025652633979916573, -0.024174418300390244, -0.022696200758218765, -0.021217985078692436, -0.019739769399166107, -0.01826155185699463, -0.0167833361774683, -0.015305118635296822, -0.013826902955770493, -0.012348686344921589, -0.010870469734072685, -0.009392254054546356, -0.007914037443697453, -0.006435820832848549, -0.004957604221999645, -0.003479388076812029, -0.0020011719316244125, -0.0005229553207755089, 0.0009552612900733948, 0.002433476969599724, 0.0039116935804486275, 0.005389906466007233, 0.006868123076856136, 0.00834633968770504, 0.009824555367231369, 0.011302771978080273, 0.012780988588929176, 0.014259204268455505, 0.015737421810626984, 0.017215637490153313, 0.01869385316967964, 0.02017207071185112, 0.02165028639137745, 0.023128502070903778, 0.024606719613075256, 0.026084935292601585, 0.027563150972127914, 0.029041368514299393, 0.030519584193825722, 0.03199779987335205, 0.03347601741552353, 0.03495423495769501, 0.036432452499866486, 0.037910666316747665, 0.039388883858919144, 0.040867097675800323, 0.0423453152179718, 0.04382352903485298, 0.04530174657702446, 0.04677996411919594, 0.04825817793607712, 0.049736395478248596, 0.051214613020420074, 0.05269283056259155]}, "gradients/graph_4_projector.0.weight": {"_type": "histogram", "values": [1.0, 0.0, 0.0, 1.0, 0.0, 0.0, 2.0, 2.0, 3.0, 0.0, 3.0, 6.0, 5.0, 4.0, 11.0, 14.0, 19.0, 22.0, 15.0, 29.0, 31.0, 36.0, 41.0, 57.0, 56.0, 62.0, 60.0, 97.0, 73.0, 98.0, 85.0, 91.0, 96.0, 105.0, 84.0, 78.0, 89.0, 93.0, 83.0, 66.0, 60.0, 53.0, 46.0, 44.0, 38.0, 35.0, 26.0, 27.0, 29.0, 18.0, 9.0, 12.0, 10.0, 9.0, 3.0, 5.0, 0.0, 2.0, 0.0, 1.0, 0.0, 0.0, 1.0, 2.0], "bins": [-0.051048051565885544, -0.049515657126903534, -0.047983262687921524, -0.046450868248939514, -0.0449184775352478, -0.04338608309626579, -0.04185368865728378, -0.04032129421830177, -0.03878889977931976, -0.03725650534033775, -0.03572411090135574, -0.034191716462373734, -0.032659322023391724, -0.031126929447054863, -0.029594536870718002, -0.028062142431735992, -0.026529747992753983, -0.024997353553771973, -0.023464959114789963, -0.021932566538453102, -0.020400172099471092, -0.018867777660489082, -0.01733538508415222, -0.015802990645170212, -0.014270596206188202, -0.012738201767206192, -0.011205808259546757, -0.009673414751887321, -0.008141020312905312, -0.006608626339584589, -0.005076232366263866, -0.003543838858604431, -0.0020114481449127197, -0.00047905417159199715, 0.0010533398017287254, 0.002585733775049448, 0.004118127748370171, 0.005650521721690893, 0.007182915695011616, 0.008715309202671051, 0.010247703641653061, 0.01178009808063507, 0.013312491588294506, 0.014844885095953941, 0.01637727953493595, 0.01790967397391796, 0.019442066550254822, 0.02097446098923683, 0.02250685542821884, 0.02403924986720085, 0.02557164430618286, 0.027104036882519722, 0.028636431321501732, 0.030168825760483742, 0.0317012183368206, 0.03323361277580261, 0.03476600721478462, 0.03629840165376663, 0.03783079609274864, 0.03936319053173065, 0.04089558124542236, 0.04242797568440437, 0.04396037012338638, 0.04549276456236839, 0.0470251590013504]}, "gradients/graph_4_encoder.encoder.8.bias": {"_type": "histogram", "values": [1.0, 0.0, 1.0, 0.0, 0.0, 0.0, 0.0, 0.0, 0.0, 2.0, 0.0, 0.0, 1.0, 1.0, 0.0, 0.0, 1.0, 0.0, 1.0, 1.0, 1.0, 0.0, 0.0, 2.0, 0.0, 3.0, 3.0, 4.0, 3.0, 1.0, 0.0, 2.0, 0.0, 5.0, 1.0, 2.0, 1.0, 1.0, 1.0, 2.0, 2.0, 4.0, 3.0, 1.0, 3.0, 1.0, 4.0, 0.0, 0.0, 1.0, 0.0, 1.0, 1.0, 0.0, 1.0, 0.0, 0.0, 0.0, 0.0, 0.0, 0.0, 0.0, 0.0, 1.0], "bins": [-0.04042670130729675, -0.03920602425932884, -0.03798534348607063, -0.03676466643810272, -0.03554398566484451, -0.0343233086168766, -0.03310263156890869, -0.03188195079565048, -0.03066127374768257, -0.02944059483706951, -0.02821991592645645, -0.02699923887848854, -0.02577855996787548, -0.02455788105726242, -0.02333720400929451, -0.02211652509868145, -0.02089584618806839, -0.01967516727745533, -0.01845448836684227, -0.01723381131887436, -0.0160131324082613, -0.01479245349764824, -0.013571775518357754, -0.012351097539067268, -0.011130418628454208, -0.009909739717841148, -0.008689061738550663, -0.00746838329359889, -0.006247704848647118, -0.005027026403695345, -0.0038063479587435722, -0.002585669979453087, -0.0013649873435497284, -0.0001443088985979557, 0.001076369546353817, 0.0022970479913055897, 0.0035177264362573624, 0.004738404881209135, 0.005959083326160908, 0.007179761305451393, 0.008400440216064453, 0.009621119126677513, 0.010841797105967999, 0.012062475085258484, 0.013283153995871544, 0.014503832906484604, 0.015724509954452515, 0.016945188865065575, 0.018165867775678635, 0.019386546686291695, 0.020607225596904755, 0.021827902644872665, 0.023048581555485725, 0.024269260466098785, 0.025489937514066696, 0.026710616424679756, 0.027931295335292816, 0.029151974245905876, 0.030372653156518936, 0.03159333020448685, 0.032814010977745056, 0.03403468802571297, 0.03525536507368088, 0.03647604584693909, 0.037696722894907]}, "gradients/graph_4_encoder.encoder.8.weight": {"_type": "histogram", "values": [3.0, 2.0, 1.0, 1.0, 1.0, 2.0, 2.0, 6.0, 2.0, 10.0, 8.0, 13.0, 10.0, 19.0, 23.0, 28.0, 38.0, 56.0, 51.0, 66.0, 77.0, 127.0, 136.0, 178.0, 197.0, 226.0, 302.0, 343.0, 408.0, 471.0, 509.0, 494.0, 550.0, 510.0, 453.0, 452.0, 393.0, 339.0, 310.0, 265.0, 214.0, 168.0, 136.0, 131.0, 75.0, 99.0, 79.0, 44.0, 40.0, 34.0, 23.0, 17.0, 11.0, 8.0, 8.0, 6.0, 6.0, 4.0, 2.0, 1.0, 0.0, 1.0, 2.0, 1.0], "bins": [-0.05324913561344147, -0.05161016434431076, -0.049971193075180054, -0.04833222180604935, -0.04669325053691864, -0.04505427926778793, -0.04341530799865723, -0.04177633672952652, -0.04013736546039581, -0.038498394191265106, -0.0368594229221344, -0.03522045165300369, -0.033581480383872986, -0.03194250911474228, -0.030303537845611572, -0.028664566576480865, -0.02702559530735016, -0.025386624038219452, -0.023747652769088745, -0.02210868149995804, -0.02046971023082733, -0.018830738961696625, -0.017191767692565918, -0.015552796423435211, -0.013913825154304504, -0.012274853885173798, -0.01063588261604309, -0.008996911346912384, -0.007357940077781677, -0.0057189688086509705, -0.004079997539520264, -0.002441026270389557, -0.0008020550012588501, 0.0008369162678718567, 0.0024758875370025635, 0.00411485880613327, 0.005753830075263977, 0.007392801344394684, 0.00903177261352539, 0.010670743882656097, 0.012309715151786804, 0.013948686420917511, 0.015587657690048218, 0.017226628959178925, 0.01886560022830963, 0.020504571497440338, 0.022143542766571045, 0.02378251403570175, 0.02542148530483246, 0.027060456573963165, 0.028699427843093872, 0.03033839911222458, 0.031977370381355286, 0.03361634165048599, 0.0352553129196167, 0.036894284188747406, 0.03853325545787811, 0.04017222672700882, 0.041811197996139526, 0.04345016926527023, 0.04508914053440094, 0.04672811180353165, 0.048367083072662354, 0.05000605434179306, 0.05164502561092377]}, "gradients/graph_4_encoder.encoder.5.weight": {"_type": "histogram", "values": [1.0, 0.0, 0.0, 0.0, 0.0, 0.0, 1.0, 0.0, 1.0, 0.0, 3.0, 0.0, 1.0, 0.0, 0.0, 1.0, 0.0, 1.0, 2.0, 1.0, 3.0, 6.0, 2.0, 1.0, 2.0, 5.0, 8.0, 1.0, 5.0, 3.0, 1.0, 3.0, 0.0, 5.0, 6.0, 3.0, 1.0, 5.0, 6.0, 6.0, 2.0, 5.0, 3.0, 4.0, 2.0, 5.0, 4.0, 2.0, 1.0, 1.0, 1.0, 2.0, 2.0, 0.0, 2.0, 0.0, 1.0, 3.0, 1.0, 0.0, 1.0, 0.0, 0.0, 2.0], "bins": [-0.01487363874912262, -0.014451506547629833, -0.014029374346137047, -0.013607243075966835, -0.013185110874474049, -0.012762978672981262, -0.012340846471488476, -0.01191871426999569, -0.011496582999825478, -0.011074450798332691, -0.010652318596839905, -0.010230187326669693, -0.009808055125176907, -0.00938592292368412, -0.008963790722191334, -0.008541658520698547, -0.008119526319205761, -0.0076973941177129745, -0.0072752623818814754, -0.006853130180388689, -0.00643099844455719, -0.0060088662430644035, -0.005586734041571617, -0.005164601840078831, -0.004742470104247332, -0.004320337902754545, -0.003898206166923046, -0.0034760739654302597, -0.003053941996768117, -0.002631810028105974, -0.002209677826613188, -0.001787545857951045, -0.0013654138892889023, -0.0009432818624190986, -0.000521149835549295, -9.901775047183037e-05, 0.0003231142181903124, 0.0007452461868524551, 0.0011673783883452415, 0.0015895103570073843, 0.002011642325669527, 0.00243377429433167, 0.0028559062629938126, 0.003278038464486599, 0.0037001704331487417, 0.0041223024018108845, 0.004544434603303671, 0.00496656633913517, 0.005388698540627956, 0.005810830742120743, 0.006232962477952242, 0.006655094679445028, 0.007077226415276527, 0.007499358616769314, 0.0079214908182621, 0.008343623019754887, 0.008765755221247673, 0.00918788742274046, 0.009610019624233246, 0.010032150894403458, 0.010454283095896244, 0.01087641529738903, 0.011298547498881817, 0.011720679700374603, 0.012142810970544815]}, "gradients/graph_4_encoder.encoder.5.bias": {"_type": "histogram", "values": [1.0, 0.0, 0.0, 0.0, 0.0, 0.0, 0.0, 2.0, 1.0, 2.0, 3.0, 1.0, 1.0, 0.0, 4.0, 2.0, 3.0, 4.0, 1.0, 4.0, 8.0, 7.0, 5.0, 9.0, 2.0, 5.0, 1.0, 4.0, 3.0, 3.0, 3.0, 5.0, 5.0, 8.0, 7.0, 3.0, 3.0, 1.0, 4.0, 2.0, 3.0, 0.0, 0.0, 2.0, 1.0, 1.0, 2.0, 1.0, 0.0, 0.0, 0.0, 0.0, 0.0, 0.0, 0.0, 0.0, 0.0, 0.0, 0.0, 0.0, 0.0, 0.0, 0.0, 1.0], "bins": [-0.017963502556085587, -0.017259296029806137, -0.016555089503526688, -0.015850882977247238, -0.015146676450967789, -0.01444246992468834, -0.013738264329731464, -0.013034057803452015, -0.012329851277172565, -0.011625644750893116, -0.010921438224613667, -0.010217232629656792, -0.009513026103377342, -0.008808819577097893, -0.008104613050818443, -0.007400406524538994, -0.006696199998259544, -0.005991993471980095, -0.0052877869457006454, -0.004583580885082483, -0.003879374358803034, -0.0031751678325235844, -0.002470961771905422, -0.0017667552456259727, -0.0010625487193465233, -0.00035834230948239565, 0.000345864100381732, 0.0010500703938305378, 0.0017542769201099873, 0.0024584834463894367, 0.003162689507007599, 0.0038668960332870483, 0.004571104422211647, 0.0052753109484910965, 0.005979517474770546, 0.006683723535388708, 0.007387930061668158, 0.008092137053608894, 0.00879634264856577, 0.009500549174845219, 0.010204755701124668, 0.010908962227404118, 0.011613168753683567, 0.012317374348640442, 0.013021580874919891, 0.01372578740119934, 0.01442999392747879, 0.01513420045375824, 0.01583840698003769, 0.01654261350631714, 0.017246820032596588, 0.017951026558876038, 0.018655233085155487, 0.019359439611434937, 0.020063646137714386, 0.020767852663993835, 0.021472059190273285, 0.022176265716552734, 0.022880472242832184, 0.023584678769111633, 0.024288885295391083, 0.024993091821670532, 0.02569729834794998, 0.02640150487422943, 0.02710570953786373]}, "gradients/graph_4_encoder.encoder.4.bias": {"_type": "histogram", "values": [1.0, 1.0, 0.0, 1.0, 0.0, 1.0, 1.0, 1.0, 4.0, 3.0, 1.0, 4.0, 2.0, 2.0, 11.0, 5.0, 2.0, 1.0, 5.0, 9.0, 9.0, 6.0, 5.0, 5.0, 8.0, 3.0, 8.0, 3.0, 1.0, 5.0, 4.0, 3.0, 2.0, 0.0, 3.0, 2.0, 0.0, 0.0, 0.0, 0.0, 0.0, 0.0, 2.0, 0.0, 0.0, 2.0, 0.0, 0.0, 0.0, 0.0, 0.0, 1.0, 0.0, 0.0, 0.0, 0.0, 0.0, 0.0, 0.0, 0.0, 0.0, 0.0, 0.0, 1.0], "bins": [-7.566995918750763e-09, -7.226844900287688e-09, -6.886693881824613e-09, -6.5465428633615375e-09, -6.206391844898462e-09, -5.866240826435387e-09, -5.526089807972312e-09, -5.185938789509237e-09, -4.845787771046162e-09, -4.5056367525830865e-09, -4.165485734120011e-09, -3.825334715656936e-09, -3.485183697193861e-09, -3.145032678730786e-09, -2.8048816602677107e-09, -2.4647306418046355e-09, -2.1245796233415604e-09, -1.7844286048784852e-09, -1.44427758641541e-09, -1.1041265679523349e-09, -7.639755494892597e-10, -4.2382453102618456e-10, -8.36735125631094e-11, 2.5647750589996576e-10, 5.966285243630409e-10, 9.36779542826116e-10, 1.2769305612891912e-09, 1.6170815797522664e-09, 1.9572325982153416e-09, 2.2973836166784167e-09, 2.637534635141492e-09, 2.977685653604567e-09, 3.3178366720676422e-09, 3.6579876905307174e-09, 3.9981387089937925e-09, 4.338289727456868e-09, 4.678440745919943e-09, 5.018591764383018e-09, 5.358742782846093e-09, 5.698893801309168e-09, 6.0390448197722435e-09, 6.379195838235319e-09, 6.719346856698394e-09, 7.059497875161469e-09, 7.399648893624544e-09, 7.73979991208762e-09, 8.079950930550694e-09, 8.42010194901377e-09, 8.760252967476845e-09, 9.10040398593992e-09, 9.440555004402995e-09, 9.78070602286607e-09, 1.0120857041329145e-08, 1.046100805979222e-08, 1.0801159078255296e-08, 1.1141310096718371e-08, 1.1481461115181446e-08, 1.1821612133644521e-08, 1.2161763152107596e-08, 1.2501914170570672e-08, 1.2842065189033747e-08, 1.3182216207496822e-08, 1.3522367225959897e-08, 1.3862518244422972e-08, 1.4202669262886047e-08]}, "gradients/graph_4_encoder.encoder.4.weight": {"_type": "histogram", "values": [1.0, 0.0, 0.0, 0.0, 0.0, 3.0, 1.0, 5.0, 4.0, 11.0, 8.0, 11.0, 14.0, 25.0, 40.0, 46.0, 66.0, 99.0, 162.0, 176.0, 253.0, 353.0, 386.0, 571.0, 707.0, 873.0, 1197.0, 1386.0, 1645.0, 2000.0, 2200.0, 2377.0, 2551.0, 2452.0, 2309.0, 2123.0, 1812.0, 1454.0, 1247.0, 968.0, 752.0, 623.0, 460.0, 369.0, 264.0, 208.0, 124.0, 124.0, 76.0, 58.0, 48.0, 37.0, 30.0, 13.0, 14.0, 9.0, 5.0, 4.0, 3.0, 4.0, 4.0, 1.0, 0.0, 2.0], "bins": [-0.05946885794401169, -0.05765818804502487, -0.055847518146038055, -0.05403684824705124, -0.05222617834806442, -0.050415508449077606, -0.04860483482480049, -0.046794164925813675, -0.04498349502682686, -0.04317282512784004, -0.041362155228853226, -0.03955148532986641, -0.037740811705589294, -0.03593014180660248, -0.03411947190761566, -0.032308802008628845, -0.03049813210964203, -0.028687462210655212, -0.026876792311668396, -0.02506612055003643, -0.023255450651049614, -0.021444780752062798, -0.019634108990430832, -0.017823439091444016, -0.0160127691924572, -0.014202099293470383, -0.012391428463160992, -0.0105807576328516, -0.008770087733864784, -0.006959417834877968, -0.005148747004568577, -0.003338076174259186, -0.0015274062752723694, 0.00028326408937573433, 0.002093934454023838, 0.0039046048186719418, 0.0057152751833200455, 0.007525945082306862, 0.009336615912616253, 0.011147286742925644, 0.01295795664191246, 0.014768626540899277, 0.016579296439886093, 0.01838996820151806, 0.020200638100504875, 0.02201130799949169, 0.023821979761123657, 0.025632649660110474, 0.02744331955909729, 0.029253989458084106, 0.031064659357070923, 0.03287532925605774, 0.034685999155044556, 0.03649666905403137, 0.03830734267830849, 0.0401180125772953, 0.04192868247628212, 0.043739352375268936, 0.04555002227425575, 0.04736069217324257, 0.049171365797519684, 0.0509820356965065, 0.05279270559549332, 0.05460337549448013, 0.05641404539346695]}, "gradients/graph_4_encoder.encoder.1.weight": {"_type": "histogram", "values": [1.0, 0.0, 0.0, 1.0, 1.0, 1.0, 0.0, 0.0, 3.0, 1.0, 1.0, 0.0, 1.0, 6.0, 2.0, 2.0, 1.0, 4.0, 2.0, 3.0, 3.0, 2.0, 7.0, 11.0, 7.0, 6.0, 10.0, 9.0, 7.0, 7.0, 8.0, 5.0, 8.0, 10.0, 12.0, 9.0, 10.0, 7.0, 8.0, 3.0, 12.0, 13.0, 7.0, 5.0, 6.0, 2.0, 4.0, 2.0, 4.0, 5.0, 2.0, 1.0, 1.0, 4.0, 2.0, 1.0, 1.0, 2.0, 0.0, 0.0, 1.0, 0.0, 1.0, 1.0], "bins": [-0.013683944009244442, -0.013272242620587349, -0.01286054216325283, -0.012448840774595737, -0.012037140317261219, -0.011625438928604126, -0.011213738471269608, -0.010802037082612514, -0.010390335693955421, -0.009978634305298328, -0.00956693384796381, -0.009155232459306717, -0.008743532001972198, -0.008331830613315105, -0.007920129224658012, -0.007508428767323494, -0.0070967283099889755, -0.00668502738699317, -0.006273326463997364, -0.005861625075340271, -0.0054499246180057526, -0.0050382232293486595, -0.004626522306352854, -0.004214821383357048, -0.0038031204603612423, -0.0033914195373654366, -0.002979718614369631, -0.0025680174585431814, -0.0021563165355473757, -0.00174461561255157, -0.0013329144567251205, -0.0009212135337293148, -0.0005095135420560837, -9.781256085261703e-05, 0.00031388842035084963, 0.0007255894597619772, 0.001137290382757783, 0.0015489913057535887, 0.001960692461580038, 0.002372393384575844, 0.0027840943075716496, 0.0031957952305674553, 0.003607496153563261, 0.004019197076559067, 0.00443089846521616, 0.004842598922550678, 0.005254300311207771, 0.005666001234203577, 0.006077702157199383, 0.0064894030801951885, 0.006901104003190994, 0.007312805391848087, 0.007724505849182606, 0.008136207237839699, 0.008547907695174217, 0.00895960908383131, 0.009371310472488403, 0.009783011861145496, 0.010194712318480015, 0.010606413707137108, 0.011018114164471626, 0.01142981555312872, 0.011841516941785812, 0.01225321739912033, 0.01266491785645485]}, "gradients/graph_4_encoder.encoder.1.bias": {"_type": "histogram", "values": [2.0, 0.0, 1.0, 0.0, 1.0, 1.0, 0.0, 0.0, 2.0, 2.0, 2.0, 2.0, 3.0, 4.0, 5.0, 2.0, 8.0, 8.0, 3.0, 10.0, 5.0, 7.0, 9.0, 8.0, 14.0, 14.0, 10.0, 9.0, 14.0, 6.0, 13.0, 9.0, 9.0, 8.0, 6.0, 12.0, 7.0, 5.0, 4.0, 10.0, 7.0, 2.0, 1.0, 1.0, 2.0, 1.0, 0.0, 1.0, 0.0, 0.0, 0.0, 0.0, 3.0, 0.0, 1.0, 0.0, 0.0, 0.0, 0.0, 0.0, 0.0, 0.0, 1.0, 1.0], "bins": [-0.01769147627055645, -0.017031898722052574, -0.0163723211735487, -0.015712743625044823, -0.015053166076540947, -0.014393588528037071, -0.013734010979533195, -0.01307443343102932, -0.012414855882525444, -0.011755278334021568, -0.011095700785517693, -0.010436123237013817, -0.009776545688509941, -0.009116968140006065, -0.00845739059150219, -0.007797813508659601, -0.007138236425817013, -0.006478658877313137, -0.005819081328809261, -0.005159503780305386, -0.00449992623180151, -0.0038403489161282778, -0.0031807716004550457, -0.00252119405195117, -0.0018616165034472942, -0.0012020389549434185, -0.0005424615228548646, 0.00011711590923368931, 0.000776693457737565, 0.0014362710062414408, 0.002095848321914673, 0.0027554258704185486, 0.0034150034189224243, 0.0040745809674263, 0.004734158515930176, 0.0053937360644340515, 0.006053313612937927, 0.006712891161441803, 0.007372468244284391, 0.008032046258449554, 0.00869162380695343, 0.009351201355457306, 0.010010778903961182, 0.010670356452465057, 0.011329934000968933, 0.011989511549472809, 0.012649089097976685, 0.01330866664648056, 0.013968243263661861, 0.014627820812165737, 0.015287398360669613, 0.015946974977850914, 0.01660655252635479, 0.017266130074858665, 0.01792570762336254, 0.018585285171866417, 0.019244862720370293, 0.01990444026887417, 0.020564017817378044, 0.02122359536588192, 0.021883172914385796, 0.02254275046288967, 0.023202328011393547, 0.023861905559897423, 0.0245214831084013]}, "gradients/graph_4_encoder.encoder.0.bias": {"_type": "histogram", "values": [1.0, 1.0, 1.0, 1.0, 0.0, 1.0, 0.0, 0.0, 0.0, 3.0, 2.0, 2.0, 1.0, 2.0, 0.0, 6.0, 3.0, 3.0, 8.0, 8.0, 3.0, 5.0, 5.0, 12.0, 8.0, 13.0, 10.0, 16.0, 8.0, 11.0, 13.0, 10.0, 12.0, 5.0, 12.0, 8.0, 8.0, 8.0, 7.0, 3.0, 8.0, 3.0, 3.0, 2.0, 6.0, 1.0, 1.0, 1.0, 1.0, 1.0, 1.0, 1.0, 1.0, 1.0, 2.0, 0.0, 0.0, 0.0, 0.0, 0.0, 1.0, 0.0, 1.0, 1.0], "bins": [-4.470348358154297e-07, -4.316680133342743e-07, -4.163011908531189e-07, -4.009343683719635e-07, -3.855675458908081e-07, -3.702007234096527e-07, -3.548339009284973e-07, -3.394670784473419e-07, -3.241002559661865e-07, -3.0873343348503113e-07, -2.9336661100387573e-07, -2.7799978852272034e-07, -2.6263296604156494e-07, -2.4726614356040955e-07, -2.3189932107925415e-07, -2.1653249859809875e-07, -2.0116567611694336e-07, -1.8579885363578796e-07, -1.7043203115463257e-07, -1.5506520867347717e-07, -1.3969838619232178e-07, -1.2433156371116638e-07, -1.0896474123001099e-07, -9.359791874885559e-08, -7.82310962677002e-08, -6.28642737865448e-08, -4.7497451305389404e-08, -3.213062882423401e-08, -1.6763806343078613e-08, -1.3969838619232178e-09, 1.3969838619232178e-08, 2.9336661100387573e-08, 4.470348358154297e-08, 6.007030606269836e-08, 7.543712854385376e-08, 9.080395102500916e-08, 1.0617077350616455e-07, 1.2153759598731995e-07, 1.3690441846847534e-07, 1.5227124094963074e-07, 1.6763806343078613e-07, 1.8300488591194153e-07, 1.9837170839309692e-07, 2.1373853087425232e-07, 2.2910535335540771e-07, 2.444721758365631e-07, 2.598389983177185e-07, 2.752058207988739e-07, 2.905726432800293e-07, 3.059394657611847e-07, 3.213062882423401e-07, 3.366731107234955e-07, 3.520399332046509e-07, 3.674067556858063e-07, 3.8277357816696167e-07, 3.9814040064811707e-07, 4.1350722312927246e-07, 4.2887404561042786e-07, 4.4424086809158325e-07, 4.5960769057273865e-07, 4.7497451305389404e-07, 4.903413355350494e-07, 5.057081580162048e-07, 5.210749804973602e-07, 5.364418029785156e-07]}, "gradients/graph_4_encoder.encoder.0.weight": {"_type": "histogram", "values": [3.0, 1.0, 1.0, 1.0, 1.0, 4.0, 2.0, 3.0, 5.0, 7.0, 12.0, 18.0, 14.0, 27.0, 42.0, 84.0, 105.0, 157.0, 233.0, 347.0, 524.0, 790.0, 1237.0, 1810.0, 2924.0, 4326.0, 6886.0, 10410.0, 15796.0, 23826.0, 33869.0, 36767.0, 28391.0, 19145.0, 12688.0, 8186.0, 5439.0, 3490.0, 2263.0, 1504.0, 960.0, 654.0, 433.0, 283.0, 177.0, 119.0, 97.0, 56.0, 40.0, 20.0, 20.0, 17.0, 11.0, 9.0, 5.0, 8.0, 2.0, 2.0, 2.0, 0.0, 0.0, 1.0, 1.0, 1.0], "bins": [-0.09611458331346512, -0.09304827451705933, -0.08998196572065353, -0.08691565692424774, -0.08384934812784195, -0.08078303933143616, -0.07771672308444977, -0.07465042173862457, -0.07158410549163818, -0.06851779669523239, -0.0654514878988266, -0.06238517910242081, -0.059318870306015015, -0.05625256150960922, -0.05318624898791313, -0.05011994019150734, -0.047053635120391846, -0.04398732632398605, -0.04092101752758026, -0.03785470873117447, -0.03478839993476868, -0.031722091138362885, -0.028655778616666794, -0.025589469820261, -0.02252316102385521, -0.019456852227449417, -0.016390543431043625, -0.013324232771992683, -0.010257923975586891, -0.007191615179181099, -0.0041253045201301575, -0.0010589957237243652, 0.002007320523262024, 0.0050736297853291035, 0.008139939047396183, 0.01120624877512455, 0.014272557571530342, 0.017338866367936134, 0.020405177026987076, 0.023471485823392868, 0.02653779461979866, 0.029604103416204453, 0.032670412212610245, 0.035736724734306335, 0.03880303353071213, 0.04186934232711792, 0.04493565112352371, 0.048001959919929504, 0.0510682687163353, 0.05413457751274109, 0.05720088630914688, 0.06026719510555267, 0.06333350390195847, 0.06639981269836426, 0.06946612894535065, 0.07253243029117584, 0.07559874653816223, 0.07866505533456802, 0.08173136413097382, 0.08479767292737961, 0.0878639817237854, 0.09093029052019119, 0.09399659931659698, 0.09706291556358337, 0.10012921690940857]}, "_wandb": {"runtime": 140}}