{"train_loss": 0.23092979192733765, "train_ssl_loss": 0.21745318174362183, "train_tsk_loss": 0.013476614840328693, "test_loss": 0.42144981026649475, "test_ssl_loss": 0.4068417251110077, "test_tsk_loss": 0.014608082361519337, "_timestamp": 1697569391.6002848, "_runtime": 294.4516909122467, "_step": 146, "gradients/taskmapper.out.bias": {"_type": "histogram", "values": [0.0, 0.0, 0.0, 0.0, 0.0, 0.0, 0.0, 0.0, 0.0, 0.0, 0.0, 0.0, 0.0, 0.0, 0.0, 0.0, 0.0, 0.0, 0.0, 0.0, 0.0, 0.0, 0.0, 0.0, 0.0, 0.0, 0.0, 0.0, 0.0, 0.0, 0.0, 0.0, 1.0, 0.0, 0.0, 0.0, 0.0, 0.0, 0.0, 0.0, 0.0, 0.0, 0.0, 0.0, 0.0, 0.0, 0.0, 0.0, 0.0, 0.0, 0.0, 0.0, 0.0, 0.0, 0.0, 0.0, 0.0, 0.0, 0.0, 0.0, 0.0, 0.0, 0.0, 0.0], "bins": [0.05888744071125984, 0.05888744071125984, 0.05888744071125984, 0.05888744071125984, 0.05888744071125984, 0.05888744071125984, 0.05888744071125984, 0.05888744071125984, 0.05888744071125984, 0.05888744071125984, 0.05888744071125984, 0.05888744071125984, 0.05888744071125984, 0.05888744071125984, 0.05888744071125984, 0.05888744071125984, 0.05888744071125984, 0.05888744071125984, 0.05888744071125984, 0.05888744071125984, 0.05888744071125984, 0.05888744071125984, 0.05888744071125984, 0.05888744071125984, 0.05888744071125984, 0.05888744071125984, 0.05888744071125984, 0.05888744071125984, 0.05888744071125984, 0.05888744071125984, 0.05888744071125984, 0.05888744071125984, 0.05888744071125984, 0.05888744071125984, 0.05888744071125984, 0.05888744071125984, 0.05888744071125984, 0.05888744071125984, 0.05888744071125984, 0.05888744071125984, 0.05888744071125984, 0.05888744071125984, 0.05888744071125984, 0.05888744071125984, 0.05888744071125984, 0.05888744071125984, 0.05888744071125984, 0.05888744071125984, 0.05888744071125984, 0.05888744071125984, 0.05888744071125984, 0.05888744071125984, 0.05888744071125984, 0.05888744071125984, 0.05888744071125984, 0.05888744071125984, 0.05888744071125984, 0.05888744071125984, 0.05888744071125984, 0.05888744071125984, 0.05888744071125984, 0.05888744071125984, 0.05888744071125984, 0.05888744071125984, 0.05888744071125984]}, "gradients/taskmapper.out.weight": {"_type": "histogram", "values": [4.0, 1.0, 0.0, 0.0, 1.0, 1.0, 0.0, 0.0, 0.0, 1.0, 1.0, 0.0, 0.0, 0.0, 0.0, 0.0, 0.0, 1.0, 0.0, 0.0, 0.0, 0.0, 0.0, 1.0, 0.0, 0.0, 0.0, 0.0, 0.0, 0.0, 0.0, 0.0, 0.0, 1.0, 1.0, 1.0, 0.0, 0.0, 0.0, 0.0, 0.0, 0.0, 0.0, 0.0, 0.0, 0.0, 0.0, 0.0, 0.0, 1.0, 0.0, 0.0, 0.0, 0.0, 0.0, 0.0, 0.0, 0.0, 0.0, 0.0, 0.0, 0.0, 0.0, 1.0], "bins": [-0.0001783367188181728, 0.00015181041089817882, 0.00048195754061453044, 0.0008121046703308821, 0.0011422517709434032, 0.0014723988715559244, 0.0018025460885837674, 0.0021326933056116104, 0.0024628404062241316, 0.0027929875068366528, 0.003123134607449174, 0.003453281708061695, 0.00378342904150486, 0.0041135759092867374, 0.004443723242729902, 0.00477387011051178, 0.005104017443954945, 0.0054341647773981094, 0.005764311645179987, 0.006094458978623152, 0.006424605846405029, 0.006754753179848194, 0.007084900513291359, 0.0074150473810732365, 0.007745194248855114, 0.008075341582298279, 0.008405488915741444, 0.008735635317862034, 0.009065782651305199, 0.009395929984748363, 0.009726077318191528, 0.010056223720312119, 0.010386371053755283, 0.010716518387198448, 0.011046665720641613, 0.011376812122762203, 0.011706959456205368, 0.012037106789648533, 0.012367254123091698, 0.012697400525212288, 0.013027547858655453, 0.013357695192098618, 0.013687842525541782, 0.014017988927662373, 0.014348136261105537, 0.014678283594548702, 0.015008430927991867, 0.015338577330112457, 0.015668725594878197, 0.015998871996998787, 0.016329020261764526, 0.016659166663885117, 0.016989314928650856, 0.017319461330771446, 0.017649607732892036, 0.017979755997657776, 0.018309902399778366, 0.018640048801898956, 0.018970197066664696, 0.019300343468785286, 0.019630491733551025, 0.019960638135671616, 0.020290784537792206, 0.020620932802557945, 0.020951079204678535]}, "gradients/taskmapper.lins.1.bias": {"_type": "histogram", "values": [1.0, 0.0, 0.0, 0.0, 0.0, 1.0, 0.0, 0.0, 0.0, 0.0, 0.0, 0.0, 0.0, 0.0, 0.0, 0.0, 1.0, 0.0, 0.0, 0.0, 0.0, 0.0, 0.0, 0.0, 0.0, 0.0, 0.0, 0.0, 1.0, 0.0, 3.0, 0.0, 0.0, 0.0, 0.0, 0.0, 0.0, 1.0, 0.0, 1.0, 1.0, 0.0, 0.0, 1.0, 0.0, 1.0, 0.0, 0.0, 0.0, 0.0, 0.0, 1.0, 0.0, 0.0, 0.0, 1.0, 0.0, 0.0, 0.0, 0.0, 0.0, 1.0, 0.0, 1.0], "bins": [-0.00994190014898777, -0.009617958217859268, -0.009294016286730766, -0.00897007342427969, -0.008646131493151188, -0.008322189562022686, -0.007998247630894184, -0.007674305699765682, -0.007350363302975893, -0.007026421371847391, -0.006702478975057602, -0.0063785370439291, -0.006054595112800598, -0.005730652716010809, -0.005406710784882307, -0.005082768388092518, -0.004758826456964016, -0.004434884525835514, -0.004110942129045725, -0.003787000197917223, -0.0034630580339580774, -0.003139115869998932, -0.00281517393887043, -0.0024912317749112844, -0.002167289610952139, -0.0018433474469929934, -0.0015194053994491696, -0.001195463351905346, -0.0008715211879462004, -0.0005475790239870548, -0.0002236369764432311, 0.00010030507110059261, 0.00042424723505973816, 0.0007481893408112228, 0.0010721314465627074, 0.0013960734941065311, 0.0017200156580656767, 0.0020439578220248222, 0.002367899753153324, 0.0026918419171124697, 0.0030157840810716152, 0.0033397262450307608, 0.0036636684089899063, 0.003987610340118408, 0.00431155227124691, 0.004635494668036699, 0.004959436599165201, 0.00528337899595499, 0.005607320927083492, 0.005931262858211994, 0.006255205255001783, 0.006579147186130285, 0.0069030895829200745, 0.007227031514048576, 0.007550973445177078, 0.00787491537630558, 0.008198857307434082, 0.008522799238562584, 0.008846741169691086, 0.009170684032142162, 0.009494625963270664, 0.009818567894399166, 0.010142509825527668, 0.01046645175665617, 0.010790394619107246]}, "gradients/taskmapper.lins.1.weight": {"_type": "histogram", "values": [1.0, 0.0, 0.0, 2.0, 1.0, 0.0, 0.0, 0.0, 0.0, 0.0, 0.0, 0.0, 0.0, 0.0, 1.0, 0.0, 0.0, 1.0, 4.0, 0.0, 2.0, 5.0, 1.0, 1.0, 2.0, 5.0, 11.0, 9.0, 17.0, 154.0, 40.0, 28.0, 18.0, 18.0, 9.0, 9.0, 6.0, 5.0, 4.0, 4.0, 5.0, 2.0, 4.0, 1.0, 1.0, 2.0, 2.0, 1.0, 0.0, 1.0, 0.0, 1.0, 1.0, 0.0, 0.0, 1.0, 0.0, 0.0, 0.0, 0.0, 1.0, 0.0, 1.0, 2.0], "bins": [-0.004056822508573532, -0.003920517861843109, -0.0037842136807739735, -0.003647909266874194, -0.003511604852974415, -0.003375300206243992, -0.0032389957923442125, -0.003102691378444433, -0.002966386964544654, -0.0028300825506448746, -0.0026937781367450953, -0.002557473722845316, -0.002421169076114893, -0.0022848648950457573, -0.0021485602483153343, -0.002012255834415555, -0.0018759514205157757, -0.0017396470066159964, -0.001603342592716217, -0.001467038062401116, -0.0013307336485013366, -0.0011944292346015573, -0.001058124704286456, -0.0009218202903866768, -0.0007855158764868975, -0.0006492114625871181, -0.0005129069904796779, -0.00037660254747606814, -0.00024029810447245836, -0.00010399369057267904, 3.231078153476119e-05, 0.00016861525364220142, 0.00030491966754198074, 0.0004412241105455905, 0.0005775285535492003, 0.0007138330256566405, 0.0008501374395564198, 0.0009864418534561992, 0.0011227463837713003, 0.0012590507976710796, 0.001395355211570859, 0.0015316596254706383, 0.0016679640393704176, 0.0018042685696855187, 0.001940572983585298, 0.0020768772810697556, 0.0022131819278001785, 0.002349486341699958, 0.002485790755599737, 0.0026220951694995165, 0.002758399583399296, 0.002894703997299075, 0.0030310084111988544, 0.0031673130579292774, 0.0033036174718290567, 0.003439921885728836, 0.0035762262996286154, 0.0037125307135283947, 0.003848835127428174, 0.003985139541327953, 0.004121444188058376, 0.004257748369127512, 0.004394053015857935, 0.004530357196927071, 0.004666661843657494]}, "gradients/taskmapper.lins.0.bias": {"_type": "histogram", "values": [1.0, 0.0, 0.0, 2.0, 1.0, 0.0, 0.0, 0.0, 1.0, 0.0, 0.0, 1.0, 1.0, 2.0, 0.0, 1.0, 2.0, 0.0, 0.0, 0.0, 0.0, 0.0, 0.0, 0.0, 0.0, 0.0, 1.0, 0.0, 0.0, 1.0, 0.0, 0.0, 0.0, 1.0, 1.0, 0.0, 1.0, 0.0, 0.0, 1.0, 1.0, 1.0, 0.0, 0.0, 0.0, 0.0, 0.0, 1.0, 0.0, 0.0, 0.0, 0.0, 0.0, 1.0, 0.0, 0.0, 0.0, 0.0, 0.0, 0.0, 1.0, 0.0, 0.0, 1.0], "bins": [-0.0022968431003391743, -0.0021241179201751947, -0.001951392856426537, -0.0017786677926778793, -0.0016059426125138998, -0.0014332174323499203, -0.0012604923686012626, -0.0010877673048526049, -0.0009150421246886253, -0.0007423170027323067, -0.0005695918807759881, -0.0003968667588196695, -0.00022414163686335087, -5.141651490703225e-05, 0.00012130860704928637, 0.00029403367079794407, 0.0004667588509619236, 0.0006394839729182422, 0.0008122090948745608, 0.0009849341586232185, 0.001157659338787198, 0.0013303845189511776, 0.0015031095826998353, 0.001675834646448493, 0.0018485598266124725, 0.002021285006776452, 0.0021940101869404316, 0.0023667351342737675, 0.002539460314437747, 0.0027121854946017265, 0.0028849104419350624, 0.003057635622099042, 0.0032303612679243088, 0.0034030864480882883, 0.003575811628252268, 0.0037485365755856037, 0.003921261988580227, 0.004093986935913563, 0.004266711883246899, 0.0044394368305802345, 0.004612162243574858, 0.004784887190908194, 0.004957612603902817, 0.005130337551236153, 0.0053030624985694885, 0.005475787911564112, 0.005648512858897448, 0.005821238271892071, 0.005993963219225407, 0.0061666881665587425, 0.006339413579553366, 0.006512138526886702, 0.006684863939881325, 0.006857588887214661, 0.0070303138345479965, 0.007203038781881332, 0.007375764194875956, 0.0075484891422092915, 0.007721214555203915, 0.00789393950253725, 0.008066664449870586, 0.008239389397203922, 0.008412115275859833, 0.008584840223193169, 0.008757565170526505]}, "gradients/taskmapper.lins.0.weight": {"_type": "histogram", "values": [2.0, 1.0, 0.0, 0.0, 1.0, 4.0, 2.0, 3.0, 0.0, 2.0, 4.0, 6.0, 5.0, 5.0, 12.0, 15.0, 10.0, 15.0, 26.0, 32.0, 39.0, 74.0, 153.0, 90.0, 72.0, 59.0, 34.0, 23.0, 20.0, 14.0, 7.0, 6.0, 3.0, 4.0, 6.0, 2.0, 3.0, 2.0, 2.0, 2.0, 2.0, 0.0, 1.0, 1.0, 0.0, 0.0, 0.0, 0.0, 0.0, 1.0, 1.0, 0.0, 0.0, 0.0, 0.0, 0.0, 1.0, 0.0, 0.0, 0.0, 0.0, 0.0, 0.0, 1.0], "bins": [-0.00315662007778883, -0.0030186220537871122, -0.0028806240297853947, -0.002742626005783677, -0.0026046279817819595, -0.0024666301906108856, -0.002328632166609168, -0.0021906341426074505, -0.002052636118605733, -0.0019146380946040154, -0.0017766400706022978, -0.001638642163015902, -0.0015006441390141845, -0.001362646115012467, -0.0012246482074260712, -0.0010866501834243536, -0.000948652159422636, -0.0008106541354209185, -0.0006726561696268618, -0.0005346582038328052, -0.0003966601798310876, -0.00025866215582937, -0.00012066419003531337, 1.7333775758743286e-05, 0.00015533179976046085, 0.00029332979465834796, 0.0004313277895562351, 0.0005693257553502917, 0.0007073237793520093, 0.0008453218033537269, 0.0009833197109401226, 0.0011213177349418402, 0.0012593157589435577, 0.0013973137829452753, 0.0015353118069469929, 0.0016733097145333886, 0.0018113077385351062, 0.0019493057625368237, 0.0020873036701232195, 0.002225301694124937, 0.0023632997181266546, 0.002501297742128372, 0.0026392957661300898, 0.0027772937901318073, 0.0029152915813028812, 0.0030532898381352425, 0.0031912876293063164, 0.003329285653308034, 0.0034672836773097515, 0.003605281701311469, 0.0037432797253131866, 0.003881277749314904, 0.004019275773316622, 0.004157273564487696, 0.004295271821320057, 0.004433269612491131, 0.004571267403662205, 0.004709265194833279, 0.00484726345166564, 0.004985261242836714, 0.005123259499669075, 0.005261257290840149, 0.00539925554767251, 0.005537253338843584, 0.005675251595675945]}, "gradients/_projector.0.bias": {"_type": "histogram", "values": [1.0, 0.0, 0.0, 0.0, 0.0, 1.0, 0.0, 0.0, 0.0, 0.0, 0.0, 1.0, 0.0, 0.0, 0.0, 0.0, 0.0, 0.0, 1.0, 1.0, 1.0, 0.0, 0.0, 1.0, 0.0, 1.0, 2.0, 1.0, 3.0, 2.0, 0.0, 0.0, 0.0, 0.0, 1.0, 2.0, 1.0, 1.0, 1.0, 0.0, 0.0, 0.0, 0.0, 0.0, 3.0, 1.0, 0.0, 1.0, 0.0, 0.0, 0.0, 1.0, 0.0, 0.0, 0.0, 0.0, 1.0, 0.0, 0.0, 0.0, 0.0, 0.0, 0.0, 3.0], "bins": [-0.07152038812637329, -0.06926331669092178, -0.06700624525547028, -0.06474917382001877, -0.06249210610985756, -0.06023503467440605, -0.05797796696424484, -0.055720895528793335, -0.05346382409334183, -0.05120675265789032, -0.04894968122243881, -0.0466926135122776, -0.044435542076826096, -0.04217847064137459, -0.03992140293121338, -0.03766433149576187, -0.035407260060310364, -0.033150188624858856, -0.030893119052052498, -0.02863604947924614, -0.026378978043794632, -0.024121906608343124, -0.021864837035536766, -0.019607767462730408, -0.0173506960272789, -0.015093625523149967, -0.012836555019021034, -0.010579484514892101, -0.008322414010763168, -0.006065343506634235, -0.0038082730025053024, -0.001551203429698944, 0.0007058605551719666, 0.0029629310593008995, 0.0052200015634298325, 0.007477072067558765, 0.009734142571687698, 0.011991213075816631, 0.014248283579945564, 0.016505353152751923, 0.01876242458820343, 0.021019496023654938, 0.023276565596461296, 0.025533635169267654, 0.027790706604719162, 0.03004777804017067, 0.03230484575033188, 0.034561917185783386, 0.036818988621234894, 0.0390760600566864, 0.04133313149213791, 0.04359019920229912, 0.045847270637750626, 0.04810434207320213, 0.05036140978336334, 0.05261848121881485, 0.05487555265426636, 0.057132624089717865, 0.05938969552516937, 0.06164676323533058, 0.06390383839607239, 0.0661609023809433, 0.0684179738163948, 0.07067504525184631, 0.07293211668729782]}, "gradients/_projector.0.weight": {"_type": "histogram", "values": [1.0, 0.0, 0.0, 0.0, 0.0, 0.0, 2.0, 3.0, 1.0, 2.0, 2.0, 10.0, 11.0, 10.0, 13.0, 22.0, 28.0, 43.0, 61.0, 53.0, 84.0, 101.0, 121.0, 145.0, 183.0, 208.0, 243.0, 273.0, 300.0, 342.0, 329.0, 407.0, 407.0, 446.0, 438.0, 443.0, 399.0, 414.0, 359.0, 355.0, 320.0, 290.0, 268.0, 199.0, 186.0, 149.0, 109.0, 94.0, 76.0, 48.0, 54.0, 31.0, 31.0, 20.0, 11.0, 14.0, 15.0, 9.0, 2.0, 3.0, 1.0, 0.0, 1.0, 2.0], "bins": [-0.046951983124017715, -0.0455896370112896, -0.04422729089856148, -0.04286494478583336, -0.04150260239839554, -0.04014025628566742, -0.0387779101729393, -0.03741556406021118, -0.03605321794748306, -0.034690871834754944, -0.033328525722026825, -0.031966179609298706, -0.030603835359215736, -0.029241489246487617, -0.027879144996404648, -0.02651679888367653, -0.02515445277094841, -0.02379210665822029, -0.022429760545492172, -0.021067416295409203, -0.019705070182681084, -0.018342724069952965, -0.016980379819869995, -0.015618033707141876, -0.014255687594413757, -0.012893341481685638, -0.011530996300280094, -0.01016865111887455, -0.008806305006146431, -0.007443959359079599, -0.006081613712012768, -0.0047192685306072235, -0.003356926143169403, -0.0019945804961025715, -0.0006322348490357399, 0.0007301107980310917, 0.0020924564450979233, 0.003454802092164755, 0.0048171477392315865, 0.006179492920637131, 0.00754183903336525, 0.008904185146093369, 0.010266530327498913, 0.011628875508904457, 0.012991221621632576, 0.014353567734360695, 0.015715911984443665, 0.017078258097171783, 0.018440604209899902, 0.01980295032262802, 0.02116529643535614, 0.02252764068543911, 0.02388998679816723, 0.025252332910895348, 0.026614677160978317, 0.027977023273706436, 0.029339369386434555, 0.030701715499162674, 0.03206406161189079, 0.03342640772461891, 0.03478875011205673, 0.03615109622478485, 0.03751344233751297, 0.03887578845024109, 0.04023813456296921]}, "gradients/_encoder.encoder.4.bias": {"_type": "histogram", "values": [1.0, 0.0, 1.0, 1.0, 0.0, 0.0, 0.0, 1.0, 0.0, 1.0, 1.0, 2.0, 2.0, 1.0, 4.0, 1.0, 3.0, 4.0, 8.0, 9.0, 5.0, 3.0, 6.0, 15.0, 12.0, 15.0, 9.0, 8.0, 9.0, 8.0, 11.0, 7.0, 6.0, 16.0, 8.0, 12.0, 7.0, 5.0, 6.0, 6.0, 5.0, 2.0, 6.0, 5.0, 5.0, 4.0, 1.0, 3.0, 2.0, 5.0, 1.0, 1.0, 0.0, 0.0, 0.0, 0.0, 1.0, 0.0, 0.0, 0.0, 0.0, 0.0, 0.0, 1.0], "bins": [-0.026921387761831284, -0.02606281451880932, -0.025204241275787354, -0.02434566803276539, -0.023487094789743423, -0.02262852154672146, -0.021769948303699493, -0.02091137319803238, -0.020052801817655563, -0.0191942285746336, -0.018335655331611633, -0.01747708208858967, -0.016618508845567703, -0.015759935602545738, -0.014901361428201199, -0.014042788185179234, -0.013184214010834694, -0.012325640767812729, -0.011467067524790764, -0.010608494281768799, -0.009749921038746834, -0.008891347795724869, -0.008032773621380329, -0.007174200378358364, -0.006315627135336399, -0.005457053892314434, -0.004598480649292469, -0.0037399069406092167, -0.0028813336975872517, -0.0020227604545652866, -0.0011641867458820343, -0.0003056135028600693, 0.000552961602807045, 0.0014115349622443318, 0.0022701083216816187, 0.0031286817975342274, 0.003987255040556192, 0.004845828283578157, 0.00570440199226141, 0.006562975235283375, 0.00742154847830534, 0.008280121721327305, 0.00913869496434927, 0.00999726913869381, 0.010855842381715775, 0.01171441562473774, 0.012572988867759705, 0.01343156211078167, 0.014290135353803635, 0.0151487085968256, 0.016007281839847565, 0.01686585508286953, 0.017724428325891495, 0.01858300156891346, 0.019441574811935425, 0.02030014991760254, 0.021158721297979355, 0.02201729454100132, 0.022875867784023285, 0.02373444102704525, 0.024593014270067215, 0.02545158751308918, 0.026310160756111145, 0.02716873586177826, 0.028027309104800224]}, "gradients/_encoder.encoder.4.weight": {"_type": "histogram", "values": [1.0, 1.0, 0.0, 1.0, 1.0, 2.0, 2.0, 1.0, 2.0, 1.0, 10.0, 7.0, 12.0, 16.0, 23.0, 41.0, 33.0, 68.0, 109.0, 166.0, 209.0, 289.0, 408.0, 641.0, 799.0, 1109.0, 1538.0, 2001.0, 2474.0, 3104.0, 3824.0, 4418.0, 4896.0, 5183.0, 5404.0, 5015.0, 4609.0, 4262.0, 3463.0, 2861.0, 2298.0, 1651.0, 1317.0, 937.0, 721.0, 472.0, 357.0, 247.0, 158.0, 106.0, 77.0, 62.0, 48.0, 27.0, 18.0, 9.0, 10.0, 6.0, 4.0, 4.0, 1.0, 1.0, 0.0, 1.0], "bins": [-0.030194442719221115, -0.02931920997798443, -0.02844397909939289, -0.027568746358156204, -0.026693515479564667, -0.02581828273832798, -0.024943049997091293, -0.024067819118499756, -0.02319258823990822, -0.02231735549867153, -0.021442124620079994, -0.020566891878843307, -0.01969166100025177, -0.018816428259015083, -0.017941195517778397, -0.01706596463918686, -0.016190731897950172, -0.01531550008803606, -0.014440268278121948, -0.013565035536885262, -0.012689804658293724, -0.011814571917057037, -0.010939340107142925, -0.010064108297228813, -0.009188876487314701, -0.008313644677400589, -0.007438412867486477, -0.0065631805919110775, -0.005687948781996965, -0.004812716972082853, -0.003937484696507454, -0.003062252886593342, -0.0021870192140340805, -0.0013117872877046466, -0.00043655536137521267, 0.0004386766813695431, 0.0013139084912836552, 0.0021891403011977673, 0.0030643725767731667, 0.003939604386687279, 0.004814836196601391, 0.005690068006515503, 0.006565299816429615, 0.007440532092005014, 0.008315764367580414, 0.009190995246171951, 0.010066227987408638, 0.01094145979732275, 0.011816691607236862, 0.012691923417150974, 0.013567155227065086, 0.014442387968301773, 0.01531761884689331, 0.016192851588129997, 0.017068084329366684, 0.01794331520795822, 0.01881854608654976, 0.019693778827786446, 0.020569009706377983, 0.02144424244761467, 0.022319473326206207, 0.023194706067442894, 0.02406993880867958, 0.024945169687271118, 0.025820402428507805]}, "gradients/_encoder.encoder.1.weight": {"_type": "histogram", "values": [1.0, 1.0, 0.0, 0.0, 1.0, 0.0, 1.0, 0.0, 0.0, 0.0, 0.0, 0.0, 2.0, 0.0, 2.0, 2.0, 5.0, 0.0, 5.0, 1.0, 2.0, 8.0, 12.0, 10.0, 8.0, 9.0, 17.0, 7.0, 15.0, 15.0, 10.0, 17.0, 12.0, 12.0, 7.0, 16.0, 10.0, 5.0, 11.0, 4.0, 6.0, 3.0, 1.0, 4.0, 1.0, 1.0, 1.0, 1.0, 3.0, 0.0, 1.0, 1.0, 2.0, 0.0, 1.0, 1.0, 0.0, 0.0, 0.0, 0.0, 0.0, 0.0, 0.0, 1.0], "bins": [-0.014353584498167038, -0.013887312263250351, -0.01342103909701109, -0.012954766862094402, -0.01248849369585514, -0.012022221460938454, -0.011555949226021767, -0.011089676059782505, -0.010623403824865818, -0.010157131589949131, -0.00969085842370987, -0.009224586188793182, -0.00875831302255392, -0.008292040787637234, -0.007825767621397972, -0.007359495386481285, -0.006893222685903311, -0.0064269499853253365, -0.005960677284747362, -0.005494404584169388, -0.005028132349252701, -0.0045618596486747265, -0.004095586948096752, -0.0036293144803494215, -0.003163041779771447, -0.002696769079193473, -0.002230496611446142, -0.0017642239108681679, -0.0012979513267055154, -0.0008316787425428629, -0.00036540604196488857, 0.00010086642578244209, 0.0005671391263604164, 0.001033411710523069, 0.0014996842946857214, 0.0019659569952636957, 0.0024322294630110264, 0.0028985021635890007, 0.003364774864166975, 0.0038310473319143057, 0.004297319799661636, 0.004763592500239611, 0.005229865200817585, 0.005696137435734272, 0.006162410136312246, 0.006628682836890221, 0.007094955537468195, 0.007561228238046169, 0.008027501404285431, 0.008493773639202118, 0.00896004680544138, 0.009426319040358067, 0.009892592206597328, 0.010358864441514015, 0.010825136676430702, 0.011291409842669964, 0.01175768207758665, 0.012223954312503338, 0.0126902274787426, 0.013156499713659286, 0.013622772879898548, 0.014089045114815235, 0.014555318281054497, 0.015021590515971184, 0.01548786275088787]}, "gradients/_encoder.encoder.1.bias": {"_type": "histogram", "values": [1.0, 0.0, 0.0, 0.0, 0.0, 0.0, 0.0, 0.0, 0.0, 0.0, 2.0, 1.0, 1.0, 1.0, 1.0, 0.0, 1.0, 1.0, 2.0, 0.0, 2.0, 3.0, 1.0, 3.0, 1.0, 7.0, 10.0, 12.0, 10.0, 11.0, 14.0, 12.0, 22.0, 15.0, 13.0, 16.0, 12.0, 5.0, 7.0, 11.0, 11.0, 5.0, 7.0, 3.0, 7.0, 6.0, 8.0, 2.0, 1.0, 0.0, 1.0, 0.0, 3.0, 1.0, 0.0, 1.0, 0.0, 0.0, 1.0, 0.0, 0.0, 0.0, 0.0, 1.0], "bins": [-0.025663845241069794, -0.024918701499700546, -0.0241735577583313, -0.023428412154316902, -0.022683268412947655, -0.021938124671578407, -0.02119297906756401, -0.020447835326194763, -0.019702691584825516, -0.01895754784345627, -0.01821240410208702, -0.017467258498072624, -0.016722114756703377, -0.01597697101533413, -0.015231826342642307, -0.014486681669950485, -0.013741537928581238, -0.01299639418721199, -0.012251249514520168, -0.011506104841828346, -0.010760961100459099, -0.010015817359089851, -0.00927067268639803, -0.008525528013706207, -0.00778038427233696, -0.007035240065306425, -0.00629009585827589, -0.005544951651245356, -0.004799807444214821, -0.004054663237184286, -0.0033095190301537514, -0.0025643748231232166, -0.0018192306160926819, -0.0010740864090621471, -0.0003289422020316124, 0.00041620200499892235, 0.001161346212029457, 0.0019064904190599918, 0.0026516346260905266, 0.0033967788331210613, 0.004141923040151596, 0.004887067247182131, 0.0056322114542126656, 0.0063773556612432, 0.007122499868273735, 0.007867643609642982, 0.008612788282334805, 0.009357932955026627, 0.010103076696395874, 0.010848220437765121, 0.011593365110456944, 0.012338509783148766, 0.013083653524518013, 0.01382879726588726, 0.014573941938579082, 0.015319086611270905, 0.016064230352640152, 0.0168093740940094, 0.017554517835378647, 0.018299663439393044, 0.01904480718076229, 0.01978995092213154, 0.020535096526145935, 0.021280240267515182, 0.02202538400888443]}, "gradients/_encoder.encoder.0.bias": {"_type": "histogram", "values": [1.0, 0.0, 0.0, 0.0, 0.0, 0.0, 0.0, 0.0, 0.0, 0.0, 1.0, 0.0, 1.0, 2.0, 1.0, 1.0, 0.0, 5.0, 1.0, 4.0, 3.0, 5.0, 3.0, 5.0, 3.0, 3.0, 2.0, 9.0, 12.0, 12.0, 12.0, 20.0, 12.0, 11.0, 19.0, 22.0, 12.0, 15.0, 11.0, 7.0, 7.0, 5.0, 4.0, 7.0, 4.0, 3.0, 2.0, 0.0, 2.0, 1.0, 2.0, 0.0, 1.0, 1.0, 0.0, 1.0, 0.0, 0.0, 0.0, 0.0, 0.0, 0.0, 0.0, 1.0], "bins": [-9.834766387939453e-07, -9.548966772854328e-07, -9.263167157769203e-07, -8.977367542684078e-07, -8.691567927598953e-07, -8.405768312513828e-07, -8.119968697428703e-07, -7.834169082343578e-07, -7.548369467258453e-07, -7.262569852173328e-07, -6.976770237088203e-07, -6.690970622003078e-07, -6.405171006917953e-07, -6.119371391832829e-07, -5.833571776747704e-07, -5.547772161662579e-07, -5.261972546577454e-07, -4.976172931492329e-07, -4.6903733164072037e-07, -4.4045737013220787e-07, -4.118774086236954e-07, -3.832974471151829e-07, -3.547174856066704e-07, -3.261375240981579e-07, -2.975575625896454e-07, -2.689776010811329e-07, -2.403976395726204e-07, -2.118176780641079e-07, -1.832377165555954e-07, -1.546577550470829e-07, -1.260777935385704e-07, -9.749783203005791e-08, -6.891787052154541e-08, -4.033790901303291e-08, -1.1757947504520416e-08, 1.682201400399208e-08, 4.540197551250458e-08, 7.398193702101707e-08, 1.0256189852952957e-07, 1.3114186003804207e-07, 1.5972182154655457e-07, 1.8830178305506706e-07, 2.1688174456357956e-07, 2.4546170607209206e-07, 2.7404166758060455e-07, 3.0262162908911705e-07, 3.3120159059762955e-07, 3.5978155210614204e-07, 3.8836151361465454e-07, 4.1694147512316704e-07, 4.4552143663167953e-07, 4.7410139814019203e-07, 5.026813596487045e-07, 5.31261321157217e-07, 5.598412826657295e-07, 5.88421244174242e-07, 6.170012056827545e-07, 6.45581167191267e-07, 6.741611286997795e-07, 7.02741090208292e-07, 7.313210517168045e-07, 7.59901013225317e-07, 7.884809747338295e-07, 8.17060936242342e-07, 8.456408977508545e-07]}, "gradients/_encoder.encoder.0.weight": {"_type": "histogram", "values": [1.0, 1.0, 1.0, 0.0, 1.0, 1.0, 1.0, 4.0, 0.0, 6.0, 9.0, 17.0, 18.0, 20.0, 46.0, 50.0, 64.0, 96.0, 126.0, 238.0, 339.0, 555.0, 889.0, 1634.0, 2825.0, 5147.0, 9437.0, 17603.0, 33241.0, 57954.0, 46474.0, 22850.0, 11687.0, 5781.0, 3105.0, 1528.0, 909.0, 563.0, 369.0, 203.0, 130.0, 105.0, 65.0, 41.0, 26.0, 29.0, 22.0, 14.0, 9.0, 3.0, 2.0, 2.0, 2.0, 5.0, 2.0, 3.0, 0.0, 1.0, 1.0, 0.0, 0.0, 0.0, 0.0, 1.0], "bins": [-0.14189939200878143, -0.13714191317558289, -0.13238441944122314, -0.1276269406080246, -0.12286945432424545, -0.11811196804046631, -0.11335448920726776, -0.10859700292348862, -0.10383951663970947, -0.09908203035593033, -0.09432455152273178, -0.08956706523895264, -0.08480957895517349, -0.08005209267139435, -0.0752946138381958, -0.07053712755441666, -0.06577964872121811, -0.06102216616272926, -0.05626467987895012, -0.05150719732046127, -0.04674971103668213, -0.04199222847819328, -0.03723474591970444, -0.03247725963592529, -0.027719777077436447, -0.022962292656302452, -0.018204808235168457, -0.013447325676679611, -0.008689841255545616, -0.003932356834411621, 0.0008251257240772247, 0.005582612007856369, 0.010340094566345215, 0.01509757898747921, 0.019855063408613205, 0.02461254596710205, 0.029370030388236046, 0.03412751480937004, 0.03888499736785889, 0.04364248365163803, 0.04839996621012688, 0.05315744876861572, 0.05791493505239487, 0.06267242133617401, 0.06742990016937256, 0.0721873864531517, 0.07694487273693085, 0.0817023515701294, 0.08645983785390854, 0.09121732413768768, 0.09597480297088623, 0.10073228925466537, 0.10548977553844452, 0.11024725437164307, 0.11500474065542221, 0.11976222693920135, 0.1245197057723999, 0.12927718460559845, 0.1340346783399582, 0.13879215717315674, 0.14354963600635529, 0.14830712974071503, 0.15306460857391357, 0.15782210230827332, 0.16257958114147186]}}