{"train_loss": 0.4424637258052826, "train_ssl_loss": 0.42730170488357544, "train_tmb_loss": 0.0151620302349329, "test_loss": 0.7513575553894043, "test_ssl_loss": 0.7346318960189819, "test_tmb_loss": 0.016725663095712662, "_timestamp": 1697571376.2887096, "_runtime": 348.78929471969604, "_step": 199, "gradients/graph_1taskmapper.out.bias": {"_type": "histogram", "values": [0.0, 0.0, 0.0, 0.0, 0.0, 0.0, 0.0, 0.0, 0.0, 0.0, 0.0, 0.0, 0.0, 0.0, 0.0, 0.0, 0.0, 0.0, 0.0, 0.0, 0.0, 0.0, 0.0, 0.0, 0.0, 0.0, 0.0, 0.0, 0.0, 0.0, 0.0, 0.0, 1.0, 0.0, 0.0, 0.0, 0.0, 0.0, 0.0, 0.0, 0.0, 0.0, 0.0, 0.0, 0.0, 0.0, 0.0, 0.0, 0.0, 0.0, 0.0, 0.0, 0.0, 0.0, 0.0, 0.0, 0.0, 0.0, 0.0, 0.0, 0.0, 0.0, 0.0, 0.0], "bins": [0.05027197301387787, 0.05027197301387787, 0.05027197301387787, 0.05027197301387787, 0.05027197301387787, 0.05027197301387787, 0.05027197301387787, 0.05027197301387787, 0.05027197301387787, 0.05027197301387787, 0.05027197301387787, 0.05027197301387787, 0.05027197301387787, 0.05027197301387787, 0.05027197301387787, 0.05027197301387787, 0.05027197301387787, 0.05027197301387787, 0.05027197301387787, 0.05027197301387787, 0.05027197301387787, 0.05027197301387787, 0.05027197301387787, 0.05027197301387787, 0.05027197301387787, 0.05027197301387787, 0.05027197301387787, 0.05027197301387787, 0.05027197301387787, 0.05027197301387787, 0.05027197301387787, 0.05027197301387787, 0.05027197301387787, 0.05027197301387787, 0.05027197301387787, 0.05027197301387787, 0.05027197301387787, 0.05027197301387787, 0.05027197301387787, 0.05027197301387787, 0.05027197301387787, 0.05027197301387787, 0.05027197301387787, 0.05027197301387787, 0.05027197301387787, 0.05027197301387787, 0.05027197301387787, 0.05027197301387787, 0.05027197301387787, 0.05027197301387787, 0.05027197301387787, 0.05027197301387787, 0.05027197301387787, 0.05027197301387787, 0.05027197301387787, 0.05027197301387787, 0.05027197301387787, 0.05027197301387787, 0.05027197301387787, 0.05027197301387787, 0.05027197301387787, 0.05027197301387787, 0.05027197301387787, 0.05027197301387787, 0.05027197301387787]}, "gradients/graph_1taskmapper.out.weight": {"_type": "histogram", "values": [4.0, 2.0, 0.0, 0.0, 0.0, 0.0, 1.0, 0.0, 0.0, 2.0, 0.0, 0.0, 0.0, 0.0, 0.0, 0.0, 0.0, 1.0, 0.0, 0.0, 0.0, 0.0, 1.0, 0.0, 0.0, 0.0, 0.0, 0.0, 0.0, 1.0, 0.0, 0.0, 0.0, 0.0, 0.0, 0.0, 0.0, 0.0, 0.0, 0.0, 0.0, 0.0, 0.0, 0.0, 1.0, 0.0, 2.0, 0.0, 0.0, 0.0, 0.0, 0.0, 0.0, 0.0, 0.0, 0.0, 0.0, 0.0, 0.0, 0.0, 0.0, 0.0, 0.0, 1.0], "bins": [-4.4270433136262e-05, 9.184090595226735e-05, 0.0002279522450407967, 0.0003640635986812413, 0.0005001749377697706, 0.0006362862768583, 0.0007723976159468293, 0.0009085089550353587, 0.001044620294123888, 0.0011807316914200783, 0.0013168429723009467, 0.0014529542531818151, 0.0015890656504780054, 0.0017251770477741957, 0.001861288328655064, 0.0019973996095359325, 0.002133511006832123, 0.002269622404128313, 0.0024057338014245033, 0.00254184496589005, 0.00267795636318624, 0.0028140677604824305, 0.002950178924947977, 0.0030862903222441673, 0.0032224017195403576, 0.003358513116836548, 0.003494624514132738, 0.0036307356785982847, 0.003766847075894475, 0.0039029584731906652, 0.004039069637656212, 0.004175181034952402, 0.004311292432248592, 0.004447403829544783, 0.004583515226840973, 0.004719626624137163, 0.004855738021433353, 0.004991848953068256, 0.005127960350364447, 0.005264071747660637, 0.005400183144956827, 0.005536294542253017, 0.005672405939549208, 0.005808517336845398, 0.005944628268480301, 0.006080739665776491, 0.006216851063072681, 0.006352962460368872, 0.006489073857665062, 0.006625185254961252, 0.0067612966522574425, 0.006897408049553633, 0.007033519446849823, 0.007169630378484726, 0.007305741775780916, 0.0074418531730771065, 0.007577964570373297, 0.007714075967669487, 0.00785018689930439, 0.007986298762261868, 0.00812240969389677, 0.008258521556854248, 0.008394632488489151, 0.008530744351446629, 0.008666855283081532]}, "gradients/graph_1taskmapper.lins.1.bias": {"_type": "histogram", "values": [1.0, 1.0, 0.0, 0.0, 1.0, 0.0, 0.0, 0.0, 0.0, 0.0, 0.0, 0.0, 0.0, 1.0, 0.0, 0.0, 4.0, 0.0, 0.0, 2.0, 0.0, 0.0, 0.0, 0.0, 0.0, 0.0, 0.0, 0.0, 1.0, 0.0, 0.0, 0.0, 0.0, 0.0, 0.0, 0.0, 0.0, 0.0, 0.0, 0.0, 0.0, 1.0, 0.0, 0.0, 1.0, 0.0, 0.0, 0.0, 0.0, 0.0, 0.0, 0.0, 0.0, 1.0, 0.0, 0.0, 0.0, 0.0, 0.0, 0.0, 0.0, 1.0, 0.0, 1.0], "bins": [-0.005315736401826143, -0.004994078539311886, -0.004672420676797628, -0.004350762814283371, -0.004029104486107826, -0.003707446623593569, -0.0033857887610793114, -0.0030641306657344103, -0.002742472803220153, -0.0024208149407058954, -0.0020991568453609943, -0.001777498982846737, -0.0014558410039171576, -0.0011341830249875784, -0.000812525162473321, -0.0004908670671284199, -0.00016920920461416245, 0.00015244874521158636, 0.00047410669503733516, 0.0007957646157592535, 0.0011174225946888328, 0.001439080573618412, 0.0017607384361326694, 0.0020823965314775705, 0.002404054393991828, 0.0027257122565060854, 0.0030473703518509865, 0.003369028214365244, 0.0036906860768795013, 0.004012344405055046, 0.004334001801908016, 0.004655660130083561, 0.004977318458259106, 0.005298976320773363, 0.0056206341832876205, 0.005942292511463165, 0.006263950373977423, 0.00658560823649168, 0.006907266099005938, 0.007228923961520195, 0.00755058228969574, 0.007872240617871284, 0.008193898014724255, 0.0085155563428998, 0.00883721373975277, 0.009158872067928314, 0.009480530396103859, 0.009802187792956829, 0.0101238451898098, 0.010445503517985344, 0.010767160914838314, 0.011088819243013859, 0.011410476639866829, 0.011732134968042374, 0.012053793296217918, 0.012375450693070889, 0.012697109021246433, 0.013018767349421978, 0.013340424746274948, 0.013662083074450493, 0.013983740471303463, 0.014305398799479008, 0.014627056196331978, 0.014948714524507523, 0.015270372852683067]}, "gradients/graph_1taskmapper.lins.1.weight": {"_type": "histogram", "values": [2.0, 1.0, 0.0, 1.0, 1.0, 3.0, 1.0, 2.0, 4.0, 4.0, 1.0, 6.0, 2.0, 14.0, 22.0, 22.0, 161.0, 38.0, 17.0, 11.0, 4.0, 4.0, 5.0, 2.0, 6.0, 3.0, 4.0, 3.0, 2.0, 4.0, 3.0, 2.0, 2.0, 2.0, 4.0, 3.0, 0.0, 0.0, 3.0, 0.0, 0.0, 3.0, 0.0, 0.0, 3.0, 0.0, 0.0, 3.0, 1.0, 0.0, 0.0, 0.0, 0.0, 0.0, 0.0, 0.0, 0.0, 1.0, 1.0, 1.0, 0.0, 1.0, 0.0, 1.0], "bins": [-0.0011712172999978065, -0.0011006357381120324, -0.0010300541762262583, -0.0009594724979251623, -0.0008888909360393882, -0.000818309374153614, -0.000747727754060179, -0.000677146133966744, -0.0006065645720809698, -0.0005359830101951957, -0.0004654013901017606, -0.00039481979911215603, -0.00032423820812255144, -0.00025365661713294685, -0.00018307502614334226, -0.00011249340604990721, -4.191184416413307e-05, 2.866974682547152e-05, 9.925133781507611e-05, 0.0001698329288046807, 0.0002404145197942853, 0.0003109961107838899, 0.0003815777017734945, 0.00045215932186692953, 0.0005227408837527037, 0.0005933224456384778, 0.0006639040657319129, 0.0007344856858253479, 0.000805067247711122, 0.0008756488095968962, 0.0009462304296903312, 0.0010168120497837663, 0.0010873936116695404, 0.0011579751735553145, 0.0012285567354410887, 0.0012991384137421846, 0.0013697199756279588, 0.001440301537513733, 0.0015108832158148289, 0.001581464777700603, 0.0016520463395863771, 0.0017226279014721513, 0.0017932094633579254, 0.0018637911416590214, 0.0019343727035447955, 0.0020049542654305696, 0.0020755359437316656, 0.002146117389202118, 0.002216699067503214, 0.00228728074580431, 0.002357862191274762, 0.002428443869575858, 0.0024990253150463104, 0.0025696069933474064, 0.0026401886716485023, 0.0027107703499495983, 0.0027813517954200506, 0.0028519334737211466, 0.002922514919191599, 0.002993096597492695, 0.003063678275793791, 0.003134259721264243, 0.003204841399565339, 0.0032754228450357914, 0.0033460045233368874]}, "gradients/graph_1taskmapper.lins.0.bias": {"_type": "histogram", "values": [1.0, 0.0, 0.0, 0.0, 0.0, 0.0, 0.0, 0.0, 1.0, 1.0, 0.0, 0.0, 0.0, 0.0, 0.0, 0.0, 0.0, 0.0, 0.0, 0.0, 0.0, 1.0, 0.0, 0.0, 0.0, 0.0, 1.0, 2.0, 2.0, 0.0, 0.0, 1.0, 1.0, 0.0, 1.0, 0.0, 0.0, 1.0, 0.0, 1.0, 0.0, 1.0, 0.0, 2.0, 1.0, 0.0, 0.0, 0.0, 0.0, 0.0, 0.0, 0.0, 2.0, 0.0, 0.0, 0.0, 0.0, 0.0, 0.0, 1.0, 0.0, 1.0, 0.0, 2.0], "bins": [-0.004297454375773668, -0.004141008015722036, -0.003984561190009117, -0.003828114829957485, -0.0036716684699058533, -0.0035152218770235777, -0.003358775284141302, -0.00320232892408967, -0.0030458823312073946, -0.002889435738325119, -0.002732989378273487, -0.0025765427853912115, -0.002420096192508936, -0.002263649832457304, -0.0021072032395750284, -0.0019507567631080747, -0.001794310286641121, -0.0016378638101741672, -0.0014814173337072134, -0.0013249707408249378, -0.001168524264357984, -0.0010120777878910303, -0.0008556312532164156, -0.000699184718541801, -0.0005427382420748472, -0.000386291736504063, -0.0002298452309332788, -7.339872536249459e-05, 8.304778020828962e-05, 0.00023949425667524338, 0.00039594079134985805, 0.0005523873260244727, 0.0007088342681527138, 0.0008652807446196675, 0.0010217272210866213, 0.0011781738139688969, 0.0013346202904358506, 0.0014910667669028044, 0.00164751335978508, 0.0018039598362520337, 0.0019604063127189875, 0.002116852905601263, 0.002273299265652895, 0.0024297458585351706, 0.002586192451417446, 0.002742638811469078, 0.0028990854043513536, 0.0030555319972336292, 0.003211978357285261, 0.0033684249501675367, 0.0035248713102191687, 0.0036813179031014442, 0.003837764263153076, 0.003994210623204708, 0.004150657448917627, 0.004307103808969259, 0.0044635506346821785, 0.00461999699473381, 0.00477644382044673, 0.004932890180498362, 0.0050893365405499935, 0.005245783366262913, 0.005402229726314545, 0.005558676086366177, 0.0057151224464178085]}, "gradients/graph_1taskmapper.lins.0.weight": {"_type": "histogram", "values": [1.0, 0.0, 0.0, 0.0, 3.0, 1.0, 0.0, 2.0, 4.0, 4.0, 4.0, 0.0, 6.0, 5.0, 7.0, 4.0, 5.0, 7.0, 2.0, 7.0, 15.0, 8.0, 7.0, 9.0, 21.0, 19.0, 19.0, 32.0, 29.0, 58.0, 55.0, 112.0, 49.0, 46.0, 33.0, 24.0, 17.0, 23.0, 19.0, 15.0, 15.0, 10.0, 11.0, 8.0, 8.0, 7.0, 5.0, 4.0, 4.0, 2.0, 2.0, 3.0, 3.0, 3.0, 4.0, 2.0, 0.0, 2.0, 0.0, 0.0, 1.0, 0.0, 0.0, 2.0], "bins": [-0.0016548142302781343, -0.001601837226189673, -0.0015488601056858897, -0.0014958831015974283, -0.001442905981093645, -0.0013899289770051837, -0.0013369519729167223, -0.001283974852412939, -0.0012309978483244777, -0.0011780208442360163, -0.001125043723732233, -0.0010720667196437716, -0.0010190897155553102, -0.000966112595051527, -0.0009131355909630656, -0.0008601585286669433, -0.000807181466370821, -0.0007542044040746987, -0.0007012273417785764, -0.000648250337690115, -0.0005952732753939927, -0.0005422962130978703, -0.000489319209009409, -0.00043634214671328664, -0.0003833650844171643, -0.000330388022121042, -0.00027741098892875016, -0.00022443394118454307, -0.000171456893440336, -0.00011847983114421368, -6.550279795192182e-05, -1.2525764759629965e-05, 4.045129753649235e-05, 9.342834528069943e-05, 0.00014640539302490652, 0.0001993824407691136, 0.0002523594885133207, 0.000305336550809443, 0.00035831358400173485, 0.0004112906171940267, 0.000464267679490149, 0.0005172447417862713, 0.0005702218040823936, 0.000623198808170855, 0.0006761758704669774, 0.0007291529327630997, 0.0007821299368515611, 0.0008351069991476834, 0.0008880840614438057, 0.000941061123739928, 0.0009940381860360503, 0.0010470151901245117, 0.001099992310628295, 0.0011529693147167563, 0.0012059463188052177, 0.001258923439309001, 0.0013119004433974624, 0.0013648774474859238, 0.001417854567989707, 0.0014708315720781684, 0.0015238085761666298, 0.001576785696670413, 0.0016297627007588744, 0.0016827397048473358, 0.001735716825351119]}, "gradients/graph_1_projector.0.bias": {"_type": "histogram", "values": [1.0, 1.0, 1.0, 1.0, 1.0, 0.0, 1.0, 0.0, 1.0, 0.0, 0.0, 1.0, 1.0, 1.0, 2.0, 0.0, 0.0, 0.0, 0.0, 3.0, 1.0, 0.0, 1.0, 2.0, 0.0, 0.0, 1.0, 1.0, 1.0, 2.0, 0.0, 1.0, 0.0, 1.0, 2.0, 0.0, 0.0, 0.0, 0.0, 0.0, 0.0, 0.0, 0.0, 1.0, 0.0, 0.0, 0.0, 0.0, 0.0, 0.0, 0.0, 0.0, 0.0, 0.0, 0.0, 0.0, 1.0, 0.0, 0.0, 0.0, 0.0, 0.0, 1.0, 1.0], "bins": [-1.5267305374145508, -1.4545646905899048, -1.3823988437652588, -1.3102329969406128, -1.2380671501159668, -1.1659011840820312, -1.0937353372573853, -1.0215694904327393, -0.9494036436080933, -0.8772377967834473, -0.8050719499588013, -0.7329060435295105, -0.6607401967048645, -0.5885743498802185, -0.5164084434509277, -0.44424259662628174, -0.37207674980163574, -0.29991090297698975, -0.22774502635002136, -0.15557916462421417, -0.08341330289840698, -0.011247456073760986, 0.0609184205532074, 0.13308429718017578, 0.20525014400482178, 0.2774159908294678, 0.34958186745643616, 0.42174774408340454, 0.49391359090805054, 0.5660794377326965, 0.6382453441619873, 0.7104111909866333, 0.7825772762298584, 0.8547431230545044, 0.9269089698791504, 0.9990748763084412, 1.0712406635284424, 1.143406629562378, 1.215572476387024, 1.28773832321167, 1.359904170036316, 1.432070016860962, 1.504235863685608, 1.576401710510254, 1.6485676765441895, 1.720733404159546, 1.7928993701934814, 1.8650652170181274, 1.9372310638427734, 2.009397029876709, 2.0815627574920654, 2.153728723526001, 2.2258944511413574, 2.298060417175293, 2.3702261447906494, 2.442392110824585, 2.5145578384399414, 2.586723804473877, 2.6588895320892334, 2.731055498123169, 2.8032212257385254, 2.875387191772461, 2.9475529193878174, 3.019718885421753, 3.0918848514556885]}, "gradients/graph_1_projector.0.weight": {"_type": "histogram", "values": [2.0, 1.0, 1.0, 2.0, 2.0, 3.0, 3.0, 4.0, 5.0, 9.0, 13.0, 15.0, 17.0, 15.0, 23.0, 42.0, 47.0, 72.0, 81.0, 111.0, 140.0, 167.0, 233.0, 274.0, 339.0, 491.0, 587.0, 681.0, 746.0, 739.0, 647.0, 609.0, 428.0, 356.0, 269.0, 208.0, 150.0, 147.0, 113.0, 74.0, 69.0, 53.0, 49.0, 29.0, 25.0, 16.0, 18.0, 17.0, 11.0, 7.0, 5.0, 6.0, 5.0, 1.0, 2.0, 1.0, 4.0, 4.0, 1.0, 0.0, 1.0, 1.0, 0.0, 1.0], "bins": [-0.08038052171468735, -0.0776066929101944, -0.07483285665512085, -0.0720590278506279, -0.06928519904613495, -0.0665113627910614, -0.06373753398656845, -0.0609637014567852, -0.05818986892700195, -0.055416036397218704, -0.052642203867435455, -0.049868375062942505, -0.047094542533159256, -0.04432071000337601, -0.04154688119888306, -0.03877304866909981, -0.03599921613931656, -0.03322538360953331, -0.03045155294239521, -0.02767772227525711, -0.02490388974547386, -0.022130057215690613, -0.019356226548552513, -0.016582395881414413, -0.013808563351631165, -0.01103473175317049, -0.008260900154709816, -0.005487068556249142, -0.0027132369577884674, 6.059464067220688e-05, 0.002834426239132881, 0.005608256906270981, 0.008382096886634827, 0.011155928485095501, 0.013929760083556175, 0.016703590750694275, 0.019477423280477524, 0.022251255810260773, 0.025025086477398872, 0.027798917144536972, 0.03057274967432022, 0.03334658220410347, 0.03612041473388672, 0.03889424353837967, 0.04166807606816292, 0.04444190859794617, 0.04721573740243912, 0.049989569932222366, 0.052763402462005615, 0.055537234991788864, 0.05831106752157211, 0.061084896326065063, 0.06385873258113861, 0.06663256138563156, 0.06940639019012451, 0.07218022644519806, 0.07495405524969101, 0.07772788405418396, 0.08050172030925751, 0.08327554911375046, 0.08604937791824341, 0.08882321417331696, 0.0915970429778099, 0.09437087178230286, 0.0971447080373764]}, "gradients/graph_1_encoder.encoder.0.bias": {"_type": "histogram", "values": [1.0, 0.0, 0.0, 0.0, 0.0, 1.0, 0.0, 2.0, 0.0, 0.0, 3.0, 1.0, 1.0, 1.0, 2.0, 3.0, 1.0, 4.0, 4.0, 2.0, 4.0, 7.0, 5.0, 11.0, 4.0, 8.0, 8.0, 16.0, 5.0, 5.0, 9.0, 5.0, 9.0, 14.0, 16.0, 8.0, 8.0, 14.0, 6.0, 8.0, 8.0, 6.0, 5.0, 5.0, 3.0, 3.0, 4.0, 5.0, 7.0, 1.0, 2.0, 2.0, 3.0, 0.0, 1.0, 2.0, 0.0, 0.0, 1.0, 1.0, 0.0, 0.0, 0.0, 1.0], "bins": [-1.5811355113983154, -1.5341620445251465, -1.4871885776519775, -1.4402151107788086, -1.3932416439056396, -1.3462681770324707, -1.2992947101593018, -1.2523212432861328, -1.2053477764129639, -1.158374309539795, -1.111400842666626, -1.064427375793457, -1.017453908920288, -0.9704804420471191, -0.923507034778595, -0.876533567905426, -0.8295601606369019, -0.7825866937637329, -0.735613226890564, -0.688639760017395, -0.6416662931442261, -0.5946928262710571, -0.547719419002533, -0.500745952129364, -0.45377248525619507, -0.4067990183830261, -0.3598255515098572, -0.3128521144390106, -0.2658786475658417, -0.21890518069267273, -0.17193174362182617, -0.12495827674865723, -0.07798480987548828, -0.031011350452899933, 0.015962108969688416, 0.06293556094169617, 0.10990902781486511, 0.15688249468803406, 0.20385593175888062, 0.25082939863204956, 0.2978028655052185, 0.34477633237838745, 0.3917497992515564, 0.43872323632240295, 0.4856967031955719, 0.5326701402664185, 0.5796436071395874, 0.6266170740127563, 0.6735905408859253, 0.7205640077590942, 0.7675374746322632, 0.8145109415054321, 0.8614844083786011, 0.90845787525177, 0.9554312825202942, 1.0024046897888184, 1.0493781566619873, 1.0963516235351562, 1.1433250904083252, 1.1902985572814941, 1.237272024154663, 1.284245491027832, 1.331218957901001, 1.37819242477417, 1.4251658916473389]}, "gradients/graph_1_encoder.encoder.0.weight": {"_type": "histogram", "values": [1.0, 0.0, 0.0, 0.0, 0.0, 2.0, 0.0, 2.0, 1.0, 0.0, 2.0, 2.0, 3.0, 2.0, 8.0, 10.0, 15.0, 22.0, 42.0, 79.0, 170.0, 235.0, 338.0, 511.0, 917.0, 1330.0, 1970.0, 2980.0, 4358.0, 6177.0, 8204.0, 10353.0, 13298.0, 15385.0, 18201.0, 20912.0, 23364.0, 20610.0, 17789.0, 14484.0, 11374.0, 8743.0, 6781.0, 5035.0, 3435.0, 2415.0, 1811.0, 1131.0, 615.0, 371.0, 256.0, 212.0, 150.0, 65.0, 34.0, 25.0, 9.0, 6.0, 7.0, 0.0, 2.0, 1.0, 0.0, 1.0], "bins": [-0.039264895021915436, -0.03819072246551514, -0.03711654990911484, -0.03604237735271454, -0.03496820852160454, -0.03389403596520424, -0.03281986340880394, -0.03174569085240364, -0.03067151829600334, -0.029597345739603043, -0.028523175045847893, -0.027449002489447594, -0.026374829933047295, -0.025300659239292145, -0.024226486682891846, -0.023152314126491547, -0.022078143432736397, -0.021003970876336098, -0.019929800182580948, -0.01885562762618065, -0.01778145506978035, -0.01670728251338005, -0.0156331118196249, -0.014558939263224602, -0.013484767638146877, -0.012410596013069153, -0.011336423456668854, -0.01026225183159113, -0.009188080206513405, -0.008113907650113106, -0.007039736025035381, -0.0059655639342963696, -0.0048913899809122086, -0.003817217890173197, -0.0027430460322648287, -0.0016688741743564606, -0.0005947020836174488, 0.00047947000712156296, 0.0015536416321992874, 0.002627813722938299, 0.003701985813677311, 0.004776157904416323, 0.0058503299951553345, 0.006924501620233059, 0.007998673245310783, 0.009072845801711082, 0.010147017426788807, 0.011221189051866531, 0.01229536160826683, 0.013369533233344555, 0.014443705789744854, 0.015517877414822578, 0.016592049971222878, 0.017666220664978027, 0.018740393221378326, 0.019814565777778625, 0.020888738334178925, 0.021962910890579224, 0.023037081584334373, 0.024111254140734673, 0.02518542669713497, 0.02625959739089012, 0.02733376994729042, 0.02840794250369072, 0.02948211319744587]}, "_wandb": {"runtime": 1067}}