{"train_loss": 0.10781379044055939, "train_ssl_loss": 0.10127078741788864, "train_tsk_loss": 0.006543007679283619, "test_loss": 0.5782645344734192, "test_ssl_loss": 0.569193959236145, "test_tsk_loss": 0.009070535190403461, "_timestamp": 1697561203.3538258, "_runtime": 110.42910385131836, "_step": 49, "gradients/taskmapper.out.bias": {"_type": "histogram", "values": [0.0, 0.0, 0.0, 0.0, 0.0, 0.0, 0.0, 0.0, 0.0, 0.0, 0.0, 0.0, 0.0, 0.0, 0.0, 0.0, 0.0, 0.0, 0.0, 0.0, 0.0, 0.0, 0.0, 0.0, 0.0, 0.0, 0.0, 0.0, 0.0, 0.0, 0.0, 0.0, 1.0, 0.0, 0.0, 0.0, 0.0, 0.0, 0.0, 0.0, 0.0, 0.0, 0.0, 0.0, 0.0, 0.0, 0.0, 0.0, 0.0, 0.0, 0.0, 0.0, 0.0, 0.0, 0.0, 0.0, 0.0, 0.0, 0.0, 0.0, 0.0, 0.0, 0.0, 0.0], "bins": [0.04966523498296738, 0.04966523498296738, 0.04966523498296738, 0.04966523498296738, 0.04966523498296738, 0.04966523498296738, 0.04966523498296738, 0.04966523498296738, 0.04966523498296738, 0.04966523498296738, 0.04966523498296738, 0.04966523498296738, 0.04966523498296738, 0.04966523498296738, 0.04966523498296738, 0.04966523498296738, 0.04966523498296738, 0.04966523498296738, 0.04966523498296738, 0.04966523498296738, 0.04966523498296738, 0.04966523498296738, 0.04966523498296738, 0.04966523498296738, 0.04966523498296738, 0.04966523498296738, 0.04966523498296738, 0.04966523498296738, 0.04966523498296738, 0.04966523498296738, 0.04966523498296738, 0.04966523498296738, 0.04966523498296738, 0.04966523498296738, 0.04966523498296738, 0.04966523498296738, 0.04966523498296738, 0.04966523498296738, 0.04966523498296738, 0.04966523498296738, 0.04966523498296738, 0.04966523498296738, 0.04966523498296738, 0.04966523498296738, 0.04966523498296738, 0.04966523498296738, 0.04966523498296738, 0.04966523498296738, 0.04966523498296738, 0.04966523498296738, 0.04966523498296738, 0.04966523498296738, 0.04966523498296738, 0.04966523498296738, 0.04966523498296738, 0.04966523498296738, 0.04966523498296738, 0.04966523498296738, 0.04966523498296738, 0.04966523498296738, 0.04966523498296738, 0.04966523498296738, 0.04966523498296738, 0.04966523498296738, 0.04966523498296738]}, "gradients/taskmapper.out.weight": {"_type": "histogram", "values": [5.0, 0.0, 0.0, 0.0, 0.0, 1.0, 0.0, 0.0, 0.0, 0.0, 0.0, 0.0, 0.0, 0.0, 0.0, 0.0, 0.0, 1.0, 2.0, 0.0, 1.0, 0.0, 0.0, 0.0, 0.0, 0.0, 0.0, 0.0, 0.0, 0.0, 0.0, 0.0, 0.0, 0.0, 0.0, 0.0, 0.0, 0.0, 0.0, 0.0, 0.0, 0.0, 1.0, 0.0, 1.0, 0.0, 0.0, 0.0, 2.0, 0.0, 0.0, 0.0, 0.0, 0.0, 0.0, 0.0, 0.0, 0.0, 0.0, 0.0, 0.0, 0.0, 0.0, 2.0], "bins": [0.0, 0.00021516466222237796, 0.0004303293244447559, 0.0006454939721152186, 0.0008606586488895118, 0.001075823325663805, 0.0012909879442304373, 0.0015061526792123914, 0.0017213172977790236, 0.001936481916345656, 0.00215164665132761, 0.0023668112698942423, 0.0025819758884608746, 0.0027971407398581505, 0.003012305125594139, 0.003227469976991415, 0.0034426345955580473, 0.0036577992141246796, 0.003872963832691312, 0.004088128451257944, 0.00430329330265522, 0.004518457688391209, 0.004733622539788485, 0.0049487873911857605, 0.005163951776921749, 0.005379116628319025, 0.005594281014055014, 0.00580944586545229, 0.006024610251188278, 0.006239775102585554, 0.00645493995398283, 0.006670104339718819, 0.006885269191116095, 0.0071004340425133705, 0.007315598428249359, 0.007530763279646635, 0.007745927665382624, 0.0079610925167799, 0.008176256902515888, 0.008391422219574451, 0.00860658660531044, 0.008821750991046429, 0.009036916308104992, 0.00925208069384098, 0.00946724507957697, 0.009682409465312958, 0.009897574782371521, 0.01011273916810751, 0.010327903553843498, 0.010543067939579487, 0.01075823325663805, 0.010973397642374039, 0.011188562028110027, 0.011403726413846016, 0.01161889173090458, 0.011834056116640568, 0.012049221433699131, 0.01226438581943512, 0.012479551136493683, 0.012694715522229671, 0.01290987990796566, 0.013125045225024223, 0.013340209610760212, 0.0135553739964962, 0.01377053838223219]}, "gradients/taskmapper.lins.1.bias": {"_type": "histogram", "values": [1.0, 0.0, 0.0, 0.0, 0.0, 0.0, 0.0, 0.0, 0.0, 0.0, 0.0, 0.0, 1.0, 0.0, 0.0, 0.0, 0.0, 0.0, 0.0, 0.0, 0.0, 0.0, 1.0, 0.0, 0.0, 0.0, 1.0, 0.0, 0.0, 0.0, 0.0, 0.0, 0.0, 0.0, 0.0, 0.0, 0.0, 0.0, 0.0, 5.0, 0.0, 0.0, 0.0, 0.0, 0.0, 0.0, 1.0, 0.0, 1.0, 0.0, 0.0, 1.0, 0.0, 1.0, 0.0, 0.0, 0.0, 0.0, 1.0, 0.0, 0.0, 0.0, 1.0, 1.0], "bins": [-0.025036275386810303, -0.024395544081926346, -0.023754814639687538, -0.02311408519744873, -0.022473353892564774, -0.021832622587680817, -0.02119189314544201, -0.0205511637032032, -0.019910432398319244, -0.019269701093435287, -0.01862897165119648, -0.017988242208957672, -0.017347510904073715, -0.01670677959918976, -0.01606605015695095, -0.015425319783389568, -0.014784589409828186, -0.014143859036266804, -0.013503128662705421, -0.01286239828914404, -0.012221667915582657, -0.011580937542021275, -0.010940207168459892, -0.01029947679489851, -0.009658746421337128, -0.009018016047775745, -0.008377285674214363, -0.007736555300652981, -0.0070958249270915985, -0.006455094553530216, -0.005814364179968834, -0.005173633806407452, -0.004532903432846069, -0.003892173059284687, -0.0032514426857233047, -0.0026107123121619225, -0.00196998193860054, -0.0013292515650391579, -0.0006885211914777756, -4.779081791639328e-05, 0.000592939555644989, 0.0012336699292063713, 0.0018744003027677536, 0.002515130676329136, 0.003155861049890518, 0.0037965914234519005, 0.004437321797013283, 0.005078052170574665, 0.005718782544136047, 0.00635951291769743, 0.007000243291258812, 0.007640973664820194, 0.008281704038381577, 0.008922434411942959, 0.009563164785504341, 0.010203895159065723, 0.010844625532627106, 0.011485355906188488, 0.01212608627974987, 0.012766816653311253, 0.013407547026872635, 0.014048277400434017, 0.0146890077739954, 0.015329738147556782, 0.015970468521118164]}, "gradients/taskmapper.lins.1.weight": {"_type": "histogram", "values": [1.0, 0.0, 0.0, 0.0, 0.0, 0.0, 0.0, 0.0, 0.0, 0.0, 0.0, 1.0, 0.0, 0.0, 1.0, 0.0, 0.0, 0.0, 0.0, 0.0, 0.0, 1.0, 0.0, 1.0, 1.0, 0.0, 0.0, 0.0, 2.0, 1.0, 0.0, 4.0, 1.0, 1.0, 2.0, 6.0, 3.0, 11.0, 12.0, 11.0, 255.0, 29.0, 11.0, 5.0, 4.0, 3.0, 2.0, 1.0, 2.0, 1.0, 2.0, 2.0, 0.0, 1.0, 1.0, 0.0, 0.0, 2.0, 1.0, 0.0, 0.0, 0.0, 1.0, 1.0], "bins": [-0.008327808231115341, -0.008120743557810783, -0.0079136798158288, -0.007706615142524242, -0.007499550934880972, -0.007292486727237701, -0.007085422519594431, -0.00687835831195116, -0.006671293638646603, -0.006464229431003332, -0.006257165223360062, -0.006050100550055504, -0.005843036342412233, -0.005635972134768963, -0.005428907927125692, -0.005221843719482422, -0.005014779511839151, -0.004807715304195881, -0.00460065109655261, -0.00439358688890934, -0.004186522215604782, -0.003979458007961512, -0.003772393800318241, -0.0035653295926749706, -0.0033582651522010565, -0.003151200944557786, -0.002944136504083872, -0.0027370722964406013, -0.002530008088797331, -0.0023229436483234167, -0.0021158794406801462, -0.001908815116621554, -0.0017017512582242489, -0.0014946869341656566, -0.0012876226101070642, -0.0010805584024637938, -0.0008734940784052014, -0.0006664297543466091, -0.0004593655467033386, -0.0002523012226447463, -4.5236898586153984e-05, 0.00016182739636860788, 0.00036889169132336974, 0.0005759559571743011, 0.0007830202812328935, 0.0009900846052914858, 0.0011971488129347563, 0.0014042131369933486, 0.001611277461051941, 0.0018183417851105332, 0.0020254061091691256, 0.002232470316812396, 0.00243953475728631, 0.0026465989649295807, 0.002853663172572851, 0.0030607273802161217, 0.003267791820690036, 0.0034748560283333063, 0.0036819204688072205, 0.003888984676450491, 0.0040960488840937614, 0.004303113557398319, 0.004510177299380302, 0.00471724197268486, 0.004924306180328131]}, "gradients/taskmapper.lins.0.bias": {"_type": "histogram", "values": [1.0, 0.0, 0.0, 0.0, 0.0, 0.0, 0.0, 0.0, 0.0, 0.0, 0.0, 0.0, 0.0, 0.0, 0.0, 0.0, 0.0, 0.0, 0.0, 0.0, 0.0, 1.0, 0.0, 0.0, 0.0, 1.0, 0.0, 9.0, 0.0, 0.0, 1.0, 0.0, 1.0, 1.0, 0.0, 0.0, 0.0, 1.0, 0.0, 1.0, 1.0, 1.0, 1.0, 0.0, 0.0, 0.0, 1.0, 0.0, 0.0, 0.0, 0.0, 0.0, 1.0, 0.0, 0.0, 0.0, 0.0, 0.0, 0.0, 0.0, 0.0, 0.0, 0.0, 2.0], "bins": [-0.017628267407417297, -0.016978858038783073, -0.01632944867014885, -0.015680041164159775, -0.015030630864202976, -0.014381222426891327, -0.013731813058257103, -0.013082403689622879, -0.012432994320988655, -0.011783584952354431, -0.011134176515042782, -0.010484767146408558, -0.009835357777774334, -0.009185949340462685, -0.00853653997182846, -0.007887130603194237, -0.007237722165882587, -0.006588313262909651, -0.005938903894275427, -0.00528949499130249, -0.004640085622668266, -0.00399067671969533, -0.003341267816722393, -0.002691858448088169, -0.0020424495451152325, -0.0013930404093116522, -0.0007436313899233937, -9.422237053513527e-05, 0.000555186765268445, 0.0012045959010720253, 0.001854004804044962, 0.002503414172679186, 0.0031528230756521225, 0.0038022322114557028, 0.004451641347259283, 0.00510105025023222, 0.005750459618866444, 0.00639986852183938, 0.007049277424812317, 0.007698686793446541, 0.008348096162080765, 0.008997505530714989, 0.009646913968026638, 0.010296323336660862, 0.010945732705295086, 0.011595141142606735, 0.01224455051124096, 0.012893959879875183, 0.013543368317186832, 0.014192777685821056, 0.014842186123132706, 0.01549159549176693, 0.016141004860401154, 0.016790414229035378, 0.0174398235976696, 0.018089231103658676, 0.0187386404722929, 0.019388049840927124, 0.020037459209561348, 0.020686868578195572, 0.021336276084184647, 0.02198568545281887, 0.022635094821453094, 0.02328450419008732, 0.023933913558721542]}, "gradients/taskmapper.lins.0.weight": {"_type": "histogram", "values": [2.0, 0.0, 0.0, 0.0, 0.0, 0.0, 0.0, 0.0, 0.0, 0.0, 0.0, 1.0, 0.0, 0.0, 0.0, 0.0, 2.0, 2.0, 2.0, 1.0, 1.0, 2.0, 2.0, 6.0, 0.0, 3.0, 8.0, 4.0, 3.0, 12.0, 15.0, 8.0, 18.0, 22.0, 25.0, 49.0, 382.0, 59.0, 36.0, 17.0, 14.0, 11.0, 12.0, 6.0, 9.0, 5.0, 7.0, 2.0, 4.0, 1.0, 6.0, 0.0, 1.0, 0.0, 1.0, 2.0, 0.0, 0.0, 1.0, 1.0, 0.0, 0.0, 0.0, 3.0], "bins": [-0.01059677079319954, -0.010306981392204762, -0.010017191991209984, -0.009727402590215206, -0.009437613189220428, -0.00914782378822565, -0.008858034387230873, -0.008568244986236095, -0.008278455585241318, -0.00798866618424654, -0.007698876783251762, -0.007409087382256985, -0.007119297981262207, -0.006829508580267429, -0.006539719179272652, -0.006249929778277874, -0.005960140842944384, -0.005670351441949606, -0.005380562040954828, -0.005090772639960051, -0.004800983238965273, -0.004511193837970495, -0.004221404902637005, -0.003931615501642227, -0.003641825867816806, -0.003352036466822028, -0.0030622470658272505, -0.0027724578976631165, -0.0024826684966683388, -0.002192879095673561, -0.0019030896946787834, -0.0016133002936840057, -0.001323510892689228, -0.0010337214916944504, -0.0007439321489073336, -0.00045414280612021685, -0.00016435340512543917, 0.0001254359958693385, 0.00041522528044879436, 0.000705014681443572, 0.0009948040824383497, 0.0012845934834331274, 0.001574382884427905, 0.001864172169007361, 0.002153961453586817, 0.0024437508545815945, 0.002733540255576372, 0.00302332965657115, 0.0033131190575659275, 0.003602908458560705, 0.003892697859555483, 0.0041824872605502605, 0.004472276661545038, 0.004762066062539816, 0.005051854997873306, 0.005341644398868084, 0.005631433799862862, 0.005921223200857639, 0.006211012601852417, 0.006500802002847195, 0.006790591403841972, 0.00708038080483675, 0.007370170205831528, 0.007659959606826305, 0.007949749007821083]}, "gradients/_projector.0.bias": {"_type": "histogram", "values": [1.0, 0.0, 0.0, 0.0, 0.0, 2.0, 1.0, 1.0, 0.0, 1.0, 1.0, 0.0, 2.0, 1.0, 0.0, 0.0, 0.0, 0.0, 1.0, 0.0, 0.0, 1.0, 1.0, 1.0, 0.0, 2.0, 0.0, 1.0, 1.0, 0.0, 1.0, 0.0, 2.0, 2.0, 0.0, 1.0, 0.0, 0.0, 2.0, 0.0, 0.0, 1.0, 1.0, 0.0, 0.0, 1.0, 0.0, 0.0, 1.0, 0.0, 0.0, 0.0, 0.0, 0.0, 0.0, 0.0, 0.0, 0.0, 0.0, 0.0, 1.0, 0.0, 0.0, 1.0], "bins": [-0.008240649476647377, -0.007945053279399872, -0.007649456616491079, -0.007353860419243574, -0.007058264221996069, -0.0067626675590872765, -0.006467071361839771, -0.006171475164592266, -0.005875878967344761, -0.005580282770097256, -0.005284686107188463, -0.004989089909940958, -0.004693493712693453, -0.00439789704978466, -0.004102300852537155, -0.00380670465528965, -0.0035111079923808575, -0.0032155115623027086, -0.0029199153650552034, -0.0026243189349770546, -0.0023287227377295494, -0.0020331263076514006, -0.0017375298775732517, -0.0014419336803257465, -0.0011463372502475977, -0.0008507409365847707, -0.0005551445647142828, -0.0002595481928437948, 3.604812081903219e-05, 0.0003316444344818592, 0.000627240864560008, 0.0009228370618075132, 0.001218433491885662, 0.001514029805548489, 0.0018096261192113161, 0.002105222549289465, 0.00240081874653697, 0.002696415176615119, 0.002992011606693268, 0.003287607803940773, 0.003583204234018922, 0.0038788006640970707, 0.004174396861344576, 0.004469993524253368, 0.0047655897215008736, 0.005061185918748379, 0.005356782115995884, 0.005652378313243389, 0.005947974976152182, 0.006243571173399687, 0.006539167836308479, 0.0068347640335559845, 0.00713036023080349, 0.007425956428050995, 0.007721553090959787, 0.008017148822546005, 0.008312745951116085, 0.00860834214836359, 0.008903938345611095, 0.009199535474181175, 0.00949513167142868, 0.009790727868676186, 0.01008632406592369, 0.010381920263171196, 0.010677516460418701]}, "gradients/_projector.0.weight": {"_type": "histogram", "values": [1.0, 0.0, 0.0, 2.0, 1.0, 1.0, 2.0, 4.0, 1.0, 3.0, 2.0, 3.0, 6.0, 5.0, 8.0, 6.0, 13.0, 20.0, 12.0, 15.0, 18.0, 33.0, 29.0, 31.0, 48.0, 74.0, 93.0, 128.0, 167.0, 188.0, 241.0, 307.0, 349.0, 359.0, 351.0, 332.0, 290.0, 198.0, 158.0, 131.0, 83.0, 82.0, 51.0, 52.0, 34.0, 24.0, 27.0, 14.0, 21.0, 15.0, 7.0, 9.0, 9.0, 5.0, 10.0, 7.0, 3.0, 5.0, 2.0, 2.0, 1.0, 1.0, 1.0, 1.0], "bins": [-0.010980404913425446, -0.010654197074472904, -0.010327990166842937, -0.010001782327890396, -0.00967557542026043, -0.009349367581307888, -0.009023160673677921, -0.00869695283472538, -0.008370745927095413, -0.008044538088142872, -0.007718331180512905, -0.007392123807221651, -0.007065916433930397, -0.006739709060639143, -0.006413501687347889, -0.006087293848395348, -0.0057610864751040936, -0.0054348791018128395, -0.0051086717285215855, -0.004782464355230331, -0.004456256981939077, -0.004130049608647823, -0.0038038420025259256, -0.0034776346292346716, -0.0031514272559434175, -0.0028252198826521635, -0.0024990125093609095, -0.0021728049032390118, -0.0018465976463630795, -0.0015203902730718255, -0.0011941827833652496, -0.0008679754100739956, -0.0005417680367827415, -0.00021556063438765705, 0.00011064676800742745, 0.0004368541995063424, 0.0007630615727975965, 0.0010892689460888505, 0.0014154764357954264, 0.0017416838090866804, 0.0020678911823779345, 0.0023940985556691885, 0.0027203059289604425, 0.0030465135350823402, 0.0033727209083735943, 0.0036989282816648483, 0.004025135654956102, 0.004351343028247356, 0.0046775504015386105, 0.0050037577748298645, 0.0053299651481211185, 0.005656172521412373, 0.005982379894703627, 0.006308587267994881, 0.006634795106947422, 0.006961002014577389, 0.00728720985352993, 0.007613417226821184, 0.007939624600112438, 0.00826583243906498, 0.008592039346694946, 0.008918247185647488, 0.009244454093277454, 0.009570661932229996, 0.009896868839859962]}, "gradients/_encoder.encoder.8.bias": {"_type": "histogram", "values": [1.0, 0.0, 0.0, 0.0, 0.0, 0.0, 0.0, 0.0, 0.0, 1.0, 1.0, 0.0, 0.0, 0.0, 1.0, 0.0, 2.0, 3.0, 2.0, 2.0, 2.0, 4.0, 7.0, 3.0, 10.0, 5.0, 3.0, 4.0, 8.0, 9.0, 6.0, 10.0, 5.0, 8.0, 4.0, 6.0, 5.0, 1.0, 1.0, 1.0, 3.0, 2.0, 1.0, 0.0, 0.0, 2.0, 0.0, 0.0, 1.0, 0.0, 0.0, 2.0, 0.0, 0.0, 0.0, 0.0, 1.0, 0.0, 0.0, 0.0, 0.0, 0.0, 0.0, 1.0], "bins": [-0.010653223842382431, -0.010289392434060574, -0.009925560094416142, -0.009561728686094284, -0.009197896346449852, -0.008834064938127995, -0.008470233529806137, -0.008106401190161705, -0.0077425697818398476, -0.007378737907856703, -0.007014906033873558, -0.006651074625551701, -0.006287242751568556, -0.005923410877585411, -0.005559579469263554, -0.005195747595280409, -0.004831915721297264, -0.004468083847314119, -0.004104251973330975, -0.003740420565009117, -0.0033765886910259724, -0.0030127568170428276, -0.0026489251758903265, -0.0022850935347378254, -0.0019212616607546806, -0.0015574299031868577, -0.0011935981456190348, -0.0008297663880512118, -0.0004659346304833889, -0.00010210287291556597, 0.00026172888465225697, 0.0006255605258047581, 0.0009893933311104774, 0.0013532250886783004, 0.0017170568462461233, 0.0020808884873986244, 0.002444720361381769, 0.002808552235364914, 0.003172383876517415, 0.003536215517669916, 0.003900047391653061, 0.004263879265636206, 0.00462771113961935, 0.004991542547941208, 0.005355374421924353, 0.005719206295907497, 0.006083037704229355, 0.0064468695782125, 0.006810701452195644, 0.007174533326178789, 0.007538365200161934, 0.007902196608483791, 0.008266028016805649, 0.008629860356450081, 0.008993691764771938, 0.009357523173093796, 0.009721355512738228, 0.010085186921060085, 0.010449019260704517, 0.010812850669026375, 0.011176683008670807, 0.011540514416992664, 0.011904345825314522, 0.012268178164958954, 0.012632009573280811]}, "gradients/_encoder.encoder.8.weight": {"_type": "histogram", "values": [1.0, 0.0, 1.0, 1.0, 3.0, 0.0, 2.0, 4.0, 5.0, 2.0, 5.0, 8.0, 15.0, 33.0, 38.0, 56.0, 115.0, 169.0, 238.0, 422.0, 585.0, 939.0, 1539.0, 2262.0, 3193.0, 4844.0, 5698.0, 4528.0, 2902.0, 1851.0, 1121.0, 770.0, 456.0, 316.0, 183.0, 136.0, 80.0, 62.0, 50.0, 35.0, 22.0, 14.0, 14.0, 11.0, 8.0, 8.0, 4.0, 2.0, 5.0, 4.0, 2.0, 1.0, 1.0, 2.0, 0.0, 0.0, 0.0, 0.0, 1.0, 0.0, 0.0, 0.0, 0.0, 1.0], "bins": [-0.007741600275039673, -0.007446791976690292, -0.007151983678340912, -0.006857175379991531, -0.006562367081642151, -0.00626755878329277, -0.005972750950604677, -0.005677942652255297, -0.005383134353905916, -0.005088326055556536, -0.004793517757207155, -0.004498709458857775, -0.0042039016261696815, -0.003909093327820301, -0.0036142850294709206, -0.00331947673112154, -0.0030246684327721596, -0.002729860134422779, -0.0024350518360733986, -0.0021402437705546618, -0.0018454354722052813, -0.0015506271738559008, -0.001255818991921842, -0.0009610108099877834, -0.0006662025116384029, -0.00037139427149668336, -7.658603135496378e-05, 0.0002182222087867558, 0.0005130304489284754, 0.0008078387472778559, 0.0011026469292119145, 0.0013974551111459732, 0.0016922643408179283, 0.001987072639167309, 0.0022818809375166893, 0.002576689003035426, 0.0028714973013848066, 0.003166305599734187, 0.003461113665252924, 0.0037559219636023045, 0.004050730261951685, 0.0043455385603010654, 0.004640346858650446, 0.004935155156999826, 0.00522996298968792, 0.0055247712880373, 0.005819579586386681, 0.006114387884736061, 0.006409196183085442, 0.006704004481434822, 0.006998812779784203, 0.007293621078133583, 0.0075884293764829636, 0.007883237674832344, 0.008178045973181725, 0.008472854271531105, 0.008767662569880486, 0.009062470868229866, 0.009357279166579247, 0.009652087464928627, 0.009946895763278008, 0.010241704061627388, 0.010536512359976768, 0.010831320658326149, 0.011126128025352955]}, "gradients/_encoder.encoder.5.weight": {"_type": "histogram", "values": [2.0, 0.0, 1.0, 0.0, 0.0, 1.0, 1.0, 0.0, 1.0, 0.0, 0.0, 2.0, 0.0, 0.0, 0.0, 3.0, 0.0, 0.0, 3.0, 2.0, 6.0, 1.0, 8.0, 5.0, 3.0, 5.0, 8.0, 10.0, 9.0, 11.0, 12.0, 23.0, 15.0, 9.0, 17.0, 13.0, 9.0, 9.0, 8.0, 4.0, 8.0, 9.0, 3.0, 2.0, 1.0, 4.0, 2.0, 5.0, 1.0, 3.0, 0.0, 0.0, 2.0, 1.0, 1.0, 4.0, 0.0, 1.0, 0.0, 1.0, 1.0, 1.0, 2.0, 3.0], "bins": [-0.010516046546399593, -0.010200584307312965, -0.009885122068226337, -0.00956965982913971, -0.009254198521375656, -0.008938736282289028, -0.0086232740432024, -0.008307811804115772, -0.007992349565029144, -0.007676887325942516, -0.007361425086855888, -0.007045963313430548, -0.00673050107434392, -0.006415038835257292, -0.006099577061831951, -0.005784114822745323, -0.005468652583658695, -0.005153190344572067, -0.004837728105485439, -0.004522266332060099, -0.004206804092973471, -0.0038913418538868427, -0.0035758798476308584, -0.003260417841374874, -0.002944955602288246, -0.002629493363201618, -0.002314031356945634, -0.0019985693506896496, -0.0016831071116030216, -0.0013676449889317155, -0.0010521828662604094, -0.000736720860004425, -0.0004212586209177971, -0.00010579649824649096, 0.00020966562442481518, 0.0005251277470961213, 0.0008405898697674274, 0.0011560519924387336, 0.0014715141151100397, 0.001786976121366024, 0.002102438360452652, 0.00241790059953928, 0.0027333626057952642, 0.0030488246120512486, 0.0033642868511378765, 0.0036797490902245045, 0.003995210863649845, 0.004310673102736473, 0.004626135341823101, 0.004941597580909729, 0.005257059819996357, 0.005572521593421698, 0.005887983832508326, 0.0062034460715949535, 0.006518907845020294, 0.006834370084106922, 0.00714983232319355, 0.007465294562280178, 0.007780756801366806, 0.008096219040453434, 0.008411681279540062, 0.008727142587304115, 0.009042604826390743, 0.009358067065477371, 0.009673529304564]}, "gradients/_encoder.encoder.5.bias": {"_type": "histogram", "values": [1.0, 1.0, 0.0, 0.0, 1.0, 0.0, 0.0, 1.0, 0.0, 1.0, 0.0, 0.0, 1.0, 1.0, 2.0, 3.0, 6.0, 3.0, 2.0, 0.0, 4.0, 6.0, 3.0, 3.0, 6.0, 9.0, 11.0, 31.0, 36.0, 30.0, 23.0, 17.0, 8.0, 6.0, 3.0, 4.0, 1.0, 3.0, 0.0, 2.0, 1.0, 1.0, 1.0, 2.0, 0.0, 1.0, 2.0, 3.0, 0.0, 2.0, 1.0, 1.0, 2.0, 0.0, 1.0, 1.0, 0.0, 3.0, 0.0, 1.0, 2.0, 1.0, 0.0, 1.0], "bins": [-0.019929952919483185, -0.0192447230219841, -0.018559491261839867, -0.017874261364340782, -0.01718902960419655, -0.016503799706697464, -0.01581856980919838, -0.01513333898037672, -0.014448108151555061, -0.013762877322733402, -0.013077646493911743, -0.012392416596412659, -0.011707185767591, -0.01102195493876934, -0.010336725041270256, -0.009651494212448597, -0.008966263383626938, -0.008281032554805279, -0.007595802191644907, -0.006910571828484535, -0.006225340999662876, -0.005540110170841217, -0.004854879807680845, -0.0041696494445204735, -0.0034844186156988144, -0.002799188019707799, -0.0021139574237167835, -0.001428726827725768, -0.0007434962317347527, -5.826563574373722e-05, 0.0006269649602472782, 0.00131219532340765, 0.0019974280148744583, 0.0026826586108654737, 0.003367889206856489, 0.004053119570016861, 0.00473835039883852, 0.005423581227660179, 0.006108811590820551, 0.006794041953980923, 0.007479272782802582, 0.008164503611624241, 0.0088497344404459, 0.009534964337944984, 0.010220195166766644, 0.010905425995588303, 0.011590655893087387, 0.012275886721909046, 0.012961117550730705, 0.013646348379552364, 0.014331579208374023, 0.015016809105873108, 0.015702039003372192, 0.016387270763516426, 0.01707250066101551, 0.017757732421159744, 0.01844296231865883, 0.019128192216157913, 0.019813423976302147, 0.02049865387380123, 0.021183885633945465, 0.02186911553144455, 0.022554345428943634, 0.02323957532644272, 0.023924807086586952]}, "gradients/_encoder.encoder.4.bias": {"_type": "histogram", "values": [1.0, 1.0, 1.0, 0.0, 0.0, 2.0, 0.0, 1.0, 0.0, 0.0, 1.0, 1.0, 1.0, 2.0, 0.0, 1.0, 0.0, 2.0, 2.0, 3.0, 0.0, 5.0, 7.0, 8.0, 9.0, 8.0, 10.0, 8.0, 29.0, 18.0, 28.0, 16.0, 25.0, 14.0, 6.0, 6.0, 7.0, 4.0, 3.0, 3.0, 4.0, 3.0, 3.0, 2.0, 1.0, 3.0, 0.0, 1.0, 3.0, 2.0, 0.0, 0.0, 0.0, 0.0, 0.0, 0.0, 0.0, 0.0, 0.0, 0.0, 0.0, 0.0, 0.0, 1.0], "bins": [-9.313225746154785e-10, -9.008545021060854e-10, -8.703864295966923e-10, -8.399183570872992e-10, -8.094502845779061e-10, -7.78982212068513e-10, -7.485141395591199e-10, -7.180460670497268e-10, -6.875779945403337e-10, -6.571099220309407e-10, -6.266418495215476e-10, -5.961737770121545e-10, -5.657057045027614e-10, -5.352376319933683e-10, -5.047695594839752e-10, -4.743014869745821e-10, -4.43833414465189e-10, -4.133653419557959e-10, -3.828972694464028e-10, -3.524291969370097e-10, -3.219611244276166e-10, -2.914930519182235e-10, -2.610249794088304e-10, -2.305569068994373e-10, -2.000888343900442e-10, -1.6962076188065112e-10, -1.3915268937125802e-10, -1.0868461686186492e-10, -7.821654435247183e-11, -4.774847184307873e-11, -1.7280399333685637e-11, 1.318767317570746e-11, 4.3655745685100555e-11, 7.412381819449365e-11, 1.0459189070388675e-10, 1.3505996321327984e-10, 1.6552803572267294e-10, 1.9599610823206604e-10, 2.2646418074145913e-10, 2.5693225325085223e-10, 2.874003257602453e-10, 3.178683982696384e-10, 3.483364707790315e-10, 3.788045432884246e-10, 4.092726157978177e-10, 4.397406883072108e-10, 4.702087608166039e-10, 5.00676833325997e-10, 5.311449058353901e-10, 5.616129783447832e-10, 5.920810508541763e-10, 6.225491233635694e-10, 6.530171958729625e-10, 6.834852683823556e-10, 7.139533408917487e-10, 7.444214134011418e-10, 7.748894859105349e-10, 8.05357558419928e-10, 8.35825630929321e-10, 8.662937034387141e-10, 8.967617759481072e-10, 9.272298484575003e-10, 9.576979209668934e-10, 9.881659934762865e-10, 1.0186340659856796e-09]}, "gradients/_encoder.encoder.4.weight": {"_type": "histogram", "values": [1.0, 2.0, 2.0, 2.0, 4.0, 6.0, 9.0, 13.0, 11.0, 18.0, 46.0, 47.0, 69.0, 111.0, 183.0, 272.0, 471.0, 793.0, 1587.0, 3297.0, 7462.0, 19585.0, 52647.0, 27092.0, 9480.0, 3868.0, 1837.0, 945.0, 449.0, 311.0, 148.0, 107.0, 64.0, 44.0, 22.0, 30.0, 8.0, 11.0, 5.0, 3.0, 1.0, 6.0, 2.0, 0.0, 0.0, 0.0, 0.0, 0.0, 0.0, 0.0, 0.0, 0.0, 0.0, 0.0, 0.0, 0.0, 0.0, 0.0, 0.0, 0.0, 0.0, 0.0, 0.0, 1.0], "bins": [-0.008368590846657753, -0.007998532615602016, -0.0076284753158688545, -0.007258417084813118, -0.006888359785079956, -0.0065183015540242195, -0.00614824378862977, -0.005778186023235321, -0.005408128257840872, -0.005038070492446423, -0.004668012727051973, -0.004297954961657524, -0.003927896730601788, -0.003557839198037982, -0.003187781199812889, -0.00281772343441844, -0.0024476656690239906, -0.0020776079036295414, -0.0017075500218197703, -0.0013374921400099993, -0.00096743437461555, -0.0005973766092211008, -0.00022731861099600792, 0.00014273915439844131, 0.0005127969197928905, 0.0008828547433950007, 0.0012529125669971108, 0.001622970448806882, 0.001993028214201331, 0.0023630859795957804, 0.0027331439778208733, 0.0031032017432153225, 0.003473258577287197, 0.0038433163426816463, 0.004213374108076096, 0.004583432339131832, 0.004953489638864994, 0.005323547869920731, 0.00569360563531518, 0.006063663400709629, 0.006433721166104078, 0.0068037789314985275, 0.007173836696892977, 0.007543894462287426, 0.007913952693343163, 0.008284009993076324, 0.008654068224132061, 0.009024126455187798, 0.00939418375492096, 0.009764241985976696, 0.010134299285709858, 0.010504357516765594, 0.010874414816498756, 0.011244473047554493, 0.01161453127861023, 0.011984588578343391, 0.012354645878076553, 0.01272470410913229, 0.013094761408865452, 0.013464819639921188, 0.01383487693965435, 0.014204935170710087, 0.014574993401765823, 0.014945050701498985, 0.015315108932554722]}, "gradients/_encoder.encoder.1.weight": {"_type": "histogram", "values": [1.0, 0.0, 0.0, 0.0, 0.0, 0.0, 0.0, 0.0, 0.0, 0.0, 0.0, 1.0, 0.0, 0.0, 1.0, 1.0, 2.0, 0.0, 1.0, 1.0, 2.0, 2.0, 2.0, 1.0, 4.0, 1.0, 1.0, 7.0, 5.0, 4.0, 9.0, 10.0, 10.0, 13.0, 15.0, 24.0, 22.0, 39.0, 32.0, 38.0, 46.0, 47.0, 26.0, 35.0, 17.0, 19.0, 16.0, 13.0, 9.0, 7.0, 6.0, 4.0, 2.0, 3.0, 2.0, 1.0, 3.0, 2.0, 2.0, 0.0, 1.0, 0.0, 0.0, 2.0], "bins": [-0.0098029226064682, -0.009555078111588955, -0.00930723361670971, -0.009059389121830463, -0.008811544626951218, -0.008563700132071972, -0.008315855637192726, -0.008068012073636055, -0.007820166647434235, -0.007572322152554989, -0.007324477657675743, -0.007076633162796497, -0.006828788667917252, -0.006580944173038006, -0.006333100143820047, -0.006085255648940802, -0.005837411619722843, -0.005589567124843597, -0.005341722629964352, -0.005093878135085106, -0.00484603364020586, -0.004598189145326614, -0.004350345116108656, -0.00410250062122941, -0.0038546561263501644, -0.0036068116314709187, -0.003358967136591673, -0.003111122874543071, -0.002863278379663825, -0.0026154338847845793, -0.002367589622735977, -0.0021197451278567314, -0.001871899701654911, -0.0016240552067756653, -0.0013762108283117414, -0.0011283664498478174, -0.0008805219549685717, -0.0006326774600893259, -0.000384833081625402, -0.00013698870316147804, 0.00011085579171776772, 0.00035870022838935256, 0.0006065446650609374, 0.0008543891017325222, 0.001102233538404107, 0.0013500780332833529, 0.0015979224117472768, 0.0018457667902112007, 0.0020936112850904465, 0.0023414557799696922, 0.002589300274848938, 0.00283714453689754, 0.003084989031776786, 0.0033328335266560316, 0.0035806777887046337, 0.0038285222835838795, 0.004076366778463125, 0.004324211273342371, 0.004572055768221617, 0.0048199002631008625, 0.005067744292318821, 0.005315588787198067, 0.0055634332820773125, 0.005811277776956558, 0.006059122271835804]}, "gradients/_encoder.encoder.1.bias": {"_type": "histogram", "values": [1.0, 0.0, 0.0, 0.0, 0.0, 1.0, 1.0, 1.0, 0.0, 0.0, 1.0, 5.0, 9.0, 20.0, 13.0, 15.0, 22.0, 47.0, 39.0, 37.0, 54.0, 53.0, 40.0, 34.0, 29.0, 25.0, 14.0, 21.0, 6.0, 2.0, 3.0, 4.0, 2.0, 3.0, 2.0, 1.0, 0.0, 2.0, 1.0, 0.0, 0.0, 1.0, 0.0, 2.0, 0.0, 0.0, 0.0, 0.0, 0.0, 0.0, 0.0, 0.0, 0.0, 0.0, 0.0, 0.0, 0.0, 0.0, 0.0, 0.0, 0.0, 0.0, 0.0, 1.0], "bins": [-0.006065491586923599, -0.005772651173174381, -0.005479810759425163, -0.005186970345675945, -0.004894129931926727, -0.004601289518177509, -0.004308449570089579, -0.004015609156340361, -0.0037227687425911427, -0.0034299283288419247, -0.0031370879150927067, -0.0028442477341741323, -0.0025514073204249144, -0.0022585669066756964, -0.001965726725757122, -0.001672886312007904, -0.001380045898258686, -0.001087205484509468, -0.0007943651871755719, -0.0005015248316340148, -0.00020868447609245777, 8.415593765676022e-05, 0.0003769962349906564, 0.0006698365323245525, 0.0009626769460737705, 0.0012555173598229885, 0.0015483576571568847, 0.0018411979544907808, 0.002134038368239999, 0.002426878781989217, 0.002719718962907791, 0.003012559376657009, 0.0033054007217288017, 0.0035982411354780197, 0.0038910815492272377, 0.004183921962976456, 0.004476762376725674, 0.004769602790474892, 0.005062442738562822, 0.00535528315231204, 0.005648123566061258, 0.005940963979810476, 0.006233804393559694, 0.006526644807308912, 0.006819484755396843, 0.007112325169146061, 0.007405165582895279, 0.007698005996644497, 0.007990846410393715, 0.008283686824142933, 0.008576527237892151, 0.008869367651641369, 0.009162208065390587, 0.009455048479139805, 0.009747888892889023, 0.010040728375315666, 0.010333569720387459, 0.010626410134136677, 0.010919250547885895, 0.011212090961635113, 0.01150493137538433, 0.011797771789133549, 0.012090612202882767, 0.01238345168530941, 0.012676292099058628]}, "gradients/_encoder.encoder.0.bias": {"_type": "histogram", "values": [1.0, 0.0, 0.0, 0.0, 0.0, 1.0, 0.0, 0.0, 0.0, 0.0, 0.0, 0.0, 1.0, 1.0, 1.0, 1.0, 2.0, 2.0, 3.0, 4.0, 5.0, 2.0, 9.0, 6.0, 5.0, 11.0, 26.0, 32.0, 35.0, 47.0, 69.0, 47.0, 62.0, 32.0, 21.0, 8.0, 17.0, 15.0, 9.0, 12.0, 4.0, 3.0, 2.0, 1.0, 1.0, 3.0, 0.0, 2.0, 1.0, 0.0, 0.0, 0.0, 2.0, 0.0, 0.0, 0.0, 1.0, 0.0, 0.0, 2.0, 1.0, 1.0, 0.0, 1.0], "bins": [-3.4226104617118835e-08, -3.31219780491665e-08, -3.2017851481214166e-08, -3.091372491326183e-08, -2.9809598345309496e-08, -2.870547177735716e-08, -2.7601345209404826e-08, -2.649721864145249e-08, -2.5393092073500156e-08, -2.428896550554782e-08, -2.3184838937595487e-08, -2.2080712369643152e-08, -2.0976585801690817e-08, -1.9872459233738482e-08, -1.8768332665786147e-08, -1.7664206097833812e-08, -1.6560079529881477e-08, -1.5455952961929142e-08, -1.4351826393976808e-08, -1.3247699826024473e-08, -1.2143573258072138e-08, -1.1039446690119803e-08, -9.935320122167468e-09, -8.831193554215133e-09, -7.727066986262798e-09, -6.6229404183104634e-09, -5.5188138503581285e-09, -4.414687282405794e-09, -3.3105607144534588e-09, -2.206434146501124e-09, -1.102307578548789e-09, 1.8189894035458565e-12, 1.1059455573558807e-09, 2.2100721253082156e-09, 3.3141986932605505e-09, 4.418325261212885e-09, 5.52245182916522e-09, 6.626578397117555e-09, 7.73070496506989e-09, 8.834831533022225e-09, 9.93895810097456e-09, 1.1043084668926895e-08, 1.214721123687923e-08, 1.3251337804831564e-08, 1.43554643727839e-08, 1.5459590940736234e-08, 1.656371750868857e-08, 1.7667844076640904e-08, 1.877197064459324e-08, 1.9876097212545574e-08, 2.098022378049791e-08, 2.2084350348450243e-08, 2.318847691640258e-08, 2.4292603484354913e-08, 2.5396730052307248e-08, 2.6500856620259583e-08, 2.7604983188211918e-08, 2.8709109756164253e-08, 2.981323632411659e-08, 3.091736289206892e-08, 3.202148946002126e-08, 3.312561602797359e-08, 3.422974259592593e-08, 3.533386916387826e-08, 3.64379957318306e-08]}, "gradients/_encoder.encoder.0.weight": {"_type": "histogram", "values": [1.0, 0.0, 0.0, 0.0, 0.0, 0.0, 1.0, 0.0, 1.0, 4.0, 2.0, 3.0, 5.0, 5.0, 23.0, 27.0, 71.0, 209.0, 435.0, 1580.0, 8202.0, 100416.0, 311067.0, 19607.0, 3873.0, 1427.0, 731.0, 377.0, 170.0, 107.0, 52.0, 40.0, 21.0, 14.0, 11.0, 5.0, 3.0, 2.0, 5.0, 2.0, 4.0, 1.0, 1.0, 1.0, 2.0, 0.0, 2.0, 0.0, 0.0, 0.0, 0.0, 1.0, 0.0, 0.0, 0.0, 0.0, 0.0, 0.0, 0.0, 0.0, 0.0, 0.0, 0.0, 1.0], "bins": [-0.014395920559763908, -0.013746758922934532, -0.013097597286105156, -0.01244843564927578, -0.011799274012446404, -0.011150112375617027, -0.010500950738787651, -0.009851789101958275, -0.009202627465128899, -0.008553465828299522, -0.007904304191470146, -0.00725514255464077, -0.006605980917811394, -0.0059568192809820175, -0.005307657644152641, -0.004658496007323265, -0.004009334370493889, -0.0033601727336645126, -0.0027110110968351364, -0.00206184946000576, -0.001412687823176384, -0.0007635261863470078, -0.00011436454951763153, 0.0005347970873117447, 0.001183958724141121, 0.0018331203609704971, 0.0024822819977998734, 0.0031314436346292496, 0.003780605271458626, 0.004429766908288002, 0.005078928545117378, 0.0057280901819467545, 0.006377251818776131, 0.007026413455605507, 0.007675575092434883, 0.00832473672926426, 0.008973898366093636, 0.009623060002923012, 0.010272221639752388, 0.010921383276581764, 0.01157054491341114, 0.012219706550240517, 0.012868868187069893, 0.013518029823899269, 0.014167191460728645, 0.014816353097558022, 0.015465514734387398, 0.016114676371216774, 0.01676383800804615, 0.017412999644875526, 0.018062161281704903, 0.01871132291853428, 0.019360484555363655, 0.02000964619219303, 0.020658807829022408, 0.021307969465851784, 0.02195713110268116, 0.022606292739510536, 0.023255454376339912, 0.02390461601316929, 0.024553777649998665, 0.02520293928682804, 0.025852100923657417, 0.026501262560486794, 0.02715042419731617]}, "_wandb": {"runtime": 135}}