{"train_loss": 0.38643139600753784, "train_ssl_loss": 0.3673012852668762, "train_tsk_loss": 0.019130151718854904, "test_loss": 0.573245108127594, "test_ssl_loss": 0.5526296496391296, "test_tsk_loss": 0.020615482702851295, "_timestamp": 1697557732.566934, "_runtime": 25.485292196273804, "_step": 9, "gradients/taskmapper.out.bias": {"_type": "histogram", "values": [0.0, 0.0, 0.0, 0.0, 0.0, 0.0, 0.0, 0.0, 0.0, 0.0, 0.0, 0.0, 0.0, 0.0, 0.0, 0.0, 0.0, 0.0, 0.0, 0.0, 0.0, 0.0, 0.0, 0.0, 0.0, 0.0, 0.0, 0.0, 0.0, 0.0, 0.0, 0.0, 1.0, 0.0, 0.0, 0.0, 0.0, 0.0, 0.0, 0.0, 0.0, 0.0, 0.0, 0.0, 0.0, 0.0, 0.0, 0.0, 0.0, 0.0, 0.0, 0.0, 0.0, 0.0, 0.0, 0.0, 0.0, 0.0, 0.0, 0.0, 0.0, 0.0, 0.0, 0.0], "bins": [0.02124936878681183, 0.02124936878681183, 0.02124936878681183, 0.02124936878681183, 0.02124936878681183, 0.02124936878681183, 0.02124936878681183, 0.02124936878681183, 0.02124936878681183, 0.02124936878681183, 0.02124936878681183, 0.02124936878681183, 0.02124936878681183, 0.02124936878681183, 0.02124936878681183, 0.02124936878681183, 0.02124936878681183, 0.02124936878681183, 0.02124936878681183, 0.02124936878681183, 0.02124936878681183, 0.02124936878681183, 0.02124936878681183, 0.02124936878681183, 0.02124936878681183, 0.02124936878681183, 0.02124936878681183, 0.02124936878681183, 0.02124936878681183, 0.02124936878681183, 0.02124936878681183, 0.02124936878681183, 0.02124936878681183, 0.02124936878681183, 0.02124936878681183, 0.02124936878681183, 0.02124936878681183, 0.02124936878681183, 0.02124936878681183, 0.02124936878681183, 0.02124936878681183, 0.02124936878681183, 0.02124936878681183, 0.02124936878681183, 0.02124936878681183, 0.02124936878681183, 0.02124936878681183, 0.02124936878681183, 0.02124936878681183, 0.02124936878681183, 0.02124936878681183, 0.02124936878681183, 0.02124936878681183, 0.02124936878681183, 0.02124936878681183, 0.02124936878681183, 0.02124936878681183, 0.02124936878681183, 0.02124936878681183, 0.02124936878681183, 0.02124936878681183, 0.02124936878681183, 0.02124936878681183, 0.02124936878681183, 0.02124936878681183]}, "gradients/taskmapper.out.weight": {"_type": "histogram", "values": [2.0, 0.0, 4.0, 2.0, 0.0, 0.0, 0.0, 0.0, 1.0, 0.0, 1.0, 0.0, 1.0, 1.0, 0.0, 0.0, 0.0, 0.0, 0.0, 0.0, 0.0, 0.0, 0.0, 0.0, 0.0, 0.0, 0.0, 0.0, 0.0, 1.0, 0.0, 0.0, 0.0, 0.0, 0.0, 0.0, 0.0, 0.0, 1.0, 0.0, 0.0, 1.0, 0.0, 0.0, 0.0, 0.0, 0.0, 0.0, 0.0, 0.0, 0.0, 0.0, 0.0, 0.0, 0.0, 0.0, 0.0, 0.0, 0.0, 0.0, 0.0, 0.0, 0.0, 1.0], "bins": [-0.0005136437830515206, -0.0003046247293241322, -9.560564649291337e-05, 0.00011341343633830547, 0.00032243249006569386, 0.0005314516020007432, 0.0007404706557281315, 0.0009494897094555199, 0.0011585087049752474, 0.0013675277587026358, 0.0015765468124300241, 0.0017855658661574125, 0.001994584919884801, 0.002203604206442833, 0.0024126232601702213, 0.0026216423138976097, 0.002830661367624998, 0.0030396804213523865, 0.003248699475079775, 0.0034577185288071632, 0.0036667375825345516, 0.00387575663626194, 0.004084775689989328, 0.004293794743716717, 0.004502813797444105, 0.0047118328511714935, 0.004920851904898882, 0.00512987095862627, 0.005338890012353659, 0.005547909066081047, 0.0057569281198084354, 0.005965947173535824, 0.006174966227263212, 0.006383985280990601, 0.006593004334717989, 0.006802023388445377, 0.007011042442172766, 0.007220061495900154, 0.0074290805496275425, 0.007638099603354931, 0.007847119122743607, 0.008056138642132282, 0.008265157230198383, 0.008474176749587059, 0.00868319533765316, 0.008892214857041836, 0.009101233445107937, 0.009310252964496613, 0.009519271552562714, 0.00972829107195139, 0.00993730966001749, 0.010146329179406166, 0.010355347767472267, 0.010564367286860943, 0.010773385874927044, 0.01098240539431572, 0.01119142398238182, 0.011400443501770496, 0.011609462089836597, 0.011818481609225273, 0.012027500197291374, 0.01223651971668005, 0.012445538304746151, 0.012654557824134827, 0.012863576412200928]}, "gradients/taskmapper.lins.1.bias": {"_type": "histogram", "values": [2.0, 0.0, 0.0, 0.0, 0.0, 0.0, 0.0, 2.0, 0.0, 0.0, 0.0, 0.0, 0.0, 0.0, 1.0, 0.0, 0.0, 0.0, 0.0, 1.0, 0.0, 5.0, 1.0, 0.0, 0.0, 0.0, 0.0, 0.0, 0.0, 0.0, 1.0, 0.0, 0.0, 0.0, 0.0, 0.0, 0.0, 0.0, 0.0, 0.0, 0.0, 0.0, 0.0, 0.0, 0.0, 0.0, 0.0, 0.0, 1.0, 0.0, 0.0, 0.0, 0.0, 0.0, 0.0, 0.0, 0.0, 0.0, 0.0, 0.0, 1.0, 0.0, 0.0, 1.0], "bins": [-0.00252758851274848, -0.002409124281257391, -0.0022906602825969458, -0.002172196051105857, -0.002053731819614768, -0.001935267704539001, -0.001816803589463234, -0.001698339357972145, -0.0015798751264810562, -0.0014614110114052892, -0.0013429467799142003, -0.0012244826648384333, -0.0011060184333473444, -0.0009875543182715774, -0.0008690901449881494, -0.0007506259717047215, -0.0006321618566289544, -0.0005136976833455265, -0.0003952335100620985, -0.000276769365882501, -0.00015830519259907305, -3.9841048419475555e-05, 7.86231248639524e-05, 0.00019708729814738035, 0.0003155514714308083, 0.00043401564471423626, 0.0005524798179976642, 0.0006709439912810922, 0.0007894081063568592, 0.0009078722796402872, 0.0010263364529237151, 0.0011448005679994822, 0.001263264799490571, 0.001381728914566338, 0.001500193146057427, 0.001618657261133194, 0.0017371214926242828, 0.0018555856077000499, 0.001974049722775817, 0.002092513954266906, 0.0022109781857579947, 0.0023294424172490835, 0.0024479064159095287, 0.0025663706474006176, 0.0026848348788917065, 0.0028032991103827953, 0.0029217631090432405, 0.0030402273405343294, 0.0031586913391947746, 0.0032771555706858635, 0.0033956195693463087, 0.0035140838008373976, 0.0036325480323284864, 0.0037510120309889317, 0.0038694762624800205, 0.003987940493971109, 0.004106404725462198, 0.004224868956953287, 0.004343333188444376, 0.004461797419935465, 0.004580261185765266, 0.004698725417256355, 0.004817189648747444, 0.004935653880238533, 0.005054118111729622]}, "gradients/taskmapper.lins.1.weight": {"_type": "histogram", "values": [2.0, 2.0, 0.0, 0.0, 1.0, 0.0, 1.0, 1.0, 1.0, 4.0, 3.0, 3.0, 4.0, 9.0, 9.0, 13.0, 9.0, 15.0, 54.0, 189.0, 11.0, 6.0, 7.0, 8.0, 1.0, 0.0, 0.0, 4.0, 2.0, 0.0, 3.0, 0.0, 2.0, 3.0, 1.0, 2.0, 1.0, 1.0, 1.0, 2.0, 1.0, 2.0, 0.0, 0.0, 1.0, 0.0, 0.0, 1.0, 0.0, 0.0, 0.0, 0.0, 0.0, 0.0, 0.0, 1.0, 0.0, 0.0, 0.0, 2.0, 0.0, 0.0, 0.0, 1.0], "bins": [-0.0015402939170598984, -0.0014593563973903656, -0.0013784188777208328, -0.0012974813580513, -0.0012165438383817673, -0.0011356063187122345, -0.0010546687990427017, -0.0009737313375808299, -0.0008927938179112971, -0.0008118562982417643, -0.0007309187785722315, -0.0006499813171103597, -0.0005690437974408269, -0.00048810624866746366, -0.00040716875810176134, -0.00032623123843222857, -0.0002452937187626958, -0.000164356199093163, -8.341869397554547e-05, -2.4811888579279184e-06, 7.845633081160486e-05, 0.00015939385048113763, 0.00024033134104683995, 0.00032126886071637273, 0.0004022063803859055, 0.0004831439000554383, 0.0005640814197249711, 0.0006450188811868429, 0.0007259564008563757, 0.0008068939205259085, 0.0008878314401954412, 0.000968768959864974, 0.0010497064795345068, 0.0011306439992040396, 0.0012115815188735723, 0.0012925190385431051, 0.001373456558212638, 0.0014543940778821707, 0.0015353315975517035, 0.0016162691172212362, 0.001697206636890769, 0.0017781441565603018, 0.0018590816762298346, 0.0019400191958993673, 0.0020209567155689, 0.002101894235238433, 0.0021828317549079657, 0.0022637692745774984, 0.0023447065614163876, 0.0024256440810859203, 0.002506581600755453, 0.002587519120424986, 0.0026684566400945187, 0.0027493941597640514, 0.002830331679433584, 0.002911269199103117, 0.0029922067187726498, 0.0030731442384421825, 0.0031540817581117153, 0.003235019277781248, 0.003315956797450781, 0.0033968943171203136, 0.0034778318367898464, 0.003558769356459379, 0.003639706876128912]}, "gradients/taskmapper.lins.0.bias": {"_type": "histogram", "values": [1.0, 0.0, 1.0, 0.0, 0.0, 0.0, 0.0, 0.0, 0.0, 0.0, 0.0, 0.0, 0.0, 0.0, 2.0, 1.0, 2.0, 1.0, 1.0, 0.0, 1.0, 1.0, 0.0, 0.0, 0.0, 0.0, 0.0, 1.0, 0.0, 0.0, 0.0, 1.0, 0.0, 0.0, 1.0, 1.0, 0.0, 2.0, 0.0, 1.0, 1.0, 1.0, 1.0, 1.0, 0.0, 0.0, 0.0, 0.0, 1.0, 0.0, 0.0, 0.0, 0.0, 0.0, 0.0, 0.0, 0.0, 0.0, 0.0, 0.0, 0.0, 0.0, 0.0, 1.0], "bins": [-0.0014522331766784191, -0.0013659870019182563, -0.0012797408271580935, -0.0011934946523979306, -0.0011072484776377678, -0.001021002302877605, -0.0009347561281174421, -0.0008485099533572793, -0.0007622637785971165, -0.0006760176038369536, -0.0005897714290767908, -0.000503525254316628, -0.00041727907955646515, -0.0003310329047963023, -0.0002447867300361395, -0.00015854055527597666, -7.229438051581383e-05, 1.3951794244349003e-05, 0.00010019796900451183, 0.00018644414376467466, 0.0002726903185248375, 0.0003589364932850003, 0.00044518266804516315, 0.000531428842805326, 0.0006176750175654888, 0.0007039211923256516, 0.0007901673670858145, 0.0008764135418459773, 0.0009626597166061401, 0.001048905891366303, 0.0011351520661264658, 0.0012213982408866286, 0.0013076444156467915, 0.0013938905904069543, 0.0014801367651671171, 0.00156638293992728, 0.0016526291146874428, 0.0017388752894476056, 0.0018251214642077684, 0.0019113676389679313, 0.001997613813728094, 0.002083859872072935, 0.0021701061632484198, 0.0022563524544239044, 0.0023425985127687454, 0.0024288445711135864, 0.002515090862289071, 0.0026013371534645557, 0.0026875832118093967, 0.0027738292701542377, 0.0028600755613297224, 0.002946321852505207, 0.003032567910850048, 0.003118813969194889, 0.0032050602603703737, 0.0032913065515458584, 0.0033775526098906994, 0.0034637986682355404, 0.003550044959411025, 0.0036362912505865097, 0.0037225373089313507, 0.0038087833672761917, 0.0038950296584516764, 0.003981275949627161, 0.004067522007972002]}, "gradients/taskmapper.lins.0.weight": {"_type": "histogram", "values": [1.0, 1.0, 0.0, 0.0, 1.0, 1.0, 0.0, 1.0, 0.0, 0.0, 0.0, 2.0, 2.0, 2.0, 2.0, 2.0, 3.0, 2.0, 5.0, 4.0, 4.0, 4.0, 3.0, 7.0, 7.0, 9.0, 10.0, 18.0, 16.0, 21.0, 16.0, 25.0, 44.0, 54.0, 177.0, 83.0, 55.0, 34.0, 19.0, 20.0, 7.0, 12.0, 11.0, 11.0, 4.0, 6.0, 5.0, 10.0, 6.0, 5.0, 3.0, 6.0, 4.0, 4.0, 2.0, 2.0, 7.0, 0.0, 5.0, 1.0, 1.0, 0.0, 0.0, 1.0], "bins": [-0.001811527879908681, -0.0017592778895050287, -0.0017070277826860547, -0.0016547777922824025, -0.0016025278018787503, -0.0015502776950597763, -0.0014980277046561241, -0.001445777714252472, -0.0013935277238488197, -0.0013412777334451675, -0.0012890276266261935, -0.0012367776362225413, -0.0011845276458188891, -0.0011322775389999151, -0.001080027548596263, -0.0010277775581926107, -0.0009755274513736367, -0.0009232774027623236, -0.0008710274123586714, -0.0008187773637473583, -0.0007665273733437061, -0.000714277324732393, -0.0006620272761210799, -0.0006097772857174277, -0.0005575272371061146, -0.0005052771884948015, -0.00045302719809114933, -0.0004007771494798362, -0.0003485271299723536, -0.00029627711046487093, -0.00024402706185355783, -0.00019177704234607518, -0.00013952702283859253, -8.727699605515227e-05, -3.5026969271712005e-05, 1.722306478768587e-05, 6.947308429516852e-05, 0.00012172310380265117, 0.00017397315241396427, 0.00022622317192144692, 0.00027847319142892957, 0.0003307232109364122, 0.00038297323044389486, 0.00043522327905520797, 0.0004874732985626906, 0.0005397233180701733, 0.0005919733666814864, 0.0006442234152927995, 0.0006964734056964517, 0.0007487234543077648, 0.000800973444711417, 0.0008532234933227301, 0.0009054734837263823, 0.0009577235323376954, 0.0010099735809490085, 0.0010622235713526607, 0.0011144736781716347, 0.0011667236685752869, 0.0012189737753942609, 0.001271223765797913, 0.0013234737562015653, 0.0013757238630205393, 0.0014279738534241915, 0.0014802238438278437, 0.0015324738342314959]}, "gradients/_projector.0.bias": {"_type": "histogram", "values": [1.0, 0.0, 0.0, 0.0, 0.0, 0.0, 1.0, 0.0, 0.0, 0.0, 0.0, 0.0, 2.0, 0.0, 0.0, 0.0, 1.0, 0.0, 0.0, 1.0, 1.0, 1.0, 2.0, 0.0, 0.0, 1.0, 1.0, 0.0, 0.0, 0.0, 0.0, 1.0, 2.0, 1.0, 1.0, 1.0, 4.0, 1.0, 0.0, 1.0, 0.0, 1.0, 0.0, 0.0, 1.0, 0.0, 0.0, 2.0, 1.0, 0.0, 1.0, 0.0, 0.0, 1.0, 0.0, 0.0, 0.0, 0.0, 0.0, 0.0, 0.0, 0.0, 0.0, 1.0], "bins": [-0.07264362275600433, -0.07032327353954315, -0.06800292432308197, -0.06568258255720139, -0.0633622333407402, -0.06104188412427902, -0.05872153490781784, -0.05640118941664696, -0.054080843925476074, -0.05176049470901489, -0.04944014921784401, -0.04711980000138283, -0.044799454510211945, -0.04247910529375076, -0.04015875607728958, -0.0378384105861187, -0.035518061369657516, -0.033197712153196335, -0.03087736666202545, -0.02855701744556427, -0.026236671954393387, -0.023916322737932205, -0.021595975384116173, -0.01927562803030014, -0.016955280676484108, -0.014634933322668076, -0.012314585968852043, -0.009994237683713436, -0.007673890329897404, -0.005353542976081371, -0.0030331946909427643, -0.0007128473371267319, 0.0016075000166893005, 0.003927847370505333, 0.006248195189982653, 0.008568543009459972, 0.010888890363276005, 0.013209237717092037, 0.015529586002230644, 0.017849933356046677, 0.02017028070986271, 0.02249062806367874, 0.024810975417494774, 0.027131322771310806, 0.029451671987771988, 0.03177201747894287, 0.03409236669540405, 0.036412715911865234, 0.03873306140303612, 0.0410534106194973, 0.04337375611066818, 0.045694105327129364, 0.04801445081830025, 0.05033480003476143, 0.05265514552593231, 0.054975494742393494, 0.057295843958854675, 0.05961619317531586, 0.06193653866648674, 0.06425688415765762, 0.0665772333741188, 0.06889758259057999, 0.07121793180704117, 0.07353827357292175, 0.07585862278938293]}, "gradients/_projector.0.weight": {"_type": "histogram", "values": [1.0, 0.0, 1.0, 1.0, 1.0, 0.0, 3.0, 5.0, 4.0, 3.0, 6.0, 12.0, 15.0, 13.0, 23.0, 30.0, 34.0, 36.0, 54.0, 65.0, 69.0, 100.0, 113.0, 121.0, 139.0, 179.0, 169.0, 186.0, 210.0, 204.0, 212.0, 209.0, 228.0, 183.0, 171.0, 192.0, 174.0, 159.0, 141.0, 98.0, 115.0, 86.0, 77.0, 70.0, 30.0, 31.0, 28.0, 17.0, 19.0, 14.0, 12.0, 7.0, 7.0, 6.0, 4.0, 3.0, 1.0, 2.0, 0.0, 0.0, 1.0, 1.0, 0.0, 1.0], "bins": [-0.05080900713801384, -0.04918718338012695, -0.047565359622240067, -0.04594353586435318, -0.04432171210646629, -0.04269988834857941, -0.04107806831598282, -0.039456240832805634, -0.037834420800209045, -0.03621259704232216, -0.03459077328443527, -0.032968949526548386, -0.0313471257686615, -0.029725302010774612, -0.028103480115532875, -0.02648165635764599, -0.024859830737113953, -0.023238006979227066, -0.02161618322134018, -0.019994359463453293, -0.018372535705566406, -0.01675071194767952, -0.015128890052437782, -0.013507066294550896, -0.011885242536664009, -0.010263418778777122, -0.008641595020890236, -0.007019772194325924, -0.005397948436439037, -0.0037761246785521507, -0.0021543018519878387, -0.0005324780941009521, 0.001089341938495636, 0.002711165463551879, 0.004332988988608122, 0.005954812280833721, 0.007576636038720608, 0.009198459796607494, 0.010820282623171806, 0.012442106381058693, 0.01406393013894558, 0.015685753896832466, 0.017307577654719353, 0.01892939954996109, 0.020551223307847977, 0.022173047065734863, 0.02379487082362175, 0.025416694581508636, 0.027038518339395523, 0.02866034209728241, 0.030282165855169296, 0.03190398961305618, 0.03352581337094307, 0.035147637128829956, 0.036769457161426544, 0.03839128464460373, 0.04001310467720032, 0.041634928435087204, 0.04325675219297409, 0.04487857595086098, 0.046500399708747864, 0.04812222346663475, 0.04974404722452164, 0.051365867257118225, 0.05298769474029541]}, "gradients/_encoder.encoder.8.bias": {"_type": "histogram", "values": [1.0, 0.0, 0.0, 0.0, 2.0, 1.0, 0.0, 2.0, 0.0, 1.0, 0.0, 1.0, 1.0, 1.0, 1.0, 2.0, 2.0, 3.0, 5.0, 0.0, 2.0, 2.0, 1.0, 0.0, 5.0, 5.0, 2.0, 4.0, 6.0, 5.0, 7.0, 2.0, 4.0, 8.0, 2.0, 1.0, 4.0, 3.0, 0.0, 1.0, 5.0, 2.0, 2.0, 3.0, 5.0, 1.0, 6.0, 1.0, 3.0, 2.0, 3.0, 0.0, 1.0, 1.0, 0.0, 1.0, 0.0, 1.0, 1.0, 0.0, 0.0, 1.0, 1.0, 1.0], "bins": [-0.028495512902736664, -0.027602829039096832, -0.026710145175457, -0.02581746131181717, -0.024924779310822487, -0.024032095447182655, -0.023139411583542824, -0.022246727719902992, -0.02135404571890831, -0.02046136185526848, -0.019568677991628647, -0.018675994127988815, -0.017783312126994133, -0.0168906282633543, -0.01599794439971447, -0.015105260536074638, -0.014212576672434807, -0.013319892808794975, -0.012427209876477718, -0.011534526012837887, -0.01064184308052063, -0.009749159216880798, -0.008856475353240967, -0.007963791489601135, -0.007071108557283878, -0.006178425159305334, -0.00528574176132679, -0.004393057897686958, -0.003500374499708414, -0.00260769110172987, -0.0017150072380900383, -0.0008223238401114941, 7.035955786705017e-05, 0.0009630430722609162, 0.0018557265866547823, 0.00274841021746397, 0.0036410936154425144, 0.004533777013421059, 0.00542646087706089, 0.006319144275039434, 0.007211827673017979, 0.00810451153665781, 0.008997194468975067, 0.009889878332614899, 0.01078256219625473, 0.011675245128571987, 0.012567928992211819, 0.013460611924529076, 0.014353295788168907, 0.015245979651808739, 0.01613866351544857, 0.017031345516443253, 0.017924029380083084, 0.018816713243722916, 0.019709397107362747, 0.02060208097100258, 0.02149476483464241, 0.022387448698282242, 0.023280132561922073, 0.024172816425561905, 0.025065498426556587, 0.02595818229019642, 0.02685086615383625, 0.027743550017476082, 0.028636232018470764]}, "gradients/_encoder.encoder.8.weight": {"_type": "histogram", "values": [1.0, 1.0, 0.0, 3.0, 4.0, 2.0, 12.0, 3.0, 9.0, 14.0, 25.0, 30.0, 39.0, 50.0, 72.0, 97.0, 142.0, 192.0, 208.0, 313.0, 430.0, 504.0, 652.0, 870.0, 1123.0, 1309.0, 1606.0, 2025.0, 2372.0, 2636.0, 2767.0, 2687.0, 2442.0, 2021.0, 1673.0, 1377.0, 1143.0, 878.0, 659.0, 553.0, 442.0, 334.0, 236.0, 194.0, 140.0, 117.0, 87.0, 71.0, 45.0, 39.0, 41.0, 20.0, 15.0, 13.0, 9.0, 7.0, 4.0, 5.0, 1.0, 1.0, 0.0, 0.0, 1.0, 2.0], "bins": [-0.038278572261333466, -0.03702196106314659, -0.03576534613966942, -0.034508734941482544, -0.03325212374329567, -0.031995512545108795, -0.030738897621631622, -0.029482286423444748, -0.028225673362612724, -0.0269690603017807, -0.025712449103593826, -0.024455836042761803, -0.02319922298192978, -0.021942611783742905, -0.02068599872291088, -0.019429385662078857, -0.018172774463891983, -0.01691616140305996, -0.015659550204873085, -0.014402937144041061, -0.013146325014531612, -0.011889712885022163, -0.01063309982419014, -0.00937648769468069, -0.008119875565171242, -0.006863263435661793, -0.0056066508404910564, -0.00435003824532032, -0.003093426115810871, -0.0018368139863014221, -0.0005802013911306858, 0.0006764112040400505, 0.0019330233335494995, 0.003189635695889592, 0.004446248058229685, 0.005702860653400421, 0.00695947278290987, 0.00821608491241932, 0.009472697973251343, 0.010729310102760792, 0.01198592223227024, 0.01324253436177969, 0.014499146491289139, 0.015755759552121162, 0.017012372612953186, 0.01826898381114006, 0.019525596871972084, 0.020782209932804108, 0.022038821130990982, 0.023295434191823006, 0.02455204539000988, 0.025808658450841904, 0.027065269649028778, 0.0283218827098608, 0.029578495770692825, 0.0308351069688797, 0.03209172189235687, 0.03334833309054375, 0.03460494801402092, 0.035861559212207794, 0.03711817041039467, 0.03837478160858154, 0.039631396532058716, 0.04088800773024559, 0.042144618928432465]}, "gradients/_encoder.encoder.5.weight": {"_type": "histogram", "values": [2.0, 0.0, 2.0, 0.0, 0.0, 0.0, 1.0, 0.0, 0.0, 1.0, 1.0, 1.0, 4.0, 2.0, 3.0, 2.0, 4.0, 5.0, 11.0, 8.0, 6.0, 15.0, 14.0, 18.0, 14.0, 11.0, 11.0, 13.0, 10.0, 11.0, 12.0, 6.0, 9.0, 11.0, 5.0, 6.0, 5.0, 2.0, 3.0, 5.0, 2.0, 1.0, 1.0, 2.0, 0.0, 5.0, 2.0, 1.0, 1.0, 0.0, 3.0, 1.0, 1.0, 1.0, 0.0, 0.0, 0.0, 0.0, 0.0, 0.0, 0.0, 0.0, 0.0, 1.0], "bins": [-0.010368665680289268, -0.009986131452023983, -0.009603598155081272, -0.009221063926815987, -0.008838530629873276, -0.00845599640160799, -0.008073462173342705, -0.007690928410738707, -0.007308394648134708, -0.00692586088553071, -0.006543327122926712, -0.0061607928946614265, -0.005778259132057428, -0.00539572536945343, -0.005013191141188145, -0.0046306573785841465, -0.004248123615980148, -0.00386558985337615, -0.0034830558579415083, -0.0031005218625068665, -0.0027179880999028683, -0.00233545433729887, -0.0019529203418642282, -0.0015703863464295864, -0.0011878525838255882, -0.0008053187048062682, -0.0004227848257869482, -4.025094676762819e-05, 0.0003422829322516918, 0.0007248168112710118, 0.0011073506902903318, 0.0014898846857249737, 0.0018724175170063972, 0.0022549512796103954, 0.0026374852750450373, 0.003020019270479679, 0.0034025530330836773, 0.0037850867956876755, 0.004167621023952961, 0.004550154786556959, 0.004932688549160957, 0.0053152223117649555, 0.005697756074368954, 0.006080290302634239, 0.006462824065238237, 0.0068453578278422356, 0.007227892056107521, 0.007610425818711519, 0.007992959581315517, 0.008375493809580803, 0.008758027106523514, 0.0091405613347888, 0.009523095563054085, 0.009905628859996796, 0.010288163088262081, 0.010670697316527367, 0.011053230613470078, 0.011435764841735363, 0.011818298138678074, 0.01220083236694336, 0.01258336566388607, 0.012965899892151356, 0.013348434120416641, 0.013730967417359352, 0.014113501645624638]}, "gradients/_encoder.encoder.5.bias": {"_type": "histogram", "values": [1.0, 0.0, 0.0, 0.0, 0.0, 0.0, 1.0, 0.0, 0.0, 0.0, 0.0, 0.0, 0.0, 1.0, 0.0, 0.0, 1.0, 1.0, 0.0, 1.0, 0.0, 2.0, 1.0, 1.0, 2.0, 0.0, 4.0, 5.0, 2.0, 6.0, 8.0, 7.0, 11.0, 6.0, 7.0, 14.0, 10.0, 9.0, 12.0, 15.0, 13.0, 19.0, 14.0, 14.0, 13.0, 12.0, 5.0, 4.0, 6.0, 8.0, 4.0, 4.0, 2.0, 4.0, 3.0, 1.0, 1.0, 0.0, 0.0, 0.0, 0.0, 0.0, 0.0, 1.0], "bins": [-0.02197049744427204, -0.021419228985905647, -0.020867958664894104, -0.02031669020652771, -0.019765419885516167, -0.019214151427149773, -0.01866288110613823, -0.018111612647771835, -0.01756034418940544, -0.017009075731039047, -0.016457805410027504, -0.01590653695166111, -0.015355267561972141, -0.014803998172283173, -0.014252728782594204, -0.013701459392905235, -0.013150190003216267, -0.012598920613527298, -0.01204765122383833, -0.01149638183414936, -0.010945113375782967, -0.010393843986093998, -0.00984257459640503, -0.00929130520671606, -0.008740035817027092, -0.008188766427338123, -0.007637497503310442, -0.007086228113621473, -0.006534959189593792, -0.005983689799904823, -0.005432420410215855, -0.004881151020526886, -0.004329881630837917, -0.0037786124739795923, -0.0032273433171212673, -0.0026760739274322987, -0.0021248047705739737, -0.0015735356137156487, -0.00102226622402668, -0.000470997067168355, 8.027208968997002e-05, 0.0006315413047559559, 0.0011828105198219419, 0.0017340797930955887, 0.0022853489499539137, 0.0028366181068122387, 0.0033878874965012074, 0.003939156420528889, 0.004490425810217857, 0.005041695199906826, 0.005592964123934507, 0.006144233513623476, 0.006695502437651157, 0.007246771827340126, 0.007798041217029095, 0.008349310606718063, 0.008900579065084457, 0.009451848454773426, 0.010003117844462395, 0.010554386302828789, 0.011105655692517757, 0.011656925082206726, 0.012208194471895695, 0.012759463861584663, 0.013310733251273632]}, "gradients/_encoder.encoder.4.bias": {"_type": "histogram", "values": [1.0, 0.0, 0.0, 0.0, 0.0, 0.0, 0.0, 0.0, 0.0, 0.0, 1.0, 0.0, 0.0, 1.0, 3.0, 1.0, 4.0, 1.0, 2.0, 1.0, 7.0, 3.0, 10.0, 2.0, 9.0, 8.0, 7.0, 19.0, 17.0, 17.0, 18.0, 12.0, 19.0, 23.0, 11.0, 9.0, 9.0, 4.0, 7.0, 6.0, 8.0, 3.0, 2.0, 0.0, 2.0, 2.0, 1.0, 0.0, 2.0, 0.0, 1.0, 0.0, 1.0, 1.0, 0.0, 0.0, 0.0, 0.0, 0.0, 0.0, 0.0, 0.0, 0.0, 1.0], "bins": [-8.847564458847046e-09, -8.556526154279709e-09, -8.265487849712372e-09, -7.974449545145035e-09, -7.683411240577698e-09, -7.392372936010361e-09, -7.101334631443024e-09, -6.810296326875687e-09, -6.51925802230835e-09, -6.2282197177410126e-09, -5.9371814131736755e-09, -5.6461431086063385e-09, -5.3551048040390015e-09, -5.0640664994716644e-09, -4.773028194904327e-09, -4.48198989033699e-09, -4.190951585769653e-09, -3.899913281202316e-09, -3.6088749766349792e-09, -3.3178366720676422e-09, -3.026798367500305e-09, -2.735760062932968e-09, -2.444721758365631e-09, -2.153683453798294e-09, -1.862645149230957e-09, -1.57160684466362e-09, -1.280568540096283e-09, -9.89530235528946e-10, -6.984919309616089e-10, -4.0745362639427185e-10, -1.1641532182693481e-10, 1.7462298274040222e-10, 4.656612873077393e-10, 7.566995918750763e-10, 1.0477378964424133e-09, 1.3387762010097504e-09, 1.6298145055770874e-09, 1.9208528101444244e-09, 2.2118911147117615e-09, 2.5029294192790985e-09, 2.7939677238464355e-09, 3.0850060284137726e-09, 3.3760443329811096e-09, 3.6670826375484467e-09, 3.958120942115784e-09, 4.249159246683121e-09, 4.540197551250458e-09, 4.831235855817795e-09, 5.122274160385132e-09, 5.413312464952469e-09, 5.704350769519806e-09, 5.995389074087143e-09, 6.28642737865448e-09, 6.577465683221817e-09, 6.868503987789154e-09, 7.159542292356491e-09, 7.450580596923828e-09, 7.741618901491165e-09, 8.032657206058502e-09, 8.32369551062584e-09, 8.614733815193176e-09, 8.905772119760513e-09, 9.19681042432785e-09, 9.487848728895187e-09, 9.778887033462524e-09]}, "gradients/_encoder.encoder.4.weight": {"_type": "histogram", "values": [4.0, 0.0, 0.0, 1.0, 5.0, 2.0, 7.0, 6.0, 15.0, 16.0, 30.0, 34.0, 41.0, 74.0, 113.0, 156.0, 212.0, 269.0, 387.0, 561.0, 780.0, 1005.0, 1368.0, 1813.0, 2481.0, 3414.0, 4350.0, 5611.0, 7104.0, 8665.0, 10337.0, 11775.0, 11771.0, 11387.0, 10117.0, 8528.0, 6990.0, 5400.0, 4221.0, 3120.0, 2372.0, 1778.0, 1292.0, 996.0, 733.0, 506.0, 317.0, 268.0, 199.0, 114.0, 102.0, 67.0, 55.0, 31.0, 25.0, 19.0, 3.0, 11.0, 2.0, 6.0, 4.0, 0.0, 1.0, 1.0], "bins": [-0.040571391582489014, -0.0393172912299633, -0.03806319087743759, -0.03680909052491188, -0.03555499017238617, -0.03430088981986046, -0.03304678946733475, -0.031792692840099335, -0.030538590624928474, -0.029284490272402763, -0.028030389919877052, -0.02677628956735134, -0.02552219107747078, -0.02426809072494507, -0.023013990372419357, -0.021759890019893646, -0.020505789667367935, -0.019251689314842224, -0.017997588962316513, -0.016743488609790802, -0.015489389188587666, -0.014235288836061954, -0.012981189414858818, -0.011727089062333107, -0.010472988709807396, -0.009218888357281685, -0.007964788004755974, -0.006710688583552837, -0.005456588231027126, -0.004202487878501415, -0.0029483879916369915, -0.0016942881047725677, -0.00044018402695655823, 0.0008139160927385092, 0.0020680162124335766, 0.003322116332128644, 0.004576216451823711, 0.0058303168043494225, 0.007084416691213846, 0.00833851657807827, 0.009592616930603981, 0.010846717283129692, 0.012100817635655403, 0.01335491705685854, 0.01460901740938425, 0.015863116830587387, 0.017117217183113098, 0.01837131753563881, 0.01962541788816452, 0.02087951824069023, 0.022133618593215942, 0.023387718945741653, 0.024641819298267365, 0.025895919650793076, 0.027150018140673637, 0.02840411849319935, 0.02965821884572506, 0.03091231919825077, 0.03216641768813133, 0.03342051804065704, 0.034674618393182755, 0.035928718745708466, 0.03718281909823418, 0.03843691945075989, 0.0396910198032856]}, "gradients/_encoder.encoder.1.weight": {"_type": "histogram", "values": [1.0, 0.0, 0.0, 0.0, 0.0, 0.0, 0.0, 0.0, 0.0, 2.0, 0.0, 0.0, 1.0, 1.0, 2.0, 2.0, 2.0, 2.0, 6.0, 2.0, 7.0, 7.0, 8.0, 9.0, 9.0, 10.0, 20.0, 18.0, 21.0, 17.0, 21.0, 26.0, 23.0, 20.0, 27.0, 27.0, 20.0, 23.0, 28.0, 27.0, 18.0, 25.0, 15.0, 11.0, 15.0, 9.0, 7.0, 2.0, 3.0, 6.0, 3.0, 2.0, 2.0, 1.0, 1.0, 0.0, 1.0, 0.0, 0.0, 1.0, 0.0, 0.0, 0.0, 1.0], "bins": [-0.012422071769833565, -0.012060279957950115, -0.011698488146066666, -0.011336696334183216, -0.010974904522299767, -0.010613113641738892, -0.010251321829855442, -0.009889530017971992, -0.009527738206088543, -0.009165946394205093, -0.008804154582321644, -0.008442362770438194, -0.00808057188987732, -0.0077187796123325825, -0.00735698826611042, -0.006995196454226971, -0.006633404642343521, -0.0062716128304600716, -0.005909821018576622, -0.00554802967235446, -0.00518623786047101, -0.004824446048587561, -0.004462654702365398, -0.004100862890481949, -0.0037390710785984993, -0.0033772792667150497, -0.003015487687662244, -0.002653696108609438, -0.0022919042967259884, -0.0019301126012578607, -0.001568320905789733, -0.001206529326736927, -0.0008447375148534775, -0.00048294581938534975, -0.00012115412391722202, 0.0002406375715509057, 0.0006024292670190334, 0.0009642209624871612, 0.0013260126579552889, 0.0016878042370080948, 0.0020495960488915443, 0.002411387860774994, 0.0027731794398278, 0.0031349710188806057, 0.0034967628307640553, 0.003858554642647505, 0.004220345988869667, 0.004582137800753117, 0.004943929612636566, 0.005305721424520016, 0.005667513236403465, 0.0060293045826256275, 0.006391096394509077, 0.006752888206392527, 0.007114679552614689, 0.007476471364498138, 0.007838263176381588, 0.008200054988265038, 0.008561846800148487, 0.008923638612031937, 0.009285429492592812, 0.009647221304476261, 0.01000901311635971, 0.01037080492824316, 0.01073259674012661]}, "gradients/_encoder.encoder.1.bias": {"_type": "histogram", "values": [1.0, 0.0, 0.0, 0.0, 0.0, 0.0, 0.0, 0.0, 0.0, 0.0, 0.0, 1.0, 0.0, 1.0, 0.0, 1.0, 1.0, 1.0, 2.0, 5.0, 9.0, 4.0, 8.0, 8.0, 5.0, 9.0, 15.0, 12.0, 12.0, 14.0, 16.0, 21.0, 28.0, 23.0, 18.0, 27.0, 25.0, 28.0, 22.0, 31.0, 16.0, 24.0, 16.0, 16.0, 17.0, 5.0, 8.0, 16.0, 4.0, 5.0, 6.0, 8.0, 4.0, 5.0, 2.0, 5.0, 3.0, 2.0, 0.0, 0.0, 0.0, 1.0, 0.0, 1.0], "bins": [-0.01562795415520668, -0.015201072208583355, -0.01477419026196003, -0.014347308315336704, -0.013920426368713379, -0.013493543490767479, -0.013066661544144154, -0.012639779597520828, -0.012212897650897503, -0.011786015704274178, -0.011359133757650852, -0.010932251811027527, -0.010505368933081627, -0.010078487917780876, -0.009651605039834976, -0.00922472309321165, -0.008797841146588326, -0.008370959199965, -0.007944077253341675, -0.007517194841057062, -0.007090312894433737, -0.0066634309478104115, -0.006236548535525799, -0.0058096665889024734, -0.005382784642279148, -0.004955902695655823, -0.004529020749032497, -0.004102138336747885, -0.0036752563901245594, -0.003248374443501234, -0.002821492264047265, -0.002394610084593296, -0.001967727206647396, -0.001540845143608749, -0.0011139630805701017, -0.0006870810175314546, -0.0002601989544928074, 0.00016668299213051796, 0.000593565171584487, 0.001020447351038456, 0.0014473292976617813, 0.0018742113607004285, 0.0023010934237390757, 0.0027279756031930447, 0.00315485754981637, 0.0035817394964396954, 0.004008621908724308, 0.004435503855347633, 0.004862385801970959, 0.005289267748594284, 0.005716149695217609, 0.006143032107502222, 0.006569914054125547, 0.006996796000748873, 0.007423678413033485, 0.00785056035965681, 0.008277442306280136, 0.008704324252903461, 0.009131206199526787, 0.009558088146150112, 0.009984970092773438, 0.010411852970719337, 0.010838734917342663, 0.011265616863965988, 0.011692498810589314]}, "gradients/_encoder.encoder.0.bias": {"_type": "histogram", "values": [1.0, 2.0, 0.0, 1.0, 2.0, 1.0, 2.0, 2.0, 2.0, 0.0, 4.0, 2.0, 4.0, 10.0, 8.0, 8.0, 5.0, 8.0, 24.0, 16.0, 22.0, 20.0, 24.0, 11.0, 26.0, 27.0, 13.0, 35.0, 18.0, 15.0, 32.0, 9.0, 30.0, 15.0, 10.0, 21.0, 11.0, 11.0, 6.0, 8.0, 3.0, 6.0, 6.0, 1.0, 5.0, 3.0, 5.0, 1.0, 2.0, 1.0, 1.0, 1.0, 4.0, 1.0, 2.0, 0.0, 0.0, 1.0, 1.0, 0.0, 0.0, 1.0, 0.0, 1.0], "bins": [-2.868473529815674e-07, -2.763117663562298e-07, -2.657761797308922e-07, -2.552405931055546e-07, -2.44705006480217e-07, -2.3416941985487938e-07, -2.2363383322954178e-07, -2.1309824660420418e-07, -2.0256265997886658e-07, -1.9202707335352898e-07, -1.8149148672819138e-07, -1.7095590010285378e-07, -1.6042031347751617e-07, -1.4988472685217857e-07, -1.3934914022684097e-07, -1.2881355360150337e-07, -1.1827796697616577e-07, -1.0774238035082817e-07, -9.720679372549057e-08, -8.667120710015297e-08, -7.613562047481537e-08, -6.560003384947777e-08, -5.506444722414017e-08, -4.4528860598802567e-08, -3.3993273973464966e-08, -2.3457687348127365e-08, -1.2922100722789764e-08, -2.3865140974521637e-09, 8.149072527885437e-09, 1.8684659153223038e-08, 2.922024577856064e-08, 3.975583240389824e-08, 5.029141902923584e-08, 6.082700565457344e-08, 7.136259227991104e-08, 8.189817890524864e-08, 9.243376553058624e-08, 1.0296935215592384e-07, 1.1350493878126144e-07, 1.2404052540659904e-07, 1.3457611203193665e-07, 1.4511169865727425e-07, 1.5564728528261185e-07, 1.6618287190794945e-07, 1.7671845853328705e-07, 1.8725404515862465e-07, 1.9778963178396225e-07, 2.0832521840929985e-07, 2.1886080503463745e-07, 2.2939639165997505e-07, 2.3993197828531265e-07, 2.5046756491065025e-07, 2.6100315153598785e-07, 2.7153873816132545e-07, 2.8207432478666306e-07, 2.9260991141200066e-07, 3.0314549803733826e-07, 3.1368108466267586e-07, 3.2421667128801346e-07, 3.3475225791335106e-07, 3.4528784453868866e-07, 3.5582343116402626e-07, 3.6635901778936386e-07, 3.7689460441470146e-07, 3.8743019104003906e-07]}, "gradients/_encoder.encoder.0.weight": {"_type": "histogram", "values": [1.0, 0.0, 0.0, 0.0, 0.0, 0.0, 0.0, 0.0, 0.0, 1.0, 0.0, 5.0, 4.0, 5.0, 4.0, 10.0, 9.0, 18.0, 25.0, 36.0, 50.0, 75.0, 103.0, 184.0, 279.0, 504.0, 869.0, 1411.0, 2669.0, 5093.0, 9075.0, 16930.0, 30726.0, 57498.0, 96502.0, 98337.0, 59383.0, 31727.0, 16924.0, 8922.0, 4895.0, 2565.0, 1446.0, 817.0, 552.0, 279.0, 181.0, 122.0, 64.0, 63.0, 38.0, 24.0, 23.0, 18.0, 10.0, 5.0, 7.0, 8.0, 5.0, 3.0, 4.0, 2.0, 1.0, 1.0], "bins": [-0.0872214287519455, -0.08473245054483414, -0.08224346488714218, -0.07975448668003082, -0.07726550102233887, -0.07477652281522751, -0.07228754460811615, -0.0697985589504242, -0.06730958074331284, -0.06482060253620148, -0.06233161687850952, -0.05984263867139816, -0.057353656738996506, -0.05486467480659485, -0.05237569659948349, -0.04988671466708183, -0.047397732734680176, -0.04490875080227852, -0.04241976886987686, -0.0399307906627655, -0.037441808730363846, -0.03495282679796219, -0.03246384859085083, -0.029974866658449173, -0.027485884726047516, -0.02499690279364586, -0.02250792272388935, -0.020018942654132843, -0.017529960721731186, -0.015040979720652103, -0.012551998719573021, -0.010063018649816513, -0.007574044167995453, -0.00508506316691637, -0.002596082165837288, -0.00010710116475820541, 0.002381879836320877, 0.0048708608373999596, 0.007359841838479042, 0.00984882190823555, 0.012337803840637207, 0.01482678484171629, 0.017315765842795372, 0.01980474591255188, 0.022293727844953537, 0.024782709777355194, 0.027271689847111702, 0.02976066991686821, 0.03224965184926987, 0.034738633781671524, 0.03722761571407318, 0.03971659392118454, 0.0422055758535862, 0.044694557785987854, 0.04718353599309921, 0.04967251792550087, 0.05216149985790253, 0.054650481790304184, 0.05713946372270584, 0.0596284419298172, 0.06211742386221886, 0.06460640579462051, 0.06709538400173187, 0.06958436965942383, 0.07207334786653519]}, "_wandb": {"runtime": 80}}