{"train_loss": 0.5397590398788452, "train_ssl_loss": 0.5122750997543335, "train_tsk_loss": 0.027483969926834106, "test_loss": 0.406558632850647, "test_ssl_loss": 0.37786364555358887, "test_tsk_loss": 0.02869497239589691, "_timestamp": 1697563776.4348288, "_runtime": 128.48337769508362, "_step": 49, "gradients/graph_2taskmapper.out.bias": {"_type": "histogram", "values": [0.0, 0.0, 0.0, 0.0, 0.0, 0.0, 0.0, 0.0, 0.0, 0.0, 0.0, 0.0, 0.0, 0.0, 0.0, 0.0, 0.0, 0.0, 0.0, 0.0, 0.0, 0.0, 0.0, 0.0, 0.0, 0.0, 0.0, 0.0, 0.0, 0.0, 0.0, 1.0, 0.0, 0.0, 0.0, 0.0, 0.0, 0.0, 0.0, 0.0, 0.0, 0.0, 0.0, 0.0, 0.0, 0.0, 0.0, 0.0, 0.0, 0.0, 0.0, 0.0, 0.0, 0.0, 0.0, 0.0, 0.0, 0.0, 0.0, 0.0, 0.0, 0.0, 0.0, 0.0], "bins": [-0.2599714398384094, -0.2599714398384094, -0.2599714398384094, -0.2599714398384094, -0.2599714398384094, -0.2599714398384094, -0.2599714398384094, -0.2599714398384094, -0.2599714398384094, -0.2599714398384094, -0.2599714398384094, -0.2599714398384094, -0.2599714398384094, -0.2599714398384094, -0.2599714398384094, -0.2599714398384094, -0.2599714398384094, -0.2599714398384094, -0.2599714398384094, -0.2599714398384094, -0.2599714398384094, -0.2599714398384094, -0.2599714398384094, -0.2599714398384094, -0.2599714398384094, -0.2599714398384094, -0.2599714398384094, -0.2599714398384094, -0.2599714398384094, -0.2599714398384094, -0.2599714398384094, -0.2599714398384094, -0.2599714398384094, -0.2599714398384094, -0.2599714398384094, -0.2599714398384094, -0.2599714398384094, -0.2599714398384094, -0.2599714398384094, -0.2599714398384094, -0.2599714398384094, -0.2599714398384094, -0.2599714398384094, -0.2599714398384094, -0.2599714398384094, -0.2599714398384094, -0.2599714398384094, -0.2599714398384094, -0.2599714398384094, -0.2599714398384094, -0.2599714398384094, -0.2599714398384094, -0.2599714398384094, -0.2599714398384094, -0.2599714398384094, -0.2599714398384094, -0.2599714398384094, -0.2599714398384094, -0.2599714398384094, -0.2599714398384094, -0.2599714398384094, -0.2599714398384094, -0.2599714398384094, -0.2599714398384094, -0.2599714398384094]}, "gradients/graph_2taskmapper.out.weight": {"_type": "histogram", "values": [1.0, 0.0, 0.0, 0.0, 0.0, 0.0, 0.0, 0.0, 0.0, 0.0, 0.0, 0.0, 0.0, 0.0, 0.0, 0.0, 0.0, 1.0, 0.0, 0.0, 0.0, 1.0, 0.0, 0.0, 0.0, 0.0, 0.0, 0.0, 0.0, 0.0, 0.0, 0.0, 1.0, 0.0, 0.0, 0.0, 0.0, 0.0, 0.0, 0.0, 0.0, 0.0, 0.0, 0.0, 0.0, 0.0, 0.0, 0.0, 0.0, 0.0, 0.0, 0.0, 0.0, 0.0, 0.0, 0.0, 0.0, 1.0, 0.0, 0.0, 0.0, 0.0, 0.0, 11.0], "bins": [-0.18220430612564087, -0.1793573647737503, -0.17651042342185974, -0.17366348206996918, -0.1708165407180786, -0.16796959936618805, -0.16512265801429749, -0.16227570176124573, -0.15942877531051636, -0.1565818339586258, -0.15373489260673523, -0.15088795125484467, -0.1480410099029541, -0.14519406855106354, -0.14234712719917297, -0.13950017094612122, -0.13665322959423065, -0.1338062882423401, -0.13095934689044952, -0.12811240553855896, -0.1252654641866684, -0.12241851538419724, -0.11957157403230667, -0.11672463268041611, -0.11387769132852554, -0.11103074997663498, -0.10818380862474442, -0.10533686727285385, -0.10248991847038269, -0.09964297711849213, -0.09679603576660156, -0.093949094414711, -0.09110215306282043, -0.08825521171092987, -0.0854082703590393, -0.08256132900714874, -0.07971438765525818, -0.07686743885278702, -0.07402049750089645, -0.07117355614900589, -0.06832661479711533, -0.06547967344522476, -0.0626327320933342, -0.059785787016153336, -0.05693884566426277, -0.05409190431237221, -0.051244959235191345, -0.04839801788330078, -0.04555107653141022, -0.04270413517951965, -0.03985719382762909, -0.03701024875044823, -0.03416330739855766, -0.0313163660466671, -0.028469422832131386, -0.025622479617595673, -0.02277553826570511, -0.019928596913814545, -0.01708165369927883, -0.014234711416065693, -0.011387769132852554, -0.008540826849639416, -0.005693884566426277, -0.002846941351890564, 0.0]}, "gradients/graph_2taskmapper.lins.1.bias": {"_type": "histogram", "values": [1.0, 0.0, 1.0, 0.0, 0.0, 0.0, 0.0, 0.0, 0.0, 0.0, 0.0, 0.0, 0.0, 0.0, 0.0, 0.0, 0.0, 0.0, 0.0, 0.0, 0.0, 0.0, 0.0, 0.0, 0.0, 0.0, 0.0, 0.0, 0.0, 0.0, 1.0, 0.0, 0.0, 0.0, 1.0, 0.0, 0.0, 0.0, 0.0, 0.0, 0.0, 0.0, 0.0, 0.0, 0.0, 0.0, 7.0, 0.0, 1.0, 1.0, 0.0, 1.0, 1.0, 0.0, 0.0, 0.0, 0.0, 0.0, 0.0, 0.0, 0.0, 0.0, 0.0, 1.0], "bins": [-0.05069722235202789, -0.049603354185819626, -0.04850948601961136, -0.04741562157869339, -0.04632175341248512, -0.045227885246276855, -0.04413402080535889, -0.04304015263915062, -0.04194628447294235, -0.040852416306734085, -0.03975854814052582, -0.03866468369960785, -0.03757081553339958, -0.036476947367191315, -0.035383082926273346, -0.03428921476006508, -0.03319534659385681, -0.032101478427648544, -0.031007612124085426, -0.02991374582052231, -0.02881987765431404, -0.027726009488105774, -0.026632143184542656, -0.025538276880979538, -0.02444440871477127, -0.023350540548563004, -0.022256674244999886, -0.021162807941436768, -0.0200689397752285, -0.018975071609020233, -0.017881205305457115, -0.016787339001893997, -0.01569347083568573, -0.014599603600800037, -0.013505736365914345, -0.012411869131028652, -0.01131800189614296, -0.010224134661257267, -0.009130267426371574, -0.008036400191485882, -0.006942532956600189, -0.005848665721714497, -0.004754798486828804, -0.0036609312519431114, -0.002567064017057419, -0.0014731967821717262, -0.00037932954728603363, 0.000714537687599659, 0.0018084049224853516, 0.002902272157371044, 0.003996139392256737, 0.005090006627142429, 0.006183873862028122, 0.0072777410969138145, 0.008371608331799507, 0.0094654755666852, 0.010559342801570892, 0.011653210036456585, 0.012747077271342278, 0.01384094450622797, 0.014934811741113663, 0.01602867990732193, 0.017122546210885048, 0.018216412514448166, 0.019310280680656433]}, "gradients/graph_2taskmapper.lins.1.weight": {"_type": "histogram", "values": [2.0, 0.0, 2.0, 1.0, 0.0, 1.0, 0.0, 0.0, 0.0, 1.0, 1.0, 2.0, 1.0, 1.0, 0.0, 1.0, 0.0, 2.0, 1.0, 3.0, 1.0, 0.0, 0.0, 1.0, 0.0, 1.0, 0.0, 1.0, 1.0, 0.0, 2.0, 1.0, 0.0, 2.0, 3.0, 4.0, 5.0, 1.0, 4.0, 5.0, 2.0, 1.0, 1.0, 2.0, 9.0, 11.0, 245.0, 25.0, 8.0, 11.0, 4.0, 1.0, 1.0, 1.0, 1.0, 0.0, 1.0, 3.0, 0.0, 1.0, 2.0, 0.0, 1.0, 2.0], "bins": [-0.02005336806178093, -0.01962026208639145, -0.01918715611100197, -0.018754050135612488, -0.018320942297577858, -0.017887836322188377, -0.017454730346798897, -0.017021624371409416, -0.016588518396019936, -0.016155412420630455, -0.015722306445240974, -0.01528919953852892, -0.014856093563139439, -0.014422986656427383, -0.013989880681037903, -0.013556774705648422, -0.013123667798936367, -0.012690561823546886, -0.012257454916834831, -0.01182434894144535, -0.01139124296605587, -0.01095813699066639, -0.010525030083954334, -0.010091924108564854, -0.009658817201852798, -0.009225711226463318, -0.008792604319751263, -0.008359498344361782, -0.007926392368972301, -0.007493285927921534, -0.007060179486870766, -0.006627073511481285, -0.006193968001753092, -0.005760861560702324, -0.005327755585312843, -0.004894649144262075, -0.0044615427032113075, -0.004028436727821827, -0.003595330286771059, -0.003162224078550935, -0.0027291178703308105, -0.0022960116621106863, -0.0018629053374752402, -0.0014297990128397942, -0.00099669280461967, -0.0005635865963995457, -0.00013048015534877777, 0.0003026260528713465, 0.0007357322610914707, 0.001168838469311595, 0.001601944793947041, 0.002035051118582487, 0.0024681573268026114, 0.0029012635350227356, 0.0033343699760735035, 0.0037674761842936277, 0.004200582392513752, 0.00463368883356452, 0.0050667948089540005, 0.005499901250004768, 0.005933007225394249, 0.006366113666445017, 0.006799220107495785, 0.007232326082885265, 0.007665432523936033]}, "gradients/graph_2taskmapper.lins.0.bias": {"_type": "histogram", "values": [1.0, 0.0, 0.0, 0.0, 0.0, 0.0, 0.0, 2.0, 0.0, 0.0, 0.0, 1.0, 0.0, 0.0, 0.0, 1.0, 1.0, 1.0, 0.0, 0.0, 0.0, 0.0, 0.0, 0.0, 0.0, 0.0, 0.0, 0.0, 1.0, 0.0, 0.0, 1.0, 0.0, 0.0, 1.0, 0.0, 1.0, 1.0, 0.0, 0.0, 1.0, 0.0, 1.0, 0.0, 0.0, 1.0, 0.0, 0.0, 0.0, 0.0, 1.0, 0.0, 0.0, 0.0, 4.0, 2.0, 0.0, 1.0, 0.0, 0.0, 0.0, 0.0, 0.0, 1.0], "bins": [-0.024765413254499435, -0.0243095513433218, -0.023853691294789314, -0.02339782938361168, -0.022941969335079193, -0.022486107423901558, -0.022030245512723923, -0.021574385464191437, -0.0211185235530138, -0.020662661641836166, -0.02020680159330368, -0.019750939682126045, -0.01929507963359356, -0.018839217722415924, -0.01838335581123829, -0.017927495762705803, -0.017471633851528168, -0.017015771940350533, -0.016559911891818047, -0.01610404998064041, -0.015648189932107925, -0.01519232802093029, -0.01473646704107523, -0.014280606061220169, -0.013824745081365108, -0.013368884101510048, -0.012913023121654987, -0.012457161210477352, -0.012001300230622292, -0.011545439250767231, -0.01108957827091217, -0.010633716359734535, -0.010177855379879475, -0.009721994400024414, -0.009266133420169353, -0.008810271508991718, -0.008354410529136658, -0.007898549549281597, -0.0074426885694265366, -0.006986827123910189, -0.006530965678393841, -0.00607510469853878, -0.005619243253022432, -0.005163382273167372, -0.004707520827651024, -0.004251659847795963, -0.003795798635110259, -0.003339937422424555, -0.0028840764425694942, -0.00242821522988379, -0.001972354017198086, -0.0015164929209277034, -0.0010606317082419991, -0.0006047706119716167, -0.00014890939928591251, 0.0003069518133997917, 0.000762813026085496, 0.0012186742387712002, 0.0016745354514569044, 0.0021303966641426086, 0.0025862576439976692, 0.0030421188566833735, 0.0034979800693690777, 0.003953841514885426, 0.004409702494740486]}, "gradients/graph_2taskmapper.lins.0.weight": {"_type": "histogram", "values": [1.0, 0.0, 0.0, 0.0, 2.0, 1.0, 0.0, 4.0, 1.0, 1.0, 3.0, 0.0, 1.0, 2.0, 4.0, 7.0, 6.0, 4.0, 0.0, 4.0, 5.0, 3.0, 4.0, 4.0, 3.0, 10.0, 8.0, 13.0, 16.0, 9.0, 15.0, 10.0, 21.0, 31.0, 39.0, 61.0, 178.0, 39.0, 28.0, 21.0, 18.0, 12.0, 20.0, 20.0, 18.0, 13.0, 8.0, 7.0, 4.0, 8.0, 7.0, 5.0, 14.0, 10.0, 9.0, 3.0, 8.0, 3.0, 8.0, 3.0, 3.0, 2.0, 1.0, 5.0], "bins": [-0.004076866433024406, -0.003964432515203953, -0.003851998597383499, -0.0037395646795630455, -0.0036271309945732355, -0.003514697076752782, -0.0034022631589323282, -0.0032898292411118746, -0.003177395323291421, -0.0030649614054709673, -0.0029525274876505136, -0.0028400938026607037, -0.00272765988484025, -0.0026152259670197964, -0.0025027920491993427, -0.002390358131378889, -0.0022779242135584354, -0.002165490295737982, -0.002053056377917528, -0.0019406225765123963, -0.0018281886586919427, -0.0017157548572868109, -0.0016033209394663572, -0.0014908870216459036, -0.0013784533366560936, -0.00126601941883564, -0.0011535856174305081, -0.0010411516996100545, -0.0009287177817896008, -0.0008162839221768081, -0.0007038500625640154, -0.0005914161447435617, -0.0004789822269231081, -0.0003665483382064849, -0.0002541144494898617, -0.000141680589877069, -2.924670116044581e-05, 8.318718755617738e-05, 0.0001956210471689701, 0.00030805496498942375, 0.0004204888246022165, 0.0005329226842150092, 0.0006453566020354629, 0.0007577904616482556, 0.0008702243212610483, 0.000982658239081502, 0.0010950921569019556, 0.0012075260747224092, 0.001319959876127541, 0.0014323937939479947, 0.0015448275953531265, 0.0016572615131735802, 0.0017696954309940338, 0.0018821293488144875, 0.001994563266634941, 0.0021069971844553947, 0.0022194308694452047, 0.0023318647872656584, 0.002444298705086112, 0.002556732390075922, 0.0026691663078963757, 0.0027816002257168293, 0.002894034143537283, 0.0030064680613577366, 0.0031189019791781902]}, "gradients/graph_2_projector.0.bias": {"_type": "histogram", "values": [2.0, 0.0, 0.0, 0.0, 0.0, 0.0, 1.0, 1.0, 0.0, 0.0, 1.0, 0.0, 0.0, 1.0, 1.0, 1.0, 0.0, 2.0, 0.0, 0.0, 1.0, 0.0, 0.0, 0.0, 0.0, 0.0, 0.0, 2.0, 0.0, 0.0, 2.0, 0.0, 0.0, 1.0, 1.0, 2.0, 1.0, 1.0, 1.0, 1.0, 0.0, 0.0, 1.0, 0.0, 0.0, 0.0, 0.0, 0.0, 0.0, 2.0, 2.0, 1.0, 0.0, 0.0, 0.0, 2.0, 0.0, 0.0, 0.0, 0.0, 0.0, 0.0, 0.0, 1.0], "bins": [-0.03263295814394951, -0.03151565045118332, -0.03039834275841713, -0.02928103692829609, -0.0281637292355299, -0.02704642154276371, -0.02592911571264267, -0.02481180801987648, -0.02369450032711029, -0.0225771926343441, -0.02145988494157791, -0.02034257911145687, -0.01922527141869068, -0.018107963725924492, -0.01699065789580345, -0.015873350203037262, -0.014756042510271072, -0.013638734817504883, -0.012521428056061268, -0.011404121294617653, -0.010286813601851463, -0.009169505909085274, -0.008052199147641659, -0.006934892386198044, -0.005817584693431854, -0.004700277466326952, -0.0035829702392220497, -0.0024656630121171474, -0.0013483557850122452, -0.0002310485579073429, 0.0008862586691975594, 0.0020035654306411743, 0.0031208768486976624, 0.004238184075802565, 0.005355491302907467, 0.006472798530012369, 0.007590105757117271, 0.008707413449883461, 0.009824720211327076, 0.010942026972770691, 0.01205933466553688, 0.01317664235830307, 0.014293949119746685, 0.0154112558811903, 0.01652856357395649, 0.01764587126672268, 0.01876317709684372, 0.01988048478960991, 0.0209977924823761, 0.022115100175142288, 0.023232407867908478, 0.024349713698029518, 0.025467021390795708, 0.026584329083561897, 0.027701634913682938, 0.028818942606449127, 0.029936250299215317, 0.031053557991981506, 0.032170865684747696, 0.033288173377513885, 0.03440547734498978, 0.035522785037755966, 0.036640092730522156, 0.037757400423288345, 0.038874708116054535]}, "gradients/graph_2_projector.0.weight": {"_type": "histogram", "values": [1.0, 0.0, 3.0, 3.0, 4.0, 7.0, 7.0, 16.0, 13.0, 18.0, 27.0, 30.0, 38.0, 64.0, 89.0, 79.0, 108.0, 128.0, 160.0, 166.0, 253.0, 262.0, 332.0, 364.0, 392.0, 400.0, 459.0, 422.0, 438.0, 448.0, 394.0, 436.0, 390.0, 330.0, 299.0, 286.0, 257.0, 204.0, 184.0, 142.0, 114.0, 83.0, 75.0, 59.0, 53.0, 51.0, 23.0, 18.0, 13.0, 8.0, 11.0, 8.0, 8.0, 6.0, 1.0, 2.0, 2.0, 1.0, 0.0, 1.0, 1.0, 0.0, 0.0, 1.0], "bins": [-0.044376734644174576, -0.042822420597076416, -0.041268110275268555, -0.039713796228170395, -0.038159485906362534, -0.036605171859264374, -0.03505086153745651, -0.03349654749035835, -0.03194223344326019, -0.030387921258807182, -0.028833609074354172, -0.027279295027256012, -0.02572498470544815, -0.02417067065834999, -0.02261635847389698, -0.02106204628944397, -0.01950773596763611, -0.017953423783183098, -0.016399111598730087, -0.014844798482954502, -0.013290486298501492, -0.011736174114048481, -0.010181860998272896, -0.008627548813819885, -0.007073236629366875, -0.005518924444913864, -0.003964611794799566, -0.0024102991446852684, -0.0008559869602322578, 0.0006983252242207527, 0.002252638339996338, 0.0038069505244493484, 0.0053612664341926575, 0.006915578618645668, 0.008469890803098679, 0.010024203918874264, 0.011578516103327274, 0.013132828287780285, 0.01468714140355587, 0.01624145358800888, 0.01779576577246189, 0.0193500779569149, 0.020904390141367912, 0.022458702325820923, 0.024013016372919083, 0.025567326694726944, 0.027121640741825104, 0.028675952926278114, 0.030230265110731125, 0.031784579157829285, 0.033338889479637146, 0.034893203526735306, 0.03644751384854317, 0.03800182789564133, 0.03955613821744919, 0.04111045226454735, 0.04266476631164551, 0.04421908035874367, 0.04577339068055153, 0.04732770472764969, 0.04888201504945755, 0.05043632909655571, 0.05199064314365387, 0.05354495346546173, 0.05509926378726959]}, "gradients/graph_2_encoder.encoder.12.bias": {"_type": "histogram", "values": [2.0, 0.0, 0.0, 0.0, 1.0, 1.0, 0.0, 2.0, 0.0, 0.0, 4.0, 1.0, 3.0, 2.0, 1.0, 2.0, 6.0, 7.0, 4.0, 0.0, 2.0, 4.0, 3.0, 6.0, 7.0, 6.0, 10.0, 12.0, 7.0, 13.0, 6.0, 9.0, 8.0, 10.0, 19.0, 3.0, 8.0, 6.0, 8.0, 10.0, 7.0, 5.0, 5.0, 7.0, 11.0, 5.0, 6.0, 1.0, 2.0, 4.0, 2.0, 1.0, 1.0, 0.0, 0.0, 0.0, 2.0, 1.0, 0.0, 0.0, 1.0, 1.0, 0.0, 1.0], "bins": [-0.01562749594449997, -0.015155810862779617, -0.01468412671238184, -0.014212441630661488, -0.01374075748026371, -0.013269072398543358, -0.012797387316823006, -0.012325703166425228, -0.01185401901602745, -0.011382333934307098, -0.01091064978390932, -0.010438964702188969, -0.009967280551791191, -0.009495595470070839, -0.009023910388350487, -0.00855222623795271, -0.008080541156232357, -0.007608856540173292, -0.007137171924114227, -0.006665486842393875, -0.0061938026919960976, -0.005722117610275745, -0.0052504329942166805, -0.004778748378157616, -0.004307063762098551, -0.003835379146039486, -0.003363694529980421, -0.0028920096810907125, -0.0024203250650316477, -0.0019486404489725828, -0.0014769556000828743, -0.0010052709840238094, -0.0005335863679647446, -6.190169369801879e-05, 0.000409782980568707, 0.0008814677130430937, 0.0013531523291021585, 0.0018248369451612234, 0.002296521794050932, 0.002768206410109997, 0.0032398910261690617, 0.0037115756422281265, 0.004183260258287191, 0.004654944874346256, 0.005126629956066608, 0.005598314106464386, 0.006069999188184738, 0.006541683804243803, 0.007013368420302868, 0.007485053036361933, 0.007956737652420998, 0.00842842273414135, 0.008900106884539127, 0.00937179196625948, 0.009843476116657257, 0.01031516119837761, 0.010786846280097961, 0.011258531361818314, 0.011730215512216091, 0.012201900593936443, 0.012673584744334221, 0.013145269826054573, 0.013616954907774925, 0.014088639058172703, 0.01456032320857048]}, "gradients/graph_2_encoder.encoder.12.weight": {"_type": "histogram", "values": [1.0, 0.0, 3.0, 2.0, 2.0, 2.0, 8.0, 9.0, 9.0, 12.0, 36.0, 38.0, 54.0, 74.0, 100.0, 134.0, 195.0, 270.0, 388.0, 501.0, 677.0, 971.0, 1257.0, 1739.0, 2196.0, 2759.0, 3403.0, 4068.0, 4736.0, 5062.0, 5231.0, 5173.0, 4887.0, 4395.0, 3818.0, 3187.0, 2516.0, 1986.0, 1435.0, 1123.0, 822.0, 632.0, 450.0, 328.0, 263.0, 179.0, 132.0, 86.0, 47.0, 35.0, 44.0, 14.0, 21.0, 9.0, 2.0, 4.0, 2.0, 4.0, 0.0, 1.0, 1.0, 2.0, 0.0, 1.0], "bins": [-0.025556713342666626, -0.02472829259932041, -0.023899871855974197, -0.023071452975273132, -0.022243032231926918, -0.021414611488580704, -0.02058619074523449, -0.019757770001888275, -0.01892935112118721, -0.018100930377840996, -0.01727250963449478, -0.016444090753793716, -0.015615670010447502, -0.014787249267101288, -0.013958828523755074, -0.01313040778040886, -0.012301987037062645, -0.01147356629371643, -0.010645146481692791, -0.009816725738346577, -0.008988305926322937, -0.008159885182976723, -0.007331464439630508, -0.0065030441619455814, -0.0056746238842606544, -0.0048462036065757275, -0.0040177833288908005, -0.003189362585544586, -0.002360942307859659, -0.0015325220301747322, -0.0007041012868285179, 0.00012431899085640907, 0.0009527374058961868, 0.0017811577999964356, 0.0026095781940966845, 0.003437998704612255, 0.004266418982297182, 0.005094839259982109, 0.005923260003328323, 0.00675168028101325, 0.007580100558698177, 0.008408521302044392, 0.009236941114068031, 0.010065361857414246, 0.01089378260076046, 0.0117222024127841, 0.012550623156130314, 0.013379042968153954, 0.014207463711500168, 0.015035884454846382, 0.015864305198192596, 0.01669272407889366, 0.017521144822239876, 0.01834956556558609, 0.019177986308932304, 0.02000640705227852, 0.020834825932979584, 0.021663246676325798, 0.022491667419672012, 0.023320086300373077, 0.02414850704371929, 0.024976927787065506, 0.02580534853041172, 0.026633769273757935, 0.02746219001710415]}, "gradients/graph_2_encoder.encoder.9.weight": {"_type": "histogram", "values": [1.0, 1.0, 0.0, 0.0, 0.0, 1.0, 1.0, 1.0, 0.0, 1.0, 1.0, 0.0, 5.0, 3.0, 3.0, 3.0, 6.0, 3.0, 4.0, 8.0, 3.0, 6.0, 6.0, 6.0, 7.0, 8.0, 11.0, 3.0, 7.0, 14.0, 8.0, 8.0, 19.0, 15.0, 11.0, 10.0, 10.0, 4.0, 8.0, 4.0, 7.0, 3.0, 4.0, 3.0, 3.0, 2.0, 4.0, 2.0, 4.0, 1.0, 4.0, 1.0, 0.0, 1.0, 1.0, 1.0, 0.0, 1.0, 0.0, 2.0, 0.0, 1.0, 0.0, 1.0], "bins": [-0.009248916059732437, -0.008952726610004902, -0.008656537160277367, -0.008360348641872406, -0.00806415919214487, -0.0077679697424173355, -0.0074717802926898, -0.007175591308623552, -0.006879402324557304, -0.006583212874829769, -0.006287023890763521, -0.005990834441035986, -0.005694645456969738, -0.005398456007242203, -0.0051022665575146675, -0.00480607757344842, -0.004509888123720884, -0.004213698673993349, -0.003917509689927101, -0.003621320240199566, -0.003325131256133318, -0.0030289418064057827, -0.002732752589508891, -0.0024365633726119995, -0.002140374155715108, -0.0018441849388182163, -0.0015479957219213247, -0.0012518063886091113, -0.0009556171717122197, -0.0006594279548153281, -0.0003632386215031147, -6.70494046062231e-05, 0.0002291398122906685, 0.0005253290291875601, 0.0008215183042921126, 0.001117707579396665, 0.0014138967962935567, 0.0017100860131904483, 0.0020062753465026617, 0.0023024645633995533, 0.002598653780296445, 0.0028948429971933365, 0.003191032214090228, 0.0034872214309871197, 0.003783410880714655, 0.004079599864780903, 0.004375789314508438, 0.004671978764235973, 0.004968167748302221, 0.0052643571980297565, 0.0055605461820960045, 0.00585673563182354, 0.006152924615889788, 0.006449114065617323, 0.006745303049683571, 0.007041492499411106, 0.007337681949138641, 0.007633871398866177, 0.007930060848593712, 0.008226249366998672, 0.008522438816726208, 0.008818628266453743, 0.009114817716181278, 0.009411007165908813, 0.009707195684313774]}, "gradients/graph_2_encoder.encoder.9.bias": {"_type": "histogram", "values": [1.0, 0.0, 1.0, 1.0, 1.0, 0.0, 1.0, 1.0, 1.0, 2.0, 7.0, 6.0, 5.0, 7.0, 3.0, 6.0, 6.0, 7.0, 10.0, 11.0, 6.0, 6.0, 7.0, 5.0, 11.0, 15.0, 13.0, 9.0, 7.0, 7.0, 10.0, 8.0, 8.0, 7.0, 6.0, 6.0, 6.0, 5.0, 3.0, 6.0, 6.0, 2.0, 3.0, 6.0, 0.0, 1.0, 2.0, 3.0, 1.0, 1.0, 0.0, 0.0, 0.0, 1.0, 0.0, 0.0, 1.0, 0.0, 0.0, 0.0, 0.0, 0.0, 0.0, 1.0], "bins": [-0.009987816214561462, -0.009620793163776398, -0.009253770112991333, -0.008886747062206268, -0.008519723080098629, -0.008152700029313564, -0.0077856769785285, -0.007418653927743435, -0.007051630411297083, -0.006684607360512018, -0.006317583844065666, -0.0059505607932806015, -0.005583537742495537, -0.005216514226049185, -0.00484949117526412, -0.004482467658817768, -0.004115444608032703, -0.003748421324416995, -0.0033813980408012867, -0.003014374990016222, -0.0026473517064005136, -0.0022803284227848053, -0.0019133053719997406, -0.0015462820883840322, -0.001179258804768324, -0.0008122355793602765, -0.000445212353952229, -7.81891867518425e-05, 0.00028883409686386585, 0.0006558573804795742, 0.001022880431264639, 0.0013899037148803473, 0.001756926067173481, 0.0021239493507891893, 0.0024909726344048977, 0.0028579956851899624, 0.0032250189688056707, 0.003592042252421379, 0.003959065303206444, 0.0043260883539915085, 0.0046931118704378605, 0.005060134921222925, 0.005427158437669277, 0.005794181488454342, 0.006161204539239407, 0.006528228055685759, 0.006895251106470823, 0.007262274622917175, 0.00762929767370224, 0.007996320724487305, 0.00836334377527237, 0.008730366826057434, 0.009097390808165073, 0.009464413858950138, 0.009831436909735203, 0.010198459960520267, 0.010565483942627907, 0.010932506993412971, 0.011299530044198036, 0.011666553094983101, 0.01203357707709074, 0.012400600127875805, 0.01276762317866087, 0.013134646229445934, 0.013501669280230999]}, "gradients/graph_2_encoder.encoder.8.bias": {"_type": "histogram", "values": [1.0, 0.0, 0.0, 0.0, 0.0, 0.0, 0.0, 3.0, 0.0, 0.0, 1.0, 0.0, 0.0, 1.0, 0.0, 0.0, 1.0, 0.0, 2.0, 1.0, 7.0, 1.0, 0.0, 5.0, 1.0, 3.0, 5.0, 1.0, 6.0, 6.0, 11.0, 16.0, 6.0, 18.0, 8.0, 8.0, 17.0, 8.0, 17.0, 10.0, 10.0, 13.0, 7.0, 4.0, 3.0, 5.0, 6.0, 14.0, 4.0, 5.0, 9.0, 2.0, 4.0, 2.0, 2.0, 0.0, 0.0, 0.0, 1.0, 0.0, 0.0, 0.0, 0.0, 1.0], "bins": [-5.122274160385132e-09, -4.98357621836476e-09, -4.844878276344389e-09, -4.706180334324017e-09, -4.567482392303646e-09, -4.428784450283274e-09, -4.2900865082629025e-09, -4.151388566242531e-09, -4.012690624222159e-09, -3.873992682201788e-09, -3.735294740181416e-09, -3.5965967981610447e-09, -3.457898856140673e-09, -3.3192009141203016e-09, -3.18050297209993e-09, -3.0418050300795585e-09, -2.903107088059187e-09, -2.7644091460388154e-09, -2.625711204018444e-09, -2.4870132619980723e-09, -2.3483153199777007e-09, -2.209617377957329e-09, -2.0709194359369576e-09, -1.932221493916586e-09, -1.7935235518962145e-09, -1.654825609875843e-09, -1.5161276678554714e-09, -1.3774297258350998e-09, -1.2387317838147283e-09, -1.1000338417943567e-09, -9.613358997739851e-10, -8.226379577536136e-10, -6.83940015733242e-10, -5.452420737128705e-10, -4.065441316924989e-10, -2.6784618967212737e-10, -1.291482476517558e-10, 9.549694368615746e-12, 1.482476363889873e-10, 2.8694557840935886e-10, 4.256435204297304e-10, 5.64341462450102e-10, 7.030394044704735e-10, 8.417373464908451e-10, 9.804352885112166e-10, 1.1191332305315882e-09, 1.2578311725519598e-09, 1.3965291145723313e-09, 1.5352270565927029e-09, 1.6739249986130744e-09, 1.812622940633446e-09, 1.9513208826538175e-09, 2.090018824674189e-09, 2.2287167666945606e-09, 2.367414708714932e-09, 2.5061126507353038e-09, 2.6448105927556753e-09, 2.783508534776047e-09, 2.9222064767964184e-09, 3.06090441881679e-09, 3.1996023608371615e-09, 3.338300302857533e-09, 3.4769982448779047e-09, 3.6156961868982762e-09, 3.754394128918648e-09]}, "gradients/graph_2_encoder.encoder.8.weight": {"_type": "histogram", "values": [1.0, 0.0, 1.0, 0.0, 2.0, 1.0, 3.0, 8.0, 7.0, 7.0, 11.0, 15.0, 33.0, 37.0, 55.0, 82.0, 99.0, 132.0, 194.0, 288.0, 380.0, 475.0, 684.0, 842.0, 1097.0, 1417.0, 1819.0, 2307.0, 2769.0, 3245.0, 3853.0, 4372.0, 4614.0, 4772.0, 4776.0, 4475.0, 4254.0, 3568.0, 3054.0, 2602.0, 2166.0, 1677.0, 1336.0, 973.0, 805.0, 624.0, 411.0, 328.0, 239.0, 162.0, 133.0, 94.0, 68.0, 53.0, 40.0, 17.0, 19.0, 9.0, 9.0, 6.0, 7.0, 3.0, 4.0, 2.0], "bins": [-0.033750757575035095, -0.032750219106674194, -0.031749676913022995, -0.030749138444662094, -0.029748599976301193, -0.028748059645295143, -0.027747519314289093, -0.026746980845928192, -0.025746440514922142, -0.024745900183916092, -0.02374536171555519, -0.02274482138454914, -0.02174428105354309, -0.02074374258518219, -0.01974320225417614, -0.01874266192317009, -0.01774212345480919, -0.01674158312380314, -0.015741044655442238, -0.014740504324436188, -0.013739964924752712, -0.012739425525069237, -0.011738885194063187, -0.010738345794379711, -0.009737806394696236, -0.00873726699501276, -0.007736727129667997, -0.0067361872643232346, -0.005735647864639759, -0.004735108464956284, -0.0037345685996115208, -0.002734028734266758, -0.0017334911972284317, -0.0007329515647143126, 0.0002675880677998066, 0.0012681277003139257, 0.002268667332828045, 0.0032692067325115204, 0.004269746597856283, 0.005270286463201046, 0.0062708258628845215, 0.007271365262567997, 0.008271904662251472, 0.009272444993257523, 0.010272984392940998, 0.011273523792624474, 0.012274064123630524, 0.013274603523314, 0.014275142922997475, 0.01527568232268095, 0.016276221722364426, 0.017276762053370476, 0.018277302384376526, 0.019277840852737427, 0.020278381183743477, 0.021278921514749527, 0.022279459983110428, 0.023280000314116478, 0.02428053878247738, 0.02528107911348343, 0.02628161758184433, 0.02728215791285038, 0.02828269824385643, 0.02928323671221733, 0.03028377704322338]}, "gradients/graph_2_encoder.encoder.5.weight": {"_type": "histogram", "values": [1.0, 0.0, 2.0, 1.0, 0.0, 3.0, 0.0, 1.0, 2.0, 0.0, 3.0, 3.0, 4.0, 2.0, 4.0, 3.0, 5.0, 4.0, 5.0, 8.0, 5.0, 6.0, 8.0, 7.0, 9.0, 13.0, 5.0, 12.0, 7.0, 10.0, 10.0, 2.0, 11.0, 6.0, 12.0, 11.0, 7.0, 5.0, 7.0, 5.0, 4.0, 6.0, 5.0, 3.0, 7.0, 0.0, 4.0, 2.0, 1.0, 0.0, 3.0, 2.0, 2.0, 1.0, 1.0, 1.0, 1.0, 0.0, 1.0, 1.0, 0.0, 0.0, 0.0, 2.0], "bins": [-0.009641380980610847, -0.009318653494119644, -0.008995926938951015, -0.008673199452459812, -0.008350471965968609, -0.008027744479477406, -0.007705017924308777, -0.0073822904378175735, -0.00705956295132637, -0.006736835930496454, -0.006414108444005251, -0.006091381423175335, -0.005768653936684132, -0.005445926915854216, -0.0051231998950243, -0.004800472408533096, -0.00447774538770318, -0.004155018366873264, -0.003832290880382061, -0.003509563859552145, -0.0031868363730609417, -0.0028641093522310257, -0.002541382098570466, -0.0022186548449099064, -0.0018959275912493467, -0.001573200337588787, -0.0012504730839282274, -0.0009277459466829896, -0.0006050186930224299, -0.0002822914393618703, 4.043569788336754e-05, 0.0003631629515439272, 0.0006858902052044868, 0.0010086174588650465, 0.0013313447125256062, 0.001654071849770844, 0.0019767992198467255, 0.0022995262406766415, 0.002622253494337201, 0.0029449807479977608, 0.0032677080016583204, 0.00359043525531888, 0.003913162276148796, 0.004235889762639999, 0.004558616783469915, 0.004881344269961119, 0.005204071290791035, 0.005526798777282238, 0.005849525798112154, 0.00617225281894207, 0.006494980305433273, 0.006817707326263189, 0.007140434812754393, 0.007463161833584309, 0.007785889320075512, 0.00810861587524414, 0.008431343361735344, 0.008754070848226547, 0.009076797403395176, 0.00939952488988638, 0.009722252376377583, 0.010044979862868786, 0.010367706418037415, 0.010690433904528618, 0.011013161391019821]}, "gradients/graph_2_encoder.encoder.5.bias": {"_type": "histogram", "values": [1.0, 0.0, 0.0, 0.0, 1.0, 1.0, 2.0, 1.0, 1.0, 0.0, 0.0, 2.0, 2.0, 3.0, 2.0, 4.0, 9.0, 2.0, 7.0, 2.0, 11.0, 2.0, 1.0, 7.0, 10.0, 9.0, 7.0, 12.0, 9.0, 9.0, 6.0, 9.0, 13.0, 5.0, 11.0, 7.0, 5.0, 7.0, 5.0, 11.0, 4.0, 7.0, 6.0, 5.0, 7.0, 4.0, 7.0, 3.0, 1.0, 4.0, 1.0, 1.0, 0.0, 1.0, 1.0, 0.0, 0.0, 2.0, 3.0, 1.0, 0.0, 0.0, 0.0, 2.0], "bins": [-0.011069768108427525, -0.010727533139288425, -0.010385298170149326, -0.010043063201010227, -0.009700829163193703, -0.009358594194054604, -0.009016359224915504, -0.008674124255776405, -0.008331889286637306, -0.007989654317498207, -0.007647419348359108, -0.007305184844881296, -0.006962949875742197, -0.006620714906603098, -0.006278480403125286, -0.005936245433986187, -0.005594010464847088, -0.005251775495707989, -0.00490954052656889, -0.004567306023091078, -0.004225071053951979, -0.0038828360848128796, -0.003540601348504424, -0.0031983666121959686, -0.0028561316430568695, -0.0025138966739177704, -0.002171661937609315, -0.0018294270848855376, -0.0014871922321617603, -0.001144957379437983, -0.0008027225267142057, -0.0004604877904057503, -0.00011825375258922577, 0.00022398110013455153, 0.0005662159528583288, 0.0009084508055821061, 0.0012506856583058834, 0.0015929205110296607, 0.001935155363753438, 0.0022773901000618935, 0.0026196250692009926, 0.0029618600383400917, 0.003304094774648547, 0.0036463295109570026, 0.003988564480096102, 0.004330799449235201, 0.004673033952713013, 0.005015268921852112, 0.005357503890991211, 0.00569973886013031, 0.006041973829269409, 0.006384208332747221, 0.00672644330188632, 0.007068678271025419, 0.007410912774503231, 0.00775314774364233, 0.00809538271278143, 0.008437617681920528, 0.008779852651059628, 0.009122087620198727, 0.009464321658015251, 0.00980655662715435, 0.01014879159629345, 0.010491026565432549, 0.010833261534571648]}, "gradients/graph_2_encoder.encoder.4.bias": {"_type": "histogram", "values": [1.0, 0.0, 0.0, 1.0, 0.0, 0.0, 0.0, 1.0, 3.0, 0.0, 3.0, 4.0, 1.0, 6.0, 0.0, 2.0, 4.0, 0.0, 11.0, 3.0, 6.0, 9.0, 10.0, 15.0, 8.0, 9.0, 19.0, 13.0, 16.0, 7.0, 7.0, 9.0, 13.0, 9.0, 4.0, 6.0, 11.0, 6.0, 10.0, 1.0, 5.0, 0.0, 4.0, 6.0, 0.0, 1.0, 4.0, 3.0, 2.0, 0.0, 1.0, 1.0, 0.0, 0.0, 0.0, 0.0, 0.0, 0.0, 0.0, 0.0, 0.0, 0.0, 0.0, 1.0], "bins": [-5.3551048040390015e-09, -5.169567884877324e-09, -4.984030965715647e-09, -4.798494046553969e-09, -4.612957127392292e-09, -4.427420208230615e-09, -4.241883289068937e-09, -4.05634636990726e-09, -3.8708094507455826e-09, -3.6852725315839052e-09, -3.499735612422228e-09, -3.3141986932605505e-09, -3.128661774098873e-09, -2.9431248549371958e-09, -2.7575879357755184e-09, -2.572051016613841e-09, -2.3865140974521637e-09, -2.2009771782904863e-09, -2.015440259128809e-09, -1.8299033399671316e-09, -1.6443664208054543e-09, -1.4588295016437769e-09, -1.2732925824820995e-09, -1.0877556633204222e-09, -9.022187441587448e-10, -7.166818249970675e-10, -5.311449058353901e-10, -3.4560798667371273e-10, -1.6007106751203537e-10, 2.546585164964199e-11, 2.1100277081131935e-10, 3.965396899729967e-10, 5.820766091346741e-10, 7.676135282963514e-10, 9.531504474580288e-10, 1.1386873666197062e-09, 1.3242242857813835e-09, 1.5097612049430609e-09, 1.6952981241047382e-09, 1.8808350432664156e-09, 2.066371962428093e-09, 2.2519088815897703e-09, 2.4374458007514477e-09, 2.622982719913125e-09, 2.8085196390748024e-09, 2.9940565582364798e-09, 3.179593477398157e-09, 3.3651303965598345e-09, 3.550667315721512e-09, 3.736204234883189e-09, 3.9217411540448666e-09, 4.107278073206544e-09, 4.292814992368221e-09, 4.478351911529899e-09, 4.663888830691576e-09, 4.849425749853253e-09, 5.034962669014931e-09, 5.220499588176608e-09, 5.4060365073382854e-09, 5.591573426499963e-09, 5.77711034566164e-09, 5.9626472648233175e-09, 6.148184183984995e-09, 6.333721103146672e-09, 6.51925802230835e-09]}, "gradients/graph_2_encoder.encoder.4.weight": {"_type": "histogram", "values": [3.0, 1.0, 1.0, 3.0, 3.0, 3.0, 4.0, 10.0, 15.0, 15.0, 22.0, 38.0, 42.0, 69.0, 87.0, 108.0, 175.0, 251.0, 310.0, 414.0, 607.0, 832.0, 1024.0, 1240.0, 1583.0, 2036.0, 2392.0, 3118.0, 3476.0, 4077.0, 4443.0, 4634.0, 4694.0, 4566.0, 4167.0, 3803.0, 3352.0, 2966.0, 2385.0, 1923.0, 1508.0, 1268.0, 1004.0, 735.0, 618.0, 397.0, 287.0, 239.0, 168.0, 117.0, 86.0, 60.0, 45.0, 26.0, 25.0, 19.0, 10.0, 10.0, 4.0, 7.0, 5.0, 4.0, 1.0, 1.0], "bins": [-0.041360825300216675, -0.040080104023218155, -0.038799386471509933, -0.037518665194511414, -0.036237943917512894, -0.034957222640514374, -0.03367650508880615, -0.03239578381180763, -0.031115064397454262, -0.02983434498310089, -0.02855362370610237, -0.027272904291749, -0.02599218487739563, -0.02471146360039711, -0.02343074418604374, -0.02215002477169037, -0.02086930349469185, -0.019588584080338478, -0.018307862803339958, -0.017027143388986588, -0.015746422111988068, -0.014465702697634697, -0.013184983283281326, -0.011904262937605381, -0.010623542591929436, -0.00934282224625349, -0.008062101900577545, -0.0067813824862241745, -0.005500662140548229, -0.004219941794872284, -0.002939221914857626, -0.001658502034842968, -0.00037777796387672424, 0.0009029421489685774, 0.002183662261813879, 0.0034643823746591806, 0.004745102487504482, 0.0060258228331804276, 0.0073065427131950855, 0.008587262593209743, 0.009867982938885689, 0.011148703284561634, 0.01242942363023758, 0.01371014304459095, 0.014990863390266895, 0.01627158373594284, 0.01755230315029621, 0.018833022564649582, 0.020113743841648102, 0.021394463256001472, 0.022675184532999992, 0.023955903947353363, 0.025236625224351883, 0.026517344638705254, 0.027798064053058624, 0.029078785330057144, 0.030359504744410515, 0.031640224158763885, 0.032920945435762405, 0.034201666712760925, 0.03548238426446915, 0.03676310554146767, 0.038043826818466187, 0.03932454437017441, 0.04060526564717293]}, "gradients/graph_2_encoder.encoder.1.weight": {"_type": "histogram", "values": [1.0, 0.0, 0.0, 0.0, 0.0, 0.0, 0.0, 0.0, 1.0, 1.0, 1.0, 0.0, 1.0, 2.0, 1.0, 2.0, 0.0, 1.0, 0.0, 1.0, 3.0, 1.0, 3.0, 3.0, 1.0, 2.0, 3.0, 1.0, 3.0, 7.0, 7.0, 10.0, 5.0, 11.0, 4.0, 15.0, 7.0, 8.0, 13.0, 4.0, 7.0, 10.0, 5.0, 10.0, 7.0, 14.0, 9.0, 10.0, 5.0, 7.0, 5.0, 7.0, 7.0, 3.0, 4.0, 1.0, 5.0, 3.0, 6.0, 2.0, 2.0, 2.0, 1.0, 1.0], "bins": [-0.017760831862688065, -0.01731819659471512, -0.016875559464097023, -0.016432924196124077, -0.01599028706550598, -0.01554765086621046, -0.01510501466691494, -0.014662379398941994, -0.014219742268323898, -0.013777106069028378, -0.013334469869732857, -0.012891833670437336, -0.012449197471141815, -0.012006561271846294, -0.011563925072550774, -0.011121289804577827, -0.010678653605282307, -0.010236017405986786, -0.009793381206691265, -0.009350745007395744, -0.008908108808100224, -0.008465472608804703, -0.008022837340831757, -0.0075802006758749485, -0.007137564476579428, -0.006694928277283907, -0.006252292077988386, -0.005809656344354153, -0.005367020145058632, -0.004924383945763111, -0.00448174774646759, -0.0040391115471720695, -0.0035964753478765488, -0.003153839148581028, -0.002711202949285507, -0.00226856698282063, -0.0018259307835251093, -0.0013832945842295885, -0.0009406586177647114, -0.0004980224184691906, -5.5386219173669815e-05, 0.00038724992191419005, 0.0008298860630020499, 0.0012725221458822489, 0.0017151583451777697, 0.0021577945444732904, 0.0026004305109381676, 0.0030430667102336884, 0.003485702909529209, 0.00392833910882473, 0.004370975308120251, 0.0048136115074157715, 0.005256247706711292, 0.005698883906006813, 0.0061415196396410465, 0.006584155838936567, 0.007026792038232088, 0.007469428237527609, 0.007912063971161842, 0.008354700170457363, 0.008797336369752884, 0.009239972569048405, 0.009682608768343925, 0.010125244967639446, 0.010567881166934967]}, "gradients/graph_2_encoder.encoder.1.bias": {"_type": "histogram", "values": [1.0, 0.0, 0.0, 0.0, 0.0, 1.0, 1.0, 0.0, 0.0, 0.0, 0.0, 0.0, 1.0, 2.0, 0.0, 1.0, 0.0, 3.0, 0.0, 1.0, 2.0, 1.0, 1.0, 3.0, 4.0, 4.0, 6.0, 4.0, 6.0, 6.0, 7.0, 5.0, 9.0, 8.0, 6.0, 12.0, 9.0, 7.0, 10.0, 6.0, 10.0, 8.0, 14.0, 11.0, 9.0, 10.0, 8.0, 9.0, 4.0, 8.0, 6.0, 2.0, 6.0, 2.0, 2.0, 2.0, 4.0, 2.0, 1.0, 2.0, 2.0, 4.0, 1.0, 2.0], "bins": [-0.023844171315431595, -0.023261388763785362, -0.02267860621213913, -0.022095825523138046, -0.021513042971491814, -0.02093026041984558, -0.02034747786819935, -0.019764695316553116, -0.019181914627552032, -0.0185991320759058, -0.018016349524259567, -0.017433568835258484, -0.01685078628361225, -0.01626800373196602, -0.015685221180319786, -0.015102438628673553, -0.01451965607702732, -0.013936873525381088, -0.01335409190505743, -0.012771309353411198, -0.01218852773308754, -0.011605745181441307, -0.011022962629795074, -0.010440180078148842, -0.009857398457825184, -0.009274615906178951, -0.008691834285855293, -0.00810905173420906, -0.007526269648224115, -0.00694348756223917, -0.0063607050105929375, -0.005777922924607992, -0.005195140838623047, -0.004612358752638102, -0.004029576666653156, -0.0034467941150069237, -0.0028640120290219784, -0.002281229943037033, -0.0016984476242214441, -0.0011156653054058552, -0.0005328832194209099, 4.989898297935724e-05, 0.0006326811853796244, 0.0012154633877798915, 0.0017982455901801586, 0.002381027676165104, 0.002963809994980693, 0.003546592313796282, 0.004129374399781227, 0.004712156485766172, 0.005294938571751118, 0.00587772112339735, 0.006460503209382296, 0.007043285295367241, 0.0076260678470134735, 0.008208850398659706, 0.008791632018983364, 0.009374414570629597, 0.009957196190953255, 0.010539978742599487, 0.01112276129424572, 0.011705542914569378, 0.01228832546621561, 0.012871107086539268, 0.013453889638185501]}, "gradients/graph_2_encoder.encoder.0.bias": {"_type": "histogram", "values": [1.0, 0.0, 0.0, 0.0, 0.0, 0.0, 0.0, 0.0, 0.0, 1.0, 0.0, 0.0, 0.0, 0.0, 1.0, 0.0, 3.0, 4.0, 2.0, 3.0, 2.0, 9.0, 7.0, 3.0, 6.0, 6.0, 9.0, 15.0, 7.0, 15.0, 10.0, 7.0, 10.0, 11.0, 26.0, 13.0, 11.0, 9.0, 9.0, 9.0, 9.0, 5.0, 7.0, 7.0, 2.0, 7.0, 1.0, 2.0, 0.0, 1.0, 1.0, 0.0, 1.0, 2.0, 0.0, 1.0, 0.0, 0.0, 0.0, 0.0, 0.0, 0.0, 0.0, 1.0], "bins": [-6.258487701416016e-07, -6.074551492929459e-07, -5.890615284442902e-07, -5.706679075956345e-07, -5.522742867469788e-07, -5.338806658983231e-07, -5.154870450496674e-07, -4.970934242010117e-07, -4.78699803352356e-07, -4.6030618250370026e-07, -4.4191256165504456e-07, -4.2351894080638885e-07, -4.0512531995773315e-07, -3.8673169910907745e-07, -3.6833807826042175e-07, -3.4994445741176605e-07, -3.3155083656311035e-07, -3.1315721571445465e-07, -2.9476359486579895e-07, -2.7636997401714325e-07, -2.5797635316848755e-07, -2.3958273231983185e-07, -2.2118911147117615e-07, -2.0279549062252045e-07, -1.8440186977386475e-07, -1.6600824892520905e-07, -1.4761462807655334e-07, -1.2922100722789764e-07, -1.1082738637924194e-07, -9.243376553058624e-08, -7.404014468193054e-08, -5.564652383327484e-08, -3.725290298461914e-08, -1.885928213596344e-08, -4.656612873077393e-10, 1.792795956134796e-08, 3.632158041000366e-08, 5.471520125865936e-08, 7.310882210731506e-08, 9.150244295597076e-08, 1.0989606380462646e-07, 1.2828968465328217e-07, 1.4668330550193787e-07, 1.6507692635059357e-07, 1.8347054719924927e-07, 2.0186416804790497e-07, 2.2025778889656067e-07, 2.3865140974521637e-07, 2.5704503059387207e-07, 2.7543865144252777e-07, 2.9383227229118347e-07, 3.1222589313983917e-07, 3.3061951398849487e-07, 3.490131348371506e-07, 3.674067556858063e-07, 3.85800376534462e-07, 4.041939973831177e-07, 4.225876182317734e-07, 4.409812390804291e-07, 4.593748599290848e-07, 4.777684807777405e-07, 4.961621016263962e-07, 5.145557224750519e-07, 5.329493433237076e-07, 5.513429641723633e-07]}, "gradients/graph_2_encoder.encoder.0.weight": {"_type": "histogram", "values": [1.0, 0.0, 0.0, 1.0, 3.0, 10.0, 8.0, 12.0, 25.0, 25.0, 38.0, 48.0, 66.0, 108.0, 154.0, 209.0, 286.0, 436.0, 644.0, 994.0, 1423.0, 2169.0, 3233.0, 4961.0, 7442.0, 11128.0, 16322.0, 23708.0, 30860.0, 32429.0, 26820.0, 19500.0, 13869.0, 9108.0, 6122.0, 4110.0, 2672.0, 1747.0, 1164.0, 759.0, 491.0, 351.0, 237.0, 158.0, 121.0, 70.0, 60.0, 39.0, 33.0, 22.0, 21.0, 16.0, 6.0, 3.0, 4.0, 2.0, 3.0, 3.0, 1.0, 0.0, 0.0, 0.0, 0.0, 1.0], "bins": [-0.08990024030208588, -0.08681527525186539, -0.0837303027510643, -0.08064533770084381, -0.07756036520004272, -0.07447540014982224, -0.07139043509960175, -0.06830546259880066, -0.06522049754858017, -0.06213552877306938, -0.059050559997558594, -0.055965594947338104, -0.052880626171827316, -0.04979565739631653, -0.04671068862080574, -0.04362571984529495, -0.040540751069784164, -0.037455782294273376, -0.03437081351876259, -0.0312858447432518, -0.02820087969303131, -0.025115910917520523, -0.022030942142009735, -0.018945975229144096, -0.01586100645363331, -0.012776038609445095, -0.009691070765256882, -0.006606101989746094, -0.0035211341455578804, -0.00043616630136966705, 0.002648802474141121, 0.00573376938700676, 0.008818738162517548, 0.011903706006705761, 0.014988673850893974, 0.018073642626404762, 0.0211586095392704, 0.02424357831478119, 0.027328547090291977, 0.030413514003157616, 0.033498480916023254, 0.03658344969153404, 0.03966841846704483, 0.04275338351726532, 0.04583835229277611, 0.048923321068286896, 0.052008289843797684, 0.05509325861930847, 0.05817822739481926, 0.06126319617033005, 0.06434816122055054, 0.06743313372135162, 0.07051809877157211, 0.0736030638217926, 0.07668803632259369, 0.07977300137281418, 0.08285797387361526, 0.08594293892383575, 0.08902791142463684, 0.09211287647485733, 0.09519784897565842, 0.0982828140258789, 0.10136778652667999, 0.10445275157690048, 0.10753771662712097]}, "_wandb": {"runtime": 148}}