{"train_loss": 0.11434727162122726, "train_ssl_loss": 0.10788068920373917, "train_tsk_loss": 0.006466578226536512, "test_loss": 0.5526605844497681, "test_ssl_loss": 0.5424768924713135, "test_tsk_loss": 0.010183657519519329, "_timestamp": 1697561598.3897007, "_runtime": 120.62170553207397, "_step": 49, "gradients/graph_1taskmapper.out.bias": {"_type": "histogram", "values": [0.0, 0.0, 0.0, 0.0, 0.0, 0.0, 0.0, 0.0, 0.0, 0.0, 0.0, 0.0, 0.0, 0.0, 0.0, 0.0, 0.0, 0.0, 0.0, 0.0, 0.0, 0.0, 0.0, 0.0, 0.0, 0.0, 0.0, 0.0, 0.0, 0.0, 0.0, 0.0, 1.0, 0.0, 0.0, 0.0, 0.0, 0.0, 0.0, 0.0, 0.0, 0.0, 0.0, 0.0, 0.0, 0.0, 0.0, 0.0, 0.0, 0.0, 0.0, 0.0, 0.0, 0.0, 0.0, 0.0, 0.0, 0.0, 0.0, 0.0, 0.0, 0.0, 0.0, 0.0], "bins": [0.0137518011033535, 0.0137518011033535, 0.0137518011033535, 0.0137518011033535, 0.0137518011033535, 0.0137518011033535, 0.0137518011033535, 0.0137518011033535, 0.0137518011033535, 0.0137518011033535, 0.0137518011033535, 0.0137518011033535, 0.0137518011033535, 0.0137518011033535, 0.0137518011033535, 0.0137518011033535, 0.0137518011033535, 0.0137518011033535, 0.0137518011033535, 0.0137518011033535, 0.0137518011033535, 0.0137518011033535, 0.0137518011033535, 0.0137518011033535, 0.0137518011033535, 0.0137518011033535, 0.0137518011033535, 0.0137518011033535, 0.0137518011033535, 0.0137518011033535, 0.0137518011033535, 0.0137518011033535, 0.0137518011033535, 0.0137518011033535, 0.0137518011033535, 0.0137518011033535, 0.0137518011033535, 0.0137518011033535, 0.0137518011033535, 0.0137518011033535, 0.0137518011033535, 0.0137518011033535, 0.0137518011033535, 0.0137518011033535, 0.0137518011033535, 0.0137518011033535, 0.0137518011033535, 0.0137518011033535, 0.0137518011033535, 0.0137518011033535, 0.0137518011033535, 0.0137518011033535, 0.0137518011033535, 0.0137518011033535, 0.0137518011033535, 0.0137518011033535, 0.0137518011033535, 0.0137518011033535, 0.0137518011033535, 0.0137518011033535, 0.0137518011033535, 0.0137518011033535, 0.0137518011033535, 0.0137518011033535, 0.0137518011033535]}, "gradients/graph_1taskmapper.out.weight": {"_type": "histogram", "values": [1.0, 0.0, 0.0, 0.0, 0.0, 0.0, 0.0, 1.0, 4.0, 0.0, 1.0, 0.0, 0.0, 0.0, 0.0, 0.0, 0.0, 0.0, 0.0, 0.0, 0.0, 2.0, 0.0, 0.0, 0.0, 1.0, 0.0, 0.0, 0.0, 0.0, 0.0, 0.0, 1.0, 0.0, 0.0, 0.0, 0.0, 0.0, 0.0, 0.0, 0.0, 1.0, 1.0, 0.0, 0.0, 0.0, 0.0, 0.0, 0.0, 0.0, 1.0, 0.0, 0.0, 0.0, 1.0, 0.0, 0.0, 0.0, 0.0, 0.0, 0.0, 0.0, 0.0, 1.0], "bins": [-0.0005040962714701891, -0.000443206139607355, -0.00038231603684835136, -0.00032142590498551726, -0.0002605358022265136, -0.00019964567036367953, -0.00013875553850084543, -7.786543574184179e-05, -1.6975303879007697e-05, 4.391481706988998e-05, 0.00010480493801878765, 0.00016569506260566413, 0.000226585179916583, 0.00028747529722750187, 0.00034836542909033597, 0.0004092555318493396, 0.0004701456637121737, 0.0005310357664711773, 0.0005919259274378419, 0.0006528160301968455, 0.0007137061329558492, 0.0007745962357148528, 0.0008354863966815174, 0.000896376499440521, 0.0009572666604071856, 0.0010181567631661892, 0.0010790468659251928, 0.0011399369686841965, 0.001200827187858522, 0.0012617172906175256, 0.0013226073933765292, 0.0013834974961355329, 0.0014443875988945365, 0.0015052777016535401, 0.0015661678044125438, 0.0016270580235868692, 0.0016879481263458729, 0.0017488382291048765, 0.0018097283318638802, 0.0018706184346228838, 0.0019315085373818874, 0.001992398640140891, 0.0020532887428998947, 0.0021141788456588984, 0.002175068948417902, 0.0022359590511769056, 0.0022968491539359093, 0.0023577394895255566, 0.00241862959228456, 0.002479519695043564, 0.0025404097978025675, 0.002601299900561571, 0.0026621900033205748, 0.0027230801060795784, 0.0027839704416692257, 0.0028448603115975857, 0.0029057504143565893, 0.002966640517115593, 0.0030275306198745966, 0.0030884207226336002, 0.003149310825392604, 0.0032102009281516075, 0.003271091263741255, 0.003331981133669615, 0.003392871469259262]}, "gradients/graph_1taskmapper.lins.1.bias": {"_type": "histogram", "values": [1.0, 0.0, 0.0, 0.0, 0.0, 1.0, 0.0, 0.0, 0.0, 0.0, 0.0, 0.0, 1.0, 4.0, 0.0, 0.0, 1.0, 0.0, 0.0, 2.0, 0.0, 0.0, 0.0, 0.0, 0.0, 0.0, 0.0, 0.0, 0.0, 0.0, 1.0, 0.0, 0.0, 0.0, 1.0, 0.0, 1.0, 0.0, 0.0, 0.0, 0.0, 0.0, 0.0, 0.0, 0.0, 0.0, 0.0, 0.0, 0.0, 0.0, 2.0, 0.0, 0.0, 0.0, 0.0, 0.0, 0.0, 0.0, 0.0, 0.0, 0.0, 0.0, 0.0, 1.0], "bins": [-0.0013697209069505334, -0.0012678958009928465, -0.0011660706950351596, -0.0010642455890774727, -0.000962420366704464, -0.0008605952607467771, -0.0007587701547890902, -0.0006569449906237423, -0.0005551198846660554, -0.0004532947496045381, -0.0003514696145430207, -0.0002496445085853338, -0.00014781937352381647, -4.599423846229911e-05, 5.583086749538779e-05, 0.0001576560316607356, 0.0002594811376184225, 0.00036130627267993987, 0.0004631314077414572, 0.0005649565136991441, 0.0006667816778644919, 0.0007686067838221788, 0.0008704318897798657, 0.0009722570539452136, 0.0010740822181105614, 0.0011759073240682483, 0.0012777324300259352, 0.001379557652398944, 0.0014813827583566308, 0.0015832078643143177, 0.0016850329702720046, 0.0017868580762296915, 0.0018886832986027002, 0.001990508520975709, 0.002092333510518074, 0.0021941587328910828, 0.002295983722433448, 0.0023978089448064566, 0.0024996339343488216, 0.0026014591567218304, 0.002703284379094839, 0.002805109601467848, 0.002906934591010213, 0.0030087598133832216, 0.0031105848029255867, 0.0032124100252985954, 0.003314235247671604, 0.0034160602372139692, 0.0035178852267563343, 0.003619710449129343, 0.003721535438671708, 0.003823360661044717, 0.003925185650587082, 0.004027010872960091, 0.004128836095333099, 0.004230661317706108, 0.004332486540079117, 0.0044343117624521255, 0.004536136984825134, 0.004637961741536856, 0.004739786963909864, 0.004841612186282873, 0.004943437408655882, 0.005045262631028891, 0.005147087387740612]}, "gradients/graph_1taskmapper.lins.1.weight": {"_type": "histogram", "values": [1.0, 0.0, 0.0, 0.0, 0.0, 0.0, 0.0, 0.0, 3.0, 0.0, 0.0, 0.0, 0.0, 0.0, 0.0, 2.0, 1.0, 1.0, 1.0, 7.0, 2.0, 1.0, 3.0, 6.0, 3.0, 14.0, 10.0, 14.0, 12.0, 20.0, 149.0, 25.0, 16.0, 15.0, 4.0, 9.0, 4.0, 7.0, 5.0, 5.0, 1.0, 8.0, 10.0, 1.0, 3.0, 1.0, 3.0, 2.0, 2.0, 5.0, 0.0, 0.0, 1.0, 1.0, 1.0, 2.0, 1.0, 1.0, 0.0, 0.0, 0.0, 0.0, 0.0, 1.0], "bins": [-0.0007891819695942104, -0.0007632544729858637, -0.0007373270345851779, -0.0007113995379768312, -0.0006854720413684845, -0.0006595445447601378, -0.0006336170481517911, -0.0006076896097511053, -0.0005817621131427586, -0.0005558346165344119, -0.0005299071781337261, -0.0005039796815253794, -0.0004780521849170327, -0.000452124688308686, -0.0004261972208041698, -0.00040026975329965353, -0.00037434225669130683, -0.00034841476008296013, -0.0003224872925784439, -0.00029655982507392764, -0.00027063232846558094, -0.00024470483185723424, -0.000218777364352718, -0.00019284988229628652, -0.00016692240023985505, -0.00014099491818342358, -0.0001150674361269921, -8.913995407056063e-05, -6.321247201412916e-05, -3.728498995769769e-05, -1.1357507901266217e-05, 1.4569974155165255e-05, 4.0497398003935814e-05, 6.642488006036729e-05, 9.235236211679876e-05, 0.00011827984417323023, 0.0001442073262296617, 0.00017013480828609318, 0.00019606229034252465, 0.00022198977239895612, 0.0002479172544553876, 0.0002738447510637343, 0.00029977221856825054, 0.0003256996860727668, 0.0003516271826811135, 0.0003775546792894602, 0.0004034821467939764, 0.00042940961429849267, 0.00045533711090683937, 0.00048126460751518607, 0.0005071921041235328, 0.0005331195425242186, 0.0005590470391325653, 0.000584974535740912, 0.0006109019741415977, 0.0006368294707499444, 0.0006627569673582911, 0.0006886844639666378, 0.0007146119605749846, 0.0007405393989756703, 0.000766466895584017, 0.0007923943921923637, 0.0008183218305930495, 0.0008442493272013962, 0.0008701768238097429]}, "gradients/graph_1taskmapper.lins.0.bias": {"_type": "histogram", "values": [1.0, 0.0, 0.0, 0.0, 0.0, 0.0, 0.0, 0.0, 0.0, 0.0, 0.0, 1.0, 0.0, 0.0, 0.0, 0.0, 0.0, 0.0, 0.0, 1.0, 0.0, 1.0, 0.0, 1.0, 3.0, 1.0, 0.0, 1.0, 0.0, 0.0, 0.0, 0.0, 1.0, 1.0, 0.0, 1.0, 1.0, 2.0, 0.0, 1.0, 0.0, 1.0, 1.0, 0.0, 0.0, 0.0, 0.0, 0.0, 0.0, 0.0, 1.0, 0.0, 0.0, 0.0, 0.0, 2.0, 1.0, 0.0, 0.0, 0.0, 0.0, 0.0, 0.0, 1.0], "bins": [-0.00235178554430604, -0.0022554954048246145, -0.0021592052653431892, -0.0020629148930311203, -0.001966624753549695, -0.0018703346140682697, -0.0017740444745868444, -0.0016777543351054192, -0.001581464079208672, -0.0014851739397272468, -0.0013888836838304996, -0.0012925935443490744, -0.001196303404867649, -0.001100013148970902, -0.0010037230094894767, -0.0009074328118003905, -0.0008111426141113043, -0.0007148524164222181, -0.0006185622187331319, -0.0005222720792517066, -0.0004259818815626204, -0.0003296916838735342, -0.00023340154439210892, -0.00013711134670302272, -4.082114901393652e-05, 5.546903412323445e-05, 0.00015175921726040542, 0.00024804938584566116, 0.00034433958353474736, 0.00044062978122383356, 0.0005369199207052588, 0.000633210118394345, 0.0007295003160834312, 0.0008257905137725174, 0.0009220807114616036, 0.001018370850943029, 0.001114661106839776, 0.0012109512463212013, 0.0013072413858026266, 0.001403531525284052, 0.001499821781180799, 0.0015961119206622243, 0.0016924021765589714, 0.0017886923160403967, 0.001884982455521822, 0.001981272827833891, 0.0020775627344846725, 0.0021738531067967415, 0.0022701432462781668, 0.002366433385759592, 0.0024627235252410173, 0.0025590136647224426, 0.0026553040370345116, 0.002751594176515937, 0.002847884315997362, 0.0029441744554787874, 0.0030404645949602127, 0.003136754734441638, 0.0032330448739230633, 0.0033293352462351322, 0.0034256253857165575, 0.003521915525197983, 0.003618205664679408, 0.0037144958041608334, 0.0038107861764729023]}, "gradients/graph_1taskmapper.lins.0.weight": {"_type": "histogram", "values": [1.0, 1.0, 0.0, 3.0, 3.0, 2.0, 0.0, 4.0, 4.0, 3.0, 3.0, 3.0, 8.0, 5.0, 6.0, 9.0, 11.0, 9.0, 12.0, 17.0, 15.0, 13.0, 22.0, 27.0, 22.0, 25.0, 43.0, 40.0, 34.0, 132.0, 37.0, 34.0, 34.0, 25.0, 18.0, 18.0, 12.0, 14.0, 23.0, 6.0, 13.0, 9.0, 8.0, 10.0, 5.0, 1.0, 1.0, 3.0, 2.0, 2.0, 4.0, 1.0, 1.0, 1.0, 1.0, 1.0, 2.0, 3.0, 1.0, 0.0, 0.0, 0.0, 0.0, 1.0], "bins": [-0.0015459558926522732, -0.0014940019464120269, -0.0014420481165871024, -0.0013900941703468561, -0.0013381403405219316, -0.0012861863942816854, -0.0012342325644567609, -0.0011822786182165146, -0.0011303247883915901, -0.0010783708421513438, -0.0010264170123264194, -0.000974463124293834, -0.0009225092362612486, -0.0008705552900210023, -0.0008186014601960778, -0.0007666475139558315, -0.0007146936259232461, -0.0006627397378906608, -0.0006107858498580754, -0.00055883196182549, -0.0005068780737929046, -0.0004549241566564888, -0.0004029702686239034, -0.000351016380591318, -0.00029906249255873263, -0.00024710860452614725, -0.00019515471649356186, -0.00014320081390906125, -9.124692587647587e-05, -3.929302329197526e-05, 1.2660864740610123e-05, 6.46147527731955e-05, 0.00011656864080578089, 0.00016852252883836627, 0.00022047641687095165, 0.00027243030490353703, 0.0003243841929361224, 0.00037633811007253826, 0.00042829199810512364, 0.000480245886137709, 0.000532199745066464, 0.0005841536330990493, 0.0006361075211316347, 0.0006880614091642201, 0.0007400152971968055, 0.0007919692434370518, 0.0008439230732619762, 0.0008958770195022225, 0.0009478309075348079, 0.0009997847955673933, 0.0010517387418076396, 0.001103692571632564, 0.0011556465178728104, 0.0012076003476977348, 0.0012595542939379811, 0.0013115081237629056, 0.001363462070003152, 0.0014154160162433982, 0.0014673698460683227, 0.001519323792308569, 0.0015712776221334934, 0.0016232315683737397, 0.0016751853981986642, 0.0017271393444389105, 0.001779093174263835]}, "gradients/graph_1_projector.0.bias": {"_type": "histogram", "values": [1.0, 0.0, 0.0, 0.0, 0.0, 1.0, 0.0, 0.0, 0.0, 0.0, 2.0, 0.0, 0.0, 0.0, 1.0, 0.0, 0.0, 0.0, 0.0, 0.0, 1.0, 1.0, 2.0, 1.0, 1.0, 3.0, 0.0, 0.0, 2.0, 1.0, 1.0, 2.0, 2.0, 0.0, 1.0, 0.0, 0.0, 0.0, 0.0, 0.0, 0.0, 2.0, 0.0, 0.0, 1.0, 1.0, 1.0, 1.0, 0.0, 0.0, 0.0, 0.0, 0.0, 0.0, 0.0, 0.0, 1.0, 0.0, 0.0, 0.0, 0.0, 0.0, 1.0, 1.0], "bins": [-0.022840548306703568, -0.022105630487203598, -0.02137071266770363, -0.02063579671084881, -0.01990087889134884, -0.01916596107184887, -0.01843104511499405, -0.01769612729549408, -0.01696120947599411, -0.01622629165649414, -0.015491374768316746, -0.014756457880139351, -0.014021540060639381, -0.013286622241139412, -0.012551705352962017, -0.011816788464784622, -0.011081870645284653, -0.010346952825784683, -0.009612035937607288, -0.008877119049429893, -0.008142201229929924, -0.007407283876091242, -0.00667236652225256, -0.0059374491684138775, -0.005202531814575195, -0.004467614460736513, -0.003732697106897831, -0.002997779753059149, -0.0022628623992204666, -0.0015279450453817844, -0.0007930276915431023, -5.811033770442009e-05, 0.0006768070161342621, 0.0014117243699729443, 0.0021466417238116264, 0.0028815590776503086, 0.003616476431488991, 0.004351393785327673, 0.005086311139166355, 0.005821228493005037, 0.0065561458468437195, 0.007291063200682402, 0.008025980554521084, 0.008760897442698479, 0.009495815262198448, 0.010230733081698418, 0.010965649969875813, 0.011700566858053207, 0.012435484677553177, 0.013170402497053146, 0.013905319385230541, 0.014640236273407936, 0.015375154092907906, 0.016110071912407875, 0.016844987869262695, 0.017579905688762665, 0.018314823508262634, 0.019049741327762604, 0.019784659147262573, 0.020519575104117393, 0.021254492923617363, 0.021989410743117332, 0.022724326699972153, 0.023459244519472122, 0.02419416233897209]}, "gradients/graph_1_projector.0.weight": {"_type": "histogram", "values": [1.0, 0.0, 0.0, 0.0, 2.0, 2.0, 0.0, 0.0, 1.0, 2.0, 1.0, 3.0, 0.0, 5.0, 9.0, 6.0, 11.0, 21.0, 18.0, 22.0, 20.0, 47.0, 55.0, 73.0, 80.0, 133.0, 125.0, 163.0, 208.0, 278.0, 334.0, 387.0, 338.0, 323.0, 301.0, 251.0, 196.0, 148.0, 123.0, 87.0, 81.0, 58.0, 44.0, 36.0, 22.0, 13.0, 10.0, 12.0, 8.0, 5.0, 7.0, 3.0, 5.0, 4.0, 2.0, 4.0, 2.0, 2.0, 1.0, 1.0, 0.0, 1.0, 0.0, 1.0], "bins": [-0.021441541612148285, -0.020776377990841866, -0.020111214369535446, -0.019446048885583878, -0.018780885264277458, -0.01811572164297104, -0.01745055802166462, -0.0167853944003582, -0.01612023077905178, -0.015455067157745361, -0.014789902605116367, -0.014124738983809948, -0.013459575362503529, -0.012794410809874535, -0.012129247188568115, -0.011464083567261696, -0.010798919014632702, -0.010133755393326283, -0.009468590840697289, -0.00880342721939087, -0.00813826359808445, -0.007473099511116743, -0.006807935424149036, -0.006142771802842617, -0.00547760771587491, -0.004812443628907204, -0.004147280007600784, -0.0034821159206330776, -0.0028169520664960146, -0.0021517882123589516, -0.0014866241253912449, -0.0008214605040848255, -0.00015629641711711884, 0.0005088674952276051, 0.001174031407572329, 0.001839195378124714, 0.002504359232261777, 0.00316952308639884, 0.0038346871733665466, 0.004499850794672966, 0.005165014881640673, 0.005830178968608379, 0.006495342589914799, 0.007160506676882505, 0.007825670763850212, 0.008490834385156631, 0.00915599800646305, 0.00982116162776947, 0.010486326180398464, 0.011151489801704884, 0.011816654354333878, 0.012481817975640297, 0.013146981596946716, 0.013812145218253136, 0.01447730977088213, 0.015142473392188549, 0.015807637944817543, 0.016472801566123962, 0.017137965187430382, 0.0178031288087368, 0.01846829429268837, 0.01913345791399479, 0.01979862153530121, 0.020463785156607628, 0.021128948777914047]}, "gradients/graph_1_encoder.encoder.8.bias": {"_type": "histogram", "values": [2.0, 1.0, 1.0, 0.0, 0.0, 1.0, 7.0, 1.0, 3.0, 0.0, 0.0, 2.0, 2.0, 0.0, 1.0, 0.0, 4.0, 2.0, 3.0, 1.0, 3.0, 1.0, 4.0, 2.0, 3.0, 7.0, 4.0, 7.0, 4.0, 1.0, 4.0, 5.0, 2.0, 3.0, 7.0, 4.0, 3.0, 6.0, 3.0, 1.0, 1.0, 1.0, 3.0, 2.0, 1.0, 2.0, 0.0, 1.0, 1.0, 2.0, 0.0, 1.0, 0.0, 1.0, 1.0, 0.0, 0.0, 1.0, 0.0, 0.0, 1.0, 1.0, 0.0, 3.0], "bins": [-0.008550753816962242, -0.00827458780258894, -0.007998421788215637, -0.007722255773842335, -0.007446089759469032, -0.00716992374509573, -0.006893757730722427, -0.006617591716349125, -0.0063414257019758224, -0.00606525968760252, -0.0057890936732292175, -0.005512927658855915, -0.005236761644482613, -0.00496059563010931, -0.004684429615736008, -0.004408263601362705, -0.00413209805265069, -0.0038559320382773876, -0.003579766023904085, -0.0033036000095307827, -0.0030274339951574802, -0.0027512679807841778, -0.002475102199241519, -0.0021989361848682165, -0.001922770170494914, -0.0016466041561216116, -0.0013704381417483091, -0.0010942722437903285, -0.000818106229417026, -0.0005419402150437236, -0.00026577431708574295, 1.039169728755951e-05, 0.00028655771166086197, 0.0005627237260341644, 0.000838889682199806, 0.0011150556383654475, 0.00139122165273875, 0.0016673876671120524, 0.001943553565070033, 0.0022197195794433355, 0.002495885593816638, 0.0027720516081899405, 0.003048217622563243, 0.0033243834041059017, 0.003600549418479204, 0.0038767154328525066, 0.004152881447225809, 0.0044290474615991116, 0.004705213475972414, 0.0049813794903457165, 0.005257545504719019, 0.005533711519092321, 0.005809877533465624, 0.006086043547838926, 0.0063622090965509415, 0.006638375110924244, 0.006914541125297546, 0.007190707139670849, 0.007466873154044151, 0.007743039168417454, 0.008019205182790756, 0.008295371197164059, 0.008571537211537361, 0.008847703225910664, 0.009123869240283966]}, "gradients/graph_1_encoder.encoder.8.weight": {"_type": "histogram", "values": [3.0, 0.0, 0.0, 0.0, 0.0, 2.0, 2.0, 1.0, 6.0, 4.0, 12.0, 10.0, 10.0, 20.0, 31.0, 29.0, 54.0, 76.0, 92.0, 130.0, 188.0, 275.0, 401.0, 612.0, 827.0, 1013.0, 1415.0, 1814.0, 2332.0, 3046.0, 3543.0, 3802.0, 3166.0, 2526.0, 1925.0, 1384.0, 1072.0, 786.0, 607.0, 458.0, 294.0, 230.0, 165.0, 107.0, 93.0, 61.0, 39.0, 30.0, 25.0, 10.0, 14.0, 7.0, 6.0, 4.0, 1.0, 1.0, 0.0, 3.0, 2.0, 0.0, 0.0, 0.0, 1.0, 1.0], "bins": [-0.016272593289613724, -0.015752408653497696, -0.015232224017381668, -0.01471203938126564, -0.014191854745149612, -0.013671670109033585, -0.013151484541594982, -0.012631299905478954, -0.012111115269362926, -0.011590930633246899, -0.01107074599713087, -0.010550561361014843, -0.01003037579357624, -0.009510191157460213, -0.008990006521344185, -0.008469821885228157, -0.00794963724911213, -0.007429452612996101, -0.0069092679768800735, -0.006389082875102758, -0.005868898238986731, -0.005348713602870703, -0.004828528501093388, -0.00430834386497736, -0.003788159228861332, -0.003267974592745304, -0.0027477897237986326, -0.002227604854851961, -0.0017074202187359333, -0.0011872355826199055, -0.000667050713673234, -0.0001468658447265625, 0.00037331879138946533, 0.000893503543920815, 0.0014136882964521646, 0.0019338730489835143, 0.002454057801514864, 0.002974242437630892, 0.0034944273065775633, 0.004014612175524235, 0.004534796811640263, 0.0050549814477562904, 0.005575166083872318, 0.006095351185649633, 0.006615535821765661, 0.007135720457881689, 0.007655905559659004, 0.008176090195775032, 0.00869627483189106, 0.009216459468007088, 0.009736644104123116, 0.010256828740239143, 0.010777013376355171, 0.011297198012471199, 0.011817383579909801, 0.01233756821602583, 0.012857752852141857, 0.013377937488257885, 0.013898122124373913, 0.01441830676048994, 0.014938492327928543, 0.015458676964044571, 0.0159788616001606, 0.016499046236276627, 0.017019230872392654]}, "gradients/graph_1_encoder.encoder.5.weight": {"_type": "histogram", "values": [2.0, 0.0, 0.0, 0.0, 1.0, 0.0, 0.0, 0.0, 0.0, 2.0, 1.0, 0.0, 0.0, 0.0, 0.0, 0.0, 0.0, 0.0, 3.0, 2.0, 1.0, 3.0, 2.0, 4.0, 2.0, 4.0, 3.0, 4.0, 5.0, 8.0, 7.0, 13.0, 14.0, 21.0, 21.0, 15.0, 16.0, 18.0, 19.0, 6.0, 10.0, 9.0, 7.0, 8.0, 3.0, 0.0, 4.0, 5.0, 3.0, 1.0, 2.0, 0.0, 0.0, 1.0, 0.0, 1.0, 0.0, 0.0, 1.0, 2.0, 0.0, 1.0, 0.0, 1.0], "bins": [-0.0069016385823488235, -0.0067060356959700584, -0.006510432809591293, -0.006314829923212528, -0.006119227036833763, -0.005923624150454998, -0.00572802172973752, -0.005532418843358755, -0.00533681595697999, -0.005141213070601225, -0.00494561018422246, -0.004750007297843695, -0.004554404877126217, -0.004358801990747452, -0.004163199104368687, -0.003967596217989922, -0.0037719933316111565, -0.0035763904452323914, -0.0033807875588536263, -0.003185184905305505, -0.0029895820189267397, -0.0027939791325479746, -0.002598376478999853, -0.002402773592621088, -0.002207170706242323, -0.002011567819863558, -0.0018159650499001145, -0.0016203622799366713, -0.0014247593935579062, -0.001229156507179141, -0.0010335537372156978, -0.0008379509672522545, -0.0006423485465347767, -0.0004467457183636725, -0.0002511428901925683, -5.554006202146411e-05, 0.00014006276614964008, 0.0003356656525284052, 0.0005312684224918485, 0.0007268711924552917, 0.0009224740788340569, 0.001118076965212822, 0.0013136797351762652, 0.0015092825051397085, 0.0017048853915184736, 0.0019004882778972387, 0.00209609093144536, 0.0022916938178241253, 0.0024872967042028904, 0.0026828995905816555, 0.0028785024769604206, 0.003074105130508542, 0.003269708016887307, 0.0034653109032660723, 0.0036609135568141937, 0.003856516443192959, 0.004052119329571724, 0.004247722215950489, 0.004443325102329254, 0.004638927988708019, 0.004834530875086784, 0.0050301337614655495, 0.005225736182183027, 0.005421339068561792, 0.0056169419549405575]}, "gradients/graph_1_encoder.encoder.5.bias": {"_type": "histogram", "values": [1.0, 0.0, 0.0, 0.0, 1.0, 1.0, 2.0, 2.0, 2.0, 3.0, 2.0, 1.0, 3.0, 0.0, 6.0, 5.0, 5.0, 6.0, 3.0, 12.0, 9.0, 19.0, 19.0, 22.0, 14.0, 10.0, 12.0, 11.0, 16.0, 6.0, 9.0, 5.0, 4.0, 9.0, 11.0, 4.0, 2.0, 3.0, 2.0, 1.0, 1.0, 0.0, 1.0, 1.0, 0.0, 1.0, 2.0, 0.0, 1.0, 1.0, 1.0, 1.0, 1.0, 0.0, 0.0, 0.0, 0.0, 0.0, 0.0, 1.0, 0.0, 0.0, 0.0, 1.0], "bins": [-0.004788488615304232, -0.004594850819557905, -0.004401213023811579, -0.004207575228065252, -0.0040139369666576385, -0.0038202994037419558, -0.0036266613751649857, -0.003433023579418659, -0.0032393857836723328, -0.0030457479879260063, -0.00285211019217968, -0.0026584721636027098, -0.0024648343678563833, -0.002271196572110057, -0.0020775585435330868, -0.0018839207477867603, -0.0016902829520404339, -0.0014966451562941074, -0.0013030072441324592, -0.0011093693319708109, -0.0009157315362244844, -0.0007220936822704971, -0.0005284558283165097, -0.00033481791615486145, -0.000141180120408535, 5.2457733545452356e-05, 0.0002460955874994397, 0.0004397334414534271, 0.0006333712954074144, 0.0008270091493614018, 0.0010206470033153892, 0.0012142849154770374, 0.0014079222455620766, 0.001601560041308403, 0.0017951979534700513, 0.0019888358656316996, 0.002182473661378026, 0.0023761114571243525, 0.0025697494857013226, 0.002763387281447649, 0.0029570250771939754, 0.003150662872940302, 0.0033443006686866283, 0.0035379386972635984, 0.003731576493009925, 0.003925214521586895, 0.0041188523173332214, 0.004312490113079548, 0.004506127908825874, 0.004699765704572201, 0.004893403500318527, 0.005087041296064854, 0.00528067909181118, 0.005474317353218794, 0.00566795514896512, 0.005861592944711447, 0.006055230740457773, 0.0062488685362041, 0.006442506331950426, 0.0066361441276967525, 0.006829782389104366, 0.007023420184850693, 0.007217057980597019, 0.007410695776343346, 0.007604333572089672]}, "gradients/graph_1_encoder.encoder.4.bias": {"_type": "histogram", "values": [1.0, 0.0, 0.0, 1.0, 0.0, 0.0, 0.0, 1.0, 0.0, 0.0, 0.0, 0.0, 2.0, 2.0, 0.0, 3.0, 2.0, 0.0, 7.0, 2.0, 5.0, 5.0, 11.0, 4.0, 15.0, 19.0, 18.0, 25.0, 14.0, 20.0, 18.0, 11.0, 10.0, 10.0, 12.0, 9.0, 5.0, 4.0, 4.0, 4.0, 2.0, 3.0, 3.0, 0.0, 1.0, 0.0, 0.0, 0.0, 0.0, 0.0, 0.0, 0.0, 1.0, 0.0, 1.0, 0.0, 0.0, 0.0, 0.0, 0.0, 0.0, 0.0, 0.0, 1.0], "bins": [-1.0186340659856796e-09, -9.836185199674219e-10, -9.486029739491642e-10, -9.135874279309064e-10, -8.785718819126487e-10, -8.435563358943909e-10, -8.085407898761332e-10, -7.735252438578755e-10, -7.385096978396177e-10, -7.0349415182136e-10, -6.684786058031023e-10, -6.334630597848445e-10, -5.984475137665868e-10, -5.63431967748329e-10, -5.284164217300713e-10, -4.934008757118136e-10, -4.5838532969355583e-10, -4.233697836752981e-10, -3.8835423765704036e-10, -3.533386916387826e-10, -3.183231456205249e-10, -2.8330759960226715e-10, -2.482920535840094e-10, -2.1327650756575167e-10, -1.7826096154749393e-10, -1.432454155292362e-10, -1.0822986951097846e-10, -7.321432349272072e-11, -3.8198777474462986e-11, -3.183231456205249e-12, 3.183231456205249e-11, 6.684786058031023e-11, 1.0186340659856796e-10, 1.368789526168257e-10, 1.7189449863508344e-10, 2.0691004465334117e-10, 2.419255906715989e-10, 2.7694113668985665e-10, 3.119566827081144e-10, 3.469722287263721e-10, 3.8198777474462986e-10, 4.170033207628876e-10, 4.5201886678114533e-10, 4.870344127994031e-10, 5.220499588176608e-10, 5.570655048359185e-10, 5.920810508541763e-10, 6.27096596872434e-10, 6.621121428906918e-10, 6.971276889089495e-10, 7.321432349272072e-10, 7.67158780945465e-10, 8.021743269637227e-10, 8.371898729819804e-10, 8.722054190002382e-10, 9.072209650184959e-10, 9.422365110367537e-10, 9.772520570550114e-10, 1.0122676030732691e-09, 1.0472831490915269e-09, 1.0822986951097846e-09, 1.1173142411280423e-09, 1.1523297871463e-09, 1.1873453331645578e-09, 1.2223608791828156e-09]}, "gradients/graph_1_encoder.encoder.4.weight": {"_type": "histogram", "values": [2.0, 3.0, 2.0, 7.0, 5.0, 1.0, 14.0, 10.0, 20.0, 30.0, 32.0, 61.0, 68.0, 69.0, 95.0, 142.0, 126.0, 194.0, 265.0, 376.0, 514.0, 695.0, 912.0, 1237.0, 1727.0, 2354.0, 3482.0, 5064.0, 7503.0, 10841.0, 15918.0, 20263.0, 19335.0, 12843.0, 8116.0, 5536.0, 3764.0, 2632.0, 1856.0, 1343.0, 1037.0, 738.0, 507.0, 394.0, 256.0, 199.0, 130.0, 92.0, 80.0, 54.0, 32.0, 21.0, 24.0, 11.0, 12.0, 9.0, 10.0, 1.0, 5.0, 0.0, 1.0, 0.0, 0.0, 2.0], "bins": [-0.012462800368666649, -0.012070289812982082, -0.011677779257297516, -0.01128526870161295, -0.010892758145928383, -0.010500246658921242, -0.010107736103236675, -0.009715225547552109, -0.009322714991867542, -0.008930204436182976, -0.00853769388049841, -0.008145183324813843, -0.007752672303467989, -0.0073601617477834225, -0.006967650726437569, -0.006575140170753002, -0.006182629615068436, -0.005790119059383869, -0.005397608503699303, -0.005005097482353449, -0.004612586926668882, -0.004220076370984316, -0.0038275655824691057, -0.0034350547939538956, -0.003042544238269329, -0.0026500336825847626, -0.0022575228940695524, -0.001865012221969664, -0.0014725015498697758, -0.0010799909941852093, -0.0006874802056699991, -0.00029496941715478897, 9.754113852977753e-05, 0.0004900518106296659, 0.0008825624827295542, 0.0012750731548294425, 0.0016675838269293308, 0.0020600943826138973, 0.0024526051711291075, 0.0028451159596443176, 0.003237626515328884, 0.0036301370710134506, 0.004022647626698017, 0.004415158648043871, 0.004807669203728437, 0.005200179759413004, 0.005592690780758858, 0.005985201336443424, 0.006377711892127991, 0.006770222447812557, 0.007162733003497124, 0.0075552440248429775, 0.007947754114866257, 0.008340265601873398, 0.008732776157557964, 0.00912528671324253, 0.009517797268927097, 0.009910307824611664, 0.01030281838029623, 0.010695328935980797, 0.011087840422987938, 0.01148035004734993, 0.011872861534357071, 0.012265372090041637, 0.012657882645726204]}, "gradients/graph_1_encoder.encoder.1.weight": {"_type": "histogram", "values": [2.0, 0.0, 0.0, 1.0, 0.0, 0.0, 2.0, 0.0, 1.0, 1.0, 0.0, 1.0, 2.0, 0.0, 0.0, 3.0, 2.0, 2.0, 1.0, 2.0, 1.0, 3.0, 1.0, 3.0, 4.0, 6.0, 5.0, 11.0, 12.0, 13.0, 23.0, 17.0, 19.0, 21.0, 21.0, 35.0, 43.0, 25.0, 31.0, 31.0, 20.0, 24.0, 25.0, 18.0, 19.0, 13.0, 16.0, 2.0, 6.0, 6.0, 1.0, 2.0, 2.0, 5.0, 1.0, 1.0, 0.0, 3.0, 2.0, 0.0, 0.0, 0.0, 0.0, 1.0], "bins": [-0.003587577026337385, -0.003489736234769225, -0.003391895443201065, -0.0032940544188022614, -0.0031962136272341013, -0.0030983728356659412, -0.0030005318112671375, -0.0029026910196989775, -0.0028048502281308174, -0.0027070094365626574, -0.0026091686449944973, -0.0025113276205956936, -0.0024134868290275335, -0.0023156460374593735, -0.0022178050130605698, -0.0021199642214924097, -0.0020221234299242496, -0.0019242826383560896, -0.0018264417303726077, -0.0017286008223891258, -0.0016307600308209658, -0.0015329192392528057, -0.0014350783312693238, -0.001337237423285842, -0.0012393966317176819, -0.0011415558401495218, -0.00104371493216604, -0.000945874082390219, -0.000848033232614398, -0.000750192382838577, -0.0006523515330627561, -0.0005545106832869351, -0.0004566700663417578, -0.0003588292165659368, -0.00026098836679011583, -0.00016314751701429486, -6.530666723847389e-05, 3.253418253734708e-05, 0.00013037503231316805, 0.00022821588208898902, 0.00032605673186481, 0.00042389758164063096, 0.0005217384314164519, 0.0006195792811922729, 0.0007174201309680939, 0.0008152609807439148, 0.0009131018305197358, 0.0010109427385032177, 0.0011087835300713778, 0.0012066243216395378, 0.0013044652296230197, 0.0014023061376065016, 0.0015001469291746616, 0.0015979877207428217, 0.0016958286287263036, 0.0017936695367097855, 0.0018915103282779455, 0.0019893511198461056, 0.0020871921442449093, 0.0021850329358130693, 0.0022828737273812294, 0.0023807145189493895, 0.0024785553105175495, 0.0025763963349163532, 0.0026742371264845133]}, "gradients/graph_1_encoder.encoder.1.bias": {"_type": "histogram", "values": [1.0, 0.0, 0.0, 0.0, 0.0, 0.0, 0.0, 0.0, 0.0, 0.0, 1.0, 1.0, 2.0, 1.0, 3.0, 2.0, 6.0, 0.0, 2.0, 5.0, 6.0, 2.0, 4.0, 6.0, 5.0, 9.0, 7.0, 12.0, 17.0, 13.0, 14.0, 24.0, 15.0, 25.0, 33.0, 25.0, 30.0, 29.0, 16.0, 18.0, 25.0, 18.0, 20.0, 20.0, 13.0, 12.0, 13.0, 9.0, 11.0, 6.0, 7.0, 3.0, 5.0, 3.0, 5.0, 2.0, 1.0, 1.0, 1.0, 1.0, 0.0, 0.0, 1.0, 1.0], "bins": [-0.0025596001651138067, -0.0024882801808416843, -0.002416960196569562, -0.0023456404451280832, -0.002274320460855961, -0.0022030004765838385, -0.002131680492311716, -0.0020603605080395937, -0.0019890405237674713, -0.001917720539495349, -0.0018464006716385484, -0.001775080687366426, -0.0017037608195096254, -0.001632440835237503, -0.0015611208509653807, -0.0014898008666932583, -0.0014184811152517796, -0.0013471611309796572, -0.0012758412631228566, -0.0012045212788507342, -0.0011332014109939337, -0.0010618814267218113, -0.000990561442449689, -0.0009192415163852274, -0.000847921590320766, -0.0007766016642563045, -0.000705281738191843, -0.0006339617539197206, -0.0005626418278552592, -0.0004913219017907977, -0.0004200019466225058, -0.00034868199145421386, -0.00027736229822039604, -0.00020604235760401934, -0.00013472241698764265, -6.340247637126595e-05, 7.91746424511075e-06, 7.923739030957222e-05, 0.00015055734547786415, 0.00022187730064615607, 0.00029319722671061754, 0.000364517152775079, 0.00043583710794337094, 0.0005071570631116629, 0.0005784769891761243, 0.0006497969152405858, 0.0007211168995127082, 0.0007924368255771697, 0.0008637567516416311, 0.0009350766777060926, 0.001006396603770554, 0.0010777165880426764, 0.001149036455899477, 0.0012203564401715994, 0.0012916764244437218, 0.0013629964087158442, 0.0014343162765726447, 0.001505636260844767, 0.0015769561287015676, 0.00164827611297369, 0.0017195960972458124, 0.001790915965102613, 0.0018622359493747354, 0.001933555817231536, 0.0020048758015036583]}, "gradients/graph_1_encoder.encoder.0.bias": {"_type": "histogram", "values": [1.0, 0.0, 0.0, 1.0, 0.0, 1.0, 0.0, 0.0, 2.0, 0.0, 2.0, 1.0, 1.0, 5.0, 4.0, 2.0, 5.0, 1.0, 0.0, 4.0, 6.0, 4.0, 9.0, 11.0, 11.0, 8.0, 21.0, 22.0, 13.0, 26.0, 26.0, 13.0, 38.0, 34.0, 27.0, 29.0, 26.0, 24.0, 15.0, 26.0, 14.0, 13.0, 4.0, 9.0, 7.0, 1.0, 5.0, 10.0, 6.0, 1.0, 3.0, 2.0, 1.0, 5.0, 5.0, 2.0, 1.0, 0.0, 1.0, 1.0, 1.0, 0.0, 0.0, 1.0], "bins": [-4.423782229423523e-08, -4.2913598008453846e-08, -4.158937372267246e-08, -4.026514943689108e-08, -3.8940925151109695e-08, -3.761670086532831e-08, -3.629247657954693e-08, -3.4968252293765545e-08, -3.364402800798416e-08, -3.231980372220278e-08, -3.0995579436421394e-08, -2.967135515064001e-08, -2.8347130864858627e-08, -2.7022906579077244e-08, -2.569868229329586e-08, -2.4374458007514477e-08, -2.3050233721733093e-08, -2.172600943595171e-08, -2.0401785150170326e-08, -1.9077560864388943e-08, -1.775333657860756e-08, -1.6429112292826176e-08, -1.5104888007044792e-08, -1.3780663721263409e-08, -1.2456439435482025e-08, -1.1132215149700642e-08, -9.807990863919258e-09, -8.483766578137875e-09, -7.159542292356491e-09, -5.8353180065751076e-09, -4.511093720793724e-09, -3.1868694350123405e-09, -1.862645149230957e-09, -5.384208634495735e-10, 7.8580342233181e-10, 2.1100277081131935e-09, 3.434251993894577e-09, 4.7584762796759605e-09, 6.082700565457344e-09, 7.4069248512387276e-09, 8.731149137020111e-09, 1.0055373422801495e-08, 1.1379597708582878e-08, 1.2703821994364262e-08, 1.4028046280145645e-08, 1.535227056592703e-08, 1.6676494851708412e-08, 1.8000719137489796e-08, 1.932494342327118e-08, 2.0649167709052563e-08, 2.1973391994833946e-08, 2.329761628061533e-08, 2.4621840566396713e-08, 2.5946064852178097e-08, 2.727028913795948e-08, 2.8594513423740864e-08, 2.991873770952225e-08, 3.124296199530363e-08, 3.2567186281085014e-08, 3.38914105668664e-08, 3.521563485264778e-08, 3.6539859138429165e-08, 3.786408342421055e-08, 3.918830770999193e-08, 4.0512531995773315e-08]}, "gradients/graph_1_encoder.encoder.0.weight": {"_type": "histogram", "values": [1.0, 0.0, 1.0, 1.0, 2.0, 3.0, 4.0, 3.0, 3.0, 1.0, 4.0, 5.0, 9.0, 10.0, 14.0, 18.0, 16.0, 28.0, 38.0, 49.0, 63.0, 94.0, 130.0, 209.0, 292.0, 559.0, 1102.0, 2252.0, 5411.0, 15611.0, 55376.0, 197779.0, 120658.0, 31400.0, 10012.0, 3777.0, 1637.0, 801.0, 423.0, 240.0, 151.0, 90.0, 54.0, 47.0, 28.0, 18.0, 13.0, 18.0, 13.0, 14.0, 12.0, 2.0, 3.0, 4.0, 1.0, 2.0, 1.0, 1.0, 0.0, 0.0, 2.0, 0.0, 0.0, 2.0], "bins": [-0.02311277762055397, -0.0223848856985569, -0.02165699191391468, -0.02092909999191761, -0.02020120620727539, -0.01947331428527832, -0.01874542236328125, -0.01801752857863903, -0.01728963479399681, -0.01656174287199974, -0.01583384908735752, -0.01510595716536045, -0.014378063380718231, -0.013650171458721161, -0.012922278605401516, -0.012194385752081871, -0.0114664938300848, -0.010738600976765156, -0.01001070812344551, -0.00928281620144844, -0.008554922416806221, -0.00782703049480915, -0.007099137641489506, -0.006371244788169861, -0.005643351934850216, -0.004915459081530571, -0.004187566228210926, -0.0034596738405525684, -0.0027317809872329235, -0.0020038881339132786, -0.001275995746254921, -0.000548102892935276, 0.00017979182302951813, 0.0009076845599338412, 0.0016355772968381643, 0.0023634699173271656, 0.0030913627706468105, 0.0038192556239664555, 0.004547148011624813, 0.005275040864944458, 0.006002933718264103, 0.006730826571583748, 0.007458719424903393, 0.008186612278223038, 0.008914504200220108, 0.009642397984862328, 0.010370289906859398, 0.011098182760179043, 0.011826075613498688, 0.012553968466818333, 0.013281861320137978, 0.014009753242135048, 0.014737647026777267, 0.015465538948774338, 0.016193430870771408, 0.016921324655413628, 0.017649218440055847, 0.018377110362052917, 0.019105004146695137, 0.019832896068692207, 0.020560789853334427, 0.021288681775331497, 0.022016573697328568, 0.022744467481970787, 0.023472359403967857]}, "_wandb": {"runtime": 199}}