{"train_loss": 0.03464820981025696, "train_ssl_loss": 0.03169867768883705, "train_tsk_loss": 0.0029495360795408487, "test_loss": 0.623196005821228, "test_ssl_loss": 0.6135370135307312, "test_tsk_loss": 0.009658959694206715, "_timestamp": 1697561024.1346593, "_runtime": 654.1293022632599, "_step": 297, "gradients/graph_2taskmapper.out.bias": {"_type": "histogram", "values": [0.0, 0.0, 0.0, 0.0, 0.0, 0.0, 0.0, 0.0, 0.0, 0.0, 0.0, 0.0, 0.0, 0.0, 0.0, 0.0, 0.0, 0.0, 0.0, 0.0, 0.0, 0.0, 0.0, 0.0, 0.0, 0.0, 0.0, 0.0, 0.0, 0.0, 0.0, 0.0, 1.0, 0.0, 0.0, 0.0, 0.0, 0.0, 0.0, 0.0, 0.0, 0.0, 0.0, 0.0, 0.0, 0.0, 0.0, 0.0, 0.0, 0.0, 0.0, 0.0, 0.0, 0.0, 0.0, 0.0, 0.0, 0.0, 0.0, 0.0, 0.0, 0.0, 0.0, 0.0], "bins": [0.04628223180770874, 0.04628223180770874, 0.04628223180770874, 0.04628223180770874, 0.04628223180770874, 0.04628223180770874, 0.04628223180770874, 0.04628223180770874, 0.04628223180770874, 0.04628223180770874, 0.04628223180770874, 0.04628223180770874, 0.04628223180770874, 0.04628223180770874, 0.04628223180770874, 0.04628223180770874, 0.04628223180770874, 0.04628223180770874, 0.04628223180770874, 0.04628223180770874, 0.04628223180770874, 0.04628223180770874, 0.04628223180770874, 0.04628223180770874, 0.04628223180770874, 0.04628223180770874, 0.04628223180770874, 0.04628223180770874, 0.04628223180770874, 0.04628223180770874, 0.04628223180770874, 0.04628223180770874, 0.04628223180770874, 0.04628223180770874, 0.04628223180770874, 0.04628223180770874, 0.04628223180770874, 0.04628223180770874, 0.04628223180770874, 0.04628223180770874, 0.04628223180770874, 0.04628223180770874, 0.04628223180770874, 0.04628223180770874, 0.04628223180770874, 0.04628223180770874, 0.04628223180770874, 0.04628223180770874, 0.04628223180770874, 0.04628223180770874, 0.04628223180770874, 0.04628223180770874, 0.04628223180770874, 0.04628223180770874, 0.04628223180770874, 0.04628223180770874, 0.04628223180770874, 0.04628223180770874, 0.04628223180770874, 0.04628223180770874, 0.04628223180770874, 0.04628223180770874, 0.04628223180770874, 0.04628223180770874, 0.04628223180770874]}, "gradients/graph_2taskmapper.out.weight": {"_type": "histogram", "values": [3.0, 0.0, 1.0, 0.0, 0.0, 0.0, 2.0, 2.0, 0.0, 0.0, 0.0, 0.0, 0.0, 0.0, 0.0, 0.0, 0.0, 0.0, 0.0, 0.0, 1.0, 0.0, 0.0, 0.0, 0.0, 0.0, 0.0, 0.0, 0.0, 1.0, 0.0, 0.0, 0.0, 0.0, 0.0, 0.0, 0.0, 1.0, 0.0, 0.0, 0.0, 0.0, 0.0, 1.0, 1.0, 0.0, 0.0, 0.0, 0.0, 0.0, 0.0, 0.0, 0.0, 0.0, 1.0, 0.0, 0.0, 0.0, 1.0, 0.0, 0.0, 0.0, 0.0, 1.0], "bins": [0.0, 0.00029499828815460205, 0.0005899965763092041, 0.0008849948644638062, 0.0011799931526184082, 0.0014749914407730103, 0.0017699897289276123, 0.0020649880170822144, 0.0023599863052368164, 0.0026549845933914185, 0.0029499828815460205, 0.0032449811697006226, 0.0035399794578552246, 0.0038349777460098267, 0.004129976034164429, 0.004424974322319031, 0.004719972610473633, 0.005014970898628235, 0.005309969186782837, 0.005604967474937439, 0.005899965763092041, 0.006194964051246643, 0.006489962339401245, 0.006784960627555847, 0.007079958915710449, 0.007374957203865051, 0.007669955492019653, 0.007964953780174255, 0.008259952068328857, 0.00855495035648346, 0.008849948644638062, 0.009144946932792664, 0.009439945220947266, 0.009734943509101868, 0.01002994179725647, 0.010324940085411072, 0.010619938373565674, 0.010914936661720276, 0.011209934949874878, 0.01150493323802948, 0.011799931526184082, 0.012094929814338684, 0.012389928102493286, 0.012684926390647888, 0.01297992467880249, 0.013274922966957092, 0.013569921255111694, 0.013864919543266296, 0.014159917831420898, 0.0144549161195755, 0.014749914407730103, 0.015044912695884705, 0.015339910984039307, 0.01563490927219391, 0.01592990756034851, 0.016224905848503113, 0.016519904136657715, 0.016814902424812317, 0.01710990071296692, 0.01740489900112152, 0.017699897289276123, 0.017994895577430725, 0.018289893865585327, 0.01858489215373993, 0.01887989044189453]}, "gradients/graph_2taskmapper.lins.1.bias": {"_type": "histogram", "values": [1.0, 0.0, 0.0, 0.0, 0.0, 0.0, 0.0, 0.0, 1.0, 0.0, 0.0, 1.0, 0.0, 0.0, 1.0, 0.0, 0.0, 1.0, 0.0, 0.0, 0.0, 0.0, 0.0, 0.0, 0.0, 0.0, 0.0, 0.0, 0.0, 3.0, 0.0, 0.0, 0.0, 0.0, 0.0, 0.0, 0.0, 0.0, 0.0, 0.0, 1.0, 0.0, 1.0, 0.0, 1.0, 0.0, 0.0, 0.0, 1.0, 0.0, 0.0, 0.0, 1.0, 0.0, 0.0, 0.0, 0.0, 0.0, 1.0, 0.0, 0.0, 0.0, 0.0, 2.0], "bins": [-0.014282889664173126, -0.013800879940390587, -0.013318871147930622, -0.012836861424148083, -0.012354852631688118, -0.011872842907905579, -0.011390834115445614, -0.010908824391663074, -0.01042681559920311, -0.00994480587542057, -0.009462797082960606, -0.008980787359178066, -0.008498778566718102, -0.008016768842935562, -0.007534760050475597, -0.007052750326693058, -0.006570741068571806, -0.006088731810450554, -0.005606722552329302, -0.00512471329420805, -0.004642704036086798, -0.004160694777965546, -0.00367868528701365, -0.003196676028892398, -0.002714666770771146, -0.0022326575126498938, -0.0017506482545286417, -0.0012686388799920678, -0.0007866296218708158, -0.00030462024733424187, 0.0001773890107870102, 0.0006593982689082623, 0.0011414075270295143, 0.0016234167851507664, 0.0021054260432720184, 0.0025874353013932705, 0.0030694445595145226, 0.0035514540504664183, 0.004033463075757027, 0.004515472799539566, 0.004997481591999531, 0.005479490850120783, 0.005961500108242035, 0.006443509366363287, 0.006925518624484539, 0.007407528348267078, 0.007889537140727043, 0.008371546864509583, 0.008853556588292122, 0.009335566312074661, 0.009817575104534626, 0.010299584828317165, 0.01078159362077713, 0.01126360334455967, 0.011745612137019634, 0.012227621860802174, 0.012709630653262138, 0.013191640377044678, 0.013673649169504642, 0.014155658893287182, 0.014637667685747147, 0.015119677409529686, 0.01560168620198965, 0.016083694994449615, 0.016565704718232155]}, "gradients/graph_2taskmapper.lins.1.weight": {"_type": "histogram", "values": [1.0, 0.0, 0.0, 0.0, 0.0, 0.0, 0.0, 0.0, 1.0, 0.0, 0.0, 1.0, 0.0, 1.0, 1.0, 0.0, 0.0, 2.0, 1.0, 0.0, 2.0, 1.0, 2.0, 6.0, 6.0, 13.0, 26.0, 26.0, 12.0, 114.0, 20.0, 34.0, 29.0, 22.0, 17.0, 14.0, 9.0, 6.0, 1.0, 1.0, 1.0, 2.0, 1.0, 2.0, 1.0, 1.0, 0.0, 2.0, 1.0, 0.0, 0.0, 0.0, 1.0, 0.0, 0.0, 0.0, 0.0, 0.0, 1.0, 0.0, 0.0, 0.0, 0.0, 2.0], "bins": [-0.005030227825045586, -0.004860490094870329, -0.0046907528303563595, -0.004521015100181103, -0.004351277370005846, -0.004181539639830589, -0.00401180237531662, -0.003842064645141363, -0.00367232714779675, -0.003502589650452137, -0.0033328519202768803, -0.003163114422932267, -0.002993376925587654, -0.0028236391954123974, -0.0026539016980677843, -0.0024841642007231712, -0.0023144264705479145, -0.0021446889732033014, -0.0019749512430280447, -0.0018052137456834316, -0.0016354761319234967, -0.0014657385181635618, -0.0012960010208189487, -0.0011262634070590138, -0.0009565257932990789, -0.000786788179539144, -0.00061705062398687, -0.00044731306843459606, -0.00027757545467466116, -0.00010783784091472626, 6.189965642988682e-05, 0.00023163727018982172, 0.0004013748839497566, 0.0005711124977096915, 0.0007408500532619655, 0.0009105876088142395, 0.0010803252225741744, 0.0012500628363341093, 0.0014198003336787224, 0.0015895379474386573, 0.0017592755611985922, 0.001929013174958527, 0.002098750788718462, 0.002268488286063075, 0.002438225783407688, 0.002607963513582945, 0.002777701010927558, 0.002947438508272171, 0.0031171762384474277, 0.003286913735792041, 0.0034566514659672976, 0.0036263889633119106, 0.0037961266934871674, 0.003965863958001137, 0.0041356016881763935, 0.00430533941835165, 0.00447507668286562, 0.004644814413040876, 0.004814551677554846, 0.0049842894077301025, 0.005154027137905359, 0.005323764868080616, 0.005493502132594585, 0.005663239862769842, 0.005832977592945099]}, "gradients/graph_2taskmapper.lins.0.bias": {"_type": "histogram", "values": [1.0, 0.0, 0.0, 0.0, 0.0, 0.0, 0.0, 0.0, 0.0, 0.0, 0.0, 0.0, 0.0, 0.0, 0.0, 0.0, 0.0, 0.0, 1.0, 0.0, 0.0, 0.0, 0.0, 0.0, 0.0, 0.0, 0.0, 0.0, 0.0, 3.0, 0.0, 0.0, 0.0, 0.0, 0.0, 0.0, 0.0, 0.0, 2.0, 0.0, 0.0, 0.0, 0.0, 0.0, 0.0, 1.0, 1.0, 0.0, 1.0, 0.0, 0.0, 1.0, 3.0, 1.0, 1.0, 2.0, 1.0, 1.0, 0.0, 1.0, 0.0, 0.0, 1.0, 2.0], "bins": [-0.014117545448243618, -0.013642357662320137, -0.013167169876396656, -0.012691982090473175, -0.012216795235872269, -0.011741606518626213, -0.011266419664025307, -0.010791231878101826, -0.010316044092178345, -0.009840856306254864, -0.009365668520331383, -0.008890480734407902, -0.00841529294848442, -0.007940106093883514, -0.007464918307960033, -0.006989730522036552, -0.0065145427361130714, -0.0060393549501895905, -0.0055641671642661095, -0.005088979844003916, -0.004613792058080435, -0.004138604272156954, -0.0036634167190641165, -0.003188229165971279, -0.002713041380047798, -0.002237853594124317, -0.0017626660410314798, -0.0012874783715233207, -0.0008122907020151615, -0.0003371029160916805, 0.0001380846370011568, 0.0006132721900939941, 0.0010884609073400497, 0.001563648576848209, 0.002038836246356368, 0.0025140237994492054, 0.0029892115853726864, 0.0034643993712961674, 0.003939586691558361, 0.004414774477481842, 0.004889962263405323, 0.005365150049328804, 0.005840337835252285, 0.006315525155514479, 0.00679071294143796, 0.007265900727361441, 0.007741088047623634, 0.008216275833547115, 0.008691463619470596, 0.009166651405394077, 0.009641839191317558, 0.01011702697724104, 0.01059221476316452, 0.011067401617765427, 0.011542589403688908, 0.012017777189612389, 0.01249296497553587, 0.01296815276145935, 0.013443340547382832, 0.013918528333306313, 0.014393715187907219, 0.014868903905153275, 0.015344090759754181, 0.015819277614355087, 0.016294466331601143]}, "gradients/graph_2taskmapper.lins.0.weight": {"_type": "histogram", "values": [1.0, 2.0, 0.0, 0.0, 1.0, 0.0, 1.0, 1.0, 1.0, 3.0, 2.0, 2.0, 0.0, 1.0, 0.0, 3.0, 3.0, 8.0, 6.0, 5.0, 3.0, 14.0, 12.0, 10.0, 10.0, 17.0, 15.0, 23.0, 18.0, 19.0, 22.0, 15.0, 21.0, 24.0, 106.0, 19.0, 20.0, 44.0, 41.0, 35.0, 34.0, 22.0, 18.0, 22.0, 18.0, 14.0, 11.0, 12.0, 20.0, 14.0, 9.0, 11.0, 6.0, 6.0, 6.0, 5.0, 3.0, 3.0, 1.0, 0.0, 1.0, 0.0, 2.0, 2.0], "bins": [-0.006511387415230274, -0.006323319394141436, -0.006135251838713884, -0.005947183817625046, -0.0057591162621974945, -0.005571048241108656, -0.005382980220019817, -0.005194912664592266, -0.0050068446435034275, -0.004818776622414589, -0.004630709066987038, -0.004442641045898199, -0.0042545730248093605, -0.004066505469381809, -0.0038784374482929707, -0.0036903696600347757, -0.003502301871776581, -0.003314234083518386, -0.003126166295260191, -0.0029380982741713524, -0.0027500304859131575, -0.0025619626976549625, -0.002373894676566124, -0.002185826888307929, -0.001997759100049734, -0.0018096913117915392, -0.0016216234071180224, -0.0014335555024445057, -0.0012454877141863108, -0.0010574199259281158, -0.0008693520212545991, -0.0006812841165810823, -0.0004932167939841747, -0.0003051489475183189, -0.00011708110105246305, 7.098674541339278e-05, 0.0002590545918792486, 0.00044712243834510446, 0.0006351902848109603, 0.000823258189484477, 0.001011325977742672, 0.0011993937660008669, 0.0013874616706743836, 0.0015755295753479004, 0.0017635973636060953, 0.0019516651518642902, 0.002139733172953129, 0.0023278009612113237, 0.0025158687494695187, 0.0027039365377277136, 0.0028920043259859085, 0.003080072347074747, 0.003268140135332942, 0.003456207923591137, 0.0036442759446799755, 0.0038323437329381704, 0.004020411521196365, 0.004208479542285204, 0.004396547097712755, 0.004584615118801594, 0.004772682674229145, 0.004960750695317984, 0.005148818716406822, 0.0053368862718343735, 0.005524954292923212]}, "gradients/graph_2_projector.0.bias": {"_type": "histogram", "values": [1.0, 0.0, 0.0, 0.0, 0.0, 0.0, 1.0, 0.0, 0.0, 0.0, 1.0, 0.0, 0.0, 0.0, 0.0, 0.0, 0.0, 1.0, 0.0, 0.0, 0.0, 0.0, 0.0, 0.0, 0.0, 0.0, 2.0, 1.0, 1.0, 3.0, 0.0, 0.0, 1.0, 0.0, 2.0, 2.0, 1.0, 3.0, 1.0, 2.0, 2.0, 0.0, 3.0, 0.0, 2.0, 0.0, 0.0, 0.0, 0.0, 0.0, 0.0, 0.0, 0.0, 0.0, 0.0, 1.0, 0.0, 0.0, 0.0, 0.0, 0.0, 0.0, 0.0, 1.0], "bins": [-0.028344465419650078, -0.027527064085006714, -0.0267096646130085, -0.025892263278365135, -0.02507486194372177, -0.024257462471723557, -0.023440061137080193, -0.02262265980243683, -0.021805260330438614, -0.02098785899579525, -0.020170459523797035, -0.01935305818915367, -0.018535656854510307, -0.017718255519866943, -0.01690085604786873, -0.016083454713225365, -0.015266053378582, -0.014448652975261211, -0.013631251640617847, -0.012813851237297058, -0.011996449902653694, -0.011179049499332905, -0.010361649096012115, -0.009544247761368752, -0.008726847358047962, -0.007909446954727173, -0.007092045620083809, -0.0062746452167630196, -0.005457244347780943, -0.004639843478798866, -0.003822443075478077, -0.0030050422064960003, -0.002187643200159073, -0.001370242447592318, -0.0005528416950255632, 0.00026455894112586975, 0.0010819598101079464, 0.001899360679090023, 0.0027167610824108124, 0.003534161951392889, 0.004351562820374966, 0.005168963689357042, 0.005986364558339119, 0.006803764961659908, 0.007621165830641985, 0.008438566699624062, 0.009255967102944851, 0.01007336750626564, 0.010890768840909004, 0.011708169244229794, 0.012525570578873158, 0.013342970982193947, 0.01416037231683731, 0.0149777727201581, 0.01579517312347889, 0.016612574458122253, 0.017429973930120468, 0.018247375264763832, 0.019064774736762047, 0.01988217607140541, 0.020699577406048775, 0.02151697874069214, 0.022334378212690353, 0.023151779547333717, 0.02396918088197708]}, "gradients/graph_2_projector.0.weight": {"_type": "histogram", "values": [2.0, 0.0, 0.0, 0.0, 0.0, 1.0, 0.0, 2.0, 1.0, 7.0, 3.0, 7.0, 4.0, 6.0, 8.0, 11.0, 12.0, 29.0, 27.0, 32.0, 40.0, 67.0, 65.0, 102.0, 104.0, 123.0, 164.0, 214.0, 237.0, 244.0, 333.0, 332.0, 356.0, 294.0, 235.0, 212.0, 164.0, 132.0, 105.0, 84.0, 54.0, 57.0, 44.0, 37.0, 36.0, 28.0, 24.0, 11.0, 7.0, 10.0, 4.0, 5.0, 6.0, 5.0, 2.0, 2.0, 1.0, 2.0, 0.0, 0.0, 0.0, 0.0, 1.0, 1.0], "bins": [-0.010586411692202091, -0.010252349078655243, -0.00991828553378582, -0.009584222920238972, -0.009250160306692123, -0.0089160967618227, -0.008582034148275852, -0.008247971534729004, -0.007913907989859581, -0.007579844910651445, -0.007245782297104597, -0.0069117192178964615, -0.006577656138688326, -0.00624359305948019, -0.005909530445933342, -0.005575467366725206, -0.005241404753178358, -0.0049073416739702225, -0.004573279060423374, -0.004239215981215239, -0.003905152902007103, -0.003571090055629611, -0.003237027209252119, -0.0029029641300439835, -0.0025689012836664915, -0.0022348384372889996, -0.001900775358080864, -0.001566712511703372, -0.0012326495489105582, -0.0008985865861177444, -0.0005645237397402525, -0.0002304606605321169, 0.00010360218584537506, 0.0004376651195343584, 0.0007717280532233417, 0.0011057909578084946, 0.0014398539206013083, 0.0017739168833941221, 0.002107979729771614, 0.0024420428089797497, 0.0027761056553572416, 0.0031101685017347336, 0.003444231580942869, 0.003778294427320361, 0.004112357273697853, 0.004446420352905989, 0.004780483432114124, 0.005114546045660973, 0.005448609124869108, 0.005782672204077244, 0.006116734817624092, 0.006450797896832228, 0.006784860976040363, 0.007118923589587212, 0.007452986668795347, 0.007787049748003483, 0.008121112361550331, 0.00845517497509718, 0.008789238519966602, 0.00912330113351345, 0.009457363747060299, 0.009791427291929722, 0.01012548990547657, 0.010459553450345993, 0.010793616063892841]}, "gradients/graph_2_encoder.encoder.8.bias": {"_type": "histogram", "values": [1.0, 0.0, 2.0, 0.0, 0.0, 0.0, 0.0, 0.0, 1.0, 0.0, 0.0, 1.0, 3.0, 1.0, 3.0, 1.0, 3.0, 3.0, 7.0, 3.0, 4.0, 1.0, 3.0, 7.0, 2.0, 2.0, 4.0, 6.0, 2.0, 4.0, 6.0, 3.0, 3.0, 2.0, 1.0, 4.0, 2.0, 6.0, 2.0, 6.0, 2.0, 2.0, 3.0, 3.0, 3.0, 2.0, 2.0, 0.0, 0.0, 1.0, 0.0, 2.0, 2.0, 0.0, 1.0, 1.0, 0.0, 1.0, 1.0, 0.0, 0.0, 1.0, 1.0, 1.0], "bins": [-0.005996848456561565, -0.0058012292720377445, -0.005605610553175211, -0.00540999136865139, -0.0052143726497888565, -0.005018753465265036, -0.004823134280741215, -0.004627515561878681, -0.00443189637735486, -0.004236277192831039, -0.004040658473968506, -0.003845039289444685, -0.0036494203377515078, -0.0034538013860583305, -0.0032581822015345097, -0.0030625632498413324, -0.002866944298148155, -0.002671325346454978, -0.0024757063947618008, -0.00228008721023798, -0.0020844682585448027, -0.0018888493068516254, -0.0016932302387431264, -0.0014976111706346273, -0.0013019922189414501, -0.001106373267248273, -0.0009107541991397738, -0.0007151351892389357, -0.0005195161793380976, -0.00032389722764492035, -0.0001282781595364213, 6.734090857207775e-05, 0.0002629603259265423, 0.0004585793358273804, 0.0006541983457282186, 0.0008498173556290567, 0.0010454363655298948, 0.001241055317223072, 0.001436674385331571, 0.0016322934534400702, 0.0018279124051332474, 0.0020235313568264246, 0.002219150308519602, 0.0024147694930434227, 0.0026103884447366, 0.002806007396429777, 0.003001626580953598, 0.0031972455326467752, 0.0033928644843399525, 0.0035884834360331297, 0.003784102387726307, 0.003979721572250128, 0.004175340756773949, 0.004370959475636482, 0.004566578660160303, 0.004762197844684124, 0.0049578165635466576, 0.0051534357480704784, 0.005349054466933012, 0.005544673651456833, 0.0057402923703193665, 0.005935911554843187, 0.006131530739367008, 0.006327149458229542, 0.006522768642753363]}, "gradients/graph_2_encoder.encoder.8.weight": {"_type": "histogram", "values": [3.0, 0.0, 1.0, 0.0, 1.0, 2.0, 1.0, 7.0, 9.0, 4.0, 15.0, 14.0, 25.0, 27.0, 45.0, 53.0, 61.0, 74.0, 108.0, 143.0, 185.0, 235.0, 317.0, 397.0, 497.0, 792.0, 1069.0, 1481.0, 1818.0, 2440.0, 2898.0, 3538.0, 3636.0, 3095.0, 2585.0, 2215.0, 1486.0, 938.0, 622.0, 441.0, 327.0, 247.0, 192.0, 166.0, 116.0, 90.0, 79.0, 51.0, 52.0, 31.0, 17.0, 15.0, 16.0, 13.0, 14.0, 14.0, 14.0, 11.0, 8.0, 5.0, 4.0, 2.0, 4.0, 2.0], "bins": [-0.00805511511862278, -0.007802948355674744, -0.0075507815927267075, -0.007298614829778671, -0.007046448066830635, -0.006794281303882599, -0.006542114540934563, -0.0062899477779865265, -0.00603778101503849, -0.005785614252090454, -0.005533447489142418, -0.005281280726194382, -0.0050291139632463455, -0.004776947200298309, -0.004524780437350273, -0.004272613674402237, -0.004020446911454201, -0.0037682801485061646, -0.0035161133855581284, -0.003263946622610092, -0.003011779859662056, -0.0027596130967140198, -0.0025074463337659836, -0.0022552795708179474, -0.002003112807869911, -0.001750946044921875, -0.0014987792819738388, -0.0012466125190258026, -0.0009944457560777664, -0.0007422789931297302, -0.000490112230181694, -0.00023794546723365784, 1.4221295714378357e-05, 0.00026638805866241455, 0.0005185548216104507, 0.0007707215845584869, 0.0010228883475065231, 0.0012750551104545593, 0.0015272218734025955, 0.0017793886363506317, 0.002031555399298668, 0.002283722162246704, 0.0025358889251947403, 0.0027880556881427765, 0.0030402224510908127, 0.003292389214038849, 0.003544555976986885, 0.0037967227399349213, 0.0040488895028829575, 0.004301056265830994, 0.00455322302877903, 0.004805389791727066, 0.005057556554675102, 0.005309723317623138, 0.005561890080571175, 0.005814056843519211, 0.006066223606467247, 0.006318390369415283, 0.006570557132363319, 0.006822723895311356, 0.007074890658259392, 0.007327057421207428, 0.007579224184155464, 0.0078313909471035, 0.008083557710051537]}, "gradients/graph_2_encoder.encoder.5.weight": {"_type": "histogram", "values": [1.0, 0.0, 1.0, 1.0, 0.0, 1.0, 0.0, 0.0, 0.0, 0.0, 0.0, 0.0, 0.0, 0.0, 0.0, 0.0, 1.0, 2.0, 1.0, 0.0, 2.0, 0.0, 3.0, 2.0, 1.0, 1.0, 2.0, 0.0, 2.0, 1.0, 5.0, 4.0, 2.0, 7.0, 11.0, 13.0, 17.0, 20.0, 34.0, 30.0, 24.0, 10.0, 10.0, 6.0, 5.0, 6.0, 3.0, 3.0, 1.0, 5.0, 3.0, 1.0, 3.0, 1.0, 2.0, 2.0, 1.0, 1.0, 1.0, 1.0, 1.0, 0.0, 0.0, 1.0], "bins": [-0.00837098341435194, -0.008153732866048813, -0.007936481386423111, -0.007719230838119984, -0.007501979824155569, -0.007284729275852442, -0.007067478261888027, -0.0068502277135849, -0.006632976699620485, -0.006415725685656071, -0.006198475137352943, -0.005981224123388529, -0.005763973109424114, -0.005546722561120987, -0.005329471547156572, -0.005112220533192158, -0.0048949699848890305, -0.004677718970924616, -0.004460468422621489, -0.004243217408657074, -0.004025966394692659, -0.003808715846389532, -0.0035914648324251175, -0.0033742140512913465, -0.0031569628044962883, -0.0029397120233625174, -0.0027224610093981028, -0.002505210228264332, -0.002287959447130561, -0.00207070866599679, -0.0018534576520323753, -0.0016362068708986044, -0.0014189560897648335, -0.0012017051922157407, -0.0009844544110819697, -0.000767203513532877, -0.0005499526741914451, -0.00033270183485001326, -0.00011545093730092049, 0.00010179984383285046, 0.0003190507413819432, 0.0005363015807233751, 0.0007535524200648069, 0.0009708033176138997, 0.0011880542151629925, 0.0014053049962967634, 0.0016225558938458562, 0.0018398066749796271, 0.00205705757252872, 0.002274308353662491, 0.0024915593676269054, 0.0027088101487606764, 0.0029260609298944473, 0.003143311943858862, 0.003360562724992633, 0.003577813506126404, 0.0037950645200908184, 0.004012315534055233, 0.00422956608235836, 0.004446817096322775, 0.0046640681102871895, 0.004881318658590317, 0.005098569672554731, 0.005315820686519146, 0.005533071234822273]}, "gradients/graph_2_encoder.encoder.5.bias": {"_type": "histogram", "values": [1.0, 0.0, 0.0, 0.0, 0.0, 0.0, 0.0, 0.0, 0.0, 0.0, 1.0, 1.0, 2.0, 1.0, 3.0, 1.0, 1.0, 3.0, 3.0, 3.0, 1.0, 3.0, 10.0, 3.0, 4.0, 6.0, 3.0, 6.0, 7.0, 9.0, 12.0, 17.0, 10.0, 19.0, 7.0, 8.0, 8.0, 15.0, 9.0, 13.0, 17.0, 5.0, 7.0, 6.0, 8.0, 3.0, 4.0, 1.0, 2.0, 2.0, 3.0, 2.0, 1.0, 1.0, 2.0, 0.0, 0.0, 0.0, 0.0, 0.0, 0.0, 1.0, 0.0, 1.0], "bins": [-0.00351733504794538, -0.0034148800186812878, -0.0033124247565865517, -0.0032099697273224592, -0.0031075146980583668, -0.0030050596687942743, -0.002902604639530182, -0.002800149377435446, -0.0026976943481713533, -0.002595239318907261, -0.002492784056812525, -0.0023903290275484324, -0.00228787399828434, -0.0021854189690202475, -0.002082963939756155, -0.001980508677661419, -0.0018780536483973265, -0.001775598619133234, -0.0016731434734538198, -0.0015706883277744055, -0.001468233298510313, -0.0013657782692462206, -0.0012633231235668063, -0.001160867977887392, -0.0010584129486232996, -0.0009559578611515462, -0.0008535027736797929, -0.0007510476862080395, -0.0006485925987362862, -0.0005461375112645328, -0.00044368242379277945, -0.0003412273363210261, -0.00023877201601862907, -0.00013631692854687572, -3.3861841075122356e-05, 6.8593246396631e-05, 0.00017104833386838436, 0.0002735034213401377, 0.0003759585088118911, 0.00047841359628364444, 0.0005808686837553978, 0.0006833237712271512, 0.0007857788586989045, 0.0008882339461706579, 0.0009906890336424112, 0.0010931440629065037, 0.001195599208585918, 0.0012980543542653322, 0.0014005093835294247, 0.0015029644127935171, 0.0016054195584729314, 0.0017078747041523457, 0.001810329733416438, 0.0019127847626805305, 0.0020152400247752666, 0.002117695054039359, 0.0022201500833034515, 0.002322605112567544, 0.0024250601418316364, 0.0025275154039263725, 0.002629970433190465, 0.0027324254624545574, 0.0028348807245492935, 0.002937335753813386, 0.0030397907830774784]}, "gradients/graph_2_encoder.encoder.4.bias": {"_type": "histogram", "values": [1.0, 0.0, 0.0, 0.0, 1.0, 0.0, 4.0, 1.0, 0.0, 0.0, 0.0, 0.0, 5.0, 1.0, 2.0, 2.0, 1.0, 0.0, 7.0, 2.0, 3.0, 7.0, 8.0, 0.0, 8.0, 10.0, 5.0, 20.0, 12.0, 18.0, 31.0, 8.0, 19.0, 16.0, 5.0, 8.0, 12.0, 2.0, 2.0, 5.0, 3.0, 7.0, 6.0, 0.0, 0.0, 4.0, 1.0, 0.0, 0.0, 0.0, 0.0, 0.0, 0.0, 0.0, 5.0, 1.0, 0.0, 0.0, 0.0, 1.0, 1.0, 0.0, 0.0, 1.0], "bins": [-2.9103830456733704e-10, -2.814886101987213e-10, -2.7193891583010554e-10, -2.623892214614898e-10, -2.5283952709287405e-10, -2.432898327242583e-10, -2.3374013835564256e-10, -2.241904439870268e-10, -2.1464074961841106e-10, -2.0509105524979532e-10, -1.9554136088117957e-10, -1.8599166651256382e-10, -1.7644197214394808e-10, -1.6689227777533233e-10, -1.5734258340671659e-10, -1.4779288903810084e-10, -1.382431946694851e-10, -1.2869350030086935e-10, -1.191438059322536e-10, -1.0959411156363785e-10, -1.000444171950221e-10, -9.049472282640636e-11, -8.094502845779061e-11, -7.139533408917487e-11, -6.184563972055912e-11, -5.2295945351943374e-11, -4.274625098332763e-11, -3.319655661471188e-11, -2.3646862246096134e-11, -1.4097167877480388e-11, -4.547473508864641e-12, 5.002220859751105e-12, 1.4551915228366852e-11, 2.4101609596982598e-11, 3.3651303965598345e-11, 4.320099833421409e-11, 5.275069270282984e-11, 6.230038707144558e-11, 7.185008144006133e-11, 8.139977580867708e-11, 9.094947017729282e-11, 1.0049916454590857e-10, 1.1004885891452432e-10, 1.1959855328314006e-10, 1.291482476517558e-10, 1.3869794202037156e-10, 1.482476363889873e-10, 1.5779733075760305e-10, 1.673470251262188e-10, 1.7689671949483454e-10, 1.864464138634503e-10, 1.9599610823206604e-10, 2.0554580260068178e-10, 2.1509549696929753e-10, 2.2464519133791327e-10, 2.34194885706529e-10, 2.4374458007514477e-10, 2.532942744437605e-10, 2.6284396881237626e-10, 2.72393663180992e-10, 2.8194335754960775e-10, 2.914930519182235e-10, 3.0104274628683925e-10, 3.10592440655455e-10, 3.2014213502407074e-10]}, "gradients/graph_2_encoder.encoder.4.weight": {"_type": "histogram", "values": [1.0, 1.0, 0.0, 2.0, 1.0, 1.0, 1.0, 5.0, 7.0, 8.0, 15.0, 31.0, 42.0, 54.0, 69.0, 77.0, 123.0, 186.0, 304.0, 404.0, 588.0, 933.0, 1489.0, 2663.0, 4955.0, 8885.0, 16782.0, 43867.0, 25051.0, 10847.0, 5767.0, 3024.0, 1802.0, 1062.0, 678.0, 419.0, 248.0, 201.0, 126.0, 96.0, 57.0, 47.0, 35.0, 34.0, 16.0, 19.0, 13.0, 8.0, 5.0, 3.0, 6.0, 1.0, 2.0, 2.0, 1.0, 3.0, 1.0, 2.0, 0.0, 0.0, 0.0, 0.0, 0.0, 2.0], "bins": [-0.006462562829256058, -0.006229531951248646, -0.005996501073241234, -0.005763470660895109, -0.005530439782887697, -0.005297408904880285, -0.005064378492534161, -0.004831347614526749, -0.004598316736519337, -0.004365285858511925, -0.004132254980504513, -0.003899224568158388, -0.003666193690150976, -0.0034331628121435642, -0.003200132166966796, -0.0029671015217900276, -0.0027340706437826157, -0.0025010397657752037, -0.0022680091205984354, -0.002034978475421667, -0.0018019475974142551, -0.001568916835822165, -0.0013358860742300749, -0.0011028553126379848, -0.0008698245510458946, -0.0006367937894538045, -0.00040376302786171436, -0.00017073226626962423, 6.22984953224659e-05, 0.000295329256914556, 0.0005283600185066462, 0.0007613907800987363, 0.0009944215416908264, 0.0012274523032829165, 0.0014604830648750067, 0.0016935138264670968, 0.001926544588059187, 0.002159575466066599, 0.002392606111243367, 0.0026256367564201355, 0.0028586676344275475, 0.0030916985124349594, 0.0033247291576117277, 0.003557759802788496, 0.003790790680795908, 0.00402382155880332, 0.004256851971149445, 0.0044898828491568565, 0.0047229137271642685, 0.0049559446051716805, 0.005188975483179092, 0.005422005895525217, 0.005655036773532629, 0.005888067651540041, 0.006121098063886166, 0.006354128941893578, 0.0065871598199009895, 0.0068201906979084015, 0.0070532215759158134, 0.007286251988261938, 0.00751928286626935, 0.007752313744276762, 0.007985344156622887, 0.008218375034630299, 0.00845140591263771]}, "gradients/graph_2_encoder.encoder.1.weight": {"_type": "histogram", "values": [1.0, 0.0, 0.0, 1.0, 0.0, 0.0, 0.0, 1.0, 2.0, 1.0, 0.0, 7.0, 2.0, 3.0, 3.0, 6.0, 6.0, 8.0, 16.0, 16.0, 24.0, 26.0, 41.0, 63.0, 46.0, 55.0, 52.0, 36.0, 31.0, 10.0, 17.0, 11.0, 5.0, 3.0, 4.0, 3.0, 0.0, 3.0, 2.0, 0.0, 4.0, 0.0, 0.0, 1.0, 0.0, 0.0, 0.0, 0.0, 0.0, 0.0, 0.0, 1.0, 0.0, 0.0, 0.0, 0.0, 0.0, 0.0, 0.0, 0.0, 0.0, 0.0, 0.0, 1.0], "bins": [-0.00198375410400331, -0.0019030522089451551, -0.001822350313887, -0.001741648418828845, -0.00166094652377069, -0.001580244628712535, -0.0014995427336543798, -0.0014188408385962248, -0.0013381389435380697, -0.0012574370484799147, -0.0011767351534217596, -0.0010960332583636045, -0.0010153313633054495, -0.0009346294682472944, -0.0008539275149814785, -0.0007732256199233234, -0.0006925236666575074, -0.0006118217715993524, -0.0005311198765411973, -0.0004504179523792118, -0.0003697160573210567, -0.00028901416226290166, -0.00020831223810091615, -0.0001276103430427611, -4.690844798460603e-05, 3.3793454349506646e-05, 0.00011449535668361932, 0.0001951972662936896, 0.00027589916135184467, 0.00035660105640999973, 0.00043730298057198524, 0.0005180048756301403, 0.0005987067706882954, 0.0006794086657464504, 0.0007601105608046055, 0.0008408124558627605, 0.0009215143509209156, 0.0010022162459790707, 0.0010829181410372257, 0.0011636200360953808, 0.0012443219311535358, 0.001325023826211691, 0.001405725721269846, 0.001486427616328001, 0.001567129511386156, 0.0016478314064443111, 0.0017285333015024662, 0.0018092351965606213, 0.0018899372080340981, 0.001970639219507575, 0.00205134111456573, 0.002132043009623885, 0.00221274490468204, 0.0022934467997401953, 0.0023741486947983503, 0.0024548505898565054, 0.0025355524849146605, 0.0026162543799728155, 0.0026969562750309706, 0.0027776581700891256, 0.0028583600651472807, 0.0029390619602054358, 0.003019763855263591, 0.003100465750321746, 0.003181167645379901]}, "gradients/graph_2_encoder.encoder.1.bias": {"_type": "histogram", "values": [3.0, 1.0, 1.0, 3.0, 2.0, 6.0, 6.0, 2.0, 6.0, 4.0, 3.0, 6.0, 3.0, 5.0, 13.0, 8.0, 13.0, 14.0, 12.0, 8.0, 9.0, 13.0, 17.0, 18.0, 26.0, 21.0, 25.0, 18.0, 20.0, 18.0, 11.0, 20.0, 21.0, 25.0, 10.0, 14.0, 16.0, 12.0, 8.0, 20.0, 8.0, 12.0, 5.0, 1.0, 3.0, 5.0, 2.0, 3.0, 2.0, 3.0, 1.0, 0.0, 1.0, 1.0, 1.0, 0.0, 0.0, 0.0, 0.0, 1.0, 1.0, 0.0, 0.0, 1.0], "bins": [-0.0008327204268425703, -0.0008025846327655017, -0.0007724488386884332, -0.0007423131028190255, -0.000712177308741957, -0.0006820415146648884, -0.0006519057787954807, -0.0006217699847184122, -0.0005916341906413436, -0.000561498396564275, -0.0005313626024872065, -0.0005012268666177988, -0.00047109107254073024, -0.00044095527846366167, -0.00041081951349042356, -0.00038068374851718545, -0.0003505479544401169, -0.0003204121603630483, -0.0002902763953898102, -0.0002601406304165721, -0.00023000483633950353, -0.0001998690568143502, -0.00016973327728919685, -0.0001395974977640435, -0.00010946171823889017, -7.932593871373683e-05, -4.919015918858349e-05, -1.9054379663430154e-05, 1.1081399861723185e-05, 4.1217179386876523e-05, 7.135295891202986e-05, 0.0001014887384371832, 0.00013162451796233654, 0.00016176029748748988, 0.00019189607701264322, 0.00022203185653779656, 0.0002521676360629499, 0.00028230343014001846, 0.0003124391951132566, 0.0003425749600864947, 0.00037271075416356325, 0.0004028465482406318, 0.00043298231321386993, 0.00046311807818710804, 0.0004932538722641766, 0.0005233896663412452, 0.0005535254022106528, 0.0005836611962877214, 0.00061379699036479, 0.0006439327844418585, 0.0006740685785189271, 0.0007042043143883348, 0.0007343401084654033, 0.0007644759025424719, 0.0007946116384118795, 0.0008247474324889481, 0.0008548832265660167, 0.0008850190206430852, 0.0009151548147201538, 0.0009452905505895615, 0.00097542634466663, 0.0010055621387436986, 0.0010356978746131063, 0.0010658337268978357, 0.0010959694627672434]}, "gradients/graph_2_encoder.encoder.0.bias": {"_type": "histogram", "values": [1.0, 0.0, 0.0, 0.0, 0.0, 1.0, 0.0, 0.0, 0.0, 0.0, 1.0, 0.0, 0.0, 0.0, 0.0, 0.0, 1.0, 0.0, 1.0, 0.0, 2.0, 0.0, 1.0, 4.0, 2.0, 6.0, 4.0, 7.0, 14.0, 11.0, 19.0, 18.0, 28.0, 44.0, 38.0, 73.0, 56.0, 46.0, 38.0, 32.0, 16.0, 18.0, 8.0, 8.0, 2.0, 1.0, 3.0, 4.0, 1.0, 0.0, 0.0, 0.0, 1.0, 0.0, 1.0, 0.0, 0.0, 0.0, 0.0, 0.0, 0.0, 0.0, 0.0, 1.0], "bins": [-2.4971086531877518e-08, -2.4271685106214136e-08, -2.3572283680550754e-08, -2.2872882254887372e-08, -2.217348082922399e-08, -2.147407940356061e-08, -2.0774677977897227e-08, -2.0075276552233845e-08, -1.9375875126570463e-08, -1.867647370090708e-08, -1.79770722752437e-08, -1.7277670849580318e-08, -1.6578269423916936e-08, -1.5878867998253554e-08, -1.5179466572590172e-08, -1.448006514692679e-08, -1.3780663721263409e-08, -1.3081262295600027e-08, -1.2381860869936645e-08, -1.1682459444273263e-08, -1.0983058018609881e-08, -1.02836565929465e-08, -9.584255167283118e-09, -8.884853741619736e-09, -8.185452315956354e-09, -7.486050890292972e-09, -6.7866494646295905e-09, -6.087248038966209e-09, -5.387846613302827e-09, -4.688445187639445e-09, -3.989043761976063e-09, -3.2896423363126814e-09, -2.5902409106492996e-09, -1.890839484985918e-09, -1.191438059322536e-09, -4.920366336591542e-10, 2.0736479200422764e-10, 9.067662176676095e-10, 1.6061676433309913e-09, 2.305569068994373e-09, 3.004970494657755e-09, 3.7043719203211367e-09, 4.4037733459845185e-09, 5.1031747716479e-09, 5.802576197311282e-09, 6.501977622974664e-09, 7.201379048638046e-09, 7.900780474301428e-09, 8.60018189996481e-09, 9.299583325628191e-09, 9.998984751291573e-09, 1.0698386176954955e-08, 1.1397787602618337e-08, 1.2097189028281718e-08, 1.27965904539451e-08, 1.3495991879608482e-08, 1.4195393305271864e-08, 1.4894794730935246e-08, 1.5594196156598628e-08, 1.629359758226201e-08, 1.699299900792539e-08, 1.7692400433588773e-08, 1.8391801859252155e-08, 1.9091203284915537e-08, 1.979060471057892e-08]}, "gradients/graph_2_encoder.encoder.0.weight": {"_type": "histogram", "values": [1.0, 0.0, 0.0, 0.0, 0.0, 0.0, 0.0, 2.0, 1.0, 0.0, 2.0, 1.0, 1.0, 2.0, 3.0, 5.0, 6.0, 5.0, 13.0, 12.0, 28.0, 38.0, 78.0, 90.0, 137.0, 241.0, 415.0, 717.0, 1797.0, 5980.0, 28400.0, 209505.0, 165648.0, 25548.0, 5867.0, 2062.0, 830.0, 431.0, 224.0, 140.0, 85.0, 68.0, 51.0, 21.0, 18.0, 11.0, 8.0, 8.0, 3.0, 3.0, 2.0, 1.0, 0.0, 1.0, 0.0, 1.0, 0.0, 0.0, 0.0, 0.0, 0.0, 0.0, 0.0, 1.0], "bins": [-0.008690210059285164, -0.008418384939432144, -0.00814655888825655, -0.007874732837080956, -0.007602907717227936, -0.007331082131713629, -0.007059256546199322, -0.006787430960685015, -0.006515605375170708, -0.006243779789656401, -0.005971954204142094, -0.005700128618627787, -0.00542830303311348, -0.005156477447599173, -0.004884651862084866, -0.0046128262765705585, -0.0043410006910562515, -0.0040691751055419445, -0.0037973495200276375, -0.0035255239345133305, -0.0032536983489990234, -0.0029818727634847164, -0.0027100471779704094, -0.0024382215924561024, -0.0021663960069417953, -0.0018945704214274883, -0.0016227448359131813, -0.0013509192503988743, -0.0010790936648845673, -0.0008072680793702602, -0.0005354424938559532, -0.0002636169083416462, 8.208677172660828e-06, 0.00028003426268696785, 0.0005518598482012749, 0.0008236854337155819, 0.001095511019229889, 0.001367336604744196, 0.001639162190258503, 0.00191098777577281, 0.002182813361287117, 0.002454638946801424, 0.002726464532315731, 0.002998290117830038, 0.003270115703344345, 0.003541941288858652, 0.003813766874372959, 0.004085592459887266, 0.004357418045401573, 0.00462924363091588, 0.004901069216430187, 0.005172894801944494, 0.005444720387458801, 0.005716545972973108, 0.005988371558487415, 0.006260197144001722, 0.006532022729516029, 0.006803848315030336, 0.007075673900544643, 0.00734749948605895, 0.0076193250715732574, 0.007891150191426277, 0.008162976242601871, 0.008434802293777466, 0.008706627413630486]}, "_wandb": {"runtime": 657}}