{"train_loss": 0.6813632845878601, "train_ssl_loss": 0.6317517161369324, "train_tsk_loss": 0.04961158335208893, "test_loss": 0.49670207500457764, "test_ssl_loss": 0.43902987241744995, "test_tsk_loss": 0.05767219513654709, "_timestamp": 1697565587.7208142, "_runtime": 223.98785829544067, "_step": 99, "gradients/graph_2taskmapper.out.bias": {"_type": "histogram", "values": [0.0, 0.0, 0.0, 0.0, 0.0, 0.0, 0.0, 0.0, 0.0, 0.0, 0.0, 0.0, 0.0, 0.0, 0.0, 0.0, 0.0, 0.0, 0.0, 0.0, 0.0, 0.0, 0.0, 0.0, 0.0, 0.0, 0.0, 0.0, 0.0, 0.0, 0.0, 0.0, 1.0, 0.0, 0.0, 0.0, 0.0, 0.0, 0.0, 0.0, 0.0, 0.0, 0.0, 0.0, 0.0, 0.0, 0.0, 0.0, 0.0, 0.0, 0.0, 0.0, 0.0, 0.0, 0.0, 0.0, 0.0, 0.0, 0.0, 0.0, 0.0, 0.0, 0.0, 0.0], "bins": [-0.4062792658805847, -0.4062792658805847, -0.4062792658805847, -0.4062792658805847, -0.4062792658805847, -0.4062792658805847, -0.4062792658805847, -0.4062792658805847, -0.4062792658805847, -0.4062792658805847, -0.4062792658805847, -0.4062792658805847, -0.4062792658805847, -0.4062792658805847, -0.4062792658805847, -0.4062792658805847, -0.4062792658805847, -0.4062792658805847, -0.4062792658805847, -0.4062792658805847, -0.4062792658805847, -0.4062792658805847, -0.4062792658805847, -0.4062792658805847, -0.4062792658805847, -0.4062792658805847, -0.4062792658805847, -0.4062792658805847, -0.4062792658805847, -0.4062792658805847, -0.4062792658805847, -0.4062792658805847, -0.4062792658805847, -0.4062792658805847, -0.4062792658805847, -0.4062792658805847, -0.4062792658805847, -0.4062792658805847, -0.4062792658805847, -0.4062792658805847, -0.4062792658805847, -0.4062792658805847, -0.4062792658805847, -0.4062792658805847, -0.4062792658805847, -0.4062792658805847, -0.4062792658805847, -0.4062792658805847, -0.4062792658805847, -0.4062792658805847, -0.4062792658805847, -0.4062792658805847, -0.4062792658805847, -0.4062792658805847, -0.4062792658805847, -0.4062792658805847, -0.4062792658805847, -0.4062792658805847, -0.4062792658805847, -0.4062792658805847, -0.4062792658805847, -0.4062792658805847, -0.4062792658805847, -0.4062792658805847, -0.4062792658805847]}, "gradients/graph_2taskmapper.out.weight": {"_type": "histogram", "values": [1.0, 1.0, 0.0, 0.0, 1.0, 0.0, 0.0, 0.0, 0.0, 0.0, 0.0, 0.0, 0.0, 0.0, 0.0, 0.0, 0.0, 0.0, 0.0, 0.0, 0.0, 0.0, 0.0, 0.0, 0.0, 0.0, 0.0, 1.0, 1.0, 0.0, 0.0, 0.0, 0.0, 0.0, 0.0, 0.0, 0.0, 0.0, 0.0, 0.0, 0.0, 0.0, 0.0, 0.0, 0.0, 1.0, 0.0, 0.0, 0.0, 0.0, 0.0, 0.0, 0.0, 0.0, 0.0, 0.0, 0.0, 0.0, 0.0, 0.0, 0.0, 0.0, 2.0, 8.0], "bins": [-0.1184932291507721, -0.11664177477359772, -0.11479031294584274, -0.11293885856866837, -0.11108740419149399, -0.10923594236373901, -0.10738448798656464, -0.10553303360939026, -0.10368157923221588, -0.1018301248550415, -0.09997866302728653, -0.09812720865011215, -0.09627575427293777, -0.0944242924451828, -0.09257283806800842, -0.09072138369083405, -0.08886992186307907, -0.0870184674859047, -0.08516700565814972, -0.08331555128097534, -0.08146409690380096, -0.07961264252662659, -0.07776118069887161, -0.07590972632169724, -0.07405826449394226, -0.07220681011676788, -0.07035534828901291, -0.06850389391183853, -0.06665243953466415, -0.06480097770690918, -0.0629495233297348, -0.061098068952560425, -0.05924661457538605, -0.05739515647292137, -0.055543702095746994, -0.05369224399328232, -0.05184078961610794, -0.049989331513643265, -0.04813787341117859, -0.04628641903400421, -0.044434960931539536, -0.04258350282907486, -0.04073204845190048, -0.038880590349435806, -0.03702913224697113, -0.03517767786979675, -0.03332621976733208, -0.0314747616648674, -0.029623307287693024, -0.027771851047873497, -0.02592039480805397, -0.024068936705589294, -0.022217480465769768, -0.02036602422595024, -0.018514566123485565, -0.01666310988366604, -0.014811653643846512, -0.012960197404026985, -0.011108740232884884, -0.009257283061742783, -0.007405826821923256, -0.005554370582103729, -0.003702913410961628, -0.0018514562398195267, 0.0]}, "gradients/graph_2taskmapper.lins.1.bias": {"_type": "histogram", "values": [1.0, 0.0, 0.0, 1.0, 0.0, 0.0, 0.0, 0.0, 1.0, 0.0, 0.0, 0.0, 0.0, 0.0, 0.0, 0.0, 0.0, 0.0, 0.0, 0.0, 0.0, 0.0, 0.0, 0.0, 0.0, 1.0, 0.0, 0.0, 0.0, 0.0, 1.0, 0.0, 0.0, 0.0, 0.0, 0.0, 5.0, 2.0, 1.0, 1.0, 0.0, 0.0, 0.0, 0.0, 1.0, 0.0, 0.0, 0.0, 0.0, 0.0, 0.0, 0.0, 0.0, 0.0, 0.0, 0.0, 0.0, 0.0, 0.0, 0.0, 0.0, 0.0, 0.0, 1.0], "bins": [-0.1036759540438652, -0.10082144290208817, -0.09796693176031113, -0.09511242061853409, -0.09225791692733765, -0.08940340578556061, -0.08654889464378357, -0.08369438350200653, -0.08083987236022949, -0.07798536121845245, -0.07513085007667542, -0.07227633893489838, -0.06942182779312134, -0.0665673241019249, -0.06371281296014786, -0.06085830181837082, -0.05800379067659378, -0.05514927953481674, -0.0522947683930397, -0.04944026097655296, -0.046585749834775925, -0.043731238692998886, -0.040876731276512146, -0.03802222013473511, -0.03516770899295807, -0.03231319785118103, -0.02945868857204914, -0.02660417929291725, -0.023749668151140213, -0.020895157009363174, -0.018040647730231285, -0.015186138451099396, -0.01233161985874176, -0.009477109648287296, -0.006622599437832832, -0.0037680892273783684, -0.0009135790169239044, 0.0019409311935305595, 0.0047954414039850235, 0.007649950683116913, 0.010504461824893951, 0.013358972035348415, 0.01621348224580288, 0.01906799152493477, 0.021922502666711807, 0.024777013808488846, 0.027631523087620735, 0.030486032366752625, 0.03334054350852966, 0.0361950546503067, 0.03904956579208374, 0.04190407320857048, 0.04475858435034752, 0.04761309549212456, 0.0504676029086113, 0.053322114050388336, 0.056176625192165375, 0.05903113633394241, 0.06188564747571945, 0.06474015861749649, 0.06759466230869293, 0.07044917345046997, 0.07330368459224701, 0.07615819573402405, 0.07901270687580109]}, "gradients/graph_2taskmapper.lins.1.weight": {"_type": "histogram", "values": [1.0, 0.0, 0.0, 1.0, 0.0, 0.0, 0.0, 0.0, 1.0, 0.0, 0.0, 1.0, 0.0, 1.0, 2.0, 1.0, 2.0, 3.0, 0.0, 5.0, 3.0, 0.0, 1.0, 2.0, 0.0, 2.0, 1.0, 2.0, 5.0, 2.0, 4.0, 8.0, 11.0, 11.0, 15.0, 21.0, 215.0, 29.0, 8.0, 5.0, 6.0, 3.0, 2.0, 1.0, 1.0, 0.0, 0.0, 0.0, 0.0, 2.0, 1.0, 1.0, 1.0, 1.0, 0.0, 1.0, 0.0, 0.0, 0.0, 0.0, 0.0, 0.0, 0.0, 1.0], "bins": [-0.03344393149018288, -0.03252336382865906, -0.03160279616713524, -0.03068222850561142, -0.0297616608440876, -0.028841093182563782, -0.027920525521039963, -0.026999957859516144, -0.026079390197992325, -0.025158822536468506, -0.024238254874944687, -0.023317687213420868, -0.02239711955189705, -0.02147655189037323, -0.02055598422884941, -0.019635416567325592, -0.018714848905801773, -0.017794281244277954, -0.016873713582754135, -0.015953145921230316, -0.015032578259706497, -0.014112010598182678, -0.01319144293665886, -0.01227087527513504, -0.01135030947625637, -0.010429741814732552, -0.009509174153208733, -0.008588606491684914, -0.007668038830161095, -0.006747471634298563, -0.005826903972774744, -0.004906336311250925, -0.003985768184065819, -0.003065200522542, -0.002144632861018181, -0.0012240654323250055, -0.00030349777080118656, 0.0006170696578919888, 0.0015376373194158077, 0.0024582049809396267, 0.0033787726424634457, 0.004299340303987265, 0.005219907965511084, 0.006140475161373615, 0.007061042822897434, 0.007981610484421253, 0.008902178145945072, 0.009822745807468891, 0.01074331346899271, 0.011663881130516529, 0.012584448792040348, 0.013505016453564167, 0.014425584115087986, 0.01534615084528923, 0.01626671850681305, 0.01718728616833687, 0.018107853829860687, 0.019028421491384506, 0.019948989152908325, 0.020869556814432144, 0.021790124475955963, 0.022710692137479782, 0.0236312597990036, 0.02455182746052742, 0.02547239512205124]}, "gradients/graph_2taskmapper.lins.0.bias": {"_type": "histogram", "values": [1.0, 0.0, 0.0, 1.0, 0.0, 0.0, 0.0, 0.0, 0.0, 0.0, 0.0, 0.0, 0.0, 0.0, 0.0, 0.0, 0.0, 0.0, 0.0, 0.0, 0.0, 0.0, 2.0, 1.0, 0.0, 0.0, 0.0, 1.0, 2.0, 0.0, 1.0, 0.0, 0.0, 0.0, 0.0, 1.0, 0.0, 3.0, 4.0, 1.0, 2.0, 0.0, 1.0, 0.0, 0.0, 1.0, 0.0, 0.0, 0.0, 0.0, 0.0, 0.0, 0.0, 0.0, 1.0, 0.0, 0.0, 0.0, 0.0, 0.0, 0.0, 0.0, 0.0, 1.0], "bins": [-0.053755562752485275, -0.052382681518793106, -0.05100979655981064, -0.04963691532611847, -0.0482640340924263, -0.04689115285873413, -0.04551827162504196, -0.044145386666059494, -0.042772505432367325, -0.041399624198675156, -0.04002673923969269, -0.03865385800600052, -0.03728097677230835, -0.03590809553861618, -0.03453521430492401, -0.033162329345941544, -0.031789448112249374, -0.030416566878557205, -0.029043683782219887, -0.02767080068588257, -0.0262979194521904, -0.02492503821849823, -0.02355215512216091, -0.022179272025823593, -0.020806390792131424, -0.019433509558439255, -0.018060626462101936, -0.016687743365764618, -0.015314862132072449, -0.013941979967057705, -0.012569097802042961, -0.011196215637028217, -0.009823333472013474, -0.00845045130699873, -0.007077569141983986, -0.005704686976969242, -0.004331804811954498, -0.0029589226469397545, -0.0015860404819250107, -0.00021315831691026688, 0.001159723848104477, 0.0025326060131192207, 0.0039054881781339645, 0.005278370343148708, 0.006651252508163452, 0.008024134673178196, 0.00939701683819294, 0.010769899003207684, 0.012142781168222427, 0.013515663333237171, 0.014888545498251915, 0.016261428594589233, 0.017634309828281403, 0.019007191061973572, 0.02038007415831089, 0.02175295725464821, 0.023125838488340378, 0.024498719722032547, 0.025871602818369865, 0.027244485914707184, 0.028617367148399353, 0.029990248382091522, 0.03136312961578369, 0.03273601457476616, 0.03410889580845833]}, "gradients/graph_2taskmapper.lins.0.weight": {"_type": "histogram", "values": [1.0, 2.0, 1.0, 1.0, 0.0, 1.0, 2.0, 1.0, 1.0, 2.0, 2.0, 3.0, 3.0, 2.0, 3.0, 1.0, 4.0, 1.0, 2.0, 8.0, 9.0, 9.0, 8.0, 14.0, 22.0, 28.0, 23.0, 59.0, 215.0, 128.0, 40.0, 34.0, 18.0, 16.0, 15.0, 13.0, 13.0, 5.0, 4.0, 10.0, 6.0, 5.0, 5.0, 3.0, 4.0, 2.0, 2.0, 2.0, 0.0, 1.0, 2.0, 1.0, 2.0, 0.0, 2.0, 1.0, 0.0, 0.0, 0.0, 1.0, 1.0, 1.0, 0.0, 3.0], "bins": [-0.005842795595526695, -0.005640134681016207, -0.005437473766505718, -0.005234812386333942, -0.005032151471823454, -0.004829490557312965, -0.004626829642802477, -0.004424168728291988, -0.0042215073481202126, -0.004018846433609724, -0.003816185286268592, -0.0036135243717581034, -0.003410863224416971, -0.0032082023099064827, -0.003005541395395994, -0.002802880248054862, -0.0026002193335443735, -0.002397558419033885, -0.002194897271692753, -0.0019922363571822643, -0.0017895752098411322, -0.0015869142953306437, -0.0013842532644048333, -0.001181592233479023, -0.0009789312025532126, -0.0007762701716274023, -0.000573609140701592, -0.00037094816798344254, -0.0001682871370576322, 3.4373835660517216e-05, 0.00023703486658632755, 0.0004396958975121379, 0.0006423569284379482, 0.0008450179593637586, 0.001047678990289569, 0.0012503399048000574, 0.0014530010521411896, 0.001655661966651678, 0.0018583229975774884, 0.0020609840285032988, 0.002263645175844431, 0.0024663060903549194, 0.0026689672376960516, 0.00287162815220654, 0.0030742892995476723, 0.0032769502140581608, 0.0034796111285686493, 0.0036822722759097815, 0.00388493319042027, 0.004087594337761402, 0.004290255252271891, 0.004492916166782379, 0.004695577081292868, 0.004898237995803356, 0.005100899375975132, 0.0053035602904856205, 0.005506221204996109, 0.0057088821195065975, 0.005911543034017086, 0.006114204414188862, 0.00631686532869935, 0.006519526243209839, 0.006722187157720327, 0.006924848072230816, 0.007127509452402592]}, "gradients/graph_2_projector.0.bias": {"_type": "histogram", "values": [1.0, 0.0, 2.0, 0.0, 0.0, 1.0, 0.0, 0.0, 0.0, 2.0, 0.0, 0.0, 0.0, 0.0, 0.0, 0.0, 1.0, 0.0, 1.0, 1.0, 1.0, 2.0, 1.0, 1.0, 0.0, 0.0, 1.0, 1.0, 0.0, 2.0, 2.0, 1.0, 0.0, 3.0, 0.0, 0.0, 0.0, 0.0, 0.0, 0.0, 0.0, 1.0, 2.0, 1.0, 0.0, 1.0, 0.0, 0.0, 0.0, 1.0, 1.0, 0.0, 0.0, 0.0, 0.0, 0.0, 0.0, 0.0, 0.0, 0.0, 0.0, 0.0, 0.0, 1.0], "bins": [-0.06707706302404404, -0.06460817903280258, -0.06213929131627083, -0.05967040732502937, -0.05720152333378792, -0.054732635617256165, -0.05226375162601471, -0.049794867634773254, -0.0473259836435318, -0.044857099652290344, -0.04238821193575859, -0.039919327944517136, -0.03745044395327568, -0.03498155623674393, -0.03251267224550247, -0.030043788254261017, -0.027574900537729263, -0.02510601468384266, -0.022637130692601204, -0.0201682448387146, -0.017699360847473145, -0.01523047499358654, -0.012761589139699936, -0.01029270514845848, -0.007823819294571877, -0.005354934372007847, -0.00288604898378253, -0.00041716359555721283, 0.002051721327006817, 0.0045206062495708466, 0.006989492103457451, 0.009458376094698906, 0.01192726194858551, 0.01439614687114954, 0.01686503179371357, 0.019333917647600174, 0.02180280163884163, 0.024271687492728233, 0.026740573346614838, 0.029209457337856293, 0.03167834132909775, 0.0341472253203392, 0.036616113036870956, 0.03908499702811241, 0.04155388101935387, 0.04402276873588562, 0.046491652727127075, 0.04896053671836853, 0.051429424434900284, 0.05389830842614174, 0.05636719614267349, 0.05883608013391495, 0.0613049641251564, 0.06377384811639786, 0.06624273955821991, 0.06871162354946136, 0.07118050754070282, 0.07364939153194427, 0.07611827552318573, 0.07858715951442719, 0.08105605095624924, 0.08352493494749069, 0.08599381893873215, 0.0884627029299736, 0.09093158692121506]}, "gradients/graph_2_projector.0.weight": {"_type": "histogram", "values": [1.0, 0.0, 0.0, 0.0, 0.0, 1.0, 1.0, 2.0, 1.0, 1.0, 2.0, 1.0, 7.0, 5.0, 17.0, 19.0, 22.0, 20.0, 37.0, 64.0, 58.0, 85.0, 98.0, 124.0, 161.0, 175.0, 209.0, 251.0, 262.0, 319.0, 385.0, 384.0, 411.0, 428.0, 426.0, 422.0, 447.0, 430.0, 386.0, 366.0, 351.0, 286.0, 277.0, 229.0, 201.0, 165.0, 137.0, 110.0, 95.0, 81.0, 55.0, 45.0, 23.0, 29.0, 16.0, 18.0, 11.0, 8.0, 5.0, 4.0, 6.0, 6.0, 4.0, 2.0], "bins": [-0.09103810787200928, -0.08845584839582443, -0.08587358891963959, -0.08329132944345474, -0.0807090699672699, -0.07812681049108505, -0.07554455101490021, -0.07296229153871536, -0.07038003206253052, -0.06779777258634567, -0.06521551311016083, -0.06263325363397598, -0.06005099415779114, -0.05746873468160629, -0.05488647520542145, -0.0523042157292366, -0.04972195625305176, -0.04713969677686691, -0.04455743730068207, -0.04197517782449722, -0.03939291834831238, -0.03681065887212753, -0.03422839939594269, -0.03164613991975784, -0.029063880443572998, -0.026481620967388153, -0.023899361491203308, -0.021317102015018463, -0.018734842538833618, -0.016152583062648773, -0.013570323586463928, -0.010988064110279083, -0.008405797183513641, -0.005823537707328796, -0.0032412782311439514, -0.0006590187549591064, 0.0019232407212257385, 0.0045055001974105835, 0.0070877596735954285, 0.009670019149780273, 0.012252278625965118, 0.014834538102149963, 0.01741679757833481, 0.019999057054519653, 0.0225813165307045, 0.025163576006889343, 0.027745835483074188, 0.030328094959259033, 0.03291035443544388, 0.03549261391162872, 0.03807487338781357, 0.04065713286399841, 0.04323939234018326, 0.0458216518163681, 0.04840391129255295, 0.05098617076873779, 0.05356843024492264, 0.05615068972110748, 0.05873294919729233, 0.06131520867347717, 0.06389746814966202, 0.06647972762584686, 0.06906198710203171, 0.07164424657821655, 0.0742265060544014]}, "gradients/graph_2_encoder.encoder.8.bias": {"_type": "histogram", "values": [2.0, 0.0, 0.0, 0.0, 1.0, 0.0, 0.0, 2.0, 0.0, 2.0, 4.0, 1.0, 2.0, 4.0, 0.0, 9.0, 5.0, 8.0, 5.0, 7.0, 10.0, 5.0, 5.0, 7.0, 13.0, 12.0, 4.0, 8.0, 12.0, 8.0, 5.0, 9.0, 4.0, 10.0, 12.0, 8.0, 5.0, 7.0, 4.0, 6.0, 6.0, 6.0, 4.0, 2.0, 1.0, 4.0, 4.0, 3.0, 3.0, 1.0, 2.0, 2.0, 3.0, 2.0, 3.0, 1.0, 0.0, 0.0, 1.0, 0.0, 0.0, 1.0, 0.0, 1.0], "bins": [-0.025536425411701202, -0.024709323421120644, -0.023882221430540085, -0.023055117577314377, -0.022228015586733818, -0.02140091359615326, -0.0205738116055727, -0.01974670961499214, -0.018919605761766434, -0.018092503771185875, -0.017265401780605316, -0.016438297927379608, -0.01561119593679905, -0.01478409394621849, -0.013956991955637932, -0.013129889965057373, -0.012302787974476814, -0.011475685983896255, -0.010648583061993122, -0.009821481071412563, -0.00899437814950943, -0.008167276158928871, -0.007340174168348312, -0.006513071712106466, -0.00568596925586462, -0.004858866799622774, -0.004031764343380928, -0.0032046623528003693, -0.002377559896558523, -0.001550457440316677, -0.0007233554497361183, 0.00010374700650572777, 0.0009308476001024246, 0.0017579499399289489, 0.002585052279755473, 0.0034121545031666756, 0.004239256959408522, 0.005066359415650368, 0.0058934614062309265, 0.006720563862472773, 0.007547666318714619, 0.008374768309295177, 0.00920187123119831, 0.01002897322177887, 0.010856075212359428, 0.011683178134262562, 0.01251028012484312, 0.013337383046746254, 0.014164485037326813, 0.014991587027907372, 0.01581868901848793, 0.01664579287171364, 0.017472894862294197, 0.018299996852874756, 0.019127098843455315, 0.019954200834035873, 0.02078130468726158, 0.02160840667784214, 0.0224355086684227, 0.023262612521648407, 0.024089714512228966, 0.024916816502809525, 0.025743918493390083, 0.026571020483970642, 0.0273981224745512]}, "gradients/graph_2_encoder.encoder.8.weight": {"_type": "histogram", "values": [1.0, 1.0, 3.0, 6.0, 7.0, 8.0, 10.0, 17.0, 33.0, 43.0, 28.0, 65.0, 89.0, 115.0, 177.0, 218.0, 308.0, 405.0, 484.0, 666.0, 867.0, 1040.0, 1287.0, 1575.0, 2029.0, 2279.0, 2764.0, 3196.0, 3384.0, 3616.0, 3930.0, 4012.0, 4061.0, 3915.0, 3731.0, 3315.0, 3059.0, 2751.0, 2383.0, 2039.0, 1645.0, 1319.0, 1074.0, 840.0, 700.0, 510.0, 429.0, 302.0, 220.0, 170.0, 111.0, 81.0, 56.0, 61.0, 29.0, 26.0, 16.0, 8.0, 9.0, 8.0, 2.0, 2.0, 0.0, 1.0], "bins": [-0.035173557698726654, -0.03408420830965042, -0.03299486264586449, -0.031905513256788254, -0.03081616386771202, -0.029726816341280937, -0.028637468814849854, -0.02754811942577362, -0.026458771899342537, -0.025369424372911453, -0.02428007498383522, -0.023190727457404137, -0.022101379930973053, -0.02101203054189682, -0.019922683015465736, -0.018833335489034653, -0.01774398609995842, -0.016654638573527336, -0.015565289184451103, -0.01447594165802002, -0.013386593200266361, -0.012297244742512703, -0.01120789721608162, -0.010118548758327961, -0.009029200300574303, -0.007939851842820644, -0.006850503850728273, -0.005761155858635902, -0.004671807400882244, -0.003582458943128586, -0.002493110951036215, -0.0014037629589438438, -0.00031441450119018555, 0.0007749337237328291, 0.0018642819486558437, 0.0029536301735788584, 0.004042978398501873, 0.005132326856255531, 0.006221674848347902, 0.007311022840440273, 0.008400371298193932, 0.00948971975594759, 0.010579068213701248, 0.011668415740132332, 0.01275776419788599, 0.013847112655639648, 0.014936460182070732, 0.016025807708501816, 0.01711515709757805, 0.018204504624009132, 0.019293854013085365, 0.02038320153951645, 0.021472550928592682, 0.022561898455023766, 0.02365124598145485, 0.024740595370531082, 0.025829942896962166, 0.02691929042339325, 0.028008639812469482, 0.029097987338900566, 0.03018733486533165, 0.03127668425440788, 0.032366033643484116, 0.03345537930727005, 0.03454472869634628]}, "gradients/graph_2_encoder.encoder.5.weight": {"_type": "histogram", "values": [1.0, 0.0, 0.0, 0.0, 1.0, 0.0, 0.0, 0.0, 2.0, 0.0, 0.0, 2.0, 0.0, 2.0, 4.0, 7.0, 5.0, 4.0, 3.0, 8.0, 5.0, 7.0, 14.0, 7.0, 9.0, 10.0, 7.0, 16.0, 12.0, 8.0, 9.0, 8.0, 9.0, 5.0, 6.0, 9.0, 7.0, 6.0, 13.0, 6.0, 1.0, 4.0, 11.0, 5.0, 3.0, 2.0, 1.0, 3.0, 1.0, 1.0, 2.0, 1.0, 1.0, 2.0, 0.0, 1.0, 2.0, 1.0, 0.0, 0.0, 0.0, 0.0, 0.0, 2.0], "bins": [-0.014061897993087769, -0.013600805774331093, -0.013139714486896992, -0.012678622268140316, -0.012217530980706215, -0.01175643876194954, -0.011295346543192863, -0.010834254324436188, -0.010373163037002087, -0.009912070818245411, -0.00945097953081131, -0.008989887312054634, -0.008528795093297958, -0.008067703805863857, -0.0076066115871071815, -0.007145519834011793, -0.006684428080916405, -0.006223336327821016, -0.005762244574725628, -0.005301152355968952, -0.004840060602873564, -0.004378968849778175, -0.0039178766310215, -0.0034567848779261112, -0.002995693124830723, -0.0025346013717353344, -0.0020735093858093023, -0.001612417516298592, -0.0011513256467878819, -0.0006902338936924934, -0.00022914190776646137, 0.0002319500781595707, 0.0006930418312549591, 0.0011541337007656693, 0.0016152255702763796, 0.0020763175562024117, 0.0025374093092978, 0.0029985010623931885, 0.0034595930483192205, 0.003920685034245253, 0.004381776787340641, 0.0048428685404360294, 0.005303960293531418, 0.005765052512288094, 0.006226144265383482, 0.00668723601847887, 0.007148328237235546, 0.0076094199903309345, 0.008070511743426323, 0.008531603962182999, 0.0089926952496171, 0.009453787468373775, 0.009914878755807877, 0.010375970974564552, 0.010837063193321228, 0.011298155412077904, 0.011759246699512005, 0.01222033891826868, 0.012681430205702782, 0.013142522424459457, 0.013603614643216133, 0.014064705930650234, 0.01452579814940691, 0.014986889436841011, 0.015447981655597687]}, "gradients/graph_2_encoder.encoder.5.bias": {"_type": "histogram", "values": [1.0, 0.0, 0.0, 0.0, 0.0, 0.0, 2.0, 1.0, 2.0, 0.0, 1.0, 4.0, 2.0, 6.0, 10.0, 4.0, 9.0, 3.0, 9.0, 12.0, 7.0, 6.0, 7.0, 10.0, 9.0, 11.0, 11.0, 16.0, 10.0, 11.0, 10.0, 13.0, 7.0, 7.0, 7.0, 6.0, 7.0, 4.0, 7.0, 7.0, 4.0, 3.0, 0.0, 1.0, 0.0, 1.0, 1.0, 2.0, 0.0, 0.0, 1.0, 2.0, 0.0, 1.0, 0.0, 0.0, 0.0, 0.0, 0.0, 0.0, 0.0, 0.0, 0.0, 1.0], "bins": [-0.01593562215566635, -0.015361197292804718, -0.01478677336126566, -0.014212348498404026, -0.013637924566864967, -0.013063499704003334, -0.0124890748411417, -0.011914649978280067, -0.011340226046741009, -0.010765801183879375, -0.010191377252340317, -0.009616952389478683, -0.00904252752661705, -0.008468103595077991, -0.007893678732216358, -0.007319254335016012, -0.006744829937815666, -0.00617040554061532, -0.005595981143414974, -0.005021556280553341, -0.004447131883352995, -0.003872707486152649, -0.0032982828561216593, -0.0027238582260906696, -0.0021494338288903236, -0.0015750093152746558, -0.001000584801658988, -0.0004261602880433202, 0.00014826422557234764, 0.0007226886227726936, 0.0012971132528036833, 0.001871537882834673, 0.0024459604173898697, 0.0030203848145902157, 0.0035948094446212053, 0.004169234074652195, 0.004743658471852541, 0.005318082869052887, 0.00589250773191452, 0.006466932129114866, 0.007041356526315212, 0.007615780923515558, 0.008190205320715904, 0.008764630183577538, 0.00933905504643917, 0.00991347897797823, 0.010487903840839863, 0.011062327772378922, 0.011636752635240555, 0.012211177498102188, 0.012785601429641247, 0.01336002629250288, 0.013934450224041939, 0.014508875086903572, 0.015083299949765205, 0.01565772481262684, 0.016232147812843323, 0.016806572675704956, 0.01738099753856659, 0.017955420538783073, 0.018529845401644707, 0.01910427026450634, 0.019678695127367973, 0.020253119990229607, 0.02082754485309124]}, "gradients/graph_2_encoder.encoder.4.bias": {"_type": "histogram", "values": [1.0, 0.0, 0.0, 0.0, 0.0, 1.0, 0.0, 1.0, 0.0, 0.0, 1.0, 1.0, 3.0, 1.0, 2.0, 2.0, 3.0, 2.0, 5.0, 3.0, 3.0, 4.0, 5.0, 4.0, 11.0, 17.0, 7.0, 12.0, 9.0, 8.0, 11.0, 17.0, 10.0, 11.0, 11.0, 13.0, 6.0, 6.0, 15.0, 6.0, 6.0, 4.0, 8.0, 1.0, 2.0, 2.0, 1.0, 2.0, 1.0, 2.0, 5.0, 3.0, 3.0, 0.0, 1.0, 1.0, 0.0, 0.0, 1.0, 0.0, 0.0, 0.0, 0.0, 1.0], "bins": [-7.916241884231567e-09, -7.66522134654224e-09, -7.414200808852911e-09, -7.163180271163583e-09, -6.912159733474255e-09, -6.6611391957849264e-09, -6.410118658095598e-09, -6.15909812040627e-09, -5.908077582716942e-09, -5.657057045027614e-09, -5.4060365073382854e-09, -5.155015969648957e-09, -4.903995431959629e-09, -4.652974894270301e-09, -4.401954356580973e-09, -4.1509338188916445e-09, -3.899913281202316e-09, -3.648892743512988e-09, -3.39787220582366e-09, -3.1468516681343317e-09, -2.8958311304450035e-09, -2.6448105927556753e-09, -2.393790055066347e-09, -2.142769517377019e-09, -1.8917489796876907e-09, -1.6407284419983625e-09, -1.3897079043090343e-09, -1.1386873666197062e-09, -8.87666828930378e-10, -6.366462912410498e-10, -3.8562575355172157e-10, -1.3460521586239338e-10, 1.1641532182693481e-10, 3.67435859516263e-10, 6.184563972055912e-10, 8.694769348949194e-10, 1.1204974725842476e-09, 1.3715180102735758e-09, 1.622538547962904e-09, 1.873559085652232e-09, 2.1245796233415604e-09, 2.3756001610308886e-09, 2.6266206987202168e-09, 2.877641236409545e-09, 3.128661774098873e-09, 3.3796823117882013e-09, 3.6307028494775295e-09, 3.881723387166858e-09, 4.132743924856186e-09, 4.383764462545514e-09, 4.634785000234842e-09, 4.8858055379241705e-09, 5.136826075613499e-09, 5.387846613302827e-09, 5.638867150992155e-09, 5.889887688681483e-09, 6.1409082263708115e-09, 6.39192876406014e-09, 6.642949301749468e-09, 6.893969839438796e-09, 7.144990377128124e-09, 7.3960109148174524e-09, 7.64703145250678e-09, 7.898051990196109e-09, 8.149072527885437e-09]}, "gradients/graph_2_encoder.encoder.4.weight": {"_type": "histogram", "values": [2.0, 3.0, 3.0, 2.0, 3.0, 5.0, 5.0, 5.0, 15.0, 15.0, 21.0, 28.0, 45.0, 63.0, 71.0, 114.0, 155.0, 243.0, 325.0, 406.0, 602.0, 773.0, 921.0, 1172.0, 1464.0, 1899.0, 2366.0, 2871.0, 3238.0, 3735.0, 4149.0, 4349.0, 4519.0, 4590.0, 4333.0, 3925.0, 3597.0, 3200.0, 2698.0, 2256.0, 1755.0, 1388.0, 1088.0, 841.0, 628.0, 446.0, 352.0, 243.0, 184.0, 115.0, 82.0, 73.0, 40.0, 36.0, 24.0, 10.0, 13.0, 8.0, 12.0, 4.0, 3.0, 3.0, 1.0, 1.0], "bins": [-0.047567155212163925, -0.04611743986606598, -0.04466772824525833, -0.043218012899160385, -0.04176829755306244, -0.04031858593225479, -0.038868870586156845, -0.0374191552400589, -0.03596944361925125, -0.034519728273153305, -0.03307001665234566, -0.03162030130624771, -0.030170585960149765, -0.028720872476696968, -0.02727115899324417, -0.025821443647146225, -0.02437172830104828, -0.022922014817595482, -0.021472299471497536, -0.02002258598804474, -0.018572870641946793, -0.017123157158493996, -0.0156734436750412, -0.014223729260265827, -0.012774014845490456, -0.011324300430715084, -0.009874586015939713, -0.008424872532486916, -0.006975158117711544, -0.0055254437029361725, -0.0040757302194833755, -0.002626015804708004, -0.001176297664642334, 0.0002734165173023939, 0.0017231306992471218, 0.003172844648361206, 0.004622559063136578, 0.006072273477911949, 0.007521986961364746, 0.008971701376140118, 0.01042141579091549, 0.01187113020569086, 0.013320844620466232, 0.01477055810391903, 0.016220271587371826, 0.017669986933469772, 0.01911970041692257, 0.020569413900375366, 0.022019129246473312, 0.02346884272992611, 0.024918558076024055, 0.026368271559476852, 0.0278179869055748, 0.029267700389027596, 0.030717413872480392, 0.03216712921857834, 0.033616840839385986, 0.03506655618548393, 0.03651626780629158, 0.037965983152389526, 0.03941569849848747, 0.04086541384458542, 0.042315125465393066, 0.04376484081149101, 0.04521455615758896]}, "gradients/graph_2_encoder.encoder.1.weight": {"_type": "histogram", "values": [1.0, 0.0, 2.0, 2.0, 2.0, 1.0, 0.0, 5.0, 3.0, 4.0, 1.0, 3.0, 1.0, 2.0, 4.0, 2.0, 2.0, 6.0, 7.0, 4.0, 3.0, 8.0, 5.0, 6.0, 6.0, 10.0, 5.0, 8.0, 10.0, 13.0, 18.0, 10.0, 5.0, 9.0, 6.0, 8.0, 7.0, 4.0, 10.0, 4.0, 4.0, 1.0, 5.0, 4.0, 5.0, 4.0, 4.0, 1.0, 0.0, 2.0, 2.0, 3.0, 0.0, 4.0, 2.0, 0.0, 3.0, 2.0, 1.0, 0.0, 0.0, 0.0, 1.0, 1.0], "bins": [-0.012529869563877583, -0.012113085016608238, -0.01169629953801632, -0.011279514990746975, -0.01086273044347763, -0.010445944964885712, -0.010029160417616367, -0.009612375870347023, -0.009195590391755104, -0.00877880584448576, -0.00836202036589384, -0.007945235818624496, -0.007528450805693865, -0.007111665792763233, -0.006694881245493889, -0.006278096232563257, -0.005861311219632626, -0.005444526206701994, -0.005027741193771362, -0.004610956646502018, -0.004194171633571386, -0.0037773866206407547, -0.0033606018405407667, -0.0029438170604407787, -0.002527032047510147, -0.0021102470345795155, -0.0016934622544795275, -0.0012766773579642177, -0.0008598924614489079, -0.0004431074485182762, -2.632266841828823e-05, 0.00039046211168169975, 0.000807248055934906, 0.0012240329524502158, 0.0016408178489655256, 0.0020576026290655136, 0.0024743876419961452, 0.002891172654926777, 0.003307957435026765, 0.003724742215126753, 0.0041415272280573845, 0.004558312240988016, 0.004975097253918648, 0.005391881801187992, 0.005808666814118624, 0.006225451827049255, 0.0066422363743186, 0.007059021387249231, 0.007475806400179863, 0.007892590947449207, 0.008309376426041126, 0.00872616097331047, 0.00914294645190239, 0.009559730999171734, 0.009976515546441078, 0.010393301025032997, 0.010810085572302341, 0.011226870119571686, 0.011643655598163605, 0.012060440145432949, 0.012477224692702293, 0.012894010171294212, 0.013310794718563557, 0.013727579265832901, 0.01414436474442482]}, "gradients/graph_2_encoder.encoder.1.bias": {"_type": "histogram", "values": [1.0, 0.0, 0.0, 1.0, 3.0, 0.0, 0.0, 3.0, 2.0, 0.0, 0.0, 0.0, 1.0, 4.0, 2.0, 9.0, 5.0, 3.0, 2.0, 5.0, 6.0, 9.0, 5.0, 6.0, 16.0, 6.0, 12.0, 7.0, 12.0, 5.0, 14.0, 12.0, 9.0, 4.0, 4.0, 11.0, 9.0, 6.0, 4.0, 6.0, 5.0, 6.0, 5.0, 7.0, 3.0, 2.0, 4.0, 5.0, 5.0, 1.0, 2.0, 2.0, 1.0, 0.0, 0.0, 0.0, 0.0, 1.0, 0.0, 0.0, 0.0, 0.0, 0.0, 3.0], "bins": [-0.01864638924598694, -0.018033476546406746, -0.017420565709471703, -0.01680765300989151, -0.016194740310311317, -0.0155818285420537, -0.014968916773796082, -0.014356004074215889, -0.013743092305958271, -0.013130180537700653, -0.01251726783812046, -0.011904356069862843, -0.011291444301605225, -0.010678531602025032, -0.010065619833767414, -0.009452708065509796, -0.008839795365929604, -0.008226883597671986, -0.007613970898091793, -0.007001059129834175, -0.00638814689591527, -0.005775234661996365, -0.005162322893738747, -0.004549410659819841, -0.003936498425900936, -0.003323586191982031, -0.0027106741908937693, -0.0020977621898055077, -0.0014848499558866024, -0.0008719377219676971, -0.00025902572087943554, 0.00035388628020882607, 0.0009667985141277313, 0.0015797106316313148, 0.002192622749134898, 0.00280553475022316, 0.003418446984142065, 0.00403135921806097, 0.004644270986318588, 0.0052571832202374935, 0.005870095454156399, 0.006483007688075304, 0.007095919921994209, 0.007708831690251827, 0.008321743458509445, 0.008934656158089638, 0.009547567926347256, 0.010160479694604874, 0.010773392394185066, 0.011386304162442684, 0.011999216862022877, 0.012612128630280495, 0.013225041329860687, 0.013837953098118305, 0.014450864866375923, 0.015063777565956116, 0.01567668840289116, 0.01628960110247135, 0.016902511939406395, 0.017515424638986588, 0.01812833733856678, 0.018741250038146973, 0.019354160875082016, 0.01996707357466221, 0.0205799862742424]}, "gradients/graph_2_encoder.encoder.0.bias": {"_type": "histogram", "values": [1.0, 0.0, 0.0, 0.0, 0.0, 0.0, 0.0, 0.0, 0.0, 0.0, 0.0, 0.0, 0.0, 0.0, 1.0, 0.0, 1.0, 1.0, 1.0, 3.0, 2.0, 2.0, 1.0, 1.0, 5.0, 4.0, 7.0, 2.0, 7.0, 2.0, 8.0, 6.0, 15.0, 5.0, 12.0, 9.0, 5.0, 14.0, 19.0, 16.0, 10.0, 9.0, 9.0, 7.0, 12.0, 5.0, 11.0, 11.0, 5.0, 5.0, 3.0, 5.0, 4.0, 2.0, 1.0, 0.0, 2.0, 0.0, 3.0, 1.0, 0.0, 0.0, 0.0, 1.0], "bins": [-1.087784767150879e-06, -1.0596122592687607e-06, -1.0314397513866425e-06, -1.0032672435045242e-06, -9.75094735622406e-07, -9.469222277402878e-07, -9.187497198581696e-07, -8.905772119760513e-07, -8.624047040939331e-07, -8.342321962118149e-07, -8.060596883296967e-07, -7.778871804475784e-07, -7.497146725654602e-07, -7.21542164683342e-07, -6.933696568012238e-07, -6.651971489191055e-07, -6.370246410369873e-07, -6.088521331548691e-07, -5.806796252727509e-07, -5.525071173906326e-07, -5.243346095085144e-07, -4.961621016263962e-07, -4.6798959374427795e-07, -4.3981708586215973e-07, -4.116445779800415e-07, -3.834720700979233e-07, -3.5529956221580505e-07, -3.2712705433368683e-07, -2.989545464515686e-07, -2.707820385694504e-07, -2.4260953068733215e-07, -2.1443702280521393e-07, -1.862645149230957e-07, -1.5809200704097748e-07, -1.2991949915885925e-07, -1.0174699127674103e-07, -7.35744833946228e-08, -4.540197551250458e-08, -1.7229467630386353e-08, 1.0943040251731873e-08, 3.91155481338501e-08, 6.728805601596832e-08, 9.546056389808655e-08, 1.2363307178020477e-07, 1.51805579662323e-07, 1.7997808754444122e-07, 2.0815059542655945e-07, 2.3632310330867767e-07, 2.644956111907959e-07, 2.926681190729141e-07, 3.2084062695503235e-07, 3.490131348371506e-07, 3.771856427192688e-07, 4.05358150601387e-07, 4.3353065848350525e-07, 4.617031663656235e-07, 4.898756742477417e-07, 5.180481821298599e-07, 5.462206900119781e-07, 5.743931978940964e-07, 6.025657057762146e-07, 6.307382136583328e-07, 6.58910721540451e-07, 6.870832294225693e-07, 7.152557373046875e-07]}, "gradients/graph_2_encoder.encoder.0.weight": {"_type": "histogram", "values": [1.0, 0.0, 0.0, 0.0, 0.0, 1.0, 1.0, 4.0, 5.0, 3.0, 5.0, 6.0, 10.0, 16.0, 31.0, 25.0, 43.0, 72.0, 90.0, 121.0, 206.0, 312.0, 432.0, 756.0, 1131.0, 1690.0, 2929.0, 4611.0, 7595.0, 12420.0, 19244.0, 27677.0, 34764.0, 34113.0, 26448.0, 18332.0, 11670.0, 7409.0, 4562.0, 2785.0, 1714.0, 1078.0, 674.0, 447.0, 309.0, 174.0, 110.0, 73.0, 47.0, 39.0, 26.0, 18.0, 7.0, 6.0, 3.0, 3.0, 1.0, 2.0, 2.0, 0.0, 0.0, 1.0, 1.0, 1.0], "bins": [-0.12201393395662308, -0.11830538511276245, -0.11459684371948242, -0.1108882948756218, -0.10717974603176117, -0.10347120463848114, -0.09976265579462051, -0.09605410695075989, -0.09234556555747986, -0.08863701671361923, -0.0849284753203392, -0.08121992647647858, -0.07751138508319855, -0.07380283623933792, -0.0700942873954773, -0.06638574600219727, -0.06267719715833664, -0.05896865203976631, -0.055260106921195984, -0.05155155807733536, -0.04784301295876503, -0.0441344678401947, -0.040425918996334076, -0.03671737387776375, -0.03300882875919342, -0.029300283640623093, -0.025591736659407616, -0.02188318967819214, -0.01817464455962181, -0.014466099441051483, -0.010757552459836006, -0.007049005478620529, -0.0033404529094696045, 0.0003680931404232979, 0.0040766391903162, 0.007785185240209103, 0.011493731290102005, 0.015202276408672333, 0.01891082338988781, 0.022619370371103287, 0.026327915489673615, 0.030036460608243942, 0.03374500572681427, 0.037453554570674896, 0.041162099689245224, 0.04487064480781555, 0.04857919365167618, 0.052287738770246506, 0.055996283888816833, 0.05970482900738716, 0.06341337412595749, 0.06712192296981812, 0.07083046436309814, 0.07453901320695877, 0.0782475620508194, 0.08195610344409943, 0.08566465228796005, 0.08937320113182068, 0.09308174252510071, 0.09679029136896133, 0.10049884021282196, 0.10420738160610199, 0.10791593044996262, 0.11162447929382324, 0.11533302068710327]}, "_wandb": {"runtime": 244}}