{"train_loss": 0.5188128352165222, "train_ssl_loss": 0.48904186487197876, "train_tsk_loss": 0.029771067202091217, "test_loss": 0.36351513862609863, "test_ssl_loss": 0.330828994512558, "test_tsk_loss": 0.03268611431121826, "_timestamp": 1697569063.5544155, "_runtime": 30.975030422210693, "_step": 15, "gradients/taskmapper.out.bias": {"_type": "histogram", "values": [0.0, 0.0, 0.0, 0.0, 0.0, 0.0, 0.0, 0.0, 0.0, 0.0, 0.0, 0.0, 0.0, 0.0, 0.0, 0.0, 0.0, 0.0, 0.0, 0.0, 0.0, 0.0, 0.0, 0.0, 0.0, 0.0, 0.0, 0.0, 0.0, 0.0, 0.0, 0.0, 1.0, 0.0, 0.0, 0.0, 0.0, 0.0, 0.0, 0.0, 0.0, 0.0, 0.0, 0.0, 0.0, 0.0, 0.0, 0.0, 0.0, 0.0, 0.0, 0.0, 0.0, 0.0, 0.0, 0.0, 0.0, 0.0, 0.0, 0.0, 0.0, 0.0, 0.0, 0.0], "bins": [-0.21758830547332764, -0.21758830547332764, -0.21758830547332764, -0.21758830547332764, -0.21758830547332764, -0.21758830547332764, -0.21758830547332764, -0.21758830547332764, -0.21758830547332764, -0.21758830547332764, -0.21758830547332764, -0.21758830547332764, -0.21758830547332764, -0.21758830547332764, -0.21758830547332764, -0.21758830547332764, -0.21758830547332764, -0.21758830547332764, -0.21758830547332764, -0.21758830547332764, -0.21758830547332764, -0.21758830547332764, -0.21758830547332764, -0.21758830547332764, -0.21758830547332764, -0.21758830547332764, -0.21758830547332764, -0.21758830547332764, -0.21758830547332764, -0.21758830547332764, -0.21758830547332764, -0.21758830547332764, -0.21758830547332764, -0.21758830547332764, -0.21758830547332764, -0.21758830547332764, -0.21758830547332764, -0.21758830547332764, -0.21758830547332764, -0.21758830547332764, -0.21758830547332764, -0.21758830547332764, -0.21758830547332764, -0.21758830547332764, -0.21758830547332764, -0.21758830547332764, -0.21758830547332764, -0.21758830547332764, -0.21758830547332764, -0.21758830547332764, -0.21758830547332764, -0.21758830547332764, -0.21758830547332764, -0.21758830547332764, -0.21758830547332764, -0.21758830547332764, -0.21758830547332764, -0.21758830547332764, -0.21758830547332764, -0.21758830547332764, -0.21758830547332764, -0.21758830547332764, -0.21758830547332764, -0.21758830547332764, -0.21758830547332764]}, "gradients/taskmapper.out.weight": {"_type": "histogram", "values": [1.0, 0.0, 0.0, 0.0, 0.0, 0.0, 0.0, 0.0, 0.0, 0.0, 0.0, 0.0, 1.0, 0.0, 0.0, 0.0, 0.0, 0.0, 0.0, 0.0, 1.0, 1.0, 0.0, 0.0, 0.0, 0.0, 0.0, 1.0, 0.0, 0.0, 1.0, 0.0, 0.0, 0.0, 0.0, 0.0, 0.0, 0.0, 2.0, 0.0, 0.0, 0.0, 0.0, 0.0, 0.0, 0.0, 1.0, 0.0, 0.0, 0.0, 0.0, 0.0, 0.0, 0.0, 0.0, 0.0, 0.0, 0.0, 1.0, 0.0, 0.0, 0.0, 0.0, 6.0], "bins": [-0.06371252238750458, -0.06271542608737946, -0.06171833723783493, -0.06072124466300011, -0.05972415208816528, -0.05872705951333046, -0.057729966938495636, -0.05673287436366081, -0.05573578178882599, -0.054738689213991165, -0.05374159663915634, -0.05274450406432152, -0.051747411489486694, -0.05075031891465187, -0.04975322633981705, -0.048756133764982224, -0.0477590411901474, -0.046761948615312576, -0.04576485604047775, -0.04476776346564293, -0.043770670890808105, -0.04277357831597328, -0.04177648574113846, -0.040779393166303635, -0.03978230059146881, -0.03878520801663399, -0.037788115441799164, -0.03679102286696434, -0.03579393029212952, -0.03479683771729469, -0.03379974514245987, -0.032802652567625046, -0.03180556371808052, -0.030808471143245697, -0.029811378568410873, -0.02881428599357605, -0.027817193418741226, -0.026820100843906403, -0.02582300826907158, -0.024825915694236755, -0.023828823119401932, -0.022831730544567108, -0.021834637969732285, -0.02083754539489746, -0.019840452820062637, -0.018843360245227814, -0.01784626767039299, -0.016849175095558167, -0.015852082520723343, -0.01485498994588852, -0.013857897371053696, -0.012860804796218872, -0.011863712221384048, -0.010866619646549225, -0.009869527071714401, -0.008872434496879578, -0.007875341922044754, -0.00687824934720993, -0.005881156772375107, -0.004884064197540283, -0.0038869716227054596, -0.002889879047870636, -0.0018927864730358124, -0.0008956938982009888, 0.00010139904770767316]}, "gradients/taskmapper.lins.1.bias": {"_type": "histogram", "values": [1.0, 0.0, 0.0, 0.0, 0.0, 0.0, 0.0, 1.0, 0.0, 0.0, 1.0, 0.0, 0.0, 1.0, 0.0, 0.0, 0.0, 1.0, 0.0, 0.0, 0.0, 0.0, 0.0, 0.0, 0.0, 0.0, 1.0, 1.0, 0.0, 1.0, 0.0, 0.0, 0.0, 0.0, 0.0, 0.0, 0.0, 0.0, 0.0, 0.0, 5.0, 0.0, 1.0, 0.0, 0.0, 0.0, 0.0, 0.0, 0.0, 0.0, 1.0, 0.0, 0.0, 0.0, 0.0, 0.0, 0.0, 0.0, 0.0, 0.0, 0.0, 0.0, 0.0, 1.0], "bins": [-0.05540520325303078, -0.054045774042606354, -0.05268634483218193, -0.05132691562175751, -0.049967486411333084, -0.04860805720090866, -0.047248631715774536, -0.045889198780059814, -0.04452977329492569, -0.043170344084501266, -0.04181091487407684, -0.04045148566365242, -0.039092056453228, -0.037732627242803574, -0.03637319803237915, -0.035013772547245026, -0.033654339611530304, -0.03229491040110588, -0.030935481190681458, -0.029576051980257034, -0.02821662276983261, -0.026857193559408188, -0.025497766211628914, -0.02413833700120449, -0.022778907790780067, -0.021419478580355644, -0.02006004936993122, -0.018700622022151947, -0.017341192811727524, -0.0159817636013031, -0.014622334390878677, -0.013262905180454254, -0.01190347969532013, -0.010544050484895706, -0.009184621274471283, -0.007825192995369434, -0.006465763784945011, -0.005106334574520588, -0.0037469062954187393, -0.002387477084994316, -0.0010280478745698929, 0.0003313811030238867, 0.0016908100806176662, 0.003050238825380802, 0.004409668035805225, 0.005769097246229649, 0.007128525525331497, 0.00848795473575592, 0.009847383946180344, 0.011206813156604767, 0.01256624236702919, 0.013925670646131039, 0.015285099856555462, 0.01664452999830246, 0.018003957346081734, 0.019363386556506157, 0.02072281576693058, 0.022082244977355003, 0.023441674187779427, 0.0248011015355587, 0.026160530745983124, 0.027519959956407547, 0.02887938916683197, 0.030238818377256393, 0.03159824758768082]}, "gradients/taskmapper.lins.1.weight": {"_type": "histogram", "values": [1.0, 0.0, 0.0, 0.0, 0.0, 0.0, 0.0, 1.0, 0.0, 0.0, 1.0, 0.0, 0.0, 1.0, 1.0, 1.0, 0.0, 1.0, 0.0, 2.0, 0.0, 3.0, 0.0, 2.0, 3.0, 2.0, 2.0, 4.0, 3.0, 2.0, 3.0, 5.0, 7.0, 7.0, 13.0, 9.0, 7.0, 18.0, 23.0, 25.0, 184.0, 22.0, 9.0, 4.0, 2.0, 5.0, 4.0, 0.0, 0.0, 1.0, 2.0, 1.0, 0.0, 0.0, 0.0, 2.0, 0.0, 0.0, 0.0, 0.0, 0.0, 0.0, 0.0, 1.0], "bins": [-0.015744296833872795, -0.015357992611825466, -0.014971688389778137, -0.014585385099053383, -0.014199080877006054, -0.013812776654958725, -0.013426472432911396, -0.013040168210864067, -0.012653864920139313, -0.012267560698091984, -0.011881256476044655, -0.0114949531853199, -0.011108648963272572, -0.010722344741225243, -0.010336040519177914, -0.009949736297130585, -0.00956343300640583, -0.009177128784358501, -0.008790824562311172, -0.008404521271586418, -0.00801821704953909, -0.00763191282749176, -0.007245608605444431, -0.00685930484905839, -0.006473000161349773, -0.0060866959393024445, -0.005700392182916403, -0.005314087960869074, -0.004927784204483032, -0.004541479982435703, -0.004155175760388374, -0.0037688720040023327, -0.003382568247616291, -0.0029962642583996058, -0.0026099602691829205, -0.0022236560471355915, -0.001837352174334228, -0.0014510481851175427, -0.0010647440794855356, -0.0006784400902688503, -0.00029213610105216503, 9.416791726835072e-05, 0.00048047193558886647, 0.0008667759830132127, 0.001253079972229898, 0.0016393839614465833, 0.0020256880670785904, 0.0024119920562952757, 0.002798296045511961, 0.0031846000347286463, 0.0035709040239453316, 0.0039572082459926605, 0.004343512002378702, 0.004729816224426031, 0.005116119980812073, 0.005502424202859402, 0.005888728424906731, 0.00627503264695406, 0.006661336403340101, 0.00704764062538743, 0.007433944381773472, 0.0078202486038208, 0.00820655282586813, 0.008592857047915459, 0.008979160338640213]}, "gradients/taskmapper.lins.0.bias": {"_type": "histogram", "values": [1.0, 0.0, 0.0, 0.0, 0.0, 0.0, 0.0, 0.0, 0.0, 0.0, 0.0, 0.0, 0.0, 0.0, 0.0, 0.0, 1.0, 0.0, 0.0, 1.0, 0.0, 0.0, 1.0, 0.0, 0.0, 0.0, 1.0, 1.0, 0.0, 0.0, 0.0, 1.0, 0.0, 1.0, 0.0, 0.0, 0.0, 0.0, 1.0, 2.0, 0.0, 0.0, 0.0, 0.0, 0.0, 0.0, 0.0, 0.0, 1.0, 0.0, 2.0, 3.0, 2.0, 0.0, 2.0, 1.0, 0.0, 0.0, 0.0, 1.0, 0.0, 0.0, 0.0, 1.0], "bins": [-0.03125724568963051, -0.030636020004749298, -0.03001479245722294, -0.029393566772341728, -0.02877233922481537, -0.02815111353993416, -0.0275298859924078, -0.02690866030752659, -0.02628743276000023, -0.02566620707511902, -0.02504497952759266, -0.02442375384271145, -0.02380252629518509, -0.02318130061030388, -0.02256007306277752, -0.02193884737789631, -0.02131761983036995, -0.02069639414548874, -0.02007516659796238, -0.01945394091308117, -0.01883271336555481, -0.0182114876806736, -0.01759026013314724, -0.01696903444826603, -0.01634780876338482, -0.01572658307850361, -0.01510535553097725, -0.014484128914773464, -0.01386290229856968, -0.013241675682365894, -0.01262044906616211, -0.011999223381280899, -0.01137799583375454, -0.010756769217550755, -0.01013554260134697, -0.009514315985143185, -0.0088930893689394, -0.008271862752735615, -0.007650636602193117, -0.007029409985989332, -0.006408183369785547, -0.005786956753581762, -0.005165730137377977, -0.00454450398683548, -0.003923277370631695, -0.003302050521597266, -0.002680824138224125, -0.00205959752202034, -0.001438370905816555, -0.000817144347820431, -0.00019591778982430696, 0.00042530870996415615, 0.001046535326167941, 0.001667761942371726, 0.0022889883257448673, 0.0029102149419486523, 0.003531441558152437, 0.004152668174356222, 0.004773894790560007, 0.005395120941102505, 0.00601634755730629, 0.006637574173510075, 0.0072588007897138596, 0.007880027405917645, 0.00850125402212143]}, "gradients/taskmapper.lins.0.weight": {"_type": "histogram", "values": [1.0, 0.0, 0.0, 0.0, 0.0, 0.0, 0.0, 1.0, 0.0, 0.0, 0.0, 2.0, 2.0, 2.0, 1.0, 2.0, 2.0, 2.0, 7.0, 5.0, 2.0, 11.0, 9.0, 5.0, 17.0, 18.0, 15.0, 37.0, 51.0, 107.0, 200.0, 68.0, 29.0, 27.0, 22.0, 11.0, 15.0, 12.0, 20.0, 7.0, 8.0, 6.0, 6.0, 8.0, 7.0, 2.0, 4.0, 2.0, 2.0, 2.0, 1.0, 1.0, 3.0, 2.0, 0.0, 0.0, 0.0, 1.0, 1.0, 0.0, 0.0, 0.0, 0.0, 2.0], "bins": [-0.004352893214672804, -0.004209042526781559, -0.004065191838890314, -0.0039213416166603565, -0.0037774909287691116, -0.0036336402408778667, -0.003489789552986622, -0.003345938865095377, -0.0032020884100347757, -0.003058237722143531, -0.0029143872670829296, -0.0027705365791916847, -0.00262668589130044, -0.0024828354362398386, -0.0023389847483485937, -0.0021951342932879925, -0.0020512836053967476, -0.0019074330339208245, -0.0017635824624449015, -0.0016197317745536566, -0.0014758812030777335, -0.0013320306316018105, -0.0011881799437105656, -0.0010443293722346425, -0.0009004788007587194, -0.0007566282292827964, -0.0006127775995992124, -0.0004689269990194589, -0.00032507639843970537, -0.0001812258269637823, -3.7375197280198336e-05, 0.00010647543240338564, 0.0002503255382180214, 0.0003941761387977749, 0.0005380267393775284, 0.0006818773690611124, 0.0008257279405370355, 0.0009695785120129585, 0.0011134291999042034, 0.0012572797713801265, 0.0014011303428560495, 0.0015449809143319726, 0.0016888314858078957, 0.0018326821736991405, 0.0019765328615903854, 0.0021203833166509867, 0.0022642340045422316, 0.002408084459602833, 0.0025519351474940777, 0.0026957858353853226, 0.002839636290445924, 0.0029834869783371687, 0.00312733743339777, 0.003271188121289015, 0.0034150388091802597, 0.0035588894970715046, 0.003702739952132106, 0.0038465906400233507, 0.003990441095083952, 0.004134291782975197, 0.004278142470866442, 0.004421993158757687, 0.004565843380987644, 0.004709694068878889, 0.004853544756770134]}, "gradients/_projector.0.bias": {"_type": "histogram", "values": [1.0, 0.0, 0.0, 1.0, 0.0, 0.0, 0.0, 1.0, 0.0, 0.0, 1.0, 0.0, 1.0, 1.0, 1.0, 1.0, 0.0, 2.0, 0.0, 1.0, 2.0, 0.0, 1.0, 1.0, 2.0, 1.0, 2.0, 0.0, 2.0, 0.0, 0.0, 1.0, 0.0, 0.0, 0.0, 1.0, 0.0, 0.0, 2.0, 1.0, 0.0, 1.0, 0.0, 0.0, 0.0, 1.0, 0.0, 2.0, 0.0, 0.0, 0.0, 0.0, 0.0, 0.0, 0.0, 0.0, 0.0, 0.0, 0.0, 0.0, 0.0, 0.0, 0.0, 1.0], "bins": [-0.06072220951318741, -0.05827353149652481, -0.05582485720515251, -0.053376179188489914, -0.050927504897117615, -0.04847882688045502, -0.04603014886379242, -0.04358147084712982, -0.04113279655575752, -0.038684118539094925, -0.036235444247722626, -0.03378676623106003, -0.03133808821439743, -0.02888941392302513, -0.026440735906362534, -0.023992059752345085, -0.021543383598327637, -0.01909470744431019, -0.01664603129029274, -0.014197353273630142, -0.011748677119612694, -0.009300000965595245, -0.006851323880255222, -0.004402646794915199, -0.001953970640897751, 0.0004947059787809849, 0.0029433825984597206, 0.005392059218138456, 0.007840735837817192, 0.01028941199183464, 0.012738089077174664, 0.015186766162514687, 0.017635434865951538, 0.020084111019968987, 0.022532787173986435, 0.024981465190649033, 0.02743014134466648, 0.02987881749868393, 0.03232749551534653, 0.034776173532009125, 0.037224847823381424, 0.03967352584004402, 0.04212220013141632, 0.04457087814807892, 0.047019556164741516, 0.049468230456113815, 0.05191690847277641, 0.05436558276414871, 0.05681426078081131, 0.05926293879747391, 0.06171161308884621, 0.0641602873802185, 0.0666089653968811, 0.0690576434135437, 0.0715063214302063, 0.0739549994468689, 0.0764036774635315, 0.07885235548019409, 0.08130103349685669, 0.08374970406293869, 0.08619838207960129, 0.08864706009626389, 0.09109573811292648, 0.09354441612958908, 0.09599308669567108]}, "gradients/_projector.0.weight": {"_type": "histogram", "values": [1.0, 0.0, 0.0, 0.0, 2.0, 1.0, 3.0, 4.0, 7.0, 7.0, 17.0, 14.0, 24.0, 25.0, 32.0, 46.0, 62.0, 74.0, 89.0, 111.0, 134.0, 162.0, 200.0, 227.0, 288.0, 311.0, 360.0, 370.0, 373.0, 386.0, 436.0, 440.0, 411.0, 416.0, 431.0, 401.0, 363.0, 297.0, 262.0, 270.0, 220.0, 191.0, 162.0, 139.0, 86.0, 75.0, 62.0, 44.0, 44.0, 32.0, 21.0, 20.0, 5.0, 10.0, 6.0, 6.0, 8.0, 2.0, 0.0, 0.0, 1.0, 0.0, 0.0, 1.0], "bins": [-0.07045447826385498, -0.06823886185884476, -0.06602323800325394, -0.06380762159824371, -0.06159200519323349, -0.05937638506293297, -0.057160764932632446, -0.05494514852762222, -0.0527295283973217, -0.05051390826702118, -0.048298291862010956, -0.046082671731710434, -0.04386705160140991, -0.04165143519639969, -0.03943581506609917, -0.037220194935798645, -0.03500457853078842, -0.0327889584004879, -0.030573341995477676, -0.028357721865177155, -0.026142103597521782, -0.02392648532986641, -0.021710865199565887, -0.019495246931910515, -0.017279628664255142, -0.01506401039659977, -0.012848391197621822, -0.010632771998643875, -0.008417153730988503, -0.00620153546333313, -0.003985916264355183, -0.0017702970653772354, 0.0004453212022781372, 0.002660939935594797, 0.004876558668911457, 0.007092177402228117, 0.009307796135544777, 0.01152341440320015, 0.013739033602178097, 0.015954652801156044, 0.018170271068811417, 0.02038588933646679, 0.022601507604122162, 0.024817127734422684, 0.027032746002078056, 0.02924836426973343, 0.03146398440003395, 0.03367960453033447, 0.035895220935344696, 0.03811084106564522, 0.04032645747065544, 0.04254207760095596, 0.044757694005966187, 0.04697331413626671, 0.04918893426656723, 0.051404550671577454, 0.053620170801877975, 0.0558357909321785, 0.05805140733718872, 0.06026702746748924, 0.062482647597789764, 0.06469826400279999, 0.06691388040781021, 0.06912950426340103, 0.07134512066841125]}, "gradients/_encoder.encoder.4.bias": {"_type": "histogram", "values": [1.0, 0.0, 1.0, 0.0, 0.0, 1.0, 1.0, 3.0, 1.0, 4.0, 10.0, 5.0, 4.0, 5.0, 6.0, 8.0, 9.0, 6.0, 8.0, 2.0, 10.0, 12.0, 9.0, 5.0, 5.0, 6.0, 7.0, 9.0, 7.0, 6.0, 10.0, 12.0, 8.0, 10.0, 7.0, 8.0, 7.0, 10.0, 8.0, 3.0, 4.0, 5.0, 2.0, 3.0, 2.0, 0.0, 1.0, 0.0, 0.0, 2.0, 1.0, 0.0, 0.0, 0.0, 0.0, 1.0, 0.0, 0.0, 0.0, 0.0, 0.0, 0.0, 0.0, 1.0], "bins": [-0.021772945299744606, -0.020949026569724083, -0.02012510783970356, -0.019301189109683037, -0.018477272242307663, -0.01765335351228714, -0.016829434782266617, -0.016005516052246094, -0.01518159732222557, -0.014357678592205048, -0.013533759862184525, -0.012709842063486576, -0.011885923333466053, -0.01106200460344553, -0.010238086804747581, -0.009414168074727058, -0.008590249344706535, -0.007766330614686012, -0.0069424123503267765, -0.006118494085967541, -0.005294575355947018, -0.004470656625926495, -0.003646738361567259, -0.002822820097208023, -0.0019989013671875, -0.0011749828699976206, -0.00035106437280774117, 0.00047285412438213825, 0.0012967726215720177, 0.0021206913515925407, 0.0029446096159517765, 0.0037685278803110123, 0.004592448472976685, 0.005416367202997208, 0.006240285467356443, 0.007064203731715679, 0.007888122461736202, 0.008712041191756725, 0.009535958990454674, 0.010359877720475197, 0.01118379645049572, 0.012007715180516243, 0.012831633910536766, 0.013655551709234715, 0.014479470439255238, 0.01530338916927576, 0.01612730696797371, 0.016951225697994232, 0.017775144428014755, 0.01859906315803528, 0.0194229818880558, 0.020246900618076324, 0.021070819348096848, 0.02189473807811737, 0.022718654945492744, 0.023542573675513268, 0.02436649240553379, 0.025190411135554314, 0.026014329865574837, 0.02683824859559536, 0.027662165462970734, 0.028486084192991257, 0.02931000292301178, 0.030133921653032303, 0.030957840383052826]}, "gradients/_encoder.encoder.4.weight": {"_type": "histogram", "values": [1.0, 0.0, 0.0, 0.0, 0.0, 0.0, 0.0, 1.0, 0.0, 1.0, 7.0, 12.0, 12.0, 18.0, 30.0, 55.0, 83.0, 115.0, 207.0, 266.0, 434.0, 616.0, 821.0, 1118.0, 1627.0, 2169.0, 2771.0, 3266.0, 3966.0, 4626.0, 5040.0, 5169.0, 5300.0, 5192.0, 4635.0, 4011.0, 3493.0, 2770.0, 2211.0, 1631.0, 1195.0, 867.0, 580.0, 414.0, 277.0, 186.0, 110.0, 82.0, 58.0, 34.0, 16.0, 13.0, 14.0, 4.0, 6.0, 2.0, 1.0, 1.0, 1.0, 0.0, 0.0, 0.0, 0.0, 1.0], "bins": [-0.0421045646071434, -0.04079326242208481, -0.039481956511735916, -0.03817065432667732, -0.03685934841632843, -0.035548046231269836, -0.03423674404621124, -0.03292543813586235, -0.03161413222551346, -0.030302828177809715, -0.028991524130105972, -0.02768022194504738, -0.026368916034698486, -0.025057613849639893, -0.02374630980193615, -0.022435005754232407, -0.021123703569173813, -0.01981239952147007, -0.018501095473766327, -0.017189793288707733, -0.01587848737835884, -0.014567184261977673, -0.013255881145596504, -0.011944577097892761, -0.010633273050189018, -0.009321969002485275, -0.008010664954781532, -0.006699361838400364, -0.005388057790696621, -0.004076753742992878, -0.0027654506266117096, -0.0014541465789079666, -0.00014284253120422363, 0.0011684612836688757, 0.002479765098541975, 0.0037910686805844307, 0.005102372728288174, 0.006413676775991917, 0.007724979892373085, 0.009036283940076828, 0.010347587987780571, 0.011658892035484314, 0.012970196083188057, 0.014281499199569225, 0.015592803247272968, 0.016904108226299286, 0.01821541041135788, 0.019526714459061623, 0.020838018506765366, 0.02214932255446911, 0.02346062660217285, 0.024771928787231445, 0.026083234697580338, 0.02739453688263893, 0.028705840930342674, 0.030017144978046417, 0.03132844716310501, 0.032639749348163605, 0.0339510552585125, 0.03526235744357109, 0.03657366335391998, 0.03788496553897858, 0.03919626772403717, 0.04050757363438606, 0.041818879544734955]}, "gradients/_encoder.encoder.1.weight": {"_type": "histogram", "values": [1.0, 0.0, 0.0, 0.0, 1.0, 0.0, 0.0, 0.0, 0.0, 1.0, 1.0, 0.0, 0.0, 0.0, 2.0, 2.0, 2.0, 4.0, 3.0, 1.0, 3.0, 5.0, 8.0, 2.0, 7.0, 7.0, 3.0, 5.0, 10.0, 7.0, 10.0, 7.0, 13.0, 10.0, 15.0, 7.0, 7.0, 8.0, 9.0, 16.0, 13.0, 11.0, 5.0, 5.0, 6.0, 6.0, 5.0, 4.0, 3.0, 4.0, 7.0, 0.0, 2.0, 0.0, 1.0, 2.0, 0.0, 1.0, 0.0, 1.0, 0.0, 2.0, 0.0, 1.0], "bins": [-0.01615111157298088, -0.015688952058553696, -0.015226793475449085, -0.0147646339610219, -0.01430247537791729, -0.013840315863490105, -0.01337815634906292, -0.012915996834635735, -0.012453838251531124, -0.011991678737103939, -0.011529520153999329, -0.011067360639572144, -0.010605201125144958, -0.010143042542040348, -0.009680883027613163, -0.009218724444508553, -0.008756564930081367, -0.008294405415654182, -0.007832246832549572, -0.007370087318122387, -0.006907928269356489, -0.006445769220590591, -0.005983609706163406, -0.005521450657397509, -0.005059291608631611, -0.004597132559865713, -0.004134973511099815, -0.0036728139966726303, -0.0032106549479067326, -0.002748495899140835, -0.0022863366175442934, -0.001824177335947752, -0.0013620173558592796, -0.0008998581906780601, -0.0004376990254968405, 2.44601396843791e-05, 0.0004866193048655987, 0.0009487783536314964, 0.0014109376352280378, 0.0018730969168245792, 0.002335255965590477, 0.0027974150143563747, 0.003259574295952916, 0.0037217335775494576, 0.004183892626315355, 0.004646051675081253, 0.005108211189508438, 0.005570370238274336, 0.006032529287040234, 0.006494688335806131, 0.006956847384572029, 0.007419006898999214, 0.0078811664134264, 0.00834332499653101, 0.008805484510958195, 0.009267643094062805, 0.00972980260848999, 0.010191962122917175, 0.010654120706021786, 0.01111628022044897, 0.011578438803553581, 0.012040598317980766, 0.012502757832407951, 0.012964917346835136, 0.013427075929939747]}, "gradients/_encoder.encoder.1.bias": {"_type": "histogram", "values": [1.0, 0.0, 0.0, 0.0, 0.0, 2.0, 0.0, 0.0, 2.0, 1.0, 1.0, 3.0, 2.0, 1.0, 1.0, 2.0, 5.0, 1.0, 2.0, 1.0, 5.0, 8.0, 11.0, 8.0, 2.0, 4.0, 4.0, 2.0, 7.0, 5.0, 11.0, 6.0, 7.0, 8.0, 5.0, 16.0, 14.0, 8.0, 9.0, 10.0, 6.0, 4.0, 7.0, 5.0, 10.0, 6.0, 9.0, 2.0, 3.0, 4.0, 3.0, 3.0, 1.0, 1.0, 8.0, 0.0, 2.0, 0.0, 2.0, 1.0, 1.0, 2.0, 0.0, 1.0], "bins": [-0.01794089749455452, -0.017410997301340103, -0.016881097108125687, -0.01635119877755642, -0.015821298584342003, -0.015291398391127586, -0.01476149819791317, -0.014231598004698753, -0.013701698742806911, -0.013171798549592495, -0.012641899287700653, -0.012111999094486237, -0.01158209890127182, -0.011052199639379978, -0.010522299446165562, -0.00999240018427372, -0.009462499991059303, -0.008932599797844887, -0.008402700535953045, -0.007872800342738628, -0.007342900615185499, -0.00681300088763237, -0.0062831006944179535, -0.005753200966864824, -0.005223301239311695, -0.004693401511758566, -0.004163501784205437, -0.00363360159099102, -0.003103701863437891, -0.002573802135884762, -0.002043902175500989, -0.0015140022151172161, -0.0009841043502092361, -0.0004542045062407851, 7.56953377276659e-05, 0.0006055951816961169, 0.001135495025664568, 0.0016653947532176971, 0.00219529471360147, 0.002725194673985243, 0.003255094401538372, 0.0037849941290915012, 0.00431489385664463, 0.004844794049859047, 0.005374693777412176, 0.005904593504965305, 0.006434493698179722, 0.006964393425732851, 0.00749429315328598, 0.008024193346500397, 0.008554092608392239, 0.009083992801606655, 0.009613892063498497, 0.010143792256712914, 0.01067369244992733, 0.011203592643141747, 0.011733491905033588, 0.012263392098248005, 0.012793291360139847, 0.013323191553354263, 0.01385309174656868, 0.014382991008460522, 0.014912891201674938, 0.01544279046356678, 0.015972690656781197]}, "gradients/_encoder.encoder.0.bias": {"_type": "histogram", "values": [1.0, 0.0, 1.0, 1.0, 0.0, 0.0, 1.0, 4.0, 0.0, 2.0, 5.0, 5.0, 1.0, 4.0, 6.0, 2.0, 6.0, 6.0, 3.0, 6.0, 5.0, 12.0, 16.0, 10.0, 13.0, 4.0, 14.0, 15.0, 6.0, 10.0, 19.0, 5.0, 7.0, 7.0, 6.0, 9.0, 1.0, 7.0, 4.0, 1.0, 12.0, 0.0, 2.0, 2.0, 3.0, 1.0, 3.0, 2.0, 0.0, 1.0, 0.0, 0.0, 0.0, 0.0, 1.0, 0.0, 0.0, 0.0, 1.0, 1.0, 1.0, 0.0, 0.0, 1.0], "bins": [-4.991888999938965e-07, -4.811445251107216e-07, -4.631001502275467e-07, -4.450557753443718e-07, -4.270114004611969e-07, -4.08967025578022e-07, -3.909226506948471e-07, -3.728782758116722e-07, -3.548339009284973e-07, -3.367895260453224e-07, -3.187451511621475e-07, -3.007007762789726e-07, -2.8265640139579773e-07, -2.6461202651262283e-07, -2.4656765162944794e-07, -2.2852327674627304e-07, -2.1047890186309814e-07, -1.9243452697992325e-07, -1.7439015209674835e-07, -1.5634577721357346e-07, -1.3830140233039856e-07, -1.2025702744722366e-07, -1.0221265256404877e-07, -8.416827768087387e-08, -6.612390279769897e-08, -4.807952791452408e-08, -3.003515303134918e-08, -1.1990778148174286e-08, 6.05359673500061e-09, 2.4097971618175507e-08, 4.21423465013504e-08, 6.01867213845253e-08, 7.82310962677002e-08, 9.627547115087509e-08, 1.1431984603404999e-07, 1.3236422091722488e-07, 1.5040859580039978e-07, 1.6845297068357468e-07, 1.8649734556674957e-07, 2.0454172044992447e-07, 2.2258609533309937e-07, 2.4063047021627426e-07, 2.5867484509944916e-07, 2.7671921998262405e-07, 2.9476359486579895e-07, 3.1280796974897385e-07, 3.3085234463214874e-07, 3.4889671951532364e-07, 3.6694109439849854e-07, 3.8498546928167343e-07, 4.0302984416484833e-07, 4.210742190480232e-07, 4.391185939311981e-07, 4.57162968814373e-07, 4.752073436975479e-07, 4.932517185807228e-07, 5.112960934638977e-07, 5.293404683470726e-07, 5.473848432302475e-07, 5.654292181134224e-07, 5.834735929965973e-07, 6.015179678797722e-07, 6.195623427629471e-07, 6.37606717646122e-07, 6.556510925292969e-07]}, "gradients/_encoder.encoder.0.weight": {"_type": "histogram", "values": [1.0, 0.0, 0.0, 2.0, 1.0, 0.0, 1.0, 5.0, 4.0, 5.0, 10.0, 13.0, 23.0, 42.0, 53.0, 83.0, 127.0, 228.0, 356.0, 574.0, 879.0, 1449.0, 2408.0, 4068.0, 6377.0, 10294.0, 16441.0, 25528.0, 35571.0, 38980.0, 30851.0, 19950.0, 11978.0, 7186.0, 4323.0, 2368.0, 1508.0, 884.0, 528.0, 377.0, 240.0, 159.0, 121.0, 77.0, 49.0, 33.0, 29.0, 13.0, 13.0, 6.0, 10.0, 7.0, 8.0, 5.0, 3.0, 2.0, 0.0, 1.0, 1.0, 0.0, 1.0, 1.0, 0.0, 1.0], "bins": [-0.0989689975976944, -0.09558827430009842, -0.09220755100250244, -0.08882682770490646, -0.08544610440731049, -0.08206537365913391, -0.07868465036153793, -0.07530392706394196, -0.07192320376634598, -0.06854248046875, -0.06516175717115402, -0.061781030148267746, -0.05840030685067177, -0.05501958355307579, -0.051638856530189514, -0.048258133232593536, -0.04487740993499756, -0.04149668663740158, -0.0381159633398056, -0.03473523631691933, -0.03135451301932335, -0.02797378972172737, -0.024593064561486244, -0.021212339401245117, -0.01783161610364914, -0.014450891874730587, -0.011070167645812035, -0.007689443416893482, -0.00430871918797493, -0.000927995890378952, 0.002452729269862175, 0.005833454430103302, 0.00921417772769928, 0.012594901956617832, 0.015975626185536385, 0.01935635134577751, 0.02273707464337349, 0.026117797940969467, 0.029498523101210594, 0.03287924826145172, 0.0362599715590477, 0.03964069485664368, 0.043021418154239655, 0.04640214517712593, 0.04978286847472191, 0.053163591772317886, 0.05654431879520416, 0.05992504209280014, 0.06330576539039612, 0.0666864886879921, 0.07006721198558807, 0.07344793528318405, 0.07682865858078003, 0.0802093893289566, 0.08359011262655258, 0.08697083592414856, 0.09035155922174454, 0.09373228251934052, 0.09711300581693649, 0.10049372911453247, 0.10387445986270905, 0.10725517570972443, 0.110635906457901, 0.11401662975549698, 0.11739735305309296]}}