{"train_loss": 0.2841973900794983, "train_ssl_loss": 0.2691957354545593, "train_tsk_loss": 0.015001676045358181, "test_loss": 0.4610399603843689, "test_ssl_loss": 0.44447168707847595, "test_tsk_loss": 0.016568269580602646, "_timestamp": 1697565235.0414774, "_runtime": 226.07484555244446, "_step": 99, "gradients/graph_1taskmapper.out.bias": {"_type": "histogram", "values": [0.0, 0.0, 0.0, 0.0, 0.0, 0.0, 0.0, 0.0, 0.0, 0.0, 0.0, 0.0, 0.0, 0.0, 0.0, 0.0, 0.0, 0.0, 0.0, 0.0, 0.0, 0.0, 0.0, 0.0, 0.0, 0.0, 0.0, 0.0, 0.0, 0.0, 0.0, 1.0, 0.0, 0.0, 0.0, 0.0, 0.0, 0.0, 0.0, 0.0, 0.0, 0.0, 0.0, 0.0, 0.0, 0.0, 0.0, 0.0, 0.0, 0.0, 0.0, 0.0, 0.0, 0.0, 0.0, 0.0, 0.0, 0.0, 0.0, 0.0, 0.0, 0.0, 0.0, 0.0], "bins": [-0.0003831731155514717, -0.0003831731155514717, -0.0003831731155514717, -0.0003831731155514717, -0.0003831731155514717, -0.0003831731155514717, -0.0003831731155514717, -0.0003831731155514717, -0.0003831731155514717, -0.0003831731155514717, -0.0003831731155514717, -0.0003831731155514717, -0.0003831731155514717, -0.0003831731155514717, -0.0003831731155514717, -0.0003831731155514717, -0.0003831731155514717, -0.0003831731155514717, -0.0003831731155514717, -0.0003831731155514717, -0.0003831731155514717, -0.0003831731155514717, -0.0003831731155514717, -0.0003831731155514717, -0.0003831731155514717, -0.0003831731155514717, -0.0003831731155514717, -0.0003831731155514717, -0.0003831731155514717, -0.0003831731155514717, -0.0003831731155514717, -0.0003831731155514717, -0.0003831731155514717, -0.0003831731155514717, -0.0003831731155514717, -0.0003831731155514717, -0.0003831731155514717, -0.0003831731155514717, -0.0003831731155514717, -0.0003831731155514717, -0.0003831731155514717, -0.0003831731155514717, -0.0003831731155514717, -0.0003831731155514717, -0.0003831731155514717, -0.0003831731155514717, -0.0003831731155514717, -0.0003831731155514717, -0.0003831731155514717, -0.0003831731155514717, -0.0003831731155514717, -0.0003831731155514717, -0.0003831731155514717, -0.0003831731155514717, -0.0003831731155514717, -0.0003831731155514717, -0.0003831731155514717, -0.0003831731155514717, -0.0003831731155514717, -0.0003831731155514717, -0.0003831731155514717, -0.0003831731155514717, -0.0003831731155514717, -0.0003831731155514717, -0.0003831731155514717]}, "gradients/graph_1taskmapper.out.weight": {"_type": "histogram", "values": [2.0, 0.0, 0.0, 1.0, 0.0, 0.0, 0.0, 0.0, 0.0, 0.0, 0.0, 1.0, 0.0, 0.0, 0.0, 0.0, 0.0, 0.0, 0.0, 0.0, 0.0, 0.0, 0.0, 0.0, 0.0, 0.0, 0.0, 0.0, 0.0, 0.0, 0.0, 0.0, 0.0, 1.0, 0.0, 0.0, 0.0, 0.0, 0.0, 0.0, 0.0, 0.0, 0.0, 1.0, 0.0, 0.0, 0.0, 0.0, 0.0, 0.0, 0.0, 7.0, 0.0, 0.0, 0.0, 0.0, 1.0, 0.0, 0.0, 0.0, 0.0, 1.0, 0.0, 1.0], "bins": [-0.0023240260779857635, -0.002278480911627412, -0.0022329355124384165, -0.0021873903460800648, -0.0021418449468910694, -0.0020962997805327177, -0.0020507543813437223, -0.0020052092149853706, -0.0019596638157963753, -0.0019141185330227017, -0.0018685732502490282, -0.0018230279674753547, -0.0017774826847016811, -0.0017319374019280076, -0.001686392119154334, -0.0016408469527959824, -0.0015953016700223088, -0.0015497563872486353, -0.0015042111044749618, -0.0014586658217012882, -0.0014131205389276147, -0.0013675752561539412, -0.0013220300897955894, -0.001276484690606594, -0.0012309395242482424, -0.0011853942414745688, -0.0011398489587008953, -0.0010943036759272218, -0.0010487583931535482, -0.0010032131103798747, -0.0009576678858138621, -0.0009121226030401886, -0.0008665772038511932, -0.0008210319210775197, -0.0007754866383038461, -0.0007299414137378335, -0.00068439613096416, -0.0006388508481904864, -0.0005933055654168129, -0.0005477602826431394, -0.0005022149998694658, -0.0004566697170957923, -0.00041112443432211876, -0.0003655791806522757, -0.00032003389787860215, -0.0002744886151049286, -0.00022894336143508554, -0.000183398078661412, -0.00013785279588773847, -9.230752039002255e-05, -4.6762244892306626e-05, -1.2169766705483198e-06, 4.4328306103125215e-05, 8.987358887679875e-05, 0.00013541884254664183, 0.00018096412532031536, 0.0002265094080939889, 0.00027205469086766243, 0.00031759997364133596, 0.00036314522731117904, 0.0004086905100848526, 0.0004542357928585261, 0.0004997810465283692, 0.0005453263293020427, 0.0005908716120757163]}, "gradients/graph_1taskmapper.lins.1.bias": {"_type": "histogram", "values": [1.0, 0.0, 0.0, 0.0, 0.0, 0.0, 0.0, 0.0, 0.0, 0.0, 0.0, 0.0, 0.0, 0.0, 0.0, 0.0, 0.0, 0.0, 0.0, 0.0, 0.0, 0.0, 0.0, 0.0, 0.0, 0.0, 0.0, 0.0, 0.0, 0.0, 0.0, 1.0, 0.0, 0.0, 0.0, 0.0, 0.0, 0.0, 0.0, 0.0, 0.0, 0.0, 0.0, 0.0, 1.0, 0.0, 0.0, 0.0, 0.0, 0.0, 0.0, 0.0, 0.0, 1.0, 2.0, 3.0, 6.0, 0.0, 0.0, 0.0, 0.0, 0.0, 0.0, 1.0], "bins": [-0.001991860568523407, -0.001956769498065114, -0.0019216785440221429, -0.00188658747356385, -0.0018514965195208788, -0.0018164054490625858, -0.0017813143786042929, -0.001746223308146, -0.0017111323541030288, -0.0016760412836447358, -0.0016409503296017647, -0.0016058592591434717, -0.0015707681886851788, -0.0015356772346422076, -0.0015005861641839147, -0.0014654952101409435, -0.0014304041396826506, -0.0013953130692243576, -0.0013602221151813865, -0.0013251310447230935, -0.0012900400906801224, -0.0012549490202218294, -0.0012198579497635365, -0.0011847668793052435, -0.0011496759252622724, -0.0011145848548039794, -0.0010794939007610083, -0.0010444028303027153, -0.0010093117598444223, -0.0009742208058014512, -0.0009391297353431582, -0.0009040387230925262, -0.0008689477690495551, -0.000833856756798923, -0.0007987656863406301, -0.000763674674089998, -0.000728583661839366, -0.0006934926495887339, -0.0006584016373381019, -0.0006233105668798089, -0.0005882195546291769, -0.0005531285423785448, -0.0005180374719202518, -0.0004829464596696198, -0.00044785544741898775, -0.0004127644351683557, -0.0003776733938138932, -0.0003425823524594307, -0.00030749134020879865, -0.0002724003279581666, -0.0002373092866037041, -0.00020221825980115682, -0.00016712723299860954, -0.00013203620619606227, -9.694517939351499e-05, -6.185413803905249e-05, -2.676312578842044e-05, 8.327901014126837e-06, 4.341892781667411e-05, 7.850995461922139e-05, 0.00011360098142176867, 0.00014869200822431594, 0.00018378303502686322, 0.00021887407638132572, 0.00025396508863195777]}, "gradients/graph_1taskmapper.lins.1.weight": {"_type": "histogram", "values": [1.0, 0.0, 0.0, 1.0, 0.0, 0.0, 1.0, 0.0, 0.0, 1.0, 0.0, 0.0, 2.0, 0.0, 2.0, 1.0, 1.0, 1.0, 3.0, 3.0, 0.0, 2.0, 2.0, 1.0, 2.0, 2.0, 3.0, 3.0, 4.0, 2.0, 3.0, 1.0, 4.0, 0.0, 3.0, 6.0, 3.0, 3.0, 8.0, 14.0, 14.0, 17.0, 12.0, 24.0, 181.0, 2.0, 6.0, 4.0, 8.0, 1.0, 4.0, 1.0, 5.0, 2.0, 3.0, 4.0, 4.0, 0.0, 3.0, 1.0, 0.0, 4.0, 0.0, 1.0], "bins": [-0.0010475559392943978, -0.0010240402771160007, -0.0010005247313529253, -0.0009770090691745281, -0.0009534935234114528, -0.0009299778612330556, -0.0009064622572623193, -0.0008829466532915831, -0.0008594310493208468, -0.0008359154453501105, -0.0008123998413793743, -0.000788884237408638, -0.0007653685752302408, -0.0007418529712595046, -0.0007183373672887683, -0.000694821763318032, -0.0006713061593472958, -0.0006477905553765595, -0.0006242749514058232, -0.000600759347435087, -0.0005772437434643507, -0.0005537280812859535, -0.0005302124773152173, -0.000506696873344481, -0.0004831812693737447, -0.00045966566540300846, -0.0004361500614322722, -0.0004126344283577055, -0.0003891188243869692, -0.00036560322041623294, -0.0003420875873416662, -0.00031857198337092996, -0.0002950564376078546, -0.00027154083363711834, -0.0002480252296663821, -0.00022450959659181535, -0.0002009939926210791, -0.00017747838865034282, -0.00015396277012769133, -0.00013044715160503983, -0.00010693154763430357, -8.341593638760969e-05, -5.990032514091581e-05, -3.638471389422193e-05, -1.2869102647528052e-05, 1.0646508599165827e-05, 3.4162119845859706e-05, 5.76777383685112e-05, 8.119334233924747e-05, 0.00010470895358594134, 0.00012822456483263522, 0.00015174018335528672, 0.00017525578732602298, 0.00019877139129675925, 0.00022228700981941074, 0.00024580262834206223, 0.0002693182323127985, 0.00029283383628353477, 0.00031634944025427103, 0.00033986507332883775, 0.000363380677299574, 0.0003868962812703103, 0.000410411914344877, 0.00043392751831561327, 0.00045744312228634953]}, "gradients/graph_1taskmapper.lins.0.bias": {"_type": "histogram", "values": [1.0, 0.0, 0.0, 0.0, 0.0, 1.0, 0.0, 0.0, 0.0, 0.0, 0.0, 0.0, 0.0, 0.0, 0.0, 0.0, 0.0, 0.0, 0.0, 0.0, 0.0, 0.0, 1.0, 0.0, 0.0, 0.0, 0.0, 1.0, 0.0, 1.0, 0.0, 0.0, 0.0, 0.0, 1.0, 0.0, 1.0, 2.0, 0.0, 1.0, 2.0, 1.0, 2.0, 3.0, 0.0, 0.0, 1.0, 0.0, 2.0, 0.0, 0.0, 0.0, 0.0, 0.0, 0.0, 0.0, 2.0, 0.0, 0.0, 0.0, 0.0, 0.0, 0.0, 1.0], "bins": [-0.003532255766913295, -0.0034425188787281513, -0.003352781990543008, -0.0032630451023578644, -0.0031733084470033646, -0.003083571558818221, -0.0029938346706330776, -0.002904097782447934, -0.0028143608942627907, -0.002724624006077647, -0.0026348871178925037, -0.002545150462538004, -0.0024554135743528605, -0.002365676686167717, -0.0022759397979825735, -0.00218620290979743, -0.0020964662544429302, -0.0020067293662577868, -0.001916992594487965, -0.0018272557063028216, -0.001737518934533, -0.0016477820463478565, -0.001558045158162713, -0.0014683082699775696, -0.001378571498207748, -0.0012888346100226045, -0.0011990978382527828, -0.0011093609500676394, -0.0010196240618824959, -0.0009298872901126742, -0.0008401504019275308, -0.0007504135719500482, -0.0006606769748032093, -0.0005709401448257267, -0.00048120328574441373, -0.0003914664266631007, -0.00030172959668561816, -0.0002119927667081356, -0.00012225587852299213, -3.251904854550958e-05, 5.721778143197298e-05, 0.00014695462596137077, 0.00023669147049076855, 0.00032642832957208157, 0.0004161651595495641, 0.0005059019895270467, 0.0005956388777121902, 0.0006853757076896727, 0.0007751125376671553, 0.0008648493676446378, 0.0009545861976221204, 0.0010443230858072639, 0.0011340598575770855, 0.001223796745762229, 0.0013135336339473724, 0.001403270522132516, 0.0014930072939023376, 0.001582744182087481, 0.0016724809538573027, 0.0017622178420424461, 0.0018519547302275896, 0.0019416915019974113, 0.002031428273767233, 0.0021211651619523764, 0.00221090205013752]}, "gradients/graph_1taskmapper.lins.0.weight": {"_type": "histogram", "values": [1.0, 0.0, 0.0, 0.0, 0.0, 0.0, 0.0, 1.0, 1.0, 1.0, 2.0, 3.0, 3.0, 3.0, 5.0, 2.0, 6.0, 11.0, 14.0, 13.0, 17.0, 26.0, 26.0, 36.0, 56.0, 54.0, 89.0, 132.0, 82.0, 49.0, 30.0, 21.0, 18.0, 20.0, 11.0, 6.0, 7.0, 3.0, 1.0, 2.0, 3.0, 2.0, 1.0, 0.0, 1.0, 1.0, 3.0, 2.0, 1.0, 0.0, 0.0, 0.0, 1.0, 0.0, 0.0, 0.0, 0.0, 0.0, 0.0, 0.0, 0.0, 0.0, 0.0, 1.0], "bins": [-0.0015512323006987572, -0.001494723604992032, -0.001438214909285307, -0.0013817062135785818, -0.0013251975178718567, -0.0012686888221651316, -0.0012121801264584064, -0.0011556714307516813, -0.0010991627350449562, -0.001042654039338231, -0.000986145343631506, -0.0009296366479247808, -0.0008731279522180557, -0.0008166192565113306, -0.0007601105608046055, -0.0007036018650978804, -0.0006470931693911552, -0.0005905844736844301, -0.000534075777977705, -0.0004775670822709799, -0.00042105838656425476, -0.00036454969085752964, -0.0003080409951508045, -0.0002515322994440794, -0.00019502360373735428, -0.00013851490803062916, -8.200621232390404e-05, -2.5497516617178917e-05, 3.1011179089546204e-05, 8.751987479627132e-05, 0.00014402857050299644, 0.00020053726620972157, 0.0002570459619164467, 0.0003135546576231718, 0.0003700633533298969, 0.00042657204903662205, 0.00048308074474334717, 0.0005395894404500723, 0.0005960981361567974, 0.0006526068318635225, 0.0007091155275702477, 0.0007656242232769728, 0.0008221329189836979, 0.000878641614690423, 0.0009351503103971481, 0.0009916590061038733, 0.0010481677018105984, 0.0011046763975173235, 0.0011611850932240486, 0.0012176937889307737, 0.0012742024846374989, 0.001330711180344224, 0.001387219876050949, 0.0014437285717576742, 0.0015002372674643993, 0.0015567459631711245, 0.0016132546588778496, 0.0016697633545845747, 0.0017262720502912998, 0.001782780745998025, 0.00183928944170475, 0.0018957981374114752, 0.0019523068331182003, 0.0020088155288249254, 0.0020653242245316505]}, "gradients/graph_1_projector.0.bias": {"_type": "histogram", "values": [1.0, 0.0, 1.0, 0.0, 0.0, 0.0, 0.0, 0.0, 0.0, 0.0, 0.0, 0.0, 0.0, 0.0, 0.0, 1.0, 0.0, 1.0, 1.0, 0.0, 0.0, 0.0, 1.0, 1.0, 0.0, 1.0, 1.0, 1.0, 2.0, 0.0, 2.0, 0.0, 1.0, 1.0, 1.0, 0.0, 1.0, 0.0, 0.0, 0.0, 1.0, 1.0, 1.0, 0.0, 0.0, 0.0, 2.0, 1.0, 0.0, 0.0, 0.0, 0.0, 0.0, 1.0, 1.0, 1.0, 0.0, 1.0, 2.0, 0.0, 0.0, 0.0, 1.0, 1.0], "bins": [-0.032846953719854355, -0.03178618103265762, -0.030725404620170593, -0.02966463193297386, -0.02860385738313198, -0.0275430828332901, -0.02648231014609337, -0.025421535596251488, -0.024360761046409607, -0.023299986496567726, -0.022239211946725845, -0.021178439259529114, -0.020117664709687233, -0.019056890159845352, -0.01799611747264862, -0.01693534292280674, -0.01587456837296486, -0.014813793823122978, -0.013753020204603672, -0.012692246586084366, -0.011631472036242485, -0.010570697486400604, -0.009509923867881298, -0.008449150249361992, -0.007388375699520111, -0.006327601615339518, -0.005266827531158924, -0.004206053446978331, -0.003145279362797737, -0.0020845052786171436, -0.0010237311944365501, 3.704288974404335e-05, 0.0010978132486343384, 0.002158587332814932, 0.0032193614169955254, 0.004280135501176119, 0.005340909585356712, 0.006401683669537306, 0.007462457753717899, 0.008523231372237206, 0.009584005922079086, 0.010644780471920967, 0.011705554090440273, 0.01276632770895958, 0.01382710225880146, 0.014887876808643341, 0.015948649495840073, 0.017009424045681953, 0.018070198595523834, 0.019130973145365715, 0.020191747695207596, 0.021252520382404327, 0.022313294932246208, 0.02337406948208809, 0.02443484216928482, 0.0254956167191267, 0.026556391268968582, 0.027617165818810463, 0.028677940368652344, 0.029738713055849075, 0.030799487605690956, 0.03186026215553284, 0.03292103484272957, 0.0339818112552166, 0.03504258394241333]}, "gradients/graph_1_projector.0.weight": {"_type": "histogram", "values": [2.0, 0.0, 0.0, 0.0, 2.0, 2.0, 3.0, 2.0, 2.0, 2.0, 6.0, 7.0, 10.0, 12.0, 23.0, 30.0, 42.0, 53.0, 65.0, 80.0, 108.0, 119.0, 150.0, 195.0, 230.0, 317.0, 348.0, 366.0, 469.0, 436.0, 507.0, 558.0, 481.0, 481.0, 444.0, 445.0, 427.0, 314.0, 282.0, 231.0, 190.0, 179.0, 121.0, 112.0, 67.0, 67.0, 57.0, 42.0, 23.0, 29.0, 12.0, 13.0, 9.0, 4.0, 5.0, 2.0, 2.0, 2.0, 1.0, 2.0, 0.0, 0.0, 1.0, 1.0], "bins": [-0.0357176698744297, -0.03459914028644562, -0.03348061069846153, -0.03236208111047745, -0.031243551522493362, -0.030125021934509277, -0.029006492346525192, -0.027887962758541107, -0.026769433170557022, -0.025650903582572937, -0.024532373994588852, -0.023413844406604767, -0.022295314818620682, -0.021176785230636597, -0.02005825564265251, -0.018939726054668427, -0.01782119646668434, -0.016702666878700256, -0.015584137290716171, -0.014465607702732086, -0.013347078114748001, -0.012228548526763916, -0.011110018938779831, -0.009991489350795746, -0.00887295976281166, -0.007754430174827576, -0.006635900586843491, -0.0055173709988594055, -0.0043988414108753204, -0.0032803118228912354, -0.0021617822349071503, -0.0010432526469230652, 7.528066635131836e-05, 0.0011938102543354034, 0.0023123398423194885, 0.0034308694303035736, 0.004549399018287659, 0.005667928606271744, 0.006786458194255829, 0.007904987782239914, 0.009023517370223999, 0.010142046958208084, 0.01126057654619217, 0.012379106134176254, 0.01349763572216034, 0.014616165310144424, 0.01573469489812851, 0.016853224486112595, 0.01797175407409668, 0.019090283662080765, 0.02020881325006485, 0.021327342838048935, 0.02244587242603302, 0.023564402014017105, 0.02468293160200119, 0.025801461189985275, 0.02691999077796936, 0.028038520365953445, 0.02915704995393753, 0.030275579541921616, 0.0313941091299057, 0.032512638717889786, 0.03363116830587387, 0.034749697893857956, 0.03586822748184204]}, "gradients/graph_1_encoder.encoder.8.bias": {"_type": "histogram", "values": [1.0, 0.0, 0.0, 0.0, 0.0, 0.0, 0.0, 2.0, 0.0, 1.0, 4.0, 2.0, 0.0, 3.0, 2.0, 2.0, 1.0, 4.0, 4.0, 1.0, 7.0, 0.0, 4.0, 3.0, 6.0, 5.0, 7.0, 4.0, 8.0, 11.0, 3.0, 11.0, 14.0, 6.0, 7.0, 4.0, 5.0, 8.0, 9.0, 8.0, 7.0, 7.0, 8.0, 6.0, 8.0, 5.0, 5.0, 6.0, 2.0, 5.0, 8.0, 3.0, 6.0, 4.0, 2.0, 2.0, 2.0, 2.0, 3.0, 4.0, 2.0, 0.0, 0.0, 2.0], "bins": [-0.012988881208002567, -0.012633876875042915, -0.012278872542083263, -0.011923868209123611, -0.01156886387616396, -0.011213859543204308, -0.010858855210244656, -0.010503850877285004, -0.010148846544325352, -0.0097938422113657, -0.009438837878406048, -0.009083833545446396, -0.008728829212486744, -0.008373824879527092, -0.00801882054656744, -0.007663816213607788, -0.0073088123463094234, -0.0069538080133497715, -0.0065988036803901196, -0.006243799347430468, -0.005888795014470816, -0.005533790681511164, -0.005178786814212799, -0.004823782481253147, -0.004468778148293495, -0.004113773815333843, -0.0037587694823741913, -0.0034037651494145393, -0.0030487608164548874, -0.0026937564834952354, -0.002338752383366227, -0.001983748050406575, -0.0016287434846162796, -0.0012737391516566277, -0.0009187348769046366, -0.0005637306021526456, -0.00020872626919299364, 0.0001462780637666583, 0.0005012822803109884, 0.0008562866132706404, 0.0012112909462302923, 0.0015662952791899443, 0.0019212996121495962, 0.0022763037122786045, 0.0026313080452382565, 0.0029863123781979084, 0.0033413167111575603, 0.0036963210441172123, 0.004051325377076864, 0.004406329710036516, 0.004761334042996168, 0.00511633837595582, 0.005471342708915472, 0.005826347041875124, 0.006181350909173489, 0.0065363552421331406, 0.0068913595750927925, 0.0072463639080524445, 0.007601368241012096, 0.007956372573971748, 0.0083113769069314, 0.008666381239891052, 0.009021385572850704, 0.009376389905810356, 0.009731394238770008]}, "gradients/graph_1_encoder.encoder.8.weight": {"_type": "histogram", "values": [3.0, 0.0, 1.0, 3.0, 2.0, 4.0, 2.0, 3.0, 4.0, 15.0, 13.0, 12.0, 22.0, 29.0, 43.0, 70.0, 78.0, 103.0, 155.0, 194.0, 276.0, 428.0, 561.0, 809.0, 1095.0, 1442.0, 1871.0, 2631.0, 3627.0, 4489.0, 5619.0, 6670.0, 6962.0, 6393.0, 5238.0, 4160.0, 3350.0, 2396.0, 1867.0, 1336.0, 1002.0, 705.0, 498.0, 366.0, 310.0, 195.0, 137.0, 109.0, 72.0, 41.0, 26.0, 29.0, 22.0, 12.0, 8.0, 8.0, 3.0, 6.0, 5.0, 1.0, 3.0, 0.0, 1.0, 1.0], "bins": [-0.02221345715224743, -0.021527191624045372, -0.020840926095843315, -0.02015465870499611, -0.019468393176794052, -0.018782127648591995, -0.01809586212038994, -0.01740959659218788, -0.016723331063985825, -0.016037065535783768, -0.015350799076259136, -0.01466453354805708, -0.013978267088532448, -0.013292001560330391, -0.012605736032128334, -0.011919470503926277, -0.011233203113079071, -0.010546937584877014, -0.009860671125352383, -0.009174405597150326, -0.008488139137625694, -0.007801873609423637, -0.0071156080812215805, -0.006429342087358236, -0.005743076093494892, -0.005056810099631548, -0.004370544105768204, -0.003684278577566147, -0.0029980125837028027, -0.0023117465898394585, -0.0016254810616374016, -0.0009392150677740574, -0.0002529509365558624, 0.00043331494089215994, 0.0011195808183401823, 0.0018058465793728828, 0.002492112573236227, 0.0031783785670995712, 0.003864644095301628, 0.004550910089164972, 0.0052371760830283165, 0.005923442076891661, 0.006609708070755005, 0.007295973598957062, 0.007982239127159119, 0.00866850558668375, 0.009354771114885807, 0.010041037574410439, 0.010727303102612495, 0.011413568630814552, 0.012099835090339184, 0.01278610061854124, 0.013472367078065872, 0.014158632606267929, 0.014844898134469986, 0.015531163662672043, 0.0162174291908741, 0.016903694719076157, 0.017589960247278214, 0.01827622577548027, 0.018962493166327477, 0.019648758694529533, 0.02033502422273159, 0.021021289750933647, 0.021707557141780853]}, "gradients/graph_1_encoder.encoder.5.weight": {"_type": "histogram", "values": [1.0, 0.0, 0.0, 0.0, 0.0, 0.0, 0.0, 0.0, 1.0, 0.0, 0.0, 0.0, 0.0, 0.0, 1.0, 0.0, 2.0, 1.0, 1.0, 1.0, 1.0, 1.0, 0.0, 3.0, 0.0, 4.0, 3.0, 3.0, 5.0, 3.0, 4.0, 6.0, 10.0, 10.0, 9.0, 11.0, 14.0, 6.0, 12.0, 8.0, 16.0, 13.0, 13.0, 5.0, 7.0, 13.0, 9.0, 8.0, 6.0, 10.0, 5.0, 2.0, 3.0, 3.0, 6.0, 3.0, 1.0, 3.0, 3.0, 0.0, 4.0, 0.0, 0.0, 2.0], "bins": [-0.010782971046864986, -0.010514822788536549, -0.01024667453020811, -0.009978525340557098, -0.00971037708222866, -0.009442228823900223, -0.009174080565571785, -0.008905932307243347, -0.00863778404891491, -0.008369635790586472, -0.008101487532258034, -0.007833338342607021, -0.0075651900842785835, -0.007297041825950146, -0.007028893567621708, -0.00676074530929327, -0.006492596119642258, -0.00622444786131382, -0.005956299137324095, -0.005688150878995657, -0.005420002155005932, -0.005151853896677494, -0.004883705638349056, -0.0046155573800206184, -0.004347408656030893, -0.0040792603977024555, -0.0038111116737127304, -0.0035429634153842926, -0.003274814924225211, -0.0030066664330661297, -0.002738518174737692, -0.0024703696835786104, -0.0022022221237421036, -0.0019340736325830221, -0.0016659252578392625, -0.0013977768830955029, -0.0011296283919364214, -0.0008614799007773399, -0.0005933315260335803, -0.00032518315128982067, -5.703466013073921e-05, 0.00021111377282068133, 0.0004792622057721019, 0.0007474106387235224, 0.001015559071674943, 0.0012837075628340244, 0.001551855937577784, 0.0018200043123215437, 0.002088152803480625, 0.0023563012946397066, 0.002624449785798788, 0.002892598044127226, 0.0031607465352863073, 0.003428895026445389, 0.0036970432847738266, 0.003965191543102264, 0.0042333402670919895, 0.004501488525420427, 0.0047696372494101524, 0.00503778550773859, 0.005305933766067028, 0.005574082490056753, 0.005842230748385191, 0.006110379472374916, 0.006378527730703354]}, "gradients/graph_1_encoder.encoder.5.bias": {"_type": "histogram", "values": [1.0, 0.0, 0.0, 0.0, 0.0, 0.0, 0.0, 1.0, 0.0, 0.0, 0.0, 0.0, 2.0, 1.0, 2.0, 4.0, 1.0, 3.0, 1.0, 4.0, 6.0, 3.0, 10.0, 8.0, 8.0, 8.0, 4.0, 15.0, 11.0, 10.0, 11.0, 17.0, 11.0, 15.0, 12.0, 14.0, 17.0, 7.0, 7.0, 10.0, 3.0, 9.0, 5.0, 5.0, 1.0, 3.0, 2.0, 0.0, 0.0, 1.0, 0.0, 1.0, 1.0, 0.0, 0.0, 0.0, 0.0, 0.0, 0.0, 0.0, 0.0, 0.0, 0.0, 1.0], "bins": [-0.012892529368400574, -0.012470632791519165, -0.012048737145960331, -0.011626840569078922, -0.011204943992197514, -0.01078304834663868, -0.01036115176975727, -0.009939255192875862, -0.009517358615994453, -0.009095462039113045, -0.00867356639355421, -0.008251669816672802, -0.007829773239791393, -0.007407877128571272, -0.0069859810173511505, -0.006564084440469742, -0.006142188794910908, -0.005720292683690786, -0.005298396106809378, -0.004876499995589256, -0.004454603418707848, -0.004032707307487726, -0.003610811196267605, -0.00318891485221684, -0.0027670185081660748, -0.0023451221641153097, -0.0019232259364798665, -0.0015013297088444233, -0.0010794333647936583, -0.0006575370207428932, -0.00023564090952277184, 0.0001862554345279932, 0.0006081517785787582, 0.0010300481226295233, 0.0014519443502649665, 0.0018738405779004097, 0.0022957369219511747, 0.0027176332660019398, 0.003139529377222061, 0.003561425721272826, 0.003983322065323591, 0.004405218176543713, 0.004827114753425121, 0.005249010864645243, 0.005670906975865364, 0.006092803552746773, 0.006514699663966894, 0.0069365957751870155, 0.007358492352068424, 0.007780388463288546, 0.008202284574508667, 0.008624181151390076, 0.009046077728271484, 0.009467974305152893, 0.009889869950711727, 0.010311766527593136, 0.01073366217315197, 0.011155558750033379, 0.011577454395592213, 0.011999350972473621, 0.01242124754935503, 0.012843143194913864, 0.013265039771795273, 0.013686936348676682, 0.01410883292555809]}, "gradients/graph_1_encoder.encoder.4.bias": {"_type": "histogram", "values": [1.0, 0.0, 0.0, 0.0, 0.0, 0.0, 0.0, 0.0, 1.0, 1.0, 1.0, 3.0, 2.0, 1.0, 2.0, 2.0, 0.0, 2.0, 0.0, 8.0, 1.0, 3.0, 9.0, 8.0, 5.0, 7.0, 6.0, 16.0, 11.0, 10.0, 11.0, 12.0, 17.0, 13.0, 13.0, 11.0, 12.0, 5.0, 5.0, 6.0, 5.0, 3.0, 5.0, 3.0, 4.0, 6.0, 2.0, 1.0, 2.0, 4.0, 2.0, 3.0, 2.0, 4.0, 0.0, 0.0, 0.0, 0.0, 0.0, 2.0, 0.0, 1.0, 1.0, 1.0], "bins": [-4.016328603029251e-09, -3.893546818289906e-09, -3.7707650335505605e-09, -3.647983248811215e-09, -3.52520146407187e-09, -3.4024196793325245e-09, -3.2796378945931792e-09, -3.156856109853834e-09, -3.0340743251144886e-09, -2.9112925403751433e-09, -2.788510755635798e-09, -2.6657289708964527e-09, -2.5429471861571074e-09, -2.420165401417762e-09, -2.2973836166784167e-09, -2.1746018319390714e-09, -2.051820047199726e-09, -1.9290382624603808e-09, -1.8062564777210355e-09, -1.6834746929816902e-09, -1.5606929082423449e-09, -1.4379111235029995e-09, -1.3151293387636542e-09, -1.192347554024309e-09, -1.0695657692849636e-09, -9.467839845456183e-10, -8.24002199806273e-10, -7.012204150669277e-10, -5.784386303275824e-10, -4.5565684558823705e-10, -3.3287506084889174e-10, -2.1009327610954642e-10, -8.731149137020111e-11, 3.54702933691442e-11, 1.5825207810848951e-10, 2.810338628478348e-10, 4.0381564758718014e-10, 5.265974323265254e-10, 6.493792170658708e-10, 7.721610018052161e-10, 8.949427865445614e-10, 1.0177245712839067e-09, 1.140506356023252e-09, 1.2632881407625973e-09, 1.3860699255019426e-09, 1.508851710241288e-09, 1.6316334949806333e-09, 1.7544152797199786e-09, 1.877197064459324e-09, 1.999978849198669e-09, 2.1227606339380145e-09, 2.24554241867736e-09, 2.368324203416705e-09, 2.4911059881560504e-09, 2.6138877728953958e-09, 2.736669557634741e-09, 2.8594513423740864e-09, 2.9822331271134317e-09, 3.105014911852777e-09, 3.2277966965921223e-09, 3.3505784813314676e-09, 3.473360266070813e-09, 3.5961420508101583e-09, 3.7189238355495036e-09, 3.841705620288849e-09]}, "gradients/graph_1_encoder.encoder.4.weight": {"_type": "histogram", "values": [1.0, 0.0, 2.0, 0.0, 0.0, 0.0, 0.0, 0.0, 1.0, 1.0, 2.0, 2.0, 4.0, 8.0, 15.0, 14.0, 17.0, 20.0, 24.0, 33.0, 54.0, 69.0, 98.0, 131.0, 189.0, 285.0, 379.0, 549.0, 792.0, 1043.0, 1467.0, 1968.0, 2799.0, 3686.0, 4907.0, 5963.0, 6566.0, 6747.0, 6165.0, 5408.0, 4247.0, 3377.0, 2466.0, 1736.0, 1278.0, 949.0, 637.0, 419.0, 286.0, 222.0, 152.0, 100.0, 77.0, 62.0, 36.0, 25.0, 13.0, 15.0, 7.0, 3.0, 6.0, 6.0, 5.0, 3.0], "bins": [-0.03922086954116821, -0.038167983293533325, -0.037115100771188736, -0.03606221452355385, -0.03500932827591896, -0.03395644202828407, -0.032903559505939484, -0.031850673258304596, -0.030797787010669708, -0.02974490262567997, -0.028692016378045082, -0.027639131993055344, -0.026586245745420456, -0.025533361360430717, -0.02448047697544098, -0.02342759072780609, -0.022374706342816353, -0.021321821957826614, -0.020268935710191727, -0.019216051325201988, -0.0181631650775671, -0.017110280692577362, -0.016057394444942474, -0.015004510059952736, -0.013951624743640423, -0.01289873942732811, -0.011845854111015797, -0.010792968794703484, -0.009740084409713745, -0.008687198162078857, -0.007634313777089119, -0.006581428460776806, -0.005528543144464493, -0.00447565782815218, -0.0034227727446705103, -0.002369887661188841, -0.0013170023448765278, -0.0002641170285642147, 0.0007887678220868111, 0.0018416531383991241, 0.0028945384547114372, 0.00394742377102375, 0.005000309087336063, 0.006053193937987089, 0.007106079254299402, 0.008158965036273003, 0.009211849421262741, 0.010264734737575054, 0.011317620053887367, 0.01237050537019968, 0.013423390686511993, 0.014476275071501732, 0.01552916131913662, 0.016582045704126358, 0.017634931951761246, 0.018687816336750984, 0.019740700721740723, 0.02079358510673046, 0.02184647135436535, 0.022899355739355087, 0.023952241986989975, 0.025005126371979713, 0.026058010756969452, 0.02711089700460434, 0.028163783252239227]}, "gradients/graph_1_encoder.encoder.1.weight": {"_type": "histogram", "values": [1.0, 0.0, 0.0, 0.0, 0.0, 0.0, 1.0, 0.0, 0.0, 1.0, 0.0, 4.0, 5.0, 4.0, 2.0, 3.0, 9.0, 5.0, 0.0, 2.0, 5.0, 5.0, 7.0, 3.0, 9.0, 14.0, 7.0, 16.0, 8.0, 9.0, 12.0, 10.0, 11.0, 6.0, 9.0, 11.0, 6.0, 13.0, 8.0, 8.0, 4.0, 5.0, 8.0, 5.0, 3.0, 3.0, 1.0, 5.0, 0.0, 2.0, 0.0, 1.0, 0.0, 1.0, 0.0, 0.0, 0.0, 0.0, 0.0, 1.0, 2.0, 0.0, 0.0, 1.0], "bins": [-0.009266804903745651, -0.008965197950601578, -0.008663590997457504, -0.00836198404431343, -0.008060377091169357, -0.007758770138025284, -0.00745716318488121, -0.007155556231737137, -0.006853949278593063, -0.00655234232544899, -0.006250735372304916, -0.005949128419160843, -0.005647521466016769, -0.005345914512872696, -0.0050443075597286224, -0.004742700606584549, -0.0044410936534404755, -0.004139486700296402, -0.0038378797471523285, -0.003536272794008255, -0.0032346658408641815, -0.002933058887720108, -0.0026314519345760345, -0.002329844981431961, -0.0020282380282878876, -0.001726631075143814, -0.0014250241219997406, -0.0011234171688556671, -0.0008218102157115936, -0.0005202032625675201, -0.00021859630942344666, 8.301064372062683e-05, 0.00038461852818727493, 0.0006862254813313484, 0.000987832434475422, 0.0012894393876194954, 0.0015910463407635689, 0.0018926532939076424, 0.002194260247051716, 0.0024958672001957893, 0.002797474153339863, 0.0030990811064839363, 0.00340068805962801, 0.0037022950127720833, 0.004003901965916157, 0.00430550891906023, 0.004607115872204304, 0.004908722825348377, 0.005210329778492451, 0.005511936731636524, 0.005813543684780598, 0.006115150637924671, 0.006416757591068745, 0.006718364544212818, 0.007019971497356892, 0.007321578450500965, 0.007623185403645039, 0.007924792356789112, 0.008226399309933186, 0.008528006263077259, 0.008829613216221333, 0.009131220169365406, 0.00943282712250948, 0.009734434075653553, 0.010036041028797626]}, "gradients/graph_1_encoder.encoder.1.bias": {"_type": "histogram", "values": [1.0, 0.0, 0.0, 0.0, 1.0, 0.0, 0.0, 1.0, 0.0, 0.0, 0.0, 3.0, 0.0, 1.0, 1.0, 2.0, 1.0, 4.0, 2.0, 4.0, 2.0, 6.0, 5.0, 2.0, 5.0, 10.0, 8.0, 5.0, 10.0, 7.0, 6.0, 13.0, 12.0, 12.0, 7.0, 8.0, 8.0, 10.0, 7.0, 5.0, 8.0, 11.0, 6.0, 6.0, 5.0, 2.0, 8.0, 6.0, 8.0, 1.0, 3.0, 4.0, 4.0, 2.0, 3.0, 3.0, 1.0, 1.0, 1.0, 1.0, 0.0, 0.0, 0.0, 3.0], "bins": [-0.012818126007914543, -0.01243506744503975, -0.012052008882164955, -0.011668949387967587, -0.011285890825092793, -0.010902832262217999, -0.01051977276802063, -0.010136714205145836, -0.009753655642271042, -0.009370597079396248, -0.008987538516521454, -0.008604479022324085, -0.008221420459449291, -0.007838361896574497, -0.007455302868038416, -0.007072243839502335, -0.006689185276627541, -0.006306126713752747, -0.005923067685216665, -0.005540008656680584, -0.00515695009380579, -0.004773891530930996, -0.004390832502394915, -0.004007773473858833, -0.0036247149109840393, -0.0032416561152786016, -0.002858597319573164, -0.0024755385238677263, -0.0020924797281622887, -0.001709420932456851, -0.0013263621367514133, -0.0009433033410459757, -0.0005602454766631126, -0.00017718668095767498, 0.00020587211474776268, 0.0005889309104532003, 0.000971989706158638, 0.0013550485018640757, 0.0017381072975695133, 0.002121166093274951, 0.0025042248889803886, 0.0028872836846858263, 0.003270342480391264, 0.0036534012760967016, 0.004036460071802139, 0.004419518634676933, 0.004802577663213015, 0.005185636691749096, 0.00556869525462389, 0.005951753817498684, 0.006334812846034765, 0.0067178718745708466, 0.0071009304374456406, 0.007483989000320435, 0.007867047563195229, 0.008250107057392597, 0.008633165620267391, 0.009016224183142185, 0.009399283677339554, 0.009782342240214348, 0.010165400803089142, 0.010548459365963936, 0.01093151792883873, 0.011314577423036098, 0.011697635985910892]}, "gradients/graph_1_encoder.encoder.0.bias": {"_type": "histogram", "values": [2.0, 1.0, 0.0, 0.0, 0.0, 1.0, 1.0, 1.0, 4.0, 1.0, 6.0, 2.0, 4.0, 7.0, 3.0, 12.0, 8.0, 8.0, 6.0, 6.0, 13.0, 12.0, 7.0, 13.0, 12.0, 13.0, 12.0, 9.0, 13.0, 16.0, 7.0, 12.0, 4.0, 10.0, 7.0, 6.0, 4.0, 2.0, 0.0, 2.0, 1.0, 1.0, 1.0, 1.0, 1.0, 1.0, 0.0, 1.0, 0.0, 0.0, 1.0, 0.0, 0.0, 0.0, 0.0, 0.0, 0.0, 0.0, 0.0, 0.0, 0.0, 0.0, 0.0, 1.0], "bins": [-2.942979335784912e-07, -2.8224894776940346e-07, -2.701999619603157e-07, -2.5815097615122795e-07, -2.461019903421402e-07, -2.3405300453305244e-07, -2.220040187239647e-07, -2.0995503291487694e-07, -1.9790604710578918e-07, -1.8585706129670143e-07, -1.7380807548761368e-07, -1.6175908967852592e-07, -1.4971010386943817e-07, -1.3766111806035042e-07, -1.2561213225126266e-07, -1.1356314644217491e-07, -1.0151416063308716e-07, -8.94651748239994e-08, -7.741618901491165e-08, -6.53672032058239e-08, -5.3318217396736145e-08, -4.126923158764839e-08, -2.922024577856064e-08, -1.7171259969472885e-08, -5.122274160385132e-09, 6.9267116487026215e-09, 1.8975697457790375e-08, 3.102468326687813e-08, 4.307366907596588e-08, 5.5122654885053635e-08, 6.717164069414139e-08, 7.922062650322914e-08, 9.12696123123169e-08, 1.0331859812140465e-07, 1.153675839304924e-07, 1.2741656973958015e-07, 1.394655555486679e-07, 1.5151454135775566e-07, 1.6356352716684341e-07, 1.7561251297593117e-07, 1.8766149878501892e-07, 1.9971048459410667e-07, 2.1175947040319443e-07, 2.2380845621228218e-07, 2.3585744202136993e-07, 2.479064278304577e-07, 2.5995541363954544e-07, 2.720043994486332e-07, 2.8405338525772095e-07, 2.961023710668087e-07, 3.0815135687589645e-07, 3.202003426849842e-07, 3.3224932849407196e-07, 3.442983143031597e-07, 3.5634730011224747e-07, 3.683962859213352e-07, 3.80445271730423e-07, 3.9249425753951073e-07, 4.045432433485985e-07, 4.1659222915768623e-07, 4.28641214966774e-07, 4.4069020077586174e-07, 4.527391865849495e-07, 4.6478817239403725e-07, 4.76837158203125e-07]}, "gradients/graph_1_encoder.encoder.0.weight": {"_type": "histogram", "values": [1.0, 1.0, 3.0, 3.0, 3.0, 4.0, 8.0, 12.0, 14.0, 20.0, 25.0, 23.0, 35.0, 58.0, 105.0, 101.0, 156.0, 198.0, 314.0, 523.0, 741.0, 1295.0, 2081.0, 3487.0, 6026.0, 10559.0, 18044.0, 30158.0, 45626.0, 41889.0, 26731.0, 15236.0, 8560.0, 4806.0, 2756.0, 1603.0, 985.0, 673.0, 444.0, 266.0, 198.0, 128.0, 95.0, 70.0, 56.0, 37.0, 28.0, 22.0, 12.0, 11.0, 8.0, 2.0, 2.0, 3.0, 2.0, 3.0, 2.0, 2.0, 0.0, 0.0, 1.0, 0.0, 0.0, 1.0], "bins": [-0.06415523588657379, -0.061926648020744324, -0.05969805642962456, -0.05746946856379509, -0.055240876972675323, -0.053012289106845856, -0.05078370124101639, -0.04855510964989662, -0.046326518058776855, -0.04409793019294739, -0.04186933860182762, -0.039640750735998154, -0.03741215914487839, -0.03518357127904892, -0.03295498341321945, -0.030726391822099686, -0.028497803956270218, -0.0262692142277956, -0.024040624499320984, -0.021812036633491516, -0.01958344504237175, -0.017354857176542282, -0.015126267448067665, -0.012897677719593048, -0.010669087991118431, -0.008440498262643814, -0.006211908999830484, -0.003983319737017155, -0.0017547300085425377, 0.0004738597199320793, 0.0027024485170841217, 0.004931038245558739, 0.007159627974033356, 0.009388217702507973, 0.01161680743098259, 0.013845396228134632, 0.016073986887931824, 0.01830257475376129, 0.02053116448223591, 0.022759754210710526, 0.024988343939185143, 0.02721693366765976, 0.029445523396134377, 0.031674113124608994, 0.03390270099043846, 0.03613129258155823, 0.038359880447387695, 0.04058846831321716, 0.04281705990433693, 0.0450456477701664, 0.04727423936128616, 0.04950282722711563, 0.0517314188182354, 0.053960006684064865, 0.05618859827518463, 0.0584171861410141, 0.06064577400684357, 0.06287436187267303, 0.0651029497385025, 0.06733154505491257, 0.06956013292074203, 0.0717887207865715, 0.07401730865240097, 0.07624590396881104, 0.0784744918346405]}, "_wandb": {"runtime": 347}}