{"train_loss": 0.027992751449346542, "train_ssl_loss": 0.02582273818552494, "train_tsk_loss": 0.00217001442797482, "test_loss": 0.5410814881324768, "test_ssl_loss": 0.531257688999176, "test_tsk_loss": 0.009823814034461975, "_timestamp": 1697559542.0735395, "_runtime": 936.9646193981171, "_step": 499, "gradients/graph_1taskmapper.out.bias": {"_type": "histogram", "values": [0.0, 0.0, 0.0, 0.0, 0.0, 0.0, 0.0, 0.0, 0.0, 0.0, 0.0, 0.0, 0.0, 0.0, 0.0, 0.0, 0.0, 0.0, 0.0, 0.0, 0.0, 0.0, 0.0, 0.0, 0.0, 0.0, 0.0, 0.0, 0.0, 0.0, 0.0, 0.0, 1.0, 0.0, 0.0, 0.0, 0.0, 0.0, 0.0, 0.0, 0.0, 0.0, 0.0, 0.0, 0.0, 0.0, 0.0, 0.0, 0.0, 0.0, 0.0, 0.0, 0.0, 0.0, 0.0, 0.0, 0.0, 0.0, 0.0, 0.0, 0.0, 0.0, 0.0, 0.0], "bins": [0.01048202719539404, 0.01048202719539404, 0.01048202719539404, 0.01048202719539404, 0.01048202719539404, 0.01048202719539404, 0.01048202719539404, 0.01048202719539404, 0.01048202719539404, 0.01048202719539404, 0.01048202719539404, 0.01048202719539404, 0.01048202719539404, 0.01048202719539404, 0.01048202719539404, 0.01048202719539404, 0.01048202719539404, 0.01048202719539404, 0.01048202719539404, 0.01048202719539404, 0.01048202719539404, 0.01048202719539404, 0.01048202719539404, 0.01048202719539404, 0.01048202719539404, 0.01048202719539404, 0.01048202719539404, 0.01048202719539404, 0.01048202719539404, 0.01048202719539404, 0.01048202719539404, 0.01048202719539404, 0.01048202719539404, 0.01048202719539404, 0.01048202719539404, 0.01048202719539404, 0.01048202719539404, 0.01048202719539404, 0.01048202719539404, 0.01048202719539404, 0.01048202719539404, 0.01048202719539404, 0.01048202719539404, 0.01048202719539404, 0.01048202719539404, 0.01048202719539404, 0.01048202719539404, 0.01048202719539404, 0.01048202719539404, 0.01048202719539404, 0.01048202719539404, 0.01048202719539404, 0.01048202719539404, 0.01048202719539404, 0.01048202719539404, 0.01048202719539404, 0.01048202719539404, 0.01048202719539404, 0.01048202719539404, 0.01048202719539404, 0.01048202719539404, 0.01048202719539404, 0.01048202719539404, 0.01048202719539404, 0.01048202719539404]}, "gradients/graph_1taskmapper.out.weight": {"_type": "histogram", "values": [1.0, 0.0, 0.0, 6.0, 0.0, 1.0, 0.0, 0.0, 0.0, 0.0, 0.0, 0.0, 1.0, 0.0, 0.0, 0.0, 0.0, 0.0, 1.0, 0.0, 0.0, 0.0, 0.0, 0.0, 0.0, 0.0, 0.0, 0.0, 0.0, 0.0, 0.0, 0.0, 0.0, 0.0, 0.0, 0.0, 0.0, 0.0, 0.0, 0.0, 0.0, 1.0, 0.0, 0.0, 0.0, 0.0, 0.0, 0.0, 1.0, 0.0, 0.0, 0.0, 0.0, 0.0, 0.0, 0.0, 0.0, 0.0, 1.0, 0.0, 0.0, 2.0, 0.0, 1.0], "bins": [-0.0001998566440306604, -0.00014162264415062964, -8.338862971868366e-05, -2.515461528673768e-05, 3.307938459329307e-05, 9.131338447332382e-05, 0.00014954741345718503, 0.00020778141333721578, 0.00026601541321724653, 0.0003242494130972773, 0.00038248341297730803, 0.00044071744196116924, 0.0004989514127373695, 0.0005571854417212307, 0.000615419470705092, 0.0006736534414812922, 0.0007318874704651535, 0.0007901214994490147, 0.000848355470225215, 0.0009065894992090762, 0.0009648235281929374, 0.0010230574989691377, 0.0010812915861606598, 0.00113952555693686, 0.0011977595277130604, 0.0012559934984892607, 0.0013142275856807828, 0.001372461556456983, 0.0014306955272331834, 0.0014889296144247055, 0.0015471635852009058, 0.001605397555977106, 0.0016636315267533064, 0.0017218654975295067, 0.0017800995847210288, 0.001838333555497229, 0.0018965675262734294, 0.0019548016134649515, 0.002013035584241152, 0.002071269555017352, 0.0021295035257935524, 0.0021877374965697527, 0.002245971467345953, 0.002304205670952797, 0.0023624396417289972, 0.0024206736125051975, 0.002478907583281398, 0.002537141554057598, 0.002595375757664442, 0.0026536097284406424, 0.0027118436992168427, 0.0027700779028236866, 0.002828311873599887, 0.002886545844376087, 0.0029447798151522875, 0.0030030137859284878, 0.003061247756704688, 0.0031194817274808884, 0.0031777156982570887, 0.003235949669033289, 0.003294183872640133, 0.003352417843416333, 0.0034106518141925335, 0.003468885784968734, 0.003527119755744934]}, "gradients/graph_1taskmapper.lins.1.bias": {"_type": "histogram", "values": [1.0, 1.0, 0.0, 0.0, 0.0, 0.0, 0.0, 0.0, 0.0, 0.0, 0.0, 0.0, 0.0, 0.0, 0.0, 0.0, 0.0, 0.0, 1.0, 0.0, 0.0, 0.0, 0.0, 5.0, 0.0, 0.0, 0.0, 0.0, 0.0, 0.0, 0.0, 1.0, 0.0, 0.0, 0.0, 0.0, 0.0, 0.0, 1.0, 0.0, 0.0, 0.0, 0.0, 1.0, 1.0, 0.0, 0.0, 0.0, 0.0, 0.0, 0.0, 1.0, 0.0, 0.0, 0.0, 0.0, 1.0, 0.0, 0.0, 0.0, 1.0, 0.0, 0.0, 1.0], "bins": [-0.0025878469459712505, -0.0024784207344055176, -0.0023689945228397846, -0.0022595683112740517, -0.0021501420997083187, -0.0020407158881425858, -0.0019312897929921746, -0.0018218636978417635, -0.0017124374862760305, -0.0016030112747102976, -0.0014935850631445646, -0.0013841588515788317, -0.0012747327564284205, -0.0011653065448626876, -0.0010558803332969546, -0.0009464541799388826, -0.0008370279101654887, -0.0007276016985997558, -0.0006181755452416837, -0.0005087493336759508, -0.00039932315121404827, -0.00028989696875214577, -0.0001804707571864128, -7.104460382834077e-05, 3.838160773739219e-05, 0.00014780779019929469, 0.0002572339726611972, 0.00036666018422693014, 0.00047608636668883264, 0.0005855125491507351, 0.0006949387607164681, 0.0008043649140745401, 0.0009137911256402731, 0.001023217337206006, 0.001132643548771739, 0.001242069760337472, 0.001351495855487883, 0.001460922067053616, 0.001570348278619349, 0.0016797743737697601, 0.001789200585335493, 0.001898626796901226, 0.002008053008466959, 0.002117479220032692, 0.002226905431598425, 0.002336331643164158, 0.002445757854729891, 0.00255518383346498, 0.0026646102778613567, 0.0027740364894270897, 0.0028834627009928226, 0.0029928889125585556, 0.0031023151241242886, 0.0032117413356900215, 0.0033211675472557545, 0.0034305935259908438, 0.0035400197375565767, 0.0036494459491223097, 0.0037588721606880426, 0.0038682983722537756, 0.003977724350988865, 0.004087150562554598, 0.004196576774120331, 0.004306002985686064, 0.004415429197251797]}, "gradients/graph_1taskmapper.lins.1.weight": {"_type": "histogram", "values": [1.0, 0.0, 1.0, 2.0, 2.0, 0.0, 0.0, 2.0, 4.0, 2.0, 0.0, 1.0, 0.0, 5.0, 1.0, 2.0, 4.0, 4.0, 5.0, 9.0, 9.0, 16.0, 151.0, 16.0, 9.0, 9.0, 6.0, 10.0, 10.0, 7.0, 11.0, 10.0, 3.0, 7.0, 8.0, 5.0, 5.0, 5.0, 4.0, 6.0, 5.0, 1.0, 3.0, 2.0, 2.0, 2.0, 2.0, 1.0, 2.0, 0.0, 2.0, 2.0, 0.0, 1.0, 1.0, 2.0, 0.0, 1.0, 1.0, 1.0, 0.0, 0.0, 0.0, 1.0], "bins": [-0.0007031373679637909, -0.0006717962678521872, -0.0006404551677405834, -0.0006091140676289797, -0.000577772967517376, -0.0005464318674057722, -0.0005150908255018294, -0.00048374972539022565, -0.0004524086252786219, -0.0004210675251670182, -0.00038972642505541444, -0.00035838535404764116, -0.0003270442539360374, -0.0002957031538244337, -0.0002643620828166604, -0.00023302098270505667, -0.00020167988259345293, -0.0001703387824818492, -0.00013899769692216069, -0.00010765660408651456, -7.631551125086844e-05, -4.49744111392647e-05, -1.3633325579576194e-05, 1.7707759980112314e-05, 4.904886009171605e-05, 8.038995292736217e-05, 0.0001117310457630083, 0.0001430721313226968, 0.00017441323143430054, 0.00020575433154590428, 0.0002370954171055928, 0.0002684365026652813, 0.00029977771919220686, 0.0003311188193038106, 0.00036245991941541433, 0.0003938009904231876, 0.00042514209053479135, 0.0004564831906463951, 0.00048782426165416837, 0.0005191653617657721, 0.0005505064618773758, 0.0005818475619889796, 0.0006131886621005833, 0.000644529762212187, 0.0006758708041161299, 0.0007072119042277336, 0.0007385530043393373, 0.0007698941044509411, 0.0008012352045625448, 0.0008325763046741486, 0.0008639174047857523, 0.000895258504897356, 0.0009265996050089598, 0.0009579407051205635, 0.0009892818052321672, 0.001020622905343771, 0.0010519640054553747, 0.0010833051055669785, 0.0011146462056785822, 0.001145987305790186, 0.0011773284059017897, 0.0012086695060133934, 0.0012400106061249971, 0.0012713517062366009, 0.0013026926899328828]}, "gradients/graph_1taskmapper.lins.0.bias": {"_type": "histogram", "values": [1.0, 0.0, 0.0, 0.0, 0.0, 0.0, 0.0, 1.0, 0.0, 0.0, 0.0, 1.0, 0.0, 0.0, 0.0, 0.0, 0.0, 1.0, 0.0, 0.0, 1.0, 1.0, 1.0, 1.0, 1.0, 0.0, 2.0, 0.0, 1.0, 1.0, 0.0, 0.0, 0.0, 0.0, 2.0, 0.0, 2.0, 1.0, 0.0, 0.0, 2.0, 0.0, 0.0, 0.0, 0.0, 0.0, 0.0, 0.0, 0.0, 1.0, 0.0, 0.0, 0.0, 1.0, 0.0, 0.0, 1.0, 0.0, 0.0, 0.0, 0.0, 0.0, 0.0, 1.0], "bins": [-0.0036905156448483467, -0.0035117650404572487, -0.003333014203235507, -0.003154263598844409, -0.0029755127616226673, -0.0027967621572315693, -0.0026180115528404713, -0.0024392607156187296, -0.002260509878396988, -0.00208175927400589, -0.0019030084367841482, -0.0017242578323930502, -0.0015455069951713085, -0.0013667563907802105, -0.0011880056699737906, -0.0010092549491673708, -0.0008305043447762728, -0.0006517536239698529, -0.00047300293226726353, -0.00029425224056467414, -0.00011550151975825429, 6.324920104816556e-05, 0.0002419998636469245, 0.00042075058445334435, 0.0005995013052597642, 0.000778252026066184, 0.0009570027468726039, 0.0011357534676790237, 0.0013145040720701218, 0.0014932549092918634, 0.0016720055136829615, 0.0018507562344893813, 0.002029506955295801, 0.002208257559686899, 0.002387008396908641, 0.002565759001299739, 0.0027445098385214806, 0.0029232604429125786, 0.0031020110473036766, 0.0032807618845254183, 0.00345951272174716, 0.003638263326138258, 0.0038170141633599997, 0.003995765000581741, 0.004174515604972839, 0.004353266209363937, 0.004532016813755035, 0.004710767418146133, 0.0048895180225372314, 0.0050682686269283295, 0.0052470192313194275, 0.005425770301371813, 0.005604520905762911, 0.005783271510154009, 0.005962022114545107, 0.006140773184597492, 0.00631952378898859, 0.006498274393379688, 0.006677024997770786, 0.006855776067823172, 0.00703452667221427, 0.007213277276605368, 0.007392027880996466, 0.007570778951048851, 0.007749529555439949]}, "gradients/graph_1taskmapper.lins.0.weight": {"_type": "histogram", "values": [1.0, 0.0, 0.0, 0.0, 0.0, 0.0, 0.0, 0.0, 1.0, 0.0, 0.0, 1.0, 0.0, 1.0, 0.0, 1.0, 0.0, 1.0, 0.0, 1.0, 3.0, 0.0, 3.0, 3.0, 1.0, 1.0, 2.0, 1.0, 5.0, 6.0, 7.0, 5.0, 12.0, 10.0, 14.0, 16.0, 21.0, 33.0, 41.0, 71.0, 85.0, 153.0, 80.0, 54.0, 31.0, 24.0, 12.0, 15.0, 11.0, 8.0, 7.0, 4.0, 5.0, 1.0, 6.0, 1.0, 2.0, 2.0, 0.0, 3.0, 0.0, 1.0, 0.0, 1.0], "bins": [-0.003601839067414403, -0.0035147941671311855, -0.003427749266847968, -0.0033407043665647507, -0.0032536594662815332, -0.003166614565998316, -0.0030795696657150984, -0.002992524765431881, -0.0029054798651486635, -0.002818434964865446, -0.0027313900645822287, -0.0026443451642990112, -0.002557300264015794, -0.0024702553637325764, -0.002383210463449359, -0.0022961655631661415, -0.002209120662882924, -0.0021220757625997066, -0.0020350308623164892, -0.0019479859620332718, -0.0018609410617500544, -0.001773896161466837, -0.0016868512611836195, -0.001599806360900402, -0.0015127614606171846, -0.0014257165603339672, -0.0013386716600507498, -0.0012516267597675323, -0.001164581859484315, -0.0010775369592010975, -0.00099049205891788, -0.0009034471586346626, -0.0008164024911820889, -0.0007293575908988714, -0.000642312690615654, -0.0005552677903324366, -0.00046822289004921913, -0.0003811779897660017, -0.00029413308948278427, -0.00020708818919956684, -0.00012004328891634941, -3.299838863313198e-05, 5.404651165008545e-05, 0.00014109141193330288, 0.0002281363122165203, 0.00031518121249973774, 0.00040222611278295517, 0.0004892710130661726, 0.00057631591334939, 0.0006633608136326075, 0.0007504057139158249, 0.0008374506141990423, 0.0009244955144822598, 0.0010115404147654772, 0.0010985853150486946, 0.001185630215331912, 0.0012726751156151295, 0.001359720015898347, 0.0014467649161815643, 0.0015338098164647818, 0.0016208547167479992, 0.0017078996170312166, 0.001794944517314434, 0.0018819894175976515, 0.001969034317880869]}, "gradients/graph_1_projector.0.bias": {"_type": "histogram", "values": [1.0, 0.0, 0.0, 0.0, 3.0, 0.0, 0.0, 2.0, 0.0, 1.0, 1.0, 0.0, 0.0, 1.0, 0.0, 2.0, 1.0, 0.0, 1.0, 0.0, 0.0, 0.0, 0.0, 0.0, 0.0, 0.0, 2.0, 0.0, 0.0, 2.0, 1.0, 1.0, 0.0, 1.0, 1.0, 0.0, 1.0, 0.0, 0.0, 0.0, 1.0, 2.0, 0.0, 0.0, 0.0, 1.0, 0.0, 1.0, 0.0, 0.0, 0.0, 3.0, 0.0, 0.0, 0.0, 0.0, 0.0, 1.0, 0.0, 0.0, 0.0, 0.0, 0.0, 1.0], "bins": [-0.004417565651237965, -0.004257530905306339, -0.004097496159374714, -0.003937461879104376, -0.0037774271331727505, -0.003617392387241125, -0.0034573576413094997, -0.0032973228953778744, -0.0031372883822768927, -0.0029772536363452673, -0.0028172191232442856, -0.0026571843773126602, -0.002497149631381035, -0.002337115118280053, -0.0021770803723484278, -0.002017045859247446, -0.0018570111133158207, -0.0016969764837995172, -0.0015369418542832136, -0.0013769071083515882, -0.0012168724788352847, -0.0010568378493189812, -0.0008968031615950167, -0.0007367684738710523, -0.0005767338443547487, -0.00041669918573461473, -0.00025666452711448073, -9.662986849434674e-05, 6.340479012578726e-05, 0.0002234394196420908, 0.00038347410736605525, 0.0005435087950900197, 0.0007035429589450359, 0.0008635775884613395, 0.001023612217977643, 0.0011836469639092684, 0.001343681593425572, 0.0015037162229418755, 0.0016637509688735008, 0.0018237855983898044, 0.001983820227906108, 0.0021438549738377333, 0.002303889486938715, 0.0024639242328703403, 0.0026239589788019657, 0.0027839934919029474, 0.002944028237834573, 0.0031040627509355545, 0.00326409749686718, 0.0034241322427988052, 0.003584166755899787, 0.0037442015018314123, 0.003904236014932394, 0.004064270760864019, 0.004224305506795645, 0.00438434025272727, 0.004544374532997608, 0.0047044092789292336, 0.004864444024860859, 0.005024478305131197, 0.005184513051062822, 0.005344547796994448, 0.005504582542926073, 0.0056646172888576984, 0.005824652034789324]}, "gradients/graph_1_projector.0.weight": {"_type": "histogram", "values": [1.0, 2.0, 0.0, 2.0, 0.0, 2.0, 2.0, 0.0, 2.0, 3.0, 7.0, 3.0, 4.0, 10.0, 4.0, 8.0, 16.0, 8.0, 20.0, 21.0, 35.0, 38.0, 56.0, 67.0, 81.0, 91.0, 126.0, 144.0, 189.0, 232.0, 271.0, 297.0, 315.0, 317.0, 303.0, 249.0, 229.0, 179.0, 172.0, 120.0, 96.0, 81.0, 55.0, 55.0, 41.0, 27.0, 28.0, 22.0, 13.0, 8.0, 3.0, 11.0, 8.0, 2.0, 6.0, 3.0, 4.0, 0.0, 3.0, 0.0, 1.0, 1.0, 1.0, 1.0], "bins": [-0.003957309294492006, -0.0038372850976884365, -0.0037172611337155104, -0.0035972369369119406, -0.0034772129729390144, -0.0033571887761354446, -0.003237164579331875, -0.0031171406153589487, -0.0029971166513860226, -0.0028770924545824528, -0.0027570684906095266, -0.002637044293805957, -0.0025170203298330307, -0.002396996133029461, -0.002276971936225891, -0.002156947972252965, -0.002036923775449395, -0.0019168996950611472, -0.0017968756146728992, -0.0016768514178693295, -0.0015568274538964033, -0.0014368032570928335, -0.0013167791767045856, -0.0011967550963163376, -0.0010767310159280896, -0.0009567069355398417, -0.0008366828551515937, -0.0007166587165556848, -0.0005966346361674368, -0.00047661055577918887, -0.00035658641718328, -0.00023656233679503202, -0.0001165380235761404, 3.4860713640227914e-06, 0.000123510166304186, 0.0002435342757962644, 0.0003635583561845124, 0.00048358243657276034, 0.0006036065751686692, 0.0007236306555569172, 0.0008436547359451652, 0.0009636788163334131, 0.001083702896721661, 0.001203726977109909, 0.0013237511739134789, 0.001443775137886405, 0.0015637993346899748, 0.0016838234150782228, 0.0018038474954664707, 0.0019238715758547187, 0.0020438956562429667, 0.0021639198530465364, 0.0022839438170194626, 0.0024039680138230324, 0.002523992210626602, 0.0026440161745995283, 0.0027640401385724545, 0.0028840643353760242, 0.0030040882993489504, 0.00312411249615252, 0.0032441364601254463, 0.003364160656929016, 0.003484184853732586, 0.003604208817705512, 0.003724233014509082]}, "gradients/graph_1_encoder.encoder.8.bias": {"_type": "histogram", "values": [1.0, 1.0, 0.0, 0.0, 0.0, 0.0, 0.0, 0.0, 0.0, 0.0, 0.0, 0.0, 3.0, 1.0, 2.0, 0.0, 1.0, 0.0, 2.0, 1.0, 7.0, 2.0, 1.0, 4.0, 4.0, 7.0, 4.0, 6.0, 4.0, 2.0, 9.0, 8.0, 6.0, 9.0, 6.0, 9.0, 4.0, 2.0, 4.0, 3.0, 1.0, 2.0, 0.0, 3.0, 3.0, 2.0, 0.0, 1.0, 1.0, 0.0, 0.0, 0.0, 0.0, 1.0, 0.0, 0.0, 0.0, 0.0, 0.0, 0.0, 0.0, 0.0, 0.0, 1.0], "bins": [-0.002937729936093092, -0.0028424833435565233, -0.002747236518189311, -0.0026519899256527424, -0.00255674310028553, -0.0024614965077489614, -0.002366249915212393, -0.0022710030898451805, -0.002175756497308612, -0.0020805099047720432, -0.001985263079404831, -0.0018900164868682623, -0.0017947697779163718, -0.0016995230689644814, -0.0016042763600125909, -0.0015090296510607004, -0.00141378294210881, -0.0013185362331569195, -0.001223289524205029, -0.0011280428152531385, -0.00103279622271657, -0.0009375495137646794, -0.000842302804812789, -0.0007470561540685594, -0.0006518094451166689, -0.0005565627361647785, -0.0004613160854205489, -0.00036606937646865845, -0.00027082269662059844, -0.00017557601677253842, -8.032930782064795e-05, 1.49173429235816e-05, 0.00011016405187547207, 0.00020541073172353208, 0.0003006574115715921, 0.00039590412052348256, 0.0004911507712677121, 0.0005863974802196026, 0.000681644189171493, 0.0007768908399157226, 0.0008721375488676131, 0.0009673842578195035, 0.001062630908563733, 0.0011578776175156236, 0.001253124326467514, 0.0013483709190040827, 0.001443617744371295, 0.0015388643369078636, 0.001634111045859754, 0.0017293577548116446, 0.001824604463763535, 0.0019198511727154255, 0.002015097765251994, 0.0021103443577885628, 0.002205591183155775, 0.0023008377756923437, 0.002396084601059556, 0.0024913311935961246, 0.002586578018963337, 0.0026818246114999056, 0.002777071436867118, 0.0028723180294036865, 0.002967564854770899, 0.0030628114473074675, 0.003158058039844036]}, "gradients/graph_1_encoder.encoder.8.weight": {"_type": "histogram", "values": [2.0, 0.0, 0.0, 1.0, 0.0, 1.0, 1.0, 2.0, 1.0, 5.0, 2.0, 6.0, 6.0, 10.0, 6.0, 14.0, 22.0, 23.0, 36.0, 42.0, 71.0, 103.0, 144.0, 228.0, 384.0, 504.0, 702.0, 1185.0, 1902.0, 3430.0, 7151.0, 7706.0, 3876.0, 2143.0, 1110.0, 664.0, 396.0, 246.0, 200.0, 129.0, 83.0, 59.0, 39.0, 29.0, 19.0, 23.0, 18.0, 9.0, 8.0, 8.0, 2.0, 4.0, 2.0, 2.0, 2.0, 1.0, 1.0, 2.0, 0.0, 1.0, 0.0, 0.0, 1.0, 1.0], "bins": [-0.0060742259956896305, -0.0058782268315553665, -0.00568222813308239, -0.005486228968948126, -0.005290229804813862, -0.005094230640679598, -0.004898231476545334, -0.004702232778072357, -0.004506233613938093, -0.004310234449803829, -0.0041142357513308525, -0.0039182365871965885, -0.0037222374230623245, -0.0035262382589280605, -0.00333023932762444, -0.00313424039632082, -0.002938241232186556, -0.002742242068052292, -0.0025462431367486715, -0.002350244205445051, -0.002154245041310787, -0.001958245877176523, -0.0017622469458729029, -0.0015662478981539607, -0.0013702488504350185, -0.0011742498027160764, -0.0009782507549971342, -0.000782251707278192, -0.0005862526595592499, -0.0003902536118403077, -0.00019425456412136555, 1.7444835975766182e-06, 0.00019774353131651878, 0.00039374257903546095, 0.0005897416267544031, 0.0007857406744733453, 0.0009817397221922874, 0.0011777387699112296, 0.0013737378176301718, 0.001569736865349114, 0.001765735913068056, 0.00196173507720232, 0.0021577340085059404, 0.0023537329398095608, 0.0025497321039438248, 0.0027457312680780888, 0.002941730199381709, 0.0031377291306853294, 0.0033337282948195934, 0.0035297274589538574, 0.0037257263902574778, 0.003921725321561098, 0.004117724485695362, 0.004313723649829626, 0.00450972281396389, 0.004705721512436867, 0.004901720676571131, 0.005097719840705395, 0.005293718539178371, 0.005489717703312635, 0.005685716867446899, 0.005881716031581163, 0.006077715195715427, 0.006273713894188404, 0.006469713058322668]}, "gradients/graph_1_encoder.encoder.5.weight": {"_type": "histogram", "values": [1.0, 0.0, 0.0, 0.0, 0.0, 0.0, 0.0, 0.0, 0.0, 1.0, 0.0, 0.0, 0.0, 0.0, 0.0, 1.0, 0.0, 0.0, 0.0, 1.0, 0.0, 0.0, 0.0, 0.0, 0.0, 0.0, 3.0, 0.0, 2.0, 4.0, 2.0, 0.0, 2.0, 3.0, 4.0, 3.0, 10.0, 12.0, 20.0, 17.0, 22.0, 26.0, 26.0, 18.0, 11.0, 14.0, 10.0, 4.0, 8.0, 9.0, 6.0, 2.0, 2.0, 2.0, 2.0, 4.0, 2.0, 0.0, 0.0, 1.0, 0.0, 0.0, 0.0, 1.0], "bins": [-0.005224850494414568, -0.005101189017295837, -0.004977527540177107, -0.004853866063058376, -0.0047302041202783585, -0.004606542643159628, -0.004482881166040897, -0.004359219688922167, -0.004235558211803436, -0.004111896734684706, -0.003988235257565975, -0.003864573547616601, -0.0037409120704978704, -0.00361725059337914, -0.0034935888834297657, -0.003369927406311035, -0.0032462659291923046, -0.003122604452073574, -0.0029989429749548435, -0.0028752812650054693, -0.0027516197878867388, -0.0026279583107680082, -0.002504296600818634, -0.0023806351236999035, -0.002256973646581173, -0.0021333121694624424, -0.002009650692343712, -0.0018859889823943377, -0.0017623275052756071, -0.0016386660281568766, -0.0015150044346228242, -0.0013913428410887718, -0.0012676813639700413, -0.0011440198868513107, -0.0010203582933172584, -0.0008966967579908669, -0.0007730352226644754, -0.000649373687338084, -0.0005257121520116925, -0.00040205061668530107, -0.0002783890813589096, -0.00015472754603251815, -3.106601070612669e-05, 9.259552462026477e-05, 0.00021625705994665623, 0.0003399185952730477, 0.00046358013059943914, 0.0005872416659258306, 0.0007109032012522221, 0.0008345647365786135, 0.000958226271905005, 0.0010818878654390574, 0.001205549342557788, 0.0013292108196765184, 0.0014528724132105708, 0.0015765340067446232, 0.0017001954838633537, 0.0018238569609820843, 0.0019475185545161366, 0.002071180148050189, 0.0021948416251689196, 0.00231850310228765, 0.0024421648122370243, 0.002565826289355755, 0.0026894877664744854]}, "gradients/graph_1_encoder.encoder.5.bias": {"_type": "histogram", "values": [1.0, 0.0, 0.0, 0.0, 0.0, 0.0, 0.0, 0.0, 0.0, 0.0, 0.0, 0.0, 0.0, 0.0, 0.0, 0.0, 0.0, 0.0, 0.0, 0.0, 1.0, 0.0, 0.0, 1.0, 1.0, 1.0, 0.0, 1.0, 3.0, 3.0, 1.0, 0.0, 4.0, 2.0, 1.0, 1.0, 3.0, 5.0, 6.0, 15.0, 20.0, 23.0, 28.0, 22.0, 29.0, 13.0, 10.0, 1.0, 9.0, 4.0, 8.0, 3.0, 8.0, 9.0, 4.0, 3.0, 2.0, 5.0, 2.0, 1.0, 0.0, 1.0, 0.0, 1.0], "bins": [-0.007210523821413517, -0.007046512793749571, -0.006882501300424337, -0.006718490272760391, -0.006554478779435158, -0.006390467751771212, -0.0062264567241072655, -0.006062445230782032, -0.005898434203118086, -0.00573442317545414, -0.005570411682128906, -0.00540640065446496, -0.005242389161139727, -0.0050783781334757805, -0.004914366640150547, -0.004750355612486601, -0.004586344584822655, -0.004422333557158709, -0.004258322063833475, -0.004094311036169529, -0.0039302995428442955, -0.0037662885151803493, -0.0036022772546857595, -0.0034382659941911697, -0.0032742545008659363, -0.0031102432403713465, -0.0029462319798767567, -0.0027822209522128105, -0.0026182096917182207, -0.002454198431223631, -0.002290187170729041, -0.0021261759102344513, -0.001962165115401149, -0.001798153854906559, -0.001634142710827291, -0.0014701314503327012, -0.0013061203062534332, -0.0011421090457588434, -0.0009780977852642536, -0.0008140866411849856, -0.0006500753806903958, -0.00048606417840346694, -0.0003220529470127076, -0.00015804171562194824, 5.96948666498065e-06, 0.00016998068895190954, 0.00033399194944649935, 0.0004980030935257673, 0.0006620143540203571, 0.000826025556307286, 0.000990036758594215, 0.0011540480190888047, 0.0013180591631680727, 0.0014820704236626625, 0.0016460816841572523, 0.0018100928282365203, 0.0019741039723157883, 0.002138115232810378, 0.002302126493304968, 0.002466137520968914, 0.002630148781463504, 0.0027941600419580936, 0.0029581713024526834, 0.0031221825629472733, 0.003286193823441863]}, "gradients/graph_1_encoder.encoder.4.bias": {"_type": "histogram", "values": [1.0, 1.0, 0.0, 0.0, 3.0, 1.0, 1.0, 0.0, 2.0, 2.0, 2.0, 1.0, 6.0, 1.0, 3.0, 4.0, 18.0, 6.0, 6.0, 17.0, 32.0, 45.0, 20.0, 10.0, 6.0, 12.0, 5.0, 7.0, 2.0, 14.0, 3.0, 0.0, 3.0, 4.0, 4.0, 3.0, 0.0, 0.0, 5.0, 0.0, 1.0, 0.0, 0.0, 0.0, 1.0, 0.0, 1.0, 1.0, 0.0, 0.0, 0.0, 0.0, 0.0, 0.0, 0.0, 1.0, 0.0, 0.0, 0.0, 0.0, 0.0, 0.0, 0.0, 1.0], "bins": [-2.874003257602453e-10, -2.738147486525122e-10, -2.602291715447791e-10, -2.46643594437046e-10, -2.3305801732931286e-10, -2.1947244022157975e-10, -2.0588686311384663e-10, -1.9230128600611351e-10, -1.787157088983804e-10, -1.6513013179064728e-10, -1.5154455468291417e-10, -1.3795897757518105e-10, -1.2437340046744794e-10, -1.1078782335971482e-10, -9.72022462519817e-11, -8.361666914424859e-11, -7.003109203651547e-11, -5.644551492878236e-11, -4.285993782104924e-11, -2.927436071331613e-11, -1.5688783605583012e-11, -2.1032064978498966e-12, 1.1482370609883219e-11, 2.5067947717616335e-11, 3.865352482534945e-11, 5.2239101933082566e-11, 6.582467904081568e-11, 7.94102561485488e-11, 9.299583325628191e-11, 1.0658141036401503e-10, 1.2016698747174814e-10, 1.3375256457948126e-10, 1.4733814168721437e-10, 1.609237187949475e-10, 1.745092959026806e-10, 1.8809487301041372e-10, 2.0168045011814684e-10, 2.1526602722587995e-10, 2.2885160433361307e-10, 2.424371814413462e-10, 2.560227585490793e-10, 2.696083356568124e-10, 2.8319391276454553e-10, 2.9677948987227865e-10, 3.1036506698001176e-10, 3.239506440877449e-10, 3.37536221195478e-10, 3.511217983032111e-10, 3.647073754109442e-10, 3.7829295251867734e-10, 3.9187852962641045e-10, 4.0546410673414357e-10, 4.190496838418767e-10, 4.326352609496098e-10, 4.462208380573429e-10, 4.5980641516507603e-10, 4.733919922728091e-10, 4.869775693805423e-10, 5.005631464882754e-10, 5.141487235960085e-10, 5.277343007037416e-10, 5.413198778114747e-10, 5.549054549192078e-10, 5.68491032026941e-10, 5.820766091346741e-10]}, "gradients/graph_1_encoder.encoder.4.weight": {"_type": "histogram", "values": [1.0, 2.0, 1.0, 0.0, 0.0, 1.0, 1.0, 1.0, 1.0, 0.0, 0.0, 2.0, 3.0, 3.0, 2.0, 3.0, 1.0, 2.0, 3.0, 7.0, 2.0, 4.0, 12.0, 7.0, 8.0, 13.0, 18.0, 26.0, 26.0, 35.0, 57.0, 74.0, 87.0, 118.0, 169.0, 263.0, 413.0, 639.0, 1000.0, 1788.0, 3539.0, 8687.0, 19565.0, 58116.0, 20978.0, 7572.0, 3215.0, 1648.0, 1008.0, 653.0, 419.0, 283.0, 231.0, 145.0, 78.0, 52.0, 38.0, 15.0, 11.0, 14.0, 4.0, 4.0, 2.0, 2.0], "bins": [-0.012112339958548546, -0.01183390337973833, -0.01155546773225069, -0.011277031153440475, -0.01099859457463026, -0.010720157995820045, -0.010441722348332405, -0.01016328576952219, -0.009884849190711975, -0.00960641261190176, -0.00932797696441412, -0.009049540385603905, -0.00877110380679369, -0.008492667227983475, -0.008214231580495834, -0.00793579500168562, -0.007657359354197979, -0.007378923241049051, -0.007100486662238836, -0.006822050549089909, -0.006543613970279694, -0.006265177857130766, -0.005986741743981838, -0.005708305165171623, -0.0054298690520226955, -0.005151432938873768, -0.004872996360063553, -0.004594560246914625, -0.0043161241337656975, -0.0040376875549554825, -0.003759251441806555, -0.0034808150958269835, -0.0032023796811699867, -0.0029239433351904154, -0.002645506989210844, -0.0023670708760619164, -0.002088634530082345, -0.0018101981841027737, -0.0015317619545385242, -0.0012533257249742746, -0.0009748893789947033, -0.0006964530912227929, -0.00041801680345088243, -0.000139580515678972, 0.00013885577209293842, 0.00041729211807250977, 0.0006957283476367593, 0.0009741645772010088, 0.0012526009231805801, 0.0015310372691601515, 0.001809473498724401, 0.0020879097282886505, 0.002366346074268222, 0.002644782420247793, 0.002923218533396721, 0.0032016548793762922, 0.0034800912253558636, 0.003758527571335435, 0.004036963917315006, 0.004315400030463934, 0.004593836143612862, 0.004872272722423077, 0.005150708835572004, 0.005429144948720932, 0.005707581527531147]}, "gradients/graph_1_encoder.encoder.1.weight": {"_type": "histogram", "values": [1.0, 1.0, 0.0, 0.0, 0.0, 0.0, 0.0, 1.0, 2.0, 0.0, 0.0, 0.0, 0.0, 0.0, 0.0, 0.0, 0.0, 1.0, 0.0, 0.0, 1.0, 1.0, 2.0, 6.0, 3.0, 4.0, 3.0, 7.0, 6.0, 13.0, 16.0, 20.0, 23.0, 20.0, 40.0, 35.0, 40.0, 45.0, 48.0, 48.0, 31.0, 12.0, 23.0, 12.0, 8.0, 13.0, 11.0, 1.0, 1.0, 3.0, 1.0, 3.0, 1.0, 1.0, 0.0, 0.0, 0.0, 1.0, 0.0, 0.0, 0.0, 0.0, 2.0, 1.0], "bins": [-0.002347026253119111, -0.002283169887959957, -0.002219313522800803, -0.0021554571576416492, -0.0020916007924824953, -0.0020277444273233414, -0.0019638880621641874, -0.0019000315805897117, -0.0018361752154305577, -0.0017723188502714038, -0.0017084624851122499, -0.001644606119953096, -0.0015807496383786201, -0.0015168932732194662, -0.0014530369080603123, -0.0013891805429011583, -0.0013253241777420044, -0.0012614678125828505, -0.0011976114474236965, -0.0011337550822645426, -0.0010698987171053886, -0.0010060423519462347, -0.0009421858703717589, -0.000878329505212605, -0.0008144731400534511, -0.0007506167748942971, -0.0006867604097351432, -0.0006229039863683283, -0.0005590476212091744, -0.0004951912560500205, -0.00043133486178703606, -0.00036747846752405167, -0.0003036219859495759, -0.00023976560623850673, -0.00017590922652743757, -0.0001120528468163684, -4.8196467105299234e-05, 1.5659898053854704e-05, 7.95162923168391e-05, 0.0001433726865798235, 0.00020722905173897743, 0.00027108541689813137, 0.00033494181116111577, 0.00039879820542410016, 0.0004626545705832541, 0.000526510935742408, 0.0005903673591092229, 0.0006542237242683768, 0.0007180800894275308, 0.0007819364545866847, 0.0008457928197458386, 0.0009096492431126535, 0.0009735056082718074, 0.0010373620316386223, 0.0011012183967977762, 0.0011650747619569302, 0.001228931127116084, 0.001292787492275238, 0.001356643857434392, 0.001420500222593546, 0.0014843565877526999, 0.0015482129529118538, 0.0016120694344863296, 0.0016759257996454835, 0.0017397821648046374]}, "gradients/graph_1_encoder.encoder.1.bias": {"_type": "histogram", "values": [1.0, 0.0, 0.0, 0.0, 0.0, 1.0, 0.0, 0.0, 0.0, 0.0, 0.0, 0.0, 1.0, 0.0, 1.0, 0.0, 1.0, 0.0, 5.0, 0.0, 2.0, 3.0, 2.0, 8.0, 5.0, 9.0, 10.0, 15.0, 13.0, 22.0, 25.0, 25.0, 37.0, 44.0, 38.0, 34.0, 36.0, 23.0, 27.0, 36.0, 22.0, 20.0, 10.0, 7.0, 5.0, 7.0, 1.0, 3.0, 2.0, 3.0, 2.0, 2.0, 1.0, 1.0, 0.0, 0.0, 0.0, 0.0, 0.0, 1.0, 0.0, 0.0, 0.0, 1.0], "bins": [-0.002181386575102806, -0.0021177828311920166, -0.0020541793201118708, -0.0019905755762010813, -0.0019269719487056136, -0.001863368321210146, -0.0017997645772993565, -0.0017361609498038888, -0.0016725573223084211, -0.0016089536948129535, -0.0015453500673174858, -0.0014817463234066963, -0.0014181426959112287, -0.001354539068415761, -0.0012909353245049715, -0.0012273316970095038, -0.0011637280695140362, -0.0011001244420185685, -0.0010365208145231009, -0.0009729170706123114, -0.0009093134431168437, -0.000845709815621376, -0.0007821061299182475, -0.0007185024442151189, -0.0006548988167196512, -0.0005912951892241836, -0.000527691503521055, -0.00046408784692175686, -0.00040048419032245874, -0.0003368805337231606, -0.0002732768771238625, -0.00020967322052456439, -0.00014606956392526627, -8.246590732596815e-05, -1.8862250726670027e-05, 4.474140587262809e-05, 0.00010834506247192621, 0.00017194871907122433, 0.00023555237567052245, 0.00029915603226982057, 0.0003627596888691187, 0.0004263633454684168, 0.0004899670020677149, 0.0005535706877708435, 0.0006171743152663112, 0.0006807779427617788, 0.0007443816284649074, 0.000807985314168036, 0.0008715889416635036, 0.0009351925691589713, 0.000998796196654439, 0.0010623999405652285, 0.0011260035680606961, 0.0011896071955561638, 0.0012532109394669533, 0.001316814566962421, 0.0013804181944578886, 0.0014440218219533563, 0.001507625449448824, 0.0015712291933596134, 0.001634832820855081, 0.0016984364483505487, 0.0017620401922613382, 0.001825643819756806, 0.0018892474472522736]}, "gradients/graph_1_encoder.encoder.0.bias": {"_type": "histogram", "values": [1.0, 0.0, 0.0, 0.0, 0.0, 0.0, 0.0, 0.0, 0.0, 0.0, 0.0, 0.0, 0.0, 0.0, 0.0, 0.0, 0.0, 0.0, 0.0, 0.0, 0.0, 0.0, 1.0, 0.0, 0.0, 0.0, 0.0, 0.0, 0.0, 0.0, 0.0, 0.0, 0.0, 1.0, 0.0, 0.0, 1.0, 0.0, 1.0, 1.0, 1.0, 2.0, 2.0, 10.0, 13.0, 37.0, 78.0, 193.0, 84.0, 40.0, 16.0, 8.0, 4.0, 9.0, 0.0, 2.0, 2.0, 1.0, 1.0, 1.0, 0.0, 0.0, 0.0, 2.0], "bins": [-8.72714736033231e-08, -8.543855756215635e-08, -8.360564152098959e-08, -8.177272547982284e-08, -7.993980943865608e-08, -7.810689339748933e-08, -7.627397735632258e-08, -7.444106131515582e-08, -7.260814527398907e-08, -7.077522923282231e-08, -6.894231319165556e-08, -6.71093971504888e-08, -6.527648110932205e-08, -6.34435650681553e-08, -6.161064902698854e-08, -5.977773298582179e-08, -5.794481694465503e-08, -5.6111900903488277e-08, -5.427898486232152e-08, -5.244606882115477e-08, -5.061315277998801e-08, -4.878023673882126e-08, -4.6947320697654504e-08, -4.511440465648775e-08, -4.3281488615320995e-08, -4.144857257415424e-08, -3.9615656532987487e-08, -3.778274049182073e-08, -3.594982445065398e-08, -3.411690840948722e-08, -3.228399236832047e-08, -3.0451076327153714e-08, -2.861816028598696e-08, -2.6785244244820205e-08, -2.495232820365345e-08, -2.3119412162486697e-08, -2.1286496121319942e-08, -1.9453580080153188e-08, -1.7620664038986433e-08, -1.578774799781968e-08, -1.3954831956652924e-08, -1.212191591548617e-08, -1.0288999874319416e-08, -8.456083833152661e-09, -6.623167791985907e-09, -4.790251750819152e-09, -2.9573357096523978e-09, -1.1244196684856433e-09, 7.084963726811111e-10, 2.5414124138478655e-09, 4.37432845501462e-09, 6.2072444961813744e-09, 8.040160537348129e-09, 9.873076578514883e-09, 1.1705992619681638e-08, 1.3538908660848392e-08, 1.5371824702015147e-08, 1.72047407431819e-08, 1.9037656784348655e-08, 2.087057282551541e-08, 2.2703488866682164e-08, 2.453640490784892e-08, 2.6369320949015673e-08, 2.8202236990182428e-08, 3.003515303134918e-08]}, "gradients/graph_1_encoder.encoder.0.weight": {"_type": "histogram", "values": [2.0, 0.0, 0.0, 0.0, 0.0, 0.0, 0.0, 0.0, 3.0, 0.0, 1.0, 0.0, 1.0, 0.0, 4.0, 1.0, 3.0, 1.0, 4.0, 3.0, 0.0, 4.0, 4.0, 10.0, 8.0, 9.0, 15.0, 26.0, 33.0, 41.0, 50.0, 92.0, 145.0, 194.0, 412.0, 1878.0, 9811.0, 160761.0, 262324.0, 9058.0, 1849.0, 806.0, 413.0, 180.0, 107.0, 68.0, 45.0, 32.0, 19.0, 22.0, 17.0, 9.0, 14.0, 9.0, 4.0, 5.0, 5.0, 1.0, 3.0, 2.0, 0.0, 2.0, 1.0, 1.0], "bins": [-0.020683595910668373, -0.02013995498418808, -0.019596312195062637, -0.019052671268582344, -0.01850903034210205, -0.01796538755297661, -0.017421746626496315, -0.016878103837370872, -0.01633446291089058, -0.015790821984410286, -0.015247179195284843, -0.01470353826880455, -0.014159896411001682, -0.013616254553198814, -0.013072613626718521, -0.012528971768915653, -0.011985329911112785, -0.011441688053309917, -0.01089804619550705, -0.010354405269026756, -0.009810763411223888, -0.00926712155342102, -0.008723480626940727, -0.00817983876913786, -0.0076361969113349915, -0.0070925550535321236, -0.006548913661390543, -0.006005272269248962, -0.0054616304114460945, -0.004917988553643227, -0.004374347161501646, -0.003830705536529422, -0.003287065774202347, -0.0027434241492301226, -0.0021997825242578983, -0.001656140899285674, -0.0011124992743134499, -0.0005688576493412256, -2.521602436900139e-05, 0.0005184256006032228, 0.001062067225575447, 0.0016057088505476713, 0.0021493504755198956, 0.00269299210049212, 0.003236633725464344, 0.0037802753504365683, 0.0043239169754087925, 0.004867558367550373, 0.005411200225353241, 0.005954842083156109, 0.0064984834752976894, 0.00704212486743927, 0.007585766725242138, 0.008129408583045006, 0.008673049509525299, 0.009216691367328167, 0.009760333225131035, 0.010303975082933903, 0.01084761694073677, 0.011391257867217064, 0.011934899725019932, 0.0124785415828228, 0.013022182509303093, 0.01356582436710596, 0.014109466224908829]}, "_wandb": {"runtime": 1758}}