{"train_loss": 0.9937261343002319, "train_ssl_loss": 0.9687509536743164, "train_tsk_loss": 0.024975063279271126, "test_loss": 0.8623924255371094, "test_ssl_loss": 0.8368090391159058, "test_tsk_loss": 0.02558346837759018, "_timestamp": 1697563636.2026885, "_runtime": 50.68554949760437, "_step": 19, "gradients/graph_1taskmapper.out.bias": {"_type": "histogram", "values": [0.0, 0.0, 0.0, 0.0, 0.0, 0.0, 0.0, 0.0, 0.0, 0.0, 0.0, 0.0, 0.0, 0.0, 0.0, 0.0, 0.0, 0.0, 0.0, 0.0, 0.0, 0.0, 0.0, 0.0, 0.0, 0.0, 0.0, 0.0, 0.0, 0.0, 0.0, 0.0, 1.0, 0.0, 0.0, 0.0, 0.0, 0.0, 0.0, 0.0, 0.0, 0.0, 0.0, 0.0, 0.0, 0.0, 0.0, 0.0, 0.0, 0.0, 0.0, 0.0, 0.0, 0.0, 0.0, 0.0, 0.0, 0.0, 0.0, 0.0, 0.0, 0.0, 0.0, 0.0], "bins": [-0.1927318572998047, -0.1927318572998047, -0.1927318572998047, -0.1927318572998047, -0.1927318572998047, -0.1927318572998047, -0.1927318572998047, -0.1927318572998047, -0.1927318572998047, -0.1927318572998047, -0.1927318572998047, -0.1927318572998047, -0.1927318572998047, -0.1927318572998047, -0.1927318572998047, -0.1927318572998047, -0.1927318572998047, -0.1927318572998047, -0.1927318572998047, -0.1927318572998047, -0.1927318572998047, -0.1927318572998047, -0.1927318572998047, -0.1927318572998047, -0.1927318572998047, -0.1927318572998047, -0.1927318572998047, -0.1927318572998047, -0.1927318572998047, -0.1927318572998047, -0.1927318572998047, -0.1927318572998047, -0.1927318572998047, -0.1927318572998047, -0.1927318572998047, -0.1927318572998047, -0.1927318572998047, -0.1927318572998047, -0.1927318572998047, -0.1927318572998047, -0.1927318572998047, -0.1927318572998047, -0.1927318572998047, -0.1927318572998047, -0.1927318572998047, -0.1927318572998047, -0.1927318572998047, -0.1927318572998047, -0.1927318572998047, -0.1927318572998047, -0.1927318572998047, -0.1927318572998047, -0.1927318572998047, -0.1927318572998047, -0.1927318572998047, -0.1927318572998047, -0.1927318572998047, -0.1927318572998047, -0.1927318572998047, -0.1927318572998047, -0.1927318572998047, -0.1927318572998047, -0.1927318572998047, -0.1927318572998047, -0.1927318572998047]}, "gradients/graph_1taskmapper.out.weight": {"_type": "histogram", "values": [1.0, 1.0, 0.0, 0.0, 0.0, 0.0, 0.0, 0.0, 0.0, 0.0, 0.0, 0.0, 0.0, 0.0, 0.0, 0.0, 0.0, 0.0, 1.0, 0.0, 0.0, 0.0, 0.0, 0.0, 0.0, 0.0, 0.0, 0.0, 0.0, 0.0, 0.0, 1.0, 2.0, 0.0, 0.0, 0.0, 0.0, 1.0, 0.0, 0.0, 0.0, 0.0, 0.0, 0.0, 0.0, 0.0, 0.0, 0.0, 0.0, 0.0, 0.0, 0.0, 1.0, 1.0, 0.0, 0.0, 0.0, 0.0, 0.0, 1.0, 1.0, 0.0, 0.0, 5.0], "bins": [-0.033381152898073196, -0.032859571278095245, -0.03233799338340759, -0.03181641176342964, -0.03129483014345169, -0.03077325038611889, -0.030251670628786087, -0.029730089008808136, -0.029208509251475334, -0.028686929494142532, -0.02816534787416458, -0.02764376811683178, -0.02712218649685383, -0.026600606739521027, -0.026079025119543076, -0.025557445362210274, -0.025035865604877472, -0.02451428584754467, -0.02399270422756672, -0.023471124470233917, -0.022949542850255966, -0.022427963092923164, -0.021906383335590363, -0.02138480171561241, -0.02086322009563446, -0.02034164033830166, -0.019820058718323708, -0.019298478960990906, -0.018776897341012955, -0.018255317583680153, -0.01773373782634735, -0.0172121562063694, -0.016690576449036598, -0.016168996691703796, -0.015647415071725845, -0.015125835314393044, -0.014604254625737667, -0.01408267393708229, -0.013561093248426914, -0.013039512559771538, -0.012517932802438736, -0.01199635211378336, -0.011474771425127983, -0.010953191667795181, -0.010431610979139805, -0.009910030290484428, -0.009388449601829052, -0.008866868913173676, -0.008345288224518299, -0.007823707535862923, -0.0073021273128688335, -0.006780546624213457, -0.006258966401219368, -0.0057373857125639915, -0.005215805023908615, -0.004694224335253239, -0.0041726441122591496, -0.0036510636564344168, -0.003129483200609684, -0.0026079025119543076, -0.0020863220561295748, -0.001564741600304842, -0.0010431609116494656, -0.0005215804558247328, 0.0]}, "gradients/graph_1taskmapper.lins.1.bias": {"_type": "histogram", "values": [1.0, 0.0, 2.0, 0.0, 0.0, 1.0, 0.0, 1.0, 0.0, 0.0, 0.0, 0.0, 0.0, 0.0, 0.0, 0.0, 0.0, 0.0, 1.0, 1.0, 0.0, 0.0, 1.0, 0.0, 1.0, 0.0, 0.0, 0.0, 0.0, 0.0, 0.0, 0.0, 0.0, 0.0, 4.0, 0.0, 0.0, 0.0, 1.0, 1.0, 0.0, 0.0, 0.0, 0.0, 0.0, 0.0, 0.0, 0.0, 0.0, 0.0, 0.0, 0.0, 0.0, 0.0, 0.0, 0.0, 0.0, 0.0, 0.0, 0.0, 0.0, 0.0, 0.0, 1.0], "bins": [-0.042469192296266556, -0.04122075065970421, -0.03997230529785156, -0.038723863661289215, -0.03747542202472687, -0.03622697666287422, -0.034978535026311874, -0.03373008966445923, -0.03248164802789688, -0.031233204528689384, -0.029984761029481888, -0.02873631939291954, -0.027487875893712044, -0.026239432394504547, -0.0249909907579422, -0.023742547258734703, -0.022494103759527206, -0.02124566026031971, -0.019997216761112213, -0.018748775124549866, -0.01750033162534237, -0.016251888126134872, -0.01500344555824995, -0.013755002990365028, -0.012506559491157532, -0.011258115991950035, -0.010009673424065113, -0.008761230856180191, -0.007512787356972694, -0.006264344323426485, -0.005015901289880276, -0.0037674587219953537, -0.0025190114974975586, -0.0012705684639513493, -2.2125430405139923e-05, 0.0012263176031410694, 0.0024747606366872787, 0.003723203670233488, 0.004971646703779697, 0.0062200892716646194, 0.007468532770872116, 0.008716976270079613, 0.009965418837964535, 0.011213861405849457, 0.012462304905056953, 0.01371074840426445, 0.014959190972149372, 0.016207633540034294, 0.01745607703924179, 0.018704520538449287, 0.019952964037656784, 0.02120140567421913, 0.022449849173426628, 0.023698292672634125, 0.024946734309196472, 0.02619517780840397, 0.027443621307611465, 0.028692064806818962, 0.02994050830602646, 0.031188949942588806, 0.032437391579151154, 0.0336858369410038, 0.03493427857756615, 0.03618272393941879, 0.03743116557598114]}, "gradients/graph_1taskmapper.lins.1.weight": {"_type": "histogram", "values": [1.0, 0.0, 2.0, 0.0, 1.0, 0.0, 0.0, 1.0, 0.0, 1.0, 1.0, 4.0, 5.0, 6.0, 3.0, 7.0, 6.0, 2.0, 5.0, 5.0, 5.0, 1.0, 6.0, 6.0, 8.0, 6.0, 7.0, 11.0, 6.0, 7.0, 8.0, 17.0, 16.0, 175.0, 14.0, 11.0, 6.0, 8.0, 3.0, 0.0, 1.0, 0.0, 0.0, 1.0, 0.0, 0.0, 1.0, 1.0, 0.0, 0.0, 2.0, 2.0, 0.0, 2.0, 1.0, 0.0, 1.0, 0.0, 0.0, 0.0, 0.0, 0.0, 0.0, 1.0], "bins": [-0.010946910828351974, -0.010623949579894543, -0.010300988331437111, -0.009978027082979679, -0.009655065834522247, -0.009332104586064816, -0.009009143337607384, -0.008686182089149952, -0.00836322084069252, -0.008040259592235088, -0.0077172983437776566, -0.007394337095320225, -0.007071375846862793, -0.006748414598405361, -0.006425453349947929, -0.006102492101490498, -0.0057795303873717785, -0.005456569138914347, -0.005133607890456915, -0.004810646641999483, -0.004487685393542051, -0.0041647241450846195, -0.003841762663796544, -0.0035188014153391123, -0.0031958401668816805, -0.0028728789184242487, -0.002549917669966817, -0.0022269561886787415, -0.0019039950566366315, -0.0015810338081791997, -0.001258072443306446, -0.0009351111948490143, -0.0006121499463915825, -0.00028918866883032024, 3.377260873094201e-05, 0.0003567339153960347, 0.0006796951638534665, 0.0010026564123108983, 0.001325617777183652, 0.0016485790256410837, 0.0019715402740985155, 0.0022945015225559473, 0.002617462771013379, 0.0029404242523014545, 0.0032633855007588863, 0.003586346749216318, 0.00390930799767375, 0.004232269246131182, 0.0045552304945886135, 0.004878191743046045, 0.005201152991503477, 0.005524114239960909, 0.005847075488418341, 0.0061700367368757725, 0.006492998450994492, 0.006815959699451923, 0.007138920947909355, 0.007461882196366787, 0.007784843444824219, 0.00810780469328165, 0.008430765941739082, 0.008753727190196514, 0.009076688438653946, 0.009399649687111378, 0.00972261093556881]}, "gradients/graph_1taskmapper.lins.0.bias": {"_type": "histogram", "values": [1.0, 0.0, 0.0, 0.0, 0.0, 0.0, 1.0, 0.0, 0.0, 0.0, 0.0, 1.0, 0.0, 0.0, 0.0, 0.0, 0.0, 0.0, 0.0, 1.0, 0.0, 0.0, 0.0, 0.0, 1.0, 1.0, 0.0, 0.0, 2.0, 0.0, 0.0, 0.0, 0.0, 0.0, 0.0, 0.0, 1.0, 0.0, 1.0, 1.0, 0.0, 1.0, 1.0, 1.0, 2.0, 0.0, 1.0, 2.0, 0.0, 2.0, 0.0, 0.0, 0.0, 0.0, 0.0, 0.0, 0.0, 0.0, 1.0, 0.0, 0.0, 1.0, 0.0, 1.0], "bins": [-0.02384076826274395, -0.023333176970481873, -0.022825583815574646, -0.02231799252331257, -0.02181040123105049, -0.021302809938788414, -0.020795218646526337, -0.02028762549161911, -0.019780034199357033, -0.019272442907094955, -0.01876484975218773, -0.01825725845992565, -0.017749667167663574, -0.017242075875401497, -0.01673448458313942, -0.016226891428232193, -0.015719300135970116, -0.015211708843708038, -0.014704116620123386, -0.014196524396538734, -0.013688933104276657, -0.01318134181201458, -0.012673749588429928, -0.012166157364845276, -0.011658566072583199, -0.011150974780321121, -0.01064338255673647, -0.010135790333151817, -0.00962819904088974, -0.009120607748627663, -0.00861301552504301, -0.008105423301458359, -0.007597830146551132, -0.0070902383886277676, -0.006582646630704403, -0.006075054872781038, -0.005567463114857674, -0.005059871356934309, -0.004552279599010944, -0.00404468784108758, -0.003537096083164215, -0.0030295043252408504, -0.002521912567317486, -0.002014320809394121, -0.0015067290514707565, -0.0009991372935473919, -0.0004915455356240273, 1.6046222299337387e-05, 0.000523637980222702, 0.0010312297381460667, 0.0015388214960694313, 0.002046413253992796, 0.0025540050119161606, 0.0030615967698395252, 0.00356918852776289, 0.0040767802856862545, 0.004584372043609619, 0.005091963801532984, 0.005599555559456348, 0.006107147317379713, 0.006614739075303078, 0.007122330833226442, 0.007629922591149807, 0.008137514814734459, 0.008645106106996536]}, "gradients/graph_1taskmapper.lins.0.weight": {"_type": "histogram", "values": [1.0, 0.0, 0.0, 0.0, 0.0, 2.0, 2.0, 1.0, 3.0, 2.0, 2.0, 5.0, 5.0, 3.0, 11.0, 6.0, 11.0, 10.0, 16.0, 15.0, 33.0, 38.0, 30.0, 51.0, 91.0, 87.0, 62.0, 51.0, 38.0, 27.0, 20.0, 20.0, 7.0, 12.0, 4.0, 7.0, 4.0, 9.0, 6.0, 6.0, 8.0, 3.0, 5.0, 3.0, 5.0, 9.0, 2.0, 6.0, 3.0, 4.0, 2.0, 3.0, 1.0, 3.0, 2.0, 1.0, 2.0, 4.0, 0.0, 0.0, 1.0, 1.0, 0.0, 2.0], "bins": [-0.002041132189333439, -0.0019594193436205387, -0.0018777064979076385, -0.0017959936521947384, -0.0017142808064818382, -0.001632567960768938, -0.0015508552314713597, -0.0014691423857584596, -0.0013874295400455594, -0.0013057166943326592, -0.001224003848619759, -0.0011422911193221807, -0.0010605782736092806, -0.0009788654278963804, -0.0008971525821834803, -0.0008154397364705801, -0.0007337268907576799, -0.0006520140450447798, -0.0005703011993318796, -0.0004885884118266404, -0.0004068755661137402, -0.00032516272040084004, -0.0002434499328956008, -0.00016173708718270063, -8.002424146980047e-05, 1.6885896911844611e-06, 8.34014208521694e-05, 0.0001651142374612391, 0.00024682708317413926, 0.0003285399288870394, 0.00041025271639227867, 0.0004919655621051788, 0.0005736781749874353, 0.0006553910207003355, 0.0007371038664132357, 0.0008188166539184749, 0.0009005294996313751, 0.0009822424035519361, 0.0010639551328495145, 0.0011456679785624146, 0.0012273808242753148, 0.001309093669988215, 0.0013908065157011151, 0.0014725192449986935, 0.0015542320907115936, 0.0016359449364244938, 0.001717657782137394, 0.0017993706278502941, 0.0018810834735631943, 0.0019627963192760944, 0.0020445091649889946, 0.0021262220107018948, 0.002207934856414795, 0.002289647702127695, 0.0023713605478405952, 0.0024530733935534954, 0.0025347862392663956, 0.0026164990849792957, 0.002698211930692196, 0.002779924776405096, 0.002861637622117996, 0.0029433504678308964, 0.0030250633135437965, 0.0031067761592566967, 0.003188488772138953]}, "gradients/graph_1_projector.0.bias": {"_type": "histogram", "values": [1.0, 1.0, 0.0, 1.0, 0.0, 0.0, 0.0, 0.0, 1.0, 0.0, 0.0, 0.0, 0.0, 0.0, 0.0, 1.0, 0.0, 0.0, 1.0, 0.0, 1.0, 1.0, 0.0, 0.0, 2.0, 0.0, 1.0, 0.0, 2.0, 1.0, 3.0, 0.0, 1.0, 0.0, 0.0, 3.0, 0.0, 1.0, 0.0, 1.0, 2.0, 1.0, 0.0, 1.0, 0.0, 0.0, 0.0, 1.0, 1.0, 1.0, 0.0, 0.0, 0.0, 0.0, 0.0, 0.0, 0.0, 0.0, 1.0, 0.0, 0.0, 0.0, 0.0, 1.0], "bins": [-0.04143354669213295, -0.04011054337024689, -0.038787540048360825, -0.03746453672647476, -0.0361415334045887, -0.03481853008270264, -0.033495526760816574, -0.03217252343893051, -0.03084952011704445, -0.029526516795158386, -0.028203513473272324, -0.02688051015138626, -0.0255575068295002, -0.024234503507614136, -0.022911500185728073, -0.02158849686384201, -0.020265493541955948, -0.018942490220069885, -0.017619486898183823, -0.01629648357629776, -0.014973480254411697, -0.013650476932525635, -0.012327473610639572, -0.01100447028875351, -0.009681466966867447, -0.008358463644981384, -0.007035460323095322, -0.005712457001209259, -0.004389453679323196, -0.003066450357437134, -0.0017434470355510712, -0.00042044371366500854, 0.0009025558829307556, 0.0022255592048168182, 0.003548562526702881, 0.0048715658485889435, 0.006194569170475006, 0.007517572492361069, 0.008840575814247131, 0.010163579136133194, 0.011486582458019257, 0.01280958577990532, 0.014132589101791382, 0.015455592423677444, 0.016778595745563507, 0.01810159906744957, 0.019424602389335632, 0.020747605711221695, 0.022070609033107758, 0.02339361235499382, 0.024716615676879883, 0.026039618998765945, 0.027362622320652008, 0.02868562564253807, 0.030008628964424133, 0.031331632286310196, 0.03265463560819626, 0.03397763893008232, 0.035300642251968384, 0.036623645573854446, 0.03794664889574051, 0.03926965221762657, 0.040592655539512634, 0.0419156588613987, 0.04323866218328476]}, "gradients/graph_1_projector.0.weight": {"_type": "histogram", "values": [1.0, 3.0, 5.0, 3.0, 7.0, 7.0, 14.0, 11.0, 20.0, 23.0, 38.0, 56.0, 61.0, 91.0, 94.0, 130.0, 174.0, 199.0, 222.0, 265.0, 299.0, 320.0, 387.0, 393.0, 432.0, 439.0, 500.0, 422.0, 448.0, 405.0, 416.0, 351.0, 334.0, 306.0, 251.0, 223.0, 182.0, 136.0, 119.0, 109.0, 68.0, 48.0, 50.0, 27.0, 35.0, 20.0, 13.0, 8.0, 11.0, 2.0, 4.0, 4.0, 0.0, 2.0, 0.0, 2.0, 0.0, 0.0, 0.0, 0.0, 0.0, 0.0, 1.0, 1.0], "bins": [-0.07988258451223373, -0.07691189646720886, -0.07394121587276459, -0.07097052782773972, -0.06799983978271484, -0.06502915173768997, -0.0620584674179554, -0.059087783098220825, -0.05611709505319595, -0.05314640700817108, -0.05017572268843651, -0.047205038368701935, -0.04423435032367706, -0.04126366227865219, -0.03829297795891762, -0.035322293639183044, -0.03235160559415817, -0.02938091941177845, -0.026410233229398727, -0.023439547047019005, -0.020468860864639282, -0.01749817468225956, -0.014527488499879837, -0.011556802317500114, -0.008586116135120392, -0.005615429952740669, -0.0026447437703609467, 0.00032594241201877594, 0.0032966285943984985, 0.006267314776778221, 0.009238000959157944, 0.012208687141537666, 0.015179373323917389, 0.01815005950629711, 0.021120745688676834, 0.024091431871056557, 0.02706211805343628, 0.030032804235816002, 0.033003490418195724, 0.0359741747379303, 0.03894486278295517, 0.04191555082798004, 0.044886235147714615, 0.04785691946744919, 0.05082760751247406, 0.05379829555749893, 0.056768979877233505, 0.05973966419696808, 0.06271035224199295, 0.06568104028701782, 0.0686517208814621, 0.07162240892648697, 0.07459309697151184, 0.07756378501653671, 0.08053447306156158, 0.08350515365600586, 0.08647584170103073, 0.0894465297460556, 0.09241721034049988, 0.09538789838552475, 0.09835858643054962, 0.1013292744755745, 0.10429996252059937, 0.10727064311504364, 0.11024133116006851]}, "gradients/graph_1_encoder.encoder.12.bias": {"_type": "histogram", "values": [2.0, 1.0, 2.0, 1.0, 0.0, 1.0, 0.0, 1.0, 2.0, 0.0, 1.0, 3.0, 2.0, 2.0, 2.0, 2.0, 1.0, 3.0, 6.0, 7.0, 7.0, 7.0, 6.0, 7.0, 8.0, 5.0, 9.0, 8.0, 10.0, 11.0, 11.0, 5.0, 11.0, 10.0, 8.0, 11.0, 6.0, 7.0, 7.0, 10.0, 8.0, 6.0, 5.0, 6.0, 4.0, 6.0, 1.0, 2.0, 2.0, 1.0, 1.0, 0.0, 2.0, 1.0, 1.0, 1.0, 0.0, 4.0, 0.0, 0.0, 0.0, 0.0, 1.0, 1.0], "bins": [-0.02310134470462799, -0.022364886477589607, -0.021628428250551224, -0.02089197002351284, -0.020155511796474457, -0.019419051706790924, -0.01868259347975254, -0.017946135252714157, -0.017209677025675774, -0.01647321879863739, -0.015736760571599007, -0.015000301413238049, -0.014263843186199665, -0.013527384959161282, -0.012790925800800323, -0.01205446757376194, -0.011318009346723557, -0.010581551119685173, -0.00984509289264679, -0.009108633734285831, -0.008372175507247448, -0.0076357172802090645, -0.006899258587509394, -0.006162799894809723, -0.005426341667771339, -0.004689883440732956, -0.003953424748033285, -0.003216966288164258, -0.002480507828295231, -0.0017440493684262037, -0.0010075909085571766, -0.0002711322158575058, 0.0004653278738260269, 0.001201786333695054, 0.0019382447935640812, 0.0026747032534331083, 0.0034111617133021355, 0.004147619940340519, 0.00488407863304019, 0.0056205373257398605, 0.006356995552778244, 0.0070934537798166275, 0.007829912006855011, 0.008566371165215969, 0.009302829392254353, 0.010039287619292736, 0.010775746777653694, 0.011512205004692078, 0.012248663231730461, 0.012985121458768845, 0.013721579685807228, 0.014458038844168186, 0.01519449707120657, 0.015930956229567528, 0.01666741445660591, 0.017403872683644295, 0.018140330910682678, 0.01887678913772106, 0.019613247364759445, 0.02034970559179783, 0.021086163818836212, 0.021822623908519745, 0.02255908213555813, 0.023295540362596512, 0.024031998589634895]}, "gradients/graph_1_encoder.encoder.12.weight": {"_type": "histogram", "values": [3.0, 1.0, 1.0, 7.0, 9.0, 6.0, 10.0, 23.0, 21.0, 44.0, 47.0, 74.0, 121.0, 154.0, 210.0, 317.0, 443.0, 542.0, 699.0, 956.0, 1209.0, 1545.0, 1919.0, 2369.0, 2771.0, 3253.0, 3730.0, 4021.0, 4235.0, 4382.0, 4385.0, 4240.0, 3883.0, 3545.0, 3188.0, 2697.0, 2307.0, 1886.0, 1483.0, 1169.0, 908.0, 725.0, 551.0, 427.0, 277.0, 224.0, 150.0, 109.0, 89.0, 54.0, 49.0, 27.0, 17.0, 6.0, 5.0, 0.0, 5.0, 2.0, 3.0, 0.0, 1.0, 1.0, 0.0, 1.0], "bins": [-0.04011205583810806, -0.0387750044465065, -0.03743794932961464, -0.03610089793801308, -0.034763846546411514, -0.03342679142951965, -0.03208974003791809, -0.03075268678367138, -0.029415633529424667, -0.028078580275177956, -0.026741528883576393, -0.02540447562932968, -0.02406742237508297, -0.022730369120836258, -0.021393317729234695, -0.020056264474987984, -0.01871921308338642, -0.01738215982913971, -0.016045108437538147, -0.014708055183291435, -0.013371001929044724, -0.012033949606120586, -0.01069689728319645, -0.009359844028949738, -0.0080227917060256, -0.006685738917440176, -0.005348686128854752, -0.0040116338059306145, -0.00267458101734519, -0.0013375282287597656, -4.759058356285095e-07, 0.0013365773484110832, 0.0026736296713352203, 0.004010682459920645, 0.005347735248506069, 0.006684787571430206, 0.008021840825676918, 0.009358893148601055, 0.010695945471525192, 0.012032998725771904, 0.013370051048696041, 0.014707103371620178, 0.01604415662586689, 0.0173812098801136, 0.018718261271715164, 0.020055314525961876, 0.021392367780208588, 0.02272941917181015, 0.024066472426056862, 0.025403525680303574, 0.026740577071905136, 0.028077630326151848, 0.02941468358039856, 0.030751734972000122, 0.032088786363601685, 0.033425841480493546, 0.03476289287209511, 0.03609994426369667, 0.03743699938058853, 0.038774050772190094, 0.040111102163791656, 0.04144815728068352, 0.04278520867228508, 0.04412226378917694, 0.0454593151807785]}, "gradients/graph_1_encoder.encoder.9.weight": {"_type": "histogram", "values": [1.0, 0.0, 0.0, 0.0, 0.0, 0.0, 1.0, 0.0, 0.0, 0.0, 0.0, 1.0, 0.0, 3.0, 0.0, 3.0, 0.0, 1.0, 1.0, 2.0, 3.0, 6.0, 3.0, 3.0, 8.0, 7.0, 4.0, 10.0, 11.0, 7.0, 10.0, 9.0, 9.0, 11.0, 9.0, 8.0, 12.0, 10.0, 7.0, 12.0, 10.0, 7.0, 6.0, 6.0, 12.0, 6.0, 6.0, 3.0, 2.0, 5.0, 3.0, 1.0, 5.0, 0.0, 3.0, 1.0, 1.0, 2.0, 1.0, 1.0, 1.0, 0.0, 1.0, 1.0], "bins": [-0.018893638625741005, -0.01836356148123741, -0.017833486199378967, -0.017303409054875374, -0.01677333191037178, -0.016243256628513336, -0.015713179484009743, -0.01518310233950615, -0.01465302612632513, -0.014122949913144112, -0.013592872768640518, -0.0130627965554595, -0.01253272034227848, -0.012002643197774887, -0.011472566984593868, -0.01094249077141285, -0.010412413626909256, -0.009882337413728237, -0.009352260269224644, -0.008822184056043625, -0.008292106911540031, -0.007762030698359013, -0.007231954485177994, -0.006701877806335688, -0.0061718011274933815, -0.005641724448651075, -0.005111647769808769, -0.00458157155662775, -0.004051494877785444, -0.003521418198943138, -0.0029913417529314756, -0.002461265306919813, -0.0019311867654323578, -0.0014011102030053735, -0.0008710336405783892, -0.00034095707815140486, 0.00018911948427557945, 0.0007191961631178856, 0.001249272609129548, 0.0017793490551412106, 0.0023094257339835167, 0.002839502412825823, 0.0033695788588374853, 0.003899655304849148, 0.004429731983691454, 0.00495980866253376, 0.005489884875714779, 0.006019961554557085, 0.006550038233399391, 0.007080114912241697, 0.0076101915910840034, 0.008140267804265022, 0.008670344948768616, 0.009200421161949635, 0.009730497375130653, 0.010260574519634247, 0.010790650732815266, 0.011320726945996284, 0.011850804090499878, 0.012380880303680897, 0.012910956516861916, 0.013441033661365509, 0.013971109874546528, 0.014501186087727547, 0.01503126323223114]}, "gradients/graph_1_encoder.encoder.9.bias": {"_type": "histogram", "values": [1.0, 0.0, 0.0, 0.0, 0.0, 0.0, 1.0, 0.0, 0.0, 0.0, 3.0, 2.0, 3.0, 1.0, 2.0, 3.0, 4.0, 0.0, 7.0, 4.0, 4.0, 6.0, 6.0, 6.0, 6.0, 7.0, 7.0, 8.0, 6.0, 16.0, 6.0, 6.0, 8.0, 5.0, 5.0, 9.0, 11.0, 10.0, 13.0, 7.0, 8.0, 9.0, 5.0, 5.0, 9.0, 8.0, 4.0, 4.0, 4.0, 4.0, 6.0, 3.0, 0.0, 1.0, 0.0, 0.0, 0.0, 0.0, 1.0, 0.0, 1.0, 0.0, 0.0, 1.0], "bins": [-0.01815669797360897, -0.017607111483812332, -0.017057524994015694, -0.016507936641573906, -0.015958350151777267, -0.015408763661980629, -0.01485917717218399, -0.014309590682387352, -0.013760003261268139, -0.0132104167714715, -0.012660829350352287, -0.012111242860555649, -0.01156165637075901, -0.011012068949639797, -0.010462482459843159, -0.009912895038723946, -0.009363308548927307, -0.008813722059130669, -0.008264134638011456, -0.007714548148214817, -0.007164961192756891, -0.0066153742372989655, -0.006065787747502327, -0.005516200792044401, -0.004966613836586475, -0.00441702688112855, -0.0038674401585012674, -0.0033178534358739853, -0.0027682664804160595, -0.0022186795249581337, -0.0016690928023308516, -0.0011195060797035694, -0.0005699172616004944, -2.0330422557890415e-05, 0.0005292564164847136, 0.0010788432555273175, 0.0016284300945699215, 0.0021780170500278473, 0.0027276037726551294, 0.0032771904952824116, 0.0038267774507403374, 0.004376364406198263, 0.004925951361656189, 0.0054755378514528275, 0.006025124806910753, 0.006574711762368679, 0.0071242982521653175, 0.007673885207623243, 0.008223472163081169, 0.008773058652877808, 0.00932264607399702, 0.00987223256379366, 0.010421819984912872, 0.01097140647470951, 0.01152099296450615, 0.012070579454302788, 0.012620166875422001, 0.01316975336521864, 0.013719340786337852, 0.014268927276134491, 0.01481851376593113, 0.015368101187050343, 0.015917688608169556, 0.016467275097966194, 0.017016861587762833]}, "gradients/graph_1_encoder.encoder.8.bias": {"_type": "histogram", "values": [1.0, 0.0, 0.0, 0.0, 1.0, 0.0, 1.0, 0.0, 2.0, 3.0, 1.0, 4.0, 3.0, 9.0, 1.0, 4.0, 6.0, 2.0, 10.0, 6.0, 8.0, 4.0, 8.0, 13.0, 9.0, 6.0, 8.0, 15.0, 6.0, 2.0, 13.0, 11.0, 7.0, 7.0, 12.0, 6.0, 0.0, 9.0, 8.0, 6.0, 6.0, 15.0, 4.0, 1.0, 3.0, 4.0, 2.0, 1.0, 3.0, 0.0, 0.0, 0.0, 0.0, 0.0, 1.0, 1.0, 0.0, 1.0, 0.0, 1.0, 0.0, 0.0, 0.0, 1.0], "bins": [-2.7939677238464355e-09, -2.693468559300527e-09, -2.5929693947546184e-09, -2.49247023020871e-09, -2.3919710656628013e-09, -2.2914719011168927e-09, -2.190972736570984e-09, -2.0904735720250756e-09, -1.989974407479167e-09, -1.8894752429332584e-09, -1.7889760783873498e-09, -1.6884769138414413e-09, -1.5879777492955327e-09, -1.4874785847496241e-09, -1.3869794202037156e-09, -1.286480255657807e-09, -1.1859810911118984e-09, -1.0854819265659899e-09, -9.849827620200813e-10, -8.844835974741727e-10, -7.839844329282641e-10, -6.834852683823556e-10, -5.82986103836447e-10, -4.824869392905384e-10, -3.8198777474462986e-10, -2.814886101987213e-10, -1.8098944565281272e-10, -8.049028110690415e-11, 2.000888343900442e-11, 1.20508047984913e-10, 2.2100721253082156e-10, 3.2150637707673013e-10, 4.220055416226387e-10, 5.225047061685473e-10, 6.230038707144558e-10, 7.235030352603644e-10, 8.24002199806273e-10, 9.245013643521816e-10, 1.0250005288980901e-09, 1.1254996934439987e-09, 1.2259988579899073e-09, 1.3264980225358158e-09, 1.4269971870817244e-09, 1.527496351627633e-09, 1.6279955161735415e-09, 1.7284946807194501e-09, 1.8289938452653587e-09, 1.9294930098112673e-09, 2.029992174357176e-09, 2.1304913389030844e-09, 2.230990503448993e-09, 2.3314896679949015e-09, 2.43198883254081e-09, 2.5324879970867187e-09, 2.6329871616326272e-09, 2.733486326178536e-09, 2.8339854907244444e-09, 2.934484655270353e-09, 3.0349838198162615e-09, 3.13548298436217e-09, 3.2359821489080787e-09, 3.3364813134539872e-09, 3.436980477999896e-09, 3.5374796425458044e-09, 3.637978807091713e-09]}, "gradients/graph_1_encoder.encoder.8.weight": {"_type": "histogram", "values": [1.0, 0.0, 0.0, 0.0, 2.0, 1.0, 2.0, 1.0, 1.0, 3.0, 4.0, 3.0, 8.0, 14.0, 21.0, 32.0, 34.0, 56.0, 88.0, 139.0, 190.0, 242.0, 410.0, 508.0, 723.0, 1041.0, 1519.0, 1907.0, 2487.0, 3282.0, 4130.0, 4747.0, 5283.0, 5730.0, 5611.0, 5493.0, 4840.0, 4085.0, 3322.0, 2672.0, 1955.0, 1433.0, 1077.0, 805.0, 482.0, 382.0, 266.0, 179.0, 101.0, 47.0, 58.0, 39.0, 22.0, 19.0, 18.0, 8.0, 7.0, 1.0, 1.0, 0.0, 1.0, 1.0, 0.0, 2.0], "bins": [-0.06099473312497139, -0.059202536940574646, -0.057410337030887604, -0.05561814084649086, -0.05382594093680382, -0.052033744752407074, -0.05024154484272003, -0.04844934865832329, -0.046657152473926544, -0.0448649562895298, -0.04307275637984276, -0.041280560195446014, -0.03948836028575897, -0.03769616410136223, -0.035903967916965485, -0.03411176800727844, -0.0323195680975914, -0.030527370050549507, -0.028735172003507614, -0.02694297581911087, -0.025150775909423828, -0.023358579725027084, -0.02156638167798519, -0.0197741836309433, -0.017981985583901405, -0.016189787536859512, -0.01439758948981762, -0.012605392374098301, -0.010813194327056408, -0.009020996280014515, -0.0072287991642951965, -0.0054366011172533035, -0.003644406795501709, -0.0018522089812904596, -6.001116707921028e-05, 0.0017321864143013954, 0.0035243844613432884, 0.005316582508385181, 0.0071087796241045, 0.008900977671146393, 0.010693175718188286, 0.012485373765230179, 0.014277571812272072, 0.016069769859313965, 0.01786196604371071, 0.01965416595339775, 0.021446362137794495, 0.023238560184836388, 0.02503075823187828, 0.026822956278920174, 0.028615154325962067, 0.03040735051035881, 0.03219955042004585, 0.033991746604442596, 0.03578394651412964, 0.03757614269852638, 0.039368338882923126, 0.04116053506731987, 0.04295273497700691, 0.044744931161403656, 0.0465371310710907, 0.04832932725548744, 0.050121523439884186, 0.05191372334957123, 0.05370592325925827]}, "gradients/graph_1_encoder.encoder.5.weight": {"_type": "histogram", "values": [1.0, 0.0, 1.0, 1.0, 0.0, 0.0, 1.0, 1.0, 2.0, 1.0, 2.0, 1.0, 2.0, 1.0, 4.0, 3.0, 8.0, 1.0, 5.0, 4.0, 4.0, 6.0, 8.0, 9.0, 13.0, 9.0, 8.0, 11.0, 9.0, 9.0, 12.0, 9.0, 9.0, 14.0, 11.0, 8.0, 3.0, 5.0, 7.0, 7.0, 6.0, 3.0, 5.0, 3.0, 4.0, 8.0, 1.0, 2.0, 3.0, 0.0, 2.0, 1.0, 1.0, 2.0, 1.0, 0.0, 2.0, 0.0, 0.0, 0.0, 0.0, 0.0, 1.0, 1.0], "bins": [-0.01460336148738861, -0.014123561792075634, -0.013643762096762657, -0.01316396240144968, -0.012684162706136703, -0.012204362079501152, -0.011724562384188175, -0.011244762688875198, -0.010764962993562222, -0.010285163298249245, -0.009805363602936268, -0.009325563907623291, -0.00884576328098774, -0.008365964516997337, -0.007886163890361786, -0.007406364195048809, -0.006926564499735832, -0.006446764804422855, -0.0059669651091098785, -0.005487164948135614, -0.0050073652528226376, -0.004527565557509661, -0.004047765396535397, -0.0035679657012224197, -0.003088166005909443, -0.002608366310596466, -0.0021285663824528456, -0.001648766570724547, -0.0011689667589962482, -0.0006891670636832714, -0.00020936713553965092, 0.0002704327926039696, 0.0007502324879169464, 0.001230032299645245, 0.0017098321113735437, 0.0021896320395171642, 0.002669431734830141, 0.003149231430143118, 0.0036290313582867384, 0.004108831286430359, 0.004588630981743336, 0.0050684306770563126, 0.005548230372369289, 0.0060280305333435535, 0.00650783022865653, 0.006987629923969507, 0.007467430084943771, 0.007947229780256748, 0.008427029475569725, 0.008906829170882702, 0.009386628866195679, 0.009866428561508656, 0.010346228256821632, 0.010826028883457184, 0.01130582857877016, 0.011785628274083138, 0.012265427969396114, 0.012745227664709091, 0.013225027360022068, 0.013704827055335045, 0.014184627681970596, 0.014664426445960999, 0.01514422707259655, 0.015624026767909527, 0.016103826463222504]}, "gradients/graph_1_encoder.encoder.5.bias": {"_type": "histogram", "values": [1.0, 0.0, 0.0, 0.0, 0.0, 0.0, 2.0, 4.0, 1.0, 1.0, 3.0, 1.0, 2.0, 1.0, 3.0, 2.0, 4.0, 3.0, 1.0, 0.0, 6.0, 4.0, 8.0, 8.0, 10.0, 10.0, 9.0, 9.0, 6.0, 7.0, 7.0, 10.0, 6.0, 10.0, 2.0, 6.0, 5.0, 10.0, 5.0, 6.0, 12.0, 11.0, 7.0, 2.0, 4.0, 8.0, 4.0, 4.0, 5.0, 0.0, 2.0, 4.0, 3.0, 2.0, 4.0, 3.0, 4.0, 1.0, 0.0, 1.0, 0.0, 1.0, 0.0, 1.0], "bins": [-0.01459964457899332, -0.014144092798233032, -0.013688541017472744, -0.013232989236712456, -0.012777437455952168, -0.01232188567519188, -0.011866334825754166, -0.011410783044993877, -0.01095523126423359, -0.010499679483473301, -0.010044127702713013, -0.009588575921952724, -0.009133024141192436, -0.008677473291754723, -0.00822192057967186, -0.007766369730234146, -0.007310817483812571, -0.006855265703052282, -0.006399713922291994, -0.005944162607192993, -0.005488610826432705, -0.005033059045672417, -0.0045775072649121284, -0.00412195548415184, -0.0036664039362221956, -0.0032108521554619074, -0.002755300607532263, -0.0022997488267719746, -0.0018441971624270082, -0.0013886454980820417, -0.0009330937173217535, -0.0004775421693921089, -2.199038863182068e-05, 0.0004335613048169762, 0.0008891129982657731, 0.0013446647208184004, 0.0018002163851633668, 0.002255768049508333, 0.0027113198302686214, 0.003166871378198266, 0.0036224231589585543, 0.004077974706888199, 0.004533526487648487, 0.004989078268408775, 0.005444630049169064, 0.005900181829929352, 0.00635573361068964, 0.006811284925788641, 0.007266836706548929, 0.0077223884873092175, 0.008177939802408218, 0.008633491583168507, 0.009089043363928795, 0.009544595144689083, 0.010000146925449371, 0.01045569870620966, 0.010911250486969948, 0.011366802267730236, 0.011822354048490524, 0.012277905829250813, 0.0127334576100111, 0.013189008459448814, 0.013644561171531677, 0.014100112020969391, 0.014555663801729679]}, "gradients/graph_1_encoder.encoder.4.bias": {"_type": "histogram", "values": [1.0, 0.0, 0.0, 0.0, 0.0, 1.0, 0.0, 0.0, 1.0, 1.0, 0.0, 0.0, 0.0, 2.0, 1.0, 3.0, 0.0, 3.0, 1.0, 0.0, 6.0, 3.0, 3.0, 11.0, 2.0, 5.0, 5.0, 13.0, 4.0, 9.0, 10.0, 7.0, 22.0, 7.0, 27.0, 4.0, 6.0, 17.0, 6.0, 12.0, 12.0, 5.0, 9.0, 5.0, 7.0, 3.0, 4.0, 2.0, 3.0, 0.0, 0.0, 1.0, 0.0, 0.0, 3.0, 1.0, 2.0, 1.0, 2.0, 1.0, 0.0, 1.0, 0.0, 1.0], "bins": [-4.6566128730773926e-09, -4.520188667811453e-09, -4.383764462545514e-09, -4.247340257279575e-09, -4.110916052013636e-09, -3.974491846747696e-09, -3.838067641481757e-09, -3.701643436215818e-09, -3.5652192309498787e-09, -3.4287950256839395e-09, -3.2923708204180002e-09, -3.155946615152061e-09, -3.0195224098861217e-09, -2.8830982046201825e-09, -2.7466739993542433e-09, -2.610249794088304e-09, -2.473825588822365e-09, -2.3374013835564256e-09, -2.2009771782904863e-09, -2.064552973024547e-09, -1.928128767758608e-09, -1.7917045624926686e-09, -1.6552803572267294e-09, -1.5188561519607902e-09, -1.382431946694851e-09, -1.2460077414289117e-09, -1.1095835361629725e-09, -9.731593308970332e-10, -8.36735125631094e-10, -7.003109203651547e-10, -5.638867150992155e-10, -4.2746250983327627e-10, -2.9103830456733704e-10, -1.546140993013978e-10, -1.8189894035458565e-11, 1.1823431123048067e-10, 2.546585164964199e-10, 3.9108272176235914e-10, 5.275069270282984e-10, 6.639311322942376e-10, 8.003553375601768e-10, 9.36779542826116e-10, 1.0732037480920553e-09, 1.2096279533579946e-09, 1.3460521586239338e-09, 1.482476363889873e-09, 1.6189005691558123e-09, 1.7553247744217515e-09, 1.8917489796876907e-09, 2.02817318495363e-09, 2.164597390219569e-09, 2.3010215954855084e-09, 2.4374458007514477e-09, 2.573870006017387e-09, 2.710294211283326e-09, 2.8467184165492654e-09, 2.9831426218152046e-09, 3.119566827081144e-09, 3.255991032347083e-09, 3.3924152376130223e-09, 3.5288394428789616e-09, 3.665263648144901e-09, 3.80168785341084e-09, 3.938112058676779e-09, 4.0745362639427185e-09]}, "gradients/graph_1_encoder.encoder.4.weight": {"_type": "histogram", "values": [1.0, 0.0, 1.0, 3.0, 0.0, 4.0, 5.0, 1.0, 8.0, 7.0, 22.0, 27.0, 43.0, 48.0, 82.0, 131.0, 184.0, 252.0, 342.0, 472.0, 699.0, 920.0, 1185.0, 1619.0, 2139.0, 2870.0, 3403.0, 4208.0, 4989.0, 5503.0, 5621.0, 5547.0, 5074.0, 4427.0, 3671.0, 2987.0, 2308.0, 1836.0, 1370.0, 982.0, 742.0, 530.0, 367.0, 268.0, 222.0, 135.0, 86.0, 64.0, 40.0, 30.0, 20.0, 9.0, 11.0, 9.0, 4.0, 2.0, 2.0, 0.0, 1.0, 0.0, 1.0, 0.0, 0.0, 2.0], "bins": [-0.05935307592153549, -0.05742078274488449, -0.05548848956823349, -0.05355619639158249, -0.051623906940221786, -0.049691613763570786, -0.047759320586919785, -0.045827027410268784, -0.04389473795890808, -0.04196244478225708, -0.04003015160560608, -0.03809785842895508, -0.036165568977594376, -0.034233275800943375, -0.032300982624292374, -0.030368689447641373, -0.02843639627099037, -0.02650410309433937, -0.02457181178033352, -0.022639518603682518, -0.020707227289676666, -0.018774934113025665, -0.016842640936374664, -0.014910348691046238, -0.012978056445717812, -0.011045764200389385, -0.009113471955060959, -0.007181178778409958, -0.0052488865330815315, -0.003316594287753105, -0.0013843011111021042, 0.0005479911342263222, 0.0024802833795547485, 0.004412575624883175, 0.0063448683358728886, 0.008277161046862602, 0.010209453292191029, 0.012141745537519455, 0.014074038714170456, 0.016006331890821457, 0.01793862320482731, 0.01987091638147831, 0.02180320769548416, 0.023735500872135162, 0.025667794048786163, 0.027600085362792015, 0.029532378539443016, 0.03146466985344887, 0.03339696303009987, 0.03532925620675087, 0.03726154938340187, 0.03919383883476257, 0.041126132011413574, 0.043058425188064575, 0.044990718364715576, 0.04692301154136658, 0.04885530471801758, 0.05078759789466858, 0.05271989107131958, 0.05465218424797058, 0.056584473699331284, 0.058516766875982285, 0.060449060052633286, 0.062381353229284286, 0.06431364268064499]}, "gradients/graph_1_encoder.encoder.1.weight": {"_type": "histogram", "values": [1.0, 0.0, 0.0, 0.0, 0.0, 0.0, 0.0, 1.0, 0.0, 0.0, 0.0, 1.0, 1.0, 0.0, 2.0, 0.0, 2.0, 1.0, 1.0, 1.0, 6.0, 2.0, 2.0, 5.0, 5.0, 6.0, 8.0, 7.0, 8.0, 7.0, 15.0, 8.0, 8.0, 16.0, 8.0, 10.0, 10.0, 14.0, 17.0, 8.0, 10.0, 15.0, 11.0, 6.0, 7.0, 3.0, 2.0, 4.0, 3.0, 3.0, 3.0, 0.0, 2.0, 3.0, 2.0, 0.0, 0.0, 0.0, 0.0, 0.0, 0.0, 0.0, 0.0, 1.0], "bins": [-0.022921789437532425, -0.022267183288931847, -0.02161257714033127, -0.02095797285437584, -0.02030336670577526, -0.019648760557174683, -0.018994154408574104, -0.018339548259973526, -0.017684943974018097, -0.01703033782541752, -0.01637573167681694, -0.01572112739086151, -0.015066521242260933, -0.014411915093660355, -0.013757308945059776, -0.013102703727781773, -0.012448097579181194, -0.011793491430580616, -0.011138886213302612, -0.010484280064702034, -0.00982967484742403, -0.009175068698823452, -0.008520463481545448, -0.00786585733294487, -0.007211251650005579, -0.006556645967066288, -0.005902040284126997, -0.005247434601187706, -0.004592828452587128, -0.003938223235309124, -0.0032836170867085457, -0.0026290114037692547, -0.0019744057208299637, -0.0013198000378906727, -0.0006651942385360599, -1.0588439181447029e-05, 0.000644017243757844, 0.001298622926697135, 0.0019532288424670696, 0.0026078345254063606, 0.0032624402083456516, 0.003917045891284943, 0.004571651574224234, 0.005226257257163525, 0.005880863405764103, 0.006535468623042107, 0.007190074771642685, 0.007844680920243263, 0.008499286137521267, 0.009153892286121845, 0.009808497503399849, 0.010463103652000427, 0.011117708869278431, 0.01177231501787901, 0.012426920235157013, 0.013081526383757591, 0.01373613253235817, 0.014390738680958748, 0.015045343898236752, 0.015699949115514755, 0.016354555264115334, 0.017009161412715912, 0.01766376756131649, 0.01831837370991707, 0.018972977995872498]}, "gradients/graph_1_encoder.encoder.1.bias": {"_type": "histogram", "values": [1.0, 0.0, 0.0, 0.0, 0.0, 0.0, 5.0, 2.0, 4.0, 0.0, 0.0, 4.0, 1.0, 2.0, 2.0, 3.0, 3.0, 3.0, 7.0, 3.0, 4.0, 4.0, 7.0, 7.0, 5.0, 6.0, 5.0, 10.0, 2.0, 12.0, 7.0, 3.0, 12.0, 12.0, 10.0, 9.0, 7.0, 7.0, 6.0, 4.0, 8.0, 4.0, 9.0, 3.0, 11.0, 6.0, 3.0, 8.0, 5.0, 5.0, 2.0, 2.0, 3.0, 1.0, 2.0, 1.0, 0.0, 2.0, 0.0, 0.0, 1.0, 0.0, 0.0, 1.0], "bins": [-0.021432284265756607, -0.020787017419934273, -0.02014175057411194, -0.019496483728289604, -0.01885121688246727, -0.018205950036644936, -0.0175606831908226, -0.016915416345000267, -0.016270149499177933, -0.015624882653355598, -0.014979615807533264, -0.01433434896171093, -0.013689082115888596, -0.013043815270066261, -0.012398548424243927, -0.011753281578421593, -0.011108014732599258, -0.010462747886776924, -0.00981748104095459, -0.009172214195132256, -0.008526947349309921, -0.007881680503487587, -0.007236413657665253, -0.006591146811842918, -0.005945879966020584, -0.00530061312019825, -0.0046553462743759155, -0.004010079428553581, -0.003364812582731247, -0.0027195457369089127, -0.0020742788910865784, -0.001429012045264244, -0.000783747062087059, -0.00013848021626472473, 0.0005067866295576096, 0.0011520534753799438, 0.0017973203212022781, 0.0024425871670246124, 0.0030878540128469467, 0.003733120858669281, 0.004378387704491615, 0.00502365455031395, 0.005668921396136284, 0.006314188241958618, 0.0069594550877809525, 0.007604721933603287, 0.008249988779425621, 0.008895255625247955, 0.00954052247107029, 0.010185789316892624, 0.010831056162714958, 0.011476323008537292, 0.012121589854359627, 0.012766856700181961, 0.013412123546004295, 0.01405739039182663, 0.014702657237648964, 0.015347924083471298, 0.015993190929293633, 0.016638457775115967, 0.0172837246209383, 0.017928991466760635, 0.01857425831258297, 0.019219525158405304, 0.019864792004227638]}, "gradients/graph_1_encoder.encoder.0.bias": {"_type": "histogram", "values": [1.0, 0.0, 0.0, 0.0, 0.0, 0.0, 0.0, 0.0, 0.0, 0.0, 0.0, 0.0, 0.0, 0.0, 0.0, 1.0, 1.0, 0.0, 1.0, 0.0, 0.0, 1.0, 1.0, 0.0, 2.0, 1.0, 2.0, 0.0, 1.0, 4.0, 4.0, 2.0, 4.0, 9.0, 18.0, 21.0, 17.0, 16.0, 13.0, 17.0, 22.0, 18.0, 17.0, 12.0, 7.0, 11.0, 14.0, 1.0, 3.0, 3.0, 3.0, 2.0, 1.0, 0.0, 0.0, 2.0, 1.0, 0.0, 1.0, 0.0, 0.0, 0.0, 0.0, 1.0], "bins": [-1.1622905731201172e-06, -1.1329539120197296e-06, -1.103617250919342e-06, -1.0742805898189545e-06, -1.044943928718567e-06, -1.0156072676181793e-06, -9.862706065177917e-07, -9.569339454174042e-07, -9.275972843170166e-07, -8.98260623216629e-07, -8.689239621162415e-07, -8.395873010158539e-07, -8.102506399154663e-07, -7.809139788150787e-07, -7.515773177146912e-07, -7.222406566143036e-07, -6.92903995513916e-07, -6.635673344135284e-07, -6.342306733131409e-07, -6.048940122127533e-07, -5.755573511123657e-07, -5.462206900119781e-07, -5.168840289115906e-07, -4.87547367811203e-07, -4.5821070671081543e-07, -4.2887404561042786e-07, -3.995373845100403e-07, -3.702007234096527e-07, -3.4086406230926514e-07, -3.1152740120887756e-07, -2.8219074010849e-07, -2.528540790081024e-07, -2.2351741790771484e-07, -1.9418075680732727e-07, -1.648440957069397e-07, -1.3550743460655212e-07, -1.0617077350616455e-07, -7.683411240577698e-08, -4.7497451305389404e-08, -1.816079020500183e-08, 1.1175870895385742e-08, 4.0512531995773315e-08, 6.984919309616089e-08, 9.918585419654846e-08, 1.2852251529693604e-07, 1.578591763973236e-07, 1.8719583749771118e-07, 2.1653249859809875e-07, 2.4586915969848633e-07, 2.752058207988739e-07, 3.045424818992615e-07, 3.3387914299964905e-07, 3.632158041000366e-07, 3.925524652004242e-07, 4.2188912630081177e-07, 4.5122578740119934e-07, 4.805624485015869e-07, 5.098991096019745e-07, 5.392357707023621e-07, 5.685724318027496e-07, 5.979090929031372e-07, 6.272457540035248e-07, 6.565824151039124e-07, 6.859190762042999e-07, 7.152557373046875e-07]}, "gradients/graph_1_encoder.encoder.0.weight": {"_type": "histogram", "values": [1.0, 0.0, 0.0, 0.0, 0.0, 0.0, 0.0, 2.0, 2.0, 1.0, 4.0, 3.0, 3.0, 8.0, 12.0, 14.0, 28.0, 29.0, 45.0, 84.0, 80.0, 153.0, 192.0, 295.0, 467.0, 717.0, 1048.0, 1661.0, 2758.0, 4428.0, 7234.0, 11627.0, 18699.0, 28475.0, 39292.0, 36414.0, 25336.0, 16592.0, 10408.0, 6671.0, 4161.0, 2648.0, 1599.0, 1057.0, 663.0, 438.0, 271.0, 225.0, 136.0, 86.0, 50.0, 51.0, 26.0, 19.0, 11.0, 10.0, 5.0, 3.0, 4.0, 6.0, 2.0, 0.0, 0.0, 2.0], "bins": [-0.12511296570301056, -0.12153042107820511, -0.11794787645339966, -0.11436533182859421, -0.11078278720378876, -0.1072002425789833, -0.10361769795417786, -0.100035160779953, -0.09645260870456696, -0.0928700640797615, -0.08928751945495605, -0.0857049748301506, -0.08212243020534515, -0.0785398855805397, -0.07495734095573425, -0.0713748037815094, -0.06779225915670395, -0.0642097145318985, -0.06062716990709305, -0.0570446252822876, -0.05346208065748215, -0.0498795360326767, -0.046296995133161545, -0.042714450508356094, -0.039131905883550644, -0.035549361258745193, -0.03196681663393974, -0.028384273871779442, -0.02480172924697399, -0.02121918462216854, -0.01763664186000824, -0.01405409723520279, -0.010471552610397339, -0.006889008451253176, -0.0033064642921090126, 0.0002760794013738632, 0.0038586240261793137, 0.007441168650984764, 0.011023711413145065, 0.014606256037950516, 0.018188800662755966, 0.021771345287561417, 0.025353889912366867, 0.02893643267452717, 0.03251897543668747, 0.03610152006149292, 0.03968406468629837, 0.04326660931110382, 0.04684915393590927, 0.05043169856071472, 0.05401424318552017, 0.05759678781032562, 0.06117933243513107, 0.06476187705993652, 0.06834441423416138, 0.07192696630954742, 0.07550950348377228, 0.07909204810857773, 0.08267459273338318, 0.08625713735818863, 0.08983968198299408, 0.09342222660779953, 0.09700477123260498, 0.10058730840682983, 0.10416986048221588]}, "_wandb": {"runtime": 57}}