{"train_loss": 0.2917439043521881, "train_ssl_loss": 0.27936795353889465, "train_tmb_loss": 0.012375913560390472, "test_loss": 0.5846737623214722, "test_ssl_loss": 0.572713315486908, "test_tmb_loss": 0.011960363015532494, "_timestamp": 1697573120.2633417, "_runtime": 1006.6776237487793, "_step": 499, "gradients/taskmapper.out.bias": {"_type": "histogram", "values": [0.0, 0.0, 0.0, 0.0, 0.0, 0.0, 0.0, 0.0, 0.0, 0.0, 0.0, 0.0, 0.0, 0.0, 0.0, 0.0, 0.0, 0.0, 0.0, 0.0, 0.0, 0.0, 0.0, 0.0, 0.0, 0.0, 0.0, 0.0, 0.0, 0.0, 0.0, 0.0, 1.0, 0.0, 0.0, 0.0, 0.0, 0.0, 0.0, 0.0, 0.0, 0.0, 0.0, 0.0, 0.0, 0.0, 0.0, 0.0, 0.0, 0.0, 0.0, 0.0, 0.0, 0.0, 0.0, 0.0, 0.0, 0.0, 0.0, 0.0, 0.0, 0.0, 0.0, 0.0], "bins": [-0.0604843869805336, -0.0604843869805336, -0.0604843869805336, -0.0604843869805336, -0.0604843869805336, -0.0604843869805336, -0.0604843869805336, -0.0604843869805336, -0.0604843869805336, -0.0604843869805336, -0.0604843869805336, -0.0604843869805336, -0.0604843869805336, -0.0604843869805336, -0.0604843869805336, -0.0604843869805336, -0.0604843869805336, -0.0604843869805336, -0.0604843869805336, -0.0604843869805336, -0.0604843869805336, -0.0604843869805336, -0.0604843869805336, -0.0604843869805336, -0.0604843869805336, -0.0604843869805336, -0.0604843869805336, -0.0604843869805336, -0.0604843869805336, -0.0604843869805336, -0.0604843869805336, -0.0604843869805336, -0.0604843869805336, -0.0604843869805336, -0.0604843869805336, -0.0604843869805336, -0.0604843869805336, -0.0604843869805336, -0.0604843869805336, -0.0604843869805336, -0.0604843869805336, -0.0604843869805336, -0.0604843869805336, -0.0604843869805336, -0.0604843869805336, -0.0604843869805336, -0.0604843869805336, -0.0604843869805336, -0.0604843869805336, -0.0604843869805336, -0.0604843869805336, -0.0604843869805336, -0.0604843869805336, -0.0604843869805336, -0.0604843869805336, -0.0604843869805336, -0.0604843869805336, -0.0604843869805336, -0.0604843869805336, -0.0604843869805336, -0.0604843869805336, -0.0604843869805336, -0.0604843869805336, -0.0604843869805336, -0.0604843869805336]}, "gradients/taskmapper.out.weight": {"_type": "histogram", "values": [1.0, 1.0, 0.0, 0.0, 0.0, 0.0, 0.0, 1.0, 0.0, 0.0, 0.0, 0.0, 0.0, 0.0, 0.0, 0.0, 1.0, 1.0, 0.0, 0.0, 0.0, 0.0, 1.0, 0.0, 1.0, 0.0, 1.0, 0.0, 0.0, 1.0, 0.0, 0.0, 0.0, 0.0, 0.0, 0.0, 0.0, 0.0, 0.0, 0.0, 0.0, 0.0, 0.0, 0.0, 0.0, 0.0, 0.0, 0.0, 0.0, 0.0, 0.0, 0.0, 0.0, 0.0, 0.0, 1.0, 0.0, 0.0, 0.0, 0.0, 0.0, 1.0, 1.0, 4.0], "bins": [-0.023701243102550507, -0.023330911993980408, -0.02296057902276516, -0.02259024791419506, -0.022219914942979813, -0.021849583834409714, -0.021479250863194466, -0.021108919754624367, -0.02073858678340912, -0.02036825567483902, -0.01999792270362377, -0.019627591595053673, -0.019257258623838425, -0.018886927515268326, -0.018516594544053078, -0.01814626343548298, -0.01777593232691288, -0.01740560121834278, -0.017035268247127533, -0.016664937138557434, -0.016294604167342186, -0.015924273058772087, -0.015553941018879414, -0.01518360897898674, -0.014813276939094067, -0.014442944899201393, -0.01407261285930872, -0.013702280819416046, -0.013331949710845947, -0.012961617670953274, -0.0125912856310606, -0.012220953591167927, -0.011850621551275253, -0.01148028951138258, -0.011109957471489906, -0.010739625431597233, -0.01036929339170456, -0.00999896228313446, -0.009628630243241787, -0.009258298203349113, -0.00888796616345644, -0.008517634123563766, -0.008147302083671093, -0.007776970509439707, -0.007406638469547033, -0.00703630642965436, -0.006665974855422974, -0.0062956428155303, -0.005925310775637627, -0.005554978735744953, -0.00518464669585228, -0.0048143151216208935, -0.00444398308172822, -0.0040736510418355465, -0.0037033192347735167, -0.003332987427711487, -0.0029626553878188133, -0.00259232334792614, -0.00222199154086411, -0.0018516596173867583, -0.0014813276939094067, -0.001110995770432055, -0.0007406638469547033, -0.0003703320398926735, 0.0]}, "gradients/taskmapper.lins.1.bias": {"_type": "histogram", "values": [1.0, 0.0, 0.0, 1.0, 0.0, 1.0, 0.0, 0.0, 1.0, 0.0, 0.0, 1.0, 0.0, 0.0, 0.0, 0.0, 0.0, 0.0, 0.0, 1.0, 1.0, 0.0, 0.0, 1.0, 1.0, 0.0, 0.0, 0.0, 0.0, 0.0, 0.0, 0.0, 0.0, 0.0, 0.0, 0.0, 0.0, 0.0, 0.0, 0.0, 0.0, 0.0, 0.0, 0.0, 0.0, 0.0, 0.0, 0.0, 0.0, 1.0, 0.0, 1.0, 1.0, 1.0, 0.0, 0.0, 0.0, 1.0, 0.0, 0.0, 0.0, 0.0, 0.0, 2.0], "bins": [-0.017512159422039986, -0.017155582085251808, -0.01679900474846363, -0.016442425549030304, -0.016085848212242126, -0.01572927087545395, -0.015372693538665771, -0.015016116201877594, -0.014659537933766842, -0.014302960596978664, -0.013946382328867912, -0.013589804992079735, -0.013233227655291557, -0.012876649387180805, -0.012520072050392628, -0.012163493782281876, -0.011806916445493698, -0.01145033910870552, -0.011093760840594769, -0.010737183503806591, -0.010380606167018414, -0.010024027898907661, -0.009667450562119484, -0.009310873225331306, -0.008954295888543129, -0.008597718551754951, -0.0082411402836442, -0.007884562946856022, -0.007527985144406557, -0.007171407341957092, -0.006814830005168915, -0.00645825220271945, -0.0061016748659312725, -0.005745097063481808, -0.00538851972669363, -0.005031941924244165, -0.004675364121794701, -0.004318786785006523, -0.003962208982557058, -0.0036056311801075935, -0.0032490536104887724, -0.0028924760408699512, -0.0025358982384204865, -0.0021793206688016653, -0.0018227429827675223, -0.0014661652967333794, -0.0011095877271145582, -0.0007530099246650934, -0.0003964323550462723, -3.9854698115959764e-05, 0.00031672295881435275, 0.0006733005866408348, 0.0010298782726749778, 0.0013864559587091208, 0.001743033528327942, 0.0020996113307774067, 0.002456188900396228, 0.002812766470015049, 0.0031693442724645138, 0.003525921842083335, 0.003882499411702156, 0.004239077214151621, 0.004595655016601086, 0.004952232353389263, 0.005308810155838728]}, "gradients/taskmapper.lins.1.weight": {"_type": "histogram", "values": [1.0, 0.0, 0.0, 2.0, 1.0, 1.0, 1.0, 1.0, 2.0, 0.0, 1.0, 2.0, 1.0, 0.0, 2.0, 2.0, 1.0, 1.0, 2.0, 3.0, 3.0, 3.0, 6.0, 4.0, 3.0, 5.0, 3.0, 3.0, 4.0, 4.0, 6.0, 6.0, 4.0, 5.0, 4.0, 4.0, 5.0, 7.0, 6.0, 7.0, 11.0, 11.0, 8.0, 14.0, 8.0, 18.0, 12.0, 0.0, 49.0, 51.0, 28.0, 18.0, 12.0, 7.0, 3.0, 2.0, 2.0, 1.0, 4.0, 3.0, 0.0, 0.0, 3.0, 3.0], "bins": [-0.004796389024704695, -0.004697738215327263, -0.004599087871611118, -0.0045004370622336864, -0.004401786718517542, -0.00430313590914011, -0.0042044855654239655, -0.004105834756046534, -0.004007183946669102, -0.00390853313729167, -0.0038098827935755253, -0.003711232217028737, -0.003612581640481949, -0.003513930831104517, -0.0034152802545577288, -0.0033166296780109406, -0.003217979334294796, -0.0031193287577480078, -0.0030206781812012196, -0.0029220276046544313, -0.002823377028107643, -0.0027247262187302113, -0.002626075642183423, -0.002527425065636635, -0.0024287744890898466, -0.0023301239125430584, -0.00223147333599627, -0.002132822759449482, -0.00203417195007205, -0.0019355214899405837, -0.0018368707969784737, -0.0017382202204316854, -0.0016395694110542536, -0.0015409188345074654, -0.0014422682579606771, -0.001343617564998567, -0.0012449669884517789, -0.0011463164119049907, -0.0010476657189428806, -0.0009490151423960924, -0.0008503645658493042, -0.000751713989302516, -0.0006530633545480669, -0.0005544127197936177, -0.0004557621432468295, -0.0003571115667000413, -0.00025846093194559216, -0.00015981029719114304, -6.115972064435482e-05, 3.749088500626385e-05, 0.00013614149065688252, 0.0002347920963075012, 0.00033344270195811987, 0.0004320932785049081, 0.0005307439132593572, 0.0006293945480138063, 0.0007280451245605946, 0.0008266957011073828, 0.0009253463358618319, 0.001023996970616281, 0.0011226475471630692, 0.0012212981237098575, 0.0013199488166719675, 0.0014185993932187557, 0.001517249969765544]}, "gradients/taskmapper.lins.0.bias": {"_type": "histogram", "values": [1.0, 0.0, 0.0, 0.0, 0.0, 0.0, 0.0, 0.0, 0.0, 0.0, 1.0, 1.0, 0.0, 0.0, 1.0, 0.0, 0.0, 2.0, 2.0, 1.0, 1.0, 0.0, 2.0, 2.0, 0.0, 1.0, 1.0, 0.0, 2.0, 0.0, 1.0, 0.0, 0.0, 2.0, 1.0, 0.0, 0.0, 1.0, 0.0, 0.0, 0.0, 0.0, 0.0, 0.0, 0.0, 0.0, 0.0, 0.0, 0.0, 0.0, 0.0, 0.0, 0.0, 0.0, 0.0, 0.0, 0.0, 0.0, 0.0, 0.0, 0.0, 0.0, 0.0, 1.0], "bins": [-0.017507243901491165, -0.017062852159142494, -0.016618460416793823, -0.016174068674445152, -0.01572967879474163, -0.01528528705239296, -0.014840895310044289, -0.014396503567695618, -0.013952111825346947, -0.013507720082998276, -0.01306332927197218, -0.012618937529623508, -0.012174545787274837, -0.011730154976248741, -0.01128576323390007, -0.0108413714915514, -0.010396979749202728, -0.009952588006854057, -0.009508197195827961, -0.00906380545347929, -0.008619413711130619, -0.008175022900104523, -0.007730631157755852, -0.007286239415407181, -0.0068418486043810844, -0.006397457327693701, -0.00595306558534503, -0.005508674308657646, -0.005064282566308975, -0.004619891289621592, -0.004175500012934208, -0.003731108270585537, -0.003286716528236866, -0.0028423250187188387, -0.0023979335092008114, -0.0019535422325134277, -0.0015091506065800786, -0.0010647592134773731, -0.0006203677039593458, -0.0001759761944413185, 0.0002684153150767088, 0.0007128068245947361, 0.0011571983341127634, 0.0016015897272154689, 0.0020459811203181744, 0.0024903726298362017, 0.002934764139354229, 0.0033791556488722563, 0.0038235471583902836, 0.004267938435077667, 0.004712330177426338, 0.005156721454113722, 0.005601113196462393, 0.0060455044731497765, 0.006489896215498447, 0.006934287492185831, 0.007378678768873215, 0.007823070511221886, 0.008267461322247982, 0.008711853064596653, 0.009156244806945324, 0.00960063561797142, 0.010045027360320091, 0.010489419102668762, 0.010933810845017433]}, "gradients/taskmapper.lins.0.weight": {"_type": "histogram", "values": [2.0, 0.0, 0.0, 0.0, 0.0, 0.0, 2.0, 3.0, 1.0, 3.0, 2.0, 1.0, 3.0, 4.0, 3.0, 7.0, 4.0, 9.0, 11.0, 7.0, 19.0, 15.0, 30.0, 38.0, 41.0, 42.0, 36.0, 40.0, 35.0, 41.0, 35.0, 47.0, 34.0, 22.0, 32.0, 31.0, 25.0, 24.0, 16.0, 15.0, 8.0, 15.0, 10.0, 7.0, 9.0, 4.0, 6.0, 5.0, 3.0, 5.0, 0.0, 3.0, 5.0, 1.0, 1.0, 1.0, 2.0, 1.0, 0.0, 0.0, 0.0, 1.0, 0.0, 1.0], "bins": [-0.004063354805111885, -0.003936692140996456, -0.0038100294768810272, -0.0036833668127655983, -0.003556704381480813, -0.003430041717365384, -0.003303379053249955, -0.0031767163891345263, -0.003050053957849741, -0.002923391293734312, -0.002796728629618883, -0.002670065965503454, -0.002543403534218669, -0.00241674087010324, -0.002290078205987811, -0.002163415541872382, -0.0020367528777569532, -0.0019100902136415243, -0.0017834276659414172, -0.0016567650018259883, -0.0015301024541258812, -0.0014034397900104523, -0.0012767771258950233, -0.0011501144617795944, -0.0010234519140794873, -0.0008967893081717193, -0.0007701267022639513, -0.0006434640381485224, -0.0005168014322407544, -0.00039013882633298635, -0.00026347616221755743, -0.00013681355630978942, -1.0150950402021408e-05, 0.00011651167005766183, 0.00024317429051734507, 0.00036983692552894354, 0.0004964995314367115, 0.0006231621373444796, 0.0007498248014599085, 0.0008764874073676765, 0.0010031500132754445, 0.0011298126773908734, 0.0012564752250909805, 0.0013831378892064095, 0.0015098005533218384, 0.0016364631010219455, 0.0017631257651373744, 0.0018897883128374815, 0.0020164509769529104, 0.0021431136410683393, 0.0022697763051837683, 0.0023964387364685535, 0.0025231014005839825, 0.0026497640646994114, 0.0027764267288148403, 0.0029030893929302692, 0.003029752057045698, 0.003156414721161127, 0.003283077385276556, 0.003409740049391985, 0.00353640248067677, 0.003663065144792199, 0.003789727808907628, 0.003916390240192413, 0.004043052904307842]}, "gradients/_projector.0.bias": {"_type": "histogram", "values": [1.0, 0.0, 0.0, 0.0, 0.0, 0.0, 0.0, 0.0, 2.0, 0.0, 0.0, 0.0, 3.0, 1.0, 1.0, 1.0, 0.0, 0.0, 0.0, 0.0, 1.0, 0.0, 0.0, 0.0, 0.0, 1.0, 0.0, 0.0, 1.0, 0.0, 0.0, 0.0, 2.0, 0.0, 0.0, 0.0, 0.0, 0.0, 2.0, 0.0, 0.0, 0.0, 0.0, 2.0, 2.0, 0.0, 0.0, 1.0, 0.0, 0.0, 1.0, 2.0, 1.0, 2.0, 1.0, 1.0, 2.0, 0.0, 0.0, 0.0, 0.0, 0.0, 0.0, 1.0], "bins": [-0.01578441448509693, -0.015370005741715431, -0.014955596067011356, -0.014541187323629856, -0.014126778580248356, -0.013712368905544281, -0.01329796016216278, -0.01288355141878128, -0.01246914267539978, -0.01205473393201828, -0.011640324257314205, -0.011225915513932705, -0.010811506770551205, -0.01039709709584713, -0.00998268835246563, -0.00956827960908413, -0.009153870865702629, -0.008739462122321129, -0.008325052447617054, -0.007910643704235554, -0.0074962349608540535, -0.007081825751811266, -0.006667416542768478, -0.006253007799386978, -0.005838598124682903, -0.005424188915640116, -0.0050097801722586155, -0.004595370963215828, -0.004180962219834328, -0.00376655301079154, -0.0033521440345793962, -0.0029377350583672523, -0.002523326314985752, -0.002108917338773608, -0.0016945083625614643, -0.0012800992699339986, -0.0008656902937218547, -0.00045128120109438896, -3.6872224882245064e-05, 0.00037753675132989883, 0.0007919457275420427, 0.0012063547037541866, 0.0016207636799663305, 0.0020351726561784744, 0.002449581865221262, 0.002863990841433406, 0.0032783998176455498, 0.0036928087938576937, 0.004107217770069838, 0.004521626979112625, 0.004936035722494125, 0.005350444931536913, 0.005764853674918413, 0.006179262883961201, 0.006593671627342701, 0.0070080808363854885, 0.007422490045428276, 0.007836898788809776, 0.008251308463513851, 0.008665717206895351, 0.009080125950276852, 0.009494535624980927, 0.009908944368362427, 0.010323353111743927, 0.010737761855125427]}, "gradients/_projector.0.weight": {"_type": "histogram", "values": [1.0, 0.0, 1.0, 0.0, 2.0, 0.0, 3.0, 1.0, 0.0, 2.0, 9.0, 9.0, 16.0, 15.0, 15.0, 36.0, 38.0, 60.0, 67.0, 72.0, 116.0, 131.0, 210.0, 265.0, 277.0, 368.0, 357.0, 467.0, 497.0, 569.0, 537.0, 540.0, 531.0, 472.0, 438.0, 410.0, 360.0, 264.0, 249.0, 191.0, 151.0, 102.0, 90.0, 61.0, 51.0, 43.0, 22.0, 18.0, 14.0, 16.0, 8.0, 3.0, 5.0, 2.0, 5.0, 1.0, 1.0, 0.0, 1.0, 0.0, 0.0, 1.0, 0.0, 1.0], "bins": [-0.030500143766403198, -0.02951526641845703, -0.028530389070510864, -0.027545513585209846, -0.02656063623726368, -0.025575758889317513, -0.024590883404016495, -0.023606006056070328, -0.02262112870812416, -0.021636251360177994, -0.020651374012231827, -0.01966649852693081, -0.018681621178984642, -0.017696743831038475, -0.016711868345737457, -0.01572699099779129, -0.014742113649845123, -0.013757236301898956, -0.012772359885275364, -0.011787483468651772, -0.010802606120705605, -0.009817728772759438, -0.008832852356135845, -0.007847975939512253, -0.006863098591566086, -0.005878221709281206, -0.0048933448269963264, -0.003908467944711447, -0.002923591062426567, -0.0019387141801416874, -0.0009538372978568077, 3.1039584428071976e-05, 0.0010159201920032501, 0.00200079707428813, 0.0029856739565730095, 0.003970550838857889, 0.004955427721142769, 0.0059403046034276485, 0.006925181485712528, 0.00791005790233612, 0.008894935250282288, 0.009879812598228455, 0.010864689014852047, 0.01184956543147564, 0.012834442779421806, 0.013819320127367973, 0.014804196543991566, 0.015789072960615158, 0.016773950308561325, 0.017758827656507492, 0.01874370500445366, 0.019728580489754677, 0.020713457837700844, 0.02169833518564701, 0.02268321067094803, 0.023668088018894196, 0.024652965366840363, 0.02563784271478653, 0.026622720062732697, 0.027607595548033714, 0.02859247289597988, 0.02957735024392605, 0.030562225729227066, 0.03154710307717323, 0.0325319804251194]}, "gradients/_encoder.encoder.4.bias": {"_type": "histogram", "values": [1.0, 0.0, 0.0, 0.0, 0.0, 0.0, 1.0, 3.0, 0.0, 1.0, 2.0, 0.0, 3.0, 0.0, 1.0, 2.0, 4.0, 5.0, 2.0, 6.0, 4.0, 6.0, 5.0, 9.0, 4.0, 9.0, 8.0, 9.0, 7.0, 8.0, 11.0, 13.0, 5.0, 11.0, 4.0, 4.0, 11.0, 11.0, 6.0, 8.0, 3.0, 8.0, 4.0, 11.0, 10.0, 4.0, 6.0, 7.0, 3.0, 1.0, 1.0, 4.0, 1.0, 1.0, 1.0, 2.0, 2.0, 1.0, 0.0, 0.0, 0.0, 0.0, 0.0, 2.0], "bins": [-0.01554345153272152, -0.015075936913490295, -0.014608422294259071, -0.014140908606350422, -0.013673393987119198, -0.013205879367887974, -0.01273836474865675, -0.0122708510607481, -0.011803336441516876, -0.011335821822285652, -0.010868307203054428, -0.010400793515145779, -0.009933278895914555, -0.00946576427668333, -0.008998249657452106, -0.008530735969543457, -0.008063221350312233, -0.007595706731081009, -0.007128192577511072, -0.006660677958279848, -0.006193163804709911, -0.005725649185478687, -0.005258134566247463, -0.0047906204126775265, -0.004323105327785015, -0.0038555909413844347, -0.0033880765549838543, -0.0029205619357526302, -0.0024530477821826935, -0.0019855331629514694, -0.001518018776550889, -0.0010505043901503086, -0.0005829902365803719, -0.000115475821075961, 0.00035203859442844987, 0.0008195530390366912, 0.0012870674254372716, 0.0017545819282531738, 0.0022220963146537542, 0.0026896107010543346, 0.003157125087454915, 0.0036246394738554955, 0.0040921540930867195, 0.004559668246656656, 0.00502718286588788, 0.005494697019457817, 0.005962211638689041, 0.006429726257920265, 0.006897240411490202, 0.007364755030721426, 0.007832269184291363, 0.008299783803522587, 0.008767298422753811, 0.00923481211066246, 0.009702326729893684, 0.010169841349124908, 0.010637355968356133, 0.011104870587587357, 0.01157238520681858, 0.01203989889472723, 0.012507413513958454, 0.012974928133189678, 0.013442442752420902, 0.013909956440329552, 0.014377471059560776]}, "gradients/_encoder.encoder.4.weight": {"_type": "histogram", "values": [1.0, 0.0, 0.0, 1.0, 2.0, 1.0, 3.0, 2.0, 5.0, 5.0, 9.0, 14.0, 14.0, 25.0, 37.0, 32.0, 66.0, 74.0, 121.0, 168.0, 200.0, 318.0, 454.0, 690.0, 995.0, 1529.0, 2262.0, 3302.0, 4979.0, 6941.0, 8944.0, 9580.0, 7532.0, 5448.0, 3861.0, 2608.0, 1700.0, 1065.0, 811.0, 544.0, 372.0, 220.0, 166.0, 118.0, 90.0, 54.0, 49.0, 31.0, 20.0, 27.0, 9.0, 13.0, 4.0, 6.0, 6.0, 2.0, 2.0, 1.0, 1.0, 0.0, 0.0, 1.0, 0.0, 1.0], "bins": [-0.02472749911248684, -0.023934312164783478, -0.023141125217080116, -0.022347938269376755, -0.021554753184318542, -0.020761564373970032, -0.01996837928891182, -0.019175192341208458, -0.018382005393505096, -0.017588818445801735, -0.016795631498098373, -0.016002444550395012, -0.015209258534014225, -0.014416071586310863, -0.013622885569930077, -0.012829698622226715, -0.012036511674523354, -0.011243324726819992, -0.01045013777911663, -0.009656951762735844, -0.008863764815032482, -0.00807057786732912, -0.007277391385287046, -0.006484204903244972, -0.005691017955541611, -0.004897831007838249, -0.004104644525796175, -0.003311457810923457, -0.0025182710960507393, -0.0017250841483473778, -0.0009318976663053036, -0.00013871118426322937, 0.0006544776260852814, 0.0014476643409579992, 0.002240851055830717, 0.003034037770703435, 0.003827224485576153, 0.004620411433279514, 0.0054135979153215885, 0.006206784397363663, 0.006999971345067024, 0.007793158292770386, 0.008586345240473747, 0.009379531256854534, 0.010172718204557896, 0.010965905152261257, 0.011759091168642044, 0.012552278116345406, 0.013345465064048767, 0.014138652011752129, 0.01493183895945549, 0.01572502590715885, 0.016518212854862213, 0.017311397939920425, 0.018104584887623787, 0.01889777183532715, 0.01969095878303051, 0.02048414573073387, 0.021277332678437233, 0.022070519626140594, 0.022863704711198807, 0.023656893521547318, 0.02445007860660553, 0.02524326555430889, 0.026036452502012253]}, "gradients/_encoder.encoder.1.weight": {"_type": "histogram", "values": [1.0, 1.0, 1.0, 1.0, 1.0, 1.0, 4.0, 3.0, 8.0, 7.0, 4.0, 6.0, 4.0, 4.0, 7.0, 11.0, 9.0, 6.0, 11.0, 10.0, 14.0, 12.0, 17.0, 10.0, 12.0, 6.0, 11.0, 10.0, 11.0, 3.0, 10.0, 4.0, 3.0, 6.0, 2.0, 4.0, 4.0, 1.0, 3.0, 0.0, 2.0, 0.0, 3.0, 0.0, 0.0, 2.0, 0.0, 0.0, 3.0, 0.0, 0.0, 0.0, 1.0, 1.0, 0.0, 0.0, 0.0, 0.0, 0.0, 0.0, 0.0, 0.0, 0.0, 1.0], "bins": [-0.007982712239027023, -0.007630093488842249, -0.0072774747386574745, -0.006924855522811413, -0.006572236772626638, -0.006219618022441864, -0.005866998806595802, -0.005514380056411028, -0.0051617613062262535, -0.004809142556041479, -0.004456523805856705, -0.004103904590010643, -0.0037512858398258686, -0.003398667089641094, -0.003046048106625676, -0.002693429123610258, -0.0023408103734254837, -0.0019881916232407093, -0.0016355726402252913, -0.001282953773625195, -0.0009303349070250988, -0.0005777160404250026, -0.00022509717382490635, 0.0001275218091905117, 0.0004801405593752861, 0.0008327594259753823, 0.0011853782925754786, 0.0015379971591755748, 0.001890616025775671, 0.0022432347759604454, 0.0025958537589758635, 0.0029484727419912815, 0.003301091492176056, 0.0036537102423608303, 0.004006328992545605, 0.004358948208391666, 0.004711566958576441, 0.005064185708761215, 0.005416804924607277, 0.005769423674792051, 0.006122042424976826, 0.0064746611751616, 0.0068272799253463745, 0.007179899141192436, 0.007532517891377211, 0.007885136641561985, 0.008237755857408047, 0.008590374141931534, 0.008942993357777596, 0.009295612573623657, 0.009648230858147144, 0.010000850073993206, 0.010353468358516693, 0.010706087574362755, 0.011058706790208817, 0.011411326006054878, 0.011763944290578365, 0.012116563506424427, 0.012469181790947914, 0.012821801006793976, 0.013174420222640038, 0.013527038507163525, 0.013879657723009586, 0.014232276007533073, 0.014584895223379135]}, "gradients/_encoder.encoder.1.bias": {"_type": "histogram", "values": [1.0, 0.0, 1.0, 1.0, 0.0, 1.0, 0.0, 0.0, 0.0, 1.0, 0.0, 3.0, 0.0, 1.0, 1.0, 0.0, 2.0, 2.0, 6.0, 4.0, 8.0, 6.0, 9.0, 9.0, 8.0, 9.0, 12.0, 11.0, 13.0, 20.0, 13.0, 7.0, 19.0, 10.0, 18.0, 8.0, 7.0, 10.0, 5.0, 6.0, 6.0, 2.0, 0.0, 4.0, 2.0, 1.0, 3.0, 1.0, 1.0, 0.0, 0.0, 1.0, 0.0, 1.0, 1.0, 0.0, 0.0, 0.0, 0.0, 0.0, 0.0, 0.0, 0.0, 1.0], "bins": [-0.02557801641523838, -0.02472716197371483, -0.023876309394836426, -0.023025454953312874, -0.022174600511789322, -0.02132374793291092, -0.020472893491387367, -0.019622039049863815, -0.018771184608340263, -0.01792033016681671, -0.01706947758793831, -0.016218623146414757, -0.015367768704891205, -0.014516915194690228, -0.01366606168448925, -0.012815207242965698, -0.011964353732764721, -0.011113500222563744, -0.010262645781040192, -0.009411792270839214, -0.008560937829315662, -0.007710084319114685, -0.00685923034325242, -0.006008376367390156, -0.005157522391527891, -0.0043066684156656265, -0.003455814439803362, -0.002604960696771741, -0.0017541067209094763, -0.0009032529778778553, -5.239900201559067e-05, 0.000798454973846674, 0.0016493089497089386, 0.0025001629255712032, 0.003351016901433468, 0.004201870411634445, 0.005052724853157997, 0.0059035783633589745, 0.006754432339221239, 0.007605286315083504, 0.008456140756607056, 0.009306994266808033, 0.010157848708331585, 0.011008702218532562, 0.011859556660056114, 0.012710410170257092, 0.013561263680458069, 0.01441211812198162, 0.015262971632182598, 0.016113825142383575, 0.016964679583907127, 0.01781553402543068, 0.018666386604309082, 0.019517241045832634, 0.020368095487356186, 0.02121894806623459, 0.02206980250775814, 0.022920656949281693, 0.023771509528160095, 0.024622363969683647, 0.0254732184112072, 0.026324070990085602, 0.027174925431609154, 0.028025779873132706, 0.028876634314656258]}, "gradients/_encoder.encoder.0.bias": {"_type": "histogram", "values": [1.0, 1.0, 1.0, 0.0, 0.0, 0.0, 0.0, 0.0, 0.0, 0.0, 0.0, 2.0, 0.0, 0.0, 0.0, 1.0, 1.0, 1.0, 2.0, 0.0, 0.0, 4.0, 4.0, 4.0, 5.0, 11.0, 10.0, 7.0, 9.0, 12.0, 20.0, 23.0, 16.0, 26.0, 14.0, 6.0, 11.0, 10.0, 5.0, 9.0, 3.0, 5.0, 4.0, 2.0, 4.0, 4.0, 2.0, 5.0, 1.0, 0.0, 1.0, 0.0, 2.0, 1.0, 1.0, 2.0, 0.0, 1.0, 0.0, 0.0, 0.0, 1.0, 0.0, 1.0], "bins": [-5.513429641723633e-07, -5.344627425074577e-07, -5.175825208425522e-07, -5.007022991776466e-07, -4.838220775127411e-07, -4.6694185584783554e-07, -4.5006163418293e-07, -4.3318141251802444e-07, -4.163011908531189e-07, -3.9942096918821335e-07, -3.825407475233078e-07, -3.6566052585840225e-07, -3.487803041934967e-07, -3.3190008252859116e-07, -3.150198608636856e-07, -2.9813963919878006e-07, -2.812594175338745e-07, -2.6437919586896896e-07, -2.474989742040634e-07, -2.3061875253915787e-07, -2.1373853087425232e-07, -1.9685830920934677e-07, -1.7997808754444122e-07, -1.6309786587953568e-07, -1.4621764421463013e-07, -1.2933742254972458e-07, -1.1245720088481903e-07, -9.557697921991348e-08, -7.869675755500793e-08, -6.181653589010239e-08, -4.493631422519684e-08, -2.805609256029129e-08, -1.1175870895385742e-08, 5.704350769519806e-09, 2.2584572434425354e-08, 3.94647940993309e-08, 5.634501576423645e-08, 7.3225237429142e-08, 9.010545909404755e-08, 1.069856807589531e-07, 1.2386590242385864e-07, 1.407461240887642e-07, 1.5762634575366974e-07, 1.745065674185753e-07, 1.9138678908348083e-07, 2.0826701074838638e-07, 2.2514723241329193e-07, 2.420274540781975e-07, 2.5890767574310303e-07, 2.757878974080086e-07, 2.926681190729141e-07, 3.0954834073781967e-07, 3.264285624027252e-07, 3.4330878406763077e-07, 3.601890057325363e-07, 3.7706922739744186e-07, 3.939494490623474e-07, 4.1082967072725296e-07, 4.277098923921585e-07, 4.4459011405706406e-07, 4.614703357219696e-07, 4.783505573868752e-07, 4.952307790517807e-07, 5.121110007166862e-07, 5.289912223815918e-07]}, "gradients/_encoder.encoder.0.weight": {"_type": "histogram", "values": [3.0, 0.0, 1.0, 0.0, 2.0, 0.0, 1.0, 5.0, 4.0, 4.0, 5.0, 12.0, 5.0, 6.0, 9.0, 10.0, 19.0, 32.0, 38.0, 59.0, 63.0, 72.0, 101.0, 154.0, 200.0, 343.0, 531.0, 905.0, 1553.0, 3024.0, 5829.0, 12069.0, 24988.0, 56039.0, 66327.0, 28945.0, 11712.0, 5106.0, 2458.0, 1374.0, 752.0, 451.0, 292.0, 220.0, 132.0, 99.0, 65.0, 54.0, 40.0, 30.0, 19.0, 19.0, 20.0, 11.0, 10.0, 8.0, 5.0, 4.0, 7.0, 2.0, 1.0, 1.0, 3.0, 3.0], "bins": [-0.14612272381782532, -0.1418389528989792, -0.13755518198013306, -0.13327142596244812, -0.128987655043602, -0.12470388412475586, -0.12042012065649033, -0.11613635718822479, -0.11185258626937866, -0.10756881535053253, -0.103285051882267, -0.09900128841400146, -0.09471751749515533, -0.0904337465763092, -0.08614998310804367, -0.08186621963977814, -0.077582448720932, -0.07329867780208588, -0.06901491433382034, -0.06473115086555481, -0.06044737994670868, -0.05616361275315285, -0.051879845559597015, -0.047596078366041183, -0.04331231117248535, -0.03902854397892952, -0.03474477678537369, -0.030461009591817856, -0.026177242398262024, -0.021893475204706192, -0.01760970801115036, -0.013325940817594528, -0.009042173624038696, -0.004758406430482864, -0.00047463923692703247, 0.0038091279566287994, 0.008092895150184631, 0.012376662343740463, 0.016660429537296295, 0.020944196730852127, 0.02522796392440796, 0.02951173111796379, 0.03379549831151962, 0.038079265505075455, 0.04236303269863129, 0.04664679989218712, 0.05093056708574295, 0.05521433427929878, 0.059498101472854614, 0.06378187239170074, 0.06806563585996628, 0.07234939932823181, 0.07663317024707794, 0.08091694116592407, 0.0852007046341896, 0.08948446810245514, 0.09376823902130127, 0.0980520099401474, 0.10233577340841293, 0.10661953687667847, 0.1109033077955246, 0.11518707871437073, 0.11947084218263626, 0.1237546056509018, 0.12803837656974792]}}