{"train_loss": 0.1450301855802536, "train_ssl_loss": 0.1365269273519516, "train_tsk_loss": 0.008503235876560211, "test_loss": 0.36945074796676636, "test_ssl_loss": 0.3603796362876892, "test_tsk_loss": 0.00907115451991558, "_timestamp": 1697566739.1592078, "_runtime": 1061.0617399215698, "_step": 499, "gradients/taskmapper.out.bias": {"_type": "histogram", "values": [0.0, 0.0, 0.0, 0.0, 0.0, 0.0, 0.0, 0.0, 0.0, 0.0, 0.0, 0.0, 0.0, 0.0, 0.0, 0.0, 0.0, 0.0, 0.0, 0.0, 0.0, 0.0, 0.0, 0.0, 0.0, 0.0, 0.0, 0.0, 0.0, 0.0, 0.0, 0.0, 1.0, 0.0, 0.0, 0.0, 0.0, 0.0, 0.0, 0.0, 0.0, 0.0, 0.0, 0.0, 0.0, 0.0, 0.0, 0.0, 0.0, 0.0, 0.0, 0.0, 0.0, 0.0, 0.0, 0.0, 0.0, 0.0, 0.0, 0.0, 0.0, 0.0, 0.0, 0.0], "bins": [0.016989711672067642, 0.016989711672067642, 0.016989711672067642, 0.016989711672067642, 0.016989711672067642, 0.016989711672067642, 0.016989711672067642, 0.016989711672067642, 0.016989711672067642, 0.016989711672067642, 0.016989711672067642, 0.016989711672067642, 0.016989711672067642, 0.016989711672067642, 0.016989711672067642, 0.016989711672067642, 0.016989711672067642, 0.016989711672067642, 0.016989711672067642, 0.016989711672067642, 0.016989711672067642, 0.016989711672067642, 0.016989711672067642, 0.016989711672067642, 0.016989711672067642, 0.016989711672067642, 0.016989711672067642, 0.016989711672067642, 0.016989711672067642, 0.016989711672067642, 0.016989711672067642, 0.016989711672067642, 0.016989711672067642, 0.016989711672067642, 0.016989711672067642, 0.016989711672067642, 0.016989711672067642, 0.016989711672067642, 0.016989711672067642, 0.016989711672067642, 0.016989711672067642, 0.016989711672067642, 0.016989711672067642, 0.016989711672067642, 0.016989711672067642, 0.016989711672067642, 0.016989711672067642, 0.016989711672067642, 0.016989711672067642, 0.016989711672067642, 0.016989711672067642, 0.016989711672067642, 0.016989711672067642, 0.016989711672067642, 0.016989711672067642, 0.016989711672067642, 0.016989711672067642, 0.016989711672067642, 0.016989711672067642, 0.016989711672067642, 0.016989711672067642, 0.016989711672067642, 0.016989711672067642, 0.016989711672067642, 0.016989711672067642]}, "gradients/taskmapper.out.weight": {"_type": "histogram", "values": [6.0, 0.0, 0.0, 1.0, 0.0, 1.0, 0.0, 0.0, 0.0, 1.0, 1.0, 0.0, 0.0, 0.0, 0.0, 0.0, 0.0, 0.0, 0.0, 0.0, 0.0, 0.0, 0.0, 0.0, 0.0, 0.0, 0.0, 0.0, 0.0, 0.0, 0.0, 0.0, 0.0, 0.0, 0.0, 0.0, 0.0, 0.0, 0.0, 0.0, 0.0, 0.0, 0.0, 0.0, 0.0, 0.0, 0.0, 0.0, 0.0, 0.0, 0.0, 1.0, 0.0, 1.0, 1.0, 0.0, 0.0, 0.0, 0.0, 0.0, 0.0, 1.0, 0.0, 2.0], "bins": [0.0, 0.00010088189446832985, 0.0002017637889366597, 0.0003026456688530743, 0.0004035275778733194, 0.0005044094868935645, 0.0006052913377061486, 0.0007061732467263937, 0.0008070551557466388, 0.0009079370647668839, 0.001008818973787129, 0.001109700882807374, 0.0012105826754122972, 0.0013114647008478642, 0.0014123464934527874, 0.0015132284024730325, 0.0016141103114932775, 0.0017149922205135226, 0.0018158741295337677, 0.001916755922138691, 0.002017637947574258, 0.002118519740179181, 0.002219401765614748, 0.0023202835582196712, 0.0024211653508245945, 0.0025220471434295177, 0.0026229291688650846, 0.002723810961470008, 0.002824692986905575, 0.002925574779510498, 0.0030264565721154213, 0.003127338597550988, 0.003228220622986555, 0.0033291024155914783, 0.0034299844410270452, 0.0035308662336319685, 0.0036317482590675354, 0.0037326300516724586, 0.003833511844277382, 0.003934393636882305, 0.004035275895148516, 0.004136157687753439, 0.004237039480358362, 0.004337921738624573, 0.004438803531229496, 0.004539685323834419, 0.0046405671164393425, 0.004741448909044266, 0.004842330701649189, 0.004943212494254112, 0.0050440942868590355, 0.005144976545125246, 0.005245858337730169, 0.0053467401303350925, 0.005447621922940016, 0.005548504181206226, 0.00564938597381115, 0.005750267766416073, 0.005851149559020996, 0.005952031817287207, 0.00605291360989213, 0.006153795402497053, 0.006254677195101976, 0.006355559453368187, 0.00645644124597311]}, "gradients/taskmapper.lins.1.bias": {"_type": "histogram", "values": [1.0, 0.0, 0.0, 0.0, 0.0, 0.0, 0.0, 0.0, 0.0, 0.0, 6.0, 0.0, 0.0, 0.0, 0.0, 0.0, 0.0, 0.0, 0.0, 0.0, 0.0, 0.0, 0.0, 0.0, 0.0, 0.0, 1.0, 0.0, 0.0, 0.0, 0.0, 1.0, 0.0, 0.0, 0.0, 0.0, 0.0, 1.0, 0.0, 2.0, 0.0, 0.0, 0.0, 0.0, 0.0, 1.0, 0.0, 0.0, 0.0, 0.0, 0.0, 1.0, 0.0, 0.0, 0.0, 0.0, 0.0, 0.0, 1.0, 0.0, 0.0, 0.0, 0.0, 1.0], "bins": [-0.0009161799098365009, -0.0008270306279882789, -0.0007378813461400568, -0.0006487320642918348, -0.0005595827824436128, -0.0004704335005953908, -0.0003812842187471688, -0.00029213493689894676, -0.00020298565505072474, -0.00011383637320250273, -2.468709135428071e-05, 6.446219049394131e-05, 0.00015361147234216332, 0.00024276075419038534, 0.00033191003603860736, 0.0004210593178868294, 0.0005102085997350514, 0.0005993578815832734, 0.0006885071634314954, 0.0007776564452797174, 0.0008668057271279395, 0.0009559550089761615, 0.0010451043490320444, 0.0011342535726726055, 0.0012234027963131666, 0.0013125520199537277, 0.0014017013600096107, 0.0014908507000654936, 0.0015799999237060547, 0.0016691491473466158, 0.0017582984874024987, 0.0018474478274583817, 0.0019365972839295864, 0.0020257465075701475, 0.0021148957312107086, 0.0022040451876819134, 0.0022931944113224745, 0.0023823436349630356, 0.0024714930914342403, 0.0025606423150748014, 0.0026497915387153625, 0.0027389407623559237, 0.0028280899859964848, 0.0029172394424676895, 0.0030063886661082506, 0.0030955378897488117, 0.0031846873462200165, 0.0032738365698605776, 0.0033629857935011387, 0.0034521350171417, 0.003541284240782261, 0.0036304336972534657, 0.0037195829208940268, 0.003808732144534588, 0.0038978816010057926, 0.00398703059181571, 0.004076180048286915, 0.00416532950475812, 0.004254478495568037, 0.004343627952039242, 0.004432776942849159, 0.004521926399320364, 0.004611075855791569, 0.004700224846601486, 0.004789374303072691]}, "gradients/taskmapper.lins.1.weight": {"_type": "histogram", "values": [1.0, 0.0, 0.0, 0.0, 1.0, 2.0, 1.0, 3.0, 0.0, 4.0, 4.0, 3.0, 2.0, 6.0, 12.0, 4.0, 185.0, 6.0, 6.0, 10.0, 13.0, 15.0, 6.0, 11.0, 9.0, 7.0, 5.0, 5.0, 6.0, 7.0, 5.0, 2.0, 3.0, 3.0, 4.0, 3.0, 2.0, 1.0, 0.0, 4.0, 3.0, 2.0, 1.0, 4.0, 1.0, 0.0, 1.0, 3.0, 1.0, 1.0, 0.0, 1.0, 3.0, 0.0, 0.0, 0.0, 0.0, 0.0, 0.0, 1.0, 0.0, 0.0, 0.0, 1.0], "bins": [-0.0005554732633754611, -0.0005212483229115605, -0.00048702338244765997, -0.00045279847108758986, -0.0004185735306236893, -0.00038434859015978873, -0.0003501236787997186, -0.00031589873833581805, -0.0002816737978719175, -0.0002474488574080169, -0.00021322393149603158, -0.00017899900558404624, -0.00014477406512014568, -0.00011054912465624511, -7.632419874425977e-05, -4.209927283227444e-05, -7.874332368373871e-06, 2.635060081956908e-05, 6.057553400751203e-05, 9.480046719545498e-05, 0.00012902540038339794, 0.0001632503408472985, 0.00019747526675928384, 0.00023170019267126918, 0.00026592513313516974, 0.0003001500735990703, 0.0003343750140629709, 0.000368599925423041, 0.00040282486588694155, 0.0004370498063508421, 0.00047127471771091223, 0.0005054996581748128, 0.0005397245986387134, 0.0005739495391026139, 0.0006081744795665145, 0.0006423994200304151, 0.0006766243604943156, 0.0007108493009582162, 0.0007450741832144558, 0.0007792991236783564, 0.000813524064142257, 0.0008477490046061575, 0.0008819739450700581, 0.0009161988855339587, 0.0009504237677901983, 0.000984648708254099, 0.0010188736487179995, 0.0010530985891819, 0.0010873235296458006, 0.0011215484701097012, 0.0011557734105736017, 0.0011899983510375023, 0.0012242232915014029, 0.0012584482319653034, 0.001292673172429204, 0.0013268981128931046, 0.0013611230533570051, 0.0013953479938209057, 0.0014295729342848063, 0.0014637978747487068, 0.0014980228152126074, 0.001532247755676508, 0.0015664726961404085, 0.001600697636604309, 0.0016349224606528878]}, "gradients/taskmapper.lins.0.bias": {"_type": "histogram", "values": [1.0, 0.0, 1.0, 0.0, 0.0, 0.0, 0.0, 2.0, 1.0, 0.0, 0.0, 1.0, 1.0, 0.0, 1.0, 0.0, 1.0, 0.0, 1.0, 1.0, 1.0, 1.0, 1.0, 2.0, 1.0, 0.0, 0.0, 0.0, 1.0, 0.0, 0.0, 0.0, 0.0, 1.0, 2.0, 0.0, 1.0, 0.0, 0.0, 1.0, 0.0, 0.0, 0.0, 0.0, 0.0, 0.0, 0.0, 0.0, 0.0, 0.0, 0.0, 0.0, 0.0, 0.0, 0.0, 0.0, 0.0, 0.0, 0.0, 0.0, 0.0, 0.0, 0.0, 1.0], "bins": [-0.001027560094371438, -0.000897217309102416, -0.0007668744656257331, -0.0006365316221490502, -0.0005061888368800282, -0.00037584605161100626, -0.00024550320813432336, -0.00011516036465764046, 1.518242061138153e-05, 0.00014552523498423398, 0.0002758680493570864, 0.00040621086372993886, 0.0005365536781027913, 0.0006668964633718133, 0.0007972393068484962, 0.0009275821503251791, 0.001057924935594201, 0.001188267720863223, 0.001318610506132245, 0.0014489534078165889, 0.0015792961930856109, 0.0017096389783546329, 0.0018399818800389767, 0.0019703246653079987, 0.0021006674505770206, 0.0022310102358460426, 0.0023613530211150646, 0.0024916958063840866, 0.0026220385916531086, 0.0027523813769221306, 0.0028827243950217962, 0.003013067180290818, 0.003143410198390484, 0.003273752983659506, 0.003404095768928528, 0.00353443855419755, 0.003664781339466572, 0.003795124124735594, 0.003925466910004616, 0.004055810160934925, 0.00418615248054266, 0.004316495265811682, 0.004446838051080704, 0.004577180836349726, 0.004707523621618748, 0.00483786640688777, 0.004968209192156792, 0.005098552443087101, 0.005228895228356123, 0.005359238013625145, 0.005489580798894167, 0.005619923584163189, 0.005750266369432211, 0.005880609154701233, 0.006010951939970255, 0.006141294725239277, 0.006271637976169586, 0.006401980761438608, 0.00653232354670763, 0.006662666331976652, 0.006793009117245674, 0.006923351902514696, 0.007053694687783718, 0.007184037938714027, 0.007314380258321762]}, "gradients/taskmapper.lins.0.weight": {"_type": "histogram", "values": [1.0, 0.0, 0.0, 1.0, 1.0, 0.0, 1.0, 0.0, 2.0, 2.0, 2.0, 4.0, 1.0, 3.0, 7.0, 5.0, 5.0, 6.0, 4.0, 10.0, 12.0, 9.0, 11.0, 21.0, 20.0, 20.0, 31.0, 35.0, 29.0, 41.0, 124.0, 52.0, 38.0, 38.0, 31.0, 33.0, 17.0, 16.0, 17.0, 18.0, 17.0, 11.0, 9.0, 11.0, 7.0, 7.0, 2.0, 5.0, 6.0, 2.0, 4.0, 3.0, 5.0, 1.0, 2.0, 2.0, 1.0, 1.0, 0.0, 2.0, 0.0, 1.0, 0.0, 1.0], "bins": [-0.0017416145419701934, -0.001685397932305932, -0.0016291813226416707, -0.0015729647129774094, -0.001516748103313148, -0.0014605314936488867, -0.0014043148839846253, -0.001348098274320364, -0.0012918816646561027, -0.0012356650549918413, -0.00117944844532758, -0.0011232318356633186, -0.0010670152259990573, -0.001010798616334796, -0.0009545820066705346, -0.0008983653970062733, -0.0008421487873420119, -0.0007859321776777506, -0.0007297155680134892, -0.0006734989583492279, -0.0006172823486849666, -0.0005610657390207052, -0.0005048491293564439, -0.00044863251969218254, -0.0003924159100279212, -0.00033619930036365986, -0.0002799826906993985, -0.00022376608103513718, -0.00016754947137087584, -0.0001113328617066145, -5.511625204235315e-05, 1.1003576219081879e-06, 5.73168508708477e-05, 0.00011353346053510904, 0.00016975007019937038, 0.00022596667986363173, 0.00028218328952789307, 0.0003383998991921544, 0.00039461650885641575, 0.0004508331185206771, 0.0005070497281849384, 0.0005632663378491998, 0.0006194829475134611, 0.0006756995571777225, 0.0007319161668419838, 0.0007881327765062451, 0.0008443493861705065, 0.0009005659958347678, 0.0009567826054990292, 0.0010129992151632905, 0.0010692158248275518, 0.0011254324344918132, 0.0011816490441560745, 0.0012378656538203359, 0.0012940822634845972, 0.0013502988731488585, 0.0014065154828131199, 0.0014627320924773812, 0.0015189487021416426, 0.001575165311805904, 0.0016313819214701653, 0.0016875985311344266, 0.001743815140798688, 0.0018000317504629493, 0.0018562483601272106]}, "gradients/_projector.0.bias": {"_type": "histogram", "values": [1.0, 0.0, 0.0, 0.0, 0.0, 0.0, 0.0, 0.0, 0.0, 1.0, 0.0, 0.0, 1.0, 0.0, 0.0, 1.0, 1.0, 0.0, 1.0, 1.0, 1.0, 0.0, 0.0, 0.0, 2.0, 1.0, 0.0, 2.0, 1.0, 0.0, 0.0, 3.0, 0.0, 0.0, 1.0, 1.0, 1.0, 1.0, 0.0, 0.0, 1.0, 0.0, 0.0, 0.0, 0.0, 0.0, 1.0, 0.0, 2.0, 0.0, 0.0, 1.0, 0.0, 2.0, 0.0, 0.0, 0.0, 0.0, 0.0, 0.0, 0.0, 1.0, 2.0, 1.0], "bins": [-0.005098878405988216, -0.0049593751318752766, -0.004819872323423624, -0.004680369049310684, -0.004540866240859032, -0.004401362966746092, -0.004261860158294439, -0.0041223568841814995, -0.003982854075729847, -0.0038433510344475508, -0.0037038479931652546, -0.0035643449518829584, -0.0034248419106006622, -0.003285338869318366, -0.00314583582803607, -0.00300633255392313, -0.002866829512640834, -0.0027273264713585377, -0.0025878234300762415, -0.0024483203887939453, -0.002308817347511649, -0.002169314306229353, -0.002029811032116413, -0.0018903081072494388, -0.0017508050659671426, -0.0016113020246848464, -0.0014717989834025502, -0.0013322958257049322, -0.001192792784422636, -0.0010532897431403399, -0.0009137867018580437, -0.0007742836605757475, -0.000634780852124095, -0.0004952778108417988, -0.00035577474045567214, -0.0002162716700695455, -7.676862878724933e-05, 6.273441249504685e-05, 0.00020223751198500395, 0.00034174055326730013, 0.0004812435945495963, 0.0006207466358318925, 0.0007602496771141887, 0.0008997527766041458, 0.0010392558760941029, 0.001178758917376399, 0.0013182619586586952, 0.0014577649999409914, 0.0015972680412232876, 0.0017367710825055838, 0.00187627412378788, 0.002015777165070176, 0.0021552802063524723, 0.0022947832476347685, 0.0024342862889170647, 0.0025737895630300045, 0.002713292371481657, 0.002852795412763953, 0.0029922984540462494, 0.0031318014953285456, 0.0032713045366108418, 0.003410807577893138, 0.003550310619175434, 0.003689813893288374, 0.00382931693457067]}, "gradients/_projector.0.weight": {"_type": "histogram", "values": [1.0, 0.0, 0.0, 0.0, 0.0, 0.0, 0.0, 0.0, 0.0, 4.0, 0.0, 3.0, 5.0, 4.0, 10.0, 11.0, 15.0, 16.0, 23.0, 30.0, 32.0, 53.0, 76.0, 96.0, 113.0, 139.0, 161.0, 202.0, 225.0, 286.0, 373.0, 424.0, 459.0, 490.0, 556.0, 555.0, 558.0, 474.0, 454.0, 434.0, 320.0, 324.0, 252.0, 222.0, 150.0, 151.0, 107.0, 78.0, 74.0, 57.0, 46.0, 27.0, 22.0, 26.0, 13.0, 13.0, 9.0, 4.0, 6.0, 5.0, 1.0, 1.0, 1.0, 1.0], "bins": [-0.004232242237776518, -0.0041129314340651035, -0.003993620164692402, -0.0038743093609809875, -0.0037549983244389296, -0.0036356872878968716, -0.0035163764841854572, -0.0033970654476433992, -0.0032777544111013412, -0.0031584433745592833, -0.003039132570847869, -0.002919821534305811, -0.002800510497763753, -0.002681199461221695, -0.0025618886575102806, -0.0024425776209682226, -0.0023232665844261646, -0.0022039555478841066, -0.0020846447441726923, -0.0019653337076306343, -0.0018460226710885763, -0.0017267117509618402, -0.001607400830835104, -0.001488089794293046, -0.0013687789905816317, -0.0012494680704548955, -0.0011301570339128375, -0.0010108461137861013, -0.0008915350772440434, -0.0007722241571173072, -0.0006529131787829101, -0.000533602200448513, -0.00041429116390645504, -0.00029498018557205796, -0.0001756692217895761, -5.6358258007094264e-05, 6.295272032730281e-05, 0.00018226366955786943, 0.0003015746478922665, 0.0004208856262266636, 0.0005401966045610607, 0.0006595075828954577, 0.0007788185612298548, 0.0008981295395642519, 0.001017440459690988, 0.0011367513798177242, 0.0012560624163597822, 0.0013753734529018402, 0.0014946843730285764, 0.0016139952931553125, 0.0017333063296973705, 0.0018526172498241067, 0.001971928169950843, 0.002091239206492901, 0.002210550243034959, 0.002329861279577017, 0.002449172083288431, 0.002568483119830489, 0.0026877939235419035, 0.0028071049600839615, 0.0029264159966260195, 0.0030457270331680775, 0.003165037836879492, 0.00328434887342155, 0.003403659909963608]}, "gradients/_encoder.encoder.8.bias": {"_type": "histogram", "values": [1.0, 0.0, 0.0, 0.0, 0.0, 0.0, 1.0, 0.0, 0.0, 2.0, 1.0, 4.0, 2.0, 2.0, 3.0, 5.0, 5.0, 3.0, 3.0, 0.0, 7.0, 2.0, 5.0, 5.0, 4.0, 5.0, 8.0, 5.0, 12.0, 9.0, 4.0, 9.0, 11.0, 17.0, 9.0, 8.0, 6.0, 7.0, 6.0, 12.0, 10.0, 11.0, 6.0, 7.0, 2.0, 7.0, 6.0, 5.0, 2.0, 3.0, 1.0, 2.0, 1.0, 3.0, 0.0, 0.0, 4.0, 0.0, 0.0, 0.0, 0.0, 0.0, 1.0, 2.0], "bins": [-0.0017201321898028255, -0.0016685008304193616, -0.0016168695874512196, -0.0015652382280677557, -0.0015136069850996137, -0.0014619756257161498, -0.0014103443827480078, -0.001358713023364544, -0.0013070817803964019, -0.001255450421012938, -0.001203819178044796, -0.0011521878186613321, -0.00110055657569319, -0.0010489252163097262, -0.0009972939733415842, -0.0009456626139581203, -0.0008940313127823174, -0.0008424000116065145, -0.0007907687104307115, -0.0007391374092549086, -0.0006875061080791056, -0.0006358748069033027, -0.0005842434475198388, -0.0005326122045516968, -0.0004809808742720634, -0.00042934957309626043, -0.0003777182719204575, -0.0003260869416408241, -0.00027445564046502113, -0.0002228243392892182, -0.00017119303811341524, -0.0001195617369376123, -6.793043576180935e-05, -1.6299130948027596e-05, 3.533217386575416e-05, 8.696348231751472e-05, 0.00013859478349331766, 0.00019022609922103584, 0.00024185740039683878, 0.00029348870157264173, 0.0003451200027484447, 0.0003967513039242476, 0.00044838260510005057, 0.000500013935379684, 0.0005516452365554869, 0.0006032765377312899, 0.0006549078389070928, 0.0007065391400828958, 0.0007581704412586987, 0.0008098017424345016, 0.0008614330436103046, 0.0009130643447861075, 0.0009646956459619105, 0.0010163269471377134, 0.0010679583065211773, 0.0011195895494893193, 0.0011712209088727832, 0.001222852268256247, 0.001274483511224389, 0.001326114870607853, 0.001377746113575995, 0.0014293774729594588, 0.0014810087159276009, 0.0015326400753110647, 0.0015842713182792068]}, "gradients/_encoder.encoder.8.weight": {"_type": "histogram", "values": [3.0, 0.0, 3.0, 0.0, 5.0, 2.0, 4.0, 3.0, 12.0, 17.0, 15.0, 26.0, 29.0, 39.0, 49.0, 60.0, 110.0, 163.0, 223.0, 323.0, 452.0, 672.0, 990.0, 1444.0, 2081.0, 3048.0, 4255.0, 5982.0, 7420.0, 8460.0, 7764.0, 6206.0, 4719.0, 3283.0, 2360.0, 1579.0, 1156.0, 772.0, 530.0, 355.0, 279.0, 193.0, 123.0, 83.0, 58.0, 58.0, 30.0, 22.0, 24.0, 12.0, 8.0, 9.0, 3.0, 2.0, 3.0, 3.0, 3.0, 1.0, 1.0, 1.0, 1.0, 3.0, 1.0, 1.0], "bins": [-0.0021766654681414366, -0.0021032022777944803, -0.002029739087447524, -0.001956275664269924, -0.001882812473922968, -0.0018093492835760117, -0.0017358860932290554, -0.0016624229028820992, -0.001588959596119821, -0.0015154964057728648, -0.0014420330990105867, -0.0013685699086636305, -0.0012951067183166742, -0.0012216434115543962, -0.00114818022120744, -0.0010747169144451618, -0.0010012537240982056, -0.0009277904755435884, -0.0008543272269889712, -0.000780864036642015, -0.0007074007880873978, -0.0006339375395327806, -0.0005604743491858244, -0.00048701110063120723, -0.00041354785207659006, -0.0003400846035219729, -0.0002666213840711862, -0.00019315815006848425, -0.00011969491606578231, -4.623166751116514e-05, 2.7231551939621568e-05, 0.00010069477139040828, 0.0001741582527756691, 0.00024762150133028626, 0.000321084720781073, 0.0003945479402318597, 0.00046801118878647685, 0.000541474437341094, 0.0006149376276880503, 0.0006884008762426674, 0.0007618641247972846, 0.0008353273733519018, 0.0009087906219065189, 0.0009822538122534752, 0.0010557170026004314, 0.0011291803093627095, 0.0012026434997096658, 0.0012761068064719439, 0.0013495699968189, 0.0014230331871658564, 0.0014964964939281344, 0.0015699596842750907, 0.0016434229910373688, 0.001716886181384325, 0.0017903493717312813, 0.0018638125620782375, 0.0019372758688405156, 0.0020107391756027937, 0.00208420236594975, 0.002157665556296706, 0.0022311287466436625, 0.0023045921698212624, 0.0023780553601682186, 0.002451518550515175, 0.002524981740862131]}, "gradients/_encoder.encoder.5.weight": {"_type": "histogram", "values": [1.0, 0.0, 0.0, 0.0, 1.0, 0.0, 2.0, 0.0, 0.0, 0.0, 0.0, 0.0, 1.0, 0.0, 1.0, 0.0, 2.0, 3.0, 2.0, 2.0, 1.0, 5.0, 5.0, 4.0, 5.0, 1.0, 5.0, 7.0, 9.0, 10.0, 11.0, 8.0, 13.0, 17.0, 17.0, 16.0, 15.0, 17.0, 14.0, 8.0, 10.0, 6.0, 6.0, 3.0, 5.0, 3.0, 4.0, 3.0, 1.0, 2.0, 1.0, 1.0, 2.0, 1.0, 0.0, 1.0, 0.0, 0.0, 1.0, 1.0, 0.0, 0.0, 0.0, 2.0], "bins": [-0.0009101362666115165, -0.0008836741326376796, -0.0008572119986638427, -0.0008307498646900058, -0.0008042877307161689, -0.000777825596742332, -0.000751363520976156, -0.0007249013870023191, -0.0006984392530284822, -0.0006719771190546453, -0.0006455149850808084, -0.0006190528511069715, -0.0005925907753407955, -0.0005661286413669586, -0.0005396665073931217, -0.0005132043734192848, -0.0004867422394454479, -0.000460280105471611, -0.0004338179714977741, -0.0004073558666277677, -0.0003808937326539308, -0.0003544315986800939, -0.00032796949381008744, -0.00030150735983625054, -0.00027504522586241364, -0.00024858309188857675, -0.00022212097246665508, -0.0001956588530447334, -0.0001691967190708965, -0.0001427345850970596, -0.00011627246567513794, -8.981034625321627e-05, -6.334827048704028e-05, -3.6886143789161e-05, -1.0424017091281712e-05, 1.6038109606597573e-05, 4.250023630447686e-05, 6.896237027831376e-05, 9.542448970023543e-05, 0.0001218866091221571, 0.000148348743095994, 0.0001748108770698309, 0.00020127299649175256, 0.00022773511591367424, 0.00025419724988751113, 0.00028065938386134803, 0.0003071214887313545, 0.0003335836227051914, 0.00036004575667902827, 0.00038650789065286517, 0.00041297002462670207, 0.0004394321294967085, 0.0004658942634705454, 0.0004923563683405519, 0.0005188185023143888, 0.0005452806362882257, 0.0005717427702620625, 0.0005982049042358994, 0.0006246670382097363, 0.0006511291721835732, 0.0006775913061574101, 0.000704053440131247, 0.000730515515897423, 0.0007569776498712599, 0.0007834397838450968]}, "gradients/_encoder.encoder.5.bias": {"_type": "histogram", "values": [1.0, 0.0, 0.0, 0.0, 1.0, 0.0, 2.0, 0.0, 3.0, 3.0, 0.0, 2.0, 4.0, 2.0, 1.0, 1.0, 2.0, 2.0, 1.0, 0.0, 5.0, 3.0, 4.0, 3.0, 7.0, 5.0, 4.0, 9.0, 16.0, 14.0, 11.0, 10.0, 10.0, 17.0, 14.0, 11.0, 15.0, 9.0, 9.0, 9.0, 7.0, 3.0, 5.0, 5.0, 7.0, 1.0, 2.0, 4.0, 3.0, 2.0, 2.0, 0.0, 1.0, 1.0, 1.0, 1.0, 0.0, 0.0, 0.0, 0.0, 0.0, 0.0, 0.0, 1.0], "bins": [-0.0009569504181854427, -0.0009274694020859897, -0.0008979883277788758, -0.0008685073116794229, -0.0008390262955799699, -0.0008095452794805169, -0.0007800642633810639, -0.00075058318907395, -0.0007211021729744971, -0.0006916211568750441, -0.0006621400825679302, -0.0006326590664684772, -0.0006031780503690243, -0.0005736970342695713, -0.0005442160181701183, -0.0005147349438630044, -0.0004852539277635515, -0.0004557729116640985, -0.00042629186646081507, -0.00039681082125753164, -0.00036732980515807867, -0.0003378487890586257, -0.00030836774385534227, -0.00027888669865205884, -0.00024940568255260587, -0.00021992465190123767, -0.00019044362124986947, -0.00016096259059850127, -0.00013148155994713306, -0.00010200052929576486, -7.251949864439666e-05, -4.303846799302846e-05, -1.3557379133999348e-05, 1.5923651517368853e-05, 4.5404682168737054e-05, 7.488571282010525e-05, 0.00010436674347147346, 0.00013384777412284166, 0.00016332880477420986, 0.00019280983542557806, 0.00022229086607694626, 0.00025177188217639923, 0.00028125292737968266, 0.0003107339725829661, 0.00034021498868241906, 0.00036969600478187203, 0.00039917704998515546, 0.0004286580951884389, 0.00045813911128789186, 0.00048762012738734484, 0.0005171011434867978, 0.0005465822177939117, 0.0005760632338933647, 0.0006055442499928176, 0.0006350253242999315, 0.0006645063403993845, 0.0006939873564988375, 0.0007234683725982904, 0.0007529493886977434, 0.0007824304630048573, 0.0008119114791043103, 0.0008413924952037632, 0.0008708735695108771, 0.0009003545856103301, 0.0009298356017097831]}, "gradients/_encoder.encoder.4.bias": {"_type": "histogram", "values": [1.0, 0.0, 0.0, 0.0, 0.0, 0.0, 0.0, 0.0, 0.0, 0.0, 0.0, 0.0, 0.0, 0.0, 0.0, 0.0, 0.0, 2.0, 0.0, 0.0, 0.0, 0.0, 1.0, 0.0, 2.0, 3.0, 0.0, 5.0, 4.0, 2.0, 4.0, 8.0, 15.0, 18.0, 26.0, 34.0, 34.0, 33.0, 26.0, 13.0, 8.0, 2.0, 4.0, 1.0, 2.0, 2.0, 0.0, 0.0, 3.0, 0.0, 1.0, 0.0, 0.0, 1.0, 0.0, 0.0, 0.0, 0.0, 0.0, 0.0, 0.0, 0.0, 0.0, 1.0], "bins": [-4.656612873077393e-10, -4.5272940951690543e-10, -4.397975317260716e-10, -4.268656539352378e-10, -4.1393377614440396e-10, -4.0100189835357014e-10, -3.880700205627363e-10, -3.751381427719025e-10, -3.6220626498106867e-10, -3.4927438719023485e-10, -3.36342509399401e-10, -3.234106316085672e-10, -3.104787538177334e-10, -2.9754687602689955e-10, -2.8461499823606573e-10, -2.716831204452319e-10, -2.587512426543981e-10, -2.4581936486356426e-10, -2.3288748707273044e-10, -2.1995560928189661e-10, -2.070237314910628e-10, -1.9409185370022897e-10, -1.8115997590939514e-10, -1.6822809811856132e-10, -1.552962203277275e-10, -1.4236434253689367e-10, -1.2943246474605985e-10, -1.1650058695522603e-10, -1.035687091643922e-10, -9.063683137355838e-11, -7.770495358272456e-11, -6.477307579189073e-11, -5.184119800105691e-11, -3.8909320210223086e-11, -2.5977442419389263e-11, -1.304556462855544e-11, -1.1368683772161603e-13, 1.2818190953112207e-11, 2.575006874394603e-11, 3.8681946534779854e-11, 5.161382432561368e-11, 6.45457021164475e-11, 7.747757990728132e-11, 9.040945769811515e-11, 1.0334133548894897e-10, 1.162732132797828e-10, 1.2920509107061662e-10, 1.4213696886145044e-10, 1.5506884665228426e-10, 1.680007244431181e-10, 1.809326022339519e-10, 1.9386448002478573e-10, 2.0679635781561956e-10, 2.1972823560645338e-10, 2.326601133972872e-10, 2.4559199118812103e-10, 2.5852386897895485e-10, 2.714557467697887e-10, 2.843876245606225e-10, 2.973195023514563e-10, 3.1025138014229015e-10, 3.2318325793312397e-10, 3.361151357239578e-10, 3.490470135147916e-10, 3.6197889130562544e-10]}, "gradients/_encoder.encoder.4.weight": {"_type": "histogram", "values": [1.0, 1.0, 1.0, 0.0, 2.0, 2.0, 1.0, 5.0, 1.0, 8.0, 6.0, 4.0, 8.0, 8.0, 13.0, 8.0, 25.0, 17.0, 38.0, 45.0, 54.0, 62.0, 88.0, 143.0, 165.0, 273.0, 390.0, 608.0, 947.0, 1644.0, 2676.0, 4884.0, 7968.0, 12668.0, 11591.0, 7602.0, 4844.0, 3094.0, 1879.0, 1281.0, 826.0, 528.0, 347.0, 251.0, 164.0, 103.0, 77.0, 50.0, 39.0, 24.0, 22.0, 14.0, 9.0, 6.0, 8.0, 2.0, 3.0, 1.0, 4.0, 1.0, 1.0, 0.0, 0.0, 1.0], "bins": [-0.0038121528923511505, -0.00370024424046278, -0.003588335821405053, -0.0034764271695166826, -0.0033645187504589558, -0.0032526100985705853, -0.0031407014466822147, -0.0030287927947938442, -0.0029168843757361174, -0.002804975723847747, -0.00269306730479002, -0.0025811586529016495, -0.002469250001013279, -0.002357341581955552, -0.0022454329300671816, -0.0021335245110094547, -0.002021615859121084, -0.0019097073236480355, -0.0017977987881749868, -0.0016858901362866163, -0.0015739816008135676, -0.001462073065340519, -0.0013501644134521484, -0.0012382558779790998, -0.001126347342506051, -0.0010144388070330024, -0.0009025302133522928, -0.0007906216196715832, -0.0006787130841985345, -0.0005668045487254858, -0.0004548959550447762, -0.0003429873613640666, -0.00023107859306037426, -0.00011917002848349512, -7.2614639066159725e-06, 0.00010464710067026317, 0.00021655566524714231, 0.000328464200720191, 0.0004403727944009006, 0.0005522813880816102, 0.0006641899235546589, 0.0007760984590277076, 0.0008880070527084172, 0.0009999156463891268, 0.0011118241818621755, 0.0012237327173352242, 0.0013356413692235947, 0.0014475499046966434, 0.001559458440169692, 0.0016713669756427407, 0.0017832755111157894, 0.00189518416300416, 0.0020070928148925304, 0.0021190012339502573, 0.002230909885838628, 0.0023428183048963547, 0.002454726956784725, 0.0025666356086730957, 0.0026785440277308226, 0.002790452679619193, 0.00290236109867692, 0.0030142697505652905, 0.003126178402453661, 0.0032380870543420315, 0.0033499954733997583]}, "gradients/_encoder.encoder.1.weight": {"_type": "histogram", "values": [2.0, 0.0, 0.0, 0.0, 0.0, 0.0, 0.0, 1.0, 1.0, 2.0, 1.0, 1.0, 2.0, 1.0, 3.0, 3.0, 3.0, 3.0, 6.0, 5.0, 4.0, 8.0, 4.0, 4.0, 11.0, 13.0, 8.0, 8.0, 16.0, 8.0, 11.0, 14.0, 12.0, 4.0, 13.0, 10.0, 8.0, 9.0, 8.0, 7.0, 8.0, 3.0, 5.0, 5.0, 4.0, 6.0, 0.0, 1.0, 0.0, 1.0, 2.0, 1.0, 0.0, 1.0, 1.0, 1.0, 0.0, 0.0, 0.0, 1.0, 0.0, 1.0, 0.0, 1.0], "bins": [-0.0008242198382504284, -0.0007975356420502067, -0.0007708514458499849, -0.0007441672496497631, -0.0007174831116572022, -0.0006907989154569805, -0.0006641147192567587, -0.0006374305230565369, -0.0006107463268563151, -0.0005840621306560934, -0.0005573779344558716, -0.0005306937964633107, -0.0005040096002630889, -0.00047732540406286716, -0.0004506412078626454, -0.0004239570116624236, -0.0003972728445660323, -0.0003705886483658105, -0.0003439044812694192, -0.0003172202850691974, -0.00029053608886897564, -0.00026385189266875386, -0.00023716772557236254, -0.00021048352937214077, -0.00018379934772383422, -0.00015711516607552767, -0.0001304309698753059, -0.00010374678822699934, -7.706259930273518e-05, -5.037841037847102e-05, -2.3694228730164468e-05, 2.9899674700573087e-06, 2.9674149118363857e-05, 5.635833804262802e-05, 8.304252696689218e-05, 0.00010972670861519873, 0.0001364109048154205, 0.00016309508646372706, 0.0001897792681120336, 0.00021646346431225538, 0.00024314764596056193, 0.0002698318276088685, 0.00029651602380909026, 0.0003232001909054816, 0.00034988438710570335, 0.00037656858330592513, 0.0004032527795061469, 0.0004299369757063687, 0.00045662114280276, 0.0004833053390029818, 0.0005099895060993731, 0.0005366737022995949, 0.0005633578984998167, 0.0005900420947000384, 0.0006167262326925993, 0.000643410487100482, 0.0006700946250930429, 0.0006967788212932646, 0.0007234630174934864, 0.0007501471554860473, 0.000776831351686269, 0.0008035155478864908, 0.0008301997440867126, 0.0008568839402869344, 0.0008835681364871562]}, "gradients/_encoder.encoder.1.bias": {"_type": "histogram", "values": [1.0, 0.0, 0.0, 0.0, 0.0, 0.0, 0.0, 1.0, 0.0, 0.0, 1.0, 1.0, 1.0, 0.0, 3.0, 0.0, 1.0, 0.0, 2.0, 1.0, 4.0, 4.0, 5.0, 6.0, 6.0, 7.0, 10.0, 6.0, 14.0, 7.0, 11.0, 9.0, 13.0, 10.0, 7.0, 11.0, 8.0, 16.0, 10.0, 7.0, 5.0, 5.0, 8.0, 9.0, 6.0, 5.0, 4.0, 6.0, 8.0, 2.0, 2.0, 3.0, 2.0, 1.0, 1.0, 1.0, 0.0, 1.0, 0.0, 2.0, 1.0, 0.0, 0.0, 1.0], "bins": [-0.0009939116425812244, -0.0009656512411311269, -0.0009373908396810293, -0.0009091304964385927, -0.0008808700949884951, -0.0008526096935383976, -0.0008243492920883, -0.0007960889488458633, -0.0007678285473957658, -0.0007395681459456682, -0.0007113077444955707, -0.000683047401253134, -0.0006547869998030365, -0.0006265265983529389, -0.0005982661969028413, -0.0005700058536604047, -0.0005417454522103071, -0.0005134850507602096, -0.00048522467841394246, -0.0004569642769638449, -0.0004287039046175778, -0.00040044350316748023, -0.00037218310171738267, -0.00034392272937111557, -0.00031566229881718755, -0.00028740189736709, -0.0002591415250208229, -0.00023088112357072532, -0.00020262075122445822, -0.00017436034977436066, -0.00014609996287617832, -0.00011783957597799599, -8.957920363172889e-05, -6.131881673354656e-05, -3.3058426197385415e-05, -4.798035661224276e-06, 2.3462351236958057e-05, 5.1722745411098e-05, 7.998313230928034e-05, 0.00010824351920746267, 0.000136503906105645, 0.00016476429300382733, 0.00019302467990200967, 0.000221285066800192, 0.00024954546825028956, 0.00027780584059655666, 0.0003060662420466542, 0.0003343266434967518, 0.0003625870158430189, 0.00039084741729311645, 0.00041910778963938355, 0.0004473681910894811, 0.0004756285634357482, 0.0005038889357820153, 0.0005321493372321129, 0.0005604097386822104, 0.000588670140132308, 0.0006169305415824056, 0.0006451909430325031, 0.0006734512862749398, 0.0007017116877250373, 0.0007299720891751349, 0.0007582324906252325, 0.0007864928338676691, 0.0008147532353177667]}, "gradients/_encoder.encoder.0.bias": {"_type": "histogram", "values": [1.0, 0.0, 0.0, 0.0, 0.0, 0.0, 0.0, 0.0, 0.0, 0.0, 1.0, 1.0, 0.0, 0.0, 0.0, 1.0, 1.0, 0.0, 0.0, 1.0, 1.0, 2.0, 6.0, 3.0, 8.0, 9.0, 8.0, 9.0, 15.0, 27.0, 26.0, 33.0, 32.0, 22.0, 10.0, 11.0, 5.0, 4.0, 4.0, 3.0, 4.0, 0.0, 2.0, 0.0, 3.0, 0.0, 0.0, 1.0, 0.0, 0.0, 0.0, 0.0, 0.0, 0.0, 0.0, 1.0, 0.0, 0.0, 0.0, 0.0, 0.0, 0.0, 0.0, 1.0], "bins": [-3.1781382858753204e-08, -3.0775481718592346e-08, -2.9769580578431487e-08, -2.876367943827063e-08, -2.775777829810977e-08, -2.675187715794891e-08, -2.5745976017788053e-08, -2.4740074877627194e-08, -2.3734173737466335e-08, -2.2728272597305477e-08, -2.1722371457144618e-08, -2.071647031698376e-08, -1.97105691768229e-08, -1.8704668036662042e-08, -1.7698766896501184e-08, -1.6692865756340325e-08, -1.5686964616179466e-08, -1.4681063476018608e-08, -1.3675162335857749e-08, -1.266926119569689e-08, -1.1663360055536032e-08, -1.0657458915375173e-08, -9.651557775214314e-09, -8.645656635053456e-09, -7.639755494892597e-09, -6.6338543547317386e-09, -5.62795321457088e-09, -4.622052074410021e-09, -3.6161509342491627e-09, -2.610249794088304e-09, -1.6043486539274454e-09, -5.984475137665868e-10, 4.0745362639427185e-10, 1.4133547665551305e-09, 2.419255906715989e-09, 3.4251570468768477e-09, 4.431058187037706e-09, 5.436959327198565e-09, 6.442860467359424e-09, 7.448761607520282e-09, 8.454662747681141e-09, 9.460563887842e-09, 1.0466465028002858e-08, 1.1472366168163717e-08, 1.2478267308324575e-08, 1.3484168448485434e-08, 1.4490069588646293e-08, 1.549597072880715e-08, 1.650187186896801e-08, 1.750777300912887e-08, 1.8513674149289727e-08, 1.9519575289450586e-08, 2.0525476429611444e-08, 2.1531377569772303e-08, 2.2537278709933162e-08, 2.354317985009402e-08, 2.454908099025488e-08, 2.5554982130415738e-08, 2.6560883270576596e-08, 2.7566784410737455e-08, 2.8572685550898314e-08, 2.9578586691059172e-08, 3.058448783122003e-08, 3.159038897138089e-08, 3.259629011154175e-08]}, "gradients/_encoder.encoder.0.weight": {"_type": "histogram", "values": [1.0, 0.0, 2.0, 0.0, 0.0, 0.0, 0.0, 1.0, 1.0, 2.0, 2.0, 2.0, 6.0, 4.0, 8.0, 3.0, 18.0, 7.0, 14.0, 19.0, 26.0, 27.0, 38.0, 32.0, 65.0, 75.0, 105.0, 99.0, 163.0, 211.0, 309.0, 429.0, 647.0, 915.0, 1508.0, 2612.0, 4408.0, 9822.0, 30998.0, 111637.0, 42059.0, 10291.0, 3770.0, 1748.0, 828.0, 508.0, 302.0, 194.0, 122.0, 68.0, 51.0, 29.0, 22.0, 13.0, 11.0, 6.0, 6.0, 4.0, 0.0, 3.0, 4.0, 0.0, 0.0, 1.0], "bins": [-0.015903854742646217, -0.015502527356147766, -0.01510119903832674, -0.014699870720505714, -0.014298543334007263, -0.013897215947508812, -0.013495887629687786, -0.01309455931186676, -0.012693231925368309, -0.012291904538869858, -0.011890576221048832, -0.011489247903227806, -0.011087920516729355, -0.010686593130230904, -0.010285264812409878, -0.009883936494588852, -0.0094826091080904, -0.00908128172159195, -0.008679953403770924, -0.008278625085949898, -0.007877297699451447, -0.007475969847291708, -0.0070746419951319695, -0.006673314142972231, -0.006271986290812492, -0.005870658438652754, -0.005469330586493015, -0.005068002734333277, -0.004666674882173538, -0.0042653470300138, -0.003864019177854061, -0.0034626913256943226, -0.0030613625422120094, -0.002660034690052271, -0.0022587068378925323, -0.0018573789857327938, -0.0014560511335730553, -0.0010547232814133167, -0.0006533954292535782, -0.00025206757709383965, 0.0001492602750658989, 0.0005505881272256374, 0.000951915979385376, 0.0013532438315451145, 0.001754571683704853, 0.0021558995358645916, 0.00255722738802433, 0.0029585552401840687, 0.0033598830923438072, 0.0037612109445035458, 0.004162538796663284, 0.004563866648823023, 0.004965194500982761, 0.0053665223531425, 0.0057678502053022385, 0.006169178057461977, 0.0065705059096217155, 0.006971833761781454, 0.007373161613941193, 0.007774489466100931, 0.00817581731826067, 0.008577145636081696, 0.008978473022580147, 0.009379800409078598, 0.009781128726899624]}, "_wandb": {"runtime": 1087}}