{"train_loss": 0.0840471163392067, "train_ssl_loss": 0.07841845601797104, "train_tsk_loss": 0.005628662183880806, "test_loss": 0.6763617992401123, "test_ssl_loss": 0.6641383767127991, "test_tsk_loss": 0.012223450466990471, "_timestamp": 1697558462.9331691, "_runtime": 194.6922471523285, "_step": 99, "gradients/taskmapper.out.bias": {"_type": "histogram", "values": [0.0, 0.0, 0.0, 0.0, 0.0, 0.0, 0.0, 0.0, 0.0, 0.0, 0.0, 0.0, 0.0, 0.0, 0.0, 0.0, 0.0, 0.0, 0.0, 0.0, 0.0, 0.0, 0.0, 0.0, 0.0, 0.0, 0.0, 0.0, 0.0, 0.0, 0.0, 0.0, 1.0, 0.0, 0.0, 0.0, 0.0, 0.0, 0.0, 0.0, 0.0, 0.0, 0.0, 0.0, 0.0, 0.0, 0.0, 0.0, 0.0, 0.0, 0.0, 0.0, 0.0, 0.0, 0.0, 0.0, 0.0, 0.0, 0.0, 0.0, 0.0, 0.0, 0.0, 0.0], "bins": [-0.017534244805574417, -0.017534244805574417, -0.017534244805574417, -0.017534244805574417, -0.017534244805574417, -0.017534244805574417, -0.017534244805574417, -0.017534244805574417, -0.017534244805574417, -0.017534244805574417, -0.017534244805574417, -0.017534244805574417, -0.017534244805574417, -0.017534244805574417, -0.017534244805574417, -0.017534244805574417, -0.017534244805574417, -0.017534244805574417, -0.017534244805574417, -0.017534244805574417, -0.017534244805574417, -0.017534244805574417, -0.017534244805574417, -0.017534244805574417, -0.017534244805574417, -0.017534244805574417, -0.017534244805574417, -0.017534244805574417, -0.017534244805574417, -0.017534244805574417, -0.017534244805574417, -0.017534244805574417, -0.017534244805574417, -0.017534244805574417, -0.017534244805574417, -0.017534244805574417, -0.017534244805574417, -0.017534244805574417, -0.017534244805574417, -0.017534244805574417, -0.017534244805574417, -0.017534244805574417, -0.017534244805574417, -0.017534244805574417, -0.017534244805574417, -0.017534244805574417, -0.017534244805574417, -0.017534244805574417, -0.017534244805574417, -0.017534244805574417, -0.017534244805574417, -0.017534244805574417, -0.017534244805574417, -0.017534244805574417, -0.017534244805574417, -0.017534244805574417, -0.017534244805574417, -0.017534244805574417, -0.017534244805574417, -0.017534244805574417, -0.017534244805574417, -0.017534244805574417, -0.017534244805574417, -0.017534244805574417, -0.017534244805574417]}, "gradients/taskmapper.out.weight": {"_type": "histogram", "values": [1.0, 0.0, 0.0, 0.0, 0.0, 0.0, 0.0, 0.0, 0.0, 0.0, 0.0, 0.0, 0.0, 0.0, 0.0, 0.0, 0.0, 1.0, 0.0, 0.0, 0.0, 1.0, 0.0, 0.0, 0.0, 0.0, 2.0, 0.0, 0.0, 0.0, 0.0, 0.0, 1.0, 0.0, 0.0, 0.0, 0.0, 0.0, 0.0, 0.0, 0.0, 0.0, 0.0, 1.0, 0.0, 0.0, 1.0, 0.0, 0.0, 1.0, 0.0, 0.0, 0.0, 0.0, 1.0, 0.0, 0.0, 0.0, 0.0, 0.0, 0.0, 0.0, 0.0, 6.0], "bins": [-0.005610970314592123, -0.005523298867046833, -0.005435627419501543, -0.005347955971956253, -0.005260284524410963, -0.005172613076865673, -0.00508494209498167, -0.004997270181775093, -0.00490959919989109, -0.0048219277523458, -0.00473425630480051, -0.00464658485725522, -0.00455891340970993, -0.00447124196216464, -0.00438357051461935, -0.004295899532735348, -0.0042082276195287704, -0.0041205561719834805, -0.0040328847244381905, -0.0039452132768929005, -0.003857542062178254, -0.003769870614632964, -0.003682199167087674, -0.003594527719542384, -0.003506856504827738, -0.003419185057282448, -0.003331513609737158, -0.003243842162191868, -0.0031561709474772215, -0.0030684994999319315, -0.0029808280523866415, -0.0028931566048413515, -0.0028054851572960615, -0.0027178137097507715, -0.0026301422622054815, -0.002542471047490835, -0.002454799599945545, -0.002367128152400255, -0.002279456704854965, -0.002191785257309675, -0.0021041138097643852, -0.0020164423622190952, -0.001928771031089127, -0.001841099583543837, -0.001753428135998547, -0.001665756804868579, -0.001578085357323289, -0.001490413909777999, -0.0014027425786480308, -0.0013150711311027408, -0.0012273997999727726, -0.0011397283524274826, -0.0010520569048821926, -0.0009643855155445635, -0.0008767141262069345, -0.0007890426786616445, -0.0007013712893240154, -0.0006136998999863863, -0.0005260284524410963, -0.0004383570631034672, -0.0003506856446620077, -0.00026301422622054815, -0.00017534283688291907, -8.767138933762908e-05, 0.0]}, "gradients/taskmapper.lins.1.bias": {"_type": "histogram", "values": [1.0, 0.0, 0.0, 0.0, 0.0, 0.0, 1.0, 0.0, 0.0, 1.0, 1.0, 0.0, 1.0, 0.0, 0.0, 2.0, 0.0, 0.0, 0.0, 0.0, 0.0, 1.0, 0.0, 1.0, 0.0, 0.0, 0.0, 0.0, 0.0, 0.0, 0.0, 0.0, 0.0, 0.0, 0.0, 0.0, 0.0, 6.0, 0.0, 0.0, 0.0, 0.0, 0.0, 0.0, 0.0, 0.0, 0.0, 0.0, 0.0, 0.0, 0.0, 0.0, 0.0, 0.0, 0.0, 0.0, 0.0, 0.0, 0.0, 0.0, 0.0, 0.0, 0.0, 1.0], "bins": [-0.007115707267075777, -0.006926472298800945, -0.0067372373305261135, -0.006548002362251282, -0.00635876739397645, -0.006169532425701618, -0.005980296991765499, -0.005791062023490667, -0.005601827055215836, -0.005412592086941004, -0.005223357118666172, -0.00503412215039134, -0.0048448871821165085, -0.004655651748180389, -0.004466417245566845, -0.004277181811630726, -0.004087947309017181, -0.0038987123407423496, -0.003709477372467518, -0.003520242404192686, -0.0033310072030872107, -0.003141772234812379, -0.002952537266537547, -0.0027633020654320717, -0.00257406709715724, -0.002384832128882408, -0.0021955971606075764, -0.0020063621923327446, -0.0018171269912272692, -0.0016278920229524374, -0.0014386570546776056, -0.001249421969987452, -0.0010601868852972984, -0.0008709518588148057, -0.0006817168323323131, -0.0004924818640574813, -0.0003032468375749886, -0.00011401181109249592, 7.522315718233585e-05, 0.00026445824187248945, 0.0004536932101473212, 0.0006429282366298139, 0.0008321632631123066, 0.0010213982313871384, 0.0012106331996619701, 0.0013998682843521237, 0.0015891032526269555, 0.001778338337317109, 0.001967573305591941, 0.0021568082738667727, 0.0023460432421416044, 0.00253527844324708, 0.0027245134115219116, 0.0029137483797967434, 0.003102983348071575, 0.003292218316346407, 0.0034814532846212387, 0.0036706882528960705, 0.0038599232211709023, 0.004049158189445734, 0.004238393157720566, 0.004427628591656685, 0.004616863094270229, 0.004806098528206348, 0.00499533349648118]}, "gradients/taskmapper.lins.1.weight": {"_type": "histogram", "values": [1.0, 0.0, 0.0, 1.0, 0.0, 0.0, 0.0, 0.0, 0.0, 1.0, 1.0, 0.0, 1.0, 1.0, 0.0, 2.0, 0.0, 1.0, 0.0, 0.0, 2.0, 3.0, 2.0, 5.0, 4.0, 1.0, 8.0, 7.0, 7.0, 8.0, 13.0, 14.0, 16.0, 18.0, 13.0, 11.0, 6.0, 185.0, 25.0, 8.0, 4.0, 2.0, 3.0, 1.0, 2.0, 1.0, 0.0, 2.0, 1.0, 1.0, 0.0, 0.0, 0.0, 1.0, 0.0, 0.0, 0.0, 0.0, 0.0, 0.0, 0.0, 0.0, 0.0, 1.0], "bins": [-0.002922876039519906, -0.0028451450634747744, -0.0027674140874296427, -0.0026896833442151546, -0.002611952368170023, -0.0025342213921248913, -0.0024564904160797596, -0.002378759440034628, -0.00230102869682014, -0.002223297720775008, -0.0021455667447298765, -0.0020678360015153885, -0.001990105025470257, -0.0019123740494251251, -0.0018346430733799934, -0.0017569122137501836, -0.001679181237705052, -0.0016014502616599202, -0.0015237194020301104, -0.0014459884259849787, -0.0013682575663551688, -0.0012905265903100371, -0.0012127957306802273, -0.0011350647546350956, -0.001057333778589964, -0.0009796028025448322, -0.0009018719429150224, -0.0008241409668698907, -0.0007464101072400808, -0.0006686791311949492, -0.0005909482133574784, -0.0005132172955200076, -0.00043548643589019775, -0.000357755518052727, -0.0002800246002152562, -0.000202293653273955, -0.00012456273543648422, -4.683181759901345e-05, 3.089912934228778e-05, 0.00010863004717975855, 0.00018636096501722932, 0.0002640918828547001, 0.00034182280069217086, 0.0004195537476334721, 0.0004972846945747733, 0.0005750155542045832, 0.0006527465302497149, 0.0007304774480871856, 0.0008082083659246564, 0.0008859392837621272, 0.0009636702015995979, 0.0010414011776447296, 0.0011191320372745395, 0.0011968630133196712, 0.001274593872949481, 0.0013523248489946127, 0.0014300558250397444, 0.001507786801084876, 0.001585517660714686, 0.0016632486367598176, 0.0017409794963896275, 0.0018187104724347591, 0.0018964414484798908, 0.0019741724245250225, 0.0020519031677395105]}, "gradients/taskmapper.lins.0.bias": {"_type": "histogram", "values": [1.0, 1.0, 0.0, 0.0, 0.0, 0.0, 0.0, 0.0, 0.0, 0.0, 0.0, 0.0, 1.0, 0.0, 0.0, 0.0, 0.0, 0.0, 1.0, 0.0, 1.0, 1.0, 0.0, 1.0, 1.0, 1.0, 0.0, 0.0, 1.0, 0.0, 1.0, 0.0, 3.0, 0.0, 1.0, 0.0, 0.0, 1.0, 3.0, 0.0, 1.0, 0.0, 0.0, 1.0, 1.0, 0.0, 0.0, 0.0, 0.0, 0.0, 1.0, 0.0, 0.0, 0.0, 0.0, 0.0, 0.0, 0.0, 0.0, 0.0, 0.0, 0.0, 0.0, 1.0], "bins": [-0.012247483246028423, -0.011933357454836369, -0.011619232594966888, -0.011305106803774834, -0.010990981943905354, -0.010676856152713299, -0.010362731292843819, -0.010048605501651764, -0.00973447971045971, -0.009420353919267654, -0.009106229059398174, -0.00879210326820612, -0.00847797840833664, -0.008163852617144585, -0.00784972682595253, -0.00753560196608305, -0.007221476640552282, -0.006907351315021515, -0.0065932259894907475, -0.00627910066395998, -0.005964974872767925, -0.005650849547237158, -0.00533672422170639, -0.005022598430514336, -0.0047084735706448555, -0.004394348245114088, -0.004080222919583321, -0.0037660973612219095, -0.0034519718028604984, -0.003137846477329731, -0.0028237211517989635, -0.0025095955934375525, -0.0021954700350761414, -0.001881344593130052, -0.0015672191511839628, -0.0012530938256531954, -0.0009389683837071061, -0.0006248429417610168, -0.0003107176162302494, 3.4079421311616898e-06, 0.00031753326766192913, 0.0006316587096080184, 0.0009457840933464468, 0.001259909477084875, 0.0015740349190309644, 0.0018881603609770536, 0.002202285686507821, 0.002516411244869232, 0.0028305365703999996, 0.003144661895930767, 0.003458787454292178, 0.0037729127798229456, 0.004087038338184357, 0.004401163663715124, 0.004715288989245892, 0.005029414780437946, 0.0053435396403074265, 0.005657664965838194, 0.005971790291368961, 0.006285916082561016, 0.0066000414080917835, 0.006914166733622551, 0.007228292059153318, 0.007542417384684086, 0.00785654317587614]}, "gradients/taskmapper.lins.0.weight": {"_type": "histogram", "values": [1.0, 0.0, 1.0, 2.0, 0.0, 0.0, 0.0, 2.0, 0.0, 3.0, 0.0, 1.0, 3.0, 2.0, 3.0, 6.0, 4.0, 4.0, 5.0, 14.0, 9.0, 8.0, 10.0, 13.0, 21.0, 26.0, 29.0, 39.0, 60.0, 70.0, 176.0, 50.0, 38.0, 40.0, 22.0, 17.0, 14.0, 11.0, 11.0, 10.0, 5.0, 1.0, 6.0, 6.0, 5.0, 3.0, 1.0, 2.0, 2.0, 1.0, 0.0, 1.0, 2.0, 1.0, 1.0, 1.0, 1.0, 0.0, 0.0, 2.0, 1.0, 0.0, 0.0, 1.0], "bins": [-0.005818319506943226, -0.005627441219985485, -0.005436562467366457, -0.005245683714747429, -0.005054805427789688, -0.004863927140831947, -0.004673048388212919, -0.004482169635593891, -0.00429129134863615, -0.00410041306167841, -0.0039095343090593815, -0.003718655789270997, -0.0035277772694826126, -0.003336898749694228, -0.0031460202299058437, -0.0029551417101174593, -0.002764263190329075, -0.0025733846705406904, -0.002382506150752306, -0.0021916276309639215, -0.002000749111175537, -0.0018098705913871527, -0.0016189920715987682, -0.0014281135518103838, -0.0012372350320219994, -0.001046356512233615, -0.0008554779924452305, -0.000664599472656846, -0.0004737209528684616, -0.00028284243308007717, -9.196391329169273e-05, 9.89146064966917e-05, 0.00028979312628507614, 0.0004806716460734606, 0.000671550165861845, 0.0008624286856502295, 0.001053307205438614, 0.0012441857252269983, 0.0014350642450153828, 0.0016259427648037672, 0.0018168212845921516, 0.002007699804380536, 0.0021985783241689205, 0.002389456843957305, 0.0025803353637456894, 0.002771213883534074, 0.0029620924033224583, 0.0031529709231108427, 0.003343849442899227, 0.0035347279626876116, 0.003725606482475996, 0.003916485235095024, 0.004107363522052765, 0.004298241809010506, 0.004489120561629534, 0.004679999314248562, 0.004870877601206303, 0.005061755888164043, 0.0052526346407830715, 0.0054435133934021, 0.00563439168035984, 0.005825269967317581, 0.006016148719936609, 0.006207027472555637, 0.006397905759513378]}, "gradients/_projector.0.bias": {"_type": "histogram", "values": [1.0, 0.0, 0.0, 0.0, 0.0, 0.0, 0.0, 0.0, 1.0, 0.0, 0.0, 0.0, 0.0, 2.0, 0.0, 0.0, 1.0, 0.0, 0.0, 1.0, 0.0, 0.0, 1.0, 2.0, 0.0, 0.0, 1.0, 1.0, 0.0, 1.0, 0.0, 0.0, 2.0, 0.0, 1.0, 0.0, 0.0, 2.0, 0.0, 0.0, 0.0, 1.0, 0.0, 0.0, 2.0, 1.0, 0.0, 1.0, 0.0, 0.0, 1.0, 2.0, 3.0, 0.0, 0.0, 0.0, 1.0, 1.0, 0.0, 0.0, 0.0, 0.0, 0.0, 2.0], "bins": [-0.043750934302806854, -0.042632970958948135, -0.04151500388979912, -0.0403970405459404, -0.03927907720208168, -0.03816111385822296, -0.037043146789073944, -0.035925183445215225, -0.034807220101356506, -0.03368925675749779, -0.03257128968834877, -0.03145332634449005, -0.030335363000631332, -0.029217397794127464, -0.028099432587623596, -0.026981469243764877, -0.02586350403726101, -0.02474553883075714, -0.023627575486898422, -0.022509610280394554, -0.021391646936535835, -0.020273681730031967, -0.01915571838617325, -0.01803775317966938, -0.016919787973165512, -0.015801822766661644, -0.014683859422802925, -0.013565894216299057, -0.012447930872440338, -0.01132996566593647, -0.010212001390755177, -0.009094037115573883, -0.007976073771715164, -0.006858109496533871, -0.005740145221352577, -0.004622180480509996, -0.003504216205328703, -0.0023862519301474094, -0.0012682871893048286, -0.00015032291412353516, 0.0009676413610577583, 0.002085605636239052, 0.003203570144250989, 0.004321534652262926, 0.00543949892744422, 0.006557463202625513, 0.007675427943468094, 0.008793392218649387, 0.00991135649383068, 0.011029320769011974, 0.012147285044193268, 0.013265250250697136, 0.014383213594555855, 0.015501178801059723, 0.016619142144918442, 0.01773710735142231, 0.018855072557926178, 0.019973037764430046, 0.021091001108288765, 0.022208966314792633, 0.023326929658651352, 0.02444489486515522, 0.025562860071659088, 0.026680823415517807, 0.027798786759376526]}, "gradients/_projector.0.weight": {"_type": "histogram", "values": [1.0, 0.0, 2.0, 0.0, 3.0, 1.0, 3.0, 4.0, 6.0, 9.0, 8.0, 8.0, 14.0, 19.0, 19.0, 35.0, 45.0, 52.0, 70.0, 90.0, 102.0, 124.0, 129.0, 146.0, 176.0, 235.0, 182.0, 212.0, 226.0, 262.0, 223.0, 226.0, 222.0, 213.0, 160.0, 163.0, 128.0, 126.0, 100.0, 84.0, 61.0, 50.0, 36.0, 25.0, 17.0, 20.0, 11.0, 10.0, 14.0, 7.0, 5.0, 5.0, 1.0, 1.0, 2.0, 1.0, 0.0, 0.0, 0.0, 0.0, 1.0, 0.0, 0.0, 1.0], "bins": [-0.030534788966178894, -0.029498441144824028, -0.028462091460824013, -0.027425743639469147, -0.02638939581811428, -0.025353047996759415, -0.0243166983127594, -0.023280350491404533, -0.022244002670049667, -0.0212076548486948, -0.020171305164694786, -0.01913495734333992, -0.018098609521985054, -0.017062261700630188, -0.016025912016630173, -0.014989564195275307, -0.013953214511275291, -0.01291686575859785, -0.011880517937242985, -0.010844169184565544, -0.009807821363210678, -0.008771472610533237, -0.007735123857855797, -0.0066987755708396435, -0.00566242728382349, -0.004626078996807337, -0.00358973047696054, -0.002553381957113743, -0.0015170336700975895, -0.00048068538308143616, 0.0005556633695960045, 0.0015920116566121578, 0.002628359943628311, 0.0036647082306444645, 0.004701056517660618, 0.0057374052703380585, 0.006773753557354212, 0.007810101844370365, 0.008846450597047806, 0.009882798418402672, 0.010919147171080112, 0.011955495923757553, 0.012991843745112419, 0.01402819249778986, 0.0150645412504673, 0.016100889071822166, 0.017137236893177032, 0.018173586577177048, 0.019209934398531914, 0.02024628221988678, 0.021282631903886795, 0.02231897972524166, 0.023355327546596527, 0.024391677230596542, 0.02542802505195141, 0.026464372873306274, 0.02750072255730629, 0.028537070378661156, 0.02957342006266117, 0.030609767884016037, 0.03164611756801605, 0.03268246352672577, 0.033718813210725784, 0.0347551628947258, 0.035791508853435516]}, "gradients/_encoder.encoder.8.bias": {"_type": "histogram", "values": [1.0, 0.0, 0.0, 0.0, 0.0, 0.0, 0.0, 0.0, 0.0, 0.0, 0.0, 1.0, 0.0, 3.0, 1.0, 0.0, 0.0, 2.0, 0.0, 1.0, 0.0, 1.0, 0.0, 3.0, 2.0, 4.0, 1.0, 1.0, 2.0, 4.0, 2.0, 3.0, 2.0, 4.0, 8.0, 4.0, 1.0, 5.0, 1.0, 5.0, 10.0, 9.0, 4.0, 6.0, 5.0, 1.0, 4.0, 3.0, 3.0, 3.0, 5.0, 0.0, 3.0, 0.0, 0.0, 1.0, 1.0, 2.0, 2.0, 2.0, 0.0, 0.0, 1.0, 1.0], "bins": [-0.01927683874964714, -0.0187621358782053, -0.01824743114411831, -0.017732728272676468, -0.017218023538589478, -0.016703320667147636, -0.016188617795705795, -0.015673913061618805, -0.015159210190176964, -0.014644506387412548, -0.014129802584648132, -0.013615099713206291, -0.013100395910441875, -0.01258569210767746, -0.012070989236235619, -0.011556285433471203, -0.011041581630706787, -0.010526877827942371, -0.010012174025177956, -0.009497471153736115, -0.008982767350971699, -0.008468063548207283, -0.007953360676765442, -0.007438656874001026, -0.00692395307123661, -0.006409249268472195, -0.005894545931369066, -0.005379842594265938, -0.004865138791501522, -0.004350434988737106, -0.003835731651633978, -0.003321028081700206, -0.0028063226491212845, -0.0022916190791875124, -0.0017769155092537403, -0.0012622119393199682, -0.0007475083693861961, -0.00023280479945242405, 0.00028189877048134804, 0.0007966023404151201, 0.0013113059103488922, 0.0018260094802826643, 0.0023407130502164364, 0.0028554166201502085, 0.0033701201900839806, 0.0038848237600177526, 0.004399527329951525, 0.004914230667054653, 0.005428934469819069, 0.005943638272583485, 0.006458341609686613, 0.0069730449467897415, 0.007487748749554157, 0.008002452552318573, 0.008517155423760414, 0.00903185922652483, 0.009546563029289246, 0.010061266832053661, 0.010575970634818077, 0.011090673506259918, 0.011605377309024334, 0.01212008111178875, 0.01263478398323059, 0.013149487785995007, 0.013664191588759422]}, "gradients/_encoder.encoder.8.weight": {"_type": "histogram", "values": [2.0, 1.0, 1.0, 2.0, 1.0, 3.0, 1.0, 3.0, 4.0, 4.0, 12.0, 9.0, 15.0, 19.0, 24.0, 39.0, 47.0, 69.0, 90.0, 121.0, 143.0, 176.0, 249.0, 331.0, 416.0, 544.0, 662.0, 833.0, 982.0, 1164.0, 1365.0, 1532.0, 1783.0, 1965.0, 2086.0, 2030.0, 2098.0, 2109.0, 1886.0, 1727.0, 1532.0, 1334.0, 1175.0, 957.0, 760.0, 591.0, 481.0, 331.0, 279.0, 239.0, 171.0, 114.0, 79.0, 52.0, 33.0, 21.0, 21.0, 15.0, 14.0, 10.0, 3.0, 2.0, 4.0, 2.0], "bins": [-0.02511366456747055, -0.024406801909208298, -0.023699941113591194, -0.02299307845532894, -0.02228621579706669, -0.021579355001449585, -0.020872492343187332, -0.02016562968492508, -0.019458767026662827, -0.018751904368400574, -0.01804504357278347, -0.017338180914521217, -0.016631318256258965, -0.01592445746064186, -0.015217594802379608, -0.014510732144117355, -0.013803871348500252, -0.013097009621560574, -0.01239014696329832, -0.011683285236358643, -0.01097642257809639, -0.010269560851156712, -0.009562699124217033, -0.00885583646595478, -0.008148974739015102, -0.007442112546414137, -0.006735250353813171, -0.006028388626873493, -0.005321526434272528, -0.004614664241671562, -0.003907802514731884, -0.0032009403221309185, -0.002494078129529953, -0.0017872160533443093, -0.0010803539771586657, -0.0003734920173883438, 0.0003333701752126217, 0.0010402323678135872, 0.0017470940947532654, 0.002453956287354231, 0.0031608184799551964, 0.003867680672556162, 0.004574542865157127, 0.005281404592096806, 0.005988266784697771, 0.006695128977298737, 0.007401990704238415, 0.008108852431178093, 0.008815715089440346, 0.009522576816380024, 0.010229439474642277, 0.010936301201581955, 0.011643163859844208, 0.012350025586783886, 0.013056887313723564, 0.013763749971985817, 0.014470611698925495, 0.015177473425865173, 0.015884336084127426, 0.01659119874238968, 0.017298059538006783, 0.018004922196269035, 0.01871178299188614, 0.01941864565014839, 0.020125508308410645]}, "gradients/_encoder.encoder.5.weight": {"_type": "histogram", "values": [1.0, 0.0, 0.0, 0.0, 1.0, 0.0, 0.0, 0.0, 0.0, 0.0, 0.0, 1.0, 3.0, 3.0, 3.0, 2.0, 4.0, 7.0, 3.0, 6.0, 6.0, 6.0, 7.0, 7.0, 13.0, 11.0, 11.0, 11.0, 10.0, 12.0, 11.0, 8.0, 12.0, 10.0, 11.0, 11.0, 9.0, 2.0, 6.0, 3.0, 7.0, 4.0, 4.0, 7.0, 3.0, 4.0, 3.0, 1.0, 1.0, 1.0, 0.0, 1.0, 2.0, 2.0, 0.0, 1.0, 0.0, 0.0, 0.0, 1.0, 0.0, 1.0, 1.0, 1.0], "bins": [-0.010497517883777618, -0.010156274773180485, -0.009815032593905926, -0.009473789483308792, -0.009132546372711658, -0.0087913041934371, -0.008450061082839966, -0.008108818903565407, -0.007767575792968273, -0.007426333148032427, -0.007085090037435293, -0.006743847392499447, -0.0064026047475636005, -0.006061362102627754, -0.005720118992030621, -0.005378876347094774, -0.005037633236497641, -0.004696390591561794, -0.004355147480964661, -0.004013904836028814, -0.003672662191092968, -0.003331419313326478, -0.002990176435559988, -0.0026489337906241417, -0.0023076909128576517, -0.0019664480350911617, -0.0016252053901553154, -0.0012839625123888254, -0.0009427197510376573, -0.0006014769896864891, -0.0002602341119199991, 8.10085330158472e-05, 0.0004222514107823372, 0.0007634941721335053, 0.0011047369334846735, 0.0014459798112511635, 0.0017872225726023316, 0.0021284653339535, 0.0024697082117199898, 0.002810950856655836, 0.003152193734422326, 0.003493436612188816, 0.0038346792571246624, 0.004175921902060509, 0.004517165012657642, 0.004858407657593489, 0.005199650302529335, 0.005540893413126469, 0.005882136058062315, 0.006223378702998161, 0.006564621813595295, 0.006905864458531141, 0.007247107103466988, 0.007588350214064121, 0.007929593324661255, 0.008270835503935814, 0.008612078614532948, 0.008953321725130081, 0.00929456390440464, 0.009635807015001774, 0.009977050125598907, 0.010318292304873466, 0.0106595354154706, 0.011000778526067734, 0.011342020705342293]}, "gradients/_encoder.encoder.5.bias": {"_type": "histogram", "values": [1.0, 1.0, 2.0, 0.0, 0.0, 3.0, 0.0, 2.0, 2.0, 0.0, 0.0, 2.0, 3.0, 1.0, 1.0, 0.0, 2.0, 1.0, 5.0, 4.0, 3.0, 4.0, 5.0, 4.0, 9.0, 8.0, 7.0, 12.0, 13.0, 11.0, 12.0, 7.0, 11.0, 13.0, 14.0, 14.0, 7.0, 8.0, 7.0, 8.0, 9.0, 6.0, 4.0, 1.0, 2.0, 4.0, 4.0, 2.0, 2.0, 2.0, 1.0, 1.0, 1.0, 2.0, 1.0, 0.0, 2.0, 0.0, 2.0, 0.0, 2.0, 0.0, 0.0, 1.0], "bins": [-0.010920862667262554, -0.010573726147413254, -0.010226590558886528, -0.009879454970359802, -0.009532318450510502, -0.009185181930661201, -0.008838046342134476, -0.00849091075360775, -0.00814377423375845, -0.0077966381795704365, -0.007449502125382423, -0.00710236607119441, -0.006755230017006397, -0.006408093962818384, -0.006060957908630371, -0.005713821854442358, -0.005366685800254345, -0.005019549746066332, -0.004672413691878319, -0.004325277637690306, -0.003978141583502293, -0.0036310055293142796, -0.0032838694751262665, -0.0029367334209382534, -0.0025895973667502403, -0.0022424613125622272, -0.0018953252583742142, -0.001548189204186201, -0.001201053149998188, -0.0008539170958101749, -0.0005067810416221619, -0.0001596449874341488, 0.00018749013543128967, 0.0005346261896193027, 0.0008817622438073158, 0.001228898297995329, 0.001576034352183342, 0.001923170406371355, 0.002270306460559368, 0.002617442514747381, 0.0029645785689353943, 0.0033117146231234074, 0.0036588506773114204, 0.0040059867314994335, 0.004353122785687447, 0.00470025883987546, 0.005047394894063473, 0.005394530948251486, 0.005741667002439499, 0.006088803056627512, 0.006435939110815525, 0.006783075165003538, 0.007130211219191551, 0.007477347273379564, 0.007824483327567577, 0.008171619847416878, 0.008518755435943604, 0.00886589102447033, 0.00921302754431963, 0.00956016406416893, 0.009907299652695656, 0.010254435241222382, 0.010601571761071682, 0.010948708280920982, 0.011295843869447708]}, "gradients/_encoder.encoder.4.bias": {"_type": "histogram", "values": [1.0, 0.0, 0.0, 0.0, 1.0, 0.0, 0.0, 0.0, 0.0, 0.0, 3.0, 1.0, 4.0, 2.0, 0.0, 1.0, 0.0, 2.0, 1.0, 1.0, 6.0, 4.0, 7.0, 2.0, 7.0, 9.0, 14.0, 23.0, 11.0, 10.0, 15.0, 22.0, 20.0, 8.0, 9.0, 15.0, 9.0, 7.0, 8.0, 5.0, 5.0, 3.0, 4.0, 0.0, 1.0, 2.0, 2.0, 2.0, 0.0, 1.0, 1.0, 2.0, 0.0, 0.0, 1.0, 1.0, 0.0, 2.0, 0.0, 0.0, 0.0, 0.0, 0.0, 1.0], "bins": [-5.122274160385132e-09, -4.959474608767778e-09, -4.7966750571504235e-09, -4.633875505533069e-09, -4.471075953915715e-09, -4.308276402298361e-09, -4.145476850681007e-09, -3.982677299063653e-09, -3.819877747446299e-09, -3.6570781958289444e-09, -3.4942786442115903e-09, -3.331479092594236e-09, -3.168679540976882e-09, -3.005879989359528e-09, -2.8430804377421737e-09, -2.6802808861248195e-09, -2.5174813345074654e-09, -2.3546817828901112e-09, -2.191882231272757e-09, -2.029082679655403e-09, -1.8662831280380487e-09, -1.7034835764206946e-09, -1.5406840248033404e-09, -1.3778844731859863e-09, -1.2150849215686321e-09, -1.052285369951278e-09, -8.894858183339238e-10, -7.266862667165697e-10, -5.638867150992155e-10, -4.0108716348186135e-10, -2.382876118645072e-10, -7.548806024715304e-11, 8.731149137020111e-11, 2.5011104298755527e-10, 4.129105946049094e-10, 5.757101462222636e-10, 7.385096978396177e-10, 9.013092494569719e-10, 1.064108801074326e-09, 1.2269083526916802e-09, 1.3897079043090343e-09, 1.5525074559263885e-09, 1.7153070075437427e-09, 1.878106559161097e-09, 2.040906110778451e-09, 2.203705662395805e-09, 2.3665052140131593e-09, 2.5293047656305134e-09, 2.6921043172478676e-09, 2.8549038688652217e-09, 3.017703420482576e-09, 3.18050297209993e-09, 3.343302523717284e-09, 3.5061020753346384e-09, 3.6689016269519925e-09, 3.831701178569347e-09, 3.994500730186701e-09, 4.157300281804055e-09, 4.320099833421409e-09, 4.482899385038763e-09, 4.6456989366561174e-09, 4.808498488273472e-09, 4.971298039890826e-09, 5.13409759150818e-09, 5.296897143125534e-09]}, "gradients/_encoder.encoder.4.weight": {"_type": "histogram", "values": [1.0, 2.0, 1.0, 0.0, 5.0, 0.0, 4.0, 6.0, 8.0, 16.0, 23.0, 38.0, 48.0, 92.0, 106.0, 137.0, 247.0, 343.0, 538.0, 862.0, 1149.0, 1672.0, 2344.0, 3432.0, 4720.0, 6367.0, 8287.0, 10550.0, 12185.0, 13409.0, 13067.0, 11919.0, 10046.0, 8098.0, 6074.0, 4625.0, 3219.0, 2308.0, 1624.0, 1146.0, 740.0, 547.0, 372.0, 224.0, 150.0, 114.0, 65.0, 46.0, 34.0, 16.0, 13.0, 15.0, 3.0, 2.0, 4.0, 2.0, 2.0, 1.0, 1.0, 0.0, 0.0, 0.0, 2.0, 1.0], "bins": [-0.03213942423462868, -0.031069546937942505, -0.029999669641256332, -0.02892979234457016, -0.027859915047883987, -0.026790037751197815, -0.02572016231715679, -0.02465028502047062, -0.023580407723784447, -0.022510530427098274, -0.021440653130412102, -0.02037077583372593, -0.019300900399684906, -0.018231023102998734, -0.01716114580631256, -0.01609126850962639, -0.015021391212940216, -0.013951513916254044, -0.012881636619567871, -0.011811760254204273, -0.0107418829575181, -0.009672005660831928, -0.00860212929546833, -0.007532251998782158, -0.006462374702095985, -0.005392497405409813, -0.004322620574384928, -0.003252743510529399, -0.00218286644667387, -0.0011129891499876976, -4.3112318962812424e-05, 0.0010267645120620728, 0.0020966455340385437, 0.0031665225978940725, 0.004236399661749601, 0.0053062764927744865, 0.006376153789460659, 0.0074460310861468315, 0.00851590745151043, 0.009585784748196602, 0.010655662044882774, 0.011725539341568947, 0.01279541663825512, 0.013865293003618717, 0.01493517030030489, 0.016005046665668488, 0.01707492396235466, 0.018144801259040833, 0.019214678555727005, 0.020284555852413177, 0.02135443314909935, 0.022424310445785522, 0.023494187742471695, 0.024564065039157867, 0.02563394047319889, 0.026703817769885063, 0.027773695066571236, 0.028843572363257408, 0.02991344965994358, 0.030983326956629753, 0.032053202390670776, 0.03312307968735695, 0.03419295698404312, 0.035262834280729294, 0.036332711577415466]}, "gradients/_encoder.encoder.1.weight": {"_type": "histogram", "values": [1.0, 0.0, 0.0, 0.0, 0.0, 0.0, 0.0, 0.0, 1.0, 0.0, 1.0, 0.0, 0.0, 0.0, 1.0, 2.0, 0.0, 0.0, 3.0, 4.0, 0.0, 2.0, 6.0, 6.0, 11.0, 16.0, 14.0, 18.0, 20.0, 13.0, 21.0, 25.0, 37.0, 30.0, 30.0, 30.0, 35.0, 26.0, 22.0, 24.0, 18.0, 25.0, 16.0, 7.0, 13.0, 8.0, 6.0, 5.0, 4.0, 3.0, 1.0, 1.0, 0.0, 0.0, 3.0, 2.0, 0.0, 0.0, 0.0, 0.0, 0.0, 0.0, 0.0, 1.0], "bins": [-0.011640375480055809, -0.011305082589387894, -0.010969789698719978, -0.010634496808052063, -0.010299202986061573, -0.009963910095393658, -0.009628617204725742, -0.009293324314057827, -0.008958031423389912, -0.008622738532721996, -0.008287445642054081, -0.007952151820063591, -0.007616859395056963, -0.00728156603872776, -0.006946273148059845, -0.00661098025739193, -0.006275686901062727, -0.005940394010394812, -0.005605100654065609, -0.005269807763397694, -0.004934514872729778, -0.004599221982061863, -0.00426392862573266, -0.003928635735064745, -0.003593342611566186, -0.003258049488067627, -0.0029227565973997116, -0.0025874634739011526, -0.0022521703504025936, -0.0019168774597346783, -0.0015815843362361193, -0.001246291445568204, -0.0009109983220696449, -0.0005757053149864078, -0.00024041224969550967, 9.488081559538841e-05, 0.0004301738226786256, 0.0007654668297618628, 0.0011007599532604218, 0.001436052843928337, 0.001771345967426896, 0.002106639090925455, 0.0024419319815933704, 0.0027772251050919294, 0.0031125182285904884, 0.0034478111192584038, 0.0037831042427569628, 0.0041183969005942345, 0.004453690256923437, 0.0047889831475913525, 0.005124276503920555, 0.0054595693945884705, 0.005794862285256386, 0.006130155175924301, 0.006465448532253504, 0.006800741422921419, 0.007136034779250622, 0.007471327669918537, 0.00780662102624774, 0.008141914382576942, 0.008477207273244858, 0.008812500163912773, 0.009147793054580688, 0.009483085945248604, 0.00981837883591652]}, "gradients/_encoder.encoder.1.bias": {"_type": "histogram", "values": [1.0, 0.0, 2.0, 0.0, 1.0, 2.0, 3.0, 1.0, 4.0, 5.0, 10.0, 3.0, 11.0, 11.0, 18.0, 15.0, 18.0, 29.0, 27.0, 19.0, 20.0, 21.0, 23.0, 36.0, 23.0, 24.0, 28.0, 15.0, 21.0, 17.0, 16.0, 16.0, 17.0, 6.0, 8.0, 16.0, 3.0, 6.0, 1.0, 2.0, 3.0, 4.0, 0.0, 3.0, 0.0, 1.0, 0.0, 0.0, 0.0, 0.0, 0.0, 0.0, 0.0, 0.0, 0.0, 0.0, 0.0, 1.0, 0.0, 0.0, 0.0, 0.0, 0.0, 1.0], "bins": [-0.007676081266254187, -0.00734452810138464, -0.00701297540217638, -0.006681422237306833, -0.006349869072437286, -0.006018316373229027, -0.00568676320835948, -0.005355210043489933, -0.005023657344281673, -0.0046921041794121265, -0.004360551480203867, -0.00402899831533432, -0.003697445383295417, -0.0033658924512565136, -0.0030343392863869667, -0.0027027863543480635, -0.0023712334223091602, -0.002039680490270257, -0.001708127441816032, -0.0013765743933618069, -0.0010450214613229036, -0.0007134685292840004, -0.0003819153644144535, -5.036243237555027e-05, 0.00028119049966335297, 0.0006127434899099171, 0.0009442964801564813, 0.0012758495286107063, 0.0016074024606496096, 0.0019389553926885128, 0.0022705085575580597, 0.002602061489596963, 0.002933613955974579, 0.003265166888013482, 0.0035967198200523853, 0.003928272984921932, 0.004259825684130192, 0.004591378848999739, 0.004922932013869286, 0.005254484713077545, 0.005586037877947092, 0.005917591042816639, 0.0062491437420248985, 0.006580696906894445, 0.006912250071763992, 0.007243802770972252, 0.007575355935841799, 0.007906909100711346, 0.008238461799919605, 0.008570014499127865, 0.008901568129658699, 0.009233120828866959, 0.009564673528075218, 0.009896226227283478, 0.010227779857814312, 0.010559332557022572, 0.010890886187553406, 0.011222438886761665, 0.0115539925172925, 0.011885545216500759, 0.012217097915709019, 0.012548651546239853, 0.012880204245448112, 0.013211756944656372, 0.013543309643864632]}, "gradients/_encoder.encoder.0.bias": {"_type": "histogram", "values": [1.0, 0.0, 0.0, 0.0, 0.0, 0.0, 1.0, 1.0, 0.0, 0.0, 0.0, 0.0, 0.0, 1.0, 1.0, 0.0, 3.0, 0.0, 3.0, 0.0, 3.0, 3.0, 4.0, 2.0, 4.0, 2.0, 11.0, 10.0, 16.0, 9.0, 16.0, 16.0, 33.0, 23.0, 17.0, 31.0, 36.0, 29.0, 30.0, 38.0, 18.0, 18.0, 28.0, 21.0, 17.0, 14.0, 8.0, 5.0, 9.0, 5.0, 4.0, 4.0, 5.0, 2.0, 4.0, 1.0, 2.0, 1.0, 0.0, 0.0, 0.0, 1.0, 0.0, 1.0], "bins": [-3.2223761081695557e-07, -3.1359377317130566e-07, -3.0494993552565575e-07, -2.9630609788000584e-07, -2.8766226023435593e-07, -2.79018422588706e-07, -2.703745849430561e-07, -2.617307472974062e-07, -2.530869096517563e-07, -2.444430720061064e-07, -2.3579923436045647e-07, -2.2715539671480656e-07, -2.1851155906915665e-07, -2.0986772142350674e-07, -2.0122388377785683e-07, -1.9258004613220692e-07, -1.83936208486557e-07, -1.752923708409071e-07, -1.666485331952572e-07, -1.5800469554960728e-07, -1.4936085790395737e-07, -1.4071702025830746e-07, -1.3207318261265755e-07, -1.2342934496700764e-07, -1.1478550732135773e-07, -1.0614166967570782e-07, -9.749783203005791e-08, -8.8853994384408e-08, -8.021015673875809e-08, -7.156631909310818e-08, -6.292248144745827e-08, -5.427864380180836e-08, -4.563480615615845e-08, -3.699096851050854e-08, -2.8347130864858627e-08, -1.9703293219208717e-08, -1.1059455573558807e-08, -2.4156179279088974e-09, 6.2282197177410126e-09, 1.4872057363390923e-08, 2.3515895009040833e-08, 3.215973265469074e-08, 4.080357030034065e-08, 4.944740794599056e-08, 5.809124559164047e-08, 6.673508323729038e-08, 7.537892088294029e-08, 8.40227585285902e-08, 9.266659617424011e-08, 1.0131043381989002e-07, 1.0995427146553993e-07, 1.1859810911118984e-07, 1.2724194675683975e-07, 1.3588578440248966e-07, 1.4452962204813957e-07, 1.5317345969378948e-07, 1.618172973394394e-07, 1.704611349850893e-07, 1.791049726307392e-07, 1.8774881027638912e-07, 1.9639264792203903e-07, 2.0503648556768894e-07, 2.1368032321333885e-07, 2.2232416085898876e-07, 2.3096799850463867e-07]}, "gradients/_encoder.encoder.0.weight": {"_type": "histogram", "values": [1.0, 2.0, 1.0, 0.0, 0.0, 1.0, 2.0, 4.0, 5.0, 4.0, 9.0, 7.0, 18.0, 21.0, 44.0, 41.0, 63.0, 86.0, 153.0, 227.0, 429.0, 674.0, 1375.0, 2749.0, 5670.0, 12273.0, 28430.0, 71228.0, 148660.0, 102173.0, 41361.0, 17383.0, 7738.0, 3582.0, 1759.0, 914.0, 545.0, 316.0, 185.0, 105.0, 77.0, 62.0, 45.0, 21.0, 14.0, 15.0, 9.0, 7.0, 4.0, 2.0, 7.0, 2.0, 2.0, 2.0, 1.0, 0.0, 1.0, 1.0, 1.0, 0.0, 0.0, 0.0, 0.0, 1.0], "bins": [-0.07111489027738571, -0.06863787025213242, -0.06616084277629852, -0.06368382275104523, -0.06120680272579193, -0.05872977897524834, -0.05625275522470474, -0.05377573519945145, -0.05129871144890785, -0.04882168769836426, -0.04634466767311096, -0.04386764392256737, -0.04139062017202377, -0.03891360014677048, -0.03643657639622688, -0.03395955264568329, -0.03148253262042999, -0.029005510732531548, -0.026528488844633102, -0.024051465094089508, -0.021574443206191063, -0.019097421318292618, -0.016620397567749023, -0.014143375679850578, -0.011666353791952133, -0.009189331904053688, -0.006712309084832668, -0.004235286731272936, -0.0017582643777132034, 0.0007187575101852417, 0.0031957803294062614, 0.005672803148627281, 0.00814981758594513, 0.010626839473843575, 0.013103862293064594, 0.015580885112285614, 0.01805790700018406, 0.020534928888082504, 0.0230119526386261, 0.025488974526524544, 0.02796599641442299, 0.030443018302321434, 0.03292004019021988, 0.035397063940763474, 0.03787408769130707, 0.040351107716560364, 0.04282813146710396, 0.04530515521764755, 0.04778217524290085, 0.05025919899344444, 0.05273621901869774, 0.05521324276924133, 0.05769026279449463, 0.06016728654503822, 0.06264431029558182, 0.06512133032083511, 0.067598357796669, 0.0700753778219223, 0.0725524052977562, 0.07502942532300949, 0.07750644534826279, 0.07998347282409668, 0.08246049284934998, 0.08493751287460327, 0.08741453289985657]}, "_wandb": {"runtime": 251}}