{"train_loss": 0.3597111701965332, "train_ssl_loss": 0.33564892411231995, "train_tsk_loss": 0.024062257260084152, "test_loss": 0.4692278802394867, "test_ssl_loss": 0.4488852024078369, "test_tsk_loss": 0.020342662930488586, "_timestamp": 1697568923.2650135, "_runtime": 148.30439043045044, "_step": 65, "gradients/graph_3taskmapper.out.bias": {"_type": "histogram", "values": [0.0, 0.0, 0.0, 0.0, 0.0, 0.0, 0.0, 0.0, 0.0, 0.0, 0.0, 0.0, 0.0, 0.0, 0.0, 0.0, 0.0, 0.0, 0.0, 0.0, 0.0, 0.0, 0.0, 0.0, 0.0, 0.0, 0.0, 0.0, 0.0, 0.0, 0.0, 1.0, 0.0, 0.0, 0.0, 0.0, 0.0, 0.0, 0.0, 0.0, 0.0, 0.0, 0.0, 0.0, 0.0, 0.0, 0.0, 0.0, 0.0, 0.0, 0.0, 0.0, 0.0, 0.0, 0.0, 0.0, 0.0, 0.0, 0.0, 0.0, 0.0, 0.0, 0.0, 0.0], "bins": [-0.1459701657295227, -0.1459701657295227, -0.1459701657295227, -0.1459701657295227, -0.1459701657295227, -0.1459701657295227, -0.1459701657295227, -0.1459701657295227, -0.1459701657295227, -0.1459701657295227, -0.1459701657295227, -0.1459701657295227, -0.1459701657295227, -0.1459701657295227, -0.1459701657295227, -0.1459701657295227, -0.1459701657295227, -0.1459701657295227, -0.1459701657295227, -0.1459701657295227, -0.1459701657295227, -0.1459701657295227, -0.1459701657295227, -0.1459701657295227, -0.1459701657295227, -0.1459701657295227, -0.1459701657295227, -0.1459701657295227, -0.1459701657295227, -0.1459701657295227, -0.1459701657295227, -0.1459701657295227, -0.1459701657295227, -0.1459701657295227, -0.1459701657295227, -0.1459701657295227, -0.1459701657295227, -0.1459701657295227, -0.1459701657295227, -0.1459701657295227, -0.1459701657295227, -0.1459701657295227, -0.1459701657295227, -0.1459701657295227, -0.1459701657295227, -0.1459701657295227, -0.1459701657295227, -0.1459701657295227, -0.1459701657295227, -0.1459701657295227, -0.1459701657295227, -0.1459701657295227, -0.1459701657295227, -0.1459701657295227, -0.1459701657295227, -0.1459701657295227, -0.1459701657295227, -0.1459701657295227, -0.1459701657295227, -0.1459701657295227, -0.1459701657295227, -0.1459701657295227, -0.1459701657295227, -0.1459701657295227, -0.1459701657295227]}, "gradients/graph_3taskmapper.out.weight": {"_type": "histogram", "values": [1.0, 0.0, 0.0, 0.0, 0.0, 0.0, 0.0, 0.0, 0.0, 0.0, 0.0, 0.0, 0.0, 0.0, 0.0, 1.0, 0.0, 0.0, 0.0, 0.0, 1.0, 1.0, 0.0, 1.0, 0.0, 0.0, 0.0, 0.0, 0.0, 0.0, 0.0, 0.0, 0.0, 1.0, 0.0, 0.0, 0.0, 0.0, 0.0, 0.0, 1.0, 0.0, 0.0, 0.0, 0.0, 0.0, 0.0, 0.0, 0.0, 0.0, 0.0, 0.0, 0.0, 0.0, 0.0, 0.0, 0.0, 0.0, 0.0, 1.0, 0.0, 0.0, 0.0, 8.0], "bins": [-0.06493949890136719, -0.06392481923103333, -0.06291013956069946, -0.0618954598903656, -0.06088078022003174, -0.059866100549697876, -0.058851420879364014, -0.05783674120903015, -0.05682206153869629, -0.05580738186836243, -0.054792702198028564, -0.0537780225276947, -0.05276334285736084, -0.05174866318702698, -0.050733983516693115, -0.04971930384635925, -0.04870462417602539, -0.04768994450569153, -0.046675264835357666, -0.045660585165023804, -0.04464590549468994, -0.04363122582435608, -0.04261654615402222, -0.041601866483688354, -0.04058718681335449, -0.03957250714302063, -0.03855782747268677, -0.037543147802352905, -0.03652846813201904, -0.03551378846168518, -0.03449910879135132, -0.033484429121017456, -0.032469749450683594, -0.03145506978034973, -0.03044039011001587, -0.029425710439682007, -0.028411030769348145, -0.027396351099014282, -0.02638167142868042, -0.025366991758346558, -0.024352312088012695, -0.023337632417678833, -0.02232295274734497, -0.02130827307701111, -0.020293593406677246, -0.019278913736343384, -0.01826423406600952, -0.01724955439567566, -0.016234874725341797, -0.015220195055007935, -0.014205515384674072, -0.01319083571434021, -0.012176156044006348, -0.011161476373672485, -0.010146796703338623, -0.00913211703300476, -0.008117437362670898, -0.007102757692337036, -0.006088078022003174, -0.0050733983516693115, -0.004058718681335449, -0.003044039011001587, -0.0020293593406677246, -0.0010146796703338623, 0.0]}, "gradients/graph_3taskmapper.lins.1.bias": {"_type": "histogram", "values": [1.0, 0.0, 0.0, 1.0, 0.0, 1.0, 0.0, 0.0, 0.0, 0.0, 0.0, 0.0, 0.0, 0.0, 0.0, 2.0, 0.0, 0.0, 0.0, 0.0, 0.0, 0.0, 1.0, 0.0, 0.0, 0.0, 0.0, 0.0, 0.0, 0.0, 0.0, 0.0, 0.0, 1.0, 0.0, 0.0, 0.0, 0.0, 0.0, 0.0, 0.0, 0.0, 0.0, 0.0, 0.0, 0.0, 0.0, 5.0, 2.0, 1.0, 0.0, 0.0, 0.0, 0.0, 0.0, 0.0, 0.0, 0.0, 0.0, 0.0, 0.0, 0.0, 0.0, 1.0], "bins": [-0.03624625504016876, -0.03548777848482132, -0.034729305654764175, -0.03397082909941673, -0.03321235626935959, -0.032453879714012146, -0.031695406883955, -0.03093693219125271, -0.030178457498550415, -0.02941998280584812, -0.028661508113145828, -0.027903033420443535, -0.02714455872774124, -0.026386084035038948, -0.025627609342336655, -0.02486913464963436, -0.024110659956932068, -0.023352185264229774, -0.02259371057152748, -0.021835235878825188, -0.021076761186122894, -0.0203182864934206, -0.019559811800718307, -0.018801337108016014, -0.01804286055266857, -0.017284385859966278, -0.016525911167263985, -0.01576743647456169, -0.015008961781859398, -0.014250487089157104, -0.013492012396454811, -0.012733537703752518, -0.01197506207972765, -0.011216587387025356, -0.010458112694323063, -0.00969963800162077, -0.008941163308918476, -0.008182688616216183, -0.007424213457852602, -0.006665738765150309, -0.005907264072448015, -0.005148789379745722, -0.004390314687043428, -0.0036318397615104914, -0.002873365068808198, -0.0021148903761059046, -0.0013564154505729675, -0.0005979407578706741, 0.00016053393483161926, 0.0009190086857415736, 0.0016774834366515279, 0.002435958245769143, 0.0031944329384714365, 0.003952907398343086, 0.004711382556706667, 0.00546985724940896, 0.006228331942111254, 0.006986806634813547, 0.0077452813275158405, 0.008503756485879421, 0.009262231178581715, 0.010020705871284008, 0.010779180563986301, 0.011537655256688595, 0.012296129949390888]}, "gradients/graph_3taskmapper.lins.1.weight": {"_type": "histogram", "values": [1.0, 0.0, 0.0, 1.0, 0.0, 1.0, 1.0, 0.0, 0.0, 0.0, 1.0, 2.0, 0.0, 3.0, 2.0, 3.0, 3.0, 3.0, 0.0, 2.0, 2.0, 0.0, 2.0, 2.0, 5.0, 1.0, 3.0, 0.0, 3.0, 6.0, 2.0, 4.0, 2.0, 2.0, 4.0, 3.0, 6.0, 6.0, 3.0, 2.0, 6.0, 4.0, 3.0, 4.0, 13.0, 25.0, 18.0, 208.0, 8.0, 1.0, 2.0, 0.0, 2.0, 0.0, 2.0, 0.0, 0.0, 1.0, 3.0, 1.0, 0.0, 1.0, 0.0, 1.0], "bins": [-0.013899601995944977, -0.013605152256786823, -0.01331070251762867, -0.013016252778470516, -0.012721803039312363, -0.01242735330015421, -0.012132903560996056, -0.011838452890515327, -0.011544004082679749, -0.011249554343521595, -0.010955104604363441, -0.010660654865205288, -0.010366205126047134, -0.01007175538688898, -0.009777305647730827, -0.0094828549772501, -0.009188405238091946, -0.008893955498933792, -0.008599505759775639, -0.008305056020617485, -0.008010606281459332, -0.007716156542301178, -0.007421706337481737, -0.007127256598323584, -0.00683280685916543, -0.0065383571200072765, -0.006243907380849123, -0.0059494576416909695, -0.005655007436871529, -0.005360557697713375, -0.0050661079585552216, -0.004771658219397068, -0.00447720754891634, -0.004182757809758186, -0.003888308070600033, -0.0035938580986112356, -0.003299408359453082, -0.0030049586202949286, -0.0027105086483061314, -0.002416058909147978, -0.0021216091699898243, -0.0018271594308316708, -0.0015327095752581954, -0.00123825971968472, -0.0009438099805265665, -0.000649360241368413, -0.0003549103857949376, -6.046053022146225e-05, 0.00023398920893669128, 0.0005284390063025057, 0.0008228888036683202, 0.0011173386592417955, 0.001411788398399949, 0.0017062381375581026, 0.0020006881095469, 0.0022951378487050533, 0.002589587587863207, 0.0028840373270213604, 0.003178487066179514, 0.003472937038168311, 0.0037673867773264647, 0.004061836749315262, 0.004356286488473415, 0.004650736227631569, 0.0049451859667897224]}, "gradients/graph_3taskmapper.lins.0.bias": {"_type": "histogram", "values": [1.0, 0.0, 0.0, 0.0, 0.0, 0.0, 0.0, 0.0, 0.0, 0.0, 0.0, 0.0, 0.0, 0.0, 0.0, 0.0, 0.0, 0.0, 0.0, 0.0, 0.0, 0.0, 1.0, 0.0, 0.0, 0.0, 0.0, 0.0, 1.0, 0.0, 0.0, 1.0, 1.0, 1.0, 1.0, 1.0, 0.0, 0.0, 0.0, 0.0, 0.0, 0.0, 1.0, 1.0, 0.0, 1.0, 0.0, 2.0, 1.0, 0.0, 0.0, 0.0, 0.0, 2.0, 0.0, 0.0, 1.0, 1.0, 1.0, 0.0, 1.0, 0.0, 2.0, 2.0], "bins": [-0.03073207475244999, -0.030237162485718727, -0.029742250218987465, -0.029247337952256203, -0.02875242568552494, -0.02825751341879368, -0.027762601152062416, -0.027267687022686005, -0.026772774755954742, -0.02627786248922348, -0.025782950222492218, -0.025288037955760956, -0.024793125689029694, -0.02429821342229843, -0.02380330115556717, -0.023308388888835907, -0.022813476622104645, -0.022318564355373383, -0.02182365208864212, -0.021328739821910858, -0.020833827555179596, -0.020338915288448334, -0.01984400302171707, -0.01934909075498581, -0.018854178488254547, -0.018359266221523285, -0.017864353954792023, -0.01736944168806076, -0.0168745294213295, -0.016379617154598236, -0.015884704887866974, -0.015389791689813137, -0.01489488035440445, -0.014399968087673187, -0.013905055820941925, -0.013410143554210663, -0.0129152312874794, -0.012420319020748138, -0.011925405822694302, -0.01143049355596304, -0.010935581289231777, -0.010440669022500515, -0.009945756755769253, -0.00945084448903799, -0.008955931290984154, -0.008461019024252892, -0.00796610675752163, -0.007471194490790367, -0.006976281758397818, -0.006481369491666555, -0.005986456759274006, -0.005491544492542744, -0.0049966322258114815, -0.004501719959080219, -0.004006807692348957, -0.0035118949599564075, -0.0030169826932251453, -0.002522070426493883, -0.0020271579269319773, -0.0015322455437853932, -0.0010373331606388092, -0.000542420893907547, -4.7508394345641136e-05, 0.0004474041052162647, 0.0009423162555322051]}, "gradients/graph_3taskmapper.lins.0.weight": {"_type": "histogram", "values": [2.0, 2.0, 0.0, 1.0, 0.0, 0.0, 0.0, 0.0, 0.0, 0.0, 0.0, 2.0, 1.0, 2.0, 3.0, 3.0, 5.0, 9.0, 8.0, 5.0, 4.0, 6.0, 9.0, 13.0, 17.0, 10.0, 20.0, 28.0, 19.0, 35.0, 44.0, 143.0, 98.0, 57.0, 35.0, 22.0, 27.0, 27.0, 19.0, 10.0, 12.0, 17.0, 8.0, 9.0, 8.0, 7.0, 7.0, 1.0, 1.0, 1.0, 2.0, 2.0, 1.0, 2.0, 1.0, 0.0, 1.0, 0.0, 0.0, 0.0, 1.0, 0.0, 0.0, 1.0], "bins": [-0.0038273935206234455, -0.003707161173224449, -0.003586928825825453, -0.0034666967112571, -0.0033464643638581038, -0.0032262320164591074, -0.0031059999018907547, -0.0029857675544917583, -0.002865535207092762, -0.0027453028596937656, -0.0026250705122947693, -0.0025048383977264166, -0.0023846060503274202, -0.002264373702928424, -0.002144141588360071, -0.002023909240961075, -0.0019036768935620785, -0.0017834445461630821, -0.0016632123151794076, -0.001542980084195733, -0.0014227477367967367, -0.0013025153893977404, -0.0011822831584140658, -0.0010620509274303913, -0.000941818580031395, -0.0008215862908400595, -0.0007013540016487241, -0.0005811217124573886, -0.0004608894232660532, -0.00034065713407471776, -0.00022042484488338232, -0.00010019255569204688, 2.003973349928856e-05, 0.000140272022690624, 0.00026050431188195944, 0.0003807366010732949, 0.0005009688902646303, 0.0006212011794559658, 0.0007414334686473012, 0.0008616657578386366, 0.000981898047029972, 0.0011021303944289684, 0.001222362625412643, 0.0013425948563963175, 0.0014628272037953138, 0.0015830595511943102, 0.0017032917821779847, 0.0018235240131616592, 0.0019437563605606556, 0.002063988707959652, 0.0021842210553586483, 0.002304453169927001, 0.0024246855173259974, 0.0025449178647249937, 0.0026651499792933464, 0.0027853823266923428, 0.002905614674091339, 0.0030258470214903355, 0.003146079368889332, 0.0032663114834576845, 0.003386543830856681, 0.0035067761782556772, 0.00362700829282403, 0.0037472406402230263, 0.0038674729876220226]}, "gradients/graph_3_projector.0.bias": {"_type": "histogram", "values": [1.0, 0.0, 1.0, 1.0, 0.0, 0.0, 3.0, 0.0, 1.0, 1.0, 1.0, 0.0, 2.0, 0.0, 0.0, 0.0, 0.0, 1.0, 2.0, 2.0, 2.0, 1.0, 0.0, 1.0, 1.0, 1.0, 1.0, 1.0, 1.0, 1.0, 0.0, 0.0, 0.0, 0.0, 0.0, 0.0, 1.0, 0.0, 0.0, 2.0, 0.0, 1.0, 0.0, 0.0, 0.0, 0.0, 0.0, 0.0, 0.0, 1.0, 0.0, 0.0, 0.0, 0.0, 0.0, 0.0, 0.0, 0.0, 0.0, 0.0, 0.0, 0.0, 0.0, 1.0], "bins": [-0.07483362406492233, -0.07145186513662338, -0.06807010620832443, -0.06468834728002548, -0.06130658835172653, -0.05792482942342758, -0.05454306676983833, -0.05116130784153938, -0.04777954891324043, -0.04439778998494148, -0.04101603105664253, -0.037634268403053284, -0.034252509474754333, -0.030870752409100533, -0.027488991618156433, -0.024107232689857483, -0.020725473761558533, -0.017343714833259583, -0.013961954973638058, -0.010580195114016533, -0.007198436185717583, -0.0038166772574186325, -0.0004349164664745331, 0.002946842461824417, 0.006328601390123367, 0.009710360318422318, 0.013092120178043842, 0.016473880037665367, 0.019855638965964317, 0.023237397894263268, 0.026619158685207367, 0.030000917613506317, 0.03338266909122467, 0.03676442801952362, 0.04014618694782257, 0.04352794587612152, 0.04690970480442047, 0.05029146373271942, 0.05367322638630867, 0.05705498531460762, 0.06043674424290657, 0.06381850689649582, 0.06720026582479477, 0.07058202475309372, 0.07396378368139267, 0.07734554260969162, 0.08072730153799057, 0.08410906046628952, 0.08749081939458847, 0.09087257832288742, 0.09425433725118637, 0.09763609617948532, 0.10101785510778427, 0.10439961403608322, 0.10778138041496277, 0.11116313934326172, 0.11454489827156067, 0.11792665719985962, 0.12130841612815857, 0.12469017505645752, 0.12807193398475647, 0.13145369291305542, 0.13483545184135437, 0.13821721076965332, 0.14159896969795227]}, "gradients/graph_3_projector.0.weight": {"_type": "histogram", "values": [1.0, 0.0, 0.0, 1.0, 0.0, 2.0, 2.0, 1.0, 2.0, 3.0, 3.0, 7.0, 3.0, 13.0, 10.0, 10.0, 30.0, 38.0, 43.0, 64.0, 95.0, 93.0, 167.0, 156.0, 207.0, 232.0, 290.0, 324.0, 346.0, 402.0, 441.0, 485.0, 465.0, 492.0, 445.0, 426.0, 410.0, 380.0, 374.0, 329.0, 276.0, 222.0, 198.0, 151.0, 146.0, 83.0, 83.0, 47.0, 58.0, 30.0, 27.0, 22.0, 10.0, 17.0, 7.0, 4.0, 9.0, 2.0, 3.0, 1.0, 1.0, 1.0, 0.0, 2.0], "bins": [-0.055518798530101776, -0.05385664105415344, -0.05219448357820511, -0.050532326102256775, -0.04887016862630844, -0.04720801115036011, -0.045545849949121475, -0.04388369247317314, -0.04222153499722481, -0.040559377521276474, -0.03889722004532814, -0.037235062569379807, -0.035572901368141174, -0.03391074389219284, -0.03224858641624451, -0.030586428940296173, -0.02892427146434784, -0.027262113988399506, -0.025599956512451172, -0.02393779717385769, -0.022275639697909355, -0.02061348222196102, -0.01895132288336754, -0.017289165407419205, -0.01562700793147087, -0.013964850455522537, -0.012302692048251629, -0.01064053364098072, -0.008978376165032387, -0.007316218689084053, -0.005654060281813145, -0.003991901874542236, -0.002329748123884201, -0.00066759018227458, 0.000994567759335041, 0.002656725700944662, 0.004318883642554283, 0.005981041118502617, 0.007643199525773525, 0.009305357933044434, 0.010967515408992767, 0.012629672884941101, 0.01429183129221201, 0.015953989699482918, 0.01761614717543125, 0.019278304651379585, 0.020940463989973068, 0.022602621465921402, 0.024264778941869736, 0.02592693641781807, 0.027589093893766403, 0.029251253232359886, 0.03091341070830822, 0.0325755700469017, 0.03423772752285004, 0.03589988499879837, 0.037562042474746704, 0.03922419995069504, 0.04088635742664337, 0.042548514902591705, 0.04421067237854004, 0.04587282985448837, 0.047534991055727005, 0.04919714853167534, 0.05085930600762367]}, "gradients/graph_3_encoder.encoder.8.bias": {"_type": "histogram", "values": [1.0, 1.0, 0.0, 1.0, 0.0, 0.0, 0.0, 0.0, 1.0, 0.0, 1.0, 0.0, 1.0, 6.0, 2.0, 2.0, 1.0, 0.0, 5.0, 4.0, 3.0, 3.0, 6.0, 6.0, 6.0, 7.0, 6.0, 7.0, 10.0, 6.0, 3.0, 11.0, 12.0, 9.0, 9.0, 6.0, 5.0, 4.0, 13.0, 5.0, 8.0, 10.0, 7.0, 11.0, 3.0, 4.0, 6.0, 5.0, 3.0, 3.0, 4.0, 5.0, 1.0, 4.0, 2.0, 3.0, 3.0, 2.0, 3.0, 2.0, 0.0, 2.0, 0.0, 2.0], "bins": [-0.03760301321744919, -0.03650651499629021, -0.035410016775131226, -0.034313518553972244, -0.03321702033281326, -0.03212052211165428, -0.0310240238904953, -0.02992752566933632, -0.028831027448177338, -0.027734529227018356, -0.026638031005859375, -0.025541532784700394, -0.024445034563541412, -0.02334853634238243, -0.02225203812122345, -0.02115553990006447, -0.020059039816260338, -0.018962541595101357, -0.017866043373942375, -0.016769545152783394, -0.015673046931624413, -0.014576548710465431, -0.013480049557983875, -0.012383551336824894, -0.011287053115665913, -0.010190554894506931, -0.00909405667334795, -0.007997557520866394, -0.0069010597653687, -0.005804561544209719, -0.00470806285738945, -0.0036115646362304688, -0.0025150664150714874, -0.0014185680774971843, -0.0003220697399228811, 0.0007744287140667439, 0.0018709269352257252, 0.0029674251563847065, 0.004063923843204975, 0.0051604220643639565, 0.006256920285522938, 0.007353418506681919, 0.0084499167278409, 0.009546415880322456, 0.010642914101481438, 0.011739412322640419, 0.0128359105437994, 0.013932408764958382, 0.015028906986117363, 0.016125405207276344, 0.017221903428435326, 0.018318401649594307, 0.01941489987075329, 0.02051139809191227, 0.0216078981757164, 0.02270439639687538, 0.023800894618034363, 0.024897392839193344, 0.025993891060352325, 0.027090389281511307, 0.028186887502670288, 0.02928338572382927, 0.03037988394498825, 0.03147638216614723, 0.03257288038730621]}, "gradients/graph_3_encoder.encoder.8.weight": {"_type": "histogram", "values": [1.0, 0.0, 0.0, 0.0, 0.0, 0.0, 1.0, 0.0, 1.0, 1.0, 5.0, 3.0, 6.0, 7.0, 12.0, 10.0, 23.0, 26.0, 32.0, 49.0, 72.0, 103.0, 123.0, 193.0, 282.0, 343.0, 466.0, 617.0, 925.0, 1271.0, 1828.0, 2502.0, 3420.0, 4662.0, 6310.0, 7728.0, 7818.0, 6718.0, 5102.0, 3926.0, 2848.0, 2165.0, 1515.0, 1132.0, 915.0, 653.0, 461.0, 347.0, 249.0, 190.0, 124.0, 94.0, 73.0, 56.0, 44.0, 26.0, 19.0, 14.0, 9.0, 4.0, 4.0, 4.0, 2.0, 2.0], "bins": [-0.045199573040008545, -0.04394519329071045, -0.042690813541412354, -0.04143643006682396, -0.040182050317525864, -0.03892767056822777, -0.037673287093639374, -0.03641890734434128, -0.03516452759504318, -0.03391014784574509, -0.03265576809644699, -0.0314013846218586, -0.0301470048725605, -0.028892625123262405, -0.02763824351131916, -0.026383861899375916, -0.02512948215007782, -0.023875102400779724, -0.02262072078883648, -0.021366339176893234, -0.02011195942759514, -0.018857579678297043, -0.017603198066353798, -0.016348816454410553, -0.015094436705112457, -0.013840056024491787, -0.012585675343871117, -0.011331294663250446, -0.010076913982629776, -0.008822533302009106, -0.007568152621388435, -0.006313771940767765, -0.005059391260147095, -0.0038050105795264244, -0.002550629898905754, -0.0012962492182850838, -4.186853766441345e-05, 0.0012125121429562569, 0.002466892823576927, 0.0037212735041975975, 0.004975654184818268, 0.006230034865438938, 0.0074844155460596085, 0.008738796226680279, 0.009993176907300949, 0.01124755758792162, 0.01250193826854229, 0.01375631894916296, 0.01501069962978363, 0.016265079379081726, 0.01751946099102497, 0.018773842602968216, 0.02002822235226631, 0.021282602101564407, 0.022536983713507652, 0.023791365325450897, 0.025045745074748993, 0.02630012482404709, 0.027554506435990334, 0.02880888804793358, 0.030063267797231674, 0.03131764754652977, 0.032572031021118164, 0.03382641077041626, 0.035080790519714355]}, "gradients/graph_3_encoder.encoder.5.weight": {"_type": "histogram", "values": [1.0, 0.0, 0.0, 1.0, 0.0, 1.0, 0.0, 0.0, 1.0, 2.0, 1.0, 3.0, 5.0, 1.0, 6.0, 5.0, 3.0, 2.0, 9.0, 7.0, 15.0, 14.0, 16.0, 12.0, 14.0, 14.0, 9.0, 10.0, 9.0, 8.0, 4.0, 8.0, 10.0, 11.0, 8.0, 5.0, 9.0, 4.0, 4.0, 4.0, 4.0, 2.0, 5.0, 3.0, 0.0, 0.0, 1.0, 1.0, 0.0, 0.0, 0.0, 1.0, 0.0, 0.0, 0.0, 0.0, 0.0, 1.0, 1.0, 0.0, 0.0, 0.0, 0.0, 1.0], "bins": [-0.0132190752774477, -0.012723047286272049, -0.012227019295096397, -0.011730991303920746, -0.011234963312745094, -0.010738935321569443, -0.010242906399071217, -0.009746878407895565, -0.009250850416719913, -0.008754822425544262, -0.00825879443436861, -0.0077627659775316715, -0.00726673798635602, -0.006770709995180368, -0.0062746815383434296, -0.005778653547167778, -0.0052826255559921265, -0.004786597564816475, -0.004290569573640823, -0.0037945411168038845, -0.003298513125628233, -0.0028024851344525814, -0.002306456910446286, -0.001810428686439991, -0.0013144006952643394, -0.0008183725876733661, -0.0003223444800823927, 0.00017368362750858068, 0.0006697117350995541, 0.0011657397262752056, 0.0016617679502815008, 0.002157796174287796, 0.0026538241654634476, 0.003149852156639099, 0.0036458803806453943, 0.0041419086046516895, 0.004637936595827341, 0.005133964587002993, 0.0056299930438399315, 0.006126021035015583, 0.006622049026191235, 0.007118077017366886, 0.007614105008542538, 0.00811013299971819, 0.008606161922216415, 0.009102189913392067, 0.009598217904567719, 0.01009424589574337, 0.010590273886919022, 0.011086301878094673, 0.011582329869270325, 0.012078357860445976, 0.012574385851621628, 0.01307041384279728, 0.013566442765295506, 0.014062470756471157, 0.014558498747646809, 0.01505452673882246, 0.015550554729998112, 0.016046583652496338, 0.01654261164367199, 0.01703863963484764, 0.017534667626023293, 0.018030695617198944, 0.018526723608374596]}, "gradients/graph_3_encoder.encoder.5.bias": {"_type": "histogram", "values": [1.0, 1.0, 2.0, 0.0, 1.0, 0.0, 2.0, 1.0, 1.0, 1.0, 1.0, 1.0, 5.0, 4.0, 1.0, 2.0, 1.0, 4.0, 6.0, 6.0, 3.0, 3.0, 6.0, 6.0, 3.0, 6.0, 10.0, 11.0, 12.0, 14.0, 16.0, 9.0, 13.0, 15.0, 7.0, 5.0, 8.0, 13.0, 8.0, 10.0, 9.0, 6.0, 1.0, 5.0, 1.0, 2.0, 2.0, 1.0, 1.0, 1.0, 2.0, 0.0, 1.0, 2.0, 0.0, 0.0, 1.0, 1.0, 0.0, 0.0, 0.0, 0.0, 0.0, 1.0], "bins": [-0.022006183862686157, -0.021311480551958084, -0.02061677724123001, -0.019922073930501938, -0.019227372482419014, -0.01853266917169094, -0.017837965860962868, -0.017143262550234795, -0.01644856110215187, -0.015753857791423798, -0.015059155412018299, -0.014364452101290226, -0.013669749721884727, -0.012975046411156654, -0.012280343100428581, -0.011585639789700508, -0.010890936478972435, -0.010196233168244362, -0.009501530788838863, -0.00880682747811079, -0.008112125098705292, -0.007417421787977219, -0.0067227184772491455, -0.00602801563218236, -0.005333312787115574, -0.004638609942048788, -0.003943907096982002, -0.003249203786253929, -0.0025545009411871433, -0.0018597980961203575, -0.0011650947853922844, -0.0004703919403254986, 0.00022431276738643646, 0.0009190157288685441, 0.0016137186903506517, 0.002308421768248081, 0.003003124613314867, 0.003697827458381653, 0.004392530769109726, 0.005087233614176512, 0.005781936459243298, 0.006476639304310083, 0.007171342149376869, 0.007866045460104942, 0.008560748770833015, 0.009255451150238514, 0.009950154460966587, 0.010644856840372086, 0.011339560151100159, 0.012034263461828232, 0.01272896584123373, 0.013423669151961803, 0.014118371531367302, 0.014813074842095375, 0.015507778152823448, 0.01620248146355152, 0.016897182911634445, 0.01759188622236252, 0.01828658953309059, 0.018981292843818665, 0.01967599429190159, 0.02037069760262966, 0.021065400913357735, 0.021760104224085808, 0.02245480753481388]}, "gradients/graph_3_encoder.encoder.4.bias": {"_type": "histogram", "values": [1.0, 0.0, 0.0, 0.0, 0.0, 0.0, 0.0, 1.0, 0.0, 0.0, 1.0, 0.0, 0.0, 0.0, 0.0, 1.0, 2.0, 6.0, 1.0, 3.0, 2.0, 4.0, 6.0, 5.0, 4.0, 9.0, 9.0, 6.0, 10.0, 4.0, 22.0, 16.0, 12.0, 19.0, 15.0, 12.0, 9.0, 15.0, 8.0, 5.0, 7.0, 7.0, 4.0, 5.0, 6.0, 8.0, 3.0, 0.0, 2.0, 2.0, 0.0, 1.0, 0.0, 0.0, 0.0, 0.0, 0.0, 1.0, 0.0, 0.0, 0.0, 1.0, 0.0, 1.0], "bins": [-9.313225746154785e-09, -9.034010872710496e-09, -8.754795999266207e-09, -8.475581125821918e-09, -8.19636625237763e-09, -7.91715137893334e-09, -7.637936505489051e-09, -7.358721632044762e-09, -7.079506758600473e-09, -6.8002918851561844e-09, -6.5210770117118955e-09, -6.2418621382676065e-09, -5.9626472648233175e-09, -5.6834323913790286e-09, -5.40421751793474e-09, -5.125002644490451e-09, -4.845787771046162e-09, -4.566572897601873e-09, -4.287358024157584e-09, -4.008143150713295e-09, -3.728928277269006e-09, -3.449713403824717e-09, -3.170498530380428e-09, -2.891283656936139e-09, -2.61206878349185e-09, -2.332853910047561e-09, -2.053639036603272e-09, -1.774424163158983e-09, -1.495209289714694e-09, -1.215994416270405e-09, -9.36779542826116e-10, -6.575646693818271e-10, -3.7834979593753815e-10, -9.913492249324918e-11, 1.800799509510398e-10, 4.5929482439532876e-10, 7.385096978396177e-10, 1.0177245712839067e-09, 1.2969394447281957e-09, 1.5761543181724846e-09, 1.8553691916167736e-09, 2.1345840650610626e-09, 2.4137989385053515e-09, 2.6930138119496405e-09, 2.9722286853939295e-09, 3.2514435588382185e-09, 3.5306584322825074e-09, 3.809873305726796e-09, 4.089088179171085e-09, 4.368303052615374e-09, 4.647517926059663e-09, 4.926732799503952e-09, 5.205947672948241e-09, 5.48516254639253e-09, 5.764377419836819e-09, 6.043592293281108e-09, 6.322807166725397e-09, 6.602022040169686e-09, 6.881236913613975e-09, 7.160451787058264e-09, 7.439666660502553e-09, 7.718881533946842e-09, 7.998096407391131e-09, 8.27731128083542e-09, 8.556526154279709e-09]}, "gradients/graph_3_encoder.encoder.4.weight": {"_type": "histogram", "values": [1.0, 0.0, 1.0, 4.0, 7.0, 10.0, 8.0, 19.0, 24.0, 30.0, 44.0, 70.0, 85.0, 129.0, 219.0, 299.0, 413.0, 605.0, 869.0, 1348.0, 1896.0, 2604.0, 3402.0, 4567.0, 5669.0, 6654.0, 7065.0, 6931.0, 6161.0, 4895.0, 3624.0, 2554.0, 1816.0, 1182.0, 760.0, 507.0, 347.0, 232.0, 145.0, 103.0, 61.0, 40.0, 35.0, 28.0, 28.0, 10.0, 10.0, 7.0, 5.0, 1.0, 3.0, 1.0, 1.0, 1.0, 1.0, 0.0, 1.0, 0.0, 0.0, 1.0, 0.0, 2.0, 0.0, 1.0], "bins": [-0.0425322949886322, -0.04092291370034218, -0.039313532412052155, -0.03770414739847183, -0.03609476611018181, -0.034485384821891785, -0.03287600353360176, -0.03126662224531174, -0.029657240957021713, -0.02804785966873169, -0.026438476517796516, -0.024829095229506493, -0.02321971394121647, -0.021610330790281296, -0.020000949501991272, -0.018391568213701248, -0.016782185062766075, -0.015172802843153477, -0.013563421554863453, -0.011954039335250854, -0.01034465804696083, -0.008735275827348232, -0.007125893607735634, -0.00551651231944561, -0.003907130099833012, -0.0022977483458817005, -0.0006883663590997458, 0.000921015627682209, 0.00253039738163352, 0.004139779135584831, 0.00574916135519743, 0.0073585426434874535, 0.008967924863100052, 0.01057730708271265, 0.012186688371002674, 0.013796070590615273, 0.015405451878905296, 0.01701483502984047, 0.018624216318130493, 0.020233597606420517, 0.02184297889471054, 0.023452360183000565, 0.025061743333935738, 0.02667112462222576, 0.028280505910515785, 0.029889889061450958, 0.03149927034974098, 0.033108651638031006, 0.03471803665161133, 0.03632741793990135, 0.037936799228191376, 0.0395461842417717, 0.04115556553006172, 0.042764946818351746, 0.04437432810664177, 0.04598370939493179, 0.04759309068322182, 0.04920247197151184, 0.050811853259801865, 0.05242123454809189, 0.05403061956167221, 0.055640000849962234, 0.05724938213825226, 0.05885876342654228, 0.060468144714832306]}, "gradients/graph_3_encoder.encoder.1.weight": {"_type": "histogram", "values": [1.0, 0.0, 1.0, 4.0, 1.0, 1.0, 0.0, 1.0, 3.0, 4.0, 3.0, 2.0, 1.0, 1.0, 3.0, 5.0, 5.0, 3.0, 10.0, 2.0, 5.0, 8.0, 7.0, 7.0, 4.0, 7.0, 11.0, 7.0, 8.0, 13.0, 7.0, 9.0, 13.0, 7.0, 14.0, 9.0, 9.0, 6.0, 3.0, 2.0, 7.0, 4.0, 5.0, 2.0, 6.0, 2.0, 2.0, 0.0, 1.0, 6.0, 3.0, 0.0, 2.0, 1.0, 1.0, 1.0, 1.0, 0.0, 1.0, 0.0, 0.0, 1.0, 1.0, 2.0], "bins": [-0.011434929445385933, -0.01105278730392456, -0.010670645162463188, -0.010288503021001816, -0.009906360879540443, -0.009524219669401646, -0.009142077527940273, -0.008759935386478901, -0.008377793245017529, -0.007995651103556156, -0.007613508962094784, -0.007231367286294699, -0.006849225144833326, -0.006467083003371954, -0.006084941327571869, -0.0057027991861104965, -0.005320657044649124, -0.004938514903187752, -0.004556372761726379, -0.004174231085926294, -0.003792088944464922, -0.0034099468030035496, -0.003027804894372821, -0.002645662985742092, -0.0022635208442807198, -0.0018813788192346692, -0.0014992367941886187, -0.0011170947691425681, -0.0007349527440965176, -0.000352810719050467, 2.9331305995583534e-05, 0.00041147321462631226, 0.0007936153560876846, 0.0011757573811337352, 0.0015578994061797857, 0.0019400414312258363, 0.002322183456271887, 0.002704325597733259, 0.003086467506363988, 0.0034686094149947166, 0.003850751556456089, 0.004232893697917461, 0.004615035839378834, 0.004997177515178919, 0.005379319656640291, 0.005761461798101664, 0.006143603473901749, 0.006525745615363121, 0.006907887756824493, 0.007290029898285866, 0.007672172039747238, 0.00805431418120861, 0.008436456322669983, 0.00881859753280878, 0.009200739674270153, 0.009582881815731525, 0.009965023957192898, 0.01034716609865427, 0.010729308240115643, 0.011111450381577015, 0.011493591591715813, 0.011875733733177185, 0.012257875874638557, 0.01264001801609993, 0.013022160157561302]}, "gradients/graph_3_encoder.encoder.1.bias": {"_type": "histogram", "values": [2.0, 2.0, 0.0, 1.0, 2.0, 2.0, 1.0, 0.0, 5.0, 3.0, 6.0, 6.0, 7.0, 3.0, 6.0, 5.0, 9.0, 9.0, 4.0, 9.0, 11.0, 13.0, 11.0, 7.0, 13.0, 14.0, 8.0, 8.0, 7.0, 5.0, 10.0, 9.0, 8.0, 6.0, 4.0, 5.0, 6.0, 2.0, 3.0, 6.0, 1.0, 4.0, 3.0, 3.0, 2.0, 2.0, 1.0, 0.0, 0.0, 0.0, 0.0, 0.0, 0.0, 0.0, 0.0, 0.0, 0.0, 0.0, 0.0, 1.0, 0.0, 0.0, 0.0, 1.0], "bins": [-0.014906954020261765, -0.014314306899905205, -0.01372166071087122, -0.01312901359051466, -0.012536367401480675, -0.011943720281124115, -0.011351073160767555, -0.010758426040410995, -0.01016577985137701, -0.00957313273102045, -0.008980486541986465, -0.008387839421629906, -0.007795192766934633, -0.007202546112239361, -0.006609898991882801, -0.006017252337187529, -0.005424605682492256, -0.004831959027796984, -0.004239312373101711, -0.0036466652527451515, -0.003054018598049879, -0.0024613719433546066, -0.0018687250558286905, -0.0012760781683027744, -0.000683431513607502, -9.078474249690771e-05, 0.0005018620286136866, 0.0010945087997242808, 0.001687155570834875, 0.0022798022255301476, 0.0028724491130560637, 0.0034650960005819798, 0.004057742655277252, 0.004650389309972525, 0.005243035964667797, 0.005835683085024357, 0.006428329739719629, 0.007020976394414902, 0.0076136235147714615, 0.008206270635128021, 0.008798916824162006, 0.009391563944518566, 0.009984210133552551, 0.010576857253909111, 0.01116950437426567, 0.011762150563299656, 0.012354797683656216, 0.0129474438726902, 0.01354009099304676, 0.01413273811340332, 0.014725384302437305, 0.015318031422793865, 0.01591067761182785, 0.01650332473218441, 0.01709597185254097, 0.01768861897289753, 0.01828126609325409, 0.01887391321361065, 0.01946656033396721, 0.02005920559167862, 0.02065185271203518, 0.02124449983239174, 0.0218371469527483, 0.02242979407310486, 0.02302243933081627]}, "gradients/graph_3_encoder.encoder.0.bias": {"_type": "histogram", "values": [1.0, 1.0, 0.0, 1.0, 0.0, 0.0, 0.0, 0.0, 0.0, 2.0, 1.0, 0.0, 0.0, 1.0, 4.0, 3.0, 0.0, 3.0, 6.0, 3.0, 7.0, 9.0, 10.0, 7.0, 10.0, 15.0, 8.0, 10.0, 13.0, 8.0, 13.0, 15.0, 6.0, 7.0, 8.0, 19.0, 11.0, 11.0, 4.0, 5.0, 7.0, 2.0, 4.0, 0.0, 4.0, 1.0, 2.0, 3.0, 2.0, 2.0, 0.0, 0.0, 2.0, 1.0, 0.0, 0.0, 0.0, 0.0, 2.0, 0.0, 0.0, 1.0, 0.0, 1.0], "bins": [-5.699694156646729e-07, -5.516340024769306e-07, -5.332985892891884e-07, -5.149631761014462e-07, -4.966277629137039e-07, -4.782923497259617e-07, -4.5995693653821945e-07, -4.416215233504772e-07, -4.23286110162735e-07, -4.0495069697499275e-07, -3.866152837872505e-07, -3.682798705995083e-07, -3.4994445741176605e-07, -3.316090442240238e-07, -3.132736310362816e-07, -2.9493821784853935e-07, -2.766028046607971e-07, -2.582673914730549e-07, -2.3993197828531265e-07, -2.2159656509757042e-07, -2.0326115190982819e-07, -1.8492573872208595e-07, -1.6659032553434372e-07, -1.4825491234660149e-07, -1.2991949915885925e-07, -1.1158408597111702e-07, -9.324867278337479e-08, -7.491325959563255e-08, -5.657784640789032e-08, -3.8242433220148087e-08, -1.9907020032405853e-08, -1.57160684466362e-09, 1.6763806343078613e-08, 3.5099219530820847e-08, 5.343463271856308e-08, 7.177004590630531e-08, 9.010545909404755e-08, 1.0844087228178978e-07, 1.26776285469532e-07, 1.4511169865727425e-07, 1.6344711184501648e-07, 1.817825250327587e-07, 2.0011793822050095e-07, 2.1845335140824318e-07, 2.367887645959854e-07, 2.5512417778372765e-07, 2.734595909714699e-07, 2.917950041592121e-07, 3.1013041734695435e-07, 3.284658305346966e-07, 3.468012437224388e-07, 3.6513665691018105e-07, 3.834720700979233e-07, 4.018074832856655e-07, 4.2014289647340775e-07, 4.3847830966115e-07, 4.568137228488922e-07, 4.7514913603663445e-07, 4.934845492243767e-07, 5.118199624121189e-07, 5.301553755998611e-07, 5.484907887876034e-07, 5.668262019753456e-07, 5.851616151630878e-07, 6.034970283508301e-07]}, "gradients/graph_3_encoder.encoder.0.weight": {"_type": "histogram", "values": [1.0, 1.0, 0.0, 0.0, 1.0, 0.0, 0.0, 2.0, 0.0, 4.0, 2.0, 9.0, 10.0, 5.0, 11.0, 24.0, 34.0, 57.0, 84.0, 131.0, 217.0, 442.0, 718.0, 1313.0, 2443.0, 4499.0, 8631.0, 15641.0, 28977.0, 49131.0, 48012.0, 29578.0, 16075.0, 8470.0, 4471.0, 2317.0, 1226.0, 668.0, 410.0, 218.0, 135.0, 98.0, 58.0, 37.0, 29.0, 23.0, 8.0, 6.0, 7.0, 5.0, 5.0, 1.0, 3.0, 4.0, 0.0, 1.0, 1.0, 1.0, 0.0, 0.0, 0.0, 0.0, 0.0, 1.0], "bins": [-0.12330802530050278, -0.11919552087783813, -0.11508302390575409, -0.11097051948308945, -0.1068580225110054, -0.10274551808834076, -0.09863302111625671, -0.09452051669359207, -0.09040801227092743, -0.08629550784826279, -0.08218301087617874, -0.0780705064535141, -0.07395800948143005, -0.06984550505876541, -0.06573300063610077, -0.061620503664016724, -0.05750800669193268, -0.053395505994558334, -0.04928300529718399, -0.04517050087451935, -0.0410580039024353, -0.03694549947977066, -0.032832998782396317, -0.028720498085021973, -0.02460799738764763, -0.020495496690273285, -0.01638299599289894, -0.012270493432879448, -0.008157992735505104, -0.00404549203813076, 6.701052188873291e-05, 0.004179511219263077, 0.008292019367218018, 0.012404520064592361, 0.016517020761966705, 0.0206295233219862, 0.024742024019360542, 0.028854524716734886, 0.03296702727675438, 0.03707952797412872, 0.04119202867150307, 0.04530452936887741, 0.049417030066251755, 0.0535295307636261, 0.05764203518629074, 0.061754532158374786, 0.06586703658103943, 0.06997953355312347, 0.07409203797578812, 0.07820454239845276, 0.0823170393705368, 0.08642954379320145, 0.09054204076528549, 0.09465454518795013, 0.09876704216003418, 0.10287954658269882, 0.10699205100536346, 0.1111045554280281, 0.11521705240011215, 0.1193295568227768, 0.12344205379486084, 0.12755455076694489, 0.13166706264019012, 0.13577955961227417, 0.13989205658435822]}}