{"train_loss": 0.1546858847141266, "train_ssl_loss": 0.14107294380664825, "train_tsk_loss": 0.013612943701446056, "test_loss": 0.49548518657684326, "test_ssl_loss": 0.4792405366897583, "test_tsk_loss": 0.016244612634181976, "_timestamp": 1697562933.6259694, "_runtime": 211.20885348320007, "_step": 97, "gradients/taskmapper.out.bias": {"_type": "histogram", "values": [0.0, 0.0, 0.0, 0.0, 0.0, 0.0, 0.0, 0.0, 0.0, 0.0, 0.0, 0.0, 0.0, 0.0, 0.0, 0.0, 0.0, 0.0, 0.0, 0.0, 0.0, 0.0, 0.0, 0.0, 0.0, 0.0, 0.0, 0.0, 0.0, 0.0, 0.0, 0.0, 1.0, 0.0, 0.0, 0.0, 0.0, 0.0, 0.0, 0.0, 0.0, 0.0, 0.0, 0.0, 0.0, 0.0, 0.0, 0.0, 0.0, 0.0, 0.0, 0.0, 0.0, 0.0, 0.0, 0.0, 0.0, 0.0, 0.0, 0.0, 0.0, 0.0, 0.0, 0.0], "bins": [-0.004778383299708366, -0.004778383299708366, -0.004778383299708366, -0.004778383299708366, -0.004778383299708366, -0.004778383299708366, -0.004778383299708366, -0.004778383299708366, -0.004778383299708366, -0.004778383299708366, -0.004778383299708366, -0.004778383299708366, -0.004778383299708366, -0.004778383299708366, -0.004778383299708366, -0.004778383299708366, -0.004778383299708366, -0.004778383299708366, -0.004778383299708366, -0.004778383299708366, -0.004778383299708366, -0.004778383299708366, -0.004778383299708366, -0.004778383299708366, -0.004778383299708366, -0.004778383299708366, -0.004778383299708366, -0.004778383299708366, -0.004778383299708366, -0.004778383299708366, -0.004778383299708366, -0.004778383299708366, -0.004778383299708366, -0.004778383299708366, -0.004778383299708366, -0.004778383299708366, -0.004778383299708366, -0.004778383299708366, -0.004778383299708366, -0.004778383299708366, -0.004778383299708366, -0.004778383299708366, -0.004778383299708366, -0.004778383299708366, -0.004778383299708366, -0.004778383299708366, -0.004778383299708366, -0.004778383299708366, -0.004778383299708366, -0.004778383299708366, -0.004778383299708366, -0.004778383299708366, -0.004778383299708366, -0.004778383299708366, -0.004778383299708366, -0.004778383299708366, -0.004778383299708366, -0.004778383299708366, -0.004778383299708366, -0.004778383299708366, -0.004778383299708366, -0.004778383299708366, -0.004778383299708366, -0.004778383299708366, -0.004778383299708366]}, "gradients/taskmapper.out.weight": {"_type": "histogram", "values": [1.0, 0.0, 0.0, 0.0, 0.0, 0.0, 0.0, 0.0, 0.0, 0.0, 0.0, 0.0, 0.0, 0.0, 0.0, 0.0, 0.0, 0.0, 0.0, 1.0, 0.0, 0.0, 1.0, 0.0, 0.0, 0.0, 1.0, 1.0, 0.0, 1.0, 0.0, 1.0, 0.0, 0.0, 0.0, 0.0, 0.0, 0.0, 0.0, 1.0, 0.0, 0.0, 0.0, 0.0, 0.0, 0.0, 0.0, 0.0, 0.0, 0.0, 0.0, 0.0, 0.0, 0.0, 0.0, 0.0, 0.0, 0.0, 7.0, 0.0, 0.0, 0.0, 0.0, 1.0], "bins": [-0.009441335685551167, -0.009278927929699421, -0.00911652110517025, -0.008954113349318504, -0.008791706524789333, -0.008629298768937588, -0.008466891013085842, -0.008304484188556671, -0.008142076432704926, -0.00797966867685318, -0.007817261852324009, -0.007654854096472263, -0.007492446806281805, -0.007330039516091347, -0.0071676322259008884, -0.00700522493571043, -0.006842817645519972, -0.0066804103553295135, -0.006518003065139055, -0.00635559530928731, -0.006193188019096851, -0.006030780728906393, -0.005868373438715935, -0.0057059661485254765, -0.005543558858335018, -0.00538115156814456, -0.0052187442779541016, -0.005056336522102356, -0.004893929231911898, -0.004731521941721439, -0.004569114651530981, -0.004406707361340523, -0.0042443000711500645, -0.004081892780959606, -0.003919485490769148, -0.003757077967748046, -0.003594670444726944, -0.0034322631545364857, -0.0032698558643460274, -0.003107448574155569, -0.002945041051134467, -0.002782633760944009, -0.002620226237922907, -0.0024578189477324486, -0.0022954116575419903, -0.0021330041345208883, -0.00197059684433043, -0.00180818943772465, -0.0016457820311188698, -0.0014833746245130897, -0.0013209672179073095, -0.0011585599277168512, -0.0009961525211110711, -0.000833745114505291, -0.0006713377661071718, -0.0005089304177090526, -0.0003465229528956115, -0.00018411557539366186, -2.170819789171219e-05, 0.00014069917961023748, 0.00030310655711218715, 0.00046551396371796727, 0.0006279213121160865, 0.0007903286605142057, 0.0009527360671199858]}, "gradients/taskmapper.lins.1.bias": {"_type": "histogram", "values": [1.0, 0.0, 0.0, 0.0, 0.0, 0.0, 0.0, 0.0, 0.0, 0.0, 0.0, 0.0, 0.0, 0.0, 0.0, 0.0, 1.0, 0.0, 0.0, 0.0, 0.0, 0.0, 0.0, 1.0, 0.0, 0.0, 1.0, 0.0, 0.0, 0.0, 0.0, 0.0, 0.0, 0.0, 1.0, 0.0, 0.0, 0.0, 1.0, 0.0, 0.0, 1.0, 0.0, 0.0, 1.0, 0.0, 1.0, 0.0, 0.0, 0.0, 0.0, 0.0, 0.0, 0.0, 0.0, 1.0, 0.0, 0.0, 0.0, 0.0, 0.0, 0.0, 0.0, 6.0], "bins": [-0.0014822069788351655, -0.0014590475475415587, -0.0014358879998326302, -0.0014127285685390234, -0.0013895690208300948, -0.001366409589536488, -0.0013432500418275595, -0.0013200906105339527, -0.0012969310628250241, -0.0012737716315314174, -0.0012506120838224888, -0.001227452652528882, -0.0012042931048199534, -0.0011811336735263467, -0.001157974125817418, -0.0011348146945238113, -0.0011116552632302046, -0.0010884958319365978, -0.0010653362842276692, -0.0010421768529340625, -0.001019017305225134, -0.0009958578739315271, -0.0009726983262225986, -0.0009495388949289918, -0.0009263793472200632, -0.0009032198577187955, -0.0008800603682175279, -0.0008569008787162602, -0.0008337413892149925, -0.0008105819579213858, -0.0007874224102124572, -0.0007642629789188504, -0.0007411034894175828, -0.0007179439999163151, -0.0006947845104150474, -0.0006716250209137797, -0.0006484655314125121, -0.0006253060419112444, -0.0006021466106176376, -0.00057898712111637, -0.0005558276316151023, -0.0005326681421138346, -0.000509508652612567, -0.0004863491631112993, -0.00046318970271386206, -0.0004400302132125944, -0.0004168707237113267, -0.0003937112633138895, -0.0003705517447087914, -0.0003473922552075237, -0.00032423276570625603, -0.0003010733053088188, -0.00027791381580755115, -0.0002547543263062835, -0.0002315948368050158, -0.00020843536185566336, -0.0001852758723543957, -0.00016211638285312802, -0.00013895690790377557, -0.0001157974184025079, -9.263793617719784e-05, -6.947845395188779e-05, -4.6318964450620115e-05, -2.315948950126767e-05, 0.0]}, "gradients/taskmapper.lins.1.weight": {"_type": "histogram", "values": [1.0, 0.0, 0.0, 0.0, 1.0, 0.0, 0.0, 0.0, 0.0, 0.0, 0.0, 0.0, 1.0, 1.0, 0.0, 1.0, 1.0, 1.0, 0.0, 0.0, 0.0, 1.0, 1.0, 0.0, 1.0, 1.0, 2.0, 0.0, 2.0, 1.0, 2.0, 2.0, 1.0, 3.0, 3.0, 4.0, 4.0, 5.0, 4.0, 5.0, 5.0, 3.0, 6.0, 6.0, 4.0, 5.0, 5.0, 21.0, 258.0, 4.0, 3.0, 3.0, 4.0, 2.0, 1.0, 2.0, 0.0, 1.0, 0.0, 1.0, 0.0, 0.0, 0.0, 1.0], "bins": [-0.0030976552516222, -0.003033585846424103, -0.002969516208395362, -0.002905446570366621, -0.002841377165168524, -0.0027773077599704266, -0.0027132381219416857, -0.002649168483912945, -0.0025850990787148476, -0.0025210296735167503, -0.0024569600354880095, -0.0023928903974592686, -0.0023288209922611713, -0.002264751587063074, -0.0022006819490343332, -0.0021366123110055923, -0.002072542905807495, -0.002008473500609398, -0.001944403862580657, -0.001880334340967238, -0.001816264819353819, -0.0017521952977403998, -0.0016881257761269808, -0.0016240562545135617, -0.0015599867329001427, -0.0014959172112867236, -0.0014318476896733046, -0.0013677781680598855, -0.0013037086464464664, -0.0012396391248330474, -0.0011755696032196283, -0.0011115000816062093, -0.0010474303271621466, -0.0009833608055487275, -0.0009192912839353085, -0.0008552217623218894, -0.0007911522407084703, -0.0007270827190950513, -0.0006630131974816322, -0.0005989436758682132, -0.0005348741542547941, -0.00047080463264137506, -0.000406735111027956, -0.00034266558941453695, -0.0002785960678011179, -0.00021452654618769884, -0.00015045702457427979, -8.638750296086073e-05, -2.2317981347441673e-05, 4.175154026597738e-05, 0.00010582106187939644, 0.0001698905834928155, 0.00023396010510623455, 0.0002980296267196536, 0.00036209914833307266, 0.0004261686699464917, 0.0004902381915599108, 0.0005543077131733298, 0.0006183772347867489, 0.0006824467564001679, 0.000746516278013587, 0.000810585799627006, 0.0008746553212404251, 0.0009387248428538442, 0.0010027943644672632]}, "gradients/taskmapper.lins.0.bias": {"_type": "histogram", "values": [1.0, 0.0, 0.0, 0.0, 0.0, 0.0, 0.0, 0.0, 0.0, 0.0, 0.0, 0.0, 0.0, 0.0, 0.0, 0.0, 0.0, 0.0, 0.0, 1.0, 0.0, 0.0, 0.0, 0.0, 0.0, 0.0, 0.0, 0.0, 0.0, 0.0, 0.0, 0.0, 0.0, 0.0, 0.0, 0.0, 0.0, 0.0, 0.0, 0.0, 0.0, 0.0, 0.0, 0.0, 0.0, 2.0, 0.0, 0.0, 0.0, 0.0, 0.0, 0.0, 0.0, 2.0, 1.0, 2.0, 0.0, 2.0, 0.0, 1.0, 1.0, 1.0, 9.0, 1.0], "bins": [-0.00319660734385252, -0.0031451648101210594, -0.003093722276389599, -0.0030422797426581383, -0.002990836976096034, -0.0029393944423645735, -0.002887951908633113, -0.0028365093749016523, -0.0027850668411701918, -0.002733624307438731, -0.0026821817737072706, -0.0026307390071451664, -0.002579296473413706, -0.0025278539396822453, -0.0024764114059507847, -0.002424968872219324, -0.00237352610565722, -0.0023220835719257593, -0.0022706410381942987, -0.0022191982716321945, -0.002167755737900734, -0.0021163132041692734, -0.002064870670437813, -0.0020134281367063522, -0.0019619856029748917, -0.001910543069243431, -0.0018591004190966487, -0.0018076578853651881, -0.0017562153516337276, -0.0017047727014869452, -0.0016533301677554846, -0.001601887634024024, -0.0015504449838772416, -0.001499002450145781, -0.0014475597999989986, -0.001396117266267538, -0.0013446747325360775, -0.001293232082389295, -0.0012417895486578345, -0.0011903468985110521, -0.0011389043647795916, -0.001087461831048131, -0.0010360191809013486, -0.000984576647169888, -0.0009331340552307665, -0.000881691463291645, -0.0008302489295601845, -0.000778806337621063, -0.0007273638038896024, -0.0006759212119504809, -0.0006244786782190204, -0.0005730360862798989, -0.0005215934943407774, -0.00047015093150548637, -0.00041870836867019534, -0.00036726577673107386, -0.00031582321389578283, -0.0002643806510604918, -0.00021293805912137032, -0.0001614954962860793, -0.00011005291889887303, -5.8610341511666775e-05, -7.167778676375747e-06, 4.427481326274574e-05, 9.571736882207915e-05]}, "gradients/taskmapper.lins.0.weight": {"_type": "histogram", "values": [1.0, 0.0, 1.0, 0.0, 0.0, 0.0, 0.0, 0.0, 1.0, 0.0, 2.0, 3.0, 1.0, 0.0, 2.0, 1.0, 3.0, 2.0, 1.0, 0.0, 4.0, 2.0, 3.0, 8.0, 9.0, 3.0, 5.0, 3.0, 5.0, 19.0, 16.0, 15.0, 33.0, 44.0, 362.0, 73.0, 39.0, 23.0, 19.0, 9.0, 11.0, 12.0, 2.0, 6.0, 6.0, 4.0, 3.0, 2.0, 1.0, 1.0, 3.0, 1.0, 1.0, 1.0, 0.0, 0.0, 0.0, 0.0, 0.0, 0.0, 0.0, 0.0, 0.0, 2.0], "bins": [-0.0018824634607881308, -0.0018284902907907963, -0.0017745171207934618, -0.0017205438343808055, -0.001666570664383471, -0.0016125974943861365, -0.0015586242079734802, -0.0015046510379761457, -0.0014506778679788113, -0.0013967046979814768, -0.0013427315279841423, -0.001288758241571486, -0.0012347850715741515, -0.001180811901576817, -0.0011268386151641607, -0.0010728654451668262, -0.0010188922751694918, -0.0009649191051721573, -0.0009109458769671619, -0.0008569726487621665, -0.000802999478764832, -0.0007490263087674975, -0.0006950530805625021, -0.0006410798523575068, -0.0005871066823601723, -0.0005331335123628378, -0.0004791602841578424, -0.00042518708505667746, -0.0003712138859555125, -0.0003172406868543476, -0.00026326748775318265, -0.0002092942886520177, -0.00015532108955085278, -0.00010134789044968784, -4.73746913485229e-05, 6.5985077526420355e-06, 6.057170685380697e-05, 0.00011454490595497191, 0.00016851810505613685, 0.00022249130415730178, 0.0002764645032584667, 0.00033043770235963166, 0.0003844109014607966, 0.00043838410056196153, 0.0004923572996631265, 0.000546330469660461, 0.0006003036978654563, 0.0006542769260704517, 0.0007082500960677862, 0.0007622232660651207, 0.0008161964942701161, 0.0008701697224751115, 0.000924142892472446, 0.0009781160624697804, 0.0010320893488824368, 0.0010860625188797712, 0.0011400356888771057, 0.0011940088588744402, 0.0012479820288717747, 0.001301955315284431, 0.0013559284852817655, 0.0014099016552791, 0.0014638749416917562, 0.0015178481116890907, 0.0015718212816864252]}, "gradients/_projector.0.bias": {"_type": "histogram", "values": [1.0, 1.0, 1.0, 1.0, 1.0, 0.0, 0.0, 0.0, 0.0, 0.0, 1.0, 0.0, 0.0, 0.0, 0.0, 0.0, 0.0, 2.0, 0.0, 1.0, 0.0, 1.0, 0.0, 0.0, 2.0, 1.0, 0.0, 0.0, 0.0, 1.0, 1.0, 1.0, 1.0, 1.0, 0.0, 0.0, 1.0, 0.0, 0.0, 1.0, 1.0, 0.0, 0.0, 2.0, 0.0, 0.0, 2.0, 0.0, 1.0, 1.0, 1.0, 0.0, 0.0, 0.0, 0.0, 1.0, 0.0, 1.0, 0.0, 1.0, 0.0, 0.0, 0.0, 1.0], "bins": [-0.026624230667948723, -0.02569454535841942, -0.024764858186244965, -0.02383517287671566, -0.022905487567186356, -0.021975800395011902, -0.021046115085482597, -0.020116429775953293, -0.01918674260377884, -0.018257057294249535, -0.01732737012207508, -0.016397684812545776, -0.015467999503016472, -0.014538313262164593, -0.013608627021312714, -0.012678941711783409, -0.011749256402254105, -0.010819570161402225, -0.009889884851872921, -0.008960198611021042, -0.008030513301491737, -0.007100827060639858, -0.006171140819787979, -0.005241455044597387, -0.0043117692694067955, -0.0033820834942162037, -0.0024523974861949682, -0.0015227114781737328, -0.0005930257029831409, 0.00033666007220745087, 0.00126634631305933, 0.002196032088249922, 0.003125719726085663, 0.004055405501276255, 0.0049850912764668465, 0.005914777517318726, 0.006844463292509317, 0.007774149067699909, 0.008703835308551788, 0.009633520618081093, 0.010563206858932972, 0.011492893099784851, 0.012422578409314156, 0.013352264650166035, 0.014281950891017914, 0.015211636200547218, 0.016141321510076523, 0.017071008682250977, 0.01800069399178028, 0.018930379301309586, 0.01986006647348404, 0.020789751783013344, 0.02171943709254265, 0.022649124264717102, 0.023578809574246407, 0.02450849488377571, 0.025438182055950165, 0.02636786736547947, 0.027297554537653923, 0.028227239847183228, 0.029156925156712532, 0.030086610466241837, 0.03101629763841629, 0.031945984810590744, 0.0328756682574749]}, "gradients/_projector.0.weight": {"_type": "histogram", "values": [1.0, 0.0, 0.0, 1.0, 1.0, 3.0, 3.0, 4.0, 2.0, 2.0, 1.0, 2.0, 9.0, 7.0, 18.0, 20.0, 26.0, 23.0, 35.0, 52.0, 66.0, 76.0, 85.0, 98.0, 129.0, 136.0, 162.0, 186.0, 204.0, 223.0, 208.0, 282.0, 255.0, 234.0, 230.0, 201.0, 182.0, 146.0, 158.0, 112.0, 101.0, 78.0, 83.0, 49.0, 44.0, 36.0, 26.0, 28.0, 7.0, 18.0, 9.0, 9.0, 8.0, 7.0, 0.0, 1.0, 1.0, 4.0, 2.0, 0.0, 1.0, 0.0, 0.0, 1.0], "bins": [-0.02128700539469719, -0.02061627060174942, -0.0199455376714468, -0.01927480474114418, -0.01860406994819641, -0.017933335155248642, -0.017262602224946022, -0.016591869294643402, -0.015921134501695633, -0.015250400640070438, -0.014579666778445244, -0.01390893291682005, -0.013238199055194855, -0.01256746519356966, -0.011896731331944466, -0.011225997470319271, -0.010555263608694077, -0.009884529747068882, -0.009213795885443687, -0.008543062023818493, -0.007872328162193298, -0.007201594300568104, -0.006530860438942909, -0.005860126577317715, -0.00518939271569252, -0.004518658854067326, -0.003847924992442131, -0.0031771911308169365, -0.002506457269191742, -0.0018357234075665474, -0.0011649895459413528, -0.0004942556843161583, 0.00017647631466388702, 0.0008472101762890816, 0.0015179440379142761, 0.0021886778995394707, 0.0028594117611646652, 0.0035301456227898598, 0.004200879484415054, 0.004871613346040249, 0.005542347207665443, 0.006213081069290638, 0.0068838149309158325, 0.007554548792541027, 0.008225282654166222, 0.008896016515791416, 0.00956675037741661, 0.010237484239041805, 0.010908218100667, 0.011578951962292194, 0.012249685823917389, 0.012920419685542583, 0.013591153547167778, 0.014261887408792973, 0.014932621270418167, 0.015603355132043362, 0.016274088993668556, 0.016944821923971176, 0.017615556716918945, 0.018286291509866714, 0.018957024440169334, 0.019627757370471954, 0.020298492163419724, 0.020969226956367493, 0.021639959886670113]}, "gradients/_encoder.encoder.8.bias": {"_type": "histogram", "values": [1.0, 1.0, 0.0, 0.0, 1.0, 1.0, 2.0, 1.0, 4.0, 3.0, 1.0, 1.0, 1.0, 2.0, 2.0, 1.0, 4.0, 0.0, 4.0, 2.0, 3.0, 3.0, 3.0, 4.0, 4.0, 4.0, 1.0, 2.0, 6.0, 3.0, 4.0, 4.0, 2.0, 3.0, 2.0, 5.0, 4.0, 5.0, 1.0, 1.0, 1.0, 5.0, 5.0, 0.0, 1.0, 1.0, 2.0, 2.0, 1.0, 1.0, 2.0, 1.0, 3.0, 2.0, 0.0, 0.0, 0.0, 2.0, 0.0, 1.0, 0.0, 0.0, 1.0, 1.0], "bins": [-0.015470568090677261, -0.014954397454857826, -0.014438226819038391, -0.013922055251896381, -0.013405884616076946, -0.012889713980257511, -0.012373542413115501, -0.011857371777296066, -0.011341201141476631, -0.010825030505657196, -0.010308859869837761, -0.009792688302695751, -0.009276517666876316, -0.008760347031056881, -0.008244175463914871, -0.007728004828095436, -0.007211834192276001, -0.006695663556456566, -0.006179492454975843, -0.005663321353495121, -0.005147150717675686, -0.004630980081856251, -0.004114808980375528, -0.0035986381117254496, -0.003082467243075371, -0.002566296374425292, -0.0020501255057752132, -0.0015339546371251345, -0.0010177837684750557, -0.0005016128998249769, 1.4557968825101852e-05, 0.0005307288374751806, 0.0010468978434801102, 0.001563068712130189, 0.0020792395807802677, 0.0025954104494303465, 0.0031115813180804253, 0.003627752186730504, 0.004143923055380583, 0.004660094156861305, 0.00517626479268074, 0.0056924354285001755, 0.006208606529980898, 0.00672477763146162, 0.0072409482672810555, 0.007757118903100491, 0.0082732904702425, 0.008789461106061935, 0.00930563174188137, 0.009821802377700806, 0.01033797301352024, 0.01085414458066225, 0.011370315216481686, 0.01188648585230112, 0.01240265741944313, 0.012918828055262566, 0.013434998691082, 0.013951169326901436, 0.014467339962720871, 0.01498351152986288, 0.015499682165682316, 0.016015853732824326, 0.01653202436864376, 0.017048195004463196, 0.01756436564028263]}, "gradients/_encoder.encoder.8.weight": {"_type": "histogram", "values": [1.0, 2.0, 0.0, 0.0, 1.0, 2.0, 2.0, 6.0, 12.0, 17.0, 7.0, 21.0, 35.0, 38.0, 54.0, 88.0, 102.0, 152.0, 228.0, 313.0, 402.0, 540.0, 775.0, 1071.0, 1454.0, 1953.0, 2593.0, 3227.0, 3692.0, 3603.0, 3059.0, 2464.0, 1900.0, 1377.0, 1002.0, 676.0, 485.0, 367.0, 276.0, 195.0, 141.0, 101.0, 89.0, 51.0, 49.0, 33.0, 34.0, 27.0, 8.0, 16.0, 11.0, 4.0, 2.0, 3.0, 3.0, 1.0, 0.0, 1.0, 0.0, 1.0, 0.0, 0.0, 0.0, 1.0], "bins": [-0.01909564435482025, -0.018433833494782448, -0.017772020772099495, -0.01711020991206169, -0.01644839718937874, -0.015786586329340935, -0.015124775469303131, -0.014462963677942753, -0.013801151886582375, -0.013139340095221996, -0.012477528303861618, -0.011815717443823814, -0.011153905652463436, -0.010492093861103058, -0.009830283001065254, -0.009168471209704876, -0.008506659418344498, -0.00784484762698412, -0.0071830363012850285, -0.0065212249755859375, -0.005859413184225559, -0.005197601392865181, -0.00453579006716609, -0.003873978741466999, -0.003212166950106621, -0.002550355391576886, -0.0018885438330471516, -0.001226732274517417, -0.0005649207159876823, 9.689084254205227e-05, 0.0007587024010717869, 0.0014205137267708778, 0.0020823273807764053, 0.00274413893930614, 0.0034059504978358746, 0.0040677618235349655, 0.004729573614895344, 0.005391385406255722, 0.006053196731954813, 0.006715008057653904, 0.007376819849014282, 0.00803863164037466, 0.008700443431735039, 0.009362254291772842, 0.01002406608313322, 0.010685877874493599, 0.011347688734531403, 0.01200950052589178, 0.012671312317252159, 0.013333124108612537, 0.013994935899972916, 0.01465674676001072, 0.015318558551371098, 0.015980370342731476, 0.01664218120276928, 0.017303992062807083, 0.017965804785490036, 0.01862761564552784, 0.019289428368210793, 0.019951239228248596, 0.02061305195093155, 0.021274862810969353, 0.021936673671007156, 0.02259848639369011, 0.023260297253727913]}, "gradients/_encoder.encoder.5.weight": {"_type": "histogram", "values": [1.0, 1.0, 0.0, 0.0, 0.0, 0.0, 0.0, 0.0, 0.0, 0.0, 1.0, 0.0, 3.0, 1.0, 0.0, 1.0, 0.0, 2.0, 3.0, 2.0, 1.0, 2.0, 3.0, 1.0, 3.0, 0.0, 4.0, 8.0, 8.0, 11.0, 9.0, 6.0, 16.0, 15.0, 12.0, 12.0, 18.0, 20.0, 14.0, 12.0, 9.0, 9.0, 6.0, 7.0, 7.0, 7.0, 3.0, 5.0, 0.0, 2.0, 2.0, 0.0, 1.0, 0.0, 0.0, 2.0, 1.0, 0.0, 0.0, 2.0, 2.0, 0.0, 0.0, 1.0], "bins": [-0.007044076919555664, -0.006846779957413673, -0.006649482995271683, -0.006452186033129692, -0.006254888605326414, -0.0060575916431844234, -0.005860294681042433, -0.005662997718900442, -0.005465700291097164, -0.0052684033289551735, -0.005071106366813183, -0.004873809404671192, -0.004676511976867914, -0.0044792150147259235, -0.004281918052583933, -0.004084621090441942, -0.0038873241282999516, -0.003690027166157961, -0.0034927299711853266, -0.003295433009043336, -0.0030981358140707016, -0.002900838851928711, -0.0027035418897867203, -0.0025062449276447296, -0.0023089477326720953, -0.0021116507705301046, -0.0019143535755574703, -0.0017170566134154797, -0.0015197595348581672, -0.0013224624563008547, -0.001125165494158864, -0.0009278684156015515, -0.0007305708713829517, -0.0005332737928256392, -0.00033597677247598767, -0.0001386797521263361, 5.861732643097639e-05, 0.0002559144049882889, 0.00045321136713027954, 0.000650508445687592, 0.0008478055242449045, 0.001045102602802217, 0.0012423996813595295, 0.0014396966435015202, 0.0016369937220588326, 0.0018342908006161451, 0.002031587762758136, 0.00222888495773077, 0.0024261819198727608, 0.0026234788820147514, 0.0028207760769873857, 0.0030180730391293764, 0.0032153702341020107, 0.0034126671962440014, 0.003609964158385992, 0.0038072611205279827, 0.004004558548331261, 0.004201855510473251, 0.004399152472615242, 0.004596449434757233, 0.004793746862560511, 0.004991043824702501, 0.005188340786844492, 0.005385637748986483, 0.005582934711128473]}, "gradients/_encoder.encoder.5.bias": {"_type": "histogram", "values": [2.0, 0.0, 0.0, 0.0, 0.0, 1.0, 0.0, 2.0, 1.0, 0.0, 1.0, 0.0, 1.0, 3.0, 1.0, 3.0, 3.0, 3.0, 1.0, 4.0, 4.0, 7.0, 6.0, 9.0, 6.0, 6.0, 10.0, 17.0, 14.0, 15.0, 13.0, 9.0, 15.0, 10.0, 6.0, 6.0, 8.0, 4.0, 9.0, 8.0, 5.0, 3.0, 6.0, 6.0, 5.0, 3.0, 1.0, 1.0, 2.0, 2.0, 2.0, 0.0, 0.0, 1.0, 0.0, 0.0, 1.0, 3.0, 1.0, 0.0, 3.0, 0.0, 1.0, 2.0], "bins": [-0.007346305530518293, -0.0071096173487603664, -0.0068729291670024395, -0.0066362409852445126, -0.006399552337825298, -0.006162864156067371, -0.005926175974309444, -0.0056894877925515175, -0.0054527996107935905, -0.005216111429035664, -0.004979423247277737, -0.00474273506551981, -0.004506046883761883, -0.004269358702003956, -0.004032670054584742, -0.0037959818728268147, -0.0035592936910688877, -0.0033226055093109608, -0.003085917327553034, -0.0028492289129644632, -0.0026125407312065363, -0.0023758525494486094, -0.0021391641348600388, -0.0019024759531021118, -0.0016657877713441849, -0.001429099589586258, -0.0011924112914130092, -0.0009557230514474213, -0.0007190348114818335, -0.0004823466297239065, -0.00024565833155065775, -8.970033377408981e-06, 0.00022771861404180527, 0.0004644068540073931, 0.000701095093972981, 0.0009377833339385688, 0.0011744715739041567, 0.0014111597556620836, 0.0016478480538353324, 0.0018845363520085812, 0.002121224533766508, 0.002357912715524435, 0.002594600897282362, 0.0028312893118709326, 0.0030679774936288595, 0.0033046656753867865, 0.003541354089975357, 0.003778042271733284, 0.004014730453491211, 0.004251418635249138, 0.004488106817007065, 0.004724794998764992, 0.004961483180522919, 0.005198171362280846, 0.00543486000970006, 0.005671548191457987, 0.005908236373215914, 0.006144924554973841, 0.006381612736731768, 0.006618300918489695, 0.006854989565908909, 0.007091677747666836, 0.007328365929424763, 0.00756505411118269, 0.007801742292940617]}, "gradients/_encoder.encoder.4.bias": {"_type": "histogram", "values": [4.0, 0.0, 0.0, 0.0, 0.0, 1.0, 0.0, 0.0, 2.0, 0.0, 0.0, 2.0, 3.0, 6.0, 2.0, 6.0, 7.0, 7.0, 3.0, 8.0, 13.0, 8.0, 9.0, 16.0, 17.0, 22.0, 14.0, 16.0, 11.0, 18.0, 7.0, 7.0, 9.0, 4.0, 2.0, 12.0, 1.0, 3.0, 5.0, 1.0, 4.0, 0.0, 0.0, 1.0, 0.0, 0.0, 0.0, 0.0, 1.0, 1.0, 0.0, 0.0, 0.0, 0.0, 0.0, 0.0, 0.0, 0.0, 0.0, 0.0, 0.0, 1.0, 1.0, 1.0], "bins": [-2.0954757928848267e-09, -2.0158950064796954e-09, -1.9363142200745642e-09, -1.856733433669433e-09, -1.7771526472643018e-09, -1.6975718608591706e-09, -1.6179910744540393e-09, -1.5384102880489081e-09, -1.4588295016437769e-09, -1.3792487152386457e-09, -1.2996679288335145e-09, -1.2200871424283832e-09, -1.140506356023252e-09, -1.0609255696181208e-09, -9.813447832129896e-10, -9.017639968078583e-10, -8.221832104027271e-10, -7.426024239975959e-10, -6.630216375924647e-10, -5.834408511873335e-10, -5.038600647822022e-10, -4.24279278377071e-10, -3.446984919719398e-10, -2.651177055668086e-10, -1.8553691916167736e-10, -1.0595613275654614e-10, -2.637534635141492e-11, 5.32054400537163e-11, 1.3278622645884752e-10, 2.1236701286397874e-10, 2.9194779926910996e-10, 3.715285856742412e-10, 4.511093720793724e-10, 5.306901584845036e-10, 6.102709448896348e-10, 6.898517312947661e-10, 7.694325176998973e-10, 8.490133041050285e-10, 9.285940905101597e-10, 1.008174876915291e-09, 1.0877556633204222e-09, 1.1673364497255534e-09, 1.2469172361306846e-09, 1.3264980225358158e-09, 1.406078808940947e-09, 1.4856595953460783e-09, 1.5652403817512095e-09, 1.6448211681563407e-09, 1.724401954561472e-09, 1.8039827409666032e-09, 1.8835635273717344e-09, 1.9631443137768656e-09, 2.042725100181997e-09, 2.122305886587128e-09, 2.2018866729922593e-09, 2.2814674593973905e-09, 2.3610482458025217e-09, 2.440629032207653e-09, 2.520209818612784e-09, 2.5997906050179154e-09, 2.6793713914230466e-09, 2.758952177828178e-09, 2.838532964233309e-09, 2.9181137506384403e-09, 2.9976945370435715e-09]}, "gradients/_encoder.encoder.4.weight": {"_type": "histogram", "values": [1.0, 0.0, 0.0, 0.0, 0.0, 1.0, 0.0, 0.0, 1.0, 1.0, 1.0, 3.0, 1.0, 1.0, 2.0, 2.0, 4.0, 5.0, 5.0, 10.0, 8.0, 10.0, 8.0, 11.0, 32.0, 30.0, 43.0, 69.0, 114.0, 150.0, 219.0, 304.0, 524.0, 821.0, 1462.0, 2426.0, 4233.0, 7381.0, 11412.0, 16439.0, 23177.0, 21537.0, 15220.0, 9861.0, 6318.0, 3622.0, 2040.0, 1242.0, 816.0, 501.0, 324.0, 260.0, 152.0, 97.0, 65.0, 43.0, 22.0, 14.0, 5.0, 11.0, 5.0, 5.0, 0.0, 1.0], "bins": [-0.03394298255443573, -0.03311192989349365, -0.032280877232551575, -0.0314498245716095, -0.03061877191066742, -0.029787719249725342, -0.028956668451428413, -0.028125615790486336, -0.027294563129544258, -0.02646351046860218, -0.025632457807660103, -0.024801405146718025, -0.023970354348421097, -0.02313930168747902, -0.02230824902653694, -0.021477196365594864, -0.020646143704652786, -0.01981509104371071, -0.01898403838276863, -0.018152985721826553, -0.017321933060884476, -0.016490880399942398, -0.01565982960164547, -0.014828776940703392, -0.013997724279761314, -0.013166671618819237, -0.012335618957877159, -0.011504567228257656, -0.010673514567315578, -0.0098424619063735, -0.009011410176753998, -0.00818035751581192, -0.0073493048548698425, -0.006518252193927765, -0.0056871999986469746, -0.004856147803366184, -0.004025095142424107, -0.003194042481482029, -0.0023629902862012386, -0.0015319380909204483, -0.0007008854299783707, 0.00013016699813306332, 0.0009612194262444973, 0.0017922718543559313, 0.0026233242824673653, 0.003454376943409443, 0.004285429138690233, 0.0051164813339710236, 0.005947533994913101, 0.006778586655855179, 0.007609638851135969, 0.00844069104641676, 0.009271743707358837, 0.010102796368300915, 0.010933848097920418, 0.011764900758862495, 0.012595953419804573, 0.01342700608074665, 0.014258058741688728, 0.015089110471308231, 0.015920162200927734, 0.016751214861869812, 0.01758226752281189, 0.018413320183753967, 0.019244372844696045]}, "gradients/_encoder.encoder.1.weight": {"_type": "histogram", "values": [1.0, 1.0, 2.0, 1.0, 2.0, 1.0, 0.0, 6.0, 2.0, 3.0, 3.0, 0.0, 6.0, 7.0, 8.0, 9.0, 8.0, 7.0, 10.0, 10.0, 14.0, 15.0, 19.0, 17.0, 21.0, 22.0, 23.0, 28.0, 26.0, 24.0, 27.0, 24.0, 13.0, 20.0, 16.0, 14.0, 16.0, 13.0, 7.0, 12.0, 13.0, 6.0, 7.0, 5.0, 5.0, 8.0, 4.0, 2.0, 0.0, 0.0, 1.0, 1.0, 0.0, 0.0, 0.0, 0.0, 0.0, 0.0, 0.0, 0.0, 0.0, 0.0, 0.0, 2.0], "bins": [-0.003197935875505209, -0.0030848218593746424, -0.0029717080760747194, -0.002858594059944153, -0.0027454800438135862, -0.0026323662605136633, -0.0025192522443830967, -0.0024061384610831738, -0.002293024444952607, -0.0021799104288220406, -0.0020667966455221176, -0.001953682629391551, -0.0018405687296763062, -0.0017274548299610615, -0.0016143408138304949, -0.0015012269141152501, -0.0013881128979846835, -0.0012749989982694387, -0.0011618849821388721, -0.0010487710824236274, -0.0009356571827083826, -0.0008225432247854769, -0.0007094292668625712, -0.0005963153671473265, -0.0004832014092244208, -0.00037008748040534556, -0.00025697355158627033, -0.00014385959366336465, -3.074566484428942e-05, 8.23682639747858e-05, 0.0001954822218976915, 0.00030859612161293626, 0.00042171007953584194, 0.0005348240374587476, 0.0006479379371739924, 0.0007610518950968981, 0.0008741657948121428, 0.0009872796945273876, 0.0011003937106579542, 0.001213507610373199, 0.0013266215100884438, 0.0014397354098036885, 0.0015528494259342551, 0.0016659633256495, 0.0017790772253647447, 0.0018921911250799894, 0.002005305141210556, 0.002118418924510479, 0.0022315331734716892, 0.002344647189602256, 0.0024577609729021788, 0.0025708749890327454, 0.002683989005163312, 0.002797102788463235, 0.0029102168045938015, 0.0030233305878937244, 0.003136444604024291, 0.0032495586201548576, 0.0033626724034547806, 0.003475786419585347, 0.0035889004357159138, 0.0037020142190158367, 0.0038151282351464033, 0.00392824225127697, 0.004041356034576893]}, "gradients/_encoder.encoder.1.bias": {"_type": "histogram", "values": [1.0, 0.0, 0.0, 1.0, 0.0, 1.0, 2.0, 0.0, 1.0, 1.0, 3.0, 2.0, 1.0, 3.0, 1.0, 3.0, 5.0, 6.0, 5.0, 7.0, 5.0, 8.0, 10.0, 11.0, 16.0, 9.0, 13.0, 19.0, 11.0, 18.0, 27.0, 16.0, 28.0, 22.0, 16.0, 28.0, 16.0, 18.0, 17.0, 25.0, 23.0, 23.0, 12.0, 10.0, 13.0, 13.0, 6.0, 6.0, 5.0, 2.0, 6.0, 2.0, 3.0, 3.0, 3.0, 0.0, 2.0, 1.0, 0.0, 1.0, 0.0, 1.0, 0.0, 1.0], "bins": [-0.00477385800331831, -0.0046311733312904835, -0.004488488659262657, -0.0043458035215735435, -0.004203118849545717, -0.004060434177517891, -0.003917749505490065, -0.0037750646006315947, -0.0036323796957731247, -0.0034896950237452984, -0.0033470101188868284, -0.003204325446859002, -0.003061640542000532, -0.002918955869972706, -0.0027762711979448795, -0.0026335862930864096, -0.0024909016210585833, -0.002348216949030757, -0.002205532044172287, -0.0020628473721444607, -0.0019201624672859907, -0.0017774777952581644, -0.0016347930068150163, -0.0014921082183718681, -0.00134942342992872, -0.0012067386414855719, -0.0010640538530424237, -0.0009213691228069365, -0.0007786843343637884, -0.0006359995459206402, -0.000493314815685153, -0.00035063002724200487, -0.00020794523879885674, -6.526046490762383e-05, 7.742430898360908e-05, 0.00022010906832292676, 0.0003627938567660749, 0.000505478645209223, 0.0006481633754447103, 0.0007908481638878584, 0.0009335329523310065, 0.0010762177407741547, 0.0012189025292173028, 0.001361587317660451, 0.0015042719896882772, 0.0016469568945467472, 0.0017896415665745735, 0.0019323263550177217, 0.00207501114346087, 0.002217695815488696, 0.002360380720347166, 0.0025030653923749924, 0.0026457502972334623, 0.0027884349692612886, 0.0029311198741197586, 0.003073804546147585, 0.0032164892181754112, 0.0033591738902032375, 0.0035018587950617075, 0.003644543467089534, 0.0037872283719480038, 0.00392991304397583, 0.004072597716003656, 0.004215282388031483, 0.004357967525720596]}, "gradients/_encoder.encoder.0.bias": {"_type": "histogram", "values": [1.0, 0.0, 0.0, 0.0, 0.0, 0.0, 0.0, 1.0, 0.0, 0.0, 1.0, 2.0, 2.0, 0.0, 2.0, 1.0, 2.0, 2.0, 2.0, 6.0, 7.0, 6.0, 9.0, 11.0, 14.0, 26.0, 27.0, 28.0, 40.0, 35.0, 45.0, 50.0, 28.0, 37.0, 22.0, 19.0, 22.0, 11.0, 7.0, 11.0, 7.0, 2.0, 3.0, 4.0, 5.0, 3.0, 2.0, 3.0, 2.0, 1.0, 0.0, 1.0, 0.0, 0.0, 0.0, 0.0, 0.0, 0.0, 0.0, 0.0, 0.0, 1.0, 0.0, 1.0], "bins": [-1.7136335372924805e-07, -1.6586272977292538e-07, -1.603621058166027e-07, -1.5486148186028004e-07, -1.4936085790395737e-07, -1.438602339476347e-07, -1.3835960999131203e-07, -1.3285898603498936e-07, -1.273583620786667e-07, -1.2185773812234402e-07, -1.1635711416602135e-07, -1.1085649020969868e-07, -1.0535586625337601e-07, -9.985524229705334e-08, -9.435461834073067e-08, -8.8853994384408e-08, -8.335337042808533e-08, -7.785274647176266e-08, -7.235212251543999e-08, -6.685149855911732e-08, -6.135087460279465e-08, -5.585025064647198e-08, -5.034962669014931e-08, -4.484900273382664e-08, -3.934837877750397e-08, -3.38477548211813e-08, -2.8347130864858627e-08, -2.2846506908535957e-08, -1.7345882952213287e-08, -1.1845258995890617e-08, -6.344635039567947e-09, -8.440110832452774e-10, 4.6566128730773926e-09, 1.0157236829400063e-08, 1.5657860785722733e-08, 2.1158484742045403e-08, 2.6659108698368073e-08, 3.215973265469074e-08, 3.766035661101341e-08, 4.316098056733608e-08, 4.866160452365875e-08, 5.416222847998142e-08, 5.966285243630409e-08, 6.516347639262676e-08, 7.066410034894943e-08, 7.61647243052721e-08, 8.166534826159477e-08, 8.716597221791744e-08, 9.266659617424011e-08, 9.816722013056278e-08, 1.0366784408688545e-07, 1.0916846804320812e-07, 1.1466909199953079e-07, 1.2016971595585346e-07, 1.2567033991217613e-07, 1.311709638684988e-07, 1.3667158782482147e-07, 1.4217221178114414e-07, 1.476728357374668e-07, 1.5317345969378948e-07, 1.5867408365011215e-07, 1.6417470760643482e-07, 1.696753315627575e-07, 1.7517595551908016e-07, 1.8067657947540283e-07]}, "gradients/_encoder.encoder.0.weight": {"_type": "histogram", "values": [1.0, 0.0, 1.0, 1.0, 3.0, 2.0, 0.0, 2.0, 0.0, 3.0, 4.0, 7.0, 9.0, 12.0, 18.0, 19.0, 26.0, 35.0, 49.0, 92.0, 98.0, 161.0, 229.0, 337.0, 537.0, 823.0, 1529.0, 2934.0, 6439.0, 16660.0, 49662.0, 155044.0, 141604.0, 45113.0, 15202.0, 5894.0, 2635.0, 1323.0, 761.0, 441.0, 266.0, 161.0, 110.0, 83.0, 50.0, 40.0, 21.0, 18.0, 19.0, 9.0, 9.0, 7.0, 2.0, 2.0, 2.0, 0.0, 1.0, 0.0, 1.0, 0.0, 0.0, 0.0, 0.0, 1.0], "bins": [-0.04470008984208107, -0.04330063983798027, -0.04190118983387947, -0.04050173982977867, -0.03910228982567787, -0.03770284354686737, -0.03630339354276657, -0.03490394353866577, -0.03350449353456497, -0.03210504353046417, -0.030705593526363373, -0.029306143522262573, -0.027906695380806923, -0.026507245376706123, -0.025107795372605324, -0.023708347231149673, -0.022308895364403725, -0.020909445360302925, -0.019509995356202126, -0.018110547214746475, -0.016711097210645676, -0.015311647206544876, -0.013912197202444077, -0.012512748129665852, -0.011113298125565052, -0.009713848121464252, -0.008314399048686028, -0.006914949044585228, -0.005515499506145716, -0.0041160499677062035, -0.002716599963605404, -0.001317150890827179, 8.22991132736206e-05, 0.0014817487681284547, 0.0028811984229832888, 0.004280648194253445, 0.005680097732692957, 0.007079547271132469, 0.008478997275233269, 0.009878446348011494, 0.011277896352112293, 0.012677346356213093, 0.014076795428991318, 0.015476245433092117, 0.016875695437192917, 0.018275145441293716, 0.019674595445394516, 0.021074043586850166, 0.022473493590950966, 0.023872943595051765, 0.025272393599152565, 0.026671841740608215, 0.028071291744709015, 0.029470741748809814, 0.030870191752910614, 0.032269641757011414, 0.03366909176111221, 0.03506854176521301, 0.03646799176931381, 0.03786744177341461, 0.03926689177751541, 0.04066634178161621, 0.04206579178571701, 0.04346523806452751, 0.04486468806862831]}, "_wandb": {"runtime": 212}}