{"train_loss": 0.8823804259300232, "train_ssl_loss": 0.8603099584579468, "train_tsk_loss": 0.022070387378335, "test_loss": 0.6681085824966431, "test_ssl_loss": 0.6453649401664734, "test_tsk_loss": 0.022743646055459976, "_timestamp": 1697563097.6917858, "_runtime": 118.37994885444641, "_step": 49, "gradients/taskmapper.out.bias": {"_type": "histogram", "values": [0.0, 0.0, 0.0, 0.0, 0.0, 0.0, 0.0, 0.0, 0.0, 0.0, 0.0, 0.0, 0.0, 0.0, 0.0, 0.0, 0.0, 0.0, 0.0, 0.0, 0.0, 0.0, 0.0, 0.0, 0.0, 0.0, 0.0, 0.0, 0.0, 0.0, 0.0, 0.0, 1.0, 0.0, 0.0, 0.0, 0.0, 0.0, 0.0, 0.0, 0.0, 0.0, 0.0, 0.0, 0.0, 0.0, 0.0, 0.0, 0.0, 0.0, 0.0, 0.0, 0.0, 0.0, 0.0, 0.0, 0.0, 0.0, 0.0, 0.0, 0.0, 0.0, 0.0, 0.0], "bins": [-0.06516417860984802, -0.06516417860984802, -0.06516417860984802, -0.06516417860984802, -0.06516417860984802, -0.06516417860984802, -0.06516417860984802, -0.06516417860984802, -0.06516417860984802, -0.06516417860984802, -0.06516417860984802, -0.06516417860984802, -0.06516417860984802, -0.06516417860984802, -0.06516417860984802, -0.06516417860984802, -0.06516417860984802, -0.06516417860984802, -0.06516417860984802, -0.06516417860984802, -0.06516417860984802, -0.06516417860984802, -0.06516417860984802, -0.06516417860984802, -0.06516417860984802, -0.06516417860984802, -0.06516417860984802, -0.06516417860984802, -0.06516417860984802, -0.06516417860984802, -0.06516417860984802, -0.06516417860984802, -0.06516417860984802, -0.06516417860984802, -0.06516417860984802, -0.06516417860984802, -0.06516417860984802, -0.06516417860984802, -0.06516417860984802, -0.06516417860984802, -0.06516417860984802, -0.06516417860984802, -0.06516417860984802, -0.06516417860984802, -0.06516417860984802, -0.06516417860984802, -0.06516417860984802, -0.06516417860984802, -0.06516417860984802, -0.06516417860984802, -0.06516417860984802, -0.06516417860984802, -0.06516417860984802, -0.06516417860984802, -0.06516417860984802, -0.06516417860984802, -0.06516417860984802, -0.06516417860984802, -0.06516417860984802, -0.06516417860984802, -0.06516417860984802, -0.06516417860984802, -0.06516417860984802, -0.06516417860984802, -0.06516417860984802]}, "gradients/taskmapper.out.weight": {"_type": "histogram", "values": [1.0, 0.0, 0.0, 0.0, 0.0, 0.0, 2.0, 0.0, 0.0, 0.0, 0.0, 0.0, 0.0, 0.0, 0.0, 0.0, 0.0, 0.0, 0.0, 1.0, 0.0, 0.0, 0.0, 0.0, 0.0, 0.0, 0.0, 0.0, 0.0, 0.0, 0.0, 0.0, 0.0, 1.0, 0.0, 0.0, 0.0, 0.0, 0.0, 0.0, 0.0, 0.0, 0.0, 1.0, 1.0, 0.0, 0.0, 0.0, 0.0, 0.0, 0.0, 0.0, 0.0, 0.0, 0.0, 0.0, 0.0, 0.0, 0.0, 1.0, 1.0, 0.0, 0.0, 7.0], "bins": [-0.01580766960978508, -0.015559818595647812, -0.015311968512833118, -0.01506411749869585, -0.014816266484558582, -0.014568415470421314, -0.01432056538760662, -0.014072714373469353, -0.013824863359332085, -0.013577012345194817, -0.013329162262380123, -0.013081311248242855, -0.012833460234105587, -0.012585609219968319, -0.012337759137153625, -0.012089908123016357, -0.01184205710887909, -0.011594206094741821, -0.011346356011927128, -0.01109850499778986, -0.010850653983652592, -0.010602802969515324, -0.01035495288670063, -0.010107101872563362, -0.009859251789748669, -0.0096114007756114, -0.009363550692796707, -0.009115699678659439, -0.008867848664522171, -0.008619997650384903, -0.00837214756757021, -0.008124296553432941, -0.007876445539295673, -0.007628594990819693, -0.0073807439766824245, -0.007132893428206444, -0.006885042414069176, -0.006637191865593195, -0.006389341317117214, -0.006141490302979946, -0.005893639754503965, -0.005645789206027985, -0.0053979381918907166, -0.005150087643414736, -0.004902236629277468, -0.004654386080801487, -0.004406535066664219, -0.004158684518188238, -0.003910833969712257, -0.003662983188405633, -0.0034151324070990086, -0.003167281858623028, -0.0029194308444857597, -0.002671580296009779, -0.0024237295147031546, -0.00217587873339653, -0.001928027719259262, -0.0016801769379526377, -0.0014323261566460133, -0.0011844754917547107, -0.0009366247104480863, -0.0006887739291414618, -0.00044092326425015926, -0.00019307248294353485, 5.477828381117433e-05]}, "gradients/taskmapper.lins.1.bias": {"_type": "histogram", "values": [2.0, 0.0, 0.0, 0.0, 1.0, 0.0, 0.0, 0.0, 0.0, 1.0, 0.0, 0.0, 0.0, 0.0, 1.0, 0.0, 0.0, 0.0, 0.0, 0.0, 0.0, 0.0, 0.0, 0.0, 0.0, 1.0, 0.0, 0.0, 1.0, 0.0, 0.0, 0.0, 0.0, 0.0, 0.0, 0.0, 0.0, 1.0, 5.0, 0.0, 1.0, 0.0, 0.0, 0.0, 0.0, 0.0, 0.0, 0.0, 0.0, 0.0, 0.0, 1.0, 0.0, 0.0, 0.0, 0.0, 0.0, 0.0, 0.0, 0.0, 0.0, 0.0, 0.0, 1.0], "bins": [-0.018911238759756088, -0.01842464692890644, -0.017938053235411644, -0.017451461404561996, -0.01696486957371235, -0.0164782777428627, -0.015991684049367905, -0.015505092218518257, -0.01501850038766861, -0.014531907625496387, -0.01404531579464674, -0.013558723032474518, -0.01307213120162487, -0.012585538439452648, -0.012098945677280426, -0.011612353846430779, -0.011125761084258556, -0.010639168322086334, -0.010152576491236687, -0.009665983729064465, -0.009179391898214817, -0.008692799136042595, -0.008206207305192947, -0.007719614543020725, -0.00723302224650979, -0.006746429949998856, -0.006259837653487921, -0.005773245356976986, -0.005286652594804764, -0.004800060763955116, -0.004313468001782894, -0.0038268757052719593, -0.0033402834087610245, -0.0028536911122500896, -0.002367098815739155, -0.0018805062863975763, -0.0013939139898866415, -0.0009073216933757067, -0.0004207291640341282, 6.586313247680664e-05, 0.0005524554289877415, 0.0010390477254986763, 0.001525640138424933, 0.0020122325513511896, 0.0024988248478621244, 0.0029854171443730593, 0.0034720096737146378, 0.003958601970225573, 0.004445194266736507, 0.004931786563247442, 0.005418378859758377, 0.005904971621930599, 0.006391563452780247, 0.006878156214952469, 0.007364748511463404, 0.007851340807974339, 0.00833793357014656, 0.008824526332318783, 0.00931111816316843, 0.009797710925340652, 0.0102843027561903, 0.010770895518362522, 0.011257488280534744, 0.011744080111384392, 0.01223067194223404]}, "gradients/taskmapper.lins.1.weight": {"_type": "histogram", "values": [2.0, 0.0, 2.0, 1.0, 0.0, 1.0, 0.0, 0.0, 1.0, 0.0, 3.0, 0.0, 2.0, 0.0, 1.0, 2.0, 1.0, 1.0, 0.0, 3.0, 2.0, 4.0, 4.0, 2.0, 3.0, 3.0, 4.0, 6.0, 7.0, 15.0, 11.0, 15.0, 23.0, 61.0, 161.0, 13.0, 5.0, 5.0, 3.0, 2.0, 3.0, 3.0, 0.0, 3.0, 0.0, 3.0, 0.0, 0.0, 0.0, 1.0, 0.0, 0.0, 0.0, 0.0, 0.0, 0.0, 0.0, 0.0, 0.0, 0.0, 0.0, 0.0, 1.0, 1.0], "bins": [-0.004252375103533268, -0.004127619322389364, -0.004002863075584173, -0.0038781072944402695, -0.003753351280465722, -0.0036285952664911747, -0.003503839485347271, -0.0033790834713727236, -0.003254327457398176, -0.003129571443423629, -0.0030048154294490814, -0.0028800596483051777, -0.0027553036343306303, -0.002630547620356083, -0.002505791839212179, -0.002381035825237632, -0.0022562798112630844, -0.002131523797288537, -0.0020067677833139896, -0.001882012002170086, -0.0017572559881955385, -0.0016324999742209911, -0.0015077440766617656, -0.00138298817910254, -0.0012582321651279926, -0.0011334761511534452, -0.0010087202535942197, -0.0008839642978273332, -0.0007592083420604467, -0.0006344523862935603, -0.0005096964305266738, -0.0003849404747597873, -0.00026018498465418816, -0.00013542902888730168, -1.067307312041521e-05, 0.00011408288264647126, 0.00023883883841335773, 0.0003635947941802442, 0.0004883507499471307, 0.0006131067057140172, 0.0007378626614809036, 0.0008626186172477901, 0.0009873745730146766, 0.0011121304705739021, 0.0012368864845484495, 0.001361642498522997, 0.0014863983960822225, 0.001611154293641448, 0.0017359103076159954, 0.0018606663215905428, 0.00198542233556509, 0.002110178116708994, 0.0022349341306835413, 0.0023596901446580887, 0.0024844459258019924, 0.00260920193977654, 0.002733957953751087, 0.0028587139677256346, 0.002983469981700182, 0.0031082257628440857, 0.003232981776818633, 0.0033577377907931805, 0.003482493571937084, 0.0036072495859116316, 0.003732005599886179]}, "gradients/taskmapper.lins.0.bias": {"_type": "histogram", "values": [1.0, 0.0, 1.0, 0.0, 0.0, 0.0, 0.0, 0.0, 0.0, 0.0, 0.0, 0.0, 0.0, 0.0, 2.0, 0.0, 1.0, 0.0, 1.0, 0.0, 0.0, 0.0, 0.0, 0.0, 1.0, 0.0, 2.0, 0.0, 0.0, 0.0, 1.0, 0.0, 0.0, 0.0, 0.0, 0.0, 0.0, 0.0, 1.0, 1.0, 0.0, 0.0, 1.0, 0.0, 2.0, 0.0, 1.0, 0.0, 0.0, 0.0, 1.0, 1.0, 1.0, 0.0, 1.0, 0.0, 1.0, 1.0, 0.0, 0.0, 0.0, 1.0, 0.0, 1.0], "bins": [-0.01159912720322609, -0.011373681016266346, -0.011148233897984028, -0.010922787711024284, -0.01069734152406454, -0.010471894405782223, -0.01024644821882248, -0.010021002031862736, -0.009795554913580418, -0.009570108726620674, -0.009344661608338356, -0.009119215421378613, -0.008893769234418869, -0.008668322116136551, -0.008442875929176807, -0.008217429742217064, -0.00799198355525732, -0.00776653690263629, -0.007541090715676546, -0.007315644063055515, -0.0070901974104344845, -0.006864751223474741, -0.00663930457085371, -0.006413858383893967, -0.0061884112656116486, -0.005962964612990618, -0.005737518426030874, -0.0055120717734098434, -0.005286625120788813, -0.005061178933829069, -0.004835732281208038, -0.004610286094248295, -0.004384839441627264, -0.004159392789006233, -0.00393394660204649, -0.003708499949425459, -0.0034830535296350718, -0.0032576071098446846, -0.003032160457223654, -0.0028067140374332666, -0.0025812676176428795, -0.0023558211978524923, -0.0021303745452314615, -0.0019049281254410744, -0.0016794817056506872, -0.0014540351694449782, -0.0012285886332392693, -0.001003142213448882, -0.0007776955608278513, -0.0005522490828298032, -0.0003268025757279247, -0.00010135606862604618, 0.00012409040937200189, 0.00034953688737004995, 0.0005749834235757589, 0.0008004298433661461, 0.001025876379571855, 0.001251322915777564, 0.0014767693355679512, 0.0017022158717736602, 0.0019276624079793692, 0.0021531088277697563, 0.002378555480390787, 0.0026040016673505306, 0.0028294483199715614]}, "gradients/taskmapper.lins.0.weight": {"_type": "histogram", "values": [1.0, 0.0, 0.0, 0.0, 0.0, 1.0, 0.0, 0.0, 0.0, 2.0, 4.0, 1.0, 1.0, 2.0, 2.0, 0.0, 2.0, 4.0, 3.0, 1.0, 3.0, 5.0, 2.0, 1.0, 8.0, 8.0, 14.0, 9.0, 11.0, 8.0, 17.0, 23.0, 29.0, 48.0, 68.0, 127.0, 97.0, 55.0, 34.0, 22.0, 25.0, 23.0, 14.0, 14.0, 9.0, 7.0, 11.0, 9.0, 10.0, 6.0, 3.0, 6.0, 4.0, 2.0, 2.0, 1.0, 3.0, 0.0, 2.0, 2.0, 0.0, 1.0, 0.0, 1.0], "bins": [-0.0029499991796910763, -0.0028678392991423607, -0.0027856796514242887, -0.002703519770875573, -0.0026213601231575012, -0.0025392002426087856, -0.00245704036206007, -0.002374880714341998, -0.0022927208337932825, -0.002210560953244567, -0.002128401305526495, -0.0020462414249777794, -0.0019640817772597075, -0.0018819218967109919, -0.001799762132577598, -0.0017176023684442043, -0.0016354426043108106, -0.0015532828401774168, -0.001471123076044023, -0.0013889633119106293, -0.0013068034313619137, -0.00122464366722852, -0.0011424839030951262, -0.0010603240225464106, -0.0009781643748283386, -0.0008960046106949449, -0.0008138447883538902, -0.0007316850242204964, -0.0006495252018794417, -0.000567365437746048, -0.0004852056736126542, -0.00040304585127159953, -0.00032088602893054485, -0.00023872623569332063, -0.00015656645700801164, -7.440667832270265e-05, 7.753114914521575e-06, 8.99129081517458e-05, 0.00017207267228513956, 0.00025423249462619424, 0.000336392258759588, 0.0004185520519968122, 0.0005007118452340364, 0.0005828716093674302, 0.000665031373500824, 0.0007471911958418787, 0.0008293509599752724, 0.0009115107823163271, 0.0009936705464497209, 0.0010758303105831146, 0.0011579900747165084, 0.0012401498388499022, 0.0013223097193986177, 0.0014044694835320115, 0.0014866292476654053, 0.0015687891282141209, 0.0016509487759321928, 0.0017331085400655866, 0.0018152683041989803, 0.001897428184747696, 0.001979587832465768, 0.0020617477130144835, 0.0021439073607325554, 0.002226067241281271, 0.0023082271218299866]}, "gradients/_projector.0.bias": {"_type": "histogram", "values": [1.0, 0.0, 0.0, 0.0, 0.0, 1.0, 0.0, 0.0, 0.0, 0.0, 0.0, 0.0, 0.0, 1.0, 0.0, 0.0, 0.0, 1.0, 0.0, 2.0, 1.0, 1.0, 0.0, 0.0, 0.0, 0.0, 1.0, 0.0, 2.0, 0.0, 1.0, 0.0, 1.0, 0.0, 1.0, 0.0, 1.0, 2.0, 1.0, 3.0, 1.0, 1.0, 1.0, 0.0, 2.0, 1.0, 1.0, 1.0, 0.0, 0.0, 1.0, 0.0, 0.0, 0.0, 0.0, 1.0, 0.0, 0.0, 0.0, 0.0, 0.0, 0.0, 0.0, 1.0], "bins": [-0.047570858150720596, -0.045973505824804306, -0.04437614977359772, -0.04277879744768143, -0.04118144512176514, -0.039584092795848846, -0.03798673674464226, -0.03638938441872597, -0.03479203209280968, -0.03319467976689339, -0.0315973237156868, -0.029999971389770508, -0.028402619063854218, -0.026805264875292778, -0.02520791068673134, -0.023610558360815048, -0.02201320417225361, -0.02041584998369217, -0.01881849765777588, -0.01722114346921444, -0.015623791143298149, -0.01402643695473671, -0.012429083697497845, -0.01083173044025898, -0.009234377183020115, -0.00763702392578125, -0.006039670668542385, -0.004442316945642233, -0.002844963688403368, -0.0012476099655032158, 0.0003497432917356491, 0.001947096548974514, 0.003544449806213379, 0.005141803063452244, 0.006739156320691109, 0.008336510509252548, 0.009933862835168839, 0.011531217023730278, 0.013128570280969143, 0.014725923538208008, 0.016323275864124298, 0.017920630052685738, 0.019517982378602028, 0.021115336567163467, 0.022712688893079758, 0.024310043081641197, 0.025907397270202637, 0.027504749596118927, 0.029102103784680367, 0.030699457973241806, 0.032296810299158096, 0.03389416262507439, 0.035491518676280975, 0.037088871002197266, 0.038686223328113556, 0.040283575654029846, 0.041880931705236435, 0.043478284031152725, 0.045075640082359314, 0.046672992408275604, 0.048270344734191895, 0.049867697060108185, 0.051465053111314774, 0.053062405437231064, 0.054659757763147354]}, "gradients/_projector.0.weight": {"_type": "histogram", "values": [1.0, 0.0, 2.0, 0.0, 4.0, 4.0, 5.0, 8.0, 11.0, 11.0, 15.0, 14.0, 33.0, 35.0, 45.0, 59.0, 64.0, 86.0, 75.0, 117.0, 132.0, 147.0, 169.0, 176.0, 191.0, 202.0, 227.0, 226.0, 216.0, 198.0, 224.0, 191.0, 204.0, 177.0, 145.0, 107.0, 106.0, 91.0, 81.0, 70.0, 54.0, 38.0, 35.0, 21.0, 20.0, 11.0, 18.0, 8.0, 7.0, 3.0, 0.0, 4.0, 5.0, 0.0, 0.0, 1.0, 0.0, 1.0, 0.0, 0.0, 0.0, 0.0, 0.0, 1.0], "bins": [-0.07250848412513733, -0.06990689039230347, -0.0673053041100502, -0.06470371782779694, -0.062102124094963074, -0.05950053408741951, -0.056898944079875946, -0.05429735407233238, -0.05169576406478882, -0.049094174057245255, -0.04649258404970169, -0.04389099404215813, -0.04128940403461456, -0.038687814027071, -0.036086224019527435, -0.03348463401198387, -0.030883044004440308, -0.028281453996896744, -0.02567986398935318, -0.023078273981809616, -0.020476683974266052, -0.01787509396672249, -0.015273503959178925, -0.01267191395163536, -0.010070323944091797, -0.007468733936548233, -0.004867143929004669, -0.0022655539214611053, 0.0003360360860824585, 0.0029376260936260223, 0.005539216101169586, 0.00814080610871315, 0.010742396116256714, 0.013343986123800278, 0.01594557613134384, 0.018547166138887405, 0.02114875614643097, 0.023750346153974533, 0.026351936161518097, 0.02895352616906166, 0.031555116176605225, 0.03415670618414879, 0.03675829619169235, 0.039359886199235916, 0.04196147620677948, 0.044563066214323044, 0.04716465622186661, 0.04976624622941017, 0.052367836236953735, 0.0549694262444973, 0.05757101625204086, 0.06017260625958443, 0.06277419626712799, 0.06537578999996185, 0.06797737628221512, 0.07057896256446838, 0.07318055629730225, 0.07578215003013611, 0.07838373631238937, 0.08098532259464264, 0.0835869163274765, 0.08618851006031036, 0.08879009634256363, 0.0913916826248169, 0.09399327635765076]}, "gradients/_encoder.encoder.8.bias": {"_type": "histogram", "values": [1.0, 0.0, 0.0, 0.0, 0.0, 0.0, 0.0, 0.0, 0.0, 0.0, 0.0, 0.0, 0.0, 0.0, 0.0, 1.0, 0.0, 1.0, 0.0, 1.0, 0.0, 2.0, 1.0, 1.0, 1.0, 1.0, 4.0, 4.0, 1.0, 3.0, 6.0, 1.0, 2.0, 5.0, 5.0, 5.0, 4.0, 7.0, 6.0, 6.0, 5.0, 8.0, 6.0, 5.0, 4.0, 5.0, 1.0, 4.0, 3.0, 2.0, 0.0, 3.0, 5.0, 2.0, 0.0, 0.0, 2.0, 1.0, 0.0, 0.0, 1.0, 1.0, 0.0, 1.0], "bins": [-0.05543847009539604, -0.05402327701449394, -0.05260808393359184, -0.051192887127399445, -0.049777694046497345, -0.048362500965595245, -0.046947307884693146, -0.045532114803791046, -0.04411692172288895, -0.04270172864198685, -0.04128653556108475, -0.03987134248018265, -0.03845614567399025, -0.03704095259308815, -0.03562575951218605, -0.03421056643128395, -0.03279536962509155, -0.03138017654418945, -0.029964981600642204, -0.028549788519740105, -0.027134593576192856, -0.025719400495290756, -0.024304207414388657, -0.022889014333486557, -0.021473819389939308, -0.02005862630903721, -0.01864343136548996, -0.01722823828458786, -0.01581304520368576, -0.014397850260138512, -0.012982657179236412, -0.011567463167011738, -0.010152272880077362, -0.008737078867852688, -0.007321885321289301, -0.005906691774725914, -0.00449149776250124, -0.0030763037502765656, -0.001661110669374466, -0.0002459166571497917, 0.0011692773550748825, 0.002584471134468913, 0.003999664913862944, 0.005414858460426331, 0.006830052472651005, 0.008245246484875679, 0.009660439565777779, 0.011075633578002453, 0.012490827590227127, 0.013906021602451801, 0.015321215614676476, 0.016736408695578575, 0.018151603639125824, 0.019566796720027924, 0.020981989800930023, 0.022397182881832123, 0.02381237782537937, 0.02522757090628147, 0.02664276584982872, 0.02805795893073082, 0.02947315201163292, 0.030888346955180168, 0.03230354189872742, 0.03371873497962952, 0.035133928060531616]}, "gradients/_encoder.encoder.8.weight": {"_type": "histogram", "values": [1.0, 0.0, 0.0, 0.0, 0.0, 0.0, 2.0, 2.0, 1.0, 2.0, 7.0, 13.0, 10.0, 12.0, 25.0, 43.0, 50.0, 78.0, 94.0, 146.0, 175.0, 256.0, 348.0, 449.0, 557.0, 658.0, 769.0, 910.0, 1048.0, 1156.0, 1218.0, 1187.0, 1138.0, 1070.0, 1050.0, 788.0, 705.0, 619.0, 427.0, 353.0, 273.0, 231.0, 150.0, 106.0, 80.0, 55.0, 34.0, 22.0, 22.0, 14.0, 7.0, 10.0, 5.0, 0.0, 4.0, 1.0, 1.0, 0.0, 1.0, 0.0, 0.0, 0.0, 0.0, 1.0], "bins": [-0.05921541899442673, -0.057306479662656784, -0.05539754033088684, -0.0534886009991169, -0.051579661667346954, -0.04967071861028671, -0.04776177927851677, -0.045852839946746826, -0.04394390061497688, -0.04203496128320694, -0.040126021951436996, -0.03821708261966705, -0.03630813956260681, -0.03439920395612717, -0.032490260899066925, -0.030581321567296982, -0.02867238223552704, -0.026763442903757095, -0.024854503571987152, -0.02294556237757206, -0.021036623045802116, -0.019127683714032173, -0.01721874251961708, -0.015309803187847137, -0.013400863856077194, -0.011491924524307251, -0.009582984261214733, -0.007674044463783503, -0.005765104666352272, -0.003856165334582329, -0.001947225071489811, -3.828480839729309e-05, 0.0018706545233726501, 0.0037795943208038807, 0.005688534118235111, 0.007597473915666342, 0.009506413713097572, 0.011415353044867516, 0.013324293307960033, 0.015233233571052551, 0.017142172902822495, 0.019051112234592438, 0.02096005156636238, 0.022868992760777473, 0.024777932092547417, 0.02668687142431736, 0.028595812618732452, 0.030504751950502396, 0.03241369128227234, 0.03432263061404228, 0.036231569945812225, 0.03814050927758217, 0.04004944860935211, 0.041958391666412354, 0.0438673309981823, 0.04577627032995224, 0.04768520966172218, 0.049594148993492126, 0.05150308832526207, 0.05341202765703201, 0.055320970714092255, 0.0572299063205719, 0.05913884937763214, 0.061047788709402084, 0.06295672804117203]}, "gradients/_encoder.encoder.5.weight": {"_type": "histogram", "values": [1.0, 0.0, 0.0, 0.0, 0.0, 0.0, 0.0, 0.0, 1.0, 0.0, 0.0, 1.0, 0.0, 0.0, 0.0, 0.0, 1.0, 3.0, 1.0, 2.0, 1.0, 1.0, 0.0, 0.0, 0.0, 3.0, 5.0, 3.0, 3.0, 4.0, 2.0, 4.0, 4.0, 3.0, 5.0, 6.0, 2.0, 2.0, 6.0, 4.0, 10.0, 2.0, 4.0, 4.0, 3.0, 6.0, 6.0, 3.0, 5.0, 4.0, 2.0, 3.0, 0.0, 1.0, 2.0, 0.0, 2.0, 1.0, 1.0, 0.0, 0.0, 0.0, 0.0, 1.0], "bins": [-0.02005145326256752, -0.01952507160604, -0.01899868994951248, -0.018472308292984962, -0.017945926636457443, -0.017419544979929924, -0.016893163323402405, -0.016366781666874886, -0.015840400010347366, -0.015314018353819847, -0.014787636697292328, -0.014261255040764809, -0.01373487338423729, -0.01320849172770977, -0.012682110071182251, -0.012155728414654732, -0.011629346758127213, -0.011102965101599693, -0.010576583445072174, -0.010050201788544655, -0.009523820132017136, -0.008997438475489616, -0.008471056818962097, -0.007944675162434578, -0.007418293505907059, -0.0068919118493795395, -0.00636553019285202, -0.005839148536324501, -0.005312766879796982, -0.004786385223269463, -0.004260003566741943, -0.003733621910214424, -0.003207242116332054, -0.002680860459804535, -0.0021544788032770157, -0.0016280971467494965, -0.0011017154902219772, -0.000575333833694458, -4.895217716693878e-05, 0.00047742947936058044, 0.0010038111358880997, 0.001530192792415619, 0.002056574448943138, 0.0025829561054706573, 0.0031093377619981766, 0.003635719418525696, 0.004162101075053215, 0.004688482731580734, 0.0052148643881082535, 0.005741246044635773, 0.006267627701163292, 0.006794009357690811, 0.00732039101421833, 0.00784677267074585, 0.008373154327273369, 0.008899535983800888, 0.009425917640328407, 0.009952299296855927, 0.010478680953383446, 0.011005062609910965, 0.011531444266438484, 0.012057825922966003, 0.012584207579493523, 0.013110589236021042, 0.013636970892548561]}, "gradients/_encoder.encoder.5.bias": {"_type": "histogram", "values": [1.0, 0.0, 0.0, 0.0, 0.0, 0.0, 1.0, 0.0, 0.0, 0.0, 1.0, 1.0, 0.0, 0.0, 1.0, 1.0, 1.0, 2.0, 0.0, 3.0, 0.0, 5.0, 7.0, 5.0, 3.0, 6.0, 4.0, 6.0, 8.0, 4.0, 6.0, 1.0, 9.0, 5.0, 6.0, 5.0, 6.0, 3.0, 3.0, 5.0, 2.0, 5.0, 2.0, 1.0, 2.0, 2.0, 1.0, 1.0, 0.0, 1.0, 1.0, 0.0, 0.0, 0.0, 0.0, 0.0, 0.0, 0.0, 0.0, 0.0, 0.0, 0.0, 0.0, 1.0], "bins": [-0.03224318474531174, -0.03118562325835228, -0.03012806363403797, -0.029070502147078514, -0.028012942522764206, -0.02695538103580475, -0.02589781954884529, -0.024840258061885834, -0.023782698437571526, -0.022725136950612068, -0.02166757732629776, -0.020610015839338303, -0.019552454352378845, -0.018494894728064537, -0.01743733324110508, -0.01637977361679077, -0.015322212129831314, -0.014264651574194431, -0.013207091018557549, -0.012149529531598091, -0.011091968975961208, -0.010034408420324326, -0.008976846933364868, -0.007919286377727985, -0.006861725822091103, -0.00580416526645422, -0.00474660424515605, -0.0036890434566885233, -0.002631482668220997, -0.001573922112584114, -0.000516361091285944, 0.0005411999300122261, 0.0015987567603588104, 0.002656317548826337, 0.0037138783372938633, 0.004771439358592033, 0.005828999914228916, 0.006886560469865799, 0.007944121956825256, 0.009001682512462139, 0.010059243068099022, 0.011116803623735905, 0.012174364179372787, 0.013231925666332245, 0.014289486221969128, 0.01534704677760601, 0.016404608264565468, 0.017462167888879776, 0.018519729375839233, 0.01957729086279869, 0.020634850487113, 0.021692411974072456, 0.022749971598386765, 0.023807533085346222, 0.02486509457230568, 0.025922656059265137, 0.026980215683579445, 0.028037777170538902, 0.02909533679485321, 0.030152898281812668, 0.031210459768772125, 0.032268017530441284, 0.03332557901740074, 0.0343831405043602, 0.035440701991319656]}, "gradients/_encoder.encoder.4.bias": {"_type": "histogram", "values": [1.0, 0.0, 0.0, 1.0, 1.0, 0.0, 0.0, 0.0, 0.0, 2.0, 1.0, 0.0, 1.0, 2.0, 2.0, 1.0, 3.0, 6.0, 11.0, 2.0, 6.0, 4.0, 5.0, 2.0, 4.0, 9.0, 8.0, 17.0, 1.0, 8.0, 3.0, 2.0, 1.0, 1.0, 3.0, 6.0, 3.0, 1.0, 0.0, 2.0, 2.0, 0.0, 1.0, 0.0, 0.0, 1.0, 2.0, 0.0, 0.0, 0.0, 0.0, 0.0, 0.0, 0.0, 1.0, 0.0, 0.0, 0.0, 0.0, 0.0, 0.0, 0.0, 0.0, 1.0], "bins": [-6.28642737865448e-09, -6.028130883350968e-09, -5.769834388047457e-09, -5.511537892743945e-09, -5.2532413974404335e-09, -4.994944902136922e-09, -4.73664840683341e-09, -4.478351911529899e-09, -4.220055416226387e-09, -3.961758920922875e-09, -3.7034624256193638e-09, -3.445165930315852e-09, -3.1868694350123405e-09, -2.928572939708829e-09, -2.6702764444053173e-09, -2.4119799491018057e-09, -2.153683453798294e-09, -1.8953869584947824e-09, -1.6370904631912708e-09, -1.3787939678877592e-09, -1.1204974725842476e-09, -8.62200977280736e-10, -6.039044819772243e-10, -3.4560798667371273e-10, -8.731149137020111e-11, 1.709850039333105e-10, 4.2928149923682213e-10, 6.875779945403337e-10, 9.458744898438454e-10, 1.204170985147357e-09, 1.4624674804508686e-09, 1.7207639757543802e-09, 1.979060471057892e-09, 2.2373569663614035e-09, 2.495653461664915e-09, 2.7539499569684267e-09, 3.0122464522719383e-09, 3.27054294757545e-09, 3.5288394428789616e-09, 3.787135938182473e-09, 4.045432433485985e-09, 4.3037289287894964e-09, 4.562025424093008e-09, 4.82032191939652e-09, 5.078618414700031e-09, 5.336914910003543e-09, 5.5952114053070545e-09, 5.853507900610566e-09, 6.111804395914078e-09, 6.370100891217589e-09, 6.628397386521101e-09, 6.886693881824613e-09, 7.144990377128124e-09, 7.403286872431636e-09, 7.661583367735147e-09, 7.919879863038659e-09, 8.17817635834217e-09, 8.436472853645682e-09, 8.694769348949194e-09, 8.953065844252706e-09, 9.211362339556217e-09, 9.469658834859729e-09, 9.72795533016324e-09, 9.986251825466752e-09, 1.0244548320770264e-08]}, "gradients/_encoder.encoder.4.weight": {"_type": "histogram", "values": [1.0, 0.0, 3.0, 0.0, 0.0, 2.0, 3.0, 2.0, 3.0, 9.0, 7.0, 6.0, 12.0, 25.0, 34.0, 39.0, 47.0, 68.0, 96.0, 122.0, 160.0, 235.0, 293.0, 411.0, 479.0, 638.0, 804.0, 1006.0, 1099.0, 1248.0, 1362.0, 1235.0, 1195.0, 1144.0, 972.0, 826.0, 651.0, 537.0, 380.0, 288.0, 245.0, 203.0, 119.0, 108.0, 73.0, 49.0, 34.0, 35.0, 23.0, 16.0, 8.0, 8.0, 3.0, 6.0, 4.0, 3.0, 1.0, 1.0, 2.0, 0.0, 0.0, 0.0, 0.0, 1.0], "bins": [-0.07068993151187897, -0.06842821836471558, -0.06616651266813278, -0.06390479952096939, -0.061643086373806, -0.05938137695193291, -0.057119667530059814, -0.05485795438289642, -0.05259624496102333, -0.05033453553915024, -0.04807282239198685, -0.045811112970113754, -0.04354940354824066, -0.04128769040107727, -0.03902598097920418, -0.036764271557331085, -0.034502558410167694, -0.0322408489882946, -0.02997913584113121, -0.027717426419258118, -0.025455715134739876, -0.023194003850221634, -0.02093229442834854, -0.0186705831438303, -0.016408871859312057, -0.014147160574793816, -0.011885450221598148, -0.009623739868402481, -0.007362028583884239, -0.005100317299365997, -0.00283860694617033, -0.0005768965929746628, 0.001684822142124176, 0.003946532960981131, 0.006208243779838085, 0.008469954133033752, 0.010731665417551994, 0.012993376702070236, 0.015255087055265903, 0.01751679740846157, 0.019778508692979813, 0.022040219977498055, 0.024301931262016296, 0.02656364068388939, 0.02882535196840763, 0.031087063252925873, 0.033348772674798965, 0.03561048209667206, 0.03787219524383545, 0.04013390466570854, 0.04239561781287193, 0.044657327234745026, 0.04691904038190842, 0.04918074980378151, 0.0514424592256546, 0.05370417237281799, 0.055965881794691086, 0.05822759121656418, 0.06048930436372757, 0.06275101751089096, 0.06501272320747375, 0.06727443635463715, 0.06953614950180054, 0.07179785519838333, 0.07405956834554672]}, "gradients/_encoder.encoder.1.weight": {"_type": "histogram", "values": [1.0, 0.0, 0.0, 1.0, 0.0, 0.0, 0.0, 1.0, 1.0, 0.0, 2.0, 0.0, 0.0, 4.0, 2.0, 5.0, 1.0, 3.0, 2.0, 5.0, 2.0, 1.0, 5.0, 5.0, 3.0, 5.0, 4.0, 5.0, 4.0, 5.0, 3.0, 3.0, 3.0, 4.0, 7.0, 2.0, 4.0, 3.0, 6.0, 3.0, 1.0, 3.0, 1.0, 3.0, 4.0, 2.0, 1.0, 0.0, 2.0, 4.0, 0.0, 1.0, 0.0, 0.0, 0.0, 0.0, 0.0, 0.0, 0.0, 0.0, 0.0, 0.0, 0.0, 1.0], "bins": [-0.019586889073252678, -0.018927551805973053, -0.018268214538693428, -0.017608877271413803, -0.016949540004134178, -0.016290202736854553, -0.01563086546957493, -0.014971528202295303, -0.014312190935015678, -0.013652853667736053, -0.012993516400456429, -0.012334179133176804, -0.011674841865897179, -0.011015504598617554, -0.010356167331337929, -0.009696830064058304, -0.009037493728101254, -0.008378156460821629, -0.007718819193542004, -0.007059481926262379, -0.006400144658982754, -0.005740807391703129, -0.005081470590084791, -0.004422133322805166, -0.0037627960555255413, -0.0031034587882459164, -0.0024441215209662914, -0.0017847844865173101, -0.0011254472192376852, -0.00046610995195806026, 0.00019322708249092102, 0.000852564349770546, 0.001511901617050171, 0.002171238884329796, 0.0028305761516094208, 0.003489913186058402, 0.004149250686168671, 0.004808587953448296, 0.005467924755066633, 0.006127262022346258, 0.006786599289625883, 0.007445936556905508, 0.008105273358523846, 0.00876461062580347, 0.009423947893083096, 0.01008328516036272, 0.010742622427642345, 0.01140195969492197, 0.012061296962201595, 0.01272063422948122, 0.013379971496760845, 0.01403930876404047, 0.014698646031320095, 0.01535798329859972, 0.01601731963455677, 0.016676656901836395, 0.01733599416911602, 0.017995331436395645, 0.01865466870367527, 0.019314005970954895, 0.01997334323823452, 0.020632680505514145, 0.02129201777279377, 0.021951355040073395, 0.02261069230735302]}, "gradients/_encoder.encoder.1.bias": {"_type": "histogram", "values": [1.0, 2.0, 1.0, 0.0, 1.0, 0.0, 2.0, 0.0, 2.0, 4.0, 0.0, 3.0, 4.0, 2.0, 1.0, 1.0, 4.0, 4.0, 4.0, 7.0, 4.0, 1.0, 2.0, 5.0, 1.0, 3.0, 5.0, 2.0, 4.0, 1.0, 3.0, 3.0, 2.0, 4.0, 3.0, 9.0, 2.0, 1.0, 3.0, 0.0, 2.0, 1.0, 4.0, 2.0, 3.0, 1.0, 1.0, 3.0, 1.0, 0.0, 1.0, 0.0, 0.0, 1.0, 1.0, 1.0, 2.0, 0.0, 0.0, 1.0, 1.0, 0.0, 0.0, 1.0], "bins": [-0.02072455734014511, -0.019970517605543137, -0.01921647973358631, -0.018462441861629486, -0.01770840212702751, -0.016954362392425537, -0.016200324520468712, -0.015446285717189312, -0.014692246913909912, -0.013938208110630512, -0.013184169307351112, -0.012430130504071712, -0.011676091700792313, -0.010922052897512913, -0.010168014094233513, -0.009413975290954113, -0.008659936487674713, -0.007905897684395313, -0.007151858881115913, -0.0063978200778365135, -0.005643781274557114, -0.004889742471277714, -0.004135703667998314, -0.003381664864718914, -0.002627626061439514, -0.0018735872581601143, -0.0011195484548807144, -0.00036550965160131454, 0.00038852915167808533, 0.0011425679549574852, 0.001896606758236885, 0.002650645561516285, 0.003404686227440834, 0.004158725030720234, 0.004912763833999634, 0.005666802637279034, 0.0064208414405584335, 0.007174880243837833, 0.007928919047117233, 0.008682957850396633, 0.009436996653676033, 0.010191035456955433, 0.010945074260234833, 0.011699113063514233, 0.012453151866793633, 0.013207190670073032, 0.013961229473352432, 0.014715268276631832, 0.015469307079911232, 0.016223344951868057, 0.016977384686470032, 0.017731424421072006, 0.01848546229302883, 0.019239500164985657, 0.01999353989958763, 0.020747579634189606, 0.02150161750614643, 0.022255655378103256, 0.02300969511270523, 0.023763734847307205, 0.02451777271926403, 0.025271810591220856, 0.02602585032582283, 0.026779890060424805, 0.02753392793238163]}, "gradients/_encoder.encoder.0.bias": {"_type": "histogram", "values": [1.0, 0.0, 0.0, 0.0, 0.0, 0.0, 0.0, 0.0, 0.0, 0.0, 0.0, 0.0, 4.0, 0.0, 0.0, 3.0, 0.0, 2.0, 4.0, 5.0, 3.0, 1.0, 1.0, 7.0, 4.0, 11.0, 2.0, 5.0, 4.0, 6.0, 11.0, 3.0, 4.0, 2.0, 7.0, 5.0, 2.0, 3.0, 1.0, 2.0, 1.0, 1.0, 2.0, 3.0, 3.0, 1.0, 2.0, 0.0, 1.0, 1.0, 0.0, 1.0, 1.0, 2.0, 1.0, 1.0, 0.0, 1.0, 1.0, 0.0, 1.0, 0.0, 0.0, 1.0], "bins": [-5.364418029785156e-07, -5.190959200263023e-07, -5.01750037074089e-07, -4.844041541218758e-07, -4.670582711696625e-07, -4.497123882174492e-07, -4.323665052652359e-07, -4.150206223130226e-07, -3.976747393608093e-07, -3.8032885640859604e-07, -3.6298297345638275e-07, -3.4563709050416946e-07, -3.282912075519562e-07, -3.109453245997429e-07, -2.935994416475296e-07, -2.762535586953163e-07, -2.5890767574310303e-07, -2.4156179279088974e-07, -2.2421590983867645e-07, -2.0687002688646317e-07, -1.8952414393424988e-07, -1.721782609820366e-07, -1.548323780298233e-07, -1.3748649507761002e-07, -1.2014061212539673e-07, -1.0279472917318344e-07, -8.544884622097015e-08, -6.810296326875687e-08, -5.075708031654358e-08, -3.341119736433029e-08, -1.6065314412117004e-08, 1.280568540096283e-09, 1.862645149230957e-08, 3.597233444452286e-08, 5.3318217396736145e-08, 7.066410034894943e-08, 8.800998330116272e-08, 1.0535586625337601e-07, 1.227017492055893e-07, 1.4004763215780258e-07, 1.5739351511001587e-07, 1.7473939806222916e-07, 1.9208528101444244e-07, 2.0943116396665573e-07, 2.2677704691886902e-07, 2.441229298710823e-07, 2.614688128232956e-07, 2.788146957755089e-07, 2.9616057872772217e-07, 3.1350646167993546e-07, 3.3085234463214874e-07, 3.4819822758436203e-07, 3.655441105365753e-07, 3.828899934887886e-07, 4.002358764410019e-07, 4.175817593932152e-07, 4.3492764234542847e-07, 4.5227352529764175e-07, 4.6961940824985504e-07, 4.869652912020683e-07, 5.043111741542816e-07, 5.216570571064949e-07, 5.390029400587082e-07, 5.563488230109215e-07, 5.736947059631348e-07]}, "gradients/_encoder.encoder.0.weight": {"_type": "histogram", "values": [3.0, 2.0, 0.0, 1.0, 3.0, 4.0, 4.0, 8.0, 6.0, 9.0, 17.0, 28.0, 48.0, 71.0, 108.0, 182.0, 273.0, 486.0, 806.0, 1407.0, 2648.0, 4923.0, 9015.0, 15743.0, 25495.0, 22022.0, 12543.0, 7307.0, 4092.0, 2142.0, 1179.0, 596.0, 353.0, 249.0, 128.0, 75.0, 52.0, 30.0, 28.0, 18.0, 6.0, 6.0, 4.0, 0.0, 4.0, 1.0, 0.0, 0.0, 0.0, 0.0, 2.0, 0.0, 0.0, 0.0, 0.0, 0.0, 0.0, 0.0, 0.0, 0.0, 0.0, 0.0, 0.0, 1.0], "bins": [-0.1338173747062683, -0.12841936945915222, -0.12302137911319733, -0.11762338131666183, -0.11222538352012634, -0.10682738572359085, -0.10142938792705536, -0.09603139013051987, -0.09063339233398438, -0.08523539453744888, -0.07983739674091339, -0.0744393989443779, -0.06904140114784241, -0.06364340335130692, -0.05824540555477142, -0.05284740775823593, -0.04744940996170044, -0.04205141216516495, -0.036653414368629456, -0.031255416572093964, -0.02585741877555847, -0.02045942097902298, -0.015061423182487488, -0.009663425385951996, -0.004265427589416504, 0.001132570207118988, 0.00653056800365448, 0.011928565800189972, 0.017326563596725464, 0.022724561393260956, 0.028122559189796448, 0.03352055698633194, 0.03891855478286743, 0.044316552579402924, 0.049714550375938416, 0.05511254817247391, 0.0605105459690094, 0.06590854376554489, 0.07130654156208038, 0.07670453935861588, 0.08210253715515137, 0.08750053495168686, 0.09289853274822235, 0.09829653054475784, 0.10369452834129333, 0.10909252613782883, 0.11449052393436432, 0.11988852173089981, 0.1252865195274353, 0.1306845247745514, 0.1360825151205063, 0.14148050546646118, 0.14687851071357727, 0.15227651596069336, 0.15767450630664825, 0.16307249665260315, 0.16847050189971924, 0.17386850714683533, 0.17926649749279022, 0.18466448783874512, 0.1900624930858612, 0.1954604983329773, 0.2008584886789322, 0.20625647902488708, 0.21165448427200317]}, "_wandb": {"runtime": 141}}